{"cutoff": 6.5, "Gs": {"Pd": [{"eta": 0.05, "type": "G2", "element": "Cu"}, {"eta": 0.05, "type": "G2", "element": "Pd"}, {"eta": 2.0, "type": "G2", "element": "Cu"}, {"eta": 2.0, "type": "G2", "element": "Pd"}, {"eta": 4.0, "type": "G2", "element": "Cu"}, {"eta": 4.0, "type": "G2", "element": "Pd"}, {"eta": 8.0, "type": "G2", "element": "Cu"}, {"eta": 8.0, "type": "G2", "element": "Pd"}, {"eta": 20.0, "type": "G2", "element": "Cu"}, {"eta": 20.0, "type": "G2", "element": "Pd"}, {"eta": 40.0, "type": "G2", "element": "Cu"}, {"eta": 40.0, "type": "G2", "element": "Pd"}, {"eta": 80.0, "type": "G2", "element": "Cu"}, {"eta": 80.0, "type": "G2", "element": "Pd"}, {"zeta": 1.0, "elements": ["Cu", "Cu"], "type": "G4", "gamma": 1.0, "eta": 0.005}, {"zeta": 1.0, "elements": ["Cu", "Pd"], "type": "G4", "gamma": 1.0, "eta": 0.005}, {"zeta": 1.0, "elements": ["Pd", "Pd"], "type": "G4", "gamma": 1.0, "eta": 0.005}, {"zeta": 1.0, "elements": ["Cu", "Cu"], "type": "G4", "gamma": -1.0, "eta": 0.005}, {"zeta": 1.0, "elements": ["Cu", "Pd"], "type": "G4", "gamma": -1.0, "eta": 0.005}, {"zeta": 1.0, "elements": ["Pd", "Pd"], "type": "G4", "gamma": -1.0, "eta": 0.005}, {"zeta": 2.0, "elements": ["Cu", "Cu"], "type": "G4", "gamma": 1.0, "eta": 0.005}, {"zeta": 2.0, "elements": ["Cu", "Pd"], "type": "G4", "gamma": 1.0, "eta": 0.005}, {"zeta": 2.0, "elements": ["Pd", "Pd"], "type": "G4", "gamma": 1.0, "eta": 0.005}, {"zeta": 2.0, "elements": ["Cu", "Cu"], "type": "G4", "gamma": -1.0, "eta": 0.005}, {"zeta": 2.0, "elements": ["Cu", "Pd"], "type": "G4", "gamma": -1.0, "eta": 0.005}, {"zeta": 2.0, "elements": ["Pd", "Pd"], "type": "G4", "gamma": -1.0, "eta": 0.005}, {"zeta": 4.0, "elements": ["Cu", "Cu"], "type": "G4", "gamma": 1.0, "eta": 0.005}, {"zeta": 4.0, "elements": ["Cu", "Pd"], "type": "G4", "gamma": 1.0, "eta": 0.005}, {"zeta": 4.0, "elements": ["Pd", "Pd"], "type": "G4", "gamma": 1.0, "eta": 0.005}, {"zeta": 4.0, "elements": ["Cu", "Cu"], "type": "G4", "gamma": -1.0, "eta": 0.005}, {"zeta": 4.0, "elements": ["Cu", "Pd"], "type": "G4", "gamma": -1.0, "eta": 0.005}, {"zeta": 4.0, "elements": ["Pd", "Pd"], "type": "G4", "gamma": -1.0, "eta": 0.005}], "Cu": [{"eta": 0.05, "type": "G2", "element": "Cu"}, {"eta": 0.05, "type": "G2", "element": "Pd"}, {"eta": 2.0, "type": "G2", "element": "Cu"}, {"eta": 2.0, "type": "G2", "element": "Pd"}, {"eta": 4.0, "type": "G2", "element": "Cu"}, {"eta": 4.0, "type": "G2", "element": "Pd"}, {"eta": 8.0, "type": "G2", "element": "Cu"}, {"eta": 8.0, "type": "G2", "element": "Pd"}, {"eta": 20.0, "type": "G2", "element": "Cu"}, {"eta": 20.0, "type": "G2", "element": "Pd"}, {"eta": 40.0, "type": "G2", "element": "Cu"}, {"eta": 40.0, "type": "G2", "element": "Pd"}, {"eta": 80.0, "type": "G2", "element": "Cu"}, {"eta": 80.0, "type": "G2", "element": "Pd"}, {"zeta": 1.0, "elements": ["Cu", "Cu"], "type": "G4", "gamma": 1.0, "eta": 0.005}, {"zeta": 1.0, "elements": ["Cu", "Pd"], "type": "G4", "gamma": 1.0, "eta": 0.005}, {"zeta": 1.0, "elements": ["Pd", "Pd"], "type": "G4", "gamma": 1.0, "eta": 0.005}, {"zeta": 1.0, "elements": ["Cu", "Cu"], "type": "G4", "gamma": -1.0, "eta": 0.005}, {"zeta": 1.0, "elements": ["Cu", "Pd"], "type": "G4", "gamma": -1.0, "eta": 0.005}, {"zeta": 1.0, "elements": ["Pd", "Pd"], "type": "G4", "gamma": -1.0, "eta": 0.005}, {"zeta": 2.0, "elements": ["Cu", "Cu"], "type": "G4", "gamma": 1.0, "eta": 0.005}, {"zeta": 2.0, "elements": ["Cu", "Pd"], "type": "G4", "gamma": 1.0, "eta": 0.005}, {"zeta": 2.0, "elements": ["Pd", "Pd"], "type": "G4", "gamma": 1.0, "eta": 0.005}, {"zeta": 2.0, "elements": ["Cu", "Cu"], "type": "G4", "gamma": -1.0, "eta": 0.005}, {"zeta": 2.0, "elements": ["Cu", "Pd"], "type": "G4", "gamma": -1.0, "eta": 0.005}, {"zeta": 2.0, "elements": ["Pd", "Pd"], "type": "G4", "gamma": -1.0, "eta": 0.005}, {"zeta": 4.0, "elements": ["Cu", "Cu"], "type": "G4", "gamma": 1.0, "eta": 0.005}, {"zeta": 4.0, "elements": ["Cu", "Pd"], "type": "G4", "gamma": 1.0, "eta": 0.005}, {"zeta": 4.0, "elements": ["Pd", "Pd"], "type": "G4", "gamma": 1.0, "eta": 0.005}, {"zeta": 4.0, "elements": ["Cu", "Cu"], "type": "G4", "gamma": -1.0, "eta": 0.005}, {"zeta": 4.0, "elements": ["Cu", "Pd"], "type": "G4", "gamma": -1.0, "eta": 0.005}, {"zeta": 4.0, "elements": ["Pd", "Pd"], "type": "G4", "gamma": -1.0, "eta": 0.005}]}, "activation": "tanh", "hiddenlayers": {"Pd": [3, 50], "Cu": [3, 50]}, "weights": {"Cu": {"1": [[0.01920720551634987, -0.044894018661318494, -0.004128976741267623], [-0.018720099612714865, -0.01190894194830766, -0.03715020118002215], [0.04392778817522107, -0.012055939634976587, 8.187213989344078e-05], [-0.006927692606596675, -0.03652050413741323, -0.020057685599739906], [0.0025521837703848874, 0.03202472347538746, -0.005269836853089571], [-0.029065006065041084, -0.027380308598965397, 0.0004639613389981548], [-0.033992150838684156, -0.014358007680187752, -0.030261113650184135], [-0.01612430228485447, -0.016570822640104697, 0.037647974008832547], [-0.04604428348729624, 0.02637218585998999, -0.009792472599753618], [0.025535767790901, 0.03960356215955117, -0.022617598601951], [0.00671795091257564, 0.013933253982651182, 0.0458040625201398], [-0.03372484772384433, 0.004307971522388682, 0.040616825904095266], [-0.041239241977361424, 0.012370867122421532, 0.014120858342555845], [-0.019308724949131675, -0.046250045926124576, -0.03743708344888082], [-0.0020113560748419995, 0.02314306245135221, 0.01902779273020702], [0.008259448615429266, 0.045265346711605745, -0.0184225067293916], [0.005313123440897766, 0.0030002606978962454, 0.004513501655558194], [0.035489437855961564, -0.00935016363107935, -0.017156587404099862], [-0.007038248138470371, -0.0043424588221764315, -0.0417361683758095], [0.028720186685798732, -0.01411342071908489, -0.03949919364043096], [-0.025655564420358698, 0.04419646379906644, 0.03059840081525475], [0.0027720049868755897, -0.018221850299073604, -0.015512945933155747], [-0.033703291385936106, 0.038025533771586725, -0.026780010314363955], [-0.012529973479107837, -0.00977643672662204, 0.023880739027963116], [0.033948960483257906, -0.027581035312932524, -0.0069694235093785695], [0.029682954886245477, -0.030860469019082935, -0.013087195702847013], [-0.029895883254343825, 0.0444578376557099, -0.037672105585422], [-0.026095652687014515, -0.017630624189239854, 0.006295303943874328], [0.005740475122535678, 0.03140809963599572, -0.03939828476447188], [-0.039258809749015036, -0.024615461046445065, 0.021845302681606574], [-0.04233631248981436, -0.02129880332029525, 0.02281026747282275], [0.04155941992370972, -0.041635503200047594, 0.010975772097993164], [0.0, 0.0, 0.0]], "2": [[0.03421538821488601, 0.3083863223154847, -0.3797175759275032, -0.30112152979963047, 0.47157500246178785, -0.026964959851612846, -0.24359890378804627, 0.3634782038192992, 0.4333689523449692, 0.3248197772928404, -0.17059454656345596, 0.09471275819045355, -0.36220809582862834, -0.030869125854949386, -0.3912826410262009, -0.3446441221314338, 0.2452079291704259, -0.2139808514889736, 0.30061822613240574, -0.04697516835056037, -0.23574415701651896, -0.41288539415035375, -0.13078902212263888, 0.1035173938887548, 0.1271062593063611, -0.04127306545465448, 0.0772739575061907, -0.340350681436251, -0.13705815464855553, 0.09113763106532113, -0.20031676894371087, -0.16202319431582946, 0.1752268853689659, -0.09061742231055081, -0.4363620619057279, -0.22502789751456564, -0.4645843827965447, -0.45173880341509065, 0.14920320873830561, -0.4659201373421852, 0.33214400757918583, -0.3002143358930406, -0.21882605843786973, -0.2699537586954538, 0.04867798355422848, -0.4236686545094296, 0.49890596580466673, 0.3293634704493388, 0.41570282936945147, -0.34680487228635637], [-0.004579076740718113, 0.2168772151147672, 0.3466392560594257, -0.04862282394020112, -0.4868488413161648, 0.480408176230567, -0.42532889662450335, 0.06632332500093874, -0.1984240305036763, 0.10956585413602449, -0.35216021500319294, -0.2882194801876268, 0.25631799936951094, -0.24946547223168258, 0.18107534502245082, -6.80462264446291e-06, 0.4102902350463037, -0.43097234600765955, 0.28902460794458384, 0.34924958588523647, -0.26766143468791037, -0.23252438898637318, -0.47853851775683887, 0.23653058676571737, 0.32673246672786027, -0.45513394432003274, 0.344608062121457, 0.051954616242100515, 0.04636673684169201, 0.0757230516955757, -0.11918483519690681, 0.3303879107993083, 0.15683568696273076, -0.10361002259234664, -0.4086858126169224, 0.13784192165112963, -0.0767129309613408, 0.2830370271738456, 0.3558750974730357, -0.040068290427101805, -0.07720509482940252, -0.3060788032465218, 0.14767700629596814, 0.33692985440912526, 0.37875075207996556, -0.4480734859846449, -0.3693076001549248, -0.18857846884839025, 0.3811647215721089, 0.3194634484110016], [-0.44182858574204575, 0.4540902222565171, -0.029185363826645272, -0.49495061934854057, 0.09035900054609525, -0.47845348190377845, 0.031230115175300166, 0.1887785561673181, 0.356728026753106, 0.1867753076294385, -0.30579446145873246, 0.4630850170688021, -0.23566273753361777, -0.19761195433347378, -0.2195019483922649, -0.4087611573584642, -0.1692955232542428, 0.10698772616875463, 0.32873664656447066, -0.0052694674922741935, 0.4208296633847157, 0.11689166127569028, 0.465860091362884, -0.18326495371813745, -0.02915972240183662, -0.4888002179537384, 0.41764357820268583, -0.13238996829567595, 0.23410256949270924, -0.34937886147952313, -0.4799080449120652, -0.3578099778053939, 0.21209357735148027, -0.46921356521435986, 0.3976707340052573, 0.11411230838312081, 0.33545434364889437, 0.12259952845167155, -0.4060146280125648, 0.28120326740134316, 0.2203712819437258, -0.27035998739854694, 0.09744554278133988, 0.49864690205320616, 0.07213146699717699, -0.2575788603187046, -0.3983614510265725, -0.29711766110013116, -0.3605269886884668, 0.46517762174622723], [0.0, 0.0, 0.0, 0.0, 0.0, 0.0, 0.0, 0.0, 0.0, 0.0, 0.0, 0.0, 0.0, 0.0, 0.0, 0.0, 0.0, 0.0, 0.0, 0.0, 0.0, 0.0, 0.0, 0.0, 0.0, 0.0, 0.0, 0.0, 0.0, 0.0, 0.0, 0.0, 0.0, 0.0, 0.0, 0.0, 0.0, 0.0, 0.0, 0.0, 0.0, 0.0, 0.0, 0.0, 0.0, 0.0, 0.0, 0.0, 0.0, 0.0]], "3": [[0.010658060263126982], [-0.0156959573887], [0.021225433512702986], [0.029218872142994075], [0.009541589724890248], [0.029344791299932352], [0.02914636884302628], [-0.024282299150008967], [0.02052069282417611], [-0.017685046162252957], [-0.00849763631119459], [0.0029446553890697183], [0.0032269099249690944], [0.02538298138318696], [-0.02795319311941671], [-0.02889347553325233], [-0.014889215815210848], [-0.016112646763238456], [-0.015469831455751197], [0.007213926453187677], [-0.007579756727125485], [-0.013753725589852512], [-0.008019537916341354], [-0.007045885706411115], [0.01095773353621339], [0.0007990326321934658], [-0.025216340686369555], [0.012341579695728758], [0.008397032026638072], [0.008162509632553085], [0.004225411804931654], [-0.007446954132021968], [0.01955550733944319], [-0.015299430781107739], [0.0038461218658568525], [0.004476652851539448], [-0.02117215184908743], [-0.014524728875332855], [0.028697698261211657], [0.020981927725994942], [-0.0243901385321275], [0.021013743994412887], [0.02885853909513047], [0.02193221794652362], [0.004072750277980798], [-0.006005419818101342], [-0.026282295777932275], [0.02965102764649334], [0.027304571592719228], [-0.020000371119384047], [0.0]]}, "Pd": {"1": [[-0.027026822259207665, 0.017955528848852764, -0.020714246525944627], [0.005923035875634322, -0.018317283968767507, -0.03010759049674306], [-0.008087716037684059, 0.028458180083897, -0.046047608784472574], [-0.015536884105966403, 0.02994036124690358, 0.03967932535397792], [-0.036406927879233955, -0.04441096219676566, -0.045920988112641586], [-0.0009726895333824273, -0.03199570531406322, 0.025839722783102592], [0.022792264214369806, -0.010025470119481392, -0.03733323135812659], [0.0293187632887848, -0.00025673488228185326, -0.014723872978500821], [-0.03293001111017421, -0.04532278403243495, -0.015113811508650682], [-0.03441169646594379, -0.028299249559106048, 0.0016251587528813838], [0.029834036491291197, 0.04427248787129401, -0.0015347721325785768], [-0.017681270731167084, 0.04015473751496185, 0.042875930889449604], [-0.016803538986294945, -0.04084036868156057, 0.04601926831220943], [-0.031838014266957565, -0.03247383352935421, -0.03311127943836827], [0.029130703595659835, -0.006118036902296939, 0.025577614699459655], [0.00704367859372991, 0.00027535397408133544, 0.04124961691530493], [-0.04243922974599909, 0.011346041982005853, -0.039297619065163505], [0.014427195544297222, -0.04512747779097126, 0.010194476863540872], [0.04169360673630276, -0.04337135243114504, 0.007712616347408566], [0.0398374300885774, -0.013600105073892532, 0.0024309406932463973], [-0.03576877423816138, -0.00621943209812055, 0.02922016848888942], [-0.020778241893953487, 0.04579814744527054, -0.022964944884172615], [0.04627449118186239, 0.008724499250589879, 0.01861666908357959], [0.012867294115990836, 0.03855489058647982, -0.03282707329308657], [0.035257772640583246, -0.0001356925793265379, 0.01091628106361231], [-0.044734492490132255, 0.013117726074857769, -0.01434729873551921], [-0.031119612796898528, 0.03248063857104623, -0.03551504821135894], [-0.022616913652911044, 0.04299799116837029, 0.04233767702478505], [0.014487932177067994, 0.038643969841080233, -0.0038699875144527635], [0.016486459844310547, -0.021518174856233276, 0.013819604162935109], [0.007412006848523459, 0.006063380605075316, -0.0228907342241721], [-0.006733583690144707, 0.03483264487449916, -0.003555864949264749], [0.0, 0.0, 0.0]], "2": [[0.2584667224659901, 0.2817193945815125, -0.11494877720043839, -0.2240062943296649, 0.4664130453743518, 0.28403142791981273, -0.21557821541049205, -0.3458540388740371, 0.32593802367925373, -0.10157161913484614, -0.3773470245167525, -0.32268304890236765, 0.4008122677678193, -0.10505410319612529, 0.24630557939456432, 0.11678978477305624, -0.1039098314327177, -0.10082305103763356, 0.06406994319932746, -0.06553624032477035, 0.16765653668058333, 0.2831479053389109, -0.008912466959124066, 0.4499378540276745, 0.4128280520076041, 0.1342791191035343, -0.05271478958872111, 0.18846826325869015, 0.09881451488902926, 0.21842735442136185, -0.275397199907525, 0.4057216972038272, 0.29960244512985656, -0.15305710771375447, -0.31202007340654936, -0.4462754352199114, -0.2721559708460255, -0.08339005886442419, 0.16452396617275977, -0.223320412015521, -0.041845980232169566, 0.23244952421041898, -0.015179007963362245, -0.446614137089937, 0.008768699902231392, -0.25344397835529653, -0.26559924972839866, 0.31024938728684115, 0.305871428823452, -0.1382640792183648], [0.41805229292963086, 0.16267379728932074, 0.4987345168467714, -0.0742263374865535, -0.03610896713576561, 0.49163468553956846, 0.46494718259432655, -0.4923487619954299, -0.042503043828579834, -0.21630699752688876, -0.00019137017148196378, -0.2755727809795756, -0.20014443827934525, 0.13396788812124227, -0.3679716233962994, -0.47563286875287825, -0.016742019175154166, -0.002175463233174302, 0.240685938186614, 0.1615801302959683, 0.38101101789005654, -0.1302777906656779, -0.46411798726835607, -0.10272932669213697, -0.11916885051854642, 0.04269544515914647, 0.47252471704986965, -0.08875322525123486, -0.46588298268828654, -0.012112913187964258, 0.3931492704594378, 0.263383253104683, -0.47107816036009476, -0.45100228059680125, 0.2080807351079701, 0.23235773195298925, 0.14491552929979146, 0.06607237009946021, 0.30241680657144276, -0.390429560312782, 0.3531194092639135, 0.0966353502223034, -0.3076394080789002, 0.13493812267287386, 0.482601233622205, 0.2835515641140166, 0.2717072115351251, -0.2868697122100018, -0.008700284173048356, 0.148414830748122], [-0.42626831749963956, 0.22977178478504212, 0.12764012192400676, -0.29382641349383964, 0.15163310478755698, -0.0018073858864684489, 0.21969130438472895, -0.26396324433187823, 0.12021661977518927, -0.14391095267159804, -0.14723983134172947, 0.4833218582795369, -0.1631497718769025, -0.13683501823641087, -0.26370672425171304, 0.025615391851900537, 0.2923863181389793, 0.13601195639480768, -0.273598342488824, -0.14358666010699495, -0.06167345749129305, 0.2721236632116324, -0.30622616795320134, -0.020100557941211683, 0.22565279980142194, 0.2849522526876773, -0.01360128245218728, 0.4798567418458628, 0.3501236286245275, 0.07389308948384943, -0.21698644799010414, 0.19702913357330143, -0.078539817778704, -0.1271034581147159, -0.41856068782925315, 0.07623674827357318, 0.33952517139203153, -0.18161497436415686, -0.11044844865059222, -0.22001578972362146, 0.37818351588010557, 0.49556848695902933, -0.35605138208584985, 0.023485890909345608, -0.13333180171922254, 0.17358207658608416, 0.0519968523007448, -0.3795653250146044, 0.4278736064204458, 0.33339476881454344], [0.0, 0.0, 0.0, 0.0, 0.0, 0.0, 0.0, 0.0, 0.0, 0.0, 0.0, 0.0, 0.0, 0.0, 0.0, 0.0, 0.0, 0.0, 0.0, 0.0, 0.0, 0.0, 0.0, 0.0, 0.0, 0.0, 0.0, 0.0, 0.0, 0.0, 0.0, 0.0, 0.0, 0.0, 0.0, 0.0, 0.0, 0.0, 0.0, 0.0, 0.0, 0.0, 0.0, 0.0, 0.0, 0.0, 0.0, 0.0, 0.0, 0.0]], "3": [[-0.014476873991336174], [-0.021248417421269733], [0.021410914105884117], [-0.02602218879442312], [0.007448887755037971], [0.01636867096666971], [-0.008241347577816312], [-0.007576161008156147], [0.01127543579468096], [-0.020828058913200886], [0.010473801896991743], [0.029999347567318466], [0.016637262780319538], [-0.0034715099154457967], [-0.011439658278702372], [-0.02744701838048425], [0.0191718260060057], [-0.026439515834246783], [-0.01125437472785868], [-0.01254857161306755], [-0.014986882302951667], [0.0018918515576771683], [-0.027277986545059665], [0.02515730983703208], [0.024382819723848377], [-0.012135229073777974], [-0.016546591244267855], [0.010416957303401628], [-0.01989117946263929], [0.029378822153297242], [-9.032430851713125e-05], [0.0007049004417019507], [-0.007971115735833565], [-0.01375431983768953], [0.012218318852071919], [0.023149210393940405], [-0.010318571326596315], [-0.02162424405906508], [0.018056355980644423], [0.028246329066438806], [0.015186439082017146], [-0.01984821183968409], [0.012868554020632257], [-0.004514596952494353], [-0.0019012953686754416], [0.014823108095273027], [0.017427872009040675], [0.027102590644996975], [0.018090586074170203], [0.0073747505020729034], [0.0]]}}, "fingerprints_range": {"Cu": [[0.7355979085179102, 15.55743075082518], [0.17208454571200024, 15.824610224206179], [0.2647337529778042, 9.728035574767311], [0.048289987224936715, 9.183520039100534], [0.08998943476157976, 6.543651351035633], [0.013116604377678287, 5.901293632153394], [0.011086319621036456, 3.4322011143730915], [0.0009677208042695254, 3.058089253340858], [2.8105378597217076e-05, 0.7186722153281908], [3.886297579508524e-07, 0.7702142399843445], [1.0530964208036616e-09, 0.06459500411004929], [8.495312182045297e-13, 0.09579851951537856], [1.4696933730671603e-18, 0.0005969806159118927], [4.059438105570023e-24, 0.0014999082499671163], [0.50034203926832, 586.0279136978755], [2.8969921783012786, 1339.0774553779588], [0.0, 680.2199829665379], [0.623397651130686, 430.46949002501225], [2.2581612173512284, 933.9576344679633], [0.11622805422127631, 505.84680013293473], [0.18504763958633103, 428.8432803118022], [1.7871978465575518, 999.1121607682313], [0.0, 497.0153279237612], [0.21809387928730953, 273.284856638939], [1.3209770091224067, 593.9923398582351], [0.06881080565862441, 322.6421450901536], [0.020560848842925673, 287.61510794586883], [0.799631268139842, 694.3948342368042], [0.0, 333.734781480117], [0.03697254301515187, 160.4359473839458], [0.665959989982916, 348.9904146530375], [0.004300675351054025, 189.85900104165898]], "Pd": [[0.17208454571200046, 15.82461022420618], [0.7355978047404241, 15.557430750825183], [0.04828998722493681, 9.183520039100532], [0.2647337529778042, 9.72803557476731], [0.01311660437767832, 5.901293632153396], [0.08998943476157976, 6.543651351035635], [0.000967720804269529, 3.058089253340857], [0.011086319621036456, 3.4322011143730906], [3.8862975795085565e-07, 0.770214239984344], [2.8105378597217076e-05, 0.7186722153281916], [8.495312182045429e-13, 0.09579851951537853], [1.0530949854903416e-09, 0.06459500411004933], [4.059438105570144e-24, 0.0014999082499671157], [1.469689571940093e-18, 0.0005969806159118931], [0.0, 680.2199829665362], [2.8969921783012804, 1339.0774553779634], [0.50034203926832, 586.0279136978755], [0.11622805422127645, 505.8468001329346], [2.2581612173512298, 933.9576344679631], [0.6233975439578614, 430.46949002501225], [0.0, 497.01532792376423], [1.7871978465575515, 999.1121607682309], [0.18504763958633114, 428.8432803118022], [0.06881080565862441, 322.6421450901558], [1.3209770091224076, 593.9923398582329], [0.21809382696856305, 273.284856638939], [0.0, 333.73478148011566], [0.799631268139842, 694.3948342368044], [0.020560848842925677, 287.61510794586883], [0.004300675351054025, 189.85900104165927], [0.6659599899829165, 348.9904146530362], [0.03697252924305966, 160.4359473839458]]}, "fingerprints_tag": 1, "scalings": {"Pd": {"slope": 2.7555544681249997, "intercept": -2.459831533125}, "Cu": {"slope": 2.7555544681249997, "intercept": -2.459831533125}}}