{"cutoff": 6.5, "Gs": {"Pd": [{"eta": 0.05, "type": "G2", "element": "Cu"}, {"eta": 0.05, "type": "G2", "element": "Pd"}, {"eta": 2.0, "type": "G2", "element": "Cu"}, {"eta": 2.0, "type": "G2", "element": "Pd"}, {"eta": 4.0, "type": "G2", "element": "Cu"}, {"eta": 4.0, "type": "G2", "element": "Pd"}, {"eta": 8.0, "type": "G2", "element": "Cu"}, {"eta": 8.0, "type": "G2", "element": "Pd"}, {"eta": 20.0, "type": "G2", "element": "Cu"}, {"eta": 20.0, "type": "G2", "element": "Pd"}, {"eta": 40.0, "type": "G2", "element": "Cu"}, {"eta": 40.0, "type": "G2", "element": "Pd"}, {"eta": 80.0, "type": "G2", "element": "Cu"}, {"eta": 80.0, "type": "G2", "element": "Pd"}, {"zeta": 1.0, "elements": ["Cu", "Cu"], "type": "G4", "gamma": 1.0, "eta": 0.005}, {"zeta": 1.0, "elements": ["Cu", "Pd"], "type": "G4", "gamma": 1.0, "eta": 0.005}, {"zeta": 1.0, "elements": ["Pd", "Pd"], "type": "G4", "gamma": 1.0, "eta": 0.005}, {"zeta": 1.0, "elements": ["Cu", "Cu"], "type": "G4", "gamma": -1.0, "eta": 0.005}, {"zeta": 1.0, "elements": ["Cu", "Pd"], "type": "G4", "gamma": -1.0, "eta": 0.005}, {"zeta": 1.0, "elements": ["Pd", "Pd"], "type": "G4", "gamma": -1.0, "eta": 0.005}, {"zeta": 2.0, "elements": ["Cu", "Cu"], "type": "G4", "gamma": 1.0, "eta": 0.005}, {"zeta": 2.0, "elements": ["Cu", "Pd"], "type": "G4", "gamma": 1.0, "eta": 0.005}, {"zeta": 2.0, "elements": ["Pd", "Pd"], "type": "G4", "gamma": 1.0, "eta": 0.005}, {"zeta": 2.0, "elements": ["Cu", "Cu"], "type": "G4", "gamma": -1.0, "eta": 0.005}, {"zeta": 2.0, "elements": ["Cu", "Pd"], "type": "G4", "gamma": -1.0, "eta": 0.005}, {"zeta": 2.0, "elements": ["Pd", "Pd"], "type": "G4", "gamma": -1.0, "eta": 0.005}, {"zeta": 4.0, "elements": ["Cu", "Cu"], "type": "G4", "gamma": 1.0, "eta": 0.005}, {"zeta": 4.0, "elements": ["Cu", "Pd"], "type": "G4", "gamma": 1.0, "eta": 0.005}, {"zeta": 4.0, "elements": ["Pd", "Pd"], "type": "G4", "gamma": 1.0, "eta": 0.005}, {"zeta": 4.0, "elements": ["Cu", "Cu"], "type": "G4", "gamma": -1.0, "eta": 0.005}, {"zeta": 4.0, "elements": ["Cu", "Pd"], "type": "G4", "gamma": -1.0, "eta": 0.005}, {"zeta": 4.0, "elements": ["Pd", "Pd"], "type": "G4", "gamma": -1.0, "eta": 0.005}], "Cu": [{"eta": 0.05, "type": "G2", "element": "Cu"}, {"eta": 0.05, "type": "G2", "element": "Pd"}, {"eta": 2.0, "type": "G2", "element": "Cu"}, {"eta": 2.0, "type": "G2", "element": "Pd"}, {"eta": 4.0, "type": "G2", "element": "Cu"}, {"eta": 4.0, "type": "G2", "element": "Pd"}, {"eta": 8.0, "type": "G2", "element": "Cu"}, {"eta": 8.0, "type": "G2", "element": "Pd"}, {"eta": 20.0, "type": "G2", "element": "Cu"}, {"eta": 20.0, "type": "G2", "element": "Pd"}, {"eta": 40.0, "type": "G2", "element": "Cu"}, {"eta": 40.0, "type": "G2", "element": "Pd"}, {"eta": 80.0, "type": "G2", "element": "Cu"}, {"eta": 80.0, "type": "G2", "element": "Pd"}, {"zeta": 1.0, "elements": ["Cu", "Cu"], "type": "G4", "gamma": 1.0, "eta": 0.005}, {"zeta": 1.0, "elements": ["Cu", "Pd"], "type": "G4", "gamma": 1.0, "eta": 0.005}, {"zeta": 1.0, "elements": ["Pd", "Pd"], "type": "G4", "gamma": 1.0, "eta": 0.005}, {"zeta": 1.0, "elements": ["Cu", "Cu"], "type": "G4", "gamma": -1.0, "eta": 0.005}, {"zeta": 1.0, "elements": ["Cu", "Pd"], "type": "G4", "gamma": -1.0, "eta": 0.005}, {"zeta": 1.0, "elements": ["Pd", "Pd"], "type": "G4", "gamma": -1.0, "eta": 0.005}, {"zeta": 2.0, "elements": ["Cu", "Cu"], "type": "G4", "gamma": 1.0, "eta": 0.005}, {"zeta": 2.0, "elements": ["Cu", "Pd"], "type": "G4", "gamma": 1.0, "eta": 0.005}, {"zeta": 2.0, "elements": ["Pd", "Pd"], "type": "G4", "gamma": 1.0, "eta": 0.005}, {"zeta": 2.0, "elements": ["Cu", "Cu"], "type": "G4", "gamma": -1.0, "eta": 0.005}, {"zeta": 2.0, "elements": ["Cu", "Pd"], "type": "G4", "gamma": -1.0, "eta": 0.005}, {"zeta": 2.0, "elements": ["Pd", "Pd"], "type": "G4", "gamma": -1.0, "eta": 0.005}, {"zeta": 4.0, "elements": ["Cu", "Cu"], "type": "G4", "gamma": 1.0, "eta": 0.005}, {"zeta": 4.0, "elements": ["Cu", "Pd"], "type": "G4", "gamma": 1.0, "eta": 0.005}, {"zeta": 4.0, "elements": ["Pd", "Pd"], "type": "G4", "gamma": 1.0, "eta": 0.005}, {"zeta": 4.0, "elements": ["Cu", "Cu"], "type": "G4", "gamma": -1.0, "eta": 0.005}, {"zeta": 4.0, "elements": ["Cu", "Pd"], "type": "G4", "gamma": -1.0, "eta": 0.005}, {"zeta": 4.0, "elements": ["Pd", "Pd"], "type": "G4", "gamma": -1.0, "eta": 0.005}]}, "activation": "tanh", "hiddenlayers": {"Pd": [3, 30], "Cu": [3, 30]}, "weights": {"Cu": {"1": [[0.043927005425563256, 9.255752370550957e-05, 0.007768525911106328], [-0.004642967096218496, -0.02875462951000286, 0.019333797373827677], [0.028135481077687763, -0.028051782393648198, 0.0335318757601039], [0.024454125092958717, 0.0005919258466611579, 0.011209296619997755], [0.009989706470298745, -0.04304588139010614, 0.022314235653281653], [-0.019452939592801304, 0.020185374575691944, 0.040793138524678876], [0.011407779086687324, 0.019965048404253533, 0.018109927188144498], [-0.04036666216397822, 0.009936620241915294, -0.044573854928929], [-0.04372613925559265, 0.025209524243974074, -0.011097896914552333], [0.0196256038822364, -0.002843995888790085, -0.01695513243620549], [0.0072865486678464625, -0.04470624324753256, 0.01704964532447753], [-0.015143086620796324, 0.017698240199197773, -0.0240507038129156], [0.03636763249086242, 0.028446074084196, 0.015090414558399323], [-0.03724377401350161, -0.014541690049461105, -0.036999093407532754], [-0.016066934864600233, -0.022931642998372005, -0.04610100471046655], [-0.04169301116175979, 0.014446376288651544, 0.03737190725760947], [0.025806645171080334, -0.03188775003772301, 0.0031485808454572092], [0.014903294539087668, -0.04251541074761396, -0.03264729152579006], [-0.02258065217041866, 0.018871613821208374, 0.011935240565717861], [0.04183901149418047, -0.042380132969638634, -0.04084600157075549], [0.011351877126863821, 0.0035972178379194975, -0.025273963411730233], [0.045074365137465794, -0.044596308717295224, -0.02234490694055199], [0.034130451131027445, 0.008607824023875318, 0.013132439772042592], [0.011635271814335713, -0.002056851262052406, -0.034480665339048026], [0.023357630134411084, 0.018950980112588056, -0.041630643508405694], [-0.010621436425789749, -0.016831416739441295, -0.037388459358739246], [0.03917536151879271, 0.035657046506399254, 0.021415715255855186], [-0.00905450569836072, -0.04553191346951117, -0.016788007895658253], [0.008603114050162078, 0.03142189080999647, -0.0018264954145969722], [0.02634771867754343, 0.026382941402461862, -0.026204961486107944], [0.005776732607189347, -0.04052951893450417, -0.0015739288056593262], [0.007675135855236437, 0.019600569165502665, 0.0409266311844169], [0.0, 0.0, 0.0]], "2": [[-0.1523680055193405, 0.054175417180183705, -0.3688413993137535, -0.25374027018863277, -0.4421544225030448, 0.34414906284238644, -0.07322124558559784, -0.3346500574803922, 0.0335712718528709, -0.34752206565178156, 0.417213384186481, -0.27729562652384065, 0.00838128534289373, -0.1804950040217017, -0.4931915040121976, -0.4941947979579635, 0.003362202164752137, 0.304741993107847, -0.37848854212607197, -0.37309362596645157, -0.29121519962184084, -0.3277281862163566, 0.2341794755352693, -0.4661020284438462, 0.24310111419495806, 0.09477548987366735, 0.24717153252330748, 0.03451015195258822, 0.45437744951771963, -0.026591031736113213], [-0.41583584171837573, 0.07787575961799975, -0.18275398273963706, -0.40365515639162786, 0.4919922580697854, -0.03333981579122691, -0.3873622052828436, 0.2963265944970661, -0.41236988070850267, -0.43426793313514267, 0.22550080700952269, -0.16608594760282025, 0.4307465881912377, 0.4257069615633523, -0.021122428215285982, 0.43312730208229033, 0.3255675334907062, -0.42001322169597266, 0.04792840343537741, 0.285722367575007, -0.39613298471065705, -0.07298433071903587, -0.35452982277664913, -0.30629137005217055, 0.22325042564829667, 0.3289593392040725, -0.11024123894505866, 0.38971271720872247, -0.00935328275937053, -0.29118122798624513], [0.1595512361746475, -0.008596017966385539, -0.29165063397705804, -0.31931203334894165, -0.4714312625151875, -0.2214300783659784, 0.01311698829694441, -0.110019915778786, 0.09009148074837758, 0.3361295750538006, 0.2571464877967371, 0.49984529522552545, -0.01618323461331128, -0.21917157040455282, 0.46616887135205987, 0.27219269338124397, 0.18616280416168152, 0.09880453076481932, -0.3520036691280771, 0.06138853837101177, 0.18460414845407935, 0.3265414460719561, 0.04722284496855156, -0.43522809871654433, -0.19579856867142553, 0.2803026889620074, -0.4604042539178739, -0.4730057904303786, 0.12826238316501326, 0.4809656357449097], [0.0, 0.0, 0.0, 0.0, 0.0, 0.0, 0.0, 0.0, 0.0, 0.0, 0.0, 0.0, 0.0, 0.0, 0.0, 0.0, 0.0, 0.0, 0.0, 0.0, 0.0, 0.0, 0.0, 0.0, 0.0, 0.0, 0.0, 0.0, 0.0, 0.0]], "3": [[0.03949251536529268], [-0.039120580457255694], [0.014137846852904257], [-0.04007003761907649], [-0.04440643464502904], [0.007590236253416385], [-0.04952099391628615], [0.00015450662829121636], [-0.04006531544036951], [0.04585606156000477], [-0.039455397503907724], [-0.041381393917552446], [0.005707755298278841], [-0.0016996438219940707], [-0.013241208916201778], [-0.027564326067263934], [0.01195407972965895], [0.009024332887714329], [0.006265903528891524], [-0.015979576935962574], [0.011426789084976782], [0.041683417105597434], [-0.011311267579916927], [0.009126771828347445], [-0.021339329365746965], [0.02244357928134552], [-0.00034003720068993826], [0.015592885786853763], [0.01717473620350571], [0.03971509520529824], [0.0]]}, "Pd": {"1": [[-0.004201362852461379, -0.0006982996094217625, 0.0023402472118926113], [0.040073584900064435, -0.04105239972993197, -0.0232502132166102], [0.010222702281187768, -0.03261765078910185, -0.018379842840060123], [-0.03728891610794357, 0.020901069150979015, -0.01988769220128126], [-0.00425898601923809, -0.0334494500551202, 0.02114174479121375], [-0.012423426510200744, 0.030322055557260183, 0.038750417197427375], [-0.022716162196029427, 0.04053871136092248, 0.02230752187101677], [-0.01935963749803327, -0.01689939762481685, 0.027652986808148095], [-0.0218075911458178, -0.03628815680428875, -0.019111618360205047], [-0.0010042470614407342, -0.04177282822402419, 0.02356610322870549], [0.046491798606144386, 0.03137822554975636, -0.044346578253650036], [0.028396629279295593, -0.017633659649565148, -0.027863659648852936], [-0.046534411174191964, 0.02404441135324782, 0.007689641231567582], [-0.030574673839878448, 0.006987161852200954, 0.031240584864626816], [0.037066606445476824, 0.0461811294111676, 0.03314397860158726], [0.00011322256123818403, 0.006762451843766275, -0.018702047505294948], [0.002821741648902129, -0.031162908116328256, 0.044441413645212466], [0.03907293186708091, -0.0014877921232243421, 0.023987604777642002], [0.04555689754864692, 0.04499150451945072, -0.009183005347019269], [-0.0433180884206784, 0.023765036754461996, 0.042431202469718515], [0.02871855767528636, -0.018276736313923167, 0.031097893808655214], [-0.006291117867366913, -0.03508470409418378, 0.03895118682105708], [0.009640795679929398, -0.021021856493692655, -0.01155166073381697], [-0.008625568978607091, -0.012020459714625079, -0.024651734232159245], [0.04411071936759624, -0.036169785031728234, 0.0017643009374857382], [-0.006524472375727716, 0.019488946792605294, 0.037255705320097754], [0.016618904591057276, 0.023036970461816547, -0.0023575532756715117], [-0.01649261974235282, 0.012221037329541592, -0.0014167371314140892], [-0.00970679689078588, -0.03361406957253252, -0.017512854851736086], [0.001226068934941496, 0.0003375748652658869, 0.0026721559884476734], [0.0003431213255375015, 0.037975278140872495, 0.0006158052504717099], [-0.04583667611401965, -0.019474825889802646, -0.007661630318961957], [0.0, 0.0, 0.0]], "2": [[-0.4601308871631803, -0.31960315415293494, -0.08228868469969342, -0.060222346700161355, 0.11398252841784673, -0.4514910171430826, -0.35298988401254205, 0.08270498901104784, 0.030718011350577168, 0.11472806373721722, -0.4229716565922619, -0.11552816183267833, 0.4746970526432688, 0.20960029370109168, 0.12993224788966085, 0.3961767860326739, 0.09530915994383904, -0.2898890634109257, 0.3630225244165973, -0.22523849648334648, 0.30695827021418676, 0.46962886806232473, 0.4709595821722419, 0.46806453054010266, 0.04719539851998633, 0.11844624602937348, 0.185447396169088, -0.0786109978996905, 0.13790158120538543, -0.25626085361083883], [0.16666569580969492, -0.33394840679702076, -0.4590877905443874, -0.1870572164438613, -0.2604137614509425, -0.28350920459943074, -0.405707808472223, -0.24737817255778094, -0.27541280134534285, -0.4972269728525992, -0.2617987483936258, -0.20491886489077726, -0.4726536841728185, 0.22765814065609413, 0.014500506806451763, 0.17462133325638407, -0.45322986645836383, -0.2601117531015018, 0.18024895976416822, 0.34377942480534396, 0.2855064013388069, -0.006426716018681056, -0.4665537750095282, -0.38577854769246034, -0.06201859603451565, -0.14981784804939813, -0.4799953104795617, 0.21870847056767206, -0.2993104244433682, -0.33020552588725427], [0.03782348217774978, 0.004186125138154528, 0.49649250876881446, 0.2031057814971926, 0.4733289493509585, -0.03815288210929302, 0.330753654696919, -0.41824919208271794, -0.10112092434360687, -0.02001796074708373, 0.10753405291223961, -0.15669976321884704, 0.3942884601485577, -0.0541249911221785, 0.017756886433187513, 0.31014577502754326, 0.20608644978694046, -0.3897513071309562, 0.008562605840809256, -0.09340461125696864, -0.3011937155408084, -0.03296187929264316, -0.08463614812638431, 0.461972853550216, -0.028262559982329405, -0.13644318311527226, 0.36658370309008703, 0.031251747847444, -0.3017409770152929, 0.3556079884988015], [0.0, 0.0, 0.0, 0.0, 0.0, 0.0, 0.0, 0.0, 0.0, 0.0, 0.0, 0.0, 0.0, 0.0, 0.0, 0.0, 0.0, 0.0, 0.0, 0.0, 0.0, 0.0, 0.0, 0.0, 0.0, 0.0, 0.0, 0.0, 0.0, 0.0]], "3": [[0.0013072797722935361], [-0.018801832622235715], [-0.03507359808428563], [-0.0012565835182002522], [-0.014114029845897436], [-0.01236691549664002], [0.00818319796190562], [0.023216472554700815], [0.03374534932175946], [0.024269027951518835], [0.029946983471894326], [-0.015914963560930875], [-0.022921382615717734], [-0.03450539887905196], [-0.04006114134407989], [-0.04160480185234436], [0.00740674391018771], [0.007827728452888608], [0.009308965915578227], [0.030390562459131895], [-0.010108727554587117], [0.036709049476197506], [-0.0045948777149227085], [0.04836333071406056], [-0.0031824517958744664], [0.04368414635415778], [-0.03825508640724924], [-0.04549676217760679], [0.034911234223719834], [-0.035526386242238556], [0.0]]}}, "fingerprints_range": {"Cu": [[3.8146277207833967, 14.773671446513346], [5.075825660853212, 15.824610224206179], [1.9721308711236742, 8.164757780830866], [2.7940842302060656, 9.183520039100534], [1.08754296072989, 4.899596885294583], [1.626586495785668, 5.901293632153394], [0.38009057411024255, 2.100229183316305], [0.5979162717004696, 3.058089253340858], [0.022806104583746538, 0.29703065781176186], [0.03267752149778091, 0.7702142399843445], [0.00023994660593454532, 0.019532691216232568], [0.0002600781049340315, 0.09579851951537856], [2.684004252678675e-08, 0.00012027018144348271], [1.6475482387583465e-08, 0.0014999082499671163], [53.933374514847664, 586.0279136978755], [128.12064751587994, 1339.0774553779588], [52.68618639940384, 680.2199829665379], [41.131668150485005, 430.46949002501225], [88.82571853690784, 933.9576344679633], [44.11384078148922, 505.84680013293473], [38.66980126118429, 428.8432803118022], [95.83947136339181, 999.1121607682313], [36.58466439539326, 497.0153279237612], [25.868094896821642, 273.284856638939], [56.54454238441965, 593.9923398582351], [28.01231877747867, 322.6421450901536], [25.025718372670145, 287.61510794586883], [66.16046138643475, 694.3948342368042], [22.452534931026978, 333.734781480117], [14.968829911531767, 160.4359473839458], [33.562339210372066, 348.9904146530375], [16.382317416211794, 189.85900104165898]], "Pd": [[5.075825660853211, 15.82461022420618], [3.8146277207833954, 14.773671446513346], [2.7940842302060642, 9.183520039100532], [1.9721308711236738, 8.164757780830866], [1.626586495785668, 5.901293632153396], [1.0875429607298897, 4.899596885294583], [0.59791627170047, 3.058089253340857], [0.38009057411024233, 2.100229183316305], [0.03267752149778091, 0.770214239984344], [0.022806104583746524, 0.29703065781176186], [0.0002600781049340315, 0.09579851951537853], [0.00023994660593454505, 0.019532691216232568], [1.6475482387583465e-08, 0.0014999082499671157], [2.68400425267867e-08, 0.00012027018144348271], [52.68618639940385, 680.2199829665362], [128.12064751588002, 1339.0774553779634], [53.93337451484764, 586.0279136978755], [44.1138407814892, 505.8468001329346], [88.82571853690804, 933.9576344679631], [41.131668150485, 430.46949002501225], [36.58466439539324, 497.01532792376423], [95.83947136339191, 999.1121607682309], [38.669801261184276, 428.8432803118022], [28.012318777478665, 322.6421450901558], [56.54454238441963, 593.9923398582329], [25.868094896821624, 273.284856638939], [22.45253493102693, 333.73478148011566], [66.16046138643475, 694.3948342368044], [25.025718372670134, 287.61510794586883], [16.3823174162118, 189.85900104165927], [33.56233921037198, 348.9904146530362], [14.968829911531756, 160.4359473839458]]}, "fingerprints_tag": 1, "scalings": {"Pd": {"slope": 2.7708923875, "intercept": -2.4751694525000003}, "Cu": {"slope": 2.7708923875, "intercept": -2.4751694525000003}}}