{"cutoff": 6.5, "Gs": {"Pd": [{"eta": 0.05, "type": "G2", "element": "Cu"}, {"eta": 0.05, "type": "G2", "element": "Pd"}, {"eta": 2.0, "type": "G2", "element": "Cu"}, {"eta": 2.0, "type": "G2", "element": "Pd"}, {"eta": 4.0, "type": "G2", "element": "Cu"}, {"eta": 4.0, "type": "G2", "element": "Pd"}, {"eta": 8.0, "type": "G2", "element": "Cu"}, {"eta": 8.0, "type": "G2", "element": "Pd"}, {"eta": 20.0, "type": "G2", "element": "Cu"}, {"eta": 20.0, "type": "G2", "element": "Pd"}, {"eta": 40.0, "type": "G2", "element": "Cu"}, {"eta": 40.0, "type": "G2", "element": "Pd"}, {"eta": 80.0, "type": "G2", "element": "Cu"}, {"eta": 80.0, "type": "G2", "element": "Pd"}, {"zeta": 1.0, "elements": ["Cu", "Cu"], "type": "G4", "gamma": 1.0, "eta": 0.005}, {"zeta": 1.0, "elements": ["Cu", "Pd"], "type": "G4", "gamma": 1.0, "eta": 0.005}, {"zeta": 1.0, "elements": ["Pd", "Pd"], "type": "G4", "gamma": 1.0, "eta": 0.005}, {"zeta": 1.0, "elements": ["Cu", "Cu"], "type": "G4", "gamma": -1.0, "eta": 0.005}, {"zeta": 1.0, "elements": ["Cu", "Pd"], "type": "G4", "gamma": -1.0, "eta": 0.005}, {"zeta": 1.0, "elements": ["Pd", "Pd"], "type": "G4", "gamma": -1.0, "eta": 0.005}, {"zeta": 2.0, "elements": ["Cu", "Cu"], "type": "G4", "gamma": 1.0, "eta": 0.005}, {"zeta": 2.0, "elements": ["Cu", "Pd"], "type": "G4", "gamma": 1.0, "eta": 0.005}, {"zeta": 2.0, "elements": ["Pd", "Pd"], "type": "G4", "gamma": 1.0, "eta": 0.005}, {"zeta": 2.0, "elements": ["Cu", "Cu"], "type": "G4", "gamma": -1.0, "eta": 0.005}, {"zeta": 2.0, "elements": ["Cu", "Pd"], "type": "G4", "gamma": -1.0, "eta": 0.005}, {"zeta": 2.0, "elements": ["Pd", "Pd"], "type": "G4", "gamma": -1.0, "eta": 0.005}, {"zeta": 4.0, "elements": ["Cu", "Cu"], "type": "G4", "gamma": 1.0, "eta": 0.005}, {"zeta": 4.0, "elements": ["Cu", "Pd"], "type": "G4", "gamma": 1.0, "eta": 0.005}, {"zeta": 4.0, "elements": ["Pd", "Pd"], "type": "G4", "gamma": 1.0, "eta": 0.005}, {"zeta": 4.0, "elements": ["Cu", "Cu"], "type": "G4", "gamma": -1.0, "eta": 0.005}, {"zeta": 4.0, "elements": ["Cu", "Pd"], "type": "G4", "gamma": -1.0, "eta": 0.005}, {"zeta": 4.0, "elements": ["Pd", "Pd"], "type": "G4", "gamma": -1.0, "eta": 0.005}], "Cu": [{"eta": 0.05, "type": "G2", "element": "Cu"}, {"eta": 0.05, "type": "G2", "element": "Pd"}, {"eta": 2.0, "type": "G2", "element": "Cu"}, {"eta": 2.0, "type": "G2", "element": "Pd"}, {"eta": 4.0, "type": "G2", "element": "Cu"}, {"eta": 4.0, "type": "G2", "element": "Pd"}, {"eta": 8.0, "type": "G2", "element": "Cu"}, {"eta": 8.0, "type": "G2", "element": "Pd"}, {"eta": 20.0, "type": "G2", "element": "Cu"}, {"eta": 20.0, "type": "G2", "element": "Pd"}, {"eta": 40.0, "type": "G2", "element": "Cu"}, {"eta": 40.0, "type": "G2", "element": "Pd"}, {"eta": 80.0, "type": "G2", "element": "Cu"}, {"eta": 80.0, "type": "G2", "element": "Pd"}, {"zeta": 1.0, "elements": ["Cu", "Cu"], "type": "G4", "gamma": 1.0, "eta": 0.005}, {"zeta": 1.0, "elements": ["Cu", "Pd"], "type": "G4", "gamma": 1.0, "eta": 0.005}, {"zeta": 1.0, "elements": ["Pd", "Pd"], "type": "G4", "gamma": 1.0, "eta": 0.005}, {"zeta": 1.0, "elements": ["Cu", "Cu"], "type": "G4", "gamma": -1.0, "eta": 0.005}, {"zeta": 1.0, "elements": ["Cu", "Pd"], "type": "G4", "gamma": -1.0, "eta": 0.005}, {"zeta": 1.0, "elements": ["Pd", "Pd"], "type": "G4", "gamma": -1.0, "eta": 0.005}, {"zeta": 2.0, "elements": ["Cu", "Cu"], "type": "G4", "gamma": 1.0, "eta": 0.005}, {"zeta": 2.0, "elements": ["Cu", "Pd"], "type": "G4", "gamma": 1.0, "eta": 0.005}, {"zeta": 2.0, "elements": ["Pd", "Pd"], "type": "G4", "gamma": 1.0, "eta": 0.005}, {"zeta": 2.0, "elements": ["Cu", "Cu"], "type": "G4", "gamma": -1.0, "eta": 0.005}, {"zeta": 2.0, "elements": ["Cu", "Pd"], "type": "G4", "gamma": -1.0, "eta": 0.005}, {"zeta": 2.0, "elements": ["Pd", "Pd"], "type": "G4", "gamma": -1.0, "eta": 0.005}, {"zeta": 4.0, "elements": ["Cu", "Cu"], "type": "G4", "gamma": 1.0, "eta": 0.005}, {"zeta": 4.0, "elements": ["Cu", "Pd"], "type": "G4", "gamma": 1.0, "eta": 0.005}, {"zeta": 4.0, "elements": ["Pd", "Pd"], "type": "G4", "gamma": 1.0, "eta": 0.005}, {"zeta": 4.0, "elements": ["Cu", "Cu"], "type": "G4", "gamma": -1.0, "eta": 0.005}, {"zeta": 4.0, "elements": ["Cu", "Pd"], "type": "G4", "gamma": -1.0, "eta": 0.005}, {"zeta": 4.0, "elements": ["Pd", "Pd"], "type": "G4", "gamma": -1.0, "eta": 0.005}]}, "activation": "tanh", "hiddenlayers": {"Pd": [3, 50], "Cu": [3, 50]}, "weights": {"Cu": {"1": [[-0.34375996281690274, -0.1816825293207491, -0.7679962283238227], [-0.4157326338310215, -0.6899928390726396, -0.4924465958289409], [-0.4086711279928904, 0.9592538679082869, -0.6028764353390889], [-0.44724338847475625, 1.2775660561367266, -0.5918878273080043], [-0.45613876695424466, -1.5813298087226944, -0.3430978516591805], [-0.3352541847767426, 3.2392270463759, -0.748097167363724], [-0.5765619360506075, 1.1919334881300607, 0.031944189584920214], [-0.36496821313128525, 0.1755327740350044, -0.9039680422527018], [-0.7645896715836411, -1.6860150109568304, -0.031424300689683916], [-0.5160278168104828, -4.737766458802036, -0.44728007591314434], [-0.7516863651202756, 0.3031757626651411, -0.7065509596071269], [-0.7887359707962368, 2.167971086429284, 0.5126228034099363], [-0.239978620792709, -0.042110902806498665, 0.8534867382685838], [-0.7924776942207583, -0.5904804318623557, 1.7877354027925092], [0.07132224046965702, -0.31882098946322146, -0.44282103035050674], [0.04505342680922547, 0.7112807471785967, -0.07147829251186585], [0.04169217979641056, 0.6015190522016017, 0.20958882861481334], [-0.04763543898393582, 0.38858492391957844, -0.4130813160884873], [-0.02170768339878373, 0.22227236161455885, -0.11953270222907332], [-0.0070580636326042995, 0.30403403186369554, 0.046261225056720305], [0.12325528350943855, -0.3382106064867663, -0.4710057417954133], [0.13913143013464072, 0.5719963308246114, -0.01662966239685577], [0.04299055804777429, -0.01032114708707501, 0.17200810352201212], [0.04138657284332444, 0.76490796658479, -0.40618364520713524], [-0.05480215723640493, -0.3597050507418317, -0.09356203872115833], [-0.039025959852741036, -0.7273075114929339, 0.014581862523424517], [0.17838771368495268, 0.45418955579607234, -0.47128720374328936], [0.10962994909948183, -0.8520110294147405, -0.02598323073528209], [0.03552365937835959, -0.1456427330824843, 0.2539688731263015], [-0.00783667201730476, -0.9406287499899184, -0.39577663147681524], [-0.039252807357247566, -0.3032190528490749, 0.02466537136253302], [-0.04713508737141967, -0.040485798604372146, -0.10584069778310738], [0.7016590714242401, -0.9617956995444242, -3.164039417530857]], "2": [[-0.09798843945996194, 0.30576670047040916, 0.21105145592247032, 0.45708285314580704, 1.0279650943732326, -0.3475323476429522, -0.34330208023025566, 0.5221167921452077, 0.1183287287606034, 0.18053812902459657, -0.022819990969217385, 1.0288568316453905, 0.8877528975716464, -0.46661844510843437, 0.01656695247975897, 0.08385633337118675, -1.4137500493317723, 0.9379782667015908, -0.1719432093181602, -0.7849938772762541, 0.454736441833896, -0.2405424990876116, -0.5273386234656263, 0.9780986511015973, -0.807768819767032, 0.4305480411625436, -0.5979991505731087, 1.580172601989719, 0.511463883487667, -0.40578274413840276, 0.20036598865146346, -0.37699258082086484, -0.7008865004046254, -0.0842972896851486, 0.6476953640288846, -0.0462255330518617, -0.28788161566685655, -0.6671117036890022, 0.6161947104330889, 1.6611329917450863, -0.1553230785095843, 0.7297747411545988, 0.06345226377792573, 0.3485530017374279, 0.7348404722610027, -0.8540341543253644, 0.035650773525912394, -1.4384477833457185, -0.8266986299731753, 0.7634534137847662], [-1.7591294363609775, 1.7854035659238248, -1.1985363498441335, -0.5417217479848055, -0.5492936028236767, 0.17574607541681098, -0.49516571807442594, 0.46567867208812297, 0.9408126540412531, 0.6309014617359693, -0.3762283348332228, 5.235783663986759, 0.5257917834033679, -0.6021488228656179, 1.4649067413887231, -1.9229762172755562, -0.05844462762053008, -0.43450609420885555, -0.4253276880892896, -0.7139445678930357, -2.2572180359203085, -0.5736478992088418, 2.850918130011333, -0.5571099584896673, -1.4818472465555925, -0.13396307380105732, 0.43347995717808246, 0.864999622944376, 0.9165653234779798, -1.1721988023433714, 0.8093191382252195, 0.07316210140682423, 0.10628427264399545, -0.36489554329712526, -1.4753058294934445, -0.3061238070452643, 5.7952271472796175, -0.6090878114421414, 1.0136786833081355, 0.22852127223839164, 1.0966085695837895, 0.7332328322934232, -0.9863460184755525, -0.3736761293271838, 0.4801451936019345, -0.3045243694962736, 0.20468650848968278, -0.6228056152607455, -1.3568438114633024, 0.4310674363979375], [1.1986197593049648, -0.9449691753697793, -2.216232876914011, -0.060240902213258105, -1.094706026851626, -0.5602901220609222, 1.0039729913774063, -0.8137232067788965, -0.32461574685357086, 0.41858499969224705, -1.2772396705311813, 1.2916881651743686, 1.6376220902040743, -1.1916551102041126, -2.862598284523829, -0.8604142356990843, -0.2768753989121687, -0.4845825496279099, 0.8192915495480234, -1.8700940168574434, -0.41755029769213436, 1.547689065236601, -2.178702494186488, -0.15289363460447059, -0.9785695406479685, -0.7198269588324604, -2.732358981605085, 0.026070829659487593, -0.8293646469539829, 0.8284335744859246, 0.6945944638016304, -0.772093469479473, -0.1350300442283909, -1.090468728091437, -1.5346697354994598, -0.0339564679312876, -1.9728231297997005, -0.3957951425064722, -0.9130965585607822, 1.8393898599552527, 0.4639369430879489, 0.5050209731794286, -1.1598625226752453, -0.3264180300617881, 0.08489670030513255, -0.6241834461150059, 1.0294952648400069, -0.29864950684623026, 0.16162911142386965, 1.1821218407604808], [0.3163470559250144, -1.305442881428755, 0.6547818942090542, 1.0844796620178763, -1.078779310967916, -1.0069393324516274, 0.4927215220869537, -0.5626434294483827, -0.3147214087975914, -1.5362887020095144, -0.8318741559104874, 0.5285009166806783, 0.47329537808030575, 0.37353476218148784, 0.6459487146552028, -0.2899789442844265, 1.0170496715931039, 0.07153532073738188, -1.301585075658857, 1.6422221262669399, 0.012310039694122992, -0.825555493757637, 0.9846585711591316, 1.0589547421773864, 1.2440057683351093, -1.26611186216984, -1.160124317251031, -1.4123907804414955, -0.5192919643527192, -0.8066643330359414, 0.9877060872471672, -1.379334378474237, 0.4326834980631994, 0.18326439947614814, 1.4234918721121448, -0.1563060173339694, 3.943042894443868, -1.596459935750082, 0.15346161578576303, 0.2365751213475031, -0.6043884827346667, -0.8611954501426541, -0.5340504064571776, -0.8475551417100068, -0.6313443078791248, -0.8156297391178855, -0.4557901016618616, -1.3249216288329477, -0.21173509135819094, 0.2753476052046571]], "3": [[0.5147853866756809], [1.407438304164725], [1.4200975940174412], [0.06560743821931987], [0.34614655071934514], [-0.4500097613012364], [0.13496229248738834], [0.5815693080162582], [-0.028241670866467547], [-1.5107937401087927], [-0.2820540084796944], [-3.2615320576591924], [0.5964330747679889], [0.6476477762645307], [0.6936821314852623], [1.7493992698152736], [-0.324815642458557], [-0.16213855234640615], [-0.3604047418080399], [1.5275126831292725], [2.295381377389252], [0.1784279659061486], [-1.180292914039959], [-0.4259301634842362], [0.08578654330607612], [1.1000895310171237], [-0.7055635498067603], [0.3829269575511928], [-0.19243751889691652], [0.013191233817558969], [-0.608574392015622], [0.7200598266902385], [-0.29335758211174356], [-0.6303197616560852], [0.22267238305484333], [0.07323546399654614], [-2.0494200412786316], [-0.7100417266718071], [-0.4771064994081769], [-0.5272155088829831], [-0.981877062752971], [-0.5059956648321551], [1.6911645177276697], [-1.028257873332798], [-0.5973704465186821], [0.29284279433511984], [0.7385600185706837], [0.08350558032876032], [0.3894365042235337], [-0.5139853051410948], [-10.310093570462676]]}, "Pd": {"1": [[0.05166329750712412, -0.14660681292347633, -0.27051493312159614], [-0.48171002186001066, 0.07661683408056057, 0.07397196648783357], [-0.3638547914984636, -0.02277975049007243, 0.03622655300784445], [-0.1969011403334663, 0.06276466281174053, -0.47120750646601767], [-1.1758035495900914, -0.13368652811010634, 0.14709998201744737], [0.03740061564438312, 0.35089159583574847, -0.6316572177055989], [0.010651257383423575, -0.7392720965455375, -0.11608001176559932], [-0.6676831812106295, 1.104023009859306, -0.6142646473500816], [1.186496624226297, -2.1990506754670673, -0.3788846554030019], [0.06588816861323618, 3.090843390767144, 0.1623984557969603], [-1.3588910101460856, -5.017926329696879, 1.4307172900339187], [0.8164757602572028, 1.6640741087395958, 1.7702436575962373], [4.088199532240389, -8.275350452147762, 4.276241942897716], [-2.2359135541440978, -5.11833830625794, 3.5273277737648407], [-0.5673618384197426, 0.549334047674213, -2.770500000019041], [0.7719705541573113, -0.9726844426360495, -1.6310745988908395], [-0.49886589939613946, -2.6095779658067406, -0.5028671815734617], [-1.0438633567218314, 0.22440295394897558, -2.356480841703425], [1.0358934061685159, -1.062456942882682, -1.4932994375136275], [-1.0055671314018009, -2.418088790443028, -0.3444600559716189], [-0.07209570560136938, 0.6607583067137359, -2.8828663195898145], [0.3094491692427798, -0.896421947424536, -1.704493582849615], [-0.1266268959131919, -2.660292433852426, -0.5098821708149965], [-0.5084525498773009, 0.2650465616558712, -2.395341670817449], [0.5435834091247478, -1.120728673668399, -1.4938708252298682], [-0.6853980054908143, -2.3359474657559316, -0.39387616901675626], [1.0587790730783, 0.808421061700455, -3.113514161581673], [-0.31403910892971365, -0.892215029763674, -1.8123565871816978], [0.47570592587835864, -2.7954765492203513, -0.5399487951863566], [0.06458434464478581, 0.39089623725650124, -2.4068213477425013], [-0.37967707499004516, -1.1027377845727953, -1.4830477803184239], [0.5680345117132554, -2.3940469352885216, -0.3722459684057051], [-0.058012835790013505, -10.695338860563293, 18.44461926344952]], "2": [[-0.2801754094237355, -0.22960604179801045, -1.4428147859749787, 3.5266569316439753, -0.6210485326604601, -2.1001760774564238, 3.38396728944866, 1.4179073421227597, -0.5895649488007298, 1.720824194469503, 6.35004763976944, -2.875879755466622, 1.3551959861833727, -1.3757730172725084, -3.2490588294263314, -0.890927244572654, 1.6457042334181733, -0.6364081008196087, 0.8849808832915405, 0.5200056365432895, -0.02133051927306841, -3.9345812083570815, 1.9485108260909363, 0.6555197525618699, -2.693290410523351, 0.9440560686205481, -0.020621828116741073, 1.3047211864246548, 1.7382875083799736, 3.50062840358878, 1.988116790485658, -2.137555263566075, -1.3832169045198894, 1.787800462412911, 5.400654052690304, 0.39107618605631883, -2.587735469759541, -4.020404427772324, -0.8492779211700159, 1.3143434256720512, -2.236376498423466, 2.9839588924557447, 0.24918664683900046, -1.8490348466686322, 2.6917758116121813, 4.862402071997306, -0.6488526253920753, 2.0158913602983555, 0.9590857986673545, 0.273711635653352], [-4.699087803223332, 0.23640902940027853, 0.07271415238010356, 2.2201279980367454, -6.777554181312614, 3.0790631905479184, 3.151696466413151, -1.5287186363943144, -0.8826199771203272, -0.9992196864224882, 7.309644132431524, 8.649841041003066, 0.6998405047659406, 0.5565227447190042, 0.14536350893480504, -0.6541206000945079, -1.1711929033736728, 0.261316183862462, -3.997794320008722, 5.090141509404878, -1.0171887669465047, -1.6163375822824617, 0.21484521918532096, -0.5430642149254337, 4.124300049008459, -5.311294035284076, 6.399850257965854, -0.42133373754186837, 2.5588264361293134, 5.520063894354231, -1.8065145076918727, -0.11202817270663824, 3.0948464523641306, 1.3943977774384684, 7.80859956310162, -1.047582489195129, 2.711412996575023, 2.3430814804672297, 1.1081278292851517, 4.5199497069194265, -0.04813068535457528, -0.2545893271970822, -0.38092676243764284, -1.813785890153953, -0.30454877821807597, 3.187929046729968, -2.518989450441739, -7.910163610121067, 2.304160328990383, -0.29663134392579804], [-2.600004305775902, 0.3727079226280975, -0.2528297044531033, 0.6932628265139458, 0.710804723370094, 2.3181338898833617, 0.7220614041996025, 0.9546135576743311, 0.1643355463779163, -1.9726660868999857, -4.452533764112086, -0.007603849419153201, 0.8607015441396272, -1.574447406376462, -0.7346306232715745, -1.5584856343511282, 0.9368647281388526, 0.8538053448445121, 2.0194765942170996, -1.7876388077917555, -0.47137102778052925, -1.042394225209295, -1.6248435592509511, -0.19110456529488587, 2.5940468879474547, 1.1152351012294597, 0.6343022990376974, -1.1974505024768056, 2.9956182435573475, -1.3129798410223286, -2.3499661859752576, -1.7502069296407674, 1.1478316051755197, -0.2739934632568143, 1.705340430908486, 0.5257518385258568, 0.9485152770517888, -0.5820503832749843, 0.3504463115737106, 1.1851365480864222, 2.4760248423203324, 2.2310018378603598, 1.6739768542555005, -6.493696112339524, -1.3591552032956653, -0.5542350832993524, 0.14814043275043665, 0.64994949098451, 0.933361724629532, 2.482257285632269], [-0.156733376720755, 2.4657899733359723, -0.8568978755556509, 0.7678872737733193, 2.5401488713532205, 1.8931978987225575, 2.9309834768337164, -0.21548758701429016, -0.5376649088005865, 0.6091898997632661, 3.846102959792632, -2.355015811671065, 1.8763064436610013, 0.381601765787802, -2.0913488211691353, 2.2038231155725727, -0.13784180585330652, -0.11983254445479337, 0.27887211087618546, -1.1784214421703916, 1.0472695459082488, -0.5372361873573624, -0.751570877321511, 1.5084302492153059, -0.25535565176929903, 1.0459977763658157, -1.1701327852559076, 0.8240603138816088, 1.0697896491333194, -0.2284860036273869, -0.6962935012933071, -0.014084807956434523, -1.2145852695227024, 0.30449628763990905, 0.5006735523170645, 1.4379950486252673, -0.3753374893050859, -5.582117219316075, -0.8420515679116631, -2.4746091971591455, 0.857036652615297, 1.3839041928233191, 2.3730489554671204, 1.8563024346749204, 0.06230045048754865, 1.3985368672246186, 0.9205943208136608, 0.9668064030073666, 0.49554242257496395, -0.043263310274292935]], "3": [[-0.3989326381840202], [-0.16402987638844288], [-1.3200009755783697], [-1.133140841681235], [-1.9597582653392822], [2.759043107269339], [1.6750522343691725], [1.430379631391092], [-0.5741422232429084], [2.4625253913153187], [4.263387796056299], [1.090589678021232], [1.9707133420257499], [-0.0908473421643248], [-0.5120139478793899], [-1.2544784233084165], [-0.3021781680508686], [-0.29589179134632926], [-1.868722231312991], [-4.918836622886464], [-0.01611610803261905], [0.09657237268889404], [-2.2356020038635256], [-0.48414422693964204], [-1.0131276019107818], [2.583743700116519], [0.44049317796342946], [-0.19424912306277303], [0.9033528781471224], [3.5287159521440423], [0.16113737602298078], [-1.3921173276338337], [2.988260326213438], [-2.108802657746836], [-0.41393264369670624], [-0.5741298992888002], [-7.446755038506401], [1.6529266666177755], [1.2981407222275616], [3.318809409872017], [0.300116314255521], [0.7934972097549204], [-1.1293310234661904], [3.2463212879017944], [-0.00109246151773793], [0.31805579232381204], [-2.174832970622036], [4.855075411407617], [5.525091326169527], [-1.3734042615092559], [-6.7644930948359345]]}}, "fingerprints_range": {"Cu": [[3.8146277207833967, 14.773671446513346], [5.075825660853212, 15.824610224206179], [1.9721308711236742, 8.164757780830866], [2.7940842302060656, 9.183520039100534], [1.08754296072989, 4.899596885294583], [1.626586495785668, 5.901293632153394], [0.38009057411024255, 2.100229183316305], [0.5979162717004696, 3.058089253340858], [0.022806104583746538, 0.29703065781176186], [0.03267752149778091, 0.7702142399843445], [0.00023994660593454532, 0.019532691216232568], [0.0002600781049340315, 0.09579851951537856], [2.684004252678675e-08, 0.00012027018144348271], [1.6475482387583465e-08, 0.0014999082499671163], [53.933374514847664, 586.0279136978755], [128.12064751587994, 1339.0774553779588], [52.68618639940384, 680.2199829665379], [41.131668150485005, 430.46949002501225], [88.82571853690784, 933.9576344679633], [44.11384078148922, 505.84680013293473], [38.66980126118429, 428.8432803118022], [95.83947136339181, 999.1121607682313], [36.58466439539326, 497.0153279237612], [25.868094896821642, 273.284856638939], [56.54454238441965, 593.9923398582351], [28.01231877747867, 322.6421450901536], [25.025718372670145, 287.61510794586883], [66.16046138643475, 694.3948342368042], [22.452534931026978, 333.734781480117], [14.968829911531767, 160.4359473839458], [33.562339210372066, 348.9904146530375], [16.382317416211794, 189.85900104165898]], "Pd": [[5.075825660853211, 15.82461022420618], [3.8146277207833954, 14.773671446513346], [2.7940842302060642, 9.183520039100532], [1.9721308711236738, 8.164757780830866], [1.626586495785668, 5.901293632153396], [1.0875429607298897, 4.899596885294583], [0.59791627170047, 3.058089253340857], [0.38009057411024233, 2.100229183316305], [0.03267752149778091, 0.770214239984344], [0.022806104583746524, 0.29703065781176186], [0.0002600781049340315, 0.09579851951537853], [0.00023994660593454505, 0.019532691216232568], [1.6475482387583465e-08, 0.0014999082499671157], [2.68400425267867e-08, 0.00012027018144348271], [52.68618639940385, 680.2199829665362], [128.12064751588002, 1339.0774553779634], [53.93337451484764, 586.0279136978755], [44.1138407814892, 505.8468001329346], [88.82571853690804, 933.9576344679631], [41.131668150485, 430.46949002501225], [36.58466439539324, 497.01532792376423], [95.83947136339191, 999.1121607682309], [38.669801261184276, 428.8432803118022], [28.012318777478665, 322.6421450901558], [56.54454238441963, 593.9923398582329], [25.868094896821624, 273.284856638939], [22.45253493102693, 333.73478148011566], [66.16046138643475, 694.3948342368044], [25.025718372670134, 287.61510794586883], [16.3823174162118, 189.85900104165927], [33.56233921037198, 348.9904146530362], [14.968829911531756, 160.4359473839458]]}, "fingerprints_tag": 1, "scalings": {"Cu": {"intercept": 0.28030121721197154, "slope": 8.8111242904148845}, "Pd": {"intercept": 0.28030121710105038, "slope": 2.4473941036310136}}}