{"cutoff": 6.5, "Gs": {"Pd": [{"eta": 0.05, "type": "G2", "element": "Cu"}, {"eta": 0.05, "type": "G2", "element": "Pd"}, {"eta": 2.0, "type": "G2", "element": "Cu"}, {"eta": 2.0, "type": "G2", "element": "Pd"}, {"eta": 4.0, "type": "G2", "element": "Cu"}, {"eta": 4.0, "type": "G2", "element": "Pd"}, {"eta": 8.0, "type": "G2", "element": "Cu"}, {"eta": 8.0, "type": "G2", "element": "Pd"}, {"eta": 20.0, "type": "G2", "element": "Cu"}, {"eta": 20.0, "type": "G2", "element": "Pd"}, {"eta": 40.0, "type": "G2", "element": "Cu"}, {"eta": 40.0, "type": "G2", "element": "Pd"}, {"eta": 80.0, "type": "G2", "element": "Cu"}, {"eta": 80.0, "type": "G2", "element": "Pd"}, {"zeta": 1.0, "elements": ["Cu", "Cu"], "type": "G4", "gamma": 1.0, "eta": 0.005}, {"zeta": 1.0, "elements": ["Cu", "Pd"], "type": "G4", "gamma": 1.0, "eta": 0.005}, {"zeta": 1.0, "elements": ["Pd", "Pd"], "type": "G4", "gamma": 1.0, "eta": 0.005}, {"zeta": 1.0, "elements": ["Cu", "Cu"], "type": "G4", "gamma": -1.0, "eta": 0.005}, {"zeta": 1.0, "elements": ["Cu", "Pd"], "type": "G4", "gamma": -1.0, "eta": 0.005}, {"zeta": 1.0, "elements": ["Pd", "Pd"], "type": "G4", "gamma": -1.0, "eta": 0.005}, {"zeta": 2.0, "elements": ["Cu", "Cu"], "type": "G4", "gamma": 1.0, "eta": 0.005}, {"zeta": 2.0, "elements": ["Cu", "Pd"], "type": "G4", "gamma": 1.0, "eta": 0.005}, {"zeta": 2.0, "elements": ["Pd", "Pd"], "type": "G4", "gamma": 1.0, "eta": 0.005}, {"zeta": 2.0, "elements": ["Cu", "Cu"], "type": "G4", "gamma": -1.0, "eta": 0.005}, {"zeta": 2.0, "elements": ["Cu", "Pd"], "type": "G4", "gamma": -1.0, "eta": 0.005}, {"zeta": 2.0, "elements": ["Pd", "Pd"], "type": "G4", "gamma": -1.0, "eta": 0.005}, {"zeta": 4.0, "elements": ["Cu", "Cu"], "type": "G4", "gamma": 1.0, "eta": 0.005}, {"zeta": 4.0, "elements": ["Cu", "Pd"], "type": "G4", "gamma": 1.0, "eta": 0.005}, {"zeta": 4.0, "elements": ["Pd", "Pd"], "type": "G4", "gamma": 1.0, "eta": 0.005}, {"zeta": 4.0, "elements": ["Cu", "Cu"], "type": "G4", "gamma": -1.0, "eta": 0.005}, {"zeta": 4.0, "elements": ["Cu", "Pd"], "type": "G4", "gamma": -1.0, "eta": 0.005}, {"zeta": 4.0, "elements": ["Pd", "Pd"], "type": "G4", "gamma": -1.0, "eta": 0.005}], "Cu": [{"eta": 0.05, "type": "G2", "element": "Cu"}, {"eta": 0.05, "type": "G2", "element": "Pd"}, {"eta": 2.0, "type": "G2", "element": "Cu"}, {"eta": 2.0, "type": "G2", "element": "Pd"}, {"eta": 4.0, "type": "G2", "element": "Cu"}, {"eta": 4.0, "type": "G2", "element": "Pd"}, {"eta": 8.0, "type": "G2", "element": "Cu"}, {"eta": 8.0, "type": "G2", "element": "Pd"}, {"eta": 20.0, "type": "G2", "element": "Cu"}, {"eta": 20.0, "type": "G2", "element": "Pd"}, {"eta": 40.0, "type": "G2", "element": "Cu"}, {"eta": 40.0, "type": "G2", "element": "Pd"}, {"eta": 80.0, "type": "G2", "element": "Cu"}, {"eta": 80.0, "type": "G2", "element": "Pd"}, {"zeta": 1.0, "elements": ["Cu", "Cu"], "type": "G4", "gamma": 1.0, "eta": 0.005}, {"zeta": 1.0, "elements": ["Cu", "Pd"], "type": "G4", "gamma": 1.0, "eta": 0.005}, {"zeta": 1.0, "elements": ["Pd", "Pd"], "type": "G4", "gamma": 1.0, "eta": 0.005}, {"zeta": 1.0, "elements": ["Cu", "Cu"], "type": "G4", "gamma": -1.0, "eta": 0.005}, {"zeta": 1.0, "elements": ["Cu", "Pd"], "type": "G4", "gamma": -1.0, "eta": 0.005}, {"zeta": 1.0, "elements": ["Pd", "Pd"], "type": "G4", "gamma": -1.0, "eta": 0.005}, {"zeta": 2.0, "elements": ["Cu", "Cu"], "type": "G4", "gamma": 1.0, "eta": 0.005}, {"zeta": 2.0, "elements": ["Cu", "Pd"], "type": "G4", "gamma": 1.0, "eta": 0.005}, {"zeta": 2.0, "elements": ["Pd", "Pd"], "type": "G4", "gamma": 1.0, "eta": 0.005}, {"zeta": 2.0, "elements": ["Cu", "Cu"], "type": "G4", "gamma": -1.0, "eta": 0.005}, {"zeta": 2.0, "elements": ["Cu", "Pd"], "type": "G4", "gamma": -1.0, "eta": 0.005}, {"zeta": 2.0, "elements": ["Pd", "Pd"], "type": "G4", "gamma": -1.0, "eta": 0.005}, {"zeta": 4.0, "elements": ["Cu", "Cu"], "type": "G4", "gamma": 1.0, "eta": 0.005}, {"zeta": 4.0, "elements": ["Cu", "Pd"], "type": "G4", "gamma": 1.0, "eta": 0.005}, {"zeta": 4.0, "elements": ["Pd", "Pd"], "type": "G4", "gamma": 1.0, "eta": 0.005}, {"zeta": 4.0, "elements": ["Cu", "Cu"], "type": "G4", "gamma": -1.0, "eta": 0.005}, {"zeta": 4.0, "elements": ["Cu", "Pd"], "type": "G4", "gamma": -1.0, "eta": 0.005}, {"zeta": 4.0, "elements": ["Pd", "Pd"], "type": "G4", "gamma": -1.0, "eta": 0.005}]}, "activation": "tanh", "hiddenlayers": {"Pd": [4, 30], "Cu": [4, 30]}, "weights": {"Cu": {"1": [[0.02103625737860315, 1.158148516621831, -0.3835958558340846, -0.280773553595006], [0.01239233056754978, 1.1174942416273708, -0.16655550246663223, -0.2762538597287089], [0.07167508366384612, 1.1287857327992177, -0.2863566568426401, -0.2800176727122775], [0.05384100900508599, 1.1437800141707084, -0.21359167989061045, -0.28192530644592945], [0.025403162808187274, 1.1289397259167262, -0.19258428006323108, -0.32916059533094066], [-0.004207754790011862, 1.1553019036978212, -0.2998537456454854, -0.19458568900929896], [0.0760312230084713, 1.084702107371101, -0.050352149506711845, -0.42300655282056576], [0.008977541888703639, 1.212582854855613, -0.37651459371228874, -0.17561674823787624], [0.15518101419036262, 0.8308587937514078, -0.1252946477486625, -0.603682732097923], [0.17112693690291772, 0.8534338727093324, -0.2820172395991025, -0.4739515830912166], [0.27018116763812544, 0.2755114002384123, -0.600211765093393, -0.9501480651743079], [0.35983320557941706, -0.07370892794038604, -0.11566990152141347, -0.8784214563973518], [0.496191428082284, -1.0607188772334804, 0.13488335227652642, -1.2977173294388462], [0.5035392240281883, -1.1317263296810678, -0.018439502787904554, -1.2117930836663267], [0.10821893312240441, -0.09025336206568225, 0.01935393616756548, -0.5993177959770511], [0.21369538276808087, -0.12317160928558898, -0.11572100809230268, -0.6858777016723384], [0.20842198249129812, -0.1476727270706439, -0.4240427854003219, -0.7281456661562703], [0.15052620544196352, -0.023108043580179843, 0.028095970816450537, -0.5931930981669536], [0.1377081713749117, -0.05869000897384133, -0.1338389353090814, -0.6274561735510311], [0.22956875315268793, -0.06472435712275133, -0.353103401501595, -0.7321100643763039], [0.08474398775759008, -0.10190350216579508, 0.08322898351212389, -0.6332489255811279], [0.20707446112357475, -0.16433148397768887, -0.05211620463963374, -0.726091932919309], [0.239698843453417, -0.18635300735818514, -0.42586304731828273, -0.7909478843990814], [0.16419999850112765, 0.022299370550505702, 0.04001704135215428, -0.5694722090275222], [0.21701681390538227, 0.011690196285147746, -0.19473720514477974, -0.6723295568534641], [0.2365553423182457, -0.07823865829134502, -0.3797716274550705, -0.7534206279297032], [0.09429308101590854, -0.21219201965302875, 0.08817298925853072, -0.6298705596230417], [0.20829063503525153, -0.1696400807813893, -0.054973163964234656, -0.6819789944337522], [0.21945111991585833, -0.288368415489628, -0.38295701545455246, -0.8205447382097816], [0.16881742544669454, 0.048485260453098415, 0.08287777455576799, -0.5321343328631964], [0.2031966418138258, -0.050259000909988825, -0.17607551110876493, -0.6248221457495283], [0.1770267181518465, -0.035050566212476104, -0.3092568477392439, -0.7567221010893298], [-0.8060292697984939, 2.4703998451964573, -0.8159246786962767, 1.4511115545839417]], "2": [[-0.12138845807661185, -0.030967423456517745, -0.3428522517405534, -0.4566981279121258, -0.23443347554791735, -0.12747927708284526, -0.20002669113302388, -0.28922468156169434, 0.1635400358116076, 0.3936679864942288, -0.49549879593913987, 0.021105428638522265, -1.0340877751337363, 0.40400209473569126, -0.4002784281957054, 0.1672932019574944, -0.312157848866785, 0.4290566796386564, 0.845578220829043, -0.3517856638292426, 0.09327695673323136, 0.5595995895675432, 0.5161046847829249, 0.614978461143091, -0.35491177266813106, 0.15564561046560485, 0.17841205633538534, 0.29883185486913155, 0.08311161345572805, -0.16929594841419038], [-0.8482518837681111, 0.7709471293868109, 0.15327736600958794, 0.12413683246423583, -0.7824387246081296, -0.19597984517336997, -0.31439993081123063, 0.07778023762280001, 0.16444115346743746, 0.6794682887808824, -0.1253281148917941, -0.31746963025489355, -0.6374625640290454, -0.20653603045189473, -0.5680429703902162, 0.017272775659957388, -0.517618388227314, 0.7287393846172537, 0.29139124084675305, -0.6326188495766151, 0.4245243966937265, -0.042526691490612514, -0.03455415565483782, 0.2991092325791563, -0.9708564255491474, -0.41611233410776527, 0.8329414489415298, -0.512849622290443, 0.45496057941605345, -0.16018956946659477], [0.2025753415653021, -0.43659090440781967, 0.3369205166422201, 0.33277711496639933, 0.1599678388533493, -0.07342931736186406, 0.5172746674947533, -0.3465806782046547, -0.5319079011446888, -0.15106086050696027, -0.6317127085409865, 0.16508077445607083, 0.4659344431314611, 1.7882305655911082, 0.21497717145205653, 0.11665590428106792, 0.24371449487017735, -0.4306288732617023, -0.17763327535313322, -0.07060354973391485, -0.23545838656896292, -0.19538070558596451, -0.5674519940324132, -0.33048016465561586, 1.4580487179101522, -0.15593516174864763, -0.4105963950364557, 0.07720911285528251, -0.15203751739747057, 0.22372921700340476], [0.02488771235129887, -0.002654492510328714, -0.03617013896282479, -0.15711856499708884, 0.22881129716128235, -0.17697175637081292, 0.32999413578438097, -0.15680539745673708, -0.04654989717881529, -0.45068720579429383, 0.31176215297762777, 0.20554711512534168, 0.36171520367625265, -0.045695099818282264, -0.04596160729853286, 0.1013594278918203, 0.13432372231845133, -0.17332377623743883, -0.6486398682295712, -0.1471745884437552, -0.07119945388781493, -1.0246067405410109, -0.3152075273423843, -0.421551209864943, 0.3077494203141605, 0.2974122905222631, -0.4446395592346464, -0.16022326930565356, -0.3337004189168011, 0.2211644491830487], [-0.254548867401284, 0.11953368489517012, 0.29695381620619654, -0.7435267146398642, -0.3245651993110852, -0.017478443293111323, 0.30872288601035264, -0.21162403027568855, -0.04510820296259966, 0.5003959952950583, -0.28907616033135364, -0.21875877749055544, -0.5822814048722639, 0.244100314974898, -0.30054359854542956, -0.4235595338615508, -0.7149882376614034, 0.5672740168524801, 0.7491643694557207, -1.2032057074006755, -0.30541973076880097, -0.05365259597519332, -0.0018057035242104089, 0.7522617484593702, -1.46243172887651, 0.17613199857188722, 1.2645229664714852, 0.42771592225456656, 0.31583060014883785, -0.3961250340337124]], "3": [[-0.56999735418233], [0.3843498895109413], [0.07332914053950776], [-0.7828311343330813], [-0.8357869965760494], [-0.12772889560003378], [0.07311043824022098], [-0.1624311424199809], [-0.01858336167124302], [0.5912998855360752], [-0.5346991189962079], [-0.39427114466067903], [-1.2909952827365478], [0.6145109665046944], [-0.7085575959257795], [-0.3721515936111089], [-1.2068856680593767], [1.4035754848993292], [1.2855965848827131], [-1.67206909326116], [0.040012414378160326], [0.4809132868249263], [0.4062516509847462], [0.5941667321565399], [-1.3442436661415764], [0.017475831373008253], [1.1613088633376663], [-0.2930896555328501], [0.5476419120897675], [-0.6844726481114978], [-5.757933957991319]]}, "Pd": {"1": [[-0.36840045666279875, -0.06856682812200277, -0.7812897544610565, 0.10969740543070494], [0.0928450839658446, -0.11192584594314339, -0.7938588956654726, 0.4083435189032746], [-0.2456538860696138, -0.31863102489413864, -0.7938361819070636, 0.13970266104026777], [-0.12594764053249502, 0.06537973107417207, -0.7855520350422971, 0.587322484303354], [-0.1671842565247658, -0.3975725877608313, -0.8686897435171702, 0.36743803101267175], [-0.2467020728171991, -0.20275542915450812, -0.7933995768094977, 0.4481912490052311], [-0.012144164950797662, 0.0009137762437725045, -0.765955871619231, 0.6363797283578031], [-0.38701307977834026, -0.3371417035714722, -0.720190450121996, 0.012567023651093013], [0.38359136899728075, 0.09251238626184721, -0.4164018649527373, 0.7240857502592024], [0.3771649830198934, 0.24973416972733742, -0.7569686298211741, -0.13956883204703516], [0.35035478439889406, 0.7660346058685725, 0.20003472021206067, 0.2100883049009266], [1.6300947624762625, 0.16478309218908785, -0.5347773488762896, 0.7115380123297627], [0.01921490636987225, 0.18020719012568093, 0.933790672618533, 0.1674955001976413], [0.6010426235710847, -0.0067509545021163155, -0.11085247292140271, -0.5848570827494848], [0.1398194100213049, -0.28209722828120876, -0.6573537145434152, -0.013528779583974124], [-0.23690426898188394, -0.008378017165360425, -0.22427546641789758, 0.0025291310355227232], [-0.44876879412326, -0.21175273973811462, 0.1474928084123769, -0.04031980680541914], [0.10097214638757548, -0.0634869188760748, -0.5698819934123385, -0.12574741086033342], [-0.20838269810966512, 0.11413814367816774, -0.25527288357152167, 0.07425638908835289], [-0.30172405075887804, -0.24129473744714128, 0.057090278034375636, 0.1948595134333128], [0.13474589073023252, -0.2340357693798584, -0.6020881864857256, -0.012491751565781388], [-0.22947874039855926, -0.08285872776067639, -0.20343836139528335, -0.03568327269027568], [-0.5361756667728678, -0.01857295899572567, 0.15134531145736843, -0.17766556389054022], [0.06612115975031009, 0.12255280498308317, -0.5967742543277103, -0.06522967920295716], [-0.1762594030768113, 0.18839196170727884, -0.20051769719875087, 0.08220078435767474], [-0.34427533189138687, -0.025197814631398755, 0.0159045147426721, 0.1516736240579313], [0.11223978387982546, 0.2244767530137941, -0.6517237768828307, 0.10461216567195812], [-0.24707161514389714, 0.031192311977309393, -0.2494071768109805, -0.017192821693523576], [-0.5670745041921722, 0.1455587818690542, 0.2746769383545551, -0.26804148664356964], [0.046286201130136324, 0.04899626578583331, -0.5787185950542177, 0.05914187086654122], [-0.14010881853031146, 0.16365642361844293, -0.22217812733700493, 0.054419746065277025], [-0.32509029713311494, 0.1432039504973611, 0.024644442318313118, 0.13506689825107235], [-0.7480165629456792, 0.882522824944343, -1.5642404373823122, 0.6466924213552009]], "2": [[-0.19382572864894054, 0.10799329579675385, 0.7428062853326517, 0.340243444080464, 0.08157626102781786, 0.054986849318348546, 0.8445989276698063, -0.05101735977075213, 0.12462242509526128, 0.6848098253029259, 0.21192951198115528, -0.16419686177449894, -0.3065518870083483, 0.514738027508796, 0.27433542925106397, 0.25649793365015033, 0.2777590353293301, 0.0006082124017478272, 0.7173555968191568, -0.05901936333249261, 0.5804343740633354, 0.8495145169391185, 0.10853764466118067, 0.1624476383887658, -0.1780525824951443, -1.3118710978656998, -0.10949977566690267, 0.10230006422521574, -0.6301078256907291, 0.08876478611314098], [0.07226011463816943, -1.513600613068789, 0.5797721197440171, 0.34979522879593045, -0.1320499183401769, -0.26910205026311323, 0.8861869168594766, -1.4441324289479964, -0.11375220227434077, 0.24241179492192333, -0.9420400150145084, -0.09719927141595376, -3.146404502541001, -0.34368338444782753, -0.24189452698913064, -1.1122523880242952, -0.6099256122456097, 0.3359231234417706, -0.17082992013252302, 0.10795463056812907, 1.4912602667626893, 1.4230801852370296, -0.3993558627574116, 2.878356819473806, 0.5679412677442237, 0.5268295557349131, 0.6716577720271081, -0.6640564353449746, 0.4756396189473792, -0.3111966395223697], [-0.3805608197748322, -0.09610412442920371, -1.0242986047584979, 0.5947918419123602, -0.693765821094813, 0.24398861649399384, -0.6509922744045138, 0.5025498758553906, 0.40693938765562343, -0.3097448524588524, 0.018963856947023093, 0.06295729203385218, -0.8803604820848369, 0.0698786973524442, 0.06111870510820694, 0.1590326491506266, 1.624736493326245, 0.2557503851038566, 0.5309299451242835, 0.41115211547086206, 0.44063613958766695, 0.7428909402642215, -0.13943135099933712, 0.5706876045278659, 0.24776589939718097, -0.8134489235003257, -0.10285535389716624, -0.23426680456700458, -1.2318961617808966, 0.3829917742602394], [0.31946660018389256, -0.3432883887313292, -0.3944451186642417, 0.07180426474536543, -1.0942379080910736, 0.2504877237880148, 0.6872101289955026, -0.34662974140991337, -0.11635658668712656, -1.3976084646819245, -0.22054233088830466, -0.2720245901825734, 0.7736003618844762, 0.8460045748948085, -0.37313978399139325, -0.5445593916306823, 1.3576559559291395, -0.10719135398741558, 0.06440417933962081, -0.10249038655082354, 1.3806834533268553, -1.2230470067290113, -1.0223786210926677, 0.8372561593605325, -0.1378793652486821, 0.7755958884633654, -1.206118768782209, 0.24405515386509907, 0.7864965347967892, -0.04590355890762574], [0.4397427068410023, 1.1006595464651812, -0.9350082915114418, 0.15936775085751562, 0.20199210578564636, -0.8664976075419862, -0.3136952561847691, -0.2571846214230061, -0.5125434939499562, -1.2661602839353079, -0.34310609395702557, 0.10539954994268169, 1.5167709009694017, 0.5541973755544681, -0.1352299502884294, -0.07902401282669043, 0.5881539397103549, -0.3299165085820167, 1.7708937444454507, 0.07284977896513098, 0.6009336231169978, 0.9901729515098409, -1.3812412214416447, 0.6087202597915423, 0.7042991960706827, -1.6109995966384525, -0.006663413726258883, 1.0381133738727166, -1.2283453369092292, -0.9652205852372537]], "3": [[0.6745257019637328], [-0.3223351321610316], [-1.0455479667412522], [-0.10897683478588985], [-0.18845763909184005], [-0.15802436464539696], [0.5639208597166953], [0.04994439796854735], [-0.22857565383103196], [0.8962610282497573], [0.39694547079574155], [0.1723364144168919], [-1.2218527130311636], [0.956856886159603], [-0.41969900331884646], [-2.248085553402625], [0.5454864424585839], [0.048527691891573396], [-0.039922766760135425], [0.28276452620081916], [-0.4999079053763137], [1.300998305991914], [-0.6375310050578176], [2.831865340354061], [0.5174827414097911], [0.5401435376884777], [0.4995861350935522], [0.8559529924427735], [0.5048963385433488], [-0.7911996374450218], [-6.721252631010185]]}}, "fingerprints_range": {"Cu": [[3.8146277207833967, 14.773671446513346], [5.075825660853212, 15.824610224206179], [1.9721308711236742, 8.164757780830866], [2.7940842302060656, 9.183520039100534], [1.08754296072989, 4.899596885294583], [1.626586495785668, 5.901293632153394], [0.38009057411024255, 2.100229183316305], [0.5979162717004696, 3.058089253340858], [0.022806104583746538, 0.29703065781176186], [0.03267752149778091, 0.7702142399843445], [0.00023994660593454532, 0.019532691216232568], [0.0002600781049340315, 0.09579851951537856], [2.684004252678675e-08, 0.00012027018144348271], [1.6475482387583465e-08, 0.0014999082499671163], [53.933374514847664, 586.0279136978755], [128.12064751587994, 1339.0774553779588], [52.68618639940384, 680.2199829665379], [41.131668150485005, 430.46949002501225], [88.82571853690784, 933.9576344679633], [44.11384078148922, 505.84680013293473], [38.66980126118429, 428.8432803118022], [95.83947136339181, 999.1121607682313], [36.58466439539326, 497.0153279237612], [25.868094896821642, 273.284856638939], [56.54454238441965, 593.9923398582351], [28.01231877747867, 322.6421450901536], [25.025718372670145, 287.61510794586883], [66.16046138643475, 694.3948342368042], [22.452534931026978, 333.734781480117], [14.968829911531767, 160.4359473839458], [33.562339210372066, 348.9904146530375], [16.382317416211794, 189.85900104165898]], "Pd": [[5.075825660853211, 15.82461022420618], [3.8146277207833954, 14.773671446513346], [2.7940842302060642, 9.183520039100532], [1.9721308711236738, 8.164757780830866], [1.626586495785668, 5.901293632153396], [1.0875429607298897, 4.899596885294583], [0.59791627170047, 3.058089253340857], [0.38009057411024233, 2.100229183316305], [0.03267752149778091, 0.770214239984344], [0.022806104583746524, 0.29703065781176186], [0.0002600781049340315, 0.09579851951537853], [0.00023994660593454505, 0.019532691216232568], [1.6475482387583465e-08, 0.0014999082499671157], [2.68400425267867e-08, 0.00012027018144348271], [52.68618639940385, 680.2199829665362], [128.12064751588002, 1339.0774553779634], [53.93337451484764, 586.0279136978755], [44.1138407814892, 505.8468001329346], [88.82571853690804, 933.9576344679631], [41.131668150485, 430.46949002501225], [36.58466439539324, 497.01532792376423], [95.83947136339191, 999.1121607682309], [38.669801261184276, 428.8432803118022], [28.012318777478665, 322.6421450901558], [56.54454238441963, 593.9923398582329], [25.868094896821624, 273.284856638939], [22.45253493102693, 333.73478148011566], [66.16046138643475, 694.3948342368044], [25.025718372670134, 287.61510794586883], [16.3823174162118, 189.85900104165927], [33.56233921037198, 348.9904146530362], [14.968829911531756, 160.4359473839458]]}, "fingerprints_tag": 1, "scalings": {"Cu": {"intercept": -1.2592604904908817, "slope": 0.65316334518022234}, "Pd": {"intercept": -1.2592604905026403, "slope": 7.5786021066087566}}}