{"cutoff": 6.5, "Gs": {"Pd": [{"eta": 0.05, "type": "G2", "element": "Cu"}, {"eta": 0.05, "type": "G2", "element": "Pd"}, {"eta": 2.0, "type": "G2", "element": "Cu"}, {"eta": 2.0, "type": "G2", "element": "Pd"}, {"eta": 4.0, "type": "G2", "element": "Cu"}, {"eta": 4.0, "type": "G2", "element": "Pd"}, {"eta": 8.0, "type": "G2", "element": "Cu"}, {"eta": 8.0, "type": "G2", "element": "Pd"}, {"eta": 20.0, "type": "G2", "element": "Cu"}, {"eta": 20.0, "type": "G2", "element": "Pd"}, {"eta": 40.0, "type": "G2", "element": "Cu"}, {"eta": 40.0, "type": "G2", "element": "Pd"}, {"eta": 80.0, "type": "G2", "element": "Cu"}, {"eta": 80.0, "type": "G2", "element": "Pd"}, {"zeta": 1.0, "elements": ["Cu", "Cu"], "type": "G4", "gamma": 1.0, "eta": 0.005}, {"zeta": 1.0, "elements": ["Cu", "Pd"], "type": "G4", "gamma": 1.0, "eta": 0.005}, {"zeta": 1.0, "elements": ["Pd", "Pd"], "type": "G4", "gamma": 1.0, "eta": 0.005}, {"zeta": 1.0, "elements": ["Cu", "Cu"], "type": "G4", "gamma": -1.0, "eta": 0.005}, {"zeta": 1.0, "elements": ["Cu", "Pd"], "type": "G4", "gamma": -1.0, "eta": 0.005}, {"zeta": 1.0, "elements": ["Pd", "Pd"], "type": "G4", "gamma": -1.0, "eta": 0.005}, {"zeta": 2.0, "elements": ["Cu", "Cu"], "type": "G4", "gamma": 1.0, "eta": 0.005}, {"zeta": 2.0, "elements": ["Cu", "Pd"], "type": "G4", "gamma": 1.0, "eta": 0.005}, {"zeta": 2.0, "elements": ["Pd", "Pd"], "type": "G4", "gamma": 1.0, "eta": 0.005}, {"zeta": 2.0, "elements": ["Cu", "Cu"], "type": "G4", "gamma": -1.0, "eta": 0.005}, {"zeta": 2.0, "elements": ["Cu", "Pd"], "type": "G4", "gamma": -1.0, "eta": 0.005}, {"zeta": 2.0, "elements": ["Pd", "Pd"], "type": "G4", "gamma": -1.0, "eta": 0.005}, {"zeta": 4.0, "elements": ["Cu", "Cu"], "type": "G4", "gamma": 1.0, "eta": 0.005}, {"zeta": 4.0, "elements": ["Cu", "Pd"], "type": "G4", "gamma": 1.0, "eta": 0.005}, {"zeta": 4.0, "elements": ["Pd", "Pd"], "type": "G4", "gamma": 1.0, "eta": 0.005}, {"zeta": 4.0, "elements": ["Cu", "Cu"], "type": "G4", "gamma": -1.0, "eta": 0.005}, {"zeta": 4.0, "elements": ["Cu", "Pd"], "type": "G4", "gamma": -1.0, "eta": 0.005}, {"zeta": 4.0, "elements": ["Pd", "Pd"], "type": "G4", "gamma": -1.0, "eta": 0.005}], "Cu": [{"eta": 0.05, "type": "G2", "element": "Cu"}, {"eta": 0.05, "type": "G2", "element": "Pd"}, {"eta": 2.0, "type": "G2", "element": "Cu"}, {"eta": 2.0, "type": "G2", "element": "Pd"}, {"eta": 4.0, "type": "G2", "element": "Cu"}, {"eta": 4.0, "type": "G2", "element": "Pd"}, {"eta": 8.0, "type": "G2", "element": "Cu"}, {"eta": 8.0, "type": "G2", "element": "Pd"}, {"eta": 20.0, "type": "G2", "element": "Cu"}, {"eta": 20.0, "type": "G2", "element": "Pd"}, {"eta": 40.0, "type": "G2", "element": "Cu"}, {"eta": 40.0, "type": "G2", "element": "Pd"}, {"eta": 80.0, "type": "G2", "element": "Cu"}, {"eta": 80.0, "type": "G2", "element": "Pd"}, {"zeta": 1.0, "elements": ["Cu", "Cu"], "type": "G4", "gamma": 1.0, "eta": 0.005}, {"zeta": 1.0, "elements": ["Cu", "Pd"], "type": "G4", "gamma": 1.0, "eta": 0.005}, {"zeta": 1.0, "elements": ["Pd", "Pd"], "type": "G4", "gamma": 1.0, "eta": 0.005}, {"zeta": 1.0, "elements": ["Cu", "Cu"], "type": "G4", "gamma": -1.0, "eta": 0.005}, {"zeta": 1.0, "elements": ["Cu", "Pd"], "type": "G4", "gamma": -1.0, "eta": 0.005}, {"zeta": 1.0, "elements": ["Pd", "Pd"], "type": "G4", "gamma": -1.0, "eta": 0.005}, {"zeta": 2.0, "elements": ["Cu", "Cu"], "type": "G4", "gamma": 1.0, "eta": 0.005}, {"zeta": 2.0, "elements": ["Cu", "Pd"], "type": "G4", "gamma": 1.0, "eta": 0.005}, {"zeta": 2.0, "elements": ["Pd", "Pd"], "type": "G4", "gamma": 1.0, "eta": 0.005}, {"zeta": 2.0, "elements": ["Cu", "Cu"], "type": "G4", "gamma": -1.0, "eta": 0.005}, {"zeta": 2.0, "elements": ["Cu", "Pd"], "type": "G4", "gamma": -1.0, "eta": 0.005}, {"zeta": 2.0, "elements": ["Pd", "Pd"], "type": "G4", "gamma": -1.0, "eta": 0.005}, {"zeta": 4.0, "elements": ["Cu", "Cu"], "type": "G4", "gamma": 1.0, "eta": 0.005}, {"zeta": 4.0, "elements": ["Cu", "Pd"], "type": "G4", "gamma": 1.0, "eta": 0.005}, {"zeta": 4.0, "elements": ["Pd", "Pd"], "type": "G4", "gamma": 1.0, "eta": 0.005}, {"zeta": 4.0, "elements": ["Cu", "Cu"], "type": "G4", "gamma": -1.0, "eta": 0.005}, {"zeta": 4.0, "elements": ["Cu", "Pd"], "type": "G4", "gamma": -1.0, "eta": 0.005}, {"zeta": 4.0, "elements": ["Pd", "Pd"], "type": "G4", "gamma": -1.0, "eta": 0.005}]}, "activation": "tanh", "hiddenlayers": {"Pd": [4, 40], "Cu": [4, 40]}, "weights": {"Cu": {"1": [[-0.003226486716442517, -0.04168868713870076, 0.0050842868025334775, -0.03257732907437018], [-0.017549593931296185, -0.039306750281129246, 0.022227691840674538, -0.017207130655848453], [-0.039965935585631746, 0.037889845356563534, -0.04206183293165093, 0.04342115124440753], [0.028617403755486215, -0.017276788086113312, -0.009920774190784583, -0.03005341676953496], [-0.027376882837146198, -0.020249141847456804, -0.03230804312745392, 0.004425452562464058], [0.0031779920593392325, -0.007992704802607484, -0.007187202341367313, -0.03344187956550146], [-0.015565794990774373, -0.04188101750481738, 0.03926415294776808, -0.036215044136323635], [0.04279249334454843, -0.04261181532953885, 0.017285384823944733, 0.01952962980680986], [-0.012115669225891815, 0.01674193403106293, -0.010464324221400964, -0.025981366877531727], [-0.012810097836909416, 0.0044690867424498695, 0.04632921376365051, 0.04453277348514595], [0.014185784567817189, -0.04444826063933725, 0.00397497019019924, -0.011831340770949592], [-0.043611226842843645, 0.024669861427889517, 0.02052902132794225, 0.021267999063297488], [0.020484122792091275, -0.016366210383909376, 0.0016298948677883063, 0.01559138817756782], [-0.030533086125574874, 0.004906978154855399, -0.007075714693688728, 0.028903015927372946], [-0.043192713516746944, -0.027817840145603057, -0.028885870734312348, 0.015797139640248745], [0.018621413909191212, -0.04012890687129826, 0.027486518962439394, -0.029330523089347107], [0.0061619017213805916, 0.011883443935622552, -0.03383415004722781, -0.03286313018118511], [0.019708209960660486, 0.0363748413015781, -0.01818353219501895, -0.0377262241858787], [-0.016932012695632305, 0.03625681202775689, -0.008445417450733336, -0.021223597873359732], [-0.02878161829951131, -0.027713824127898325, -0.00797604650863211, 0.026807584835564613], [0.026617073819147838, 0.020394551810029568, -0.018353212092818382, 0.017677819884907242], [-0.03546047003382666, 0.0036774854991011435, -0.037400239481036254, -0.045351033843818014], [0.003584397184203364, -0.043586198253541056, 0.03209545302786909, 0.0035514005993313447], [0.031178366760709758, -0.04555353719747097, -0.0005622622547156036, 0.02038981673079822], [0.038151272382316526, -0.008970171378080427, -0.03198697311796587, -0.043460379803195275], [-0.021783501526973233, -0.044188730653631644, -0.04009363819332997, -0.031116381628421903], [0.008483762198790379, -3.622218934314081e-05, 0.04589018419859282, -0.021551998264012998], [0.01817629930022588, 0.02793333144165698, -0.0025283374163917183, 0.010457860805045925], [-0.0009935457928515884, 0.008243810557729991, 0.033737519524280696, -0.02910308438866739], [0.0207492039239546, 0.02399967161134056, -0.008277354166965227, -0.03091164176006288], [0.03936526401736212, 0.020082858511305465, -0.014886312256220759, -0.027622086708792525], [0.043656720922835054, 0.03959025759079163, 0.042594545640925185, 0.04676057526409577], [0.0, 0.0, 0.0, 0.0]], "2": [[-0.22485801760890226, 0.19931041295884677, -0.2565031487510787, 0.22565598475227922, 0.08747343004845176, 0.31505094436860615, 0.31073125540016144, -0.2634967233704218, -0.02137452995170669, -0.06679774399225452, 0.11513788609989561, -0.3365994226023866, -0.1557295901546064, -0.1499649230471569, 0.2608500576773848, 0.32976897937105787, -0.11018331090307765, 0.29202236819150906, -0.36314159208430075, 0.009982790127194385, 0.07617349443498894, -0.11852423438942172, -0.11876060119961385, 0.028898964036679464, -0.08696431918248326, -0.3680071950295719, -0.11741458170015207, -0.18756174031978742, -0.30212295222786983, 0.16607775150336512, 0.014427446210585837, -0.2259731265455814, -0.34224657922987556, 0.2511774705935508, 0.25418408117809166, 0.31103064014529613, 0.25224569760194016, -0.16550499121506268, -0.10703584292615448, -0.3509529250028526], [-0.26324453535542014, 0.010377068098734399, -0.18174332650268846, 0.09883618853549081, 0.10875109045457554, 0.2750474329282231, 0.252611941128166, -0.010637037315069708, 0.2534274345267482, -0.22046173682569145, -0.2252464713956045, 0.12530002038585208, 0.22675340674743405, -0.0783534762388367, 0.34200700361777003, 0.24343828310661864, -0.3177324960657154, -0.02797069593949475, -0.2557112933895679, -0.12043694531686139, -0.1922493389080736, 0.043020383115416616, 0.3580900779164484, 0.17905157842358976, 0.23701284028831426, 0.3653173547644253, 0.18916307559203172, 0.14717376762798318, -0.036024176391865836, 0.03329650553530805, 0.24249289830570486, -0.060173921995915314, 0.06922122260015207, 0.3125252439008521, 0.21875459696045563, 0.21272639945514094, -0.16171509964033817, -0.23544068182082994, -0.031059757481694705, 0.3013473543092471], [-0.35015517762708065, -0.33414430836770526, -0.2384230430552598, -0.10067042435595763, 0.2703980082369082, 0.12293784777031203, -0.35387765558235196, 0.0388209187522327, -0.05982334189692673, 0.26092153387740946, 0.04845920772952467, -0.10114864260942508, 0.1801471215988769, 0.112635732763321, -0.18419147456700705, 0.09859472264558278, 0.36748228311882325, -0.3509664826737707, 0.013697615177433176, -0.26047880681794644, -0.34383224529138895, 0.04275569583069727, -0.2521990506789476, -0.24259161545651542, 0.13169802167281908, 0.28990768219098006, 0.13750628886946858, 0.2911973647847127, 0.10901965453259521, -0.0014973359941794495, 0.19139578076681762, -0.25719616400273404, -0.1662763217580412, -0.09901467926972174, 0.19977836018988104, 0.23542539984479527, 0.2344607834756678, -0.1274288334727935, 0.09475678297824047, -0.0661004095283716], [0.00867397915792284, -0.16744506661387493, 0.327847748426926, 0.33747600602772887, 0.04158353171071083, -0.2280335869233948, -0.34091700781168865, -0.28022278574157816, 0.19083322870860775, 0.20514563866458535, 0.3291323301666689, 0.22232609060072828, -0.3719432052783095, -0.0038020896283855743, -0.3300787944576795, -0.1568212434894172, -0.18588969889043075, 0.309371708329241, -0.029408151347018352, -0.11153126212035602, -0.13218375686267458, 0.08533641200236036, 0.12138947120034527, 0.14726356087324854, -0.2959551480267671, 0.34746345717033034, -0.3168556873619793, 0.01657165587952525, -0.05853463493663025, 0.09633278532672274, 0.0981515343992524, 0.32697588037894343, 0.12608487450944805, 0.2843649194228046, 0.3437122964717021, -0.33011581876668905, -0.08993615220213619, -0.043236341385827326, 0.17899208227235663, 0.14721211474439588], [0.0, 0.0, 0.0, 0.0, 0.0, 0.0, 0.0, 0.0, 0.0, 0.0, 0.0, 0.0, 0.0, 0.0, 0.0, 0.0, 0.0, 0.0, 0.0, 0.0, 0.0, 0.0, 0.0, 0.0, 0.0, 0.0, 0.0, 0.0, 0.0, 0.0, 0.0, 0.0, 0.0, 0.0, 0.0, 0.0, 0.0, 0.0, 0.0, 0.0]], "3": [[-0.03341637540329682], [-0.013436129164293303], [-0.036791550867629884], [-0.011934325286708753], [0.027106004645693633], [-0.009716832548398724], [-0.03291110583061048], [0.023729305973753063], [-0.0034502685693547017], [0.01302002172334523], [-0.02053019930044968], [-0.012027126590985638], [0.013102403168874927], [-0.006043758393308271], [0.029851611141401786], [0.03039259378007491], [-0.03200188669386971], [-0.010665581333790673], [0.031179984988231345], [-0.006919657326586601], [0.016052686776920913], [0.010340727010174924], [0.013981461159480485], [-0.027991626899869837], [0.03584189255368648], [0.009107673637723385], [0.0038662630187135463], [0.029491011872629695], [-0.00630469535425111], [0.018275106690409083], [0.0076957999167308055], [-0.0017155157839805618], [-0.014975217078516876], [0.014219849237325687], [0.01924099133932377], [0.03243400099043114], [0.010961915888509775], [-0.0312188280518075], [0.02945254021493373], [-0.015589821737548488], [0.0]]}, "Pd": {"1": [[-0.0010210350225297454, -0.0240885783618619, 0.012351757668328495, 0.021578264355018306], [-0.026030572633707866, 0.02485213123350291, 0.0016342901443571756, 0.016697179822804317], [-0.03565121913108314, -0.044750208109474617, 0.0025774664676100137, 0.046519716588404536], [0.01172436521996889, -0.044006037572928154, 0.016612490447928424, 0.02148178866199006], [0.02910143908904557, 0.0038338360626754137, 0.02913805674878822, -0.01620330592975638], [0.016471766613242983, 0.005393237844171388, 0.03164081941502958, 0.03442090863725078], [-0.0244167384457229, 0.027786747937957407, -0.030173409698967073, -0.038706345282544484], [-0.018944076651993824, 0.021874751117539643, 0.011501702628536788, -0.01156341806152432], [0.031276093797527785, -0.041514573873383614, 0.03784735783003304, -0.043450281067473034], [0.046259572752456055, -0.04072266882156496, -0.00557077005409802, -0.03216153293708662], [-0.03388971375440507, -0.005377959552181885, 0.036004517680470985, -0.0341576152322228], [-0.013807745815751019, -0.023492319827817052, -0.03394056554279236, 0.013876832719109652], [0.031493029418231594, -0.008857541338681281, 0.009783447882501899, -0.03157948707946183], [0.014081026015363013, -0.044904256761470654, 0.0011614095622010517, 0.021179244884586973], [0.026348160708645638, -0.030471614716548204, -0.0017675178940785782, -0.011693939648370531], [-0.026901634025045577, -0.027286993344360706, 0.03536187672199752, -0.005943609127429167], [0.026460008200387908, -0.04530347451525899, -0.028478388424934935, -0.029673880062230613], [0.021287987217327844, -0.012795568458989916, 0.03984432985419259, -0.022756542126070617], [-0.03512315273975879, 0.03949089084132598, 0.045385214995510265, -0.025092317321164636], [0.046604323981934065, 0.03390986583640504, 0.02858445767494587, 0.03318393532423988], [0.007004684526011815, 0.0002461604812672574, -0.011050318762102232, -0.002746312603268547], [-0.02618707349223714, -0.01075310012319957, -0.033632247348374535, 0.0429520203489782], [0.007124699415337804, 0.027435214439922473, -0.03860364945999651, 0.019155106945103736], [0.0034579711012356767, -0.013260504276271054, -0.0024382707392536784, 0.023992931650263866], [-0.023912671304196328, 0.03117829482629761, 0.02102399845086733, -0.03585965530950036], [-0.04085091365635124, 0.032552830182746934, 0.005183876332107908, 0.03125490444232265], [-0.01810913682593572, 0.009896270003803068, 0.007029338170840262, 0.0212942630127856], [0.03543355176455752, 0.04295920919480946, 0.024788416224190646, 0.01814437245456034], [0.011333589236795602, -0.00806627880161244, 0.013155272488707001, 0.002067315836939046], [0.04559719997859438, -0.006656557917886871, 0.04079602416249262, -0.019320903335851375], [0.005555381767958237, 0.0028611149028773958, 0.04017923771167142, 0.025481213475826464], [-0.004038334095987889, 0.02438805444488462, 0.006105748393488271, -0.01926030194969004], [0.0, 0.0, 0.0, 0.0]], "2": [[0.13968626886808533, -0.02312790309798013, -0.32695507377829736, 0.13420923565737797, 0.15098260666843544, -0.19085525703756331, 0.08223293248301367, 0.025310373656245222, -0.34082025802865085, -0.2507949224170789, -0.023913148415774077, 0.2371896121478847, -0.06270395476531648, 0.12576341041236883, 0.22093967653654456, -0.13771446764686793, -0.06649718312761765, 0.06012753815246924, 0.010448867665315165, 0.09112390229670869, 0.33508435458962194, 0.3458928487891554, -0.06608288376836424, -0.14495780352808282, -0.13890516232951405, -0.22218293542722808, -0.021980513501477117, 0.31282758099329544, 0.1996508928823344, -0.09708150062872878, -0.029055646352287523, -0.37135205389426607, -0.029955959193652404, 0.009069948774379888, -0.3152763611315174, 0.041664823331263756, 0.305657864589302, 0.18473340396845028, 0.3198919749455509, -0.20665069895672422], [-0.34286434355241724, 0.3195360197943007, 0.31022671085702525, 0.0640264133697599, 0.04358645096862118, -0.2355050310619928, -0.11265049557159368, -0.20075479274699723, 0.370662301475691, -0.1192953396938482, 0.1454578715998016, 0.12195541970633117, 0.30709526375777463, 0.3601089712332691, -0.04599455961497234, -0.10861975840736726, -0.2642005634616707, 0.23356460293461367, 0.22652058680259068, 0.25859409560562896, 0.15747433891922602, 0.26506829470076054, -0.07641730142417508, 0.21998112203240172, 0.20314885186624998, 0.28227017596425397, 0.3250596190457741, -0.13217611946915522, -0.26215328012925654, -0.3726063921353552, -0.3366774493799841, 0.34101317133345355, -0.3598831005772913, 0.022676834004441482, -0.21172811433452085, -0.10533651097552632, -0.012629476214448043, -0.3191076871087229, -0.3417871058495029, -0.34025443476787753], [0.005376179287974292, 0.24376186668173228, 0.3485221404800921, 0.13986772095890632, -0.19042759724689864, -0.05715706161586065, 0.25786530756278514, 0.3513680087220322, -0.046076231302975, -0.1237910857113923, -0.027193436157982587, 0.20077493247503453, 0.3539923576996675, 0.039147481542179174, -0.2022067706729352, 0.23038646101001659, 0.06265314544083889, -0.31984600797423957, 0.326662813303189, 0.3059949253112719, -0.1312248595685325, -0.2969839483877662, -0.021856027310732107, -0.2921551840752663, -0.17452421113173014, 0.29036252313128985, -0.059848742399100874, 0.13276142595046436, 0.2046739157090327, 0.16413742641066964, -0.2945173499231266, 0.13013516173712714, 0.24013687022901642, 0.2056172825037823, 0.2736449232120619, -0.04238598625913503, -0.09491541710031803, -0.2614124970879002, 0.06953153651080035, -0.04846111127837055], [-0.16357639142550562, -0.21720351725086945, 0.03802918679931144, -0.30908466146931723, 0.026897063267558474, 0.3435030840514336, -0.25238644224070705, -0.242341909649402, 0.15259446689273126, -0.20814243256071402, -0.29409178365259747, 0.1088011915247521, -0.25044339405433275, -0.23799846890483628, 0.23143700963471026, 0.012042804047327715, -0.2621691156908661, 0.28298498574928665, 0.2702698566358701, 0.10583763364515969, -0.237573403007593, 0.3544857773182526, 0.0789688221920441, -0.15256268235780238, -0.18902455817482255, 0.14504568625039105, -0.2549191291598416, -0.1287181644864701, -0.33163026200036094, 0.29369527266655704, -0.3374461067615037, 0.22730727754986846, -0.016117204074089453, -0.15248546931870707, -0.0036473325257411204, -0.1964436189945215, 0.3625370269817184, -0.26306535370082496, 0.21198189341415286, -0.19726145668249195], [0.0, 0.0, 0.0, 0.0, 0.0, 0.0, 0.0, 0.0, 0.0, 0.0, 0.0, 0.0, 0.0, 0.0, 0.0, 0.0, 0.0, 0.0, 0.0, 0.0, 0.0, 0.0, 0.0, 0.0, 0.0, 0.0, 0.0, 0.0, 0.0, 0.0, 0.0, 0.0, 0.0, 0.0, 0.0, 0.0, 0.0, 0.0, 0.0, 0.0]], "3": [[0.006691536743513089], [0.012958591302157957], [-0.027180886804022527], [0.010152554076079165], [0.016269458350411943], [0.0024207866316604404], [0.014919293247142626], [0.020252441580039887], [-0.010916696519881416], [-0.02786473958113498], [0.020122884345783652], [-0.017438138519687126], [0.03590462660805583], [0.030336064115947824], [-0.03710831398608579], [-0.005032821619250512], [-0.019898271555293178], [-0.03439595123813849], [-0.008282928946647457], [0.03692516421789887], [0.0037377624208922156], [-0.0015600822544298218], [-0.007076204699285115], [0.036023160179812795], [-0.005644838295918483], [0.0033662385248410254], [0.03024960017311564], [0.006245101853526849], [0.021836864110171425], [0.022363715763737142], [-0.004378670771959588], [-0.02047887816312852], [-0.018115305869734092], [0.01060962684307537], [-0.03272473777751984], [0.024387601917401268], [-0.005973236088971677], [0.03660856602057195], [0.011884320849540268], [-0.0035236538936704864], [0.0]]}}, "fingerprints_range": {"Cu": [[3.8146277207833967, 14.773671446513346], [5.075825660853212, 15.824610224206179], [1.9721308711236742, 8.164757780830866], [2.7940842302060656, 9.183520039100534], [1.08754296072989, 4.899596885294583], [1.626586495785668, 5.901293632153394], [0.38009057411024255, 2.100229183316305], [0.5979162717004696, 3.058089253340858], [0.022806104583746538, 0.29703065781176186], [0.03267752149778091, 0.7702142399843445], [0.00023994660593454532, 0.019532691216232568], [0.0002600781049340315, 0.09579851951537856], [2.684004252678675e-08, 0.00012027018144348271], [1.6475482387583465e-08, 0.0014999082499671163], [53.933374514847664, 586.0279136978755], [128.12064751587994, 1339.0774553779588], [52.68618639940384, 680.2199829665379], [41.131668150485005, 430.46949002501225], [88.82571853690784, 933.9576344679633], [44.11384078148922, 505.84680013293473], [38.66980126118429, 428.8432803118022], [95.83947136339181, 999.1121607682313], [36.58466439539326, 497.0153279237612], [25.868094896821642, 273.284856638939], [56.54454238441965, 593.9923398582351], [28.01231877747867, 322.6421450901536], [25.025718372670145, 287.61510794586883], [66.16046138643475, 694.3948342368042], [22.452534931026978, 333.734781480117], [14.968829911531767, 160.4359473839458], [33.562339210372066, 348.9904146530375], [16.382317416211794, 189.85900104165898]], "Pd": [[5.075825660853211, 15.82461022420618], [3.8146277207833954, 14.773671446513346], [2.7940842302060642, 9.183520039100532], [1.9721308711236738, 8.164757780830866], [1.626586495785668, 5.901293632153396], [1.0875429607298897, 4.899596885294583], [0.59791627170047, 3.058089253340857], [0.38009057411024233, 2.100229183316305], [0.03267752149778091, 0.770214239984344], [0.022806104583746524, 0.29703065781176186], [0.0002600781049340315, 0.09579851951537853], [0.00023994660593454505, 0.019532691216232568], [1.6475482387583465e-08, 0.0014999082499671157], [2.68400425267867e-08, 0.00012027018144348271], [52.68618639940385, 680.2199829665362], [128.12064751588002, 1339.0774553779634], [53.93337451484764, 586.0279136978755], [44.1138407814892, 505.8468001329346], [88.82571853690804, 933.9576344679631], [41.131668150485, 430.46949002501225], [36.58466439539324, 497.01532792376423], [95.83947136339191, 999.1121607682309], [38.669801261184276, 428.8432803118022], [28.012318777478665, 322.6421450901558], [56.54454238441963, 593.9923398582329], [25.868094896821624, 273.284856638939], [22.45253493102693, 333.73478148011566], [66.16046138643475, 694.3948342368044], [25.025718372670134, 287.61510794586883], [16.3823174162118, 189.85900104165927], [33.56233921037198, 348.9904146530362], [14.968829911531756, 160.4359473839458]]}, "fingerprints_tag": 1, "scalings": {"Pd": {"slope": 2.7708923875, "intercept": -2.4751694525000003}, "Cu": {"slope": 2.7708923875, "intercept": -2.4751694525000003}}}