{"cutoff": 6.5, "Gs": {"Pd": [{"eta": 0.05, "type": "G2", "element": "Cu"}, {"eta": 0.05, "type": "G2", "element": "Pd"}, {"eta": 2.0, "type": "G2", "element": "Cu"}, {"eta": 2.0, "type": "G2", "element": "Pd"}, {"eta": 4.0, "type": "G2", "element": "Cu"}, {"eta": 4.0, "type": "G2", "element": "Pd"}, {"eta": 8.0, "type": "G2", "element": "Cu"}, {"eta": 8.0, "type": "G2", "element": "Pd"}, {"eta": 20.0, "type": "G2", "element": "Cu"}, {"eta": 20.0, "type": "G2", "element": "Pd"}, {"eta": 40.0, "type": "G2", "element": "Cu"}, {"eta": 40.0, "type": "G2", "element": "Pd"}, {"eta": 80.0, "type": "G2", "element": "Cu"}, {"eta": 80.0, "type": "G2", "element": "Pd"}, {"zeta": 1.0, "elements": ["Cu", "Cu"], "type": "G4", "gamma": 1.0, "eta": 0.005}, {"zeta": 1.0, "elements": ["Cu", "Pd"], "type": "G4", "gamma": 1.0, "eta": 0.005}, {"zeta": 1.0, "elements": ["Pd", "Pd"], "type": "G4", "gamma": 1.0, "eta": 0.005}, {"zeta": 1.0, "elements": ["Cu", "Cu"], "type": "G4", "gamma": -1.0, "eta": 0.005}, {"zeta": 1.0, "elements": ["Cu", "Pd"], "type": "G4", "gamma": -1.0, "eta": 0.005}, {"zeta": 1.0, "elements": ["Pd", "Pd"], "type": "G4", "gamma": -1.0, "eta": 0.005}, {"zeta": 2.0, "elements": ["Cu", "Cu"], "type": "G4", "gamma": 1.0, "eta": 0.005}, {"zeta": 2.0, "elements": ["Cu", "Pd"], "type": "G4", "gamma": 1.0, "eta": 0.005}, {"zeta": 2.0, "elements": ["Pd", "Pd"], "type": "G4", "gamma": 1.0, "eta": 0.005}, {"zeta": 2.0, "elements": ["Cu", "Cu"], "type": "G4", "gamma": -1.0, "eta": 0.005}, {"zeta": 2.0, "elements": ["Cu", "Pd"], "type": "G4", "gamma": -1.0, "eta": 0.005}, {"zeta": 2.0, "elements": ["Pd", "Pd"], "type": "G4", "gamma": -1.0, "eta": 0.005}, {"zeta": 4.0, "elements": ["Cu", "Cu"], "type": "G4", "gamma": 1.0, "eta": 0.005}, {"zeta": 4.0, "elements": ["Cu", "Pd"], "type": "G4", "gamma": 1.0, "eta": 0.005}, {"zeta": 4.0, "elements": ["Pd", "Pd"], "type": "G4", "gamma": 1.0, "eta": 0.005}, {"zeta": 4.0, "elements": ["Cu", "Cu"], "type": "G4", "gamma": -1.0, "eta": 0.005}, {"zeta": 4.0, "elements": ["Cu", "Pd"], "type": "G4", "gamma": -1.0, "eta": 0.005}, {"zeta": 4.0, "elements": ["Pd", "Pd"], "type": "G4", "gamma": -1.0, "eta": 0.005}], "Cu": [{"eta": 0.05, "type": "G2", "element": "Cu"}, {"eta": 0.05, "type": "G2", "element": "Pd"}, {"eta": 2.0, "type": "G2", "element": "Cu"}, {"eta": 2.0, "type": "G2", "element": "Pd"}, {"eta": 4.0, "type": "G2", "element": "Cu"}, {"eta": 4.0, "type": "G2", "element": "Pd"}, {"eta": 8.0, "type": "G2", "element": "Cu"}, {"eta": 8.0, "type": "G2", "element": "Pd"}, {"eta": 20.0, "type": "G2", "element": "Cu"}, {"eta": 20.0, "type": "G2", "element": "Pd"}, {"eta": 40.0, "type": "G2", "element": "Cu"}, {"eta": 40.0, "type": "G2", "element": "Pd"}, {"eta": 80.0, "type": "G2", "element": "Cu"}, {"eta": 80.0, "type": "G2", "element": "Pd"}, {"zeta": 1.0, "elements": ["Cu", "Cu"], "type": "G4", "gamma": 1.0, "eta": 0.005}, {"zeta": 1.0, "elements": ["Cu", "Pd"], "type": "G4", "gamma": 1.0, "eta": 0.005}, {"zeta": 1.0, "elements": ["Pd", "Pd"], "type": "G4", "gamma": 1.0, "eta": 0.005}, {"zeta": 1.0, "elements": ["Cu", "Cu"], "type": "G4", "gamma": -1.0, "eta": 0.005}, {"zeta": 1.0, "elements": ["Cu", "Pd"], "type": "G4", "gamma": -1.0, "eta": 0.005}, {"zeta": 1.0, "elements": ["Pd", "Pd"], "type": "G4", "gamma": -1.0, "eta": 0.005}, {"zeta": 2.0, "elements": ["Cu", "Cu"], "type": "G4", "gamma": 1.0, "eta": 0.005}, {"zeta": 2.0, "elements": ["Cu", "Pd"], "type": "G4", "gamma": 1.0, "eta": 0.005}, {"zeta": 2.0, "elements": ["Pd", "Pd"], "type": "G4", "gamma": 1.0, "eta": 0.005}, {"zeta": 2.0, "elements": ["Cu", "Cu"], "type": "G4", "gamma": -1.0, "eta": 0.005}, {"zeta": 2.0, "elements": ["Cu", "Pd"], "type": "G4", "gamma": -1.0, "eta": 0.005}, {"zeta": 2.0, "elements": ["Pd", "Pd"], "type": "G4", "gamma": -1.0, "eta": 0.005}, {"zeta": 4.0, "elements": ["Cu", "Cu"], "type": "G4", "gamma": 1.0, "eta": 0.005}, {"zeta": 4.0, "elements": ["Cu", "Pd"], "type": "G4", "gamma": 1.0, "eta": 0.005}, {"zeta": 4.0, "elements": ["Pd", "Pd"], "type": "G4", "gamma": 1.0, "eta": 0.005}, {"zeta": 4.0, "elements": ["Cu", "Cu"], "type": "G4", "gamma": -1.0, "eta": 0.005}, {"zeta": 4.0, "elements": ["Cu", "Pd"], "type": "G4", "gamma": -1.0, "eta": 0.005}, {"zeta": 4.0, "elements": ["Pd", "Pd"], "type": "G4", "gamma": -1.0, "eta": 0.005}]}, "activation": "tanh", "hiddenlayers": {"Pd": [4, 50], "Cu": [4, 50]}, "weights": {"Cu": {"1": [[-1.8599441346727843, -0.0535629894118785, 5.184693631501537, 6.24654558781215], [0.33098197156861153, 0.03334031369771377, 5.246520385546018, 6.482763441814989], [-0.6216713105334616, 2.022691265214561, 5.204153369621189, 6.3285477628832005], [-0.21811890322996227, 0.48488046586013434, 5.229137238421462, 6.427337215019254], [-0.0754891027892666, -2.100966453687591, 5.189017273453671, 6.46124046332942], [-0.40959140933550875, -0.4359010499888294, 5.184715189501896, 6.35446499588354], [0.2032198674086328, -0.7483618753208248, 5.254044435899652, 6.314502980477963], [-0.437785693196709, -1.7981046462427726, 5.239447986103373, 6.473591059732765], [0.6172866445103536, 0.7524896216528411, 4.763517738833196, 5.2918104295025135], [-1.4093862011223794, 1.1783705794755137, 5.330550409586503, 6.972745595209568], [-0.1929734309604134, -0.007134682655272692, 3.316040729095596, 3.6623260733910654], [-2.074491300091258, 1.579346574333658, 5.213794099053035, 7.013941158952539], [-0.4760167570656484, 0.14367543190597465, 0.9024044070796067, 1.5431099166468791], [0.10070806126260352, -0.2840005398217502, 4.314425066294962, 5.884656546433887], [-0.5495874176420494, -0.3147274066658296, 5.625242421017069, 6.081569093412316], [1.7822369738067516, -0.01187769625969919, 4.897484370014393, 5.649133180573436], [1.9004940816339992, -0.24086881389799158, 4.339468430879995, 5.2949525917083164], [-0.4012846099264003, -0.38226127635723695, 5.546702453760405, 6.049384412006996], [1.045145814502964, -0.13895364349792944, 4.981845531937654, 5.796118645474374], [1.5813020770701744, -0.0008265748004909158, 4.439870131222044, 5.4122836683324085], [-0.5515142052129909, 0.3105360668375593, 5.746795657444609, 6.109648611184638], [1.9266840382178814, -0.15624648254516696, 4.859619699863386, 5.6052486555401595], [2.0456620948119952, -0.0781686196586693, 4.28027607492269, 5.261788373046666], [-0.30467229991708084, 0.6014730664589729, 5.552776201315059, 6.08531145042837], [0.905708789527142, -0.5776983106872295, 4.944738937648848, 5.79776995625845], [1.63660460044518, 0.3506155211279885, 4.4319385629630785, 5.4641692664327355], [-0.5701768654118918, -0.051647665906473184, 5.803479105060261, 6.094461090973308], [2.1015369001764923, 0.1282364780778526, 4.829180473461297, 5.601399355025195], [2.284498197957692, 0.16563660055519652, 4.187143735786391, 5.135587527120843], [-0.038810801515940935, -0.06514449864171382, 5.5292191653622265, 6.100209521465737], [0.6633302020706777, 0.5614236197263557, 4.997504674902321, 5.806899873538487], [1.7966106908776067, -0.1018831627661847, 4.373340185893128, 5.376680346442952], [2.203214763388331, 1.4485762441125227, 4.8438291751158165, 5.262012361192295]], "2": [[1.8116619293892922, 0.12926202252631047, -0.14045534059493348, -2.3029324074475386, 0.22796520565311604, 1.1593169035851572, 0.5463925694638159, 2.6295798807197968, 0.016647314472253052, 1.131469320259407, -1.8811404096339244, -1.3584894074842375, -0.29026840821568434, -4.800713764681918, 1.0098847215478886, -0.6927591767034222, -0.8735158607217249, 1.7741928631223844, 0.8816575055631031, -0.7907777938088331, -0.6200935767603712, 1.6990957699910814, -1.370584033047222, 0.47576340654614396, 0.31628061736766483, 3.1060863246327073, -0.6083641709715621, 0.6980913813444214, -1.3327307237794437, -2.180297892353601, 1.6710083026688856, 0.4869320385650719, 0.9237185870320682, 0.019191423453040788, 1.939335386351498, 1.2466402449999248, -3.1913306100529995, 1.3296082861473137, -1.384341518150961, 0.37665255280487137, 2.3422965018629833, -0.7229405237332878, -0.10199027512306573, -1.9017773581860533, -1.2125803369971278, 2.736624837142063, 1.6116596047431622, -0.6696201919947797, -0.16885882249092315, 0.2710126015673585], [-2.2545642218079434, -1.7023431834043048, -0.22736756414999776, 1.2193896555722883, 0.22571581495421913, -0.36120634940829643, 0.18099775860034312, -0.7121815398014257, 0.7688172138905115, 2.6172101149985014, -0.6578102714137972, 1.0984374620719932, 0.20734649081349055, -0.3210425741729438, -0.7757645986601485, 2.5167378539270486, 0.9671710835058915, -1.2541124283794842, -1.443637353676736, -0.3914137904777403, -0.15233792747902425, -1.074437525900938, 2.311793603145178, -0.37808265536238017, -4.262237468745836, -1.889130013858658, -0.7854765073282022, -2.3612077501928606, 2.2312620965118457, -1.2245629633646729, -1.2684314272631392, -0.172667312217996, -0.19802851610461772, -2.069400280772572, 4.774399582717407, 3.3242817107863307, 3.464091318755425, 0.6891667981078979, -0.29341713148234755, -0.8690829476080141, 0.8246872308971536, 1.215952716728815, -2.9065316912312094, -0.8697553854351913, 0.6273307452789048, -2.2981952424983367, 0.17242751339453483, 2.168939657339892, 4.9577284124601295, -0.9774530619486262], [-6.116639199777805, -1.971945753853022, 0.6888010330238914, 0.9808023412603379, 1.0164496694457412, -0.7736125898673692, -0.040038324820511104, -1.5329602287678603, -0.38652287113365313, -1.9259104184479354, 0.2436000831270716, -0.251091357405662, -1.3213349686061946, 5.356410362715523, 0.7893639837447144, -0.09637565443586596, 0.09298879034780225, 0.27062497063084284, 0.21782514098444866, -0.09965268317473078, 0.8643014817341262, 1.708037553197405, 0.9488510327445643, 1.5595384860534853, -0.03924788994449534, -4.197080637160417, 0.19925043135918677, -0.009900177113096533, 1.3788802919192535, -0.43496331632968127, -1.6132481779519767, 0.024913021589649923, -1.3778554429043137, 0.3768094687994786, -0.44561192708320996, -1.4060092458868947, 3.4258916973363887, -0.004169586728821036, 1.166655503455631, -2.5812814000357447, -0.08670846091632238, 3.337836606588644, 0.3465470357538787, 0.41531450651911495, -0.5654694971391971, 1.4501978021883624, 4.783243281056458, 0.6456107069499454, -1.8724063607773136, 1.1371149906861857], [-2.563085474032371, -0.7492825433900854, 0.31327871048676825, 1.8803210441995435, 1.4793887824285576, -2.0646325406810524, -0.8413347255264575, -0.9759475585567211, 0.18818171477779608, -1.3038096115204307, -1.2010326850950206, -1.368106207163991, -0.5890373655699782, 2.3341087689430022, 0.06672729094273483, 0.854505287843013, 0.4635290441170564, -0.5305739167223157, 0.10909359576203223, 0.567020912816726, 0.5643077156571037, 1.0816493152341398, 0.7400979773301727, -1.0484266266279034, -1.6940314585892933, -4.571389115629021, -0.4912277011231801, 0.4824785362297075, 1.664298773935398, 0.023868064056161337, -0.06301119103007356, 0.7347172526857506, -0.9143410250667208, 1.274640328337728, -0.4002458205084006, 0.7696811815292369, 2.9564456694090855, -0.14639214779697285, 1.9557650221352922, -0.08200001747139077, -0.2653459808860381, 4.458500782703006, 0.13123622022748732, -0.5736069925908074, -0.25610509362263173, 1.2729939850465755, 4.079666483431283, 0.35790617342073927, -0.4079183498620286, -0.22221548392121465], [-1.4605696702663544, 1.7073645319067492, 0.3256687828404618, 1.1933159932898425, 0.8902048853207541, 0.21760651826586272, 0.4704552559414018, 0.1132581120339898, 0.432349089338652, -2.557271836204813, -2.1000134138968773, -2.9651359470680427, -0.43854048858937544, 0.6057916976669087, 1.4293240892158887, -0.7114448935934921, 1.4605611408651735, 3.475388187984652, -0.061225792958170516, -0.8369513186933718, -0.3782214628033891, -2.095048569549645, 1.2551293137413997, -0.5556895669460601, -1.1045751802682209, 0.6887374380179611, 0.15956463635187235, -2.6249932181434663, -2.2800361314726505, -1.0980325991216446, 1.5448118022383628, 2.403648297003407, -0.31830436863081635, 1.3458172214540194, 2.170579544796574, -2.5849058495602186, -0.22873365705260484, 2.5175386158417203, 2.385597858506267, 1.6463974357982638, -1.6274648700395036, -0.6096678998261222, -0.2742189055648028, -0.29438583907391597, -3.8672646095455914, 2.5945613149803246, -4.228043767170404, 0.5286421267046814, -1.8693253721152072, 0.2899001284101022]], "3": [[-1.240269276214045], [1.7434235731399348], [-0.270338139807973], [-0.2907692286901123], [0.07096912296658514], [-1.2985471986406083], [-1.1239159898807196], [-0.5450332953853373], [0.8792876723792166], [0.6249916798618019], [-1.9580196517298731], [0.28267571549797216], [-0.46453388306962473], [-2.755317524907219], [-0.2988551894087568], [0.06632347612901504], [-1.2294569831673758], [3.3470499702887717], [-1.770040939485652], [0.5318515061500758], [-1.626881605979522], [-0.08358056569208043], [0.5055912535683198], [-0.59355529823514], [0.6255776564723796], [-1.927879854781948], [-0.01826961395556426], [3.021526264548214], [-1.948998036949899], [0.0639107227415503], [1.8949785621782096], [-0.6097888451623619], [-0.019132669322520175], [-0.47514523752007687], [2.167024798868093], [1.2096002830691748], [3.491952008169575], [-1.2661446915777541], [2.269892032905579], [1.9690361140492614], [-1.3267630720005406], [3.6935172686631996], [-0.7959366089197735], [-0.2530541485545359], [3.2441734225147276], [1.0376971004350701], [-0.7204409478286009], [-0.5424085069526341], [1.5655642844443511], [-0.36040747364938913], [-0.6771035805737534]]}, "Pd": {"1": [[-0.7364852825400094, 0.8983171667193924, 0.0817882579153028, 0.10828899786986479], [-0.34707191753602373, 0.8309514321109033, 0.2034692335715419, 0.028874268579057945], [-0.48972983972959916, 0.8592425867553884, 0.19491727121570127, -0.15510424613721333], [-0.49247348703576305, 0.9031690499233597, 0.13735285703172756, -0.21825161235846705], [-0.4429087401386565, 0.851145146957369, 0.21749777165111542, -0.23785618914694276], [-0.5827740036841355, 0.8817916624706693, 0.12803253658291566, -0.3652620911957075], [-0.5491204752401024, 0.8823618380039574, 0.2728761377806221, -0.2618457235556366], [-0.4574554293671344, 0.8085413018897802, 0.05289605769021224, -0.5386448187325478], [-0.7579162545882663, 0.988749406860965, -0.013865046502055983, 0.12260196135797191], [-0.02309253674324824, 0.5463703322395129, -0.0013321252275460445, -0.9638291716581182], [-0.5151290051347867, 0.8283432890063593, -0.4681914980188433, 1.37874161513843], [0.3024221652800595, 0.12082407823874615, -0.004199887250898274, 0.5973513787700953], [0.47172272101291, 0.3074206932579947, -0.7867031742415596, -0.540668552604873], [-0.29561224037931766, -0.17627047651075792, 0.10925730088008076, -0.10174686960089786], [-0.037929458070773046, 0.6304442227503063, 0.4576789987901846, -0.02668991380954596], [-0.04302852981336634, 0.7773497548662315, 0.38506112749031746, -0.006972305114794958], [0.023837146379470313, 0.8044120055456625, 0.16521057075187776, 0.03335777407699526], [-0.1185395913070982, 0.6620181024074265, 0.3390578012629727, -0.3783841234934621], [-0.14133282577236111, 0.8130059543398283, 0.29131748496454657, -0.25066659192514384], [-0.04986776771953852, 0.838526719792555, 0.1657813485046557, 0.13988734582075957], [0.0691617753919232, 0.6305191097590201, 0.45792318285634886, 0.1639569450082341], [-0.045389839509721225, 0.8011090514044316, 0.3779194555774383, 0.06403369955522113], [0.0705183122547469, 0.8567459354398391, 0.21234497375558795, -0.06504336780672287], [-0.13888293903291696, 0.7003170190153983, 0.35223595460451534, -0.24555907256245998], [-0.18877791959191065, 0.7441598490261433, 0.2385984272800719, -0.27012900907150483], [0.020230123404795776, 0.8699409664123232, 0.1268524363489036, 0.07736117198495315], [0.06562574208363357, 0.6411334872754966, 0.5162288784683241, 0.579499667409187], [0.0417253506000817, 0.7386566957731601, 0.4305079665285649, 0.2517220297984108], [0.11452840566037187, 0.8612019668254307, 0.18129661323515048, -0.05958407306002087], [-0.03796540941273473, 0.643874253427154, 0.3612168290484991, -0.019119247302339965], [-0.16854508170019084, 0.8014433645771414, 0.23684478112985755, -0.34467639805114436], [0.01852352609252618, 0.8877041189275091, 0.17851471687183035, 0.10473228961120376], [0.8443121525253834, -0.015570401036496895, 0.7655972173520016, 0.8719735611538271]], "2": [[0.4124171119057851, 0.2556471788717465, -0.41366137806188763, 0.0508386780222965, 0.13729074785567422, -0.7802882183939721, -0.06922083846885849, -0.40555945475771615, -0.2030520736908114, 0.6584197278587115, 0.25398785909106675, -0.10877249018215125, 0.011143809980307397, 0.3654204756115399, -0.010383902856948346, -0.43579709373692194, -0.35861761387250646, -1.4157520732943238, 0.9514473705756122, 0.38097837117668865, 0.5277956569559642, -0.16916398750301845, 0.3163091644762447, -0.3551665186379647, 0.2700468537966557, 0.0909201045576167, 0.1948634256619347, -0.35812182340258464, 0.27679237895347036, 0.05278919668040132, -0.296079844889225, -0.9034136599917684, -0.602976502169661, -0.031642206102296434, -0.20910338228228453, -0.30189711746435094, -0.31896682326724857, -0.6788710538560934, 0.10529320006282523, 0.24514326722849233, -0.3807341427398506, -0.8749798945022406, -0.45801093003466564, -0.2412309683625939, 0.24782300179652955, 0.5676434237690108, -0.00026831237575139716, 0.5043313508267537, 0.19182012440601515, -0.22652030111165788], [-0.020090337400663343, -0.10142871900313652, 0.023533659814333394, -0.11699508012316599, -0.18800514078373143, 0.004559334932424197, -0.6847271917807669, 0.1443042661471651, 0.4621862973249428, 0.2584232576033869, -0.3130729285993837, 0.0463712312455348, -0.22640403355580277, -0.3415418797606603, -0.20829476833965246, 0.34957646218674, 0.1647284054780333, -0.1902940924323048, -1.8082362570075006, -0.15503389091825268, -0.21637704705497857, -0.0881147558318223, 0.3871297149570685, 0.30686428935382515, -0.5616081007821857, -0.023683924142400024, 0.06534230621511009, -0.0430665146931631, -0.432865459071474, 0.13704695941554496, 0.21116474693386023, 0.09717919766104209, 0.6529923375970398, -0.09108159675889516, 0.6050575943529594, 0.48070310915205194, 0.42442498908929416, 0.19056047701469248, 0.04108880140057869, -0.7367313445459253, 0.17975428902554985, -0.09820372686728567, -0.9291584986618607, 0.03900236983689124, -0.08309916749658143, -0.06901927737425638, -1.0288897444003064, -0.42042366194675734, -0.11305232989965487, 0.07747627222678634], [-0.07687219791194011, 0.14829368849389152, 0.016383179636728626, 0.25074771916953625, -0.08733855976297647, -0.047054857111832514, 0.10230949234686387, -0.024806732975618948, -0.33051927151274135, -1.00223302459296, 0.12134661008659972, -0.27249679964274753, 0.2345267903325408, 0.1751234262679789, -0.11746036720328237, 0.030797090529835473, 0.16734046553220905, 0.14025512598813522, 0.06328602236139792, -0.02545667698623732, 0.2552269511474426, 0.1576138793825779, -0.3823533376069592, -0.1413129321174957, 0.5932722424791765, -0.026034518815303463, 0.12117532304242504, 0.11188638360940908, 0.25386859411397, 0.08339384646429346, -0.19731823958600905, 0.3796025094453701, -0.39484606357048757, 0.445200666986332, -0.12125605382229074, -0.3019460134650141, -0.5743651460757844, 0.048732424750587124, -0.2811651542321608, 0.35325045452318526, 0.3209615821812233, 0.5353439653418768, 0.2800549970367699, 0.10104013753391516, -0.5238102507851712, -0.39590127612843473, 0.7436898829117311, 0.5015021593690322, 0.04263108854544564, -0.08952674367120464], [-0.3032103078367415, 0.0886939764899278, -0.14121552817189467, 0.062079041855166, -0.07377277434767059, -0.344364926638795, -0.11568777742881035, -0.19331295090576342, 0.0789792648330234, -0.2955908909328353, 0.05583423176170062, -0.27892718218525364, 0.07863235046690556, 0.18950150619338788, 0.1960778256924194, -0.08528470762758336, 0.07761267591441798, 0.0014503799336309693, -0.22217541169075622, 0.15173229040121022, 0.053198354008938145, -0.022434731409046067, -0.531665802459828, -0.1470948602960508, -0.22285829697439996, 0.10099130157830334, 0.28511072076098887, -0.22626798113273158, -0.13825442246873573, -0.006915098215812205, -0.3328330722618975, -0.3007252813400868, -0.4579988519089427, -0.6092121209314747, -0.011903996022210506, -0.16086523083326715, -0.3036269763693255, -0.24356034703547821, -0.4600506107194545, 0.15049787571456297, 0.009398186676038619, 0.2823448605759526, -2.561545331282664, -0.13172746428858653, -0.2900049578764562, -0.02148264084422468, -0.5284620985907905, 0.32687876680067784, 0.09835157187220697, -0.12958524334332425], [1.12229572838744, -0.26758888785023344, 0.4605350380472162, -0.6017190348276265, 0.1381573461486952, -0.2698468238743768, 0.4580741828148109, -0.0638250565564401, -0.04288706523592982, -0.6230215272727748, 0.11372348037746191, -0.26691073439167184, 0.8635257500811957, 0.15094539403182503, -0.02771748905390365, -0.3973690879879661, 0.4220598204516461, -0.7724396067434011, -1.066900234886866, 0.0954681887207407, -0.31771749480745565, -0.07766569653538494, 0.09860700813637278, 0.025728235406194514, 0.13669330978308458, 0.17214703221942432, 0.07032117837867169, 0.08664362889844601, -0.43284784542155935, -0.5625798190860033, 0.28443604240248616, 0.14072300574015484, 0.3212638819541112, -0.5602273020784857, -0.38701571929941847, -0.14109759772379526, 0.051674483965939405, -0.3069603421211897, 0.1359945641078509, -0.5276679850811354, -0.15293639778967819, 0.8709547355883107, -0.5073052337257823, -0.3841236671932697, -0.6265958630242673, -0.11473821824098146, -0.7520616574346279, -0.3410883917917807, -0.43508387513067365, 0.3434897640134996]], "3": [[-0.22211096798030588], [-0.09610441091903946], [0.06585220435861347], [-0.01667389305367786], [0.024578037822477725], [1.4471748618707907], [-0.053552758055274714], [0.20339551934268138], [0.0598614432027762], [0.8125876626590166], [-0.28419418471565894], [0.5257373613352501], [-0.08450130969499167], [-0.295957479540683], [-0.23584235583510485], [0.20879439697614519], [0.17928607832341403], [1.6531521356530678], [-5.010019282019269], [-0.16692676914698865], [-0.37373530385701326], [-0.07258902588522084], [0.9507620153242057], [0.10515830196796874], [-0.3858622912126443], [0.08107788556023267], [-0.21686561524101788], [0.5353906196565316], [-0.533599610148178], [0.0616704565213446], [0.24639586882531064], [0.8437666263018859], [1.3538580808294784], [0.03401234692651615], [0.14832879355541978], [0.3642870819729974], [0.6882570672938102], [1.00081086044004], [0.4238000927920861], [-0.4814532990051414], [0.1695764252370952], [-0.9179030585126392], [-0.2673252114883042], [0.36958133334514776], [0.8495824572250202], [-0.05575318657412699], [-0.26591159883722937], [-0.9226843942068502], [0.15946415526468338], [0.13979306838348377], [-10.252158812670793]]}}, "fingerprints_range": {"Cu": [[3.8146277207833967, 14.773671446513346], [5.075825660853212, 15.824610224206179], [1.9721308711236742, 8.164757780830866], [2.7940842302060656, 9.183520039100534], [1.08754296072989, 4.899596885294583], [1.626586495785668, 5.901293632153394], [0.38009057411024255, 2.100229183316305], [0.5979162717004696, 3.058089253340858], [0.022806104583746538, 0.29703065781176186], [0.03267752149778091, 0.7702142399843445], [0.00023994660593454532, 0.019532691216232568], [0.0002600781049340315, 0.09579851951537856], [2.684004252678675e-08, 0.00012027018144348271], [1.6475482387583465e-08, 0.0014999082499671163], [53.933374514847664, 586.0279136978755], [128.12064751587994, 1339.0774553779588], [52.68618639940384, 680.2199829665379], [41.131668150485005, 430.46949002501225], [88.82571853690784, 933.9576344679633], [44.11384078148922, 505.84680013293473], [38.66980126118429, 428.8432803118022], [95.83947136339181, 999.1121607682313], [36.58466439539326, 497.0153279237612], [25.868094896821642, 273.284856638939], [56.54454238441965, 593.9923398582351], [28.01231877747867, 322.6421450901536], [25.025718372670145, 287.61510794586883], [66.16046138643475, 694.3948342368042], [22.452534931026978, 333.734781480117], [14.968829911531767, 160.4359473839458], [33.562339210372066, 348.9904146530375], [16.382317416211794, 189.85900104165898]], "Pd": [[5.075825660853211, 15.82461022420618], [3.8146277207833954, 14.773671446513346], [2.7940842302060642, 9.183520039100532], [1.9721308711236738, 8.164757780830866], [1.626586495785668, 5.901293632153396], [1.0875429607298897, 4.899596885294583], [0.59791627170047, 3.058089253340857], [0.38009057411024233, 2.100229183316305], [0.03267752149778091, 0.770214239984344], [0.022806104583746524, 0.29703065781176186], [0.0002600781049340315, 0.09579851951537853], [0.00023994660593454505, 0.019532691216232568], [1.6475482387583465e-08, 0.0014999082499671157], [2.68400425267867e-08, 0.00012027018144348271], [52.68618639940385, 680.2199829665362], [128.12064751588002, 1339.0774553779634], [53.93337451484764, 586.0279136978755], [44.1138407814892, 505.8468001329346], [88.82571853690804, 933.9576344679631], [41.131668150485, 430.46949002501225], [36.58466439539324, 497.01532792376423], [95.83947136339191, 999.1121607682309], [38.669801261184276, 428.8432803118022], [28.012318777478665, 322.6421450901558], [56.54454238441963, 593.9923398582329], [25.868094896821624, 273.284856638939], [22.45253493102693, 333.73478148011566], [66.16046138643475, 694.3948342368044], [25.025718372670134, 287.61510794586883], [16.3823174162118, 189.85900104165927], [33.56233921037198, 348.9904146530362], [14.968829911531756, 160.4359473839458]]}, "fingerprints_tag": 1, "scalings": {"Cu": {"intercept": -0.92342021401440366, "slope": 2.2585143095666829}, "Pd": {"intercept": -0.92342021504861738, "slope": 7.0722615031231539}}}