{"cutoff": 6.5, "Gs": {"Pd": [{"eta": 0.05, "type": "G2", "element": "Cu"}, {"eta": 0.05, "type": "G2", "element": "Pd"}, {"eta": 2.0, "type": "G2", "element": "Cu"}, {"eta": 2.0, "type": "G2", "element": "Pd"}, {"eta": 4.0, "type": "G2", "element": "Cu"}, {"eta": 4.0, "type": "G2", "element": "Pd"}, {"eta": 8.0, "type": "G2", "element": "Cu"}, {"eta": 8.0, "type": "G2", "element": "Pd"}, {"eta": 20.0, "type": "G2", "element": "Cu"}, {"eta": 20.0, "type": "G2", "element": "Pd"}, {"eta": 40.0, "type": "G2", "element": "Cu"}, {"eta": 40.0, "type": "G2", "element": "Pd"}, {"eta": 80.0, "type": "G2", "element": "Cu"}, {"eta": 80.0, "type": "G2", "element": "Pd"}, {"zeta": 1.0, "elements": ["Cu", "Cu"], "type": "G4", "gamma": 1.0, "eta": 0.005}, {"zeta": 1.0, "elements": ["Cu", "Pd"], "type": "G4", "gamma": 1.0, "eta": 0.005}, {"zeta": 1.0, "elements": ["Pd", "Pd"], "type": "G4", "gamma": 1.0, "eta": 0.005}, {"zeta": 1.0, "elements": ["Cu", "Cu"], "type": "G4", "gamma": -1.0, "eta": 0.005}, {"zeta": 1.0, "elements": ["Cu", "Pd"], "type": "G4", "gamma": -1.0, "eta": 0.005}, {"zeta": 1.0, "elements": ["Pd", "Pd"], "type": "G4", "gamma": -1.0, "eta": 0.005}, {"zeta": 2.0, "elements": ["Cu", "Cu"], "type": "G4", "gamma": 1.0, "eta": 0.005}, {"zeta": 2.0, "elements": ["Cu", "Pd"], "type": "G4", "gamma": 1.0, "eta": 0.005}, {"zeta": 2.0, "elements": ["Pd", "Pd"], "type": "G4", "gamma": 1.0, "eta": 0.005}, {"zeta": 2.0, "elements": ["Cu", "Cu"], "type": "G4", "gamma": -1.0, "eta": 0.005}, {"zeta": 2.0, "elements": ["Cu", "Pd"], "type": "G4", "gamma": -1.0, "eta": 0.005}, {"zeta": 2.0, "elements": ["Pd", "Pd"], "type": "G4", "gamma": -1.0, "eta": 0.005}, {"zeta": 4.0, "elements": ["Cu", "Cu"], "type": "G4", "gamma": 1.0, "eta": 0.005}, {"zeta": 4.0, "elements": ["Cu", "Pd"], "type": "G4", "gamma": 1.0, "eta": 0.005}, {"zeta": 4.0, "elements": ["Pd", "Pd"], "type": "G4", "gamma": 1.0, "eta": 0.005}, {"zeta": 4.0, "elements": ["Cu", "Cu"], "type": "G4", "gamma": -1.0, "eta": 0.005}, {"zeta": 4.0, "elements": ["Cu", "Pd"], "type": "G4", "gamma": -1.0, "eta": 0.005}, {"zeta": 4.0, "elements": ["Pd", "Pd"], "type": "G4", "gamma": -1.0, "eta": 0.005}], "Cu": [{"eta": 0.05, "type": "G2", "element": "Cu"}, {"eta": 0.05, "type": "G2", "element": "Pd"}, {"eta": 2.0, "type": "G2", "element": "Cu"}, {"eta": 2.0, "type": "G2", "element": "Pd"}, {"eta": 4.0, "type": "G2", "element": "Cu"}, {"eta": 4.0, "type": "G2", "element": "Pd"}, {"eta": 8.0, "type": "G2", "element": "Cu"}, {"eta": 8.0, "type": "G2", "element": "Pd"}, {"eta": 20.0, "type": "G2", "element": "Cu"}, {"eta": 20.0, "type": "G2", "element": "Pd"}, {"eta": 40.0, "type": "G2", "element": "Cu"}, {"eta": 40.0, "type": "G2", "element": "Pd"}, {"eta": 80.0, "type": "G2", "element": "Cu"}, {"eta": 80.0, "type": "G2", "element": "Pd"}, {"zeta": 1.0, "elements": ["Cu", "Cu"], "type": "G4", "gamma": 1.0, "eta": 0.005}, {"zeta": 1.0, "elements": ["Cu", "Pd"], "type": "G4", "gamma": 1.0, "eta": 0.005}, {"zeta": 1.0, "elements": ["Pd", "Pd"], "type": "G4", "gamma": 1.0, "eta": 0.005}, {"zeta": 1.0, "elements": ["Cu", "Cu"], "type": "G4", "gamma": -1.0, "eta": 0.005}, {"zeta": 1.0, "elements": ["Cu", "Pd"], "type": "G4", "gamma": -1.0, "eta": 0.005}, {"zeta": 1.0, "elements": ["Pd", "Pd"], "type": "G4", "gamma": -1.0, "eta": 0.005}, {"zeta": 2.0, "elements": ["Cu", "Cu"], "type": "G4", "gamma": 1.0, "eta": 0.005}, {"zeta": 2.0, "elements": ["Cu", "Pd"], "type": "G4", "gamma": 1.0, "eta": 0.005}, {"zeta": 2.0, "elements": ["Pd", "Pd"], "type": "G4", "gamma": 1.0, "eta": 0.005}, {"zeta": 2.0, "elements": ["Cu", "Cu"], "type": "G4", "gamma": -1.0, "eta": 0.005}, {"zeta": 2.0, "elements": ["Cu", "Pd"], "type": "G4", "gamma": -1.0, "eta": 0.005}, {"zeta": 2.0, "elements": ["Pd", "Pd"], "type": "G4", "gamma": -1.0, "eta": 0.005}, {"zeta": 4.0, "elements": ["Cu", "Cu"], "type": "G4", "gamma": 1.0, "eta": 0.005}, {"zeta": 4.0, "elements": ["Cu", "Pd"], "type": "G4", "gamma": 1.0, "eta": 0.005}, {"zeta": 4.0, "elements": ["Pd", "Pd"], "type": "G4", "gamma": 1.0, "eta": 0.005}, {"zeta": 4.0, "elements": ["Cu", "Cu"], "type": "G4", "gamma": -1.0, "eta": 0.005}, {"zeta": 4.0, "elements": ["Cu", "Pd"], "type": "G4", "gamma": -1.0, "eta": 0.005}, {"zeta": 4.0, "elements": ["Pd", "Pd"], "type": "G4", "gamma": -1.0, "eta": 0.005}]}, "activation": "tanh", "hiddenlayers": {"Pd": [4, 50], "Cu": [4, 50]}, "weights": {"Cu": {"1": [[-1.8813206250182624, -0.12780293560067427, 5.1848525873962314, 6.257043959555346], [0.3505591820596381, -0.02733867220728433, 5.247272109332058, 6.4921169688384905], [-0.6334944220663953, 2.301366074249291, 5.205420923281059, 6.337919665279529], [-0.214240209242909, 0.5852114839206086, 5.2297587069477265, 6.437137352696246], [-0.07392316778941035, -2.2702125467810568, 5.189417081394935, 6.471550061290169], [-0.41810480900089486, -0.36137831000876264, 5.186480382719148, 6.363172921968833], [0.22068748686941073, -0.7363992841099651, 5.251141774623954, 6.328806747223111], [-0.45609672125590905, -1.962091980913895, 5.243372307442094, 6.4797443960693295], [0.6162551947291907, 0.7218171989462758, 4.758293104677198, 5.312508288257422], [-1.4034555547057541, 1.2002449241394033, 5.333505150329959, 6.979125770608148], [-0.21586733442139422, 0.006774250717113656, 3.323102864232055, 3.675114212599909], [-2.0357169279384566, 1.5685334569491354, 5.213119294607582, 7.022818483312234], [-0.4315922351082539, 0.13700877883717524, 0.9209373730412233, 1.53783904546835], [0.10454893612049083, -0.273271020365702, 4.3096214599783105, 5.8941114349950094], [-0.5417107428523628, -0.39543334111607453, 5.63112617354442, 6.0739495818403695], [1.7608948641372402, 0.020784156799809234, 4.902688843822607, 5.64582730601222], [1.8980370407816685, -0.14236483101302017, 4.3385426725901635, 5.300843462846021], [-0.4194748956372748, -0.3265985701215636, 5.553469753294036, 6.042814235930445], [1.0424385981964321, -0.10021389245196906, 4.985101935799211, 5.795433154904555], [1.5842802457645058, -0.012441985701708845, 4.438858379867744, 5.418703005782094], [-0.531890139079983, 0.22901218722138697, 5.752122670566968, 6.1018144961087595], [1.898776621108527, -0.16420922212369, 4.865481283989999, 5.601033307033579], [2.042358113390243, 0.024816206209046954, 4.279339922386241, 5.267541919092505], [-0.31928938500933185, 0.7340684872983623, 5.559172340061595, 6.079004758845129], [0.9026357658818484, -0.603755563862533, 4.947984472979651, 5.797056086838201], [1.6413418735862972, 0.2835468637266412, 4.430861796158128, 5.470673727572815], [-0.5319065878545177, 0.04803208105190964, 5.807786894520458, 6.086326265835637], [2.065631474597804, 0.09708718266840738, 4.835883975757062, 5.5959118599414035], [2.2805976735141056, 0.025759843532837313, 4.186119221739958, 5.141199371507769], [-0.04939972621299403, -0.17464756172990878, 5.5354165234102375, 6.093958677719059], [0.6584007074730147, 0.5308903330527526, 5.000815115236843, 5.806003262596709], [1.8029238846497249, -0.06807067420228172, 4.3722749304718755, 5.383195426350625], [2.2412054915031474, 1.4541912212197665, 4.853844074247416, 5.260787680578069]], "2": [[1.8110060089361353, 0.15337210005338392, -0.15081326183731653, -2.3089879765715002, 0.2301314192335025, 1.160145973106586, 0.5497340969967204, 2.6509886216198524, 0.007385571360794225, 1.1423553959693438, -1.8704503814334394, -1.3380188737391396, -0.28392973065556726, -4.793947497774974, 1.0297717950535255, -0.660976805901282, -0.8774452945469818, 1.818858243175619, 0.9043319127208264, -0.8047005142049775, -0.6276456508731673, 1.7176941495501363, -1.379303623442998, 0.47320779879695035, 0.2907660377278004, 3.1193877096716007, -0.5945318707499752, 0.6887815767479891, -1.34515650698067, -2.1609946128611726, 1.6705404917905629, 0.4861046246855247, 0.9141590396307568, 0.027087428173313503, 1.923580616011361, 1.215294652012032, -3.125711701798437, 1.3363479632306, -1.3289668023271408, 0.36788309054860135, 2.3607219720482537, -0.7484001442334032, -0.13905164428903238, -1.878709465516487, -1.1956255968125242, 2.695652407459417, 1.6277548588670636, -0.6534071908852982, -0.17763069985347119, 0.2786511768433477], [-2.2604517556794304, -1.6895771998674114, -0.2272773958754647, 1.2154625668105288, 0.22665248004113972, -0.37177572322295854, 0.18652751655526212, -0.7319545245086629, 0.7728226117428498, 2.6075072218041773, -0.5874617553424988, 1.0741329277981895, 0.23808547483808568, -0.2680604079870127, -0.7864505500791308, 2.5097730204620627, 0.9644545671954069, -1.2372038819750635, -1.4667065084564865, -0.3562078682692934, -0.12454306479455218, -1.0866972658886778, 2.32816712848436, -0.3873468132972692, -4.268330775265625, -1.892425177460869, -0.7857487145112784, -2.3631516669101975, 2.233662529654219, -1.2404249126749383, -1.2300410511338908, -0.19902171919175968, -0.20660424916915693, -2.0717901919091952, 4.795343861917383, 3.3249228611290094, 3.4545719886595334, 0.7218796322997953, -0.25501464346017283, -0.8642495516840334, 0.8598574940173974, 1.233235985032513, -2.942029446924546, -0.8772466832411255, 0.6380779274042575, -2.3624246069049626, 0.1591263445704125, 2.207245139731018, 4.987288310666506, -0.9732003446777762], [-6.109342047707247, -1.9814296578159818, 0.6928703948749274, 0.9758231834285106, 1.0177599109303854, -0.7670877794961416, -0.03990539468576301, -1.5403868406833352, -0.3916137525294566, -1.9406115954280756, 0.21454341275251393, -0.26890174952541934, -1.3311840260781664, 5.357548529774731, 0.7970417172117009, -0.10831229618121155, 0.09316485748258502, 0.2633707131746637, 0.20828434423827508, -0.07904872818069698, 0.8769217059503701, 1.7258568982939828, 0.9558744091491841, 1.5620673880479745, -0.017619371873928185, -4.203462711275515, 0.21904806428936077, -0.02346577790274961, 1.3734867775624098, -0.44091903554132544, -1.6084949107890911, 0.02363913090925171, -1.3824250204724582, 0.3812636801433308, -0.44283660589838775, -1.3746117763319776, 3.427426960743816, -0.0025817048108235444, 1.1480000140746291, -2.593580556134144, -0.09699428847252785, 3.3399222284001784, 0.36812284918888805, 0.4027923766173899, -0.5598037107843163, 1.4601118660495565, 4.782888897431433, 0.6420851512338177, -1.8890586247097851, 1.1357454758548329], [-2.576150887655665, -0.7447299779998331, 0.31879340276696755, 1.8905313002038895, 1.4834654745953144, -2.073233383640683, -0.8320233634737376, -0.9937951516193833, 0.17533950536203535, -1.3084674059725687, -1.191119957174373, -1.3957683614877159, -0.597554824788245, 2.330325752077883, 0.06919584467314595, 0.8279236793911409, 0.47091281741642205, -0.5559685622787673, 0.10781536908607325, 0.5659584568962357, 0.5554193173134295, 1.1013461614296722, 0.7393118851581818, -1.0578097906428365, -1.7085094204470783, -4.5798741109786185, -0.4923925922863173, 0.4729026594469796, 1.6568254616506102, 0.02291217306068171, -0.06702577221274619, 0.7395242694749372, -0.9185192204763698, 1.2766483443680186, -0.40605600104836803, 0.7596130214891853, 2.9414233508085115, -0.13636562724703627, 1.936797505048157, -0.062241676486020775, -0.28163681651188865, 4.475592603041068, 0.13077722555429205, -0.5791822952521498, -0.2734131329763612, 1.297765072848828, 4.0767023614881, 0.36404560801211394, -0.404517287027362, -0.23041506073079784], [-1.4580149531450004, 1.6954814685336725, 0.3350456132182937, 1.1876039465551467, 0.8906919675643131, 0.22116353439272424, 0.4580185826659979, 0.11470853303924514, 0.4017425829744751, -2.562888518863947, -2.1335072099710715, -2.967623083265221, -0.459250782341969, 0.5787137033161177, 1.4301530138783136, -0.7466964473784652, 1.457890624805289, 3.506158862366025, -0.04490085093243486, -0.8356653656743646, -0.38643624054111353, -2.1016604259978395, 1.257482104555746, -0.55030133619557, -1.1121065829886805, 0.688487180674061, 0.18251091208170486, -2.6351601322556624, -2.28909777690693, -1.0941526776635024, 1.5395056235175337, 2.420846638864494, -0.31459028337874084, 1.3476953663492028, 2.1556663775975946, -2.5919922754260143, -0.1959216417395321, 2.5296494876121, 2.3847025362167713, 1.649156550872477, -1.6259565512299046, -0.6194369983680265, -0.26103737933631943, -0.31530472030899814, -3.8565581305004444, 2.604114463257491, -4.221252223409196, 0.5263454322233744, -1.9000047655931322, 0.2994914758445563]], "3": [[-1.2397146729823232], [1.731280648777733], [-0.27142005085068815], [-0.2852018291650076], [0.07824198072206913], [-1.2919268623383966], [-1.1257249081655836], [-0.5627896865531187], [0.8737016599584088], [0.640247308934072], [-1.9542387129713363], [0.28900819961363755], [-0.4569405182262744], [-2.7580211057209265], [-0.2970341306432399], [0.06794738890791305], [-1.2371234634985884], [3.3865655986809236], [-1.7756849143308382], [0.5320846803120531], [-1.6345066306040958], [-0.08610866010671589], [0.5124926198196644], [-0.5839031832497343], [0.625869941638274], [-1.9238989048875568], [-0.01698768347318548], [3.0109344643394373], [-1.934720822093406], [0.07212541510732116], [1.9092058751021037], [-0.6116291368406253], [-0.025319016424003134], [-0.46794252311935575], [2.157869107416699], [1.2083623609116827], [3.5080407665382056], [-1.2717022211398474], [2.260948716381547], [1.970153362549603], [-1.2968746251089645], [3.6901601501829795], [-0.7890082515801305], [-0.24237404281899108], [3.255302800661737], [1.0478294125166034], [-0.7156859964081967], [-0.5553443325054225], [1.561707595487599], [-0.3601516120418822], [-0.6782703880769729]]}, "Pd": {"1": [[-0.7494708171000151, 0.9016914562235993, 0.07719529004872504, 0.1359530736909202], [-0.35051907416983563, 0.8335049479755825, 0.20179734815517786, 0.032620375615878855], [-0.4976262322215088, 0.8625294631266953, 0.19231513410240336, -0.14473597336920677], [-0.5021400460162722, 0.90588128759963, 0.13433613661529897, -0.2203739223529788], [-0.45358484815777417, 0.8548890694683822, 0.21724407128228757, -0.23714719571667103], [-0.5904829677389198, 0.8839708307451547, 0.1223173042607683, -0.36673121737105], [-0.5706077247925513, 0.8871159357403487, 0.2732639621351874, -0.2694803251497332], [-0.4493647401622873, 0.808730908766124, 0.044237207193828884, -0.532269746387291], [-0.7851926921122138, 0.9911661016849946, -0.031394952955002185, 0.11444633751118533], [0.02264298559284213, 0.5398799185725967, -0.005366143239263297, -0.9525822248330472], [-0.5357887004196271, 0.824411353375075, -0.5142560708175283, 1.3810860026030956], [0.32675603013347937, 0.1052091666011298, 0.0025843070982815393, 0.594453859753017], [0.4646374340184469, 0.29599244418526144, -0.8568195061698406, -0.5433250459248259], [-0.3304387354103018, -0.19752815536375296, 0.12665818466355522, -0.10250890017389372], [-0.04591351796378108, 0.6306228874726061, 0.45987078819797544, -0.02089156929652705], [-0.04158087135172551, 0.7756488124673814, 0.38310835941341614, -0.012902033414777908], [0.038351779353622543, 0.7998231698934505, 0.15694487515947286, 0.0304477354386598], [-0.12744465245410952, 0.6622449023636566, 0.33936063221588353, -0.36653891278530104], [-0.13946490329199157, 0.8112467218929641, 0.28681842735437424, -0.27540550562612187], [-0.03710704633296306, 0.8345571839458611, 0.15681148165403222, 0.1370731886375401], [0.0636541830860139, 0.630654223236281, 0.4607286741055786, 0.16918217535678476], [-0.04468504409545731, 0.7994196560674758, 0.3768421505919183, 0.06605335536618213], [0.08539262181995173, 0.8519771154039466, 0.20435373513306287, -0.06815801782234347], [-0.1444402757156091, 0.7005030601689689, 0.35242649634536427, -0.23117993147312646], [-0.18791790737789268, 0.7423866526639588, 0.23411300697658405, -0.2922757196111459], [0.03255198682715225, 0.8660428346897361, 0.11791146481063332, 0.07427934351266118], [0.06537182105043768, 0.6411580547824468, 0.5197730522992386, 0.5659867252403219], [0.04187981559069732, 0.7369820965661167, 0.43081706971435146, 0.2767495759822496], [0.1285144526961077, 0.8561491113631022, 0.17369900088917692, -0.06448685420791007], [-0.03974148743846909, 0.6440271852249441, 0.36154729523142864, -0.026821526154761546], [-0.17013834055739338, 0.7996425152200981, 0.2324968010164332, -0.3561684270132456], [0.031841815258068284, 0.8839003439186917, 0.1697445775052174, 0.10296334480882606], [0.8100817404673945, 0.002307565796052842, 0.816262864802144, 0.8738201881158829]], "2": [[0.4144333210403681, 0.2552871901887221, -0.4134852082490518, 0.05332455766267937, 0.13557736991165328, -0.784507301150317, -0.07002626999943319, -0.40531551613739836, -0.20000451562516952, 0.6673344230968719, 0.2506549715438873, -0.10513692907318278, 0.01126011234248449, 0.3656488225032517, -0.009592627952073609, -0.432256912704434, -0.3612159275890517, -1.4064151859358278, 0.9443005126200166, 0.37963798761306417, 0.5245608107266103, -0.16475163151007152, 0.32021286545339267, -0.35330764977793383, 0.2703030346369967, 0.089573506743555, 0.1933621705325142, -0.36215247206130036, 0.27653324401692136, 0.052781533010141074, -0.2879434679201684, -0.9104159712249631, -0.60542042314818, -0.03739223086304492, -0.20873257698517725, -0.3009717467792364, -0.305546253285139, -0.6754143317873215, 0.10426927734491889, 0.24596435104249018, -0.3817505628551392, -0.8714301191696687, -0.4563323398927672, -0.23987896123337554, 0.24676321432790346, 0.5670924402534934, -0.0018513669112622786, 0.4996922420186723, 0.19129057931286178, -0.22734477367735564], [-0.018263147700713484, -0.10203518330328039, 0.02201932077831029, -0.11984225111023557, -0.18596694085597723, 0.007543906449615395, -0.685401001642623, 0.14481335154838168, 0.46275667643867224, 0.25018352548790174, -0.31166807234653426, 0.041744075650786056, -0.22609985434620733, -0.34350801335744807, -0.21007558260108916, 0.34632773082895474, 0.1697898808287558, -0.18365442062562903, -1.8121313162937596, -0.15412584673448546, -0.2144100511974738, -0.09323813114430964, 0.38755667239998565, 0.3064098259127555, -0.5673459802169101, -0.02193376837739604, 0.06895052523963524, -0.038922651790779306, -0.4369013202436761, 0.13777727920878033, 0.20652543958681968, 0.10056864810856539, 0.6534527934131703, -0.08708623107453102, 0.6068277920836936, 0.4819972019438821, 0.41424760268908545, 0.19105343740401648, 0.037645570736951656, -0.7389770117563824, 0.18158675772309668, -0.103486613003014, -0.9345554233146287, 0.03796191454619037, -0.08426114838263901, -0.06838259484458559, -1.037236943025582, -0.4228721708229862, -0.11239208354980305, 0.07909485514880182], [-0.07317911054755538, 0.1497031909648963, 0.020546098778409145, 0.24609289075332735, -0.08622096790121384, -0.045255846130474224, 0.0990674769331445, -0.025265612556994575, -0.32676797721293127, -0.9983917967295666, 0.12113014047813393, -0.2792767633874082, 0.22932967733373852, 0.17570987081625714, -0.11625263103351503, 0.028611360452276746, 0.1669777146669707, 0.12605615427369768, 0.06322972745068933, -0.024874927898530137, 0.2544896993412021, 0.15781015154289665, -0.3900306979992627, -0.13976667046371166, 0.5911436435987479, -0.030917329264552627, 0.12384505140551545, 0.11089916330817602, 0.24985670608818344, 0.08204074251752654, -0.20377577357735133, 0.38863694156804035, -0.3811840100370988, 0.44554762662913266, -0.12261029543929287, -0.3031289089280653, -0.5781511190800391, 0.040507993206479714, -0.2749624631563808, 0.3453574903914774, 0.3203322053297369, 0.522669389942397, 0.26681570930312265, 0.09633924204985167, -0.51849918187122, -0.39554643966356606, 0.7346187861044567, 0.5088367339359138, 0.03532443922814895, -0.0890527962445995], [-0.3017065326854178, 0.08684751845798147, -0.14218952047534414, 0.06170181508360625, -0.07332871528106935, -0.35336178458155815, -0.11755724711400449, -0.19279304271126557, 0.08548418760595622, -0.2937982750427159, 0.05597227622474232, -0.29108539344521284, 0.07843833844317723, 0.1892190843401416, 0.19880516990471764, -0.0842710456661082, 0.0804425837599574, -0.006376836387400295, -0.24826051703222973, 0.15097314477970228, 0.05361296765880269, -0.020523514876823357, -0.5283651568209212, -0.14455438679192129, -0.22923633787830167, 0.09917703203900394, 0.2936628408078818, -0.2299159897670123, -0.13812245476270787, -0.005193441529633009, -0.3286115292345664, -0.2999653912089628, -0.45491950447755874, -0.6117246269500614, -0.009741823336494579, -0.1595157866381419, -0.30404213077140185, -0.2481965104105977, -0.47251121236344007, 0.1403004790782847, 0.009797083564554986, 0.2886807308358956, -2.571730128751464, -0.1381610374124979, -0.30166552025837884, -0.02255912038337616, -0.5389396793111998, 0.3113661821792829, 0.0972782248867585, -0.12900054246912696], [1.1211073650752805, -0.26914798089799996, 0.45852793460459723, -0.604464342809522, 0.14046040304452495, -0.2650691422076535, 0.4564263955893012, -0.06181995900095223, -0.041738396595573345, -0.6308350266551914, 0.1143946115951545, -0.2701798451339459, 0.862675920681325, 0.14686034897419267, -0.02893879170509827, -0.3991878478695596, 0.4278637482410344, -0.7620497042451825, -1.0721184159204715, 0.0952873245301135, -0.31635807209622, -0.08334564939451271, 0.1001777478047396, 0.026342117633199873, 0.12951709545701684, 0.17401006964094023, 0.07439112174341357, 0.09235453363125669, -0.4370956176994872, -0.560541111009039, 0.28105167266702624, 0.14353379495942786, 0.3239060303999286, -0.5538441695502027, -0.38315282802909967, -0.13771446910666038, 0.04263861321267226, -0.30328602919038516, 0.1323969903485467, -0.5304888595664597, -0.1507540436265535, 0.8650147377657463, -0.5123733631931295, -0.3838975060047541, -0.6267373031604803, -0.11364672213579322, -0.7606954627772431, -0.34601289154490866, -0.4335719948477505, 0.34568696939703775]], "3": [[-0.21196633235361234], [-0.09622401499285094], [0.06639759546699503], [-0.01675312054825593], [0.028607128296320995], [1.4612156462075523], [-0.056746503088972305], [0.2014713436797447], [0.06312471122787396], [0.8175798456764617], [-0.2793970639601845], [0.5287421569698111], [-0.08142637783986616], [-0.29520199170069233], [-0.23864424421513528], [0.20563308947311648], [0.18451598009075804], [1.6411116988670145], [-5.01055498318673], [-0.16442111637123383], [-0.37446145611746406], [-0.07563472315176706], [0.9707190806981564], [0.10169067239953533], [-0.4023737791877958], [0.08125879203389517], [-0.21009547685106975], [0.5333594896334757], [-0.5352044288419566], [0.06507526263679432], [0.2459301865760034], [0.85755311001522], [1.3412441296740416], [0.029008943850631175], [0.14990002007352765], [0.3674193532132235], [0.6868170123075032], [0.9975373053209764], [0.4250485030518384], [-0.4867840411059463], [0.17620096025533322], [-0.9175118825166783], [-0.2770979234594054], [0.3679033912461252], [0.8531550219596911], [-0.06419553314166895], [-0.2612439563749082], [-0.924005697190821], [0.16357668109460172], [0.14098455794076947], [-10.260578357128411]]}}, "fingerprints_range": {"Cu": [[3.8146277207833967, 14.773671446513346], [5.075825660853212, 15.824610224206179], [1.9721308711236742, 8.164757780830866], [2.7940842302060656, 9.183520039100534], [1.08754296072989, 4.899596885294583], [1.626586495785668, 5.901293632153394], [0.38009057411024255, 2.100229183316305], [0.5979162717004696, 3.058089253340858], [0.022806104583746538, 0.29703065781176186], [0.03267752149778091, 0.7702142399843445], [0.00023994660593454532, 0.019532691216232568], [0.0002600781049340315, 0.09579851951537856], [2.684004252678675e-08, 0.00012027018144348271], [1.6475482387583465e-08, 0.0014999082499671163], [53.933374514847664, 586.0279136978755], [128.12064751587994, 1339.0774553779588], [52.68618639940384, 680.2199829665379], [41.131668150485005, 430.46949002501225], [88.82571853690784, 933.9576344679633], [44.11384078148922, 505.84680013293473], [38.66980126118429, 428.8432803118022], [95.83947136339181, 999.1121607682313], [36.58466439539326, 497.0153279237612], [25.868094896821642, 273.284856638939], [56.54454238441965, 593.9923398582351], [28.01231877747867, 322.6421450901536], [25.025718372670145, 287.61510794586883], [66.16046138643475, 694.3948342368042], [22.452534931026978, 333.734781480117], [14.968829911531767, 160.4359473839458], [33.562339210372066, 348.9904146530375], [16.382317416211794, 189.85900104165898]], "Pd": [[5.075825660853211, 15.82461022420618], [3.8146277207833954, 14.773671446513346], [2.7940842302060642, 9.183520039100532], [1.9721308711236738, 8.164757780830866], [1.626586495785668, 5.901293632153396], [1.0875429607298897, 4.899596885294583], [0.59791627170047, 3.058089253340857], [0.38009057411024233, 2.100229183316305], [0.03267752149778091, 0.770214239984344], [0.022806104583746524, 0.29703065781176186], [0.0002600781049340315, 0.09579851951537853], [0.00023994660593454505, 0.019532691216232568], [1.6475482387583465e-08, 0.0014999082499671157], [2.68400425267867e-08, 0.00012027018144348271], [52.68618639940385, 680.2199829665362], [128.12064751588002, 1339.0774553779634], [53.93337451484764, 586.0279136978755], [44.1138407814892, 505.8468001329346], [88.82571853690804, 933.9576344679631], [41.131668150485, 430.46949002501225], [36.58466439539324, 497.01532792376423], [95.83947136339191, 999.1121607682309], [38.669801261184276, 428.8432803118022], [28.012318777478665, 322.6421450901558], [56.54454238441963, 593.9923398582329], [25.868094896821624, 273.284856638939], [22.45253493102693, 333.73478148011566], [66.16046138643475, 694.3948342368044], [25.025718372670134, 287.61510794586883], [16.3823174162118, 189.85900104165927], [33.56233921037198, 348.9904146530362], [14.968829911531756, 160.4359473839458]]}, "fingerprints_tag": 1, "scalings": {"Cu": {"intercept": -0.91210620717422264, "slope": 2.2604071863219404}, "Pd": {"intercept": -0.91210620771215867, "slope": 7.0973940519784646}}}