{"cutoff": 6.5, "Gs": {"Pd": [{"eta": 0.05, "type": "G2", "element": "Cu"}, {"eta": 0.05, "type": "G2", "element": "Pd"}, {"eta": 4.0, "type": "G2", "element": "Cu"}, {"eta": 4.0, "type": "G2", "element": "Pd"}, {"eta": 20.0, "type": "G2", "element": "Cu"}, {"eta": 20.0, "type": "G2", "element": "Pd"}, {"eta": 80.0, "type": "G2", "element": "Cu"}, {"eta": 80.0, "type": "G2", "element": "Pd"}, {"zeta": 1.0, "elements": ["Cu", "Cu"], "type": "G4", "gamma": 1.0, "eta": 0.005}, {"zeta": 1.0, "elements": ["Cu", "Pd"], "type": "G4", "gamma": 1.0, "eta": 0.005}, {"zeta": 1.0, "elements": ["Pd", "Pd"], "type": "G4", "gamma": 1.0, "eta": 0.005}, {"zeta": 1.0, "elements": ["Cu", "Cu"], "type": "G4", "gamma": -1.0, "eta": 0.005}, {"zeta": 1.0, "elements": ["Cu", "Pd"], "type": "G4", "gamma": -1.0, "eta": 0.005}, {"zeta": 1.0, "elements": ["Pd", "Pd"], "type": "G4", "gamma": -1.0, "eta": 0.005}, {"zeta": 4.0, "elements": ["Cu", "Cu"], "type": "G4", "gamma": 1.0, "eta": 0.005}, {"zeta": 4.0, "elements": ["Cu", "Pd"], "type": "G4", "gamma": 1.0, "eta": 0.005}, {"zeta": 4.0, "elements": ["Pd", "Pd"], "type": "G4", "gamma": 1.0, "eta": 0.005}, {"zeta": 4.0, "elements": ["Cu", "Cu"], "type": "G4", "gamma": -1.0, "eta": 0.005}, {"zeta": 4.0, "elements": ["Cu", "Pd"], "type": "G4", "gamma": -1.0, "eta": 0.005}, {"zeta": 4.0, "elements": ["Pd", "Pd"], "type": "G4", "gamma": -1.0, "eta": 0.005}], "Cu": [{"eta": 0.05, "type": "G2", "element": "Cu"}, {"eta": 0.05, "type": "G2", "element": "Pd"}, {"eta": 4.0, "type": "G2", "element": "Cu"}, {"eta": 4.0, "type": "G2", "element": "Pd"}, {"eta": 20.0, "type": "G2", "element": "Cu"}, {"eta": 20.0, "type": "G2", "element": "Pd"}, {"eta": 80.0, "type": "G2", "element": "Cu"}, {"eta": 80.0, "type": "G2", "element": "Pd"}, {"zeta": 1.0, "elements": ["Cu", "Cu"], "type": "G4", "gamma": 1.0, "eta": 0.005}, {"zeta": 1.0, "elements": ["Cu", "Pd"], "type": "G4", "gamma": 1.0, "eta": 0.005}, {"zeta": 1.0, "elements": ["Pd", "Pd"], "type": "G4", "gamma": 1.0, "eta": 0.005}, {"zeta": 1.0, "elements": ["Cu", "Cu"], "type": "G4", "gamma": -1.0, "eta": 0.005}, {"zeta": 1.0, "elements": ["Cu", "Pd"], "type": "G4", "gamma": -1.0, "eta": 0.005}, {"zeta": 1.0, "elements": ["Pd", "Pd"], "type": "G4", "gamma": -1.0, "eta": 0.005}, {"zeta": 4.0, "elements": ["Cu", "Cu"], "type": "G4", "gamma": 1.0, "eta": 0.005}, {"zeta": 4.0, "elements": ["Cu", "Pd"], "type": "G4", "gamma": 1.0, "eta": 0.005}, {"zeta": 4.0, "elements": ["Pd", "Pd"], "type": "G4", "gamma": 1.0, "eta": 0.005}, {"zeta": 4.0, "elements": ["Cu", "Cu"], "type": "G4", "gamma": -1.0, "eta": 0.005}, {"zeta": 4.0, "elements": ["Cu", "Pd"], "type": "G4", "gamma": -1.0, "eta": 0.005}, {"zeta": 4.0, "elements": ["Pd", "Pd"], "type": "G4", "gamma": -1.0, "eta": 0.005}]}, "activation": "tanh", "hiddenlayers": {"Pd": [2, 40], "Cu": [2, 40]}, "weights": {"Cu": {"1": [[-0.7801531687530114, -0.49282513369020275], [-0.8581550416092252, 1.3238966933949434], [-0.21655876529152923, 2.731928615070227], [0.12867959102653279, 0.9986069762218062], [0.10168080910584118, -1.4197640713402342], [-0.08877893537558057, -0.8220713702384004], [0.020449267839055298, 0.30879471797698177], [0.05160894546295164, 0.5681613945298122], [6.2769501981260785, -7.737746250936391], [2.1915234858406745, -6.7793299535711125], [4.894129991356158, -18.53702411742569], [-5.203231621054028, 0.42408232560924164], [-2.7786916363262026, 5.593396003280615], [-2.765932040866989, 7.922724457560039], [-3.2353897564084315, 2.7092552765664255], [-0.9574225664787037, 2.8056195743872756], [-3.0704688752920744, 11.131621911876728], [2.053262075693084, 5.346016285560864], [1.2388401424545414, -0.47528006726406635], [1.0184215921987885, -1.696626957504222], [-1.1018825583073313, 1.6519657010781224]], "2": [[-6.758150588691403, 4.18838842380841, 0.7596078089233029, 4.810678256752634, 2.596354317525556, -4.314989704423226, 2.207634667607823, -1.221994630154047, 7.530648829306026, -1.1977554759165283, 3.2140457698465266, 1.9823080280545295, 0.04259636301999001, -4.119776671942017, 5.3901097578504835, -2.216074759645761, -1.4611386068353, -4.454303279013088, 3.7946890348049522, 0.7890178559909871, -2.0553550464784047, -7.130040113377808, -0.13220327591222, 5.102560083698393, -0.6174422999689249, 1.2524324332999552, 1.7495243681832688, -1.6398699069293765, -1.0950340429237302, 4.7680072927093535, 1.8305946912828963, 1.7118855197946719, -0.9670208126689452, 4.132969475030132, 3.915569801291077, -0.5454592576383146, -0.9243929916094581, -2.819143384150993, -2.500368058082845, -0.06570293039744454], [-0.7623686419509502, 3.5931800236350893, 0.5858406959511856, 2.4174544052763722, -0.34754022827890146, 4.102724901119496, -0.5461461022401383, 2.52140278525649, 5.144085992047014, -0.7706685184103824, 1.996480413976955, 1.8945367686872117, 1.2172398546578598, 3.8283452055938842, -0.12609207426077007, -0.18398941443097067, -2.316054813387788, -2.223285632518985, 1.0371365890345412, 0.07419128799192667, -1.1957107495348032, -0.15052588431122857, 0.7790194060068459, 2.444398645551837, 1.2359504519144464, 0.46495544024950386, 0.8459993588022788, -1.0177604410885848, 0.0240247784443802, 1.0843591680275677, -4.304293932630623, 8.732900207670617, 6.566676085621295, 0.684957812712313, 0.8957501570890358, 2.91053778708706, -0.07662624411931947, -0.7799389573168553, -2.706402712005465, 1.5313360426787352], [-2.50078699901918, 3.020600558785161, -1.189088915791585, 2.8188212577610647, 1.543200820656852, -1.0019649003413111, 1.635866193464614, 0.3349838959795615, 4.746638399820229, -0.26662682420557515, 2.21944129317202, -0.48270737812148534, -0.04096853132944877, -0.9438526669851347, 0.12074838573768608, -0.13962880689560214, 0.052008237031561974, -2.902056911225359, 3.0707511980962234, 2.745609404806566, -1.4315872226830717, -0.2505851382995943, -0.7667282672453388, 1.1894081259476408, -1.7353836545513799, -1.1491566285856176, 1.4240777000565787, 0.16140302446958427, -0.23566362502368385, 4.249717023269395, -0.4464485055368241, 3.655999534792291, 2.0142111318338713, 1.5072545642347202, 2.0085356148886504, -7.648546595839789, -1.7377351459262882, 0.6065409522762428, 2.3223973240947235, -1.9347696351613015]], "3": [[-0.6598370049534934], [-1.9342776039377976], [-3.23684747025443], [0.7888657010618412], [-1.9084669802203282], [2.0527156302887954], [1.1377370225969028], [0.7098270503841345], [0.7222856553057241], [-1.5521000465512094], [3.9606473504103414], [-3.572057351843494], [-2.4415518310532605], [-2.2064512797676525], [2.465757439982422], [3.1870479508145824], [-0.498261070675444], [2.4847771809456156], [-0.3495688900649024], [-0.08498911320275515], [0.03655404900535753], [1.3759576064294952], [-0.8009531467536826], [1.9997421431773297], [0.32505275385623705], [1.8715539120328324], [-1.4127727943998596], [2.1889380851619236], [1.196741573269028], [-0.21135785794522294], [0.4957672080822632], [-0.6743034974544995], [0.9435846241503631], [-2.1229581450409394], [2.4755460599138233], [-0.3194287233522997], [0.9918121878042474], [-0.024759687195230713], [1.1392988018983576], [3.435267158538072], [-3.540626557788233]]}, "Pd": {"1": [[-0.7172038207593021, -1.4353270676508776], [-1.6979312715601653, -2.5341144762143832], [-0.9718314682062976, -0.38613720231965953], [-1.1022371184329423, 0.2858664729158902], [0.4831685639417449, 0.14692560977661015], [0.5495713798894369, -0.4355884464774712], [-0.028667651727714686, 0.18530424605614526], [0.031106322583265747, 1.170639607073352], [-4.655280804105816, 10.791306161543202], [-5.793402502645854, 3.0294876657501284], [-27.74558671715093, 0.9655822249840971], [5.116965174338829, -2.9411986341351772], [10.033975911282731, -1.7676298250163325], [30.053521104940792, 1.0279068791472659], [2.4196913696742244, -6.965021268184692], [2.502899305183211, -1.5545462262739314], [14.144388684124948, -1.0498374491497642], [-2.5298038484843586, 0.40868024664990177], [-6.241614815338761, 0.5323344273425212], [-15.016609824073509, 0.15842685862072672], [0.7078226605258627, 2.3026652240506937]], "2": [[0.02756942911095889, -0.9577354729013312, -7.194073292496657, -2.9729857205463746, 3.8207074477217247, 5.442112678058845, 5.756079830506189, 0.3286039283326319, -4.782039535608195, -2.10723610539355, 5.156964398049311, -4.327998920717926, 11.371273056310235, -5.842093327164863, -6.559226508252323, 3.307087851807446, -6.240108134639249, -0.27053385774788413, -4.934979785512023, -10.216024103920995, -11.313671241329406, 8.61262908349182, 0.852861564458495, 2.591058394451717, 0.29508896366266424, -5.447275543215027, -7.043165723824422, 0.9971085028178387, -1.2040832112285536, 5.434771270979356, -4.9309298773638774, 0.7848306613823293, 0.03678986849154034, -2.7942368018918518, 1.58800469607874, -1.921133293646168, 6.304461338580704, -12.648498515423782, 2.607482490445501, 19.324569072524717], [0.7391816011619252, -1.7072574677195345, -0.48364755222708206, 1.3224192544970697, 11.737139813930833, -6.909544942169821, -5.5887526499588684, -1.6785447102867224, 2.1498224832656088, -0.09591861613620074, -1.4545670216894282, 4.124197447553807, 6.581289477588427, 0.58728704890218, -8.656850819908673, -3.340070475314246, -8.64274492337752, 1.962587457183181, 1.778328214941086, -8.751323788521937, 12.025105085669558, -8.602745727785424, -2.2029018698519205, 3.449571193260128, -0.33432679403381055, -1.2414750707402753, 2.9766071829786744, 2.8115994515146054, 10.167827230769717, 0.38946260578449254, -1.7184576636023001, -3.0075220177072834, -2.0840990551156757, -1.1759543645835393, 2.9629206830511916, 9.414885079888066, -0.37815378824655366, -6.665176642220288, 8.3421240117654, -5.163499443360119], [2.5346815493342603, -1.8954453968336826, 0.08370563484749163, -1.118431920833399, -6.445434194340625, 0.837748652290906, 2.1335434785445186, 7.643690276767521, -0.8998391840720283, 2.5875917915244844, -1.139666013799121, -2.5849302839078776, -7.425150618649303, -0.4906822936756768, 3.666050014859023, 1.6427907388462524, 3.705557620178564, -2.2310269418983077, -1.0235748975476386, 3.9047289785146977, -4.7108576762657295, 3.2606829587732733, 1.7947358883257911, -1.0969889852414534, 0.981632537721354, 2.639911865098865, -3.5947483424315507, -1.7176888022760548, -11.639256768102271, 0.9269721202256817, -0.5133256032654052, -2.070954325112502, -1.6432159009698897, 3.120467895529485, -0.16457962044156904, -6.1763715790825495, -2.4479780135315727, 7.58465106317831, -2.434900643453235, 3.873514851875333]], "3": [[-0.8397888125387574], [0.5866392447203881], [1.7959729816632393], [4.827788131573042], [0.22892283526028373], [3.3811368844619665], [-2.1331599386032436], [6.751114395698019], [2.8967504351712203], [1.1663712164054056], [-4.288494990257868], [-3.925527008723534], [-1.4176759821892995], [-2.1644102807023873], [2.2326531895803132], [-0.5887480599319738], [-3.8042180247693484], [-2.770539728697316], [-3.432754419445801], [0.4269845443422708], [1.9206665975248651], [4.818050318769544], [-4.796237811366697], [-2.9071785816948474], [2.272060644904528], [-0.43672267057633374], [-1.8711232080694362], [1.2950334856664532], [3.8656834875512622], [-0.6476743010295323], [0.7201613653970522], [1.223992073071226], [1.1190350509417881], [5.77774982913614], [-2.077405258608023], [0.449842486110999], [4.204822011100367], [-1.1185934296647342], [2.139074299688842], [-0.1857901245078529], [-3.8499386708225973]]}}, "fingerprints_range": {"Cu": [[0.0, 19.717528184980367], [0.0, 12.954617486692312], [0.0, 6.763827902345048], [0.0, 4.714947330374815], [0.0, 0.4690986508436296], [0.0, 0.3591942437989357], [0.0, 8.091157146993111e-05], [0.0, 6.70824590060896e-05], [0.0, 801.3693395965696], [0.0, 185.39781543928953], [0.0, 380.6581764033588], [0.0, 607.2663840318448], [0.0, 231.76903839707245], [0.0, 221.42076155225536], [0.0, 382.67810433385426], [0.0, 75.1704048127164], [0.0, 198.3503394287148], [0.0, 226.15041328755734], [0.0, 104.68820018085577], [0.0, 69.90910953322468]], "Pd": [[0.0, 12.8624897130153], [0.0, 18.849230862512158], [0.0, 4.565811427008994], [0.0, 6.436073106044743], [0.0, 0.31261700513528473], [0.0, 0.42485844093709624], [0.0, 5.453323564168128e-05], [0.0, 5.963922275121878e-05], [0.0, 387.63611918126753], [0.0, 201.06082384923803], [0.0, 768.9373797173059], [0.0, 216.01123836799178], [0.0, 234.91303084909833], [0.0, 579.7588665624862], [0.0, 204.69128069561307], [0.0, 81.20809618623912], [0.0, 368.92772219112385], [0.0, 65.71501674010052], [0.0, 106.06324624063065], [0.0, 215.963130891552]]}, "fingerprints_tag": 1, "scalings": {"Cu": {"intercept": -1.4866506014164567, "slope": 3.8895966990928175}, "Pd": {"intercept": -2.6105858476548285, "slope": 3.3077368656185966}}}