{"cutoff": 6.5, "Gs": {"Pd": [{"eta": 0.05, "type": "G2", "element": "Cu"}, {"eta": 0.05, "type": "G2", "element": "Pd"}, {"eta": 4.0, "type": "G2", "element": "Cu"}, {"eta": 4.0, "type": "G2", "element": "Pd"}, {"eta": 20.0, "type": "G2", "element": "Cu"}, {"eta": 20.0, "type": "G2", "element": "Pd"}, {"eta": 80.0, "type": "G2", "element": "Cu"}, {"eta": 80.0, "type": "G2", "element": "Pd"}, {"zeta": 1.0, "elements": ["Cu", "Cu"], "type": "G4", "gamma": 1.0, "eta": 0.005}, {"zeta": 1.0, "elements": ["Cu", "Pd"], "type": "G4", "gamma": 1.0, "eta": 0.005}, {"zeta": 1.0, "elements": ["Pd", "Pd"], "type": "G4", "gamma": 1.0, "eta": 0.005}, {"zeta": 1.0, "elements": ["Cu", "Cu"], "type": "G4", "gamma": -1.0, "eta": 0.005}, {"zeta": 1.0, "elements": ["Cu", "Pd"], "type": "G4", "gamma": -1.0, "eta": 0.005}, {"zeta": 1.0, "elements": ["Pd", "Pd"], "type": "G4", "gamma": -1.0, "eta": 0.005}, {"zeta": 4.0, "elements": ["Cu", "Cu"], "type": "G4", "gamma": 1.0, "eta": 0.005}, {"zeta": 4.0, "elements": ["Cu", "Pd"], "type": "G4", "gamma": 1.0, "eta": 0.005}, {"zeta": 4.0, "elements": ["Pd", "Pd"], "type": "G4", "gamma": 1.0, "eta": 0.005}, {"zeta": 4.0, "elements": ["Cu", "Cu"], "type": "G4", "gamma": -1.0, "eta": 0.005}, {"zeta": 4.0, "elements": ["Cu", "Pd"], "type": "G4", "gamma": -1.0, "eta": 0.005}, {"zeta": 4.0, "elements": ["Pd", "Pd"], "type": "G4", "gamma": -1.0, "eta": 0.005}], "Cu": [{"eta": 0.05, "type": "G2", "element": "Cu"}, {"eta": 0.05, "type": "G2", "element": "Pd"}, {"eta": 4.0, "type": "G2", "element": "Cu"}, {"eta": 4.0, "type": "G2", "element": "Pd"}, {"eta": 20.0, "type": "G2", "element": "Cu"}, {"eta": 20.0, "type": "G2", "element": "Pd"}, {"eta": 80.0, "type": "G2", "element": "Cu"}, {"eta": 80.0, "type": "G2", "element": "Pd"}, {"zeta": 1.0, "elements": ["Cu", "Cu"], "type": "G4", "gamma": 1.0, "eta": 0.005}, {"zeta": 1.0, "elements": ["Cu", "Pd"], "type": "G4", "gamma": 1.0, "eta": 0.005}, {"zeta": 1.0, "elements": ["Pd", "Pd"], "type": "G4", "gamma": 1.0, "eta": 0.005}, {"zeta": 1.0, "elements": ["Cu", "Cu"], "type": "G4", "gamma": -1.0, "eta": 0.005}, {"zeta": 1.0, "elements": ["Cu", "Pd"], "type": "G4", "gamma": -1.0, "eta": 0.005}, {"zeta": 1.0, "elements": ["Pd", "Pd"], "type": "G4", "gamma": -1.0, "eta": 0.005}, {"zeta": 4.0, "elements": ["Cu", "Cu"], "type": "G4", "gamma": 1.0, "eta": 0.005}, {"zeta": 4.0, "elements": ["Cu", "Pd"], "type": "G4", "gamma": 1.0, "eta": 0.005}, {"zeta": 4.0, "elements": ["Pd", "Pd"], "type": "G4", "gamma": 1.0, "eta": 0.005}, {"zeta": 4.0, "elements": ["Cu", "Cu"], "type": "G4", "gamma": -1.0, "eta": 0.005}, {"zeta": 4.0, "elements": ["Cu", "Pd"], "type": "G4", "gamma": -1.0, "eta": 0.005}, {"zeta": 4.0, "elements": ["Pd", "Pd"], "type": "G4", "gamma": -1.0, "eta": 0.005}]}, "activation": "tanh", "hiddenlayers": {"Pd": [2, 40], "Cu": [2, 40]}, "weights": {"Cu": {"1": [[-0.61652447988313, -0.3823168480952562], [-0.704329465062117, 1.137305323066846], [-0.3950098902760847, 2.396254020951673], [-0.02407624106742688, 0.8670909570474634], [0.1965209819214357, -1.2566390985052331], [0.003753100075650752, -0.6688162700236419], [-0.008757925427576451, 0.2758959008540688], [-0.005827392080783326, 0.4837551043684675], [6.874878443375267, -10.873225784805504], [2.3862971547076715, -6.214032008210572], [5.136865448908974, -16.529600169688056], [-5.339754272460717, 4.601381793931892], [-2.79211566482718, 5.219017898983058], [-2.6436452168731313, 7.071923462671942], [-3.403117495945955, 4.462545078189701], [-1.0319428502963544, 2.60228625491745], [-3.211082631799877, 9.97701606708822], [1.7248031356077735, 2.4724343051286235], [1.053308623401476, -0.5526677547028882], [0.8179376923926079, -1.5521827365050331], [-1.2328959912436006, 1.6200129079127636]], "2": [[-7.1872056301241045, 5.163466313662812, 1.180457607820818, 5.464058054335455, 3.5202874379130984, -5.021916493127322, 1.1996432906309171, -1.839436195689115, 8.022710765007714, -2.061244268320947, 4.150459567354801, 2.25304008486728, -0.30296797518024426, -5.603654278638403, 6.361435099120771, -2.3675336306428005, -1.6969154985737136, -5.3399434302603614, 4.4668838715620724, 0.3779270201632169, -2.2796528418356785, -8.651935302478387, -0.35620912412348543, 5.170504546609045, -0.4362264930073903, 1.2465579274793566, 2.189632516917957, -1.941962930167631, -1.9688246365413213, 6.475161149210731, 0.5691450640115086, 3.0852140224496662, 0.7029801778152373, 4.836429966344835, 4.44559032060067, -0.9828344575414347, -0.8954703402938045, -4.671656519516393, -2.9678226586833865, 0.5550005905489914], [-1.6634487334544257, 3.6968392987761396, 0.9589324344321022, 3.1217481894343777, -0.35130263612591345, 4.262410876186334, -1.0780581957191093, 3.6462077524109917, 5.171301938471962, -1.6599783032309972, 2.607604572239614, 2.455115238819035, 1.1030765226594565, 4.300362486107942, 0.0973223647997069, -0.08005712027451775, -1.8385671160359578, -2.796825453224637, 1.346452202252239, -0.40033455886217656, -1.4849475538432075, -0.6389757610247564, 0.7900751395098538, 2.6961567886194113, 1.4627093573547258, 0.24895802897184038, 0.4881400655531595, -1.2551412869384695, -0.5701838148468283, 2.427267961039224, -4.833042664883541, 9.609976182140395, 8.320348087367105, 1.2615288235921287, 1.177536238970434, 2.872833558888696, -0.012819102572918161, -2.6428944792151725, -1.7070580134083952, 1.7794599873317434], [-2.8074225830537016, 3.1719611334482773, -0.999858866888976, 3.1343028755310756, 2.0948289191141396, -1.1802866557538012, 1.2137711541652003, 0.3774118024285925, 4.5774314342760025, -0.5672286344995287, 2.7659413014484864, -0.4546192805431468, -0.029462869918115503, -1.3425843945799105, 0.138596773442476, 0.16649851658126588, 0.008681400333447711, -3.389275189831297, 3.609023851542824, 2.2815836122431703, -1.6639665003391517, -0.6083386913788724, -0.8244967579725337, 1.208257743953585, -1.9089739087646593, -1.4952473308164091, 1.3567603840699876, 0.0718205908007133, -0.10874566890829299, 5.333245854705925, -0.8714741192752635, 4.088254211876694, 2.761588400792622, 1.7563519341077851, 2.3710411762602677, -7.8110098752478985, -2.0027306603061343, 0.4391034845844575, 2.5462456107241187, -1.2906270018407773]], "3": [[-0.9737040596192542], [-2.676284216885714], [-3.2706549647423686], [0.7285855290091847], [-1.7159168120859731], [2.8124930561530648], [1.4093280956306389], [0.7744575553438884], [1.0224945031637471], [-1.742398847059619], [4.448401263730246], [-3.5426647085544456], [-2.9780082306901683], [-2.5534848525402203], [2.806886087012846], [3.5590418357704663], [-0.9072868359359199], [2.780388199192919], [-0.7997834381280069], [0.04881996279252567], [-0.17814578772433787], [1.381944047140254], [-1.010816132948889], [2.1797127293682697], [0.5850467330976792], [2.5055638139232546], [-1.6759292222998283], [2.3518091198477284], [1.0581946510049014], [-0.26016460167134936], [1.1357151569850643], [-0.7004846958407298], [1.039280471357082], [-2.3754568886257803], [2.2583628085631804], [0.03869592331594891], [0.8289986369082023], [-0.25440363476885364], [1.8721029701548442], [3.1461046373759514], [-3.50983215364117]]}, "Pd": {"1": [[-0.7601481442836048, -1.6350219342965548], [-1.7756871166627968, -2.803278710838187], [-1.0994140325892394, -0.26929685080034654], [-1.230474345608019, 0.38338542077987986], [0.5301815619277004, 0.0501838701337086], [0.5733700663652143, -0.5368568856012358], [-0.03072332544471925, 0.2411376658467143], [0.030010495990041283, 1.285657578923465], [-7.4826489920452905, 12.591233387019628], [-6.887111295774039, 3.463690329049397], [-31.195296579097995, 0.23262362941073314], [7.412736696128207, -3.2199037482593282], [11.874236439930725, -1.792261152318391], [33.617668348700654, 2.2043933982324257], [3.999808613228266, -8.047628934978139], [2.987584034927906, -1.7691761741993735], [15.985994926240554, -0.7180924919139264], [-3.518648210009121, 0.15511701464180835], [-7.424062022906089, 0.3164457453398237], [-16.848525267708656, -0.47928144356861435], [0.7235347938109343, 2.473172258906864]], "2": [[-0.309741098898661, -1.2022527206088676, -3.25742506683836, -4.2895636225009754, 7.136798015973768, 3.3749522048032206, 4.837130252308612, -2.698751980265234, -7.265695572950991, -1.8921077891564055, 6.311341469132346, -3.636986113548613, 13.624220171896576, -8.621500332422798, -7.132428820568591, 3.1488935920534757, -5.599523772374531, -1.5811903906328573, -6.992093931527266, -13.978889674829858, -9.592889981325014, 8.191885781888645, 2.7694772057247317, 1.571369566450958, 2.5355070405865225, -7.541490655859976, -6.270763011790966, 2.3531296166117386, -1.37237111188805, 2.3161280998931417, -5.6067545011230715, 0.5861138894192156, 1.521609447298029, -1.2447917337669012, 1.8633463168419153, -1.7065416127285382, 6.792124684171129, -15.433956016109773, 5.146188819816613, 18.777502689477622], [0.6378870889078052, -1.1353733765955376, -0.03041582977317342, 2.4348859702626986, 13.923296042257212, -3.3729141975867636, -3.9790598948873943, -0.744308612732429, 2.271788877899977, -0.9164360555508833, -1.580790880981462, 3.742212449513948, 7.093842989738302, 0.9132191137160615, -7.373337967421271, -2.023588900511749, -6.2847379505307925, 2.3796704955964976, 2.8401672490776133, -10.028143099349846, 9.768605842788377, -7.952372260211677, -1.9846866213342194, 3.3771976992186215, -0.7595486366559207, -1.547806451665699, 2.840316196941054, 3.790395891338037, 9.790570959638593, 1.440469741691709, -3.814206138539767, -3.7163723071783203, -4.81739205034599, -1.6160441096580718, 2.0338173878602173, 9.70818455620647, -0.16594037600049644, -7.895107362494044, 5.005221674219749, -5.987972084511461], [2.248453385434732, -1.7352183446655405, -0.533914978577257, -1.95968295418843, -7.6279463090427715, -0.18974430434412676, 1.7031481276677356, 8.042010629413479, -1.2578683582927168, 3.1566588280705745, -0.9603276034896926, -2.6923939471849248, -7.980583485049977, -0.23784916140266146, 3.411894785846231, 0.03644779549254704, 2.7683834553818576, -3.357809627759112, -1.8530580175892986, 3.703180731924029, -3.9836484183605254, 3.1982197268217334, 1.5702598845482014, -1.3606381783296493, 0.6560968435597201, 2.4607357033216224, -3.1594557992516608, -2.6394595651062076, -11.495077466304679, -0.7752637167727248, -0.04302374408315636, -2.3949898698440006, -1.5778677293758046, 3.3110671029568715, -0.3818352063025764, -6.638683502045123, -2.3983223158668623, 8.858995969606163, -0.6800367794244077, 4.897844301504309]], "3": [[-0.7149290653375789], [0.5536091014723292], [1.3882614835484721], [4.8207397817724225], [0.0816353112129308], [3.4558893576154897], [-2.0582268377888573], [6.444892582651296], [3.4226425031459367], [0.7286357803528781], [-4.289396258172992], [-4.52602419696962], [-1.8553994197583583], [-1.1865827452021431], [1.9029892805465218], [-0.3023665851838593], [-4.080050586903013], [-2.8491041435357345], [-4.038317624016122], [0.1576390502317978], [2.4077922135307794], [4.136533778470668], [-5.1435949509947525], [-3.437032219319863], [2.7048363779281304], [-1.2029360638910305], [-1.436065169785772], [1.3697756739963043], [4.289733995370553], [-0.3716077969076191], [1.1384297806482406], [0.4111364822165968], [0.8227625382768525], [5.499801506682401], [-1.5770184777927598], [0.2460816036071038], [4.380363442853673], [-1.4216983242792915], [2.75534506289701], [-0.12236031888400657], [-4.425876596357992]]}}, "fingerprints_range": {"Cu": [[0.0, 19.717528184980367], [0.0, 12.954617486692312], [0.0, 6.763827902345048], [0.0, 4.714947330374815], [0.0, 0.4690986508436296], [0.0, 0.3591942437989357], [0.0, 8.091157146993111e-05], [0.0, 6.70824590060896e-05], [0.0, 801.3693395965696], [0.0, 185.39781543928953], [0.0, 380.6581764033588], [0.0, 607.2663840318448], [0.0, 231.76903839707245], [0.0, 221.42076155225536], [0.0, 382.67810433385426], [0.0, 75.1704048127164], [0.0, 198.3503394287148], [0.0, 226.15041328755734], [0.0, 104.68820018085577], [0.0, 69.90910953322468]], "Pd": [[0.0, 12.8624897130153], [0.0, 18.849230862512158], [0.0, 4.565811427008994], [0.0, 6.436073106044743], [0.0, 0.31261700513528473], [0.0, 0.42485844093709624], [0.0, 5.453323564168128e-05], [0.0, 5.963922275121878e-05], [0.0, 387.63611918126753], [0.0, 201.06082384923803], [0.0, 768.9373797173059], [0.0, 216.01123836799178], [0.0, 234.91303084909833], [0.0, 579.7588665624862], [0.0, 204.69128069561307], [0.0, 81.20809618623912], [0.0, 368.92772219112385], [0.0, 65.71501674010052], [0.0, 106.06324624063065], [0.0, 215.963130891552]]}, "fingerprints_tag": 1, "scalings": {"Cu": {"intercept": -1.7830553808755876, "slope": 4.4592230873090415}, "Pd": {"intercept": -1.8846947123045508, "slope": 4.1903579417460648}}}