{"cutoff": 6.5, "Gs": {"Pd": [{"eta": 0.05, "type": "G2", "element": "Cu"}, {"eta": 0.05, "type": "G2", "element": "Pd"}, {"eta": 2.0, "type": "G2", "element": "Cu"}, {"eta": 2.0, "type": "G2", "element": "Pd"}, {"eta": 4.0, "type": "G2", "element": "Cu"}, {"eta": 4.0, "type": "G2", "element": "Pd"}, {"eta": 8.0, "type": "G2", "element": "Cu"}, {"eta": 8.0, "type": "G2", "element": "Pd"}, {"eta": 20.0, "type": "G2", "element": "Cu"}, {"eta": 20.0, "type": "G2", "element": "Pd"}, {"eta": 40.0, "type": "G2", "element": "Cu"}, {"eta": 40.0, "type": "G2", "element": "Pd"}, {"eta": 80.0, "type": "G2", "element": "Cu"}, {"eta": 80.0, "type": "G2", "element": "Pd"}, {"zeta": 1.0, "elements": ["Cu", "Cu"], "type": "G4", "gamma": 1.0, "eta": 0.005}, {"zeta": 1.0, "elements": ["Cu", "Pd"], "type": "G4", "gamma": 1.0, "eta": 0.005}, {"zeta": 1.0, "elements": ["Pd", "Pd"], "type": "G4", "gamma": 1.0, "eta": 0.005}, {"zeta": 1.0, "elements": ["Cu", "Cu"], "type": "G4", "gamma": -1.0, "eta": 0.005}, {"zeta": 1.0, "elements": ["Cu", "Pd"], "type": "G4", "gamma": -1.0, "eta": 0.005}, {"zeta": 1.0, "elements": ["Pd", "Pd"], "type": "G4", "gamma": -1.0, "eta": 0.005}, {"zeta": 2.0, "elements": ["Cu", "Cu"], "type": "G4", "gamma": 1.0, "eta": 0.005}, {"zeta": 2.0, "elements": ["Cu", "Pd"], "type": "G4", "gamma": 1.0, "eta": 0.005}, {"zeta": 2.0, "elements": ["Pd", "Pd"], "type": "G4", "gamma": 1.0, "eta": 0.005}, {"zeta": 2.0, "elements": ["Cu", "Cu"], "type": "G4", "gamma": -1.0, "eta": 0.005}, {"zeta": 2.0, "elements": ["Cu", "Pd"], "type": "G4", "gamma": -1.0, "eta": 0.005}, {"zeta": 2.0, "elements": ["Pd", "Pd"], "type": "G4", "gamma": -1.0, "eta": 0.005}, {"zeta": 4.0, "elements": ["Cu", "Cu"], "type": "G4", "gamma": 1.0, "eta": 0.005}, {"zeta": 4.0, "elements": ["Cu", "Pd"], "type": "G4", "gamma": 1.0, "eta": 0.005}, {"zeta": 4.0, "elements": ["Pd", "Pd"], "type": "G4", "gamma": 1.0, "eta": 0.005}, {"zeta": 4.0, "elements": ["Cu", "Cu"], "type": "G4", "gamma": -1.0, "eta": 0.005}, {"zeta": 4.0, "elements": ["Cu", "Pd"], "type": "G4", "gamma": -1.0, "eta": 0.005}, {"zeta": 4.0, "elements": ["Pd", "Pd"], "type": "G4", "gamma": -1.0, "eta": 0.005}], "Cu": [{"eta": 0.05, "type": "G2", "element": "Cu"}, {"eta": 0.05, "type": "G2", "element": "Pd"}, {"eta": 2.0, "type": "G2", "element": "Cu"}, {"eta": 2.0, "type": "G2", "element": "Pd"}, {"eta": 4.0, "type": "G2", "element": "Cu"}, {"eta": 4.0, "type": "G2", "element": "Pd"}, {"eta": 8.0, "type": "G2", "element": "Cu"}, {"eta": 8.0, "type": "G2", "element": "Pd"}, {"eta": 20.0, "type": "G2", "element": "Cu"}, {"eta": 20.0, "type": "G2", "element": "Pd"}, {"eta": 40.0, "type": "G2", "element": "Cu"}, {"eta": 40.0, "type": "G2", "element": "Pd"}, {"eta": 80.0, "type": "G2", "element": "Cu"}, {"eta": 80.0, "type": "G2", "element": "Pd"}, {"zeta": 1.0, "elements": ["Cu", "Cu"], "type": "G4", "gamma": 1.0, "eta": 0.005}, {"zeta": 1.0, "elements": ["Cu", "Pd"], "type": "G4", "gamma": 1.0, "eta": 0.005}, {"zeta": 1.0, "elements": ["Pd", "Pd"], "type": "G4", "gamma": 1.0, "eta": 0.005}, {"zeta": 1.0, "elements": ["Cu", "Cu"], "type": "G4", "gamma": -1.0, "eta": 0.005}, {"zeta": 1.0, "elements": ["Cu", "Pd"], "type": "G4", "gamma": -1.0, "eta": 0.005}, {"zeta": 1.0, "elements": ["Pd", "Pd"], "type": "G4", "gamma": -1.0, "eta": 0.005}, {"zeta": 2.0, "elements": ["Cu", "Cu"], "type": "G4", "gamma": 1.0, "eta": 0.005}, {"zeta": 2.0, "elements": ["Cu", "Pd"], "type": "G4", "gamma": 1.0, "eta": 0.005}, {"zeta": 2.0, "elements": ["Pd", "Pd"], "type": "G4", "gamma": 1.0, "eta": 0.005}, {"zeta": 2.0, "elements": ["Cu", "Cu"], "type": "G4", "gamma": -1.0, "eta": 0.005}, {"zeta": 2.0, "elements": ["Cu", "Pd"], "type": "G4", "gamma": -1.0, "eta": 0.005}, {"zeta": 2.0, "elements": ["Pd", "Pd"], "type": "G4", "gamma": -1.0, "eta": 0.005}, {"zeta": 4.0, "elements": ["Cu", "Cu"], "type": "G4", "gamma": 1.0, "eta": 0.005}, {"zeta": 4.0, "elements": ["Cu", "Pd"], "type": "G4", "gamma": 1.0, "eta": 0.005}, {"zeta": 4.0, "elements": ["Pd", "Pd"], "type": "G4", "gamma": 1.0, "eta": 0.005}, {"zeta": 4.0, "elements": ["Cu", "Cu"], "type": "G4", "gamma": -1.0, "eta": 0.005}, {"zeta": 4.0, "elements": ["Cu", "Pd"], "type": "G4", "gamma": -1.0, "eta": 0.005}, {"zeta": 4.0, "elements": ["Pd", "Pd"], "type": "G4", "gamma": -1.0, "eta": 0.005}]}, "activation": "tanh", "hiddenlayers": {"Pd": [3, 40], "Cu": [3, 40]}, "weights": {"Cu": {"1": [[-0.006645680913164066, -0.017675509880145886, 0.0319707494024961], [-0.025139761337569812, 0.032329783834222886, 0.01951637929555558], [0.04669832307075382, 0.023983547210014305, 0.035009898145657095], [-0.01971569594298777, -0.0008551059807853506, 0.04457124731359553], [-0.03188731751982332, -0.02226116790082127, -0.006773432266823642], [0.011204503508749457, -0.03217915072196546, 0.025559473461369275], [-0.030364692117043915, -0.011047377331029257, -0.044725519570239236], [-0.009098134833236564, 0.03994232469788882, -0.040785407892785036], [0.01610463584728483, 0.009615694360368326, -0.01833383488825921], [-0.00776251485920549, -0.0443877119337284, -0.044820596452738184], [-0.016964472975254906, 0.021047313560537184, -0.04014054897504624], [0.03445895612347073, 0.013487038172569202, 0.02276773112257667], [0.030816689943792136, 0.03433749828400416, -0.028416954309419398], [-0.022027651915142096, 0.038030492789798934, -0.042790256493040094], [0.031235756264662448, 0.02786953762887169, 0.008509061923040656], [0.00043926394516916045, -0.03145429804375165, 0.02861149290197773], [-0.02868282848038956, -0.028990641910060396, 0.020658975224915485], [-0.016784447049436556, 0.02426880121650439, -0.03668090730227761], [0.044739934093842096, -0.014363086328504707, -0.002343469173601294], [-0.001993672187127947, -0.030401608530276656, -0.0023497617171922974], [0.00964054617220414, -0.042692011439080815, -0.019964923079461263], [-0.005352304586721812, 0.015495530057291505, -0.02890589559114427], [-0.03617698219087843, -0.03764975316128322, -0.03389933867195067], [-0.009237808534185203, -0.04042263463647501, -0.010110166525502812], [-0.026176778636019197, 0.025016841358398226, -0.004570643096036532], [0.01940651264728928, -0.012072116483523618, 0.034367812654874694], [-0.04330316730421116, -0.004627685794123898, 0.03356894733196089], [0.014306290424610749, 0.01646102419838133, 0.01668008256529975], [0.0027343252010077618, 0.027169308732966455, -0.03671997760862993], [0.014818025656709172, 0.02573300031714436, -0.01337233575366159], [-0.03282311167588309, 0.00519383000127871, 0.015300175249902258], [0.02161452909091588, 0.028105783724464775, 0.03311152320037393], [0.0, 0.0, 0.0]], "2": [[0.04563496309883219, 0.41898159287899417, 0.4365537222746263, 0.06420953798078444, 0.25465274535419513, -0.19745061605895575, 0.3100357260226322, 0.4804429889423518, 0.16890891572394595, -0.42126356214946636, -0.1272306436534154, 0.29231350055309024, -0.03769641073987473, 0.3912417935789959, -0.11305669048468159, 0.1793414872472634, 0.42676311066839634, 0.11190667696387202, -0.12647323234664942, 0.26875395710064276, -0.15855473644084583, 0.31369589749548976, 0.24979605329632504, 0.1119018370121675, 0.11963927657213147, -0.4709344936235469, -0.4508963352180544, -0.41271745303042906, 0.22992470290306188, -0.27172790450747464, -0.19742695422816348, -0.009084425354649928, 0.17425558864094104, -0.4732772838619458, -0.31461697820500667, -0.21332206650817365, 0.442110049829053, 0.042516220126932125, -0.0605797547265734, 0.47213798032084053], [0.45854292638717, 0.027775893095855375, -0.047936827470111076, 0.3054580856889194, 0.39273512592402504, 0.3063082694279208, -0.346262172217518, 0.462729710079661, -0.27925729452141934, -0.23381242569987204, 0.3668237583867703, 0.0026923039209564292, 0.48355354322374355, -0.47520154081099697, -0.45403999589766686, 0.4023784730045249, -0.10075068245032748, 0.19947635209632852, 0.43663159561637743, -0.010300650204963513, 0.39093646389238923, 0.19166734177029554, -0.10434243541891108, -0.10048433036712556, 0.14909266782112718, 0.3718133118402299, 0.23107764375817774, -0.31426334521539123, 0.3898381208064887, 0.4801827195907865, 0.09655945025332646, -0.3621843822283197, -0.0481799146563795, -0.31645010589379574, -0.3091651805945511, -0.3185465399218441, -0.27414483558845737, 0.45385122094975905, -0.19961324412708736, 0.27602832788814535], [-0.09934752272161429, 0.3175131246065199, -0.04266520515872185, -0.15604591345958785, 0.45122304728274587, 0.04681028887918559, -0.2755085085512017, 0.37025627993312316, 0.3697406324955149, 0.1429655359539337, -0.1410527496637053, 0.24490960267365058, 0.32889849950409167, -0.31367327333613415, -0.18520459328669947, -0.49603823024585936, 0.3657874933300247, 0.39478583085637897, -0.09306796229022474, 0.37879501415443806, -0.0809166926848931, 0.08183470610007448, -0.2709463575334685, 0.08432916066557561, 0.25086709107472016, 0.15137281532360858, 0.36266275447214014, -0.10691006569344952, -0.4990448029573804, -0.4070421442865745, 0.4174891787223334, 0.15876749319034245, 0.047658824972827585, 0.36244014726855855, -0.12547735542028837, 0.2564262490279047, -0.2705006805181426, -0.4622169361899048, -0.33525957460268885, 0.27838047396747934], [0.0, 0.0, 0.0, 0.0, 0.0, 0.0, 0.0, 0.0, 0.0, 0.0, 0.0, 0.0, 0.0, 0.0, 0.0, 0.0, 0.0, 0.0, 0.0, 0.0, 0.0, 0.0, 0.0, 0.0, 0.0, 0.0, 0.0, 0.0, 0.0, 0.0, 0.0, 0.0, 0.0, 0.0, 0.0, 0.0, 0.0, 0.0, 0.0, 0.0]], "3": [[0.00241230492040706], [-0.005710144288646052], [0.0035818729674254243], [0.010557261704549382], [0.003556384173703138], [0.020289607850774695], [-0.016018523994379367], [-0.03177731102866826], [0.002041444269688955], [0.03321131444256007], [0.018374522448368208], [-0.0034328801651448207], [-0.0015267325973676998], [0.03595043328715316], [0.03346235471666668], [0.03647888627856879], [0.0006670936030611987], [0.017981154647762884], [0.01593631548343307], [-0.01820367608040838], [0.012263333787211915], [-0.03676782610911027], [0.03295098685146209], [0.001776933454460873], [-0.025201921316958018], [-0.010892274538603329], [0.023398527972652752], [-0.0020515276378780187], [-0.02388329811470255], [0.010474139000125199], [-0.007846269216595116], [0.030054988320536553], [0.03688473713108669], [-0.03604391297605385], [0.01870382473197898], [-0.004673410808916964], [0.0244847640048109], [-0.02755551027455204], [-0.033961529463562116], [-0.020024205712817867], [0.0]]}, "Pd": {"1": [[-0.01634114426499444, 0.03683377316114789, -0.03602817476922629], [0.01636817725472725, -0.04661809605175685, 0.006063309855488273], [-0.03827979506237147, -0.018355336712525143, 0.003148462058434706], [-0.03826188051483281, -0.018751007102790512, -0.004478322060957912], [-0.013805651371665721, -0.00895369016362084, 0.000668971142752807], [-0.03672425308883788, -0.012972016570288236, -0.04635340689480401], [-0.0042588315528964, -0.014763313496103624, -0.01925262397591322], [-0.013671913764637743, -0.02872328427377526, -0.039045940317248416], [-0.028299028301840643, 0.026833450528383263, -0.02553710218945698], [0.03084590627034231, 0.030997955865130586, -0.035664993540919704], [-0.014850341341718143, -0.025164488590522175, -0.01685014890367546], [-0.027404501092720305, 0.0046194814579862825, -0.029263203983003343], [0.013220025679662045, 0.02827942389536603, 0.030543363730797773], [0.037930497484446116, -0.04057524352126303, 0.007049064119868345], [-0.03533805904048809, -0.019663016214203778, 0.0018639057040091347], [-0.004653314702770854, -0.022509064561798863, -0.018943941199893642], [-0.022248618066590363, -0.03309047867642413, -0.03357351754729575], [-0.012101271470962405, 0.009770006510293597, -0.028829697842934883], [0.03414758136419413, -0.03593668276625039, 0.0007523649192176934], [-0.02542238839356133, -0.019123105809271925, -0.046182415091604], [0.029008263084302585, -0.036427236816423715, 0.029953074254851858], [0.02096987889393402, -0.003887974731167962, 0.019760725120450337], [-0.017706179181723774, -0.004678947640706352, -0.026397371502096652], [-0.02157014697368678, -0.019592109952895634, 0.008226395336491651], [-0.026354116359852846, -0.027535509429112155, 0.021156861530878396], [0.03452470736200963, -0.02077963395028536, 0.034280861573857485], [-0.007915509050896594, -0.004966380233158388, -0.046570106166149844], [-0.02581894121727574, -0.02822262495350604, -0.045930328402689], [0.02547171306662649, 0.0011132073304541135, -0.03286284513818639], [-0.014932165696161764, -0.013767941967511257, -0.039108459449229055], [-0.025984414919313314, -0.0054556410543113165, 0.015332331597855797], [-0.0037035248455591363, 0.028706802161088354, 0.011863037019020799], [0.0, 0.0, 0.0]], "2": [[-0.4854588061723667, -0.01521043570732461, 0.008589175599267307, 0.25695409961077476, 0.2140970603656931, -0.1882172333183163, -0.006690290725853476, 0.4363197317752917, -0.07184401059837453, -0.3100546621457939, 0.012555566284289443, 0.19118345812498994, 0.23616201222039968, 0.43668514426398886, 0.25691267597935674, -0.021785354950657365, 0.00675094431108636, 0.44406846800302224, 0.44513171439902566, -0.4076305443503331, 0.4566987921689202, 0.22761261948675426, 0.4036887049217702, 0.08182741941347338, -0.035039443928832625, -0.3754831703312841, -0.286036201089363, -0.2748832641951344, -0.2873140030312762, -0.27100832553608967, 0.4638939601264327, 0.21637253841579807, 0.2616441877551926, -0.2869613984335785, -0.16502379083119956, -0.0277194853617726, 0.3800651282705281, 0.038048682264927525, -0.41472130028331156, 0.1640883347872828], [-0.07008744088565455, -0.33395415186916033, 0.39699983325088994, 0.4646175640197465, -0.37019290229237434, -0.40053806605642006, -0.20219091942856737, -0.3410642728821891, -0.07203813587297914, -0.23536653832666177, 0.15957165965009168, 0.24479517315731592, -0.2522619810961292, -0.4300918370579636, -0.309928402409116, 0.37281552233285964, -0.4622858158347596, -0.374651659704075, 0.3917331248906243, 0.46970809559369975, 0.31792047731720996, 0.19222489221155725, -0.046857274953535644, -0.24486555290183198, 0.15267679034319404, -0.20187342010973996, -0.09518789424659901, 0.09261782278727548, -0.31152314536781567, -0.21948597490123423, -0.35886588765609906, 0.45631136048249343, -0.24078289303571332, 0.06323538773660342, 0.01362560526115808, -0.3482564775796636, 0.49266283191954396, -0.11696197190138458, 0.2458580248485186, -0.22559015697410179], [-0.027241612160956774, 0.3469556427405537, -0.31215398579353193, -0.3149500888913557, 0.1537485250324787, 0.2661798635248115, -0.20611698929110955, -0.09194374171321718, 0.025156739453291665, -0.17966559951622518, 0.253624769486403, -0.18467081299714594, 0.22116000291520477, 0.15756405093175052, -0.039870563516013924, 0.006648780244302821, 0.3250803654757225, -0.05152404928405785, 0.37061455443161906, -0.23745996645030032, 0.00939580764412562, 0.18558363729775718, 0.4434622634169497, -0.22009989999010116, 0.45827254923197924, -0.4913132986123243, -0.060753103485091664, 0.023745761916616925, 0.13745696313765354, -0.04187162622345175, -0.2627251994947267, 0.22061448669014816, -0.3033479494549334, 0.3525066829472979, 0.10935712407101628, 0.29668702119990664, 0.056867095409431356, -0.26280934874640594, -0.4028589256476537, -0.33680107218950983], [0.0, 0.0, 0.0, 0.0, 0.0, 0.0, 0.0, 0.0, 0.0, 0.0, 0.0, 0.0, 0.0, 0.0, 0.0, 0.0, 0.0, 0.0, 0.0, 0.0, 0.0, 0.0, 0.0, 0.0, 0.0, 0.0, 0.0, 0.0, 0.0, 0.0, 0.0, 0.0, 0.0, 0.0, 0.0, 0.0, 0.0, 0.0, 0.0, 0.0]], "3": [[-0.02366289791012878], [-0.01836976689175159], [0.023082980830701323], [0.028092006901684875], [0.033611417154014576], [0.035496291698754366], [0.011082025450065106], [0.03332963048893867], [-0.0010053512904787953], [0.007891603422127559], [0.0032003438661529493], [0.010109397283090085], [-0.027270356858338157], [0.03173832643670809], [-0.0014872328542355692], [-0.011206238344458348], [0.006814287338380243], [0.034774895859835224], [-0.030287152781295373], [-0.02271507003330675], [-0.032097829568105335], [-0.016229260016703512], [-0.009234977553874292], [-0.033623332509572924], [0.022988825497771218], [-0.009141505441040396], [0.036400905422007405], [0.005447326866030562], [-0.011620503743012257], [0.014758723676149756], [-0.015148898212696289], [0.03662508130940014], [-0.009728298765827117], [0.02055742960222822], [0.008690937669424838], [-0.0056686595961771], [0.02489814909499833], [0.001484930971662947], [0.02554272023245436], [-0.034454824988216316], [0.0]]}}, "fingerprints_range": {"Cu": [[0.7355979085179102, 15.55743075082518], [0.17208454571200024, 15.824610224206179], [0.2647337529778042, 9.728035574767311], [0.048289987224936715, 9.183520039100534], [0.08998943476157976, 6.543651351035633], [0.013116604377678287, 5.901293632153394], [0.011086319621036456, 3.4322011143730915], [0.0009677208042695254, 3.058089253340858], [2.8105378597217076e-05, 0.7186722153281908], [3.886297579508524e-07, 0.7702142399843445], [1.0530964208036616e-09, 0.06459500411004929], [8.495312182045297e-13, 0.09579851951537856], [1.4696933730671603e-18, 0.0005969806159118927], [4.059438105570023e-24, 0.0014999082499671163], [0.50034203926832, 586.0279136978755], [2.8969921783012786, 1339.0774553779588], [0.0, 680.2199829665379], [0.623397651130686, 430.46949002501225], [2.2581612173512284, 933.9576344679633], [0.11622805422127631, 505.84680013293473], [0.18504763958633103, 428.8432803118022], [1.7871978465575518, 999.1121607682313], [0.0, 497.0153279237612], [0.21809387928730953, 273.284856638939], [1.3209770091224067, 593.9923398582351], [0.06881080565862441, 322.6421450901536], [0.020560848842925673, 287.61510794586883], [0.799631268139842, 694.3948342368042], [0.0, 333.734781480117], [0.03697254301515187, 160.4359473839458], [0.665959989982916, 348.9904146530375], [0.004300675351054025, 189.85900104165898]], "Pd": [[0.17208454571200046, 15.82461022420618], [0.7355978047404241, 15.557430750825183], [0.04828998722493681, 9.183520039100532], [0.2647337529778042, 9.72803557476731], [0.01311660437767832, 5.901293632153396], [0.08998943476157976, 6.543651351035635], [0.000967720804269529, 3.058089253340857], [0.011086319621036456, 3.4322011143730906], [3.8862975795085565e-07, 0.770214239984344], [2.8105378597217076e-05, 0.7186722153281916], [8.495312182045429e-13, 0.09579851951537853], [1.0530949854903416e-09, 0.06459500411004933], [4.059438105570144e-24, 0.0014999082499671157], [1.469689571940093e-18, 0.0005969806159118931], [0.0, 680.2199829665362], [2.8969921783012804, 1339.0774553779634], [0.50034203926832, 586.0279136978755], [0.11622805422127645, 505.8468001329346], [2.2581612173512298, 933.9576344679631], [0.6233975439578614, 430.46949002501225], [0.0, 497.01532792376423], [1.7871978465575515, 999.1121607682309], [0.18504763958633114, 428.8432803118022], [0.06881080565862441, 322.6421450901558], [1.3209770091224076, 593.9923398582329], [0.21809382696856305, 273.284856638939], [0.0, 333.73478148011566], [0.799631268139842, 694.3948342368044], [0.020560848842925677, 287.61510794586883], [0.004300675351054025, 189.85900104165927], [0.6659599899829165, 348.9904146530362], [0.03697252924305966, 160.4359473839458]]}, "fingerprints_tag": 1, "scalings": {"Pd": {"slope": 2.7555544681249997, "intercept": -2.459831533125}, "Cu": {"slope": 2.7555544681249997, "intercept": -2.459831533125}}}