{"cutoff": 6.5, "Gs": {"Pd": [{"eta": 0.05, "type": "G2", "element": "Cu"}, {"eta": 0.05, "type": "G2", "element": "Pd"}, {"eta": 4.0, "type": "G2", "element": "Cu"}, {"eta": 4.0, "type": "G2", "element": "Pd"}, {"eta": 20.0, "type": "G2", "element": "Cu"}, {"eta": 20.0, "type": "G2", "element": "Pd"}, {"eta": 80.0, "type": "G2", "element": "Cu"}, {"eta": 80.0, "type": "G2", "element": "Pd"}, {"zeta": 1.0, "elements": ["Cu", "Cu"], "type": "G4", "gamma": 1.0, "eta": 0.005}, {"zeta": 1.0, "elements": ["Cu", "Pd"], "type": "G4", "gamma": 1.0, "eta": 0.005}, {"zeta": 1.0, "elements": ["Pd", "Pd"], "type": "G4", "gamma": 1.0, "eta": 0.005}, {"zeta": 1.0, "elements": ["Cu", "Cu"], "type": "G4", "gamma": -1.0, "eta": 0.005}, {"zeta": 1.0, "elements": ["Cu", "Pd"], "type": "G4", "gamma": -1.0, "eta": 0.005}, {"zeta": 1.0, "elements": ["Pd", "Pd"], "type": "G4", "gamma": -1.0, "eta": 0.005}, {"zeta": 4.0, "elements": ["Cu", "Cu"], "type": "G4", "gamma": 1.0, "eta": 0.005}, {"zeta": 4.0, "elements": ["Cu", "Pd"], "type": "G4", "gamma": 1.0, "eta": 0.005}, {"zeta": 4.0, "elements": ["Pd", "Pd"], "type": "G4", "gamma": 1.0, "eta": 0.005}, {"zeta": 4.0, "elements": ["Cu", "Cu"], "type": "G4", "gamma": -1.0, "eta": 0.005}, {"zeta": 4.0, "elements": ["Cu", "Pd"], "type": "G4", "gamma": -1.0, "eta": 0.005}, {"zeta": 4.0, "elements": ["Pd", "Pd"], "type": "G4", "gamma": -1.0, "eta": 0.005}], "Cu": [{"eta": 0.05, "type": "G2", "element": "Cu"}, {"eta": 0.05, "type": "G2", "element": "Pd"}, {"eta": 4.0, "type": "G2", "element": "Cu"}, {"eta": 4.0, "type": "G2", "element": "Pd"}, {"eta": 20.0, "type": "G2", "element": "Cu"}, {"eta": 20.0, "type": "G2", "element": "Pd"}, {"eta": 80.0, "type": "G2", "element": "Cu"}, {"eta": 80.0, "type": "G2", "element": "Pd"}, {"zeta": 1.0, "elements": ["Cu", "Cu"], "type": "G4", "gamma": 1.0, "eta": 0.005}, {"zeta": 1.0, "elements": ["Cu", "Pd"], "type": "G4", "gamma": 1.0, "eta": 0.005}, {"zeta": 1.0, "elements": ["Pd", "Pd"], "type": "G4", "gamma": 1.0, "eta": 0.005}, {"zeta": 1.0, "elements": ["Cu", "Cu"], "type": "G4", "gamma": -1.0, "eta": 0.005}, {"zeta": 1.0, "elements": ["Cu", "Pd"], "type": "G4", "gamma": -1.0, "eta": 0.005}, {"zeta": 1.0, "elements": ["Pd", "Pd"], "type": "G4", "gamma": -1.0, "eta": 0.005}, {"zeta": 4.0, "elements": ["Cu", "Cu"], "type": "G4", "gamma": 1.0, "eta": 0.005}, {"zeta": 4.0, "elements": ["Cu", "Pd"], "type": "G4", "gamma": 1.0, "eta": 0.005}, {"zeta": 4.0, "elements": ["Pd", "Pd"], "type": "G4", "gamma": 1.0, "eta": 0.005}, {"zeta": 4.0, "elements": ["Cu", "Cu"], "type": "G4", "gamma": -1.0, "eta": 0.005}, {"zeta": 4.0, "elements": ["Cu", "Pd"], "type": "G4", "gamma": -1.0, "eta": 0.005}, {"zeta": 4.0, "elements": ["Pd", "Pd"], "type": "G4", "gamma": -1.0, "eta": 0.005}]}, "activation": "tanh", "hiddenlayers": {"Pd": [3, 25], "Cu": [3, 25]}, "weights": {"Cu": {"1": [[1.6939421839227262, 0.9502334055644125, 1.3592353595554438], [2.289107259046176, -0.9934152818149591, 1.8079267124345217], [0.894753761939519, -1.171468346008974, -0.11036782559924566], [-0.072168364148208, -0.0065084358334803714, -0.05864511919984805], [-0.7540756367031415, 0.8727102891929441, -0.020908462186786443], [-0.4480126257115415, 0.6764324421370204, -0.06549170626826996], [-0.2516537776882346, -0.26190648419642604, -0.008613900804608002], [-0.008349831034905074, -0.41027018324552395, 0.03474844353675425], [-1.9956467992644777, -1.0263970528248718, -0.14881923142073883], [0.7305366851832968, 2.8891638201943683, -2.578688201553228], [3.0077079725064975, 7.20325839609094, -10.180280634451211], [0.48409341112478194, 3.5811608943108655, -0.2877987477571597], [-0.18827404044133464, -1.5604954785274845, 2.6563258360948327], [-0.3499769400783488, 0.9203964306097681, 3.4784071705214785], [0.4203213690343742, 1.090938340127683, 0.025322226472232548], [-0.6003245314182379, -0.9959405357533317, 1.0616904032790977], [-1.493892254876262, -3.6075663358688215, 6.3416133384007285], [0.7540031612091296, -3.5225943709955647, 0.7313378109589221], [-0.2232897955266512, -0.9697377762580797, -0.8869193635971866], [-1.0812026038093885, -2.5237797625674054, -0.6563042711246827], [-0.06742555159148499, -0.43243382196392377, 0.8174582264967802]], "2": [[0.8634297783019866, -1.3180076967699916, -0.811531718247319, 2.2716385361317206, 0.3421257931476357, -1.886483151348698, -0.18394343726227974, 2.3885294503243184, -1.8316414316672844, 2.3493475218253868, 1.770292906313376, -10.160427050388037, 3.2224340063270756, 3.876392401534507, 0.41412078757727794, -1.2730199874478958, 1.5700942841579264, -2.543541596874512, -0.04966563847411951, -1.4352146761194713, 1.0422856585478724, 0.9469752852199104, -1.6273683228630214, 1.5438217515123047, -2.0239450695329904], [1.78305667829814, -0.38570105256766574, -2.1915491830632368, -2.321062737512125, 0.6868268634347146, 3.9285975645248263, -4.268346068096869, -0.8683258854600071, 1.8776227419643259, 5.79281650291658, 0.09496046482708619, -2.075408025566988, 0.8064954019270986, 1.2138025699711128, 2.313128248967157, -1.0726734378114158, -2.4720469851613003, -1.0765813017700996, -2.7249926209739814, 0.3066625162428508, 2.2009654735849633, 2.7732219188398, 2.968842937570728, -4.287309231609011, 1.7639049457380418], [-0.08881379971821754, -3.8817436671760763, 1.2183572658355493, -4.310315340805124, 0.027206024433503947, -1.0864258718007933, -5.372706167673694, 1.579473149537646, 5.851146487394698, -8.741014790427869, 3.754074636303402, -0.0968687424795967, -3.755133695871036, -3.8290742512714337, 5.228457431382069, -2.970647764271518, -3.925062988509912, 4.8434506593941595, -4.002850303013321, 1.4743255592552895, 0.5165118986368354, 1.3406474041118992, 1.2154387741515813, 0.7434112527340624, -4.243041895863316], [-3.4031436591167727, -0.4716321383808835, -1.426883751138687, 1.6780604344097576, 3.2066679840792007, 1.0203126369909308, 0.494452912477784, 5.0970994571158785, 4.343742837246273, 0.5309359238549369, 0.8578600023803049, -1.570933474138437, 2.8725707054832643, 3.6148417106809623, -1.8994189283108747, 0.90474967568588, 1.093812253401898, -1.1209371070362912, 0.21036029251516494, -0.38457853739951914, 0.18319275942546542, 0.5406297723786737, 1.2331313132199972, -1.5363027969599838, 4.704961574147061]], "3": [[-0.19613252277175305], [0.4119237772884314], [0.6902030095879763], [2.3551423215559586], [0.6109352004903656], [0.7188999471096283], [-0.4710226370513358], [2.061239541966544], [-1.0257506988026162], [0.8785167507557242], [0.47717814360887556], [-0.025767995229728287], [1.979678407972496], [-1.240208660946903], [-1.1500068310462563], [-1.4562809567757766], [-3.5251547673299766], [-0.6160251833242998], [1.4970403833942474], [1.789905671632833], [1.7516912532786404], [-1.3838886680933136], [-0.13508311614658192], [0.6908161480993666], [-0.5643142028196771], [-1.1901035285476986]]}, "Pd": {"1": [[0.6262263732027148, 0.9764344030126123, 4.70064855575648], [2.235886519896812, 3.975442800119471, 1.9448432702766412], [0.5598854809400478, 1.2116079859575428, -0.8237439300246694], [-0.4134984449595458, -0.2893786162839441, 0.4790201008996569], [-0.14331659389703835, -0.5142592138884368, -0.09943546840113203], [0.049765105111249174, -0.2514121819925955, 0.25305955975424943], [-0.06851240310428416, 0.0608304098991253, 0.4485325053409439], [-0.3200226083171585, -0.06806827699074368, 0.5642164516511609], [-5.009592522733304, -10.295208956058053, 2.0586891293801406], [-0.3947619540573505, -1.2269017417664048, -4.008775476551083], [5.871620255535032, 6.0191098622575065, -0.24714948075310977], [1.6915947388314212, 4.37460945330159, 5.195271338108333], [-0.30517411563856833, 0.09921449938973748, 6.956929971931103], [-8.328879960009289, -12.931410368507159, -6.160658399497829], [3.6355440413985387, 6.643913392572778, -3.624143055954717], [0.20393629526202203, 0.6226048849473167, 1.7379209633442643], [-2.838486119191357, -2.1177965855603853, 3.599834124851006], [-0.29919727833432985, -1.1602613671507678, -5.718009655309572], [0.5805166057246901, 0.6037370379973787, -7.106812821691196], [5.093620481045068, 8.215094741653044, -1.1216791586752581], [0.24415399681892716, -0.8091755220282362, -2.9829415365000234]], "2": [[0.3417270419266663, 2.3683269894754373, -1.442949427339582, 0.8541663781824573, 0.15932839955018266, 0.24913288114466556, 0.43522894020961284, 0.31365063976349883, 2.6951440272721197, -3.0512097378089, 1.5524203892268158, 0.19503313311584858, 0.2760125767515589, -1.8112104402255746, 0.5944906009992335, -0.7112499695992612, -1.2684670487409002, 1.079016944923723, -2.409437811213841, -0.9478493205302393, -1.1481076489639084, -3.6522510503854098, 0.0909955062439253, -0.4336197234131352, 2.942774875226447], [-0.3450588861224767, -0.020866199543157573, 4.864643485875284, 2.3167500668609304, -2.227851341290813, 3.143415735601746, 0.11018680193350408, 0.20562380976605657, -4.86457543831836, 3.1922329489357932, -0.45824249138182027, 1.9723217611031083, -8.332011857060824, 1.8013713389412096, -0.20114901351906245, 1.37996222522337, 0.980182119246015, 0.16060715018385208, -3.9994824166616896, -0.6197122403036323, -1.7912133469376517, -5.192965983965712, -2.3197514669240276, 0.8204235048013494, 0.3246517402381381], [2.497897072217263, 0.3031493761684406, -0.5721308662723406, 0.6482259328059932, 3.6327219944130262, -0.7352792262845609, 3.6681439414476382, 2.7137726527205164, -0.796986819705, -0.5940413097468382, -2.044672469306353, -1.478156005721702, 3.191584743585797, -0.3709520223494871, -0.8881719234110765, 1.648543769382678, 1.9352017030125257, 1.1427110131858726, 9.882224084557317, -4.113129149411894, -1.6273135497101563, 3.1094719676140254, 3.2821916251583927, -1.3337123998442377, -1.2598260860580672], [0.9041246844007138, 0.466040832386444, 3.385206821056456, 2.240296037680909, 0.046751618873005205, 1.9433273239278488, 5.253305808092536, 4.300834733538995, -5.855259901322068, -0.2828492228315711, 1.1402964559336677, 2.21871065953214, -6.04631329085791, 1.381647762019286, -0.9814779154780238, 1.507121456202523, -0.5598790579558269, 1.2764242568240347, -0.9786385785523519, -4.603317132090699, -0.8589527980538875, -4.432020276347101, 0.2340983752344853, 1.0983667358174152, -2.0122469634513784]], "3": [[-0.0020359381434353887], [0.9647975078026176], [0.9755393898566983], [-0.40834836803164365], [1.119402504590907], [-1.870048587827349], [-3.693690175548157], [1.580989038265296], [-2.1512037920826095], [0.1443944675588662], [0.49552611056609175], [0.24669711715221943], [-1.0033865702852436], [0.7063223388189022], [1.5521540209825933], [0.572931176554305], [0.8456942792543412], [0.11652367015931843], [-0.016491057562622077], [-0.30693551794176954], [0.23388489677401142], [0.5783403670629891], [-0.8165064395907854], [-0.04263965884588089], [-0.38985698107223243], [-0.7371649426356225]]}}, "fingerprints_range": {"Cu": [[0.0, 19.717528184980367], [0.0, 12.954617486692312], [0.0, 6.763827902345048], [0.0, 4.714947330374815], [0.0, 0.4690986508436296], [0.0, 0.3591942437989357], [0.0, 8.091157146993111e-05], [0.0, 6.70824590060896e-05], [0.0, 801.3693395965696], [0.0, 185.39781543928953], [0.0, 380.6581764033588], [0.0, 607.2663840318448], [0.0, 231.76903839707245], [0.0, 221.42076155225536], [0.0, 382.67810433385426], [0.0, 75.1704048127164], [0.0, 198.3503394287148], [0.0, 226.15041328755734], [0.0, 104.68820018085577], [0.0, 69.90910953322468]], "Pd": [[0.0, 12.8624897130153], [0.0, 18.849230862512158], [0.0, 4.565811427008994], [0.0, 6.436073106044743], [0.0, 0.31261700513528473], [0.0, 0.42485844093709624], [0.0, 5.453323564168128e-05], [0.0, 5.963922275121878e-05], [0.0, 387.63611918126753], [0.0, 201.06082384923803], [0.0, 768.9373797173059], [0.0, 216.01123836799178], [0.0, 234.91303084909833], [0.0, 579.7588665624862], [0.0, 204.69128069561307], [0.0, 81.20809618623912], [0.0, 368.92772219112385], [0.0, 65.71501674010052], [0.0, 106.06324624063065], [0.0, 215.963130891552]]}, "fingerprints_tag": 1, "scalings": {"Cu": {"intercept": -2.3025205762413981, "slope": 2.0360839362330263}, "Pd": {"intercept": -4.3204974394443134, "slope": 3.5022237743602282}}}