{"cutoff": 6.5, "Gs": {"Pd": [{"eta": 0.05, "type": "G2", "element": "Cu"}, {"eta": 0.05, "type": "G2", "element": "Pd"}, {"eta": 4.0, "type": "G2", "element": "Cu"}, {"eta": 4.0, "type": "G2", "element": "Pd"}, {"eta": 20.0, "type": "G2", "element": "Cu"}, {"eta": 20.0, "type": "G2", "element": "Pd"}, {"eta": 80.0, "type": "G2", "element": "Cu"}, {"eta": 80.0, "type": "G2", "element": "Pd"}, {"zeta": 1.0, "elements": ["Cu", "Cu"], "type": "G4", "gamma": 1.0, "eta": 0.005}, {"zeta": 1.0, "elements": ["Cu", "Pd"], "type": "G4", "gamma": 1.0, "eta": 0.005}, {"zeta": 1.0, "elements": ["Pd", "Pd"], "type": "G4", "gamma": 1.0, "eta": 0.005}, {"zeta": 1.0, "elements": ["Cu", "Cu"], "type": "G4", "gamma": -1.0, "eta": 0.005}, {"zeta": 1.0, "elements": ["Cu", "Pd"], "type": "G4", "gamma": -1.0, "eta": 0.005}, {"zeta": 1.0, "elements": ["Pd", "Pd"], "type": "G4", "gamma": -1.0, "eta": 0.005}, {"zeta": 4.0, "elements": ["Cu", "Cu"], "type": "G4", "gamma": 1.0, "eta": 0.005}, {"zeta": 4.0, "elements": ["Cu", "Pd"], "type": "G4", "gamma": 1.0, "eta": 0.005}, {"zeta": 4.0, "elements": ["Pd", "Pd"], "type": "G4", "gamma": 1.0, "eta": 0.005}, {"zeta": 4.0, "elements": ["Cu", "Cu"], "type": "G4", "gamma": -1.0, "eta": 0.005}, {"zeta": 4.0, "elements": ["Cu", "Pd"], "type": "G4", "gamma": -1.0, "eta": 0.005}, {"zeta": 4.0, "elements": ["Pd", "Pd"], "type": "G4", "gamma": -1.0, "eta": 0.005}], "Cu": [{"eta": 0.05, "type": "G2", "element": "Cu"}, {"eta": 0.05, "type": "G2", "element": "Pd"}, {"eta": 4.0, "type": "G2", "element": "Cu"}, {"eta": 4.0, "type": "G2", "element": "Pd"}, {"eta": 20.0, "type": "G2", "element": "Cu"}, {"eta": 20.0, "type": "G2", "element": "Pd"}, {"eta": 80.0, "type": "G2", "element": "Cu"}, {"eta": 80.0, "type": "G2", "element": "Pd"}, {"zeta": 1.0, "elements": ["Cu", "Cu"], "type": "G4", "gamma": 1.0, "eta": 0.005}, {"zeta": 1.0, "elements": ["Cu", "Pd"], "type": "G4", "gamma": 1.0, "eta": 0.005}, {"zeta": 1.0, "elements": ["Pd", "Pd"], "type": "G4", "gamma": 1.0, "eta": 0.005}, {"zeta": 1.0, "elements": ["Cu", "Cu"], "type": "G4", "gamma": -1.0, "eta": 0.005}, {"zeta": 1.0, "elements": ["Cu", "Pd"], "type": "G4", "gamma": -1.0, "eta": 0.005}, {"zeta": 1.0, "elements": ["Pd", "Pd"], "type": "G4", "gamma": -1.0, "eta": 0.005}, {"zeta": 4.0, "elements": ["Cu", "Cu"], "type": "G4", "gamma": 1.0, "eta": 0.005}, {"zeta": 4.0, "elements": ["Cu", "Pd"], "type": "G4", "gamma": 1.0, "eta": 0.005}, {"zeta": 4.0, "elements": ["Pd", "Pd"], "type": "G4", "gamma": 1.0, "eta": 0.005}, {"zeta": 4.0, "elements": ["Cu", "Cu"], "type": "G4", "gamma": -1.0, "eta": 0.005}, {"zeta": 4.0, "elements": ["Cu", "Pd"], "type": "G4", "gamma": -1.0, "eta": 0.005}, {"zeta": 4.0, "elements": ["Pd", "Pd"], "type": "G4", "gamma": -1.0, "eta": 0.005}]}, "activation": "tanh", "hiddenlayers": {"Pd": [3, 25], "Cu": [3, 25]}, "weights": {"Cu": {"1": [[1.93834889913472, 1.1051226398977758, 1.4098166808630725], [2.3091188135740603, -0.7835035624980192, 1.7394406605342128], [0.48240796034136113, -1.092770461605756, -0.07295025426685396], [-0.32301015900060176, 0.12495924916008425, -0.03471249259627355], [-0.5951481084452778, 0.8928940685632029, -0.05316544979645933], [-0.4111098358952089, 0.6873998432948174, -0.1089476905226908], [-0.28759325331534, -0.27678057009422447, -0.026887555848040888], [-0.0068289630593614025, -0.44780847314061717, 0.03422136997600564], [-3.4416824724408364, 0.3191092221455604, -1.9735999757038474], [0.8161425410887755, 2.6514829470168926, -2.196052236054928], [5.396075694790589, 6.723529510967778, -8.485906051897386], [0.5134438728515152, 3.0016178819591115, 1.8211087145901836], [-1.2085909100018761, -0.8738514869512711, 2.35012769592915], [-2.3832935357679066, 1.4545321872733248, 2.741221192663918], [1.811400083214365, 0.19243279226684004, 0.9512542709295281], [-0.5250401944254947, -0.9387270473511069, 0.8997934945942407], [-2.790251335893018, -3.35801275054728, 5.390331808715596], [0.6493979501053777, -3.2939320006279766, -0.531242853823684], [0.5948367565818652, -1.4794249264070127, -0.8662571985363641], [-0.162520350993393, -2.8761337457957907, -0.5057624085337418], [-0.2565398172100792, -0.31651450900025196, 0.7215445604098738]], "2": [[1.8238086376917584, -1.6086634088774179, -0.12707691176294114, 2.2958143901159023, 0.25571179211409345, -2.0251607787801054, -0.04368307089351317, 1.6057634706522053, -2.493890748828762, 2.5928144745982413, 2.227454627713043, -11.658633804753263, 3.8711281428422737, 4.480216577269326, 0.21516941017016328, -1.0290522196551684, 1.6087078787908045, -3.287151380615617, 0.03541707755092677, -1.7305630171324762, 1.1455670060197236, 1.1167322189171247, -2.3122449147649276, 2.468585027862923, -1.7875995562500862], [1.41902373613949, -0.1787383472325959, -2.3995195638835853, -1.5297540167130619, 1.3657450283365986, 3.758961075159242, -3.964833255459917, -0.2549969844178963, 1.6330135830277857, 4.959415931945661, -0.23691209019461015, -5.1506564312824406, 1.0745678590544943, 1.5720739309070741, 2.335676215477526, -1.2418598612324319, -1.773389692893205, -1.027261782756285, -2.177594149456055, 0.17836135402258446, 2.312211506620224, 2.804751943927174, 2.92526287656027, -4.927701353091981, 1.546938365593151], [0.9889249129245581, -4.0211676932806615, 1.550262053224038, -3.3563015777280296, 0.8306025113508344, -1.7716766803796875, -5.074050546115461, 1.4087621540910704, 6.335033929631774, -9.213831635091452, 4.186866561165051, -1.2138316676388832, -3.7662309513037155, -3.9147076028473533, 5.630045497493964, -2.939341500584711, -3.12318752041677, 4.41435236472883, -3.4144222196094667, 1.3442418803472598, 0.34260630841404216, 1.0360594539931351, 0.4720645865419344, 1.319411086032599, -4.279131530848329], [-3.0361449470276454, -0.8289860181865573, -1.503526504984475, 1.58914789193074, 3.7944541973028785, 0.9705130976715644, 0.5043859421018103, 4.918746629223045, 4.873406074075678, 0.15993405948152606, 1.1762639258558476, -2.4261193663286504, 3.146067598861401, 3.86895535420852, -2.2031474312449744, 0.9422837917680544, 1.0688049804823585, -1.5646857580283475, 0.29187291090082734, -0.6741812300749818, 0.34631548136836626, 0.6903882971313184, 0.9430805994881262, -1.4349655420962737, 4.902052453554223]], "3": [[-0.6759443554129313], [0.3365733852214992], [0.8531044657546137], [2.3474067619801486], [0.8616820664559732], [0.9646661185553266], [-0.3406137752867241], [2.1888612980429785], [-1.3555911223380686], [0.568205472657171], [0.4355552824207623], [-0.024635511025811622], [1.8457294480138788], [-1.287770232491376], [-0.8379926948739094], [-1.6052805327968587], [-3.2606395003891375], [-0.6798753989210664], [1.546756842942973], [1.6272170261190735], [1.538894724366667], [-1.2675913025433085], [-0.1606735218577146], [0.48555719932778985], [-0.8758103933775109], [-1.1830321739272138]]}, "Pd": {"1": [[0.4919957966237208, 0.8124329130453728, 5.312447168752535], [2.0729034739630285, 3.9016512669420744, 2.3773231151510372], [0.5911092733376662, 1.3248657638052386, -0.9351924748644114], [-0.3403114247184455, -0.224013875124028, 0.1502555841241261], [-0.13570716043350808, -0.5361810705071978, -0.22342359950841686], [0.026491418911949245, -0.27954263361090337, 0.3855261358935422], [-0.06515668667175856, 0.06846200930541639, 0.5346961953319149], [-0.2781560880037974, -0.03356083449488994, 0.5126360945215501], [-4.182843847885859, -9.275588517401005, 0.3924356740016411], [-0.11009956737353697, -0.6386551276134003, -4.45281542411963], [5.3597129479610155, 6.482059189782682, -0.0529966697362666], [1.1960534909119083, 3.5882691975231737, 6.64463884150928], [-0.7110905281174504, -0.8205235924216354, 7.650690250343512], [-7.828807910275528, -13.672295849223373, -7.1579197785123085], [3.1151953036674636, 6.020529304048886, -2.9978652150155156], [0.08651817127141322, 0.3690411854329337, 1.840845609118699], [-2.5441448853168924, -2.3096924665098277, 3.5450900208731215], [-0.09725081686536427, -0.8117425980369279, -6.482635641885767], [0.8094885740577296, 1.2029943835267587, -7.52948303155915], [4.785227124482194, 8.647236129031182, -0.3908502440124025], [0.21367939617165183, -0.8678228309305305, -3.0261451710173404]], "2": [[0.32804394082458493, 2.5545786323515287, -1.3070936281889418, 1.0863678931916791, 0.27143940939582223, 0.31706544100231593, 0.937172372774636, 0.17205798335935613, 3.5971736667238483, -2.515265893329296, 1.6725189579180975, 0.06470591964886419, 0.741769296422591, -1.605101576691509, 0.49302067895309215, -0.2658212881551114, -1.4824847880621426, 1.569869039488748, -3.3736024138199303, -1.6335191186364224, -1.3671481924221234, -3.718881181481314, -0.22096382610072812, -0.6369018671217688, 2.662974341849328], [0.14747075152960676, 0.19987368668411398, 4.605149252991649, 2.1975725518304525, -2.9812642903901807, 3.007201588924887, -0.4663589669715009, -0.16144239962136278, -5.6270967847621485, 2.7467060984136378, -0.22895086832583153, 2.24628249486625, -8.553977527601123, 1.9413491689251665, -0.07562118442400373, 1.056779379478291, 0.8897738780446219, 0.1193518640409761, -4.205727468245179, 0.20449222608963513, -2.1295651045235817, -6.312473411487179, -2.569080152091508, 0.6086900556777043, 0.3026977503951598], [2.4335326152978207, 0.3530740559068243, -0.5509150733646049, 0.7109580849135354, 3.652258139088062, -0.6028660429956774, 4.719796412340683, 2.4430517806015626, -0.876209317013408, -0.08381435952953793, -2.1087223730643867, -1.698920732138394, 3.3851423113712458, -0.28728883797217153, -1.1401235604753523, 1.5128691387689561, 2.1670142028120365, 1.3828432016979204, 10.41501157522371, -5.0573365350685835, -1.8666978209559635, 3.47722664380972, 3.293623827759455, -1.8856138392229753, -1.2403192769969922], [1.2412611534021358, 0.5964321839012807, 3.146973263414062, 2.1019403942701773, -0.5660576977228989, 1.9141124560231257, 6.21715789169258, 4.099968413426703, -6.712025770257194, 0.1140626518645077, 1.4136340892405155, 2.267687883286511, -5.892725683480335, 1.693238312789143, -1.2040085189273668, 1.2580854106753154, -0.8004688658313398, 1.44464964627506, -0.9406149991269016, -5.047713852613702, -1.1174725498531304, -4.979699702841346, -0.12446757393455207, 0.8691059291089592, -1.9280423646796634]], "3": [[0.027834908998592624], [0.8257782757707169], [1.0356768673077499], [-0.3385007976129938], [1.409692032069894], [-1.9470921853288514], [-4.299693618560216], [1.7839983960305839], [-2.3738309205490933], [0.09602466113849885], [0.5661483724038545], [0.2545209876933042], [-1.043400586062341], [0.7986008321079838], [1.6567122741213405], [0.666513209678844], [0.6861066544088591], [0.03381887872448015], [-0.021983187261137356], [-0.32424299894453756], [0.14051007174141752], [0.5221845370585049], [-0.8376505768545888], [-0.0006954215067014967], [-0.49093695215232847], [-0.6407059895116008]]}}, "fingerprints_range": {"Cu": [[0.0, 19.717528184980367], [0.0, 12.954617486692312], [0.0, 6.763827902345048], [0.0, 4.714947330374815], [0.0, 0.4690986508436296], [0.0, 0.3591942437989357], [0.0, 8.091157146993111e-05], [0.0, 6.70824590060896e-05], [0.0, 801.3693395965696], [0.0, 185.39781543928953], [0.0, 380.6581764033588], [0.0, 607.2663840318448], [0.0, 231.76903839707245], [0.0, 221.42076155225536], [0.0, 382.67810433385426], [0.0, 75.1704048127164], [0.0, 198.3503394287148], [0.0, 226.15041328755734], [0.0, 104.68820018085577], [0.0, 69.90910953322468]], "Pd": [[0.0, 12.8624897130153], [0.0, 18.849230862512158], [0.0, 4.565811427008994], [0.0, 6.436073106044743], [0.0, 0.31261700513528473], [0.0, 0.42485844093709624], [0.0, 5.453323564168128e-05], [0.0, 5.963922275121878e-05], [0.0, 387.63611918126753], [0.0, 201.06082384923803], [0.0, 768.9373797173059], [0.0, 216.01123836799178], [0.0, 234.91303084909833], [0.0, 579.7588665624862], [0.0, 204.69128069561307], [0.0, 81.20809618623912], [0.0, 368.92772219112385], [0.0, 65.71501674010052], [0.0, 106.06324624063065], [0.0, 215.963130891552]]}, "fingerprints_tag": 1, "scalings": {"Cu": {"intercept": -2.3113606204806452, "slope": 2.0409662187962874}, "Pd": {"intercept": -4.4699134479525231, "slope": 3.3590504857498775}}}