{"cutoff": 6.5, "Gs": {"Pd": [{"eta": 0.05, "type": "G2", "element": "Cu"}, {"eta": 0.05, "type": "G2", "element": "Pd"}, {"eta": 4.0, "type": "G2", "element": "Cu"}, {"eta": 4.0, "type": "G2", "element": "Pd"}, {"eta": 20.0, "type": "G2", "element": "Cu"}, {"eta": 20.0, "type": "G2", "element": "Pd"}, {"eta": 80.0, "type": "G2", "element": "Cu"}, {"eta": 80.0, "type": "G2", "element": "Pd"}, {"zeta": 1.0, "elements": ["Cu", "Cu"], "type": "G4", "gamma": 1.0, "eta": 0.005}, {"zeta": 1.0, "elements": ["Cu", "Pd"], "type": "G4", "gamma": 1.0, "eta": 0.005}, {"zeta": 1.0, "elements": ["Pd", "Pd"], "type": "G4", "gamma": 1.0, "eta": 0.005}, {"zeta": 1.0, "elements": ["Cu", "Cu"], "type": "G4", "gamma": -1.0, "eta": 0.005}, {"zeta": 1.0, "elements": ["Cu", "Pd"], "type": "G4", "gamma": -1.0, "eta": 0.005}, {"zeta": 1.0, "elements": ["Pd", "Pd"], "type": "G4", "gamma": -1.0, "eta": 0.005}, {"zeta": 4.0, "elements": ["Cu", "Cu"], "type": "G4", "gamma": 1.0, "eta": 0.005}, {"zeta": 4.0, "elements": ["Cu", "Pd"], "type": "G4", "gamma": 1.0, "eta": 0.005}, {"zeta": 4.0, "elements": ["Pd", "Pd"], "type": "G4", "gamma": 1.0, "eta": 0.005}, {"zeta": 4.0, "elements": ["Cu", "Cu"], "type": "G4", "gamma": -1.0, "eta": 0.005}, {"zeta": 4.0, "elements": ["Cu", "Pd"], "type": "G4", "gamma": -1.0, "eta": 0.005}, {"zeta": 4.0, "elements": ["Pd", "Pd"], "type": "G4", "gamma": -1.0, "eta": 0.005}], "Cu": [{"eta": 0.05, "type": "G2", "element": "Cu"}, {"eta": 0.05, "type": "G2", "element": "Pd"}, {"eta": 4.0, "type": "G2", "element": "Cu"}, {"eta": 4.0, "type": "G2", "element": "Pd"}, {"eta": 20.0, "type": "G2", "element": "Cu"}, {"eta": 20.0, "type": "G2", "element": "Pd"}, {"eta": 80.0, "type": "G2", "element": "Cu"}, {"eta": 80.0, "type": "G2", "element": "Pd"}, {"zeta": 1.0, "elements": ["Cu", "Cu"], "type": "G4", "gamma": 1.0, "eta": 0.005}, {"zeta": 1.0, "elements": ["Cu", "Pd"], "type": "G4", "gamma": 1.0, "eta": 0.005}, {"zeta": 1.0, "elements": ["Pd", "Pd"], "type": "G4", "gamma": 1.0, "eta": 0.005}, {"zeta": 1.0, "elements": ["Cu", "Cu"], "type": "G4", "gamma": -1.0, "eta": 0.005}, {"zeta": 1.0, "elements": ["Cu", "Pd"], "type": "G4", "gamma": -1.0, "eta": 0.005}, {"zeta": 1.0, "elements": ["Pd", "Pd"], "type": "G4", "gamma": -1.0, "eta": 0.005}, {"zeta": 4.0, "elements": ["Cu", "Cu"], "type": "G4", "gamma": 1.0, "eta": 0.005}, {"zeta": 4.0, "elements": ["Cu", "Pd"], "type": "G4", "gamma": 1.0, "eta": 0.005}, {"zeta": 4.0, "elements": ["Pd", "Pd"], "type": "G4", "gamma": 1.0, "eta": 0.005}, {"zeta": 4.0, "elements": ["Cu", "Cu"], "type": "G4", "gamma": -1.0, "eta": 0.005}, {"zeta": 4.0, "elements": ["Cu", "Pd"], "type": "G4", "gamma": -1.0, "eta": 0.005}, {"zeta": 4.0, "elements": ["Pd", "Pd"], "type": "G4", "gamma": -1.0, "eta": 0.005}]}, "activation": "tanh", "hiddenlayers": {"Pd": [3, 40], "Cu": [3, 40]}, "weights": {"Cu": {"1": [[-0.012740566275975876, 0.010999231843912285, 0.03025526559341324], [-0.057405864847078686, -0.03694243271339572, -0.012643434135524642], [-0.06055480031469846, -0.03866586096894449, 0.050376718489146974], [0.0017884873707464805, -0.056730361389066786, -0.048744180075842206], [0.06460565098731448, 0.06518376899248758, 0.011205897977868418], [0.061077533252376845, 0.014366206984349747, -0.057562349194414664], [0.02690697269687123, -0.05021080015153109, -0.01825359549105189], [-0.03908186379959893, -0.024414224806871603, -0.057913541480174136], [0.06048712952355258, -0.007494919657435095, -0.006694374889775465], [0.03608332808344222, -0.06980897299625825, -0.02051496841338172], [0.06883561758131733, -0.004450701761577053, -0.054384750477941085], [-0.05181877890417656, 0.04970614279183537, -0.04724255943303237], [-0.05588041769933032, -0.02059376725404758, 0.06367056590699753], [-0.0049533552779695705, -0.02648601643082317, -0.048808722630892164], [-0.015788463366058055, -0.021743985177473092, -0.028936313131439843], [-0.05003128183229096, 0.04290862489921139, -0.06645271206753472], [-0.009574723625531398, 0.04517253634569095, -0.06747423512164002], [0.04515773775717173, 0.03783670941104944, 0.06292018341180002], [0.06632123746244571, 0.028617250944956485, -0.02111253983284784], [0.015919939069321307, 0.02836428335738464, -0.06351304617293808], [0.0, 0.0, 0.0]], "2": [[-0.10703120985893178, 0.08932173802934407, 0.3955285179651553, -0.11059068742855016, -0.4647544978859436, -0.09735091499557702, 0.43588366029679004, -0.35148776949551175, 0.04715005619304691, 0.2970895175986914, 0.3646725468254607, 0.12660979604420552, -0.3247178256213089, 0.028229909405033338, -0.3056634812843193, -0.4932555123632619, 0.47658129428635176, 0.1056280504231858, -0.4752824494692417, 0.413242476824519, -0.03570794780872821, -0.25417501589630354, -0.17342736591398977, -0.15675383237897678, 0.3883388954379229, 0.2909029189535033, 0.25796538303133987, -0.03940331809204434, -0.3600034837394208, -0.13491637870430917, -0.46661038915135666, -0.32470282859216515, 0.27055624975314563, 0.22876139845676635, -0.23880896980451116, 0.1859668134789848, 0.20276642902659292, 0.47116576383691566, -0.19098300504050347, 0.47944888136488373], [-0.18907125410682935, -0.37788526025499214, 0.34227003024636204, -0.11868934319665181, -0.3006041550073173, 0.37025962547918756, -0.3173459361453168, -0.19253898290193405, -0.39858143211487307, 0.47097454829460683, 0.26059492924288774, -0.09049567937260239, 0.0704248012908203, -0.09876475762435177, 0.32694016237957035, -0.4530080349362898, 0.13443988711242438, -0.04634489158226729, -0.26753677529189024, -0.4552428833583828, -0.2621614378851943, 0.05533902576124716, 0.4473492180167933, -0.20066637752884386, 0.00711019700595128, -0.0726314337151488, -0.15321305700594035, 0.14153530010377946, -0.3447689442735312, -0.451892865747885, 0.38397406396544853, 0.16963657607761962, 0.39599299518269726, -0.20597823347633748, -0.28490720308285766, -0.11686869905926611, -0.3805604730379273, 0.0341773179414403, 0.09364498937417709, 0.08762666916486583], [0.24917801923128657, -0.4060035574943781, -0.030419374896216045, -0.17812271655679213, 0.017684145557595343, 0.44907980199379893, -0.49552748461862006, 0.47780807520687274, -0.2897178035192228, -0.021484640514424225, 0.42902128530620276, -0.26543161067504306, 0.10092420567118088, -0.07332918771775476, 0.4345215091766794, 0.35942541192292876, 0.4215934838312858, -0.4268538787492375, -0.31992682630962976, 0.13692469892983494, 0.497407736443533, 0.18143634141686893, -0.2271540118030092, -0.36404492848355663, 0.28189002799021745, -0.49393046188989365, 0.2989690736435666, 0.19781078192150592, -0.1241526517236371, -0.10599620375264829, -0.3502549863405723, -0.026318357256923997, -0.005307653159486558, 0.18497733017923546, -0.4866184552688232, -0.28196340031296263, -0.28875130400091387, -0.14659827295106598, 0.2944060065322601, -0.38714414173636236], [0.0, 0.0, 0.0, 0.0, 0.0, 0.0, 0.0, 0.0, 0.0, 0.0, 0.0, 0.0, 0.0, 0.0, 0.0, 0.0, 0.0, 0.0, 0.0, 0.0, 0.0, 0.0, 0.0, 0.0, 0.0, 0.0, 0.0, 0.0, 0.0, 0.0, 0.0, 0.0, 0.0, 0.0, 0.0, 0.0, 0.0, 0.0, 0.0, 0.0]], "3": [[-0.016220234770759435], [0.009491145260052312], [-0.010424170793245483], [0.01259630077367601], [0.03214254566513116], [0.03598463580011398], [0.019810801972020266], [0.01682563262981019], [-0.004017023562831956], [-0.03066297815285762], [0.03350167911556228], [-0.02099851455412065], [0.0022699547716573815], [-0.03367517377275566], [-0.01839680934470663], [-0.02722980363405676], [0.008484222780116124], [0.02809497282995472], [-0.01692922829409656], [0.009385230842009318], [0.0026278611238370747], [0.027021719343175564], [-0.030184741462135754], [0.02125515748042927], [-0.011780047051675107], [-0.02369039873244753], [0.0011631340987189945], [-0.012031214147347626], [0.01345652145387799], [0.0038300796552244373], [-0.032873064838702004], [-0.02905766704096568], [0.0040202214154616], [0.008849475267522222], [0.004059363626482765], [0.014457139480759287], [0.0307190231656096], [-0.0031747307532016267], [0.03520785801945831], [-0.002857537849785652], [0.0]]}, "Pd": {"1": [[0.029744546169947678, 0.04034551992090783, 0.05134037860036446], [-0.00938240583252388, -0.06406724672058893, -0.0515435874992767], [-0.03957740570850867, 0.016635743001182465, 0.06881302663267834], [0.025106211543041393, -0.01978147949371864, -0.06623239901311342], [0.04817392913648161, -0.05639765110878642, -0.031029944134580635], [-0.05927882533955077, -0.06858013060468725, 0.059665108447922374], [0.07387534305119385, 0.06902315165108534, 0.060892378712353715], [-0.062084157962216106, 0.03779149576765245, -0.007081998325857403], [-0.004165225556242269, 0.018477518430476736, 0.016254619631152767], [0.05442153484334088, -0.04059774867986559, 0.019124929020709364], [0.07461856393582504, 0.0015204224309200293, 0.02679989994888314], [-0.018098620213068677, 0.05962513434790963, 0.0672621550338381], [-0.04255884992117099, 0.047891753101963044, -0.07059369730596989], [-0.04573764657028577, -0.07224442389443196, 0.003843023348920227], [-0.008833816480716336, 0.005404081486686085, -0.05382192474934216], [-0.04137023436057658, -0.004382688267306034, 0.014570588961926312], [-0.026932441865398747, 0.021319383408805834, 0.011836251216147925], [-0.06820182014187263, -0.03817885971351496, -0.027382645354972292], [0.07333065081627481, 0.013947425447364825, -0.018307586112966526], [-0.0345590309791196, -0.004276869738349912, -0.03836289998511159], [0.0, 0.0, 0.0]], "2": [[-0.26895043019176945, -0.09125706421625612, 0.36262718112588666, 0.44758970985108526, -0.4837245710311261, 0.02066297280914753, 0.030416864785288933, -0.3574214018771238, 0.4613585093145618, -0.31227968554453445, 0.3773502776386596, 0.22818232054889853, -0.34270131737732645, 0.19091666733809698, -0.1245613271288063, -0.4627391427509271, -0.08022082766207772, 0.14420814557739436, 0.42922332961414755, 0.007488441147339486, 0.031751953716568804, 0.053674112971417, -0.18195302167904392, -0.017921659999833195, -0.36964820758688643, -0.4179526568884373, 0.34068018079773155, 0.45567536186288415, -0.15838387825881872, 0.14258097242455947, -0.221075590957039, -0.44563876843358363, 0.4607579847674562, 0.2361595999308146, -0.4323138671566584, 0.21276442439893828, -0.4734133821551362, -0.4642829133113975, 0.3887762903383274, 0.11111006238011811], [0.274509289468128, 0.019617551556195822, 0.2856258622762359, 0.26478696299605575, -0.34080657524093716, -0.16246040743836343, 0.46221366168609157, 0.14154218618268388, -0.4441979023319391, -0.43640801344789315, 0.29982218373888225, -0.28099283727382485, 0.03299738421781884, 0.18544342447595696, -0.11783708581051344, -0.4385327442973931, 0.46825918116240994, -0.306658115506102, 0.21207471448362125, -0.21570814050028175, 0.22160629181684866, -0.13952573239976163, -0.4130309665410907, -0.31157957662556834, 0.49413231316658035, 0.04564638758524875, -0.1986398477515755, 0.08231422925000509, -0.37834511679898897, 0.03351536127193011, 0.400009394808863, 0.34052202398397524, 0.15930968865070316, -0.4492583883287614, 0.20000030693135262, 0.2654268176051767, 0.43858620951249505, -0.22986893912136253, -0.08793682341025755, -0.14231519648727642], [0.18417519650333514, 0.060469108001844796, -0.07843052107909976, -0.22139434309427108, 0.1070047114881224, 0.4718073735041237, 0.30631988833727697, 0.15516793059143907, 0.3396017341649069, -0.29358158394121436, 0.15755697475216746, -0.12013397286451766, -0.43408513576174335, -0.2764262895842102, -0.09466750468595608, -0.3395908322956813, -0.16547132150111243, -0.3052194986906289, 0.24445662784872613, 0.2835168361791566, -0.27031348502857044, -0.44648714856879423, -0.13479685892764381, -0.14936185917877243, 0.02999017466160714, -0.470197250593932, 0.4241083647553229, 0.38852372641112987, 0.09280996154218069, -0.21245546497962897, -0.48171249813144446, 0.4848987414297039, 0.26799693359474586, 0.13227187402264806, -0.18775075429312071, -0.09136186078011344, -0.2522286216859201, -0.22212199674358768, 0.4774327606971601, 0.16171077134684564], [0.0, 0.0, 0.0, 0.0, 0.0, 0.0, 0.0, 0.0, 0.0, 0.0, 0.0, 0.0, 0.0, 0.0, 0.0, 0.0, 0.0, 0.0, 0.0, 0.0, 0.0, 0.0, 0.0, 0.0, 0.0, 0.0, 0.0, 0.0, 0.0, 0.0, 0.0, 0.0, 0.0, 0.0, 0.0, 0.0, 0.0, 0.0, 0.0, 0.0]], "3": [[0.02019677812312242], [0.03505024713232586], [0.03222285054168381], [-0.0077499531510159606], [-0.02884308208312939], [0.017376496518698298], [0.026140765580749716], [0.0009940968694779756], [0.007356610644519271], [-0.03294119783344288], [-0.024816127295810057], [-0.017710754481790856], [0.0050036143566846505], [-0.028324424919654152], [-0.0258070098106411], [-0.009392410259896782], [0.025156755377141994], [-0.018868569379058474], [-0.023939780367195684], [-0.029650400237017285], [-0.03297907207101397], [-0.03449640014767898], [0.016487759152313222], [0.0176409516611912], [0.019399235819153565], [0.01761910748840672], [0.020789693753407737], [-0.0031364697308853134], [0.025169309158127894], [0.021826331522993493], [-0.035478857412217575], [0.03333464844273077], [-0.012838521117058636], [-0.031994945374576374], [0.020306392834943614], [0.015386972934105826], [0.025479443130897735], [-0.023950449213773047], [-0.0004640207630089363], [-0.007862091019716529], [0.0]]}}, "fingerprints_range": {"Cu": [[0.0, 19.717528184980367], [0.0, 12.954617486692312], [0.0, 6.763827902345048], [0.0, 4.714947330374815], [0.0, 0.4690986508436296], [0.0, 0.3591942437989357], [0.0, 8.091157146993111e-05], [0.0, 6.70824590060896e-05], [0.0, 801.3693395965696], [0.0, 185.39781543928953], [0.0, 380.6581764033588], [0.0, 607.2663840318448], [0.0, 231.76903839707245], [0.0, 221.42076155225536], [0.0, 382.67810433385426], [0.0, 75.1704048127164], [0.0, 198.3503394287148], [0.0, 226.15041328755734], [0.0, 104.68820018085577], [0.0, 69.90910953322468]], "Pd": [[0.0, 12.8624897130153], [0.0, 18.849230862512158], [0.0, 4.565811427008994], [0.0, 6.436073106044743], [0.0, 0.31261700513528473], [0.0, 0.42485844093709624], [0.0, 5.453323564168128e-05], [0.0, 5.963922275121878e-05], [0.0, 387.63611918126753], [0.0, 201.06082384923803], [0.0, 768.9373797173059], [0.0, 216.01123836799178], [0.0, 234.91303084909833], [0.0, 579.7588665624862], [0.0, 204.69128069561307], [0.0, 81.20809618623912], [0.0, 368.92772219112385], [0.0, 65.71501674010052], [0.0, 106.06324624063065], [0.0, 215.963130891552]]}, "fingerprints_tag": 1, "scalings": {"Pd": {"slope": 1.0564404855714289, "intercept": -4.603714649857143}, "Cu": {"slope": 1.0564404855714289, "intercept": -4.603714649857143}}}