{"cutoff": 6.5, "Gs": {"Pd": [{"eta": 0.05, "type": "G2", "element": "Cu"}, {"eta": 0.05, "type": "G2", "element": "Pd"}, {"eta": 4.0, "type": "G2", "element": "Cu"}, {"eta": 4.0, "type": "G2", "element": "Pd"}, {"eta": 20.0, "type": "G2", "element": "Cu"}, {"eta": 20.0, "type": "G2", "element": "Pd"}, {"eta": 80.0, "type": "G2", "element": "Cu"}, {"eta": 80.0, "type": "G2", "element": "Pd"}, {"zeta": 1.0, "elements": ["Cu", "Cu"], "type": "G4", "gamma": 1.0, "eta": 0.005}, {"zeta": 1.0, "elements": ["Cu", "Pd"], "type": "G4", "gamma": 1.0, "eta": 0.005}, {"zeta": 1.0, "elements": ["Pd", "Pd"], "type": "G4", "gamma": 1.0, "eta": 0.005}, {"zeta": 1.0, "elements": ["Cu", "Cu"], "type": "G4", "gamma": -1.0, "eta": 0.005}, {"zeta": 1.0, "elements": ["Cu", "Pd"], "type": "G4", "gamma": -1.0, "eta": 0.005}, {"zeta": 1.0, "elements": ["Pd", "Pd"], "type": "G4", "gamma": -1.0, "eta": 0.005}, {"zeta": 4.0, "elements": ["Cu", "Cu"], "type": "G4", "gamma": 1.0, "eta": 0.005}, {"zeta": 4.0, "elements": ["Cu", "Pd"], "type": "G4", "gamma": 1.0, "eta": 0.005}, {"zeta": 4.0, "elements": ["Pd", "Pd"], "type": "G4", "gamma": 1.0, "eta": 0.005}, {"zeta": 4.0, "elements": ["Cu", "Cu"], "type": "G4", "gamma": -1.0, "eta": 0.005}, {"zeta": 4.0, "elements": ["Cu", "Pd"], "type": "G4", "gamma": -1.0, "eta": 0.005}, {"zeta": 4.0, "elements": ["Pd", "Pd"], "type": "G4", "gamma": -1.0, "eta": 0.005}], "Cu": [{"eta": 0.05, "type": "G2", "element": "Cu"}, {"eta": 0.05, "type": "G2", "element": "Pd"}, {"eta": 4.0, "type": "G2", "element": "Cu"}, {"eta": 4.0, "type": "G2", "element": "Pd"}, {"eta": 20.0, "type": "G2", "element": "Cu"}, {"eta": 20.0, "type": "G2", "element": "Pd"}, {"eta": 80.0, "type": "G2", "element": "Cu"}, {"eta": 80.0, "type": "G2", "element": "Pd"}, {"zeta": 1.0, "elements": ["Cu", "Cu"], "type": "G4", "gamma": 1.0, "eta": 0.005}, {"zeta": 1.0, "elements": ["Cu", "Pd"], "type": "G4", "gamma": 1.0, "eta": 0.005}, {"zeta": 1.0, "elements": ["Pd", "Pd"], "type": "G4", "gamma": 1.0, "eta": 0.005}, {"zeta": 1.0, "elements": ["Cu", "Cu"], "type": "G4", "gamma": -1.0, "eta": 0.005}, {"zeta": 1.0, "elements": ["Cu", "Pd"], "type": "G4", "gamma": -1.0, "eta": 0.005}, {"zeta": 1.0, "elements": ["Pd", "Pd"], "type": "G4", "gamma": -1.0, "eta": 0.005}, {"zeta": 4.0, "elements": ["Cu", "Cu"], "type": "G4", "gamma": 1.0, "eta": 0.005}, {"zeta": 4.0, "elements": ["Cu", "Pd"], "type": "G4", "gamma": 1.0, "eta": 0.005}, {"zeta": 4.0, "elements": ["Pd", "Pd"], "type": "G4", "gamma": 1.0, "eta": 0.005}, {"zeta": 4.0, "elements": ["Cu", "Cu"], "type": "G4", "gamma": -1.0, "eta": 0.005}, {"zeta": 4.0, "elements": ["Cu", "Pd"], "type": "G4", "gamma": -1.0, "eta": 0.005}, {"zeta": 4.0, "elements": ["Pd", "Pd"], "type": "G4", "gamma": -1.0, "eta": 0.005}]}, "activation": "tanh", "hiddenlayers": {"Pd": [3, 40], "Cu": [3, 40]}, "weights": {"Cu": {"1": [[1.1829786758945473, 1.3587527121131808, 0.6935054872707844], [1.4959063730433502, -0.32582571261498894, -1.457119180947788], [-0.07879847308341678, -0.12991885221690558, 0.11726849467925521], [0.13703880029017004, 0.8678129766500393, 1.37930202836348], [-0.05514500665822457, 0.1902933133494381, 0.1162179059275433], [-0.12172381439792393, -0.16777882564807073, -0.36570034944283436], [-0.013084412830196537, 0.029358264479706825, 0.11899807693367953], [0.0016939690236104157, 0.06985561093864492, 0.2168695913288791], [-0.3723970784756836, -1.0081795760972183, 0.5037762606478555], [-0.44453779734185817, 0.773984214788422, 0.8743787512616272], [-0.8026678331301557, 2.670878947139003, 3.0775552167907527], [-1.190041294562033, -1.6945682763866752, -3.3709297212088662], [-0.6051933544527662, -1.608775810848888, -1.5256527827629076], [-1.403727414533192, -1.502226821212351, -0.7534668607186698], [0.7460015710399212, 0.11443660174467878, -1.238469794470926], [0.2285800635110803, -0.31774736861585184, -0.380652572393613], [0.8758005451300508, -1.311799533015449, -1.685734882917465], [1.557401872046914, 0.5966451380102671, 1.0931270166020857], [0.9417905086314725, 0.5828559431693258, 0.20154360092485976], [0.820119318770379, 0.06372586919993155, -0.5681906880535127], [1.117520574272567, -0.998098435401113, -0.8143627659104836]], "2": [[0.5327410378620265, -1.9505177883945786, 0.6611924245205439, -1.3608156603945831, 1.2623965860101922, 0.16397604830839047, 2.058212997356947, -1.1176837317571415, -1.0006130282091799, -0.31585727774762445, 1.807051431895507, 0.6304201802950091, 0.5124504902407572, -2.391969777977383, 0.1640428670073844, -0.9397111322443268, -0.6517862388381125, -2.0408086969483, -2.597308438399527, 1.5830498537996536, 1.9300156278948726, -1.1219903510660538, -1.99187744609916, -0.18673089553451216, -0.6259489508316953, -0.4402182739494107, 3.435604447006824, 0.5604676567819316, 1.5240540301034224, 0.356525455652398, -4.888359056056444, -1.4535805011344602, -0.4413825034583945, -1.2416829632811124, -1.0645601259872257, -0.1895806591323996, 1.4909746330901248, 1.1240312066754514, 0.6657449100161974, 5.343930595677027], [4.0628151898150975, -5.384087996136889, 1.0616437667456335, -2.8418230969334433, -0.7556588965927681, 5.822731810952793, -1.5924938685465242, -2.4685542250151404, 3.4854725393033186, 3.22353628619261, -1.215710234300295, -1.096742021932448, 0.1053376172898046, -5.5388946411352835, -1.2185226237925888, -0.6459512718288338, -0.22923047888827433, 2.277591908466926, 2.298027090195433, -5.5020923965092745, -4.627169526022564, 0.8211785367922507, 7.397907113193031, 1.4054076121310197, -0.418941655909603, -0.20824456479206427, -2.5073451695880635, 1.6953471906094129, -2.067561261710246, -0.05959084923280229, -1.2821999796607866, 1.4248788757858377, 0.9080040330088555, 3.1190991360352163, 1.257254907394613, 0.8930542491264536, -1.8553321781863281, -1.4741341101443308, 2.59025807433897, 0.9407410596220129], [1.2622108702214483, 0.7203838350293539, -2.8991156703687184, 2.061963281439468, 3.0610720451696607, 4.665208197836575, 1.1087453950099806, 2.4238915169315742, -1.2395112827725427, 0.7412922800815536, 0.24954074232541074, -0.02912122515528771, 0.3826363633916867, 0.8276473544963359, 1.0666648704348458, -1.1894651168334274, 2.762210003051513, -0.10204902414503297, -2.8649448786970013, 2.115737675884269, 4.536073939701593, 1.0973627597476159, -4.350720034074663, -1.3923772794648401, -4.371409186896624, -1.657338001016992, -3.0500231626023258, -0.7082583860702588, -0.7826234012572302, 1.6548855322085976, -0.9165442239214986, -2.2379609703243695, 0.6405194388000738, -2.5020191304084682, 0.8388687219051778, 1.4529823891550082, -1.5864374378774777, -2.1095915329219994, 0.7221137854229482, 1.3994209050244977], [0.5915240264796038, 0.21054329308364272, 3.9521887086272005, -2.131390885173844, -0.9038625630971887, 2.0173691682429644, -1.090988145575899, -2.462353069154902, -1.160846129305695, 0.6287068363708329, 0.3877098492518553, 0.2637260506575079, -1.6199536230970148, 0.03915922863698451, 0.04213103756165896, 0.3702300930591286, 2.2801477275238833, 0.2008076395804505, 1.714716251480715, -1.1272605282434753, -1.6645181200444472, 0.37371305659345416, 2.9256934942474646, 2.1504161783486464, 0.806335305745367, 2.059523678643542, -2.135241711213276, -0.556319197745156, 0.34182624580081733, -1.2769881061183195, -0.8301814712545301, -0.2240502530842338, 2.5693484873796253, 1.625563287667417, -0.7893205969951518, 2.222408478663455, 3.1085234176492254, 2.406969922510886, 0.22772035959747625, -4.380597471606869]], "3": [[-1.161279543863855], [-2.3303987941752884], [0.8517477829248896], [0.5423725449234625], [0.3791714442056484], [-0.08105554254314606], [1.2543636157459697], [-0.08511006715885466], [0.8931573619655173], [1.996735733547901], [2.187814320609208], [1.178391547847496], [-1.6117049858030568], [1.836116176934929], [-1.5946501778762845], [1.0429927874274292], [-0.7005380999380044], [1.375164844100438], [0.566873283784203], [2.4177732361526783], [1.7039547281401133], [-0.03738186103713696], [1.5025197333530433], [1.774685710010341], [-0.4228968826056736], [1.6951131714374286], [0.04201600931054465], [0.01870444396252296], [0.8308416801431181], [0.13416741359453072], [-0.05524525184019545], [1.531778873668901], [1.2840193684959424], [-0.80512810832828], [0.6373720936512366], [0.6048369215874484], [-1.7595175798846332], [-2.42462518525825], [0.38392523478304014], [1.5395537164459656], [-1.4346878181594618]]}, "Pd": {"1": [[-0.715389267606916, 0.7356287268903412, 0.943209273743428], [-1.1759338074047085, 0.6789690922227571, 2.6266727191739], [0.10267415077043225, -0.6905781045340387, 0.6485620555697198], [0.5795240321801857, -0.9573451417042491, -0.5128056922197612], [-0.023005438490494134, 0.138999107177831, -0.25286462509876495], [-0.19469805096598541, 0.31007025477022715, -0.05594032638085476], [0.0006381109935390975, 0.092098800731082, 0.03689845181559845], [0.09109086068518728, 0.346626105071238, 0.07487858425614959], [7.133741727984532, -15.228079700259643, -3.7874158871435863], [1.3791983084256292, -4.355550333877298, 1.0276523297748], [-0.9536514066120444, -8.533548652822978, 10.726533788881039], [-4.741639510932861, 10.684945090274258, 1.9986713517248271], [-2.228043074630744, 7.297189427320783, -1.8611560508375293], [0.3829832733041749, 10.608399935041676, -12.359580061901816], [-3.953806796938085, 8.04671182723101, 2.4937077839511876], [-0.531437709186787, 1.8027214388758184, -0.5394045529105129], [0.7887385325148311, 4.031820830880091, -5.781289600369765], [1.7776739875617635, -3.8759602927237213, -0.7747483470079675], [1.2277733376914597, -4.490234340158153, 1.5555966453776386], [-0.4693608804115015, -5.660379477212701, 7.577572649632337], [-0.5095711252707482, 0.8255515376084146, 0.47995691444223115]], "2": [[-5.840644236692803, -2.427971878596974, -1.4974744444358234, -1.9791158586458315, -0.11906486962090126, -3.3856366659003205, 5.588833317398243, 0.723871611131589, -2.0806748583711046, 8.350027631533104, -1.1763162271190089, 1.6790902012519595, 0.6755633577233392, 4.721862711977694, -1.793564403665124, -14.127424960576933, 4.728734315226328, 0.1964207004751979, -1.4538359390814697, -4.737102480681546, 3.100213777875604, -2.6644190246784722, -0.5869630620947328, -1.0904702505965398, -1.4841807380718373, -0.3781910869309746, 1.3110242175249007, -0.3032304369429016, -1.8356155464374502, -1.3770873108183792, 1.5203729187902668, 5.764050896443824, -3.279752555317677, 3.8201211948625113, 0.527213190485605, 6.900426068706091, -6.3402025644009035, 1.293231552367561, -0.38189549343993107, -0.9268325654431515], [4.310697633335881, -9.004776300981932, -1.0113483924819182, 0.10642121952627455, 3.3136400955647507, -1.4642656714776627, -4.668214219335764, -1.1945910947483076, -0.1228139253154448, 0.4194543025754788, -2.3659680046553424, 1.8471753527154189, 1.8281947084834012, 1.9936310084550257, 0.1401128808362734, -4.636739984932538, 0.31849301508615147, -1.8611775585792376, 0.01328359189553145, -0.9388339241244906, 5.059511903315782, -2.9980708995473693, -0.8810453229363823, -0.6156471433267878, -2.420694932813464, 0.8008353206763779, -2.3548778028248405, -1.492087907590958, -1.5581626379658786, 0.22395060153894972, 4.812744558762544, 0.18875152792907146, -1.228360431924859, -1.0022161509487055, 1.207734852239561, 1.635927762612558, 0.2756064754912827, 0.023547586581862165, -1.4926988144093498, -0.37505001680632477], [-8.158798092119703, 0.9295763281061683, -0.9308024317804134, 0.5390480162650231, 2.417961834741049, 1.0385673412406695, -1.2957578639654443, 2.458607369263455, -1.582506796510141, -5.773108158070388, -0.9115819912712245, -2.4216309119957122, -0.8983810075021991, 1.49836308912961, 1.947899895442185, -5.567311214104307, 1.8421884881495876, -0.681952612824283, -1.0489145364780554, -1.1226821227449395, -4.119067660715831, 4.160635746185827, -1.2230012008992588, 0.08696112831074354, -2.5471032900799226, 0.04601747747899648, 0.5779137354821445, 2.233860334596063, -0.9941967344738012, -0.5444618231198916, -5.278901813261028, 1.930490019606184, 0.800015457325499, -0.6978387695110766, 0.929160431904277, 1.073307095070092, -2.7081177554187774, -0.04575130987889703, -1.291457323011358, -0.35288170354104587], [0.3658214528420639, 0.5222771149805849, -2.0075349002248357, 0.9847260390820861, -1.9493032157152108, 2.007783911734906, -4.124627093736399, 1.9796946089910865, 1.427216069027943, -5.585595664505365, -0.6029134468376594, 0.6330049759312599, -1.6767206961257588, 0.33648362666500414, -0.9229087601666681, -5.211968870560547, 0.6596142995063937, 0.46680361035002077, 0.44933270552965204, 0.4036912866639268, -2.1931961267568254, 4.370976512806805, 0.545065916217662, -0.4489070053896167, 1.1927459917844492, -0.653658581148724, 4.258227159955955, 2.9602103910468887, 1.6328712588237866, 0.6483469565098963, -2.8130622973747763, 1.3054400211996922, 0.8078920796003976, 2.4332922385792877, 0.37320201009088444, 0.35677632889046473, -2.58757055489539, -1.0526975178981068, -0.6886070310358492, -0.2487021271344593]], "3": [[-3.0089466272406877], [-0.18333500893963328], [-1.5502633204992189], [0.5107896369975775], [0.05175202374643615], [-2.0786167732690553], [0.15733202358663373], [0.6406150342328998], [1.7379708314922886], [-0.054376202416109604], [-0.043617090980143755], [-0.9975483317662678], [0.17279228131207003], [1.4873741959660776], [0.05128363208732838], [-2.818176718604902], [-0.5745037391287178], [0.1424744853760042], [0.38936286982865376], [0.3796608467434021], [-1.359810604385075], [1.6750157021925156], [0.7624370860937525], [-0.0178614138980733], [-0.5103845173624473], [0.3089358788646133], [-1.7208998751786853], [-1.3515416127814879], [0.7558561803622168], [0.2723766890488541], [1.036656825409714], [1.6206945634260976], [-0.9940936802907948], [1.0704346227021504], [-0.8703796130224043], [-0.9763407180030246], [1.330710081327099], [-1.9967203357606533], [0.0036474041501483676], [0.4465480298914455], [-2.3342119960640475]]}}, "fingerprints_range": {"Cu": [[0.0, 19.717528184980367], [0.0, 12.954617486692312], [0.0, 6.763827902345048], [0.0, 4.714947330374815], [0.0, 0.4690986508436296], [0.0, 0.3591942437989357], [0.0, 8.091157146993111e-05], [0.0, 6.70824590060896e-05], [0.0, 801.3693395965696], [0.0, 185.39781543928953], [0.0, 380.6581764033588], [0.0, 607.2663840318448], [0.0, 231.76903839707245], [0.0, 221.42076155225536], [0.0, 382.67810433385426], [0.0, 75.1704048127164], [0.0, 198.3503394287148], [0.0, 226.15041328755734], [0.0, 104.68820018085577], [0.0, 69.90910953322468]], "Pd": [[0.0, 12.8624897130153], [0.0, 18.849230862512158], [0.0, 4.565811427008994], [0.0, 6.436073106044743], [0.0, 0.31261700513528473], [0.0, 0.42485844093709624], [0.0, 5.453323564168128e-05], [0.0, 5.963922275121878e-05], [0.0, 387.63611918126753], [0.0, 201.06082384923803], [0.0, 768.9373797173059], [0.0, 216.01123836799178], [0.0, 234.91303084909833], [0.0, 579.7588665624862], [0.0, 204.69128069561307], [0.0, 81.20809618623912], [0.0, 368.92772219112385], [0.0, 65.71501674010052], [0.0, 106.06324624063065], [0.0, 215.963130891552]]}, "fingerprints_tag": 1, "scalings": {"Cu": {"intercept": -2.9825446155809829, "slope": 3.1522980664033491}, "Pd": {"intercept": -4.8591902960075091, "slope": 1.8587526542377761}}}