{"cutoff": 6.5, "Gs": {"Pd": [{"eta": 0.05, "type": "G2", "element": "Cu"}, {"eta": 0.05, "type": "G2", "element": "Pd"}, {"eta": 4.0, "type": "G2", "element": "Cu"}, {"eta": 4.0, "type": "G2", "element": "Pd"}, {"eta": 20.0, "type": "G2", "element": "Cu"}, {"eta": 20.0, "type": "G2", "element": "Pd"}, {"eta": 80.0, "type": "G2", "element": "Cu"}, {"eta": 80.0, "type": "G2", "element": "Pd"}, {"zeta": 1.0, "elements": ["Cu", "Cu"], "type": "G4", "gamma": 1.0, "eta": 0.005}, {"zeta": 1.0, "elements": ["Cu", "Pd"], "type": "G4", "gamma": 1.0, "eta": 0.005}, {"zeta": 1.0, "elements": ["Pd", "Pd"], "type": "G4", "gamma": 1.0, "eta": 0.005}, {"zeta": 1.0, "elements": ["Cu", "Cu"], "type": "G4", "gamma": -1.0, "eta": 0.005}, {"zeta": 1.0, "elements": ["Cu", "Pd"], "type": "G4", "gamma": -1.0, "eta": 0.005}, {"zeta": 1.0, "elements": ["Pd", "Pd"], "type": "G4", "gamma": -1.0, "eta": 0.005}, {"zeta": 4.0, "elements": ["Cu", "Cu"], "type": "G4", "gamma": 1.0, "eta": 0.005}, {"zeta": 4.0, "elements": ["Cu", "Pd"], "type": "G4", "gamma": 1.0, "eta": 0.005}, {"zeta": 4.0, "elements": ["Pd", "Pd"], "type": "G4", "gamma": 1.0, "eta": 0.005}, {"zeta": 4.0, "elements": ["Cu", "Cu"], "type": "G4", "gamma": -1.0, "eta": 0.005}, {"zeta": 4.0, "elements": ["Cu", "Pd"], "type": "G4", "gamma": -1.0, "eta": 0.005}, {"zeta": 4.0, "elements": ["Pd", "Pd"], "type": "G4", "gamma": -1.0, "eta": 0.005}], "Cu": [{"eta": 0.05, "type": "G2", "element": "Cu"}, {"eta": 0.05, "type": "G2", "element": "Pd"}, {"eta": 4.0, "type": "G2", "element": "Cu"}, {"eta": 4.0, "type": "G2", "element": "Pd"}, {"eta": 20.0, "type": "G2", "element": "Cu"}, {"eta": 20.0, "type": "G2", "element": "Pd"}, {"eta": 80.0, "type": "G2", "element": "Cu"}, {"eta": 80.0, "type": "G2", "element": "Pd"}, {"zeta": 1.0, "elements": ["Cu", "Cu"], "type": "G4", "gamma": 1.0, "eta": 0.005}, {"zeta": 1.0, "elements": ["Cu", "Pd"], "type": "G4", "gamma": 1.0, "eta": 0.005}, {"zeta": 1.0, "elements": ["Pd", "Pd"], "type": "G4", "gamma": 1.0, "eta": 0.005}, {"zeta": 1.0, "elements": ["Cu", "Cu"], "type": "G4", "gamma": -1.0, "eta": 0.005}, {"zeta": 1.0, "elements": ["Cu", "Pd"], "type": "G4", "gamma": -1.0, "eta": 0.005}, {"zeta": 1.0, "elements": ["Pd", "Pd"], "type": "G4", "gamma": -1.0, "eta": 0.005}, {"zeta": 4.0, "elements": ["Cu", "Cu"], "type": "G4", "gamma": 1.0, "eta": 0.005}, {"zeta": 4.0, "elements": ["Cu", "Pd"], "type": "G4", "gamma": 1.0, "eta": 0.005}, {"zeta": 4.0, "elements": ["Pd", "Pd"], "type": "G4", "gamma": 1.0, "eta": 0.005}, {"zeta": 4.0, "elements": ["Cu", "Cu"], "type": "G4", "gamma": -1.0, "eta": 0.005}, {"zeta": 4.0, "elements": ["Cu", "Pd"], "type": "G4", "gamma": -1.0, "eta": 0.005}, {"zeta": 4.0, "elements": ["Pd", "Pd"], "type": "G4", "gamma": -1.0, "eta": 0.005}]}, "activation": "tanh", "hiddenlayers": {"Pd": [2, 25], "Cu": [2, 25]}, "weights": {"Cu": {"1": [[-0.025849961629066553, -0.030009268797891862], [0.026234587511009946, 0.003684636076710421], [-0.04440199510486014, 0.06981184404271325], [0.025967935464057304, 0.03800044441424315], [0.010562341647761445, -0.0030490610882280555], [-0.07160824660665752, -0.024269840191209674], [0.007801672800459208, -0.07285728851609782], [-0.053045498122563865, 0.043356065693954685], [-0.04687571312619273, -0.018273769580951622], [0.02785545590489344, 0.007219999842304453], [-0.0685757108621934, 0.05453743607957175], [0.0330567015536235, -0.05456634138473607], [0.048361340655604254, -0.03311471596071103], [-0.06607512480383078, -0.04004459838396912], [-0.06007587577242011, -0.0405532638634739], [0.02869727121113641, 0.07297012162527873], [-0.042900118073042046, -0.057702259576920226], [-0.05536035352115298, -0.05871413395824039], [0.012052755514452548, 0.025314224478340114], [0.07163295416680014, 0.07365760011391721], [0.0, 0.0]], "2": [[0.2648502753687674, -0.4904734865316508, -0.48531731076592505, 0.5134548717122764, -0.5874277987468134, -0.28431240991746615, 0.01574442409915089, 0.3742706586557736, -0.4394463657068268, 0.21709467884418843, 0.6952564711677844, -0.4190015909816839, 0.014849186746794585, -0.11463303728569496, 0.29542870306405344, 0.6004673953379809, 0.3189789307106432, 0.6619051920207941, 0.6561450772937989, 0.16758361166392033, -0.6673981382856873, 0.73121239822286, -0.6069705360199442, -0.44825026045170097, 0.5787778497983838], [-0.5803528933045408, -0.6436034083557514, -0.22662795321369178, -0.23225915879139425, -0.32384667372773634, -0.6996767049341419, -0.042108678143990774, -0.7155869682956706, 0.20155914791395912, 0.1733446658959974, -0.19286408878306172, 0.055157974867724, -0.1586648649728224, -0.5112794100434519, -0.6795942132088072, 0.13075794619473813, 0.4883742952931769, -0.642554679956726, 0.26859717030651575, 0.07543628304711669, -0.5305754969178094, -0.3585033367206206, 0.6609065223078945, 0.04662453686385126, -0.7463663493815436], [0.0, 0.0, 0.0, 0.0, 0.0, 0.0, 0.0, 0.0, 0.0, 0.0, 0.0, 0.0, 0.0, 0.0, 0.0, 0.0, 0.0, 0.0, 0.0, 0.0, 0.0, 0.0, 0.0, 0.0, 0.0]], "3": [[0.054630094327369594], [-0.0558605494618712], [0.010495165135424298], [-0.024732516225717115], [0.01288792523445173], [0.05913396961852016], [0.04311753571170153], [-0.01374155411327918], [0.0060955908481007265], [0.004462440688697611], [-0.03698166102687116], [-0.04968188864344432], [0.04842933544599161], [-0.0329143254252809], [0.03196507305836174], [-0.029675589609896788], [-0.003188378371702806], [-0.008389413770652464], [0.04254468802449496], [-0.025380321302824707], [0.004614771896036693], [0.030515906015531155], [0.059058661898076306], [0.03707565131457993], [0.03106122480066198], [0.0]]}, "Pd": {"1": [[-0.05800368449359808, -0.052934942867002], [-0.06748136720125739, -0.005888731377243661], [-0.008378658246915721, -0.010608857244884556], [0.0382459063718556, 0.03296008780646112], [0.07425546718477595, 0.04669872982847739], [0.07315595133472162, -0.04270692348378755], [0.011048297637690982, 0.05812396270626101], [-0.055957212196389404, 0.01687110814849481], [-0.00548208427700847, -0.007865074644074571], [0.031346193385488996, -0.028987740313538374], [0.052171569558511086, -0.013271945683980865], [0.016320340371048292, -0.035919828232819924], [0.0584343819185565, -0.009499808484097122], [0.005156615242239537, -0.056597465565953645], [-0.07406338812396902, 0.07389837442138712], [-0.05062561815350888, 0.06786025530816116], [0.059705786566756056, -0.032469095214825036], [-0.0735870014069749, 0.04320576165925777], [0.010123065937249251, 0.05923821536980052], [-0.017198534761666703, -0.06177861972478108], [0.0, 0.0]], "2": [[0.41590942356363136, -0.537722918551025, 0.17753222416825776, 0.16851524641835836, 0.20707281511177844, 0.7279898782403182, 0.6232349470695517, 0.7327046107088044, -0.5712804593842826, -0.26686232236634955, -0.46551075771939315, 0.07325244213284454, 0.08990670335885775, 0.04324313787933287, -0.1083306511578449, 0.7094687732571572, -0.21272020262520097, 0.2763179955149897, -0.22758721508945468, -0.049392687574551175, 0.1944639944685913, -0.1996914278092844, 0.23182669234796038, 0.11653868515079158, 0.49473732258208236], [-0.5993022437771024, 0.6299628389944143, 0.33434385694592206, 0.6736683485988211, 0.7028682477226502, 0.2786744171812341, 0.6801589141918651, 0.5943562287966153, 0.07271310170053713, -0.6758844151270755, -0.158284661224661, -0.7059764782920838, 0.6933578940272, 0.4664084674103339, 0.5259964595181292, 0.3143351958427343, 0.65789289529649, 0.40524193370734474, 0.5381985311730832, 0.36074301329278335, 0.1719545485046674, -0.6577636680914415, 0.5405135873275173, -0.45754551074366673, 0.23823175452614942], [0.0, 0.0, 0.0, 0.0, 0.0, 0.0, 0.0, 0.0, 0.0, 0.0, 0.0, 0.0, 0.0, 0.0, 0.0, 0.0, 0.0, 0.0, 0.0, 0.0, 0.0, 0.0, 0.0, 0.0, 0.0]], "3": [[-0.05883385276265233], [0.02013464711324217], [0.02987124591694043], [0.009045615740668783], [-0.023377575740542764], [-0.053521603009203424], [-0.0025720651465727037], [-0.030885107453714568], [-0.022272638611611627], [-0.0480452627457582], [-0.03236105139647459], [-0.020354330196236885], [-0.027651199400071082], [0.047361434546176584], [-0.00012435854101096322], [-0.005056493784220996], [-0.04489613008982442], [0.03348936318237508], [0.021790177245112008], [-0.027968325455395446], [-0.005244701387586766], [-0.05271669948417497], [0.059361481481431805], [-0.006283379992972973], [-0.009655625261611601], [0.0]]}}, "fingerprints_range": {"Cu": [[0.1063750548408017, 15.55743075082518], [0.028202539821623157, 15.824610224206179], [0.0039475029562834815, 6.543651351035633], [0.0009775685586746502, 5.901293632153394], [6.336097831506945e-09, 0.7186722153281908], [1.190287988056906e-09, 0.7702142399843445], [1.1815297550357418e-30, 0.0005969806159118927], [7.875808503354093e-32, 0.0014999082499671163], [0.14542638955905765, 586.0279136978755], [1.0639431752062123, 1339.0774553779588], [-2.1232459816643144e-18, 680.2199829665379], [0.21753575331713212, 430.46949002501225], [0.7672793241028637, 933.9576344679633], [0.01912449962367862, 505.84680013293473], [0.009653362355969163, 287.61510794586883], [0.3377739380614941, 694.3948342368042], [0.0, 333.734781480117], [0.03697254301515187, 160.4359473839458], [0.23682355773155236, 348.9904146530375], [0.0018168617087065356, 189.85900104165898]], "Pd": [[0.028202539821623157, 15.82461022420618], [0.1063750548408017, 15.557430750825183], [0.0009775685586746502, 5.901293632153396], [0.0039475029562834815, 6.543651351035635], [1.190287988056906e-09, 0.770214239984344], [6.336097831506945e-09, 0.7186722153281916], [7.875808503354093e-32, 0.0014999082499671157], [1.1815297550357418e-30, 0.0005969806159118931], [-2.1232459816643144e-18, 680.2199829665362], [1.0639431752062118, 1339.0774553779634], [0.14542638955905765, 586.0279136978755], [0.01912449962367862, 505.8468001329346], [0.7672793241028637, 933.9576344679631], [0.21753575331713212, 430.46949002501225], [0.0, 333.73478148011566], [0.33777393806149464, 694.3948342368044], [0.009653362355969173, 287.61510794586883], [0.0018168617087065421, 189.85900104165927], [0.23682355773155245, 348.9904146530362], [0.03697252924305966, 160.4359473839458]]}, "fingerprints_tag": 1, "scalings": {"Pd": {"slope": 2.7555544681249997, "intercept": -2.459831533125}, "Cu": {"slope": 2.7555544681249997, "intercept": -2.459831533125}}}