{"cutoff": 6.5, "Gs": {"Pd": [{"eta": 0.05, "type": "G2", "element": "Cu"}, {"eta": 0.05, "type": "G2", "element": "Pd"}, {"eta": 2.0, "type": "G2", "element": "Cu"}, {"eta": 2.0, "type": "G2", "element": "Pd"}, {"eta": 4.0, "type": "G2", "element": "Cu"}, {"eta": 4.0, "type": "G2", "element": "Pd"}, {"eta": 8.0, "type": "G2", "element": "Cu"}, {"eta": 8.0, "type": "G2", "element": "Pd"}, {"eta": 20.0, "type": "G2", "element": "Cu"}, {"eta": 20.0, "type": "G2", "element": "Pd"}, {"eta": 40.0, "type": "G2", "element": "Cu"}, {"eta": 40.0, "type": "G2", "element": "Pd"}, {"eta": 80.0, "type": "G2", "element": "Cu"}, {"eta": 80.0, "type": "G2", "element": "Pd"}, {"zeta": 1.0, "elements": ["Cu", "Cu"], "type": "G4", "gamma": 1.0, "eta": 0.005}, {"zeta": 1.0, "elements": ["Cu", "Pd"], "type": "G4", "gamma": 1.0, "eta": 0.005}, {"zeta": 1.0, "elements": ["Pd", "Pd"], "type": "G4", "gamma": 1.0, "eta": 0.005}, {"zeta": 1.0, "elements": ["Cu", "Cu"], "type": "G4", "gamma": -1.0, "eta": 0.005}, {"zeta": 1.0, "elements": ["Cu", "Pd"], "type": "G4", "gamma": -1.0, "eta": 0.005}, {"zeta": 1.0, "elements": ["Pd", "Pd"], "type": "G4", "gamma": -1.0, "eta": 0.005}, {"zeta": 2.0, "elements": ["Cu", "Cu"], "type": "G4", "gamma": 1.0, "eta": 0.005}, {"zeta": 2.0, "elements": ["Cu", "Pd"], "type": "G4", "gamma": 1.0, "eta": 0.005}, {"zeta": 2.0, "elements": ["Pd", "Pd"], "type": "G4", "gamma": 1.0, "eta": 0.005}, {"zeta": 2.0, "elements": ["Cu", "Cu"], "type": "G4", "gamma": -1.0, "eta": 0.005}, {"zeta": 2.0, "elements": ["Cu", "Pd"], "type": "G4", "gamma": -1.0, "eta": 0.005}, {"zeta": 2.0, "elements": ["Pd", "Pd"], "type": "G4", "gamma": -1.0, "eta": 0.005}, {"zeta": 4.0, "elements": ["Cu", "Cu"], "type": "G4", "gamma": 1.0, "eta": 0.005}, {"zeta": 4.0, "elements": ["Cu", "Pd"], "type": "G4", "gamma": 1.0, "eta": 0.005}, {"zeta": 4.0, "elements": ["Pd", "Pd"], "type": "G4", "gamma": 1.0, "eta": 0.005}, {"zeta": 4.0, "elements": ["Cu", "Cu"], "type": "G4", "gamma": -1.0, "eta": 0.005}, {"zeta": 4.0, "elements": ["Cu", "Pd"], "type": "G4", "gamma": -1.0, "eta": 0.005}, {"zeta": 4.0, "elements": ["Pd", "Pd"], "type": "G4", "gamma": -1.0, "eta": 0.005}], "Cu": [{"eta": 0.05, "type": "G2", "element": "Cu"}, {"eta": 0.05, "type": "G2", "element": "Pd"}, {"eta": 2.0, "type": "G2", "element": "Cu"}, {"eta": 2.0, "type": "G2", "element": "Pd"}, {"eta": 4.0, "type": "G2", "element": "Cu"}, {"eta": 4.0, "type": "G2", "element": "Pd"}, {"eta": 8.0, "type": "G2", "element": "Cu"}, {"eta": 8.0, "type": "G2", "element": "Pd"}, {"eta": 20.0, "type": "G2", "element": "Cu"}, {"eta": 20.0, "type": "G2", "element": "Pd"}, {"eta": 40.0, "type": "G2", "element": "Cu"}, {"eta": 40.0, "type": "G2", "element": "Pd"}, {"eta": 80.0, "type": "G2", "element": "Cu"}, {"eta": 80.0, "type": "G2", "element": "Pd"}, {"zeta": 1.0, "elements": ["Cu", "Cu"], "type": "G4", "gamma": 1.0, "eta": 0.005}, {"zeta": 1.0, "elements": ["Cu", "Pd"], "type": "G4", "gamma": 1.0, "eta": 0.005}, {"zeta": 1.0, "elements": ["Pd", "Pd"], "type": "G4", "gamma": 1.0, "eta": 0.005}, {"zeta": 1.0, "elements": ["Cu", "Cu"], "type": "G4", "gamma": -1.0, "eta": 0.005}, {"zeta": 1.0, "elements": ["Cu", "Pd"], "type": "G4", "gamma": -1.0, "eta": 0.005}, {"zeta": 1.0, "elements": ["Pd", "Pd"], "type": "G4", "gamma": -1.0, "eta": 0.005}, {"zeta": 2.0, "elements": ["Cu", "Cu"], "type": "G4", "gamma": 1.0, "eta": 0.005}, {"zeta": 2.0, "elements": ["Cu", "Pd"], "type": "G4", "gamma": 1.0, "eta": 0.005}, {"zeta": 2.0, "elements": ["Pd", "Pd"], "type": "G4", "gamma": 1.0, "eta": 0.005}, {"zeta": 2.0, "elements": ["Cu", "Cu"], "type": "G4", "gamma": -1.0, "eta": 0.005}, {"zeta": 2.0, "elements": ["Cu", "Pd"], "type": "G4", "gamma": -1.0, "eta": 0.005}, {"zeta": 2.0, "elements": ["Pd", "Pd"], "type": "G4", "gamma": -1.0, "eta": 0.005}, {"zeta": 4.0, "elements": ["Cu", "Cu"], "type": "G4", "gamma": 1.0, "eta": 0.005}, {"zeta": 4.0, "elements": ["Cu", "Pd"], "type": "G4", "gamma": 1.0, "eta": 0.005}, {"zeta": 4.0, "elements": ["Pd", "Pd"], "type": "G4", "gamma": 1.0, "eta": 0.005}, {"zeta": 4.0, "elements": ["Cu", "Cu"], "type": "G4", "gamma": -1.0, "eta": 0.005}, {"zeta": 4.0, "elements": ["Cu", "Pd"], "type": "G4", "gamma": -1.0, "eta": 0.005}, {"zeta": 4.0, "elements": ["Pd", "Pd"], "type": "G4", "gamma": -1.0, "eta": 0.005}]}, "activation": "tanh", "hiddenlayers": {"Pd": [3, 30], "Cu": [3, 30]}, "weights": {"Cu": {"1": [[-0.02698604043814978, -0.0464711465237162, 0.031021958154104134], [-0.018335500699253895, -0.031105046425912813, 0.0006054504280578743], [0.041727918939824554, -0.014859395866025901, -0.02228107997352226], [0.022543952768709935, 0.006829402670023466, -0.020809402871950673], [-0.019159369454126118, -0.03798876021697313, -0.009463890796870184], [0.006103933900544749, -0.0035034058912803145, 0.014453413558729644], [0.003081601318533772, 0.02350085973060763, 0.012844698576049897], [-0.018823254042016464, -0.02630711039166669, 0.03136605015450576], [-0.02508366142067958, -0.025043570120022587, 0.040788363076910375], [-0.041972318732471314, 0.038792238410343974, 0.035089253662336437], [-0.0016963909662288945, 0.0034455046633338343, -0.035886670670332584], [-0.01097821678735663, 0.03350123088016746, 0.03379594716033385], [0.0448025465036946, 0.02680988828297641, -0.024615034102802656], [-0.002832898224455885, -0.035018237866062035, -0.016333290447401824], [-0.046079340747321444, 0.03663640842101158, -0.02743036224303337], [0.007821339855702478, -0.020259077394398136, -0.03093712676972076], [0.010076919238901028, -0.011709908747190342, -0.00937345408617031], [0.03193523040378797, 0.0452941211273933, -0.00155945608999504], [-0.04263179368612765, -0.01599823458764259, 0.019983895582783462], [-0.014617145401883871, 0.04359989588527538, 0.021894010169403205], [0.0044522448288007305, 0.027734801024590902, -0.0051098330474658935], [-0.02564639538326343, -0.03506857020339582, 0.017300149844767326], [-0.0412570456383016, -0.03758736262588001, 0.010339057055105808], [-0.015868904248812505, -0.037530867909590315, -0.00787718071990974], [0.008608274162379692, -0.04677561584377926, 0.020616554377134985], [0.02466157094216559, -0.003093562036682443, 0.026603552036621042], [0.026010790801759248, -0.038868683412304414, -0.012742857873898186], [0.031125425938526713, -0.04396585264432998, 0.03221427495451025], [0.01354649725650639, 0.0017651165516638298, 0.038164637440654], [-0.035355133399230534, -0.017783498845306108, 0.024643644265439357], [0.01569780905550222, -0.015960390955557298, 0.04491611424186437], [0.0030528647254875058, -0.01643621200447742, -0.017720139008763295], [0.0, 0.0, 0.0]], "2": [[-0.40978100660505046, 0.3410423420695047, -0.2706290456686342, 0.34637299159468204, -0.299466088635277, 0.4242544686944538, -0.20149494588225236, -0.09761061396188797, -0.13159241856824633, 0.4828440280034957, -0.30401153255571867, 0.11647562383955601, 0.19437453522086512, 0.20778774201633898, -0.19320539539568016, 0.4033046922065413, 0.19945736512155798, -0.369661960688883, 0.24189993685462852, -0.20508319321046253, 0.04370682799242265, -0.09602988644708133, -0.39665023366611285, -0.05221293964010354, -0.17253093372851536, -0.16931190959325337, 0.033305387318387836, -0.4057548768479048, 0.047747996376349966, 0.32404397971543675], [-0.1524876345523355, -0.19666071513939687, -0.26185472754471406, 0.198827286476147, 0.048749285916620755, 0.42235969966501863, -0.36627797772182924, -0.2606808578911126, 0.1410579003107132, 0.23577529425575106, 0.465137455832179, 0.017206801315637676, -0.25253121485117025, -0.3536163645509657, 0.45913320885144027, 0.24849255763408373, -0.0032022839606138387, -0.4565835384117495, 0.45165033174092295, -0.08125740007765891, 0.1842610789869542, 0.3051806078404624, -0.1563442694739804, -0.05980359661813772, -0.3979783562800334, -0.39445368227698974, -0.3810484685786557, 0.3542766842011217, 0.09536036365924128, 0.12187410017639821], [0.44528898288005936, -0.1449944740657697, 0.4021046399904501, 0.2248907992951359, 0.06284417987469071, 0.2076551889057343, -0.012232697985840701, 0.32992540814934623, 0.22985925651790107, -0.07114589198754606, -0.16175027210758453, -0.21596202756213445, -0.37423840275931664, -0.10857664309796411, 0.22938769397189818, -0.05870554283080087, 0.46905637751240015, -0.21897466080822126, -0.19031299536955804, 0.13106250401769237, -0.104789696617264, 0.4737569191249864, 0.15484678756911663, -0.17273866065524646, 0.14330311443209542, 0.007044022001137407, -0.047272466949499936, 0.11064033179968213, 0.23414518568679576, 0.38903358755403683], [0.0, 0.0, 0.0, 0.0, 0.0, 0.0, 0.0, 0.0, 0.0, 0.0, 0.0, 0.0, 0.0, 0.0, 0.0, 0.0, 0.0, 0.0, 0.0, 0.0, 0.0, 0.0, 0.0, 0.0, 0.0, 0.0, 0.0, 0.0, 0.0, 0.0]], "3": [[-0.033727880832094326], [-0.04297776441260768], [-0.012207644853138036], [0.027144694617630874], [0.02155035246934571], [-0.008467176348204083], [0.03935444215797482], [0.02019500725236699], [-0.007735593055857401], [0.01026753415402313], [-0.03819157213549621], [0.040768136617828535], [-0.04140376518774738], [-0.009254886077714977], [0.038018083228659516], [0.040465494817943634], [0.021740680712981658], [0.0431860317256436], [0.04232093453296763], [0.03922777503884507], [-0.0024672595282893214], [-0.016848019042730457], [0.026270596049041195], [-0.026827177197935637], [0.049244152419787385], [0.0018675791541828066], [-0.040424387851741475], [-0.03903282354099524], [-0.043313976585295524], [0.024848801405724874], [0.0]]}, "Pd": {"1": [[-0.02403600456420711, 0.031101599322484186, -0.028382770920660525], [-0.04152516454048488, 0.012389532791369187, -0.04051446833512806], [-0.021061310675281667, 0.0389680806209962, -0.019441532689616212], [-0.04563054929203937, 0.008212787386682754, -0.04577998435448824], [-0.035519081545943645, -0.0035788230691148754, -0.029593007076888], [0.008369064451035649, -0.03357905784983139, 0.04449814724805007], [-0.0064184614104167495, -0.02404201550381469, -0.03388674348184885], [-0.03500409059905289, 0.04164335938058471, 0.03165168100090221], [-0.02836279812390785, -0.03145323785845428, 0.008951250356161095], [-0.006014390199457188, -0.009422337851949306, 0.03261331354899549], [-0.040811966246810966, -0.0394227679978649, 0.00997126342241849], [8.239759978100752e-05, 0.03656983054871782, 0.0021135288016843057], [-0.006276751506266748, -0.025069867486657082, 0.023959845691588738], [-0.006203920291324938, 0.02051722844645859, 0.02321447211998101], [0.005482310695163903, -0.032398524090449035, 0.00834893697303521], [-0.0025036464168287295, 0.034030589749973056, 0.024509390319341295], [-0.02860917999906449, 0.04335327990634265, -0.04563031221685611], [-0.03167408134831118, -0.039992082619076275, -0.02528260439806229], [-0.042768516369408205, 0.023974764665842543, -0.004645676625522552], [-0.00545638689625455, -0.01818882265154264, -5.476559155712102e-06], [0.04347108754303984, -0.011370798921065788, -0.027717148514854448], [-0.027626292565491407, -0.017505635327703353, 0.04270896020617687], [-0.0013163600903503825, 0.01881346830856634, -0.014107016657557828], [0.017996667478483774, 0.0004527775629951658, -0.0332099880935752], [-0.034131985039131445, 0.0035205030412354954, -0.03611125887850057], [-0.03704364998758309, -0.04604436021546339, -0.043002005632254224], [0.01434117861626645, -0.02140122281183802, -0.046823560886031824], [-0.022955433949044337, 0.02857596603667889, -0.008483486630381565], [-0.04295931684353162, 0.04025629725529273, 0.03144977122559672], [0.014923497196580773, 0.015613302323778486, 0.025479507501540627], [0.0017653064949097602, 0.011853484888358648, -0.0346628302932869], [0.02393495934249952, 0.03458100780701412, 0.03373536402237512], [0.0, 0.0, 0.0]], "2": [[0.2588641500495168, 0.2251199397519732, -0.1422312035033939, 0.29032520071753387, -0.31860396873359975, 0.07708159103170531, -0.2748787752606141, -0.4784370878834796, 0.37018194347959155, 0.3277435004496909, 0.3634120360590539, -0.4918260579916106, 0.3130245427175389, 0.27047607782365546, 0.33962421748367366, 0.38089304907480515, -0.3585004363973677, 0.1589771212217872, -0.08498267102342649, 0.46184217046038467, -0.1520799573201589, -0.425005420845727, -0.2854511218686073, 0.4370977278290964, -0.3311932672139053, 0.4544416000007605, -0.07535722472883166, -0.06789125190309109, 0.4585737658185227, -0.14412864240061707], [0.03175589399163525, -0.44908438636750225, 0.4651458568572975, -0.34820580591038897, -0.07338387106552269, -0.08503595181930246, -0.1989678066937537, -0.37116905874098427, -0.4006705813576742, 0.20425446383416357, -0.24008602968462378, -0.3117186273929472, 0.005550932180071633, -0.1509924270909092, -0.11776426660982964, 0.4428802887293568, -0.08220951647856067, -0.309219132065357, 0.26285545599819415, 0.38753429949206586, 0.18738784184669066, 0.09877468587219651, -0.4331177515688015, 0.37236828390322885, 0.06734010656207245, -0.37171264697809847, 0.267361530867432, -0.23955003522956497, -0.36878533313591033, 0.2520479271173187], [-0.4254629933998556, -0.21879227263648315, 0.41253458413994615, 0.4579247313036948, 0.13318801325717877, -0.37449476037263596, -0.44194179004204026, -0.18944152994545416, 0.48625891721943004, 0.48182830849676617, -0.45172153226341294, 0.16991256524016984, -0.4950164646637448, -0.2665503769651171, -0.3863753560002088, -0.0486690002991097, 0.14920880713807338, -0.29074346165481113, -0.18122588941641316, -0.214332122409576, 0.4620219096611906, 0.32511072472055236, 0.191881470518508, -0.19518606816044493, 0.31054558897547546, 0.2241267481457908, -0.04802306351246477, 0.10560622629713268, -0.038001413033434184, 0.31452621666599856], [0.0, 0.0, 0.0, 0.0, 0.0, 0.0, 0.0, 0.0, 0.0, 0.0, 0.0, 0.0, 0.0, 0.0, 0.0, 0.0, 0.0, 0.0, 0.0, 0.0, 0.0, 0.0, 0.0, 0.0, 0.0, 0.0, 0.0, 0.0, 0.0, 0.0]], "3": [[0.00305382102370675], [0.023990001356746282], [-0.03233392611783632], [-0.0428345539417928], [-0.03096999417042645], [-0.02968421346277833], [0.023885604847389566], [-0.0220046506174566], [0.0020922164023421744], [0.0015486393011131874], [-0.0007758241102390553], [-0.03888493992480074], [-0.0005059295660882063], [0.00977140141327254], [-0.040044846693721076], [0.04237152273898456], [0.019762370367764473], [-0.021738541800290802], [0.002090578491135378], [-0.040251051954889455], [-0.04827895791053843], [-0.03945047110631612], [-0.014222331718503137], [-0.00212746647502475], [-0.009014154573326591], [0.0021476813700481157], [-0.003220349107773378], [-0.008246241837357324], [0.04473683511904469], [0.006242507331525503], [0.0]]}}, "fingerprints_range": {"Cu": [[0.0, 30.80216816946124], [0.0, 21.107715476229174], [0.0, 17.484290395410294], [0.0, 12.337890561734708], [0.0, 10.890146255978296], [0.0, 7.8762065126559815], [0.0, 5.204830005858291], [0.0, 3.8384169191962156], [0.0, 1.0822029998103229], [0.0, 0.7702142399843445], [0.0, 0.11672821813605691], [0.0, 0.09579851951537856], [0.0, 0.0016620228859608299], [0.0, 0.0014999082499671163], [-2.903634418643349e-17, 2753.967158376269], [0.0, 1339.0774553779588], [0.0, 1219.2135050010959], [0.0, 1969.1638860151352], [0.0, 933.9576344679633], [0.0, 890.6147634923126], [0.0, 2037.9504191669928], [0.0, 999.1121607682313], [0.0, 895.7686385654737], [0.0, 1253.1471468059065], [0.0, 593.9923398582351], [0.0, 567.1698970566891], [0.0, 1396.4850770342705], [0.0, 694.3948342368042], [0.0, 606.8013791049098], [0.0, 736.8377080388007], [0.0, 348.9904146530375], [0.0, 333.4019139572645]], "Pd": [[0.0, 24.8400310718317], [0.0, 23.80998849005955], [0.0, 14.474024824677544], [0.0, 13.53970742462996], [0.0, 9.279759042906964], [0.0, 8.380887593342328], [0.0, 4.621782142076165], [0.0, 3.9013328509929], [0.0, 0.9638689065495792], [0.0, 0.7254885658534357], [0.0, 0.09688617543634871], [0.0, 0.06459500411004933], [0.0, 0.0014999082499671157], [0.0, 0.0005969806159118931], [-2.6171500434006593e-17, 1778.0113970967157], [0.0, 1339.0774553779634], [-5.540189831791549e-17, 1609.8718092115669], [0.0, 1282.3086028451698], [0.0, 933.9576344679631], [0.0, 1155.1585128594002], [0.0, 1312.249733255385], [0.0, 999.1121607682309], [0.0, 1189.5611400731427], [0.0, 816.5469390038353], [0.0, 593.9923398582329], [0.0, 734.8478437209878], [0.0, 895.5277923005882], [0.0, 694.3948342368044], [0.0, 812.5636028169727], [0.0, 480.2246777464244], [0.0, 348.9904146530362], [0.0, 432.15164930503533]]}, "fingerprints_tag": 1, "scalings": {"Pd": {"slope": 2.8605843268749997, "intercept": -2.564861391875}, "Cu": {"slope": 2.8605843268749997, "intercept": -2.564861391875}}}