{"cutoff": 6.5, "Gs": {"Pd": [{"eta": 0.05, "type": "G2", "element": "Cu"}, {"eta": 0.05, "type": "G2", "element": "Pd"}, {"eta": 2.0, "type": "G2", "element": "Cu"}, {"eta": 2.0, "type": "G2", "element": "Pd"}, {"eta": 4.0, "type": "G2", "element": "Cu"}, {"eta": 4.0, "type": "G2", "element": "Pd"}, {"eta": 8.0, "type": "G2", "element": "Cu"}, {"eta": 8.0, "type": "G2", "element": "Pd"}, {"eta": 20.0, "type": "G2", "element": "Cu"}, {"eta": 20.0, "type": "G2", "element": "Pd"}, {"eta": 40.0, "type": "G2", "element": "Cu"}, {"eta": 40.0, "type": "G2", "element": "Pd"}, {"eta": 80.0, "type": "G2", "element": "Cu"}, {"eta": 80.0, "type": "G2", "element": "Pd"}, {"zeta": 1.0, "elements": ["Cu", "Cu"], "type": "G4", "gamma": 1.0, "eta": 0.005}, {"zeta": 1.0, "elements": ["Cu", "Pd"], "type": "G4", "gamma": 1.0, "eta": 0.005}, {"zeta": 1.0, "elements": ["Pd", "Pd"], "type": "G4", "gamma": 1.0, "eta": 0.005}, {"zeta": 1.0, "elements": ["Cu", "Cu"], "type": "G4", "gamma": -1.0, "eta": 0.005}, {"zeta": 1.0, "elements": ["Cu", "Pd"], "type": "G4", "gamma": -1.0, "eta": 0.005}, {"zeta": 1.0, "elements": ["Pd", "Pd"], "type": "G4", "gamma": -1.0, "eta": 0.005}, {"zeta": 2.0, "elements": ["Cu", "Cu"], "type": "G4", "gamma": 1.0, "eta": 0.005}, {"zeta": 2.0, "elements": ["Cu", "Pd"], "type": "G4", "gamma": 1.0, "eta": 0.005}, {"zeta": 2.0, "elements": ["Pd", "Pd"], "type": "G4", "gamma": 1.0, "eta": 0.005}, {"zeta": 2.0, "elements": ["Cu", "Cu"], "type": "G4", "gamma": -1.0, "eta": 0.005}, {"zeta": 2.0, "elements": ["Cu", "Pd"], "type": "G4", "gamma": -1.0, "eta": 0.005}, {"zeta": 2.0, "elements": ["Pd", "Pd"], "type": "G4", "gamma": -1.0, "eta": 0.005}, {"zeta": 4.0, "elements": ["Cu", "Cu"], "type": "G4", "gamma": 1.0, "eta": 0.005}, {"zeta": 4.0, "elements": ["Cu", "Pd"], "type": "G4", "gamma": 1.0, "eta": 0.005}, {"zeta": 4.0, "elements": ["Pd", "Pd"], "type": "G4", "gamma": 1.0, "eta": 0.005}, {"zeta": 4.0, "elements": ["Cu", "Cu"], "type": "G4", "gamma": -1.0, "eta": 0.005}, {"zeta": 4.0, "elements": ["Cu", "Pd"], "type": "G4", "gamma": -1.0, "eta": 0.005}, {"zeta": 4.0, "elements": ["Pd", "Pd"], "type": "G4", "gamma": -1.0, "eta": 0.005}], "Cu": [{"eta": 0.05, "type": "G2", "element": "Cu"}, {"eta": 0.05, "type": "G2", "element": "Pd"}, {"eta": 2.0, "type": "G2", "element": "Cu"}, {"eta": 2.0, "type": "G2", "element": "Pd"}, {"eta": 4.0, "type": "G2", "element": "Cu"}, {"eta": 4.0, "type": "G2", "element": "Pd"}, {"eta": 8.0, "type": "G2", "element": "Cu"}, {"eta": 8.0, "type": "G2", "element": "Pd"}, {"eta": 20.0, "type": "G2", "element": "Cu"}, {"eta": 20.0, "type": "G2", "element": "Pd"}, {"eta": 40.0, "type": "G2", "element": "Cu"}, {"eta": 40.0, "type": "G2", "element": "Pd"}, {"eta": 80.0, "type": "G2", "element": "Cu"}, {"eta": 80.0, "type": "G2", "element": "Pd"}, {"zeta": 1.0, "elements": ["Cu", "Cu"], "type": "G4", "gamma": 1.0, "eta": 0.005}, {"zeta": 1.0, "elements": ["Cu", "Pd"], "type": "G4", "gamma": 1.0, "eta": 0.005}, {"zeta": 1.0, "elements": ["Pd", "Pd"], "type": "G4", "gamma": 1.0, "eta": 0.005}, {"zeta": 1.0, "elements": ["Cu", "Cu"], "type": "G4", "gamma": -1.0, "eta": 0.005}, {"zeta": 1.0, "elements": ["Cu", "Pd"], "type": "G4", "gamma": -1.0, "eta": 0.005}, {"zeta": 1.0, "elements": ["Pd", "Pd"], "type": "G4", "gamma": -1.0, "eta": 0.005}, {"zeta": 2.0, "elements": ["Cu", "Cu"], "type": "G4", "gamma": 1.0, "eta": 0.005}, {"zeta": 2.0, "elements": ["Cu", "Pd"], "type": "G4", "gamma": 1.0, "eta": 0.005}, {"zeta": 2.0, "elements": ["Pd", "Pd"], "type": "G4", "gamma": 1.0, "eta": 0.005}, {"zeta": 2.0, "elements": ["Cu", "Cu"], "type": "G4", "gamma": -1.0, "eta": 0.005}, {"zeta": 2.0, "elements": ["Cu", "Pd"], "type": "G4", "gamma": -1.0, "eta": 0.005}, {"zeta": 2.0, "elements": ["Pd", "Pd"], "type": "G4", "gamma": -1.0, "eta": 0.005}, {"zeta": 4.0, "elements": ["Cu", "Cu"], "type": "G4", "gamma": 1.0, "eta": 0.005}, {"zeta": 4.0, "elements": ["Cu", "Pd"], "type": "G4", "gamma": 1.0, "eta": 0.005}, {"zeta": 4.0, "elements": ["Pd", "Pd"], "type": "G4", "gamma": 1.0, "eta": 0.005}, {"zeta": 4.0, "elements": ["Cu", "Cu"], "type": "G4", "gamma": -1.0, "eta": 0.005}, {"zeta": 4.0, "elements": ["Cu", "Pd"], "type": "G4", "gamma": -1.0, "eta": 0.005}, {"zeta": 4.0, "elements": ["Pd", "Pd"], "type": "G4", "gamma": -1.0, "eta": 0.005}]}, "activation": "tanh", "hiddenlayers": {"Pd": [3, 30], "Cu": [3, 30]}, "weights": {"Cu": {"1": [[12.55346077884204, -0.08211608076920363, 0.3824056230330664], [34.562840938918114, 1.7721919965474242, -2.7931734069075476], [-21.191096150615774, 1.272496700704596, -3.2335109515906777], [-29.647724479426152, -3.887236321742282, 5.736680468163315], [-12.900554826531865, -0.8165579782513588, 1.6597197549534055], [-21.723925683337157, 5.125139577161769, -6.691296323917362], [15.464443458372596, 0.7468602771308496, -0.40195775378458043], [27.036014454363613, -1.7691666871881135, 1.583506315600463], [9.379972691554622, -0.6195731219459272, 0.3484929604741501], [-2.861764443953227, -0.06809132230746488, 0.6596521972814919], [-21.399244707959323, -0.05375176021641206, 0.5158886411848322], [-6.451663506661462, 0.06541984410338382, -0.3391731279383746], [36.57023902343042, 0.06341944989542975, -0.15811580261659977], [-9.432825069276367, 0.014143058020101282, 0.14930158280248695], [2.536154223300854, -8.823534841324161, 16.40033630399811], [0.5196873302211585, -8.450859761086516, 18.289862608043606], [-2.0737570031214996, -11.613163156687916, 28.159505407398704], [4.181281032551835, -12.390734047078885, 38.99334004142875], [6.709244400797822, -8.694809705598788, 35.044585953838464], [-7.955457288754678, -7.289096044793136, 41.40984800259406], [0.48217324174001597, 12.034102915486354, -38.14190944722185], [-1.939759482968529, 7.715173376525831, -35.71455466397605], [1.3812270584364796, 5.753132786062541, -43.68070821292465], [1.6064574589926564, 19.41765917758406, -36.856319071158595], [6.251372500258933, 18.349378998710396, -46.31223842558197], [-5.718542716134937, 22.567212626437907, -64.53943779793696], [-7.124173685832053, -4.471164400640921, 19.580951726042926], [14.036003274302022, -0.1242278191918557, 14.94588013488117], [-7.9572757679874355, 3.8408735004024313, 13.823035025123744], [4.6178181488804135, -5.579724539794637, -0.24801501174989168], [-18.006981327945216, -8.908997136661663, 13.887200961802794], [12.8925341476813, -13.716662848348596, 25.320141577925906], [21.659370872692037, -0.41616722495488284, -1.5208524890951218]], "2": [[22.861972761149254, -17.498232173202428, -3.1030173804148147, -1.1306590366721168, 8.643703905552895, -0.2775622739796445, -9.787722912803492, -12.793735049221185, -3.4065756645120593, 7.715563129720099, 28.881609638815455, 17.942044899126703, 3.0210129921089037, 7.023484549105841, -8.282838498198007, 21.361856377506935, -18.88044769769361, -9.401097200718262, -18.558517737595817, -11.791649941289535, 6.065155006223959, 20.52435070272955, -15.088589200482854, -3.280339482431303, 2.8475544589149515, 24.34008307228193, -5.5135378084766025, -4.141384311192622, -1.9105324120588645, -7.1178188992774425], [1.740084023950602, 1.4735228021350122, -3.0168202765861323, -3.832124322324553, 5.3624222669841215, 0.9420697776969923, 1.4634794775474895, -1.1899732289488532, 0.2823807942999067, -0.09284654959333989, 2.9672013029433932, 7.296822158777547, 9.22044527413797, 3.9793222459248447, 8.267424760587753, 3.1801510477405954, 1.0076058892298612, 11.80189871519275, 0.9505666093887821, -2.3878538917345495, 0.9613941663336733, 4.622724486184393, -5.923961290381595, 0.7956223328436622, -8.406510596921088, -3.5965461091906263, 32.74881310695415, 7.894108517580841, 5.540152641454021, -1.7144728288597533], [-1.451409998004236, 3.5150197871661675, -2.9213247950682018, 1.495104250516696, 6.622462964815885, 0.37853783490873955, -0.025706906962639782, -2.6466864832070365, 8.265162143960618, 9.908017645940383, 1.367133117054606, -11.480790440742123, 2.563666729600192, -1.3197606697741442, 1.8765150648860789, 1.901783222171544, -10.578258660530148, 8.137022096899617, -1.0856024803759932, -0.6748619667352422, -0.5532394171542362, 9.638594877712078, -2.473532493232965, 0.5942752585319524, -0.1607950943679239, -1.9779444244998683, 13.574040496607616, -4.05138712885456, 2.6636692721611652, -2.08073080381668], [-25.15465248811467, 18.031371372360027, 0.17265098452360328, 0.5435940080375461, -2.812871889599019, 1.564299794181727, 10.377132463610755, 10.676925317711348, -0.6543407082969772, 1.7111632751541412, -28.39331011668215, -26.316220016863042, 7.773832156251652, -5.607011158156312, 15.233029539010701, -19.520485010972486, 9.5884288153205, 16.990298342897876, 18.94141363352295, 10.432991672778872, -6.220081969851329, -17.517620985360466, 5.344639416537766, 5.685742346678328, -5.6143743750136546, -27.27684117315949, 23.476726749284737, -0.12135212742724713, 4.936711340838737, 3.3023236952927815]], "3": [[-4.825118670051872], [-1.8316947155190608], [-0.8727634957546768], [-0.6711929912308567], [-0.7740208297550927], [4.200929339379578], [1.328390854674166], [3.1703525278931424], [6.3591610003305625], [2.9607107775674932], [0.34566128667533585], [0.7972654043444106], [13.980808303519881], [-0.9121542082086117], [0.7505025749948391], [1.5638333982787214], [1.4870592709360002], [-2.8067300456504114], [-5.282090824348912], [-1.0113966433607906], [-1.2663056556204244], [-0.3271008235330325], [0.2494211334298975], [-3.0073454304341776], [1.9449229834332233], [-0.3074975814517012], [4.759664128395849], [5.022492145961281], [9.365249493909737], [2.2227643865749016], [6.405505175128987]]}, "Pd": {"1": [[17.194178984549527, 3.841001628624202, 8.412073719980445], [-4.034341514000633, 1.5336088913824697, 2.82111083399898], [-21.073773371406983, -19.157236147559892, -34.76519422232755], [-7.18805354817166, -14.192274578790045, -18.80437595188562], [-9.82346305859298, 14.852794239598499, 40.389930010418276], [3.2997599971536116, 14.514993496442024, 22.022344305940262], [52.0322037906017, -0.8266934656524709, -17.444140229202876], [29.41560894849114, -5.060606941309933, -9.459296364817243], [-36.18474111332525, -3.3934715920839085, 4.331786866796099], [-28.83367109207975, 0.5456184401784693, 2.686184179036534], [7.141029553418844, 3.4929680027515246, -0.49719564826101903], [-10.572346720201233, 0.7889412012152127, -0.7005539162802799], [2.3061443402226067, -1.1269987298515491, -0.2706682533495086], [6.264427193577911, 0.0902744726853239, 0.007864861699179198], [-36.191615578897405, -0.34553882380795675, -26.183820875737524], [36.1239252952236, 14.830163181698252, -8.96170375447866], [-8.987709141036577, 27.297641560253876, -1.4228734851424483], [-23.753706076615934, 6.84260254931456, -44.50216852838444], [13.310206027266716, 41.11711777887854, -25.360085787316358], [23.051873847456584, 62.31349644011164, -28.632469420299156], [-15.76813695558315, 1.3298262561294378, 34.52704910933964], [13.367359945967053, -41.11936570408602, 18.012306854060377], [-14.609685462988688, -66.69804147897777, 21.86070690579487], [16.172579429802123, 13.646312709251315, 42.684480578696665], [-37.949633953437576, -37.874174098357564, 10.579572201028205], [32.18769808489383, -69.76953008585524, -6.62437871620786], [42.704810352027856, -3.5958125766518756, -6.934615818465456], [-45.25007543206135, 19.32584122085122, -7.097585969662483], [-1.2871783598396405, 30.665246110769502, -15.85668450994848], [10.529502902988597, -16.909432666328122, -0.6546279131718021], [27.73626363302014, 4.206530764755048, 12.44743217262678], [-31.307131262027326, 16.738499653926, 30.703452036743258], [-14.687589033652952, -0.5084243842492234, 0.5173061302516202]], "2": [[-0.5410638025676382, 1.9433497412708385, -0.022168969826852902, 5.64842425943772, 0.27780342290995264, -6.932701210661541, 10.245608226897456, 0.6130339025128397, 1.398422569178613, 5.2737566345118765, -0.0021303395355493967, 5.621423277409217, 0.034219697847543785, 0.8259879029312376, -0.1737621139123219, 0.1372387098952573, -6.359940362996415, -0.14701917979926, -0.21632591089018308, -7.838187390089394, 5.481861871054271, 5.530390099837197, 0.21732541219561205, -2.227064240650731, 0.03222421318870187, -0.40973454029252115, 5.118576322438737, -1.559960210663208, 12.34016882145051, -2.3574051235956395], [-1.7382880369988167, 2.182448172501068, -5.371611140267101, -21.584215617429738, 0.6567119165805884, 6.248479162534374, -2.1667888268210005, -0.6818062314699288, -0.36130641906882627, 14.21482051146915, -1.2032051533316372, -2.6495483122555554, 1.4462206277741316, -0.2836863327861781, 0.5746365718558343, -0.005721830928945515, 11.537279592818987, -1.3080071084085008, 1.6944709722787232, -18.016287924877833, -19.266118952176225, -2.5664038054794527, 15.3319248020694, -40.28742444755116, -0.27222963129424155, -0.32314026840095805, -1.7806407963698727, -3.1173611568129234, 24.34253261080116, -1.196995329682845], [4.010796381246382, 3.564997273635126, 3.1193879575745, 2.218478014634106, 4.639657484871273, -7.6624608886230385, 7.68956246075227, 4.85284819964799, 6.907042335628388, -3.607081430397027, 0.5165634838453145, 5.63241592654018, 1.3760434975617377, 5.893920410768683, 1.0783201929909951, 11.474965587124725, -28.398849478100992, -5.059222315728077, -2.5463957101901764, -5.100854764492931, 2.336848272260557, 5.551008223065664, -11.45676384065414, 48.60208092144322, 0.09376973776940474, -4.9734371721752115, -2.057934819352454, -4.614332737345384, -9.555421512835643, -3.347622505006558], [-5.2154828069355395, 1.7077412001761716, -9.037842820868981, -10.466203164240627, -0.7759700933232949, 4.252045563053443, 2.934954050952277, -1.8841630612625893, 3.553992220377707, 12.44369844643123, -0.5010613603039005, -1.9986865992061928, 1.2029465038510654, -3.7010999019104354, 2.4049276667649373, -10.95815950051769, 3.932968643675732, 3.0095277033728887, 2.0101644528358977, 10.642616624301008, -9.236025462947419, -1.9241904631822606, 17.346000973674474, 17.279950779615117, 2.48138898026152, 1.1383721160101308, -5.06522160182889, 3.989586597045699, 4.045688340014052, -1.1663256256479708]], "3": [[0.09874811664326548], [-0.6481944332227951], [-2.398389783289029], [0.08474309647774332], [-6.418929480084614], [-0.08128133543258101], [-0.11550180489661367], [-3.023200585868467], [1.513379448316595], [-0.013791815962762355], [-2.161206551813252], [2.15495271284144], [1.6240320323163524], [-0.1314264056106689], [-12.418261046625584], [-0.2716716616286375], [-4.377843849842255], [0.372323972989998], [-1.814979389929838], [0.06326551249857339], [-0.10190801547205965], [-2.2872764253370677], [-0.015377763705727666], [-4.708754027326933], [17.88397808561787], [-7.671378803365411], [-0.02973553062142186], [-0.32067020190994516], [0.09363545254391953], [-0.7984744639734096], [-8.970973068620737]]}}, "fingerprints_range": {"Cu": [[0.0, 30.80216816946124], [0.0, 21.107715476229174], [0.0, 17.484290395410294], [0.0, 12.337890561734708], [0.0, 10.890146255978296], [0.0, 7.8762065126559815], [0.0, 5.204830005858291], [0.0, 3.8384169191962156], [0.0, 1.0822029998103229], [0.0, 0.7702142399843445], [0.0, 0.11672821813605691], [0.0, 0.09579851951537856], [0.0, 0.0016620228859608299], [0.0, 0.0014999082499671163], [-2.903634418643349e-17, 2753.967158376269], [0.0, 1339.0774553779588], [0.0, 1219.2135050010959], [0.0, 1969.1638860151352], [0.0, 933.9576344679633], [0.0, 890.6147634923126], [0.0, 2037.9504191669928], [0.0, 999.1121607682313], [0.0, 895.7686385654737], [0.0, 1253.1471468059065], [0.0, 593.9923398582351], [0.0, 567.1698970566891], [0.0, 1396.4850770342705], [0.0, 694.3948342368042], [0.0, 606.8013791049098], [0.0, 736.8377080388007], [0.0, 348.9904146530375], [0.0, 333.4019139572645]], "Pd": [[0.0, 24.8400310718317], [0.0, 23.80998849005955], [0.0, 14.474024824677544], [0.0, 13.53970742462996], [0.0, 9.279759042906964], [0.0, 8.380887593342328], [0.0, 4.621782142076165], [0.0, 3.9013328509929], [0.0, 0.9638689065495792], [0.0, 0.7254885658534357], [0.0, 0.09688617543634871], [0.0, 0.06459500411004933], [0.0, 0.0014999082499671157], [0.0, 0.0005969806159118931], [-2.6171500434006593e-17, 1778.0113970967157], [0.0, 1339.0774553779634], [-5.540189831791549e-17, 1609.8718092115669], [0.0, 1282.3086028451698], [0.0, 933.9576344679631], [0.0, 1155.1585128594002], [0.0, 1312.249733255385], [0.0, 999.1121607682309], [0.0, 1189.5611400731427], [0.0, 816.5469390038353], [0.0, 593.9923398582329], [0.0, 734.8478437209878], [0.0, 895.5277923005882], [0.0, 694.3948342368044], [0.0, 812.5636028169727], [0.0, 480.2246777464244], [0.0, 348.9904146530362], [0.0, 432.15164930503533]]}, "fingerprints_tag": 1, "scalings": {"Cu": {"intercept": -4.197916488589966, "slope": 3.4855455470028476}, "Pd": {"intercept": -1.214659266308914, "slope": 8.161373068318353}}}