{"cutoff": 6.5, "Gs": {"Pd": [{"eta": 0.05, "type": "G2", "element": "Cu"}, {"eta": 0.05, "type": "G2", "element": "Pd"}, {"eta": 2.0, "type": "G2", "element": "Cu"}, {"eta": 2.0, "type": "G2", "element": "Pd"}, {"eta": 4.0, "type": "G2", "element": "Cu"}, {"eta": 4.0, "type": "G2", "element": "Pd"}, {"eta": 8.0, "type": "G2", "element": "Cu"}, {"eta": 8.0, "type": "G2", "element": "Pd"}, {"eta": 20.0, "type": "G2", "element": "Cu"}, {"eta": 20.0, "type": "G2", "element": "Pd"}, {"eta": 40.0, "type": "G2", "element": "Cu"}, {"eta": 40.0, "type": "G2", "element": "Pd"}, {"eta": 80.0, "type": "G2", "element": "Cu"}, {"eta": 80.0, "type": "G2", "element": "Pd"}, {"zeta": 1.0, "elements": ["Cu", "Cu"], "type": "G4", "gamma": 1.0, "eta": 0.005}, {"zeta": 1.0, "elements": ["Cu", "Pd"], "type": "G4", "gamma": 1.0, "eta": 0.005}, {"zeta": 1.0, "elements": ["Pd", "Pd"], "type": "G4", "gamma": 1.0, "eta": 0.005}, {"zeta": 1.0, "elements": ["Cu", "Cu"], "type": "G4", "gamma": -1.0, "eta": 0.005}, {"zeta": 1.0, "elements": ["Cu", "Pd"], "type": "G4", "gamma": -1.0, "eta": 0.005}, {"zeta": 1.0, "elements": ["Pd", "Pd"], "type": "G4", "gamma": -1.0, "eta": 0.005}, {"zeta": 2.0, "elements": ["Cu", "Cu"], "type": "G4", "gamma": 1.0, "eta": 0.005}, {"zeta": 2.0, "elements": ["Cu", "Pd"], "type": "G4", "gamma": 1.0, "eta": 0.005}, {"zeta": 2.0, "elements": ["Pd", "Pd"], "type": "G4", "gamma": 1.0, "eta": 0.005}, {"zeta": 2.0, "elements": ["Cu", "Cu"], "type": "G4", "gamma": -1.0, "eta": 0.005}, {"zeta": 2.0, "elements": ["Cu", "Pd"], "type": "G4", "gamma": -1.0, "eta": 0.005}, {"zeta": 2.0, "elements": ["Pd", "Pd"], "type": "G4", "gamma": -1.0, "eta": 0.005}, {"zeta": 4.0, "elements": ["Cu", "Cu"], "type": "G4", "gamma": 1.0, "eta": 0.005}, {"zeta": 4.0, "elements": ["Cu", "Pd"], "type": "G4", "gamma": 1.0, "eta": 0.005}, {"zeta": 4.0, "elements": ["Pd", "Pd"], "type": "G4", "gamma": 1.0, "eta": 0.005}, {"zeta": 4.0, "elements": ["Cu", "Cu"], "type": "G4", "gamma": -1.0, "eta": 0.005}, {"zeta": 4.0, "elements": ["Cu", "Pd"], "type": "G4", "gamma": -1.0, "eta": 0.005}, {"zeta": 4.0, "elements": ["Pd", "Pd"], "type": "G4", "gamma": -1.0, "eta": 0.005}], "Cu": [{"eta": 0.05, "type": "G2", "element": "Cu"}, {"eta": 0.05, "type": "G2", "element": "Pd"}, {"eta": 2.0, "type": "G2", "element": "Cu"}, {"eta": 2.0, "type": "G2", "element": "Pd"}, {"eta": 4.0, "type": "G2", "element": "Cu"}, {"eta": 4.0, "type": "G2", "element": "Pd"}, {"eta": 8.0, "type": "G2", "element": "Cu"}, {"eta": 8.0, "type": "G2", "element": "Pd"}, {"eta": 20.0, "type": "G2", "element": "Cu"}, {"eta": 20.0, "type": "G2", "element": "Pd"}, {"eta": 40.0, "type": "G2", "element": "Cu"}, {"eta": 40.0, "type": "G2", "element": "Pd"}, {"eta": 80.0, "type": "G2", "element": "Cu"}, {"eta": 80.0, "type": "G2", "element": "Pd"}, {"zeta": 1.0, "elements": ["Cu", "Cu"], "type": "G4", "gamma": 1.0, "eta": 0.005}, {"zeta": 1.0, "elements": ["Cu", "Pd"], "type": "G4", "gamma": 1.0, "eta": 0.005}, {"zeta": 1.0, "elements": ["Pd", "Pd"], "type": "G4", "gamma": 1.0, "eta": 0.005}, {"zeta": 1.0, "elements": ["Cu", "Cu"], "type": "G4", "gamma": -1.0, "eta": 0.005}, {"zeta": 1.0, "elements": ["Cu", "Pd"], "type": "G4", "gamma": -1.0, "eta": 0.005}, {"zeta": 1.0, "elements": ["Pd", "Pd"], "type": "G4", "gamma": -1.0, "eta": 0.005}, {"zeta": 2.0, "elements": ["Cu", "Cu"], "type": "G4", "gamma": 1.0, "eta": 0.005}, {"zeta": 2.0, "elements": ["Cu", "Pd"], "type": "G4", "gamma": 1.0, "eta": 0.005}, {"zeta": 2.0, "elements": ["Pd", "Pd"], "type": "G4", "gamma": 1.0, "eta": 0.005}, {"zeta": 2.0, "elements": ["Cu", "Cu"], "type": "G4", "gamma": -1.0, "eta": 0.005}, {"zeta": 2.0, "elements": ["Cu", "Pd"], "type": "G4", "gamma": -1.0, "eta": 0.005}, {"zeta": 2.0, "elements": ["Pd", "Pd"], "type": "G4", "gamma": -1.0, "eta": 0.005}, {"zeta": 4.0, "elements": ["Cu", "Cu"], "type": "G4", "gamma": 1.0, "eta": 0.005}, {"zeta": 4.0, "elements": ["Cu", "Pd"], "type": "G4", "gamma": 1.0, "eta": 0.005}, {"zeta": 4.0, "elements": ["Pd", "Pd"], "type": "G4", "gamma": 1.0, "eta": 0.005}, {"zeta": 4.0, "elements": ["Cu", "Cu"], "type": "G4", "gamma": -1.0, "eta": 0.005}, {"zeta": 4.0, "elements": ["Cu", "Pd"], "type": "G4", "gamma": -1.0, "eta": 0.005}, {"zeta": 4.0, "elements": ["Pd", "Pd"], "type": "G4", "gamma": -1.0, "eta": 0.005}]}, "activation": "tanh", "hiddenlayers": {"Pd": [4, 20], "Cu": [4, 20]}, "weights": {"Cu": {"1": [[1.2979911099853376, -0.614358013082309, 0.7938185499207792, -12.859197591267389], [-5.404096589585282, 1.3041058019706393, -4.1549744777966, -4.238229526549902], [-2.587574258691385, -0.24169241201758462, -3.4635391334160137, 3.5282950384297584], [16.729910472529358, -5.60599197115858, -13.894278548046053, -9.594734583871723], [0.862974873297983, 0.5427080314071068, -1.0862815435358943, 11.015834886607127], [-15.305435186860322, 5.645195072750658, -13.459402353724316, 7.482051038368869], [0.17881704181289154, 0.14085957548848949, -8.537961651671818, 23.211004346896964], [4.7525571360801235, -1.9002350600965265, 34.25659134637382, 14.50738284170891], [0.4887977311367945, -0.5442265342014494, 42.96415507043015, -30.64153897745637], [-0.2411520501867172, 0.06834692245075011, 2.1087429335995935, -8.187496847737282], [-1.8857673436519544, 0.82225678141574, -29.415555269247907, 17.385982709192145], [-1.3804262888343954, 0.5433676703834561, -17.71665542042635, -4.4663092706329115], [-0.018775642957255215, 0.010250771388337191, -7.463482552821339, -13.247549523896257], [0.13201515101922265, -0.026139864829103538, 2.9559150399637275, 1.2812528379467265], [-6.226599963037639, 18.95209574781782, 12.639312621402462, 18.61635489495012], [-15.813032501218679, 12.730528809991334, 0.9067160304316355, -18.460694865070423], [-29.81218956219456, 18.72771367947687, -21.934022896674524, -12.476457008771884], [20.487213636242465, 49.84389839610317, -11.43711183031123, -9.388452392342254], [1.3128707008652747, 30.783002938608057, -2.0193089828981297, -9.881447509888105], [-14.764207364010584, 37.67914521568658, 13.06911680909017, -8.893780471235253], [-28.61978765160861, -49.689562229092544, 14.516509619559718, 21.150897894855465], [-5.812087540088067, -31.29168510105758, 5.084136796949178, -14.371351349373002], [13.849422327554908, -40.57600477508591, -28.18275372381358, -5.581390712391009], [-0.5622962391207319, -44.15371769902934, -22.123285716171136, -21.301885455845913], [28.097619126421684, -32.81588892831951, 3.2683072973550935, 2.0772680931133185], [62.78810956961751, -45.13955973080676, 23.104116257606925, 4.19884350609429], [19.067708736185004, 25.564829223456005, 2.5627849203132347, 8.681404729792067], [12.569682005022868, 15.428077650143877, -9.821126064995042, 23.412429143007174], [7.477068397870567, 18.172089242090962, 14.699703435005006, 8.767345139199636], [-2.90780065066588, -0.5494952027043283, -0.9297775818499646, -25.48963313338331], [-20.30286219990197, 5.327143780274539, -10.778025152883936, -0.22099523841178786], [-39.81370998824708, 11.357024280491725, -12.451722653950014, 16.97423420315509], [-0.6752337144761412, 0.5650650492405612, -9.246060916054459, -3.543599030218165]], "2": [[4.462819371707283, 3.4451328791111853, 0.8831788507013891, -4.118682143255761, -1.967362240126834, -6.474831165890897, -5.578253334737516, 2.5015284893779683, 8.016320614513683, 3.3810313641684266, 2.6664036621060156, 1.1447293545290136, 5.338359517768862, -8.006791589511874, -11.297016305787952, 6.332054978220605, 11.370540483772684, 5.363696997860666, 4.6020291776955595, 1.976831512509905], [-5.008443906645128, 5.856395540339434, -0.5643274208684422, -5.5245740564892465, -2.329052470723835, -1.2555017658736582, 2.0401976764990657, 6.6384819105855986, -8.2280398343415, 5.612094761884153, 14.104599241613673, 2.9355022936761594, 10.510339125215538, -7.058584514227088, 8.815078769402422, -14.575841998930992, -8.81385438104767, -2.298154089538961, 7.042332617974914, 3.4896185950486225], [14.483353837546021, -13.758889449327556, -0.6120940614556247, 11.009229047887096, -0.23911659790775033, -2.1247369531073943, 2.6518494057515687, -0.3377872585646349, -5.534841353205479, -13.756840601971877, -1.4954835757875657, -0.46191642429240254, 13.198733174010837, 0.8276648611747491, -23.405345322561477, 1.9426813347212277, 14.242435280417393, -2.5917156216611557, -10.983378162613395, 0.00854789584451756], [-22.07498928270531, 2.245834890040353, 0.8912074274501408, 0.5778878349139771, -0.9976099615106103, 5.512264237074387, 5.524728804298334, 0.3759055055850408, -0.09506809838961985, 2.2421731865427805, 1.4588674968714364, 0.8138746372055472, 0.5496971583043133, 1.5357803633938967, 7.80821620364072, -9.088266172636962, -9.24903997004957, -5.357567416980225, -0.542731267162158, -0.021530448092397732], [-1.2719132684969319, 4.297787560749477, 1.1788629803249093, -12.451393965005037, 0.7279231752329596, -0.07760585040828949, -5.694183688683641, -3.4869516460857075, -4.8462426534518235, 4.31331977429862, -11.501577041920013, 0.5314020486987651, -16.853052026341764, 3.3576213817458127, 27.937538991998302, -10.382338683673016, -20.506070483875106, 5.511447239772987, 12.247037202671663, 1.3992118662565947]], "3": [[-0.02392638879512726], [5.230097623024101], [-0.4908738047333761], [5.216590418065712], [0.2730211592933411], [-0.06647033320496636], [-1.5491201166667234], [7.0043848124727575], [4.973537193133289], [-5.229346536738454], [3.501364683546014], [0.648414387199466], [1.375379124093405], [0.9666555796191515], [0.9281668444333736], [-7.836842703632173], [1.7945057806910905], [-1.6112906134332035], [4.206325808571064], [5.973508449025687], [4.258437741941185]]}, "Pd": {"1": [[-1.1923796602033994, 1.5867120463946356, -0.19752461900803034, -13.981885183505922], [1.7401039720508529, -1.0688822593885807, -1.1738905562556523, 6.46974425077752], [-2.364216001651848, -1.5388497269676262, 7.272213632464946, 28.918894978045724], [-9.07102080222045, 7.543263501957173, 6.306842033063811, -29.300752410141932], [8.635457518207053, 2.090899080921054, -15.9340398780155, -9.459296074158358], [12.836456715948726, -7.808621246141913, -10.174857922221197, 45.6286116183525], [-7.817055320072628, -0.827198651600096, 11.82046680925525, -15.635111982164196], [-7.540665166270499, 3.707400030131483, 5.99056159577503, -33.94985183936999], [3.709597291415622, 0.06003753930426518, -5.113170285260359, 14.25198311671807], [3.0385658348737907, -1.797083258028772, -1.9997942672154347, 19.176531440516246], [-1.1099129697292387, -0.06506600035949443, 1.5932710973476427, -6.895431620512413], [-0.7616456438914244, 1.0045017374069405, 0.07078860605050802, -9.295020192331982], [0.43063293868095964, -0.11330961728214603, -0.33734041374724555, 2.7922057612171614], [0.21429987995719962, -0.3667934661732653, 0.12788315625296445, 2.923734048412997], [-3.255567166739775, -8.583283565107186, 7.394126787898066, -14.036292317817367], [-0.13121081518664776, -8.948794822291989, 4.822618662859467, -5.06890017783099], [8.247216197514486, -15.252312057570204, -3.313359581141811, 8.301232318796064], [11.92914184229503, -37.43793465840925, -7.678193799245975, 25.50249731136296], [4.707182079496862, -30.365176824003193, 3.3747823679651976, -10.411304069893209], [11.530715267685192, -34.66669255998957, -4.748168951151129, -35.662002894886115], [-14.586886925143068, 42.621655982719254, 11.109777445928152, -28.876487705542047], [-6.857287132735974, 34.17482793373586, -1.988805998768598, 4.067757804991544], [-14.90323270256032, 39.35335633571999, 6.442557913054523, 26.36561979248386], [2.2932552663543153, 28.289996404426972, -10.237448426942187, 24.144847020891845], [-3.863880026171601, 29.936943101950742, -8.91229775455156, 1.9110910818419025], [-24.079991653748106, 42.613646299512105, 10.144939990861651, -31.5516863823822], [13.146554296465048, -24.794053129676783, -14.400000665950598, 26.62479935715644], [5.55171308273989, -18.811527463907417, -2.6745491665548786, -1.1510335088033894], [6.547191722799747, -18.40770210917942, -3.8089595106600007, -22.227041683231857], [-9.863082771496462, -0.3072855149231758, 14.404579357846583, -33.04046002405502], [0.40588775870579435, -6.173423184245239, 5.662402099032784, 10.259326434166692], [12.414969819249732, -13.896799592491611, -4.3741469440447664, 53.864233263099386], [0.16739433365573486, -1.5479789513437812, -1.635136798198408, 1.5147957532194782]], "2": [[-6.847914409949246, -0.8967787410343007, -7.350049627076537, 11.809869149115924, 12.706797784279932, 2.1543922717627497, 2.502210850768374, -0.5928050057418931, -1.1013268479196168, -7.193866436014234, 3.293636905664173, -4.453396712806185, 0.9100336723806134, 20.610231936265073, -3.5524756044310593, -4.424563857164289, -1.8548519538525874, 3.074907647368921, 0.9160813112293529, -15.512199582271279], [-0.4120683099222025, 2.2985312610601603, -22.43993342865764, 1.551566636712044, 41.966608051896245, 9.547695279677612, -3.146908563199675, 2.171776600329342, -5.261087753226908, 4.80734196338184, 3.2543439930724323, -0.4507776940730336, 1.5646725138738693, 17.126761398263035, 4.912599891509568, -13.375450788369948, -8.700589018000226, -0.7329005212339643, 0.3222535815299299, -20.944085925474454], [1.5208214326559435, 5.749456276860063, 1.676401661524222, -13.281663375287481, -23.933624196016414, 7.2776736009306315, -2.993386908585606, -0.7120423866992224, -4.185322038951902, 1.6527970108162096, -2.4961287349230554, 6.271069377300238, -5.296675763557143, -15.749859469640565, -1.5086140699532988, -1.9971420122426675, -3.2382968479247447, 0.35721577924560177, -0.8376884371213862, 17.343049111275214], [0.9221406933081964, 0.1357407188048862, 1.2543057556959996, -8.243787408517637, -4.094172926872807, 0.33546430682810036, 0.5492375671101521, -0.19253628623973418, 0.45591583688736087, 3.8667300134410363, 0.94842080182834, 1.3179603453524213, -0.3384695202500075, -11.843391057630857, 4.858401525013762, 2.8654183890019542, 1.2126632104664974, 0.6848159244401775, 0.4340347864422085, 9.972465018938856], [1.539451246254665, 6.991071082277346, -18.05963882766096, -1.3496398205123068, 28.07075530409274, 14.568730331878582, -5.560996917669124, -0.24131906419384613, -9.035636712048895, 3.28916170981068, 0.3996407681268021, 4.315252053589414, -4.404358014481933, 10.584558828405505, -3.799191729487, -9.578782751603846, -9.835192866527185, 0.6035007273417876, -0.2039189533046217, -12.195377555044614]], "3": [[0.07046683253518472], [-1.601432034249001], [0.01526072131506266], [17.71367250392532], [-1.7142139157238634], [0.09173157467953069], [-0.17381950464223825], [-2.114594798515966], [-2.0403076568294782], [-0.03327647653528131], [-0.0305231582771001], [0.3543929734964607], [-3.546865173849016], [-0.5689118902690763], [3.665183769802848], [-6.9879012153371125], [-0.5403108946242176], [-0.23811503256319563], [1.2396878072796043], [-0.4698849012015201], [-11.067156196317818]]}}, "fingerprints_range": {"Cu": [[0.0, 30.80216816946124], [0.0, 21.107715476229174], [0.0, 17.484290395410294], [0.0, 12.337890561734708], [0.0, 10.890146255978296], [0.0, 7.8762065126559815], [0.0, 5.204830005858291], [0.0, 3.8384169191962156], [0.0, 1.0822029998103229], [0.0, 0.7702142399843445], [0.0, 0.11672821813605691], [0.0, 0.09579851951537856], [0.0, 0.0016620228859608299], [0.0, 0.0014999082499671163], [-2.903634418643349e-17, 2753.967158376269], [0.0, 1339.0774553779588], [0.0, 1219.2135050010959], [0.0, 1969.1638860151352], [0.0, 933.9576344679633], [0.0, 890.6147634923126], [0.0, 2037.9504191669928], [0.0, 999.1121607682313], [0.0, 895.7686385654737], [0.0, 1253.1471468059065], [0.0, 593.9923398582351], [0.0, 567.1698970566891], [0.0, 1396.4850770342705], [0.0, 694.3948342368042], [0.0, 606.8013791049098], [0.0, 736.8377080388007], [0.0, 348.9904146530375], [0.0, 333.4019139572645]], "Pd": [[0.0, 24.8400310718317], [0.0, 23.80998849005955], [0.0, 14.474024824677544], [0.0, 13.53970742462996], [0.0, 9.279759042906964], [0.0, 8.380887593342328], [0.0, 4.621782142076165], [0.0, 3.9013328509929], [0.0, 0.9638689065495792], [0.0, 0.7254885658534357], [0.0, 0.09688617543634871], [0.0, 0.06459500411004933], [0.0, 0.0014999082499671157], [0.0, 0.0005969806159118931], [-2.6171500434006593e-17, 1778.0113970967157], [0.0, 1339.0774553779634], [-5.540189831791549e-17, 1609.8718092115669], [0.0, 1282.3086028451698], [0.0, 933.9576344679631], [0.0, 1155.1585128594002], [0.0, 1312.249733255385], [0.0, 999.1121607682309], [0.0, 1189.5611400731427], [0.0, 816.5469390038353], [0.0, 593.9923398582329], [0.0, 734.8478437209878], [0.0, 895.5277923005882], [0.0, 694.3948342368044], [0.0, 812.5636028169727], [0.0, 480.2246777464244], [0.0, 348.9904146530362], [0.0, 432.15164930503533]]}, "fingerprints_tag": 1, "scalings": {"Cu": {"intercept": -3.4423288176545395, "slope": 3.0350424068589144}, "Pd": {"intercept": 1.2433321424993282, "slope": 14.118989158597703}}}