{"cutoff": 6.5, "Gs": {"Pd": [{"eta": 0.05, "type": "G2", "element": "Cu"}, {"eta": 0.05, "type": "G2", "element": "Pd"}, {"eta": 2.0, "type": "G2", "element": "Cu"}, {"eta": 2.0, "type": "G2", "element": "Pd"}, {"eta": 4.0, "type": "G2", "element": "Cu"}, {"eta": 4.0, "type": "G2", "element": "Pd"}, {"eta": 8.0, "type": "G2", "element": "Cu"}, {"eta": 8.0, "type": "G2", "element": "Pd"}, {"eta": 20.0, "type": "G2", "element": "Cu"}, {"eta": 20.0, "type": "G2", "element": "Pd"}, {"eta": 40.0, "type": "G2", "element": "Cu"}, {"eta": 40.0, "type": "G2", "element": "Pd"}, {"eta": 80.0, "type": "G2", "element": "Cu"}, {"eta": 80.0, "type": "G2", "element": "Pd"}, {"zeta": 1.0, "elements": ["Cu", "Cu"], "type": "G4", "gamma": 1.0, "eta": 0.005}, {"zeta": 1.0, "elements": ["Cu", "Pd"], "type": "G4", "gamma": 1.0, "eta": 0.005}, {"zeta": 1.0, "elements": ["Pd", "Pd"], "type": "G4", "gamma": 1.0, "eta": 0.005}, {"zeta": 1.0, "elements": ["Cu", "Cu"], "type": "G4", "gamma": -1.0, "eta": 0.005}, {"zeta": 1.0, "elements": ["Cu", "Pd"], "type": "G4", "gamma": -1.0, "eta": 0.005}, {"zeta": 1.0, "elements": ["Pd", "Pd"], "type": "G4", "gamma": -1.0, "eta": 0.005}, {"zeta": 2.0, "elements": ["Cu", "Cu"], "type": "G4", "gamma": 1.0, "eta": 0.005}, {"zeta": 2.0, "elements": ["Cu", "Pd"], "type": "G4", "gamma": 1.0, "eta": 0.005}, {"zeta": 2.0, "elements": ["Pd", "Pd"], "type": "G4", "gamma": 1.0, "eta": 0.005}, {"zeta": 2.0, "elements": ["Cu", "Cu"], "type": "G4", "gamma": -1.0, "eta": 0.005}, {"zeta": 2.0, "elements": ["Cu", "Pd"], "type": "G4", "gamma": -1.0, "eta": 0.005}, {"zeta": 2.0, "elements": ["Pd", "Pd"], "type": "G4", "gamma": -1.0, "eta": 0.005}, {"zeta": 4.0, "elements": ["Cu", "Cu"], "type": "G4", "gamma": 1.0, "eta": 0.005}, {"zeta": 4.0, "elements": ["Cu", "Pd"], "type": "G4", "gamma": 1.0, "eta": 0.005}, {"zeta": 4.0, "elements": ["Pd", "Pd"], "type": "G4", "gamma": 1.0, "eta": 0.005}, {"zeta": 4.0, "elements": ["Cu", "Cu"], "type": "G4", "gamma": -1.0, "eta": 0.005}, {"zeta": 4.0, "elements": ["Cu", "Pd"], "type": "G4", "gamma": -1.0, "eta": 0.005}, {"zeta": 4.0, "elements": ["Pd", "Pd"], "type": "G4", "gamma": -1.0, "eta": 0.005}], "Cu": [{"eta": 0.05, "type": "G2", "element": "Cu"}, {"eta": 0.05, "type": "G2", "element": "Pd"}, {"eta": 2.0, "type": "G2", "element": "Cu"}, {"eta": 2.0, "type": "G2", "element": "Pd"}, {"eta": 4.0, "type": "G2", "element": "Cu"}, {"eta": 4.0, "type": "G2", "element": "Pd"}, {"eta": 8.0, "type": "G2", "element": "Cu"}, {"eta": 8.0, "type": "G2", "element": "Pd"}, {"eta": 20.0, "type": "G2", "element": "Cu"}, {"eta": 20.0, "type": "G2", "element": "Pd"}, {"eta": 40.0, "type": "G2", "element": "Cu"}, {"eta": 40.0, "type": "G2", "element": "Pd"}, {"eta": 80.0, "type": "G2", "element": "Cu"}, {"eta": 80.0, "type": "G2", "element": "Pd"}, {"zeta": 1.0, "elements": ["Cu", "Cu"], "type": "G4", "gamma": 1.0, "eta": 0.005}, {"zeta": 1.0, "elements": ["Cu", "Pd"], "type": "G4", "gamma": 1.0, "eta": 0.005}, {"zeta": 1.0, "elements": ["Pd", "Pd"], "type": "G4", "gamma": 1.0, "eta": 0.005}, {"zeta": 1.0, "elements": ["Cu", "Cu"], "type": "G4", "gamma": -1.0, "eta": 0.005}, {"zeta": 1.0, "elements": ["Cu", "Pd"], "type": "G4", "gamma": -1.0, "eta": 0.005}, {"zeta": 1.0, "elements": ["Pd", "Pd"], "type": "G4", "gamma": -1.0, "eta": 0.005}, {"zeta": 2.0, "elements": ["Cu", "Cu"], "type": "G4", "gamma": 1.0, "eta": 0.005}, {"zeta": 2.0, "elements": ["Cu", "Pd"], "type": "G4", "gamma": 1.0, "eta": 0.005}, {"zeta": 2.0, "elements": ["Pd", "Pd"], "type": "G4", "gamma": 1.0, "eta": 0.005}, {"zeta": 2.0, "elements": ["Cu", "Cu"], "type": "G4", "gamma": -1.0, "eta": 0.005}, {"zeta": 2.0, "elements": ["Cu", "Pd"], "type": "G4", "gamma": -1.0, "eta": 0.005}, {"zeta": 2.0, "elements": ["Pd", "Pd"], "type": "G4", "gamma": -1.0, "eta": 0.005}, {"zeta": 4.0, "elements": ["Cu", "Cu"], "type": "G4", "gamma": 1.0, "eta": 0.005}, {"zeta": 4.0, "elements": ["Cu", "Pd"], "type": "G4", "gamma": 1.0, "eta": 0.005}, {"zeta": 4.0, "elements": ["Pd", "Pd"], "type": "G4", "gamma": 1.0, "eta": 0.005}, {"zeta": 4.0, "elements": ["Cu", "Cu"], "type": "G4", "gamma": -1.0, "eta": 0.005}, {"zeta": 4.0, "elements": ["Cu", "Pd"], "type": "G4", "gamma": -1.0, "eta": 0.005}, {"zeta": 4.0, "elements": ["Pd", "Pd"], "type": "G4", "gamma": -1.0, "eta": 0.005}]}, "activation": "tanh", "hiddenlayers": {"Pd": [3, 20], "Cu": [3, 20]}, "weights": {"Cu": {"1": [[7.812827644153213, -7.873037705825898, -0.16079638680985553], [-1.0863457956733806, -5.552141233691944, 8.627378358489489], [-73.18943697166247, 36.319958009331714, -2.004143506632439], [45.19698914071165, 55.7438593219859, -5.324268701355775], [65.99874416849751, -44.42678758039962, -1.488161756632954], [-56.49869121005142, -80.10864639445607, -11.348431056959644], [-40.4355242591048, 10.781843634698824, 4.211787984378727], [17.293679931099714, 36.41682985125629, 14.996630862133173], [19.398254765762296, 4.075077699739414, -2.632863165417151], [-1.9343346960709624, -7.133410261947326, -7.272445761459825], [-8.89097194105197, -2.607580342979555, 0.46414796728236757], [1.3328373606589803, 2.413018217290124, 2.927015018352152], [2.241318380552242, 0.7200503619075809, 0.06751224118249591], [-0.2163004490266401, 0.3876884320075374, 0.041632108525939016], [17.923174679267987, -11.46635361286182, 17.511430128686175], [-13.010969726497567, -0.7632076063925837, 25.061948845543114], [-36.32305000818923, 6.090057757626105, 21.893225237042678], [28.310141434415844, -11.975462328802193, 0.6068842674799179], [4.079274261505916, 0.8066980640036275, -4.223653847443615], [-64.29331179885303, 20.05546732818661, 32.30413889790463], [-28.34462429528833, 12.402429015681603, 0.9785191532183508], [-21.15503022164602, -1.7338746825337767, 1.1911886408425185], [48.344589242395976, -26.22234920896321, -48.59116126735094], [-38.29794320803791, 25.35246734078678, -35.07928428048719], [-0.10021454146118379, 0.018119377870568554, -61.12296636065351], [50.30538310405847, -21.65113140768883, -70.32398057067803], [0.9854013259332655, -1.3156394173905164, -13.85060249634204], [14.34161289064118, 3.9424605558517043, -17.401521167647807], [-2.0937565239298777, 18.10733236420448, 24.744379960248317], [19.03016246445102, -11.705569699703316, 30.891947836307644], [17.57179493621967, -6.129199113645167, 56.8686390210952], [1.2696644695375447, 4.365436994068469, 38.68888862458506], [11.375036357948257, -0.6697383525508378, 1.298066803085773]], "2": [[-6.551105250726877, 6.954705787132101, -1.5966371819211276, 0.0845596451346927, 0.5500953941177209, 0.38423389529904944, 3.796721821377798, -9.305568462944626, -0.5066517436462664, 0.3587930464082823, 4.8059804871889344, -0.8762336588353157, 1.4217538712767734, -7.675181776410946, -4.4914662477750245, -0.7929631688242471, -7.047804957995468, -1.9650113106109308, 1.4509251811898043, 3.6645173367955755], [-3.1856369934474054, 5.7839723232574665, -3.4749183986937315, -2.538137795625597, 6.280535369804771, 3.793853806910299, 3.8716416918389545, 0.8213310217562454, -5.480598253945095, 14.175090298616437, 4.844581590511586, -3.707150886461878, 3.634787944527981, 5.257851837658278, 9.085561267236235, -4.916272462910491, -3.6277567166484666, -5.4475304159428655, 0.45871798175799594, 2.792987021864358], [-18.9125820364686, 29.83723666035362, 7.889864616544086, 2.080658598249274, 4.451932586126665, 13.446144310491679, -10.994006661517352, -27.44597609918746, -14.864412933275055, 71.18628509445598, 15.072279373178164, -0.46386062250721827, 14.623176913810896, -36.15897277885446, -41.81224902226871, -10.28568117828568, -19.74969737327245, -13.671000761813374, 3.6181155404491627, -11.850192446314033], [15.96386688038241, -18.872747589946943, -8.465500326201592, -5.129801611977678, 2.7818248789805087, -9.010914568909575, 10.10347216965968, 28.901836103013665, 8.886951350074977, -56.72141692233104, -10.626769161129781, -2.0303491725706353, -11.14575440796429, 35.46901371331724, 41.20538589191493, 4.1706914917425575, 16.18176034086061, 10.221626416765401, -3.8691032658685405, 9.905071011052893]], "3": [[-8.847042000281034], [-1.4923278363310992], [-6.125863007969913], [-15.491828269786572], [-22.319309914264704], [-12.43342183409844], [6.409893472183234], [1.6850580400371484], [-8.312533430291708], [0.07993552723254603], [-2.5892964562589658], [16.67842173747507], [2.6259838985623203], [-1.3603240238800043], [-0.41648488003466955], [-17.819266136050036], [4.955860409940667], [-3.8113578908020855], [3.5626739542898718], [-7.882873718426742], [-6.750006097964019]]}, "Pd": {"1": [[0.00929774547583244, 1.0212402943170842, -0.9847087861106452], [-0.1098622914600259, -0.3936028330152696, 1.5593888807829157], [2.068319367275197, -6.276723389956781, -17.87710798203231], [3.6489942947440936, -4.1466189357618, -30.483447183785156], [-2.211844804053467, 6.633962591690061, 18.7360955188137], [-4.5676430210268375, 5.619984821338014, 35.69952045645773], [-0.17039792931443243, -2.6355976398761953, 2.2937506500720324], [0.9844466183122699, -2.6466375115679024, -5.050691229383199], [0.41347199480126134, 1.0193061399376873, -7.943377572570576], [0.11341117554746487, 0.7717683783332845, -5.221036933845042], [0.37434665234887915, -0.3071670640506977, 4.401891468866434], [0.4530982554044597, -0.11899028003313421, 2.111415105815254], [-0.009506843891228588, -0.015329459659106788, -1.7463352604977862], [-0.042494221446570654, -0.025964091468292986, -0.1310395801970981], [1.4486840022252874, 1.0565602751576446, -9.480297085907491], [7.363264515234645, -0.7994049761928029, -43.72442768748288], [1.5770543615879884, 0.6499972546990105, -12.13401296985505], [-8.722653953311127, 12.55905452848248, 66.69647171198699], [-8.264426300590776, 17.24335999508126, 87.83218611865844], [-8.130286161470512, 6.775570954438739, 59.989016305343576], [7.736288959018466, -13.268823236390782, -61.865477954031135], [3.5586387660693437, -16.001911097102195, -64.12658824691354], [5.469875465923319, -5.173312278948037, -46.63493921669116], [-4.926868796842057, -2.9142896280511037, 29.12887290123946], [-23.613239173249795, 1.7485863422941366, 128.75242253011928], [-7.496825242801763, 1.0030768072435259, 47.47565817202851], [-6.382438342458831, 8.952066949769039, 48.82405444706482], [-6.5105670689503645, 11.509799927398404, 70.25565535707574], [-4.3791923053391795, 2.692097922238979, 37.94454341221844], [10.923395900944401, -6.485508638749489, -73.84835988158012], [27.061129360698448, -13.386428096515603, -175.977093131691], [12.8271024034997, -5.736336730107075, -86.32159489922489], [-0.15476614589369492, 0.8259145732828627, -0.11726876028252088]], "2": [[13.008512710678229, 8.03485735520217, -8.648838465719022, -0.14210782059196822, -6.351355175522792, -3.0341232591404914, -4.365286169637101, 5.3825923360413555, 9.391004703975529, 22.52003811748475, -2.9936928023600458, 9.527246934005184, -9.85374551308888, 6.648032584189935, 6.398197916265056, -3.6969149535539954, 20.007731292282287, -5.0178037790105545, 2.6119967879951247, -13.214766802978739], [10.997637397766866, 8.647699717004077, -15.208908680913753, 0.06826744588254526, -3.9485744564174703, -3.8287638806089968, -5.045490776932993, -2.6304599738793377, 0.8378840406028788, 29.237071025894807, 1.1052072716858226, 4.834839300910081, -8.7185060125578, 8.606966178043885, 3.256273033424814, -5.046952134824687, 12.617365960024623, -4.080317409194584, 5.164635181326043, -2.121042588070481], [-7.8023631094081, -6.584956185790643, 4.688177343544739, -3.3038107825218597, 2.9006300601951946, 0.0578468792868636, 4.583424223175097, 2.4439333543676134, 2.5189089372344404, -21.943444796098394, -2.609212787027905, -8.770758449396633, 6.977823134105563, -5.217716865305253, -0.3959599441770001, 1.390775647510876, -12.266694405871334, 3.2717044620106677, 1.4475563942967078, -13.461694033417276], [-3.9372873886870963, -2.02641856748247, 7.59979259146546, -4.208628187491242, -0.47924537237208087, -0.708034677692686, 1.5930863345067128, 7.950055852916139, 0.9593209251342999, -13.352596980899374, -2.8293205067412948, -3.48825472527651, 2.115639762642185, -2.9027060945854974, 0.36630390352570225, 0.860682319279695, -0.5639409795383937, 0.3137395876658038, -1.5978599788013768, -16.331414239435713]], "3": [[0.310299535653094], [-1.0363581935057753], [-0.776650081639571], [-6.047311956473571], [-3.905537476002277], [3.9515183970284764], [-3.079156665837764], [14.474363189560737], [15.963333797788748], [0.03715655588629325], [-1.3196022715840339], [-0.2233849487676512], [1.1831202729430803], [1.065616332679332], [-1.5548969647655588], [-1.3672149180363788], [0.14640273833238], [5.628867384864001], [-0.26985262485027045], [0.04046949963903547], [-2.4434704294757]]}}, "fingerprints_range": {"Cu": [[0.7355979085179102, 15.55743075082518], [0.17208454571200024, 15.824610224206179], [0.2647337529778042, 9.728035574767311], [0.048289987224936715, 9.183520039100534], [0.08998943476157976, 6.543651351035633], [0.013116604377678287, 5.901293632153394], [0.011086319621036456, 3.4322011143730915], [0.0009677208042695254, 3.058089253340858], [2.8105378597217076e-05, 0.7186722153281908], [3.886297579508524e-07, 0.7702142399843445], [1.0530964208036616e-09, 0.06459500411004929], [8.495312182045297e-13, 0.09579851951537856], [1.4696933730671603e-18, 0.0005969806159118927], [4.059438105570023e-24, 0.0014999082499671163], [0.50034203926832, 586.0279136978755], [2.8969921783012786, 1339.0774553779588], [0.0, 680.2199829665379], [0.623397651130686, 430.46949002501225], [2.2581612173512284, 933.9576344679633], [0.11622805422127631, 505.84680013293473], [0.18504763958633103, 428.8432803118022], [1.7871978465575518, 999.1121607682313], [0.0, 497.0153279237612], [0.21809387928730953, 273.284856638939], [1.3209770091224067, 593.9923398582351], [0.06881080565862441, 322.6421450901536], [0.020560848842925673, 287.61510794586883], [0.799631268139842, 694.3948342368042], [0.0, 333.734781480117], [0.03697254301515187, 160.4359473839458], [0.665959989982916, 348.9904146530375], [0.004300675351054025, 189.85900104165898]], "Pd": [[0.17208454571200046, 15.82461022420618], [0.7355978047404241, 15.557430750825183], [0.04828998722493681, 9.183520039100532], [0.2647337529778042, 9.72803557476731], [0.01311660437767832, 5.901293632153396], [0.08998943476157976, 6.543651351035635], [0.000967720804269529, 3.058089253340857], [0.011086319621036456, 3.4322011143730906], [3.8862975795085565e-07, 0.770214239984344], [2.8105378597217076e-05, 0.7186722153281916], [8.495312182045429e-13, 0.09579851951537853], [1.0530949854903416e-09, 0.06459500411004933], [4.059438105570144e-24, 0.0014999082499671157], [1.469689571940093e-18, 0.0005969806159118931], [0.0, 680.2199829665362], [2.8969921783012804, 1339.0774553779634], [0.50034203926832, 586.0279136978755], [0.11622805422127645, 505.8468001329346], [2.2581612173512298, 933.9576344679631], [0.6233975439578614, 430.46949002501225], [0.0, 497.01532792376423], [1.7871978465575515, 999.1121607682309], [0.18504763958633114, 428.8432803118022], [0.06881080565862441, 322.6421450901558], [1.3209770091224076, 593.9923398582329], [0.21809382696856305, 273.284856638939], [0.0, 333.73478148011566], [0.799631268139842, 694.3948342368044], [0.020560848842925677, 287.61510794586883], [0.004300675351054025, 189.85900104165927], [0.6659599899829165, 348.9904146530362], [0.03697252924305966, 160.4359473839458]]}, "fingerprints_tag": 1, "scalings": {"Cu": {"intercept": 3.2767066921445829, "slope": 13.488733517144421}, "Pd": {"intercept": 3.2746182550291727, "slope": 4.5738367137391984}}}