{"cutoff": 6.5, "Gs": {"Pd": [{"eta": 0.05, "type": "G2", "element": "Cu"}, {"eta": 0.05, "type": "G2", "element": "Pd"}, {"eta": 4.0, "type": "G2", "element": "Cu"}, {"eta": 4.0, "type": "G2", "element": "Pd"}, {"eta": 20.0, "type": "G2", "element": "Cu"}, {"eta": 20.0, "type": "G2", "element": "Pd"}, {"eta": 80.0, "type": "G2", "element": "Cu"}, {"eta": 80.0, "type": "G2", "element": "Pd"}, {"zeta": 1.0, "elements": ["Cu", "Cu"], "type": "G4", "gamma": 1.0, "eta": 0.005}, {"zeta": 1.0, "elements": ["Cu", "Pd"], "type": "G4", "gamma": 1.0, "eta": 0.005}, {"zeta": 1.0, "elements": ["Pd", "Pd"], "type": "G4", "gamma": 1.0, "eta": 0.005}, {"zeta": 1.0, "elements": ["Cu", "Cu"], "type": "G4", "gamma": -1.0, "eta": 0.005}, {"zeta": 1.0, "elements": ["Cu", "Pd"], "type": "G4", "gamma": -1.0, "eta": 0.005}, {"zeta": 1.0, "elements": ["Pd", "Pd"], "type": "G4", "gamma": -1.0, "eta": 0.005}, {"zeta": 4.0, "elements": ["Cu", "Cu"], "type": "G4", "gamma": 1.0, "eta": 0.005}, {"zeta": 4.0, "elements": ["Cu", "Pd"], "type": "G4", "gamma": 1.0, "eta": 0.005}, {"zeta": 4.0, "elements": ["Pd", "Pd"], "type": "G4", "gamma": 1.0, "eta": 0.005}, {"zeta": 4.0, "elements": ["Cu", "Cu"], "type": "G4", "gamma": -1.0, "eta": 0.005}, {"zeta": 4.0, "elements": ["Cu", "Pd"], "type": "G4", "gamma": -1.0, "eta": 0.005}, {"zeta": 4.0, "elements": ["Pd", "Pd"], "type": "G4", "gamma": -1.0, "eta": 0.005}], "Cu": [{"eta": 0.05, "type": "G2", "element": "Cu"}, {"eta": 0.05, "type": "G2", "element": "Pd"}, {"eta": 4.0, "type": "G2", "element": "Cu"}, {"eta": 4.0, "type": "G2", "element": "Pd"}, {"eta": 20.0, "type": "G2", "element": "Cu"}, {"eta": 20.0, "type": "G2", "element": "Pd"}, {"eta": 80.0, "type": "G2", "element": "Cu"}, {"eta": 80.0, "type": "G2", "element": "Pd"}, {"zeta": 1.0, "elements": ["Cu", "Cu"], "type": "G4", "gamma": 1.0, "eta": 0.005}, {"zeta": 1.0, "elements": ["Cu", "Pd"], "type": "G4", "gamma": 1.0, "eta": 0.005}, {"zeta": 1.0, "elements": ["Pd", "Pd"], "type": "G4", "gamma": 1.0, "eta": 0.005}, {"zeta": 1.0, "elements": ["Cu", "Cu"], "type": "G4", "gamma": -1.0, "eta": 0.005}, {"zeta": 1.0, "elements": ["Cu", "Pd"], "type": "G4", "gamma": -1.0, "eta": 0.005}, {"zeta": 1.0, "elements": ["Pd", "Pd"], "type": "G4", "gamma": -1.0, "eta": 0.005}, {"zeta": 4.0, "elements": ["Cu", "Cu"], "type": "G4", "gamma": 1.0, "eta": 0.005}, {"zeta": 4.0, "elements": ["Cu", "Pd"], "type": "G4", "gamma": 1.0, "eta": 0.005}, {"zeta": 4.0, "elements": ["Pd", "Pd"], "type": "G4", "gamma": 1.0, "eta": 0.005}, {"zeta": 4.0, "elements": ["Cu", "Cu"], "type": "G4", "gamma": -1.0, "eta": 0.005}, {"zeta": 4.0, "elements": ["Cu", "Pd"], "type": "G4", "gamma": -1.0, "eta": 0.005}, {"zeta": 4.0, "elements": ["Pd", "Pd"], "type": "G4", "gamma": -1.0, "eta": 0.005}]}, "activation": "tanh", "hiddenlayers": {"Pd": [3, 20], "Cu": [3, 20]}, "weights": {"Cu": {"1": [[2.3114746937309505, -1.7326277278850304, 4.867762963550587], [1.5790294257654132, -0.5147917353507009, 5.6880468999103675], [-1.3001991001114845, 0.9289592235855044, -3.4088076097376288], [0.19905500163745646, -0.6546073246526709, -2.0137014910239275], [-0.7317553122802398, 0.016681581086373458, -1.182824757122476], [-0.8957251142404783, 0.19366785681528356, -1.8512980532436913], [0.10947966988937746, -0.13529717530118132, -0.4368554636258104], [-0.11227268771642707, 0.3927462761070447, 0.8868728578709152], [-16.51793958038606, 17.992214825739353, 10.550400333594062], [-10.579887929774845, -7.078079127080743, -24.763710658088307], [11.865671955682858, -20.549991475735666, -13.070979886554195], [19.221409213099886, -15.680769978492643, -34.00999924004368], [19.034111848467763, -5.754166577826778, -62.658332886744326], [-10.716563604757397, 13.231036779686177, -48.624476888091614], [8.341967112755148, -10.6226279033338, -8.502322798935383], [9.059119971581257, -0.9189324561860923, 12.184334696341214], [-5.4978147901144805, 10.263714252183195, 8.07990491573604], [-11.932826046037684, 9.443909996339775, 32.140282719652625], [-15.262846633193341, 11.878006405565454, 76.99033435544645], [2.4380769423172057, -1.2472631319433547, 51.67593589935019], [-1.2943975440908857, 1.3244780398339653, -1.7016909135694815]], "2": [[19.408670378282192, -5.724449578083906, -9.466638263352726, -3.903510297233793, -8.545284190196048, 1.2945155409460833, -30.47518370838845, 8.700045812087462, 6.819457476502838, -12.360918232184188, -18.5150348767362, 6.723720927791224, 18.223263891130905, 6.5200348919657625, 7.544516995965093, 0.9845618903082372, -11.727897743826093, 2.7760704358664654, -7.51868867099757, -3.1204691175534043], [36.784551982316536, -3.502551216965975, 6.003330545779727, -35.41230413025739, -20.216840190787067, -1.9003158597121836, -8.026293647052485, 4.544036466964501, 6.567310951302055, 11.223053495858048, -40.256542800657435, 4.379270922164934, 66.26829580786949, 22.836201299604916, 1.5384966036015537, 15.011677736537829, -8.167872770508856, 0.6166683429006837, -0.5632337096878622, -0.07931541883001329], [46.978921226907936, 1.9261097295697789, 33.1498491125787, -21.7514261396207, -4.592010685855893, -0.20836831662269106, 10.157217695290182, -1.5837571676756383, -9.055802403064218, -6.848847344597757, -23.40942604616337, -2.2841800496981284, 4.130484489946723, 11.248908127472761, -1.8525238682315808, 15.252191073060091, 2.1415195474432145, -0.8626469120892348, 1.5590656294214835, 0.9789942820323105], [28.611842372062043, -0.00612125498836763, 3.0327158388433926, 5.762013308794259, 7.891063989608968, 2.8896438167391123, -7.510900421238614, 1.2067611964592517, 7.60924875567991, -27.83915552205216, -5.249400286031022, -0.23275889363803234, -20.84707722520417, -29.397167703185698, 1.9447730044323537, 2.79345595687068, 0.48948668928671546, -0.168986735748853, -4.25404603059128, 0.16942171938136216]], "3": [[0.1077931953627406], [10.715788251863179], [0.0017769099951298235], [-0.010423374787893874], [0.04740201384873061], [-6.601943736055786], [0.11322867612653442], [-9.449959996014988], [11.728192373201509], [0.38349245422372974], [3.7661972078593338], [7.296799187891604], [0.0076047738100005246], [0.618426857629416], [1.8111581296499941], [-0.08036585263277328], [-3.3539996134424395], [5.408055294114456], [-7.826048041852098], [3.006846567069075], [-2.807693484961478]]}, "Pd": {"1": [[0.8410258387713404, -0.7429453876475124, 0.9194263836930333], [0.996448371006842, -0.5454883874029238, 0.6646276387348682], [-0.11118128383606195, 0.2524365347506278, -0.35478907079888605], [-0.1008399838074495, 0.29401815622868466, -0.3215293849467889], [-0.19260904375369164, 0.07501378669165802, 0.09191151655694538], [-0.1535126490002767, -0.19919901829366649, 0.23634204640386702], [-0.07387417324892862, 0.07030810013160299, -1.1392941116934219], [-0.037572228406613874, 0.01112472393801808, -0.6388101231172053], [3.71581185216547, 1.3883037537480543, 4.991912037473185], [-1.8467352572409783, -2.506726402597648, 14.759941861402], [-6.5273327281153595, -5.1189970354476895, 10.663009310708162], [0.9638680936021122, -3.4023620712618627, -5.368788318655693], [7.266076280549574, 0.9385020117512959, -16.541525519629193], [7.015963634269936, 3.9756731730710775, -11.112345058353423], [-2.020961793923035, -0.8275404287709227, -2.384396658311295], [1.8277359073450465, 1.3951800542711326, -8.12517876777357], [3.833463385146807, 2.746947510532384, -5.621689872247304], [-2.7216987340918393, 2.6643298226707146, 2.9446823879180126], [-7.032997625803614, 0.4672270990691053, 9.392439702343301], [-4.519737137702736, -1.8688207575025333, 6.29807076650625], [-1.7899440861908513, 0.4957324181737426, -1.800198825028932]], "2": [[23.79969432145698, -3.6241286420729586, 4.532126233323681, -5.046129369642638, 3.4190027452841987, -18.272150129791672, 3.912923274340758, -10.447193723374635, -8.339879590869895, 67.61665175974476, -0.30518570224946434, 4.020531339755765, 1.5825579968238357, 2.0698941526252828, -3.3289740566965036, 89.32160293996678, -3.600440160825876, -10.821147369413053, -3.813926015805574, -3.7701321286341405], [-1.0057086126516936, 5.083685534412271, -0.4190436430971525, -7.569872256079895, -0.8376781026913952, -10.54926514341315, 0.5234639483454961, 1.8914787548282186, 6.338723117441444, 17.56329252723364, -0.023976293631399387, -1.054711324681915, 0.9609501368767581, 3.267911464070489, -7.624176329550217, 25.603588902438734, 0.7619253722587219, 3.791075038876672, -1.9863806844437852, -0.5598955796148659], [-3.4019291661258633, 1.3486623204768085, -1.9230687647355826, -0.7165509249339445, -0.36363444637984, -0.6259505324011437, -0.3213242008298974, 2.8575841055865703, 3.3543367235630965, 3.1418559862529354, -0.04171159821868818, -0.4719116684340082, -0.7017854823560671, -0.9850956408734219, 3.788062621201352, 5.230928632766383, -4.872963907347411, 4.338664330234168, 0.3856909265288684, 0.6448438146403697], [23.16046704207885, -6.018195364284751, 6.0260066342826875, 4.558111234092428, 2.7977467177288444, -10.436924535521312, 3.9930464301727273, -10.778095944507697, -10.622200666892999, 55.21733354867979, 0.3585125299718399, 1.5121228120714894, -0.13391594063168297, -0.12111749890729953, -2.6171905031245517, 71.05556480537611, -9.420252447866174, -11.169142865651327, -3.445038513595775, -2.842057567056405]], "3": [[1.4540642848930831], [2.214294928443548], [5.605215773422452], [-1.475946066816764], [-0.681910767043246], [0.41726606138062156], [1.0649904057257045], [1.468918251917427], [-1.0792380229580358], [-1.2788063598125226], [-3.380614687485407], [-0.08309044052736464], [1.259705055096814], [-1.136776727823647], [0.009777743177458522], [0.46310556828513383], [-1.1997926501478233], [-0.3875080219443457], [0.8075902711328966], [-0.6870715876518588], [-3.3187899117979436]]}}, "fingerprints_range": {"Cu": [[0.1063750548408017, 15.55743075082518], [0.028202539821623157, 15.824610224206179], [0.0039475029562834815, 6.543651351035633], [0.0009775685586746502, 5.901293632153394], [6.336097831506945e-09, 0.7186722153281908], [1.190287988056906e-09, 0.7702142399843445], [1.1815297550357418e-30, 0.0005969806159118927], [7.875808503354093e-32, 0.0014999082499671163], [0.14542638955905765, 586.0279136978755], [1.0639431752062123, 1339.0774553779588], [-2.1232459816643144e-18, 680.2199829665379], [0.21753575331713212, 430.46949002501225], [0.7672793241028637, 933.9576344679633], [0.01912449962367862, 505.84680013293473], [0.009653362355969163, 287.61510794586883], [0.3377739380614941, 694.3948342368042], [0.0, 333.734781480117], [0.03697254301515187, 160.4359473839458], [0.23682355773155236, 348.9904146530375], [0.0018168617087065356, 189.85900104165898]], "Pd": [[0.028202539821623157, 15.82461022420618], [0.1063750548408017, 15.557430750825183], [0.0009775685586746502, 5.901293632153396], [0.0039475029562834815, 6.543651351035635], [1.190287988056906e-09, 0.770214239984344], [6.336097831506945e-09, 0.7186722153281916], [7.875808503354093e-32, 0.0014999082499671157], [1.1815297550357418e-30, 0.0005969806159118931], [-2.1232459816643144e-18, 680.2199829665362], [1.0639431752062118, 1339.0774553779634], [0.14542638955905765, 586.0279136978755], [0.01912449962367862, 505.8468001329346], [0.7672793241028637, 933.9576344679631], [0.21753575331713212, 430.46949002501225], [0.0, 333.73478148011566], [0.33777393806149464, 694.3948342368044], [0.009653362355969173, 287.61510794586883], [0.0018168617087065421, 189.85900104165927], [0.23682355773155245, 348.9904146530362], [0.03697252924305966, 160.4359473839458]]}, "fingerprints_tag": 1, "scalings": {"Cu": {"intercept": 3.3099569590390123, "slope": 2.4854795160082759}, "Pd": {"intercept": 3.3109162791723583, "slope": 21.395049152648802}}}