{"cutoff": 6.5, "Gs": {"Pd": [{"eta": 0.05, "type": "G2", "element": "Cu"}, {"eta": 0.05, "type": "G2", "element": "Pd"}, {"eta": 2.0, "type": "G2", "element": "Cu"}, {"eta": 2.0, "type": "G2", "element": "Pd"}, {"eta": 4.0, "type": "G2", "element": "Cu"}, {"eta": 4.0, "type": "G2", "element": "Pd"}, {"eta": 8.0, "type": "G2", "element": "Cu"}, {"eta": 8.0, "type": "G2", "element": "Pd"}, {"eta": 20.0, "type": "G2", "element": "Cu"}, {"eta": 20.0, "type": "G2", "element": "Pd"}, {"eta": 40.0, "type": "G2", "element": "Cu"}, {"eta": 40.0, "type": "G2", "element": "Pd"}, {"eta": 80.0, "type": "G2", "element": "Cu"}, {"eta": 80.0, "type": "G2", "element": "Pd"}, {"zeta": 1.0, "elements": ["Cu", "Cu"], "type": "G4", "gamma": 1.0, "eta": 0.005}, {"zeta": 1.0, "elements": ["Cu", "Pd"], "type": "G4", "gamma": 1.0, "eta": 0.005}, {"zeta": 1.0, "elements": ["Pd", "Pd"], "type": "G4", "gamma": 1.0, "eta": 0.005}, {"zeta": 1.0, "elements": ["Cu", "Cu"], "type": "G4", "gamma": -1.0, "eta": 0.005}, {"zeta": 1.0, "elements": ["Cu", "Pd"], "type": "G4", "gamma": -1.0, "eta": 0.005}, {"zeta": 1.0, "elements": ["Pd", "Pd"], "type": "G4", "gamma": -1.0, "eta": 0.005}, {"zeta": 2.0, "elements": ["Cu", "Cu"], "type": "G4", "gamma": 1.0, "eta": 0.005}, {"zeta": 2.0, "elements": ["Cu", "Pd"], "type": "G4", "gamma": 1.0, "eta": 0.005}, {"zeta": 2.0, "elements": ["Pd", "Pd"], "type": "G4", "gamma": 1.0, "eta": 0.005}, {"zeta": 2.0, "elements": ["Cu", "Cu"], "type": "G4", "gamma": -1.0, "eta": 0.005}, {"zeta": 2.0, "elements": ["Cu", "Pd"], "type": "G4", "gamma": -1.0, "eta": 0.005}, {"zeta": 2.0, "elements": ["Pd", "Pd"], "type": "G4", "gamma": -1.0, "eta": 0.005}, {"zeta": 4.0, "elements": ["Cu", "Cu"], "type": "G4", "gamma": 1.0, "eta": 0.005}, {"zeta": 4.0, "elements": ["Cu", "Pd"], "type": "G4", "gamma": 1.0, "eta": 0.005}, {"zeta": 4.0, "elements": ["Pd", "Pd"], "type": "G4", "gamma": 1.0, "eta": 0.005}, {"zeta": 4.0, "elements": ["Cu", "Cu"], "type": "G4", "gamma": -1.0, "eta": 0.005}, {"zeta": 4.0, "elements": ["Cu", "Pd"], "type": "G4", "gamma": -1.0, "eta": 0.005}, {"zeta": 4.0, "elements": ["Pd", "Pd"], "type": "G4", "gamma": -1.0, "eta": 0.005}], "Cu": [{"eta": 0.05, "type": "G2", "element": "Cu"}, {"eta": 0.05, "type": "G2", "element": "Pd"}, {"eta": 2.0, "type": "G2", "element": "Cu"}, {"eta": 2.0, "type": "G2", "element": "Pd"}, {"eta": 4.0, "type": "G2", "element": "Cu"}, {"eta": 4.0, "type": "G2", "element": "Pd"}, {"eta": 8.0, "type": "G2", "element": "Cu"}, {"eta": 8.0, "type": "G2", "element": "Pd"}, {"eta": 20.0, "type": "G2", "element": "Cu"}, {"eta": 20.0, "type": "G2", "element": "Pd"}, {"eta": 40.0, "type": "G2", "element": "Cu"}, {"eta": 40.0, "type": "G2", "element": "Pd"}, {"eta": 80.0, "type": "G2", "element": "Cu"}, {"eta": 80.0, "type": "G2", "element": "Pd"}, {"zeta": 1.0, "elements": ["Cu", "Cu"], "type": "G4", "gamma": 1.0, "eta": 0.005}, {"zeta": 1.0, "elements": ["Cu", "Pd"], "type": "G4", "gamma": 1.0, "eta": 0.005}, {"zeta": 1.0, "elements": ["Pd", "Pd"], "type": "G4", "gamma": 1.0, "eta": 0.005}, {"zeta": 1.0, "elements": ["Cu", "Cu"], "type": "G4", "gamma": -1.0, "eta": 0.005}, {"zeta": 1.0, "elements": ["Cu", "Pd"], "type": "G4", "gamma": -1.0, "eta": 0.005}, {"zeta": 1.0, "elements": ["Pd", "Pd"], "type": "G4", "gamma": -1.0, "eta": 0.005}, {"zeta": 2.0, "elements": ["Cu", "Cu"], "type": "G4", "gamma": 1.0, "eta": 0.005}, {"zeta": 2.0, "elements": ["Cu", "Pd"], "type": "G4", "gamma": 1.0, "eta": 0.005}, {"zeta": 2.0, "elements": ["Pd", "Pd"], "type": "G4", "gamma": 1.0, "eta": 0.005}, {"zeta": 2.0, "elements": ["Cu", "Cu"], "type": "G4", "gamma": -1.0, "eta": 0.005}, {"zeta": 2.0, "elements": ["Cu", "Pd"], "type": "G4", "gamma": -1.0, "eta": 0.005}, {"zeta": 2.0, "elements": ["Pd", "Pd"], "type": "G4", "gamma": -1.0, "eta": 0.005}, {"zeta": 4.0, "elements": ["Cu", "Cu"], "type": "G4", "gamma": 1.0, "eta": 0.005}, {"zeta": 4.0, "elements": ["Cu", "Pd"], "type": "G4", "gamma": 1.0, "eta": 0.005}, {"zeta": 4.0, "elements": ["Pd", "Pd"], "type": "G4", "gamma": 1.0, "eta": 0.005}, {"zeta": 4.0, "elements": ["Cu", "Cu"], "type": "G4", "gamma": -1.0, "eta": 0.005}, {"zeta": 4.0, "elements": ["Cu", "Pd"], "type": "G4", "gamma": -1.0, "eta": 0.005}, {"zeta": 4.0, "elements": ["Pd", "Pd"], "type": "G4", "gamma": -1.0, "eta": 0.005}]}, "activation": "tanh", "hiddenlayers": {"Pd": [2, 50], "Cu": [2, 50]}, "weights": {"Cu": {"1": [[-7.628998963639754, 7.825248804499094], [0.6272126341338206, -2.859433744490258], [-35.561554728126445, 45.676346738168256], [-59.73966047684761, 77.38669486099533], [59.2675275124108, -72.81717302293858], [82.1341718231578, -102.97935066472837], [-22.040965985472724, 26.66100684137746], [-33.43148539453826, 41.45447444612919], [6.221764755413664, -7.184632758121908], [13.144586377926027, -15.655682048292439], [-3.0819748933036277, 3.209825610490124], [-8.493775470809682, 9.33678159707024], [0.2689554213692414, -0.21705508431401024], [1.7520535858579247, -1.7909366914237423], [-28.877248336741957, 20.889746529820158], [-60.86841779898533, 48.41900621885357], [-40.80248130807482, 34.34500614828391], [3.8641978865876707, -27.245985755802636], [-28.01706653218574, -14.781736053491516], [-42.03342042192808, 25.618277398190298], [14.033745042129421, 11.600473332844196], [55.70197977325373, -7.859367595016221], [54.410352379850245, -33.936036019917644], [89.91779257480367, -69.48752583867453], [186.82398624542873, -145.43778150138576], [103.92555684003003, -84.46442030596852], [2.023210234452161, -15.455390989811706], [-14.67186691168224, -12.15631724180506], [-20.8512321179782, 10.500217148352885], [-79.94549962897345, 78.65599678161998], [-134.53125520097512, 127.04811229887746], [-53.55583155033311, 46.790391211443705], [3.290909619110212, -5.7540967540554595]], "2": [[4.624109749709931, -0.3406740142800422, 5.194762296070869, 2.9289486663359265, 4.52681422472484, 11.043857173455478, 5.625410198908682, -9.126537778890144, -2.8777193800016048, -16.62673670108577, 0.9829335144312139, 2.254507399576897, -6.947628313720477, -14.037813575358257, 0.7204548979447589, -3.5754581223196418, 4.279533645050282, -3.635136133165952, 23.327717039102772, 0.6787430695409556, 9.420839184463029, 1.6134349384701003, 5.0108617095849, -2.873240023000404, 3.9780090987137298, 22.83358839356184, 3.1841675296913134, -2.669118672514915, -4.71941127419338, 1.1452460529582924, -2.236874089388365, -19.58457470678844, -3.089957576562375, -1.7879976004846108, 2.3418239223592465, -13.040195973422163, -5.698947852147202, -0.1918972842057192, 10.98990100205965, -4.5049041834193515, -1.4973414034807366, -2.3387198225732857, 0.021192249630845476, -3.8251567291787287, 0.3585341011883805, 2.330688093562374, 2.807625520862071, -1.2494514607878466, -0.1442724420988329, -12.573587144268734], [-38.062298766849736, -3.372335706876552, 2.7820042154498648, -14.211267342424089, 2.0008377493311142, 1.2315889798286235, 10.694506487164656, -0.8078459807638941, -7.013340228821421, -31.654287665546388, -9.632864462255741, 0.30215974216430497, -14.63755389603609, -27.207021424769074, 2.963789917395313, -1.86518890906622, -0.9194820137836002, 5.583533623204246, 32.97414943608087, -1.3976854838831112, 15.022599985173912, 1.2361233943321022, 8.482204077916123, -1.0867341351578588, 5.8838900505884215, 32.07417807360052, 6.535404783399771, -29.469996693334824, -3.079039699342501, -8.909154386144028, -0.5165157075365527, -7.1193714622671616, -2.700880861609596, -6.593971443136562, 4.6369422885458516, -13.637253264037753, -3.2708822032138376, 14.674997062177987, 20.84055182398984, -5.5434575938299675, -3.1982508141779395, -2.907322375129609, -1.659566243817443, -9.656408694703373, 0.5579658214740788, 0.25208683774092777, -0.6314206928228381, -4.407737889080265, -1.7021195543983674, -7.792378986124761], [-42.7384879835835, -0.060231344314756866, 6.069786001939013, -15.696033903273255, -0.07071617948159581, 10.651927014525613, 6.335027406777465, -8.948021038782398, -5.177102744438352, -10.514311845950457, -11.858773937123638, 1.6342577511965173, -3.9964369237602444, -8.009909232042736, 2.9726623847212608, -4.278038715019858, -1.1696784538498062, -4.901371785816934, 18.636037908703152, 1.516522984877797, 5.579844765450015, 1.7890415804601756, 8.75733336064984, -1.5964610945525646, 3.8713312514799285, 20.256343280957886, 3.1679863306005434, -32.01420304767445, -2.9970141581128606, -9.430053280784362, -0.06957662990911591, 12.873560429279658, -3.419256299430586, -4.980044694959499, 3.092220464960027, -3.0303476103092697, -6.7839603428238515, 5.0325640695816265, 6.398570790952136, 1.1892089176080027, -2.0352235627216726, -2.6019968250052643, -1.6546223441825665, -4.718247626942312, -0.9784747671525654, -2.7524089405743815, -0.021854687900784407, 1.1786709122210204, -1.7799905140149026, 3.8390386785662107]], "3": [[20.37095413491739], [4.6079767274693735], [7.212277982921264], [-6.743277241089125], [4.904226498117448], [2.845053470401862], [0.3362303213814317], [4.796875709457679], [0.474973764438005], [-0.6715601680891486], [3.703228613066783], [-0.4286942960432729], [-2.7564548334923287], [-3.362204597083347], [-2.1951891721962284], [2.7692982278136635], [3.5137210604717555], [-1.9488954758490922], [0.04439959609517132], [2.085422318997592], [2.465872076190451], [3.699204363146204], [-0.013405647320478673], [-3.0511803308976706], [-1.2124498907199495], [0.02588308082259117], [1.6005585379268201], [-6.758767575304885], [3.0752046610879424], [5.360251431527444], [9.304636658006727], [11.685825410869558], [3.556239672398024], [0.3229818554497083], [-2.5279837247021026], [3.21059285733555], [5.0644019021177415], [-0.017199392337176964], [-7.988664082660455], [-11.766085573090551], [-2.43975224162272], [-6.127578279553586], [-2.7130748660424535], [0.4717615767104506], [4.295027452667402], [7.5144556580634125], [-0.7591260374001951], [-11.241448583654709], [0.6839551322960544], [6.320687933364063], [23.778291867746475]]}, "Pd": {"1": [[-21.065652579233486, 9.015390667757893], [-20.246861900998397, -23.5809513778678], [-6.582551394480686, -52.093412074111974], [-7.4368041649321945, 41.515914849055896], [-10.170899175433114, 107.73202321101743], [5.43876518073804, 1.8796640431056848], [50.898188474296596, -90.93740042672579], [46.44912482584445, -38.92055477642269], [-22.93477187504802, 62.71543517141319], [-14.79455338137248, 26.963058525988593], [1.6767899736350729, -50.66737048631974], [-10.058981680529152, -19.450953402562966], [-22.75446244088772, 18.51555973033821], [12.988200996425622, 0.7326037635232918], [27.945179588878943, -7.156679982937738], [38.23403358737588, 7.072349440602298], [28.18887124972463, 70.61837575793261], [8.007332051285124, 73.61735256867205], [22.326314705048357, 135.86868457340665], [23.065334025170724, 146.05744948099496], [31.284697272524525, -46.672363486390196], [22.55128545918274, -70.10026107725997], [1.3684720251326823, -108.9115671161757], [1.8729977934551099, 58.62233812741387], [-13.154411859443087, 79.62787745013785], [-21.861831480678056, -92.47611280354174], [-50.63417126742287, 45.328174807204384], [-33.49457926089315, 41.70201720313336], [-12.512305998734604, 30.11202193061744], [-8.255538754675449, -121.41749482371871], [-41.31913123390558, -200.56458503177362], [-10.787226058032562, -39.18943683611302], [-8.924998174184871, -6.846474407252801]], "2": [[1.575442804846906, -33.17659157675286, 8.030813400529278, 41.095435769192605, 28.981419118847008, -17.938155602945073, -28.041117812877992, -30.703580567827178, 1.4903089251071788, -2.099830490740732, 0.12158708345309265, 13.523117081975698, -9.674529014714222, -42.27154052947652, -40.44372265825339, 1.1638287700570304, -6.5956043500927715, 2.8041459070784067, -1.3301043562477264, 26.606670571517522, 21.64531068468739, 37.477623876855674, 2.358703601748354, -29.913127021046233, -1.9900244243112197, -19.205105293623845, -3.4233075917529705, 29.154917497015994, 11.25597473252256, 10.29715180152647, 21.4332702429701, -1.7455755586861241, -1.9708931400552248, -3.1165558534279323, 18.71995268818059, -2.5021914825612077, 11.106048389679692, -19.74205722862811, -0.6729043077618088, -0.054218907578270914, 61.2937147483385, -5.16593352239576, -3.8258848523205504, -21.40307023028278, -21.748750605563266, -49.00191425680724, 7.111411882474498, 9.812450879524537, -8.47373223804022, 24.304869929250394], [-48.7897270809459, -0.19856289183324716, -0.6811773841934659, -18.61168128237666, -29.093107407513468, 12.650875489966664, 45.95409468693104, 6.584069752436205, 15.310520582688632, 3.3010052476937024, -1.3610518037375494, -126.44005107920012, -3.236113497402381, 7.688219392546077, 74.58290447829597, -2.2942787587897047, 3.728160878542381, 7.372068681433027, 34.181760118709384, -29.469031807091014, 33.17204698855774, 0.23069650691114546, -4.00725966630687, 13.414654668272393, -15.150469842252388, 13.070799682698402, -23.577679641568363, -18.460416834597407, -38.615826375307854, 1.787625514890521, -8.88245017304519, -19.378283818100165, 3.261580601495695, -7.994105416214868, 32.68902796049153, -6.748434053250559, 6.081172293771003, -1.5619091661977564, 6.182875244605253, 0.15705410983714782, -4.5548855317620225, 11.075615540224, 0.853185397936642, 11.671730501352553, 14.931231043188879, 15.235797173374124, -6.157100230940056, -32.18598045390999, -2.194218659607345, -33.15184013569118], [-33.705765011391584, 15.747033048735423, -16.409261911259712, -63.691986664905826, -6.860279604777401, 6.134660427874064, 18.015097189953124, -41.03478046050928, 7.271462254064528, 2.04396620904145, -2.3294681463715325, -102.54846892618413, 7.222818157295391, 16.146829579289367, 26.796054396480013, 0.8123201526094447, -0.4786150459093, -1.0614474727982703, 25.659854919141633, -28.442415073195395, 3.9647022317516263, -17.839899252146907, 6.369869951473507, 17.521515305732443, -7.703632388299589, 18.866932592512015, 44.457852735299234, 1.5706093797340062, -47.8936792217474, 12.551556205450872, -11.611932536291238, -19.90637638678481, -5.4822581613787005, 1.0912338284581673, 54.174692377902915, 1.0149619616875076, -9.967722395614997, 10.425086050455391, -10.130928674963595, -0.278892264821572, -36.8715934514106, -14.817901434700595, 2.167235464794873, 16.23261767156008, 7.329024618979978, 15.416496492876755, -4.709683829926188, -28.589695108548195, -10.131710616382358, -31.79010001679446]], "3": [[14.626818798465337], [42.6881258927282], [15.226614376858867], [43.365484916102304], [0.4698671909795346], [-8.451782810765419], [-6.187392991886395], [-31.44996341865185], [5.300361372387263], [23.57693397520184], [40.70453075236188], [34.343533035753836], [-10.188818400101837], [-4.773512657733317], [2.6888306492666354], [-1.2326359442382415], [-4.6145522291789], [-25.912621743153384], [16.953192002923107], [-6.578220169780875], [-0.06571143337280085], [41.61710844977724], [7.314724926822579], [-10.558860916492234], [5.355810344820634], [-10.265287157639415], [57.1849671925787], [-2.8378874778816146], [-38.30024336995652], [-40.821879669758424], [-14.200612169606174], [34.10427700533662], [10.613612106666812], [-12.817897154998214], [38.864923758589235], [-13.383697209211991], [-13.026994722948622], [-5.759050105111865], [-58.75845096994654], [-13.610545529014306], [1.4125311667898115], [0.11257447768684553], [14.731003551346207], [-18.032281568669706], [5.407713518803115], [0.1831071002700771], [13.396650380262887], [-9.422123876583552], [-11.265257858627049], [-6.6987036138992755], [-35.152694544847314]]}}, "fingerprints_range": {"Cu": [[0.7355979085179102, 15.55743075082518], [0.17208454571200024, 15.824610224206179], [0.2647337529778042, 9.728035574767311], [0.048289987224936715, 9.183520039100534], [0.08998943476157976, 6.543651351035633], [0.013116604377678287, 5.901293632153394], [0.011086319621036456, 3.4322011143730915], [0.0009677208042695254, 3.058089253340858], [2.8105378597217076e-05, 0.7186722153281908], [3.886297579508524e-07, 0.7702142399843445], [1.0530964208036616e-09, 0.06459500411004929], [8.495312182045297e-13, 0.09579851951537856], [1.4696933730671603e-18, 0.0005969806159118927], [4.059438105570023e-24, 0.0014999082499671163], [0.50034203926832, 586.0279136978755], [2.8969921783012786, 1339.0774553779588], [0.0, 680.2199829665379], [0.623397651130686, 430.46949002501225], [2.2581612173512284, 933.9576344679633], [0.11622805422127631, 505.84680013293473], [0.18504763958633103, 428.8432803118022], [1.7871978465575518, 999.1121607682313], [0.0, 497.0153279237612], [0.21809387928730953, 273.284856638939], [1.3209770091224067, 593.9923398582351], [0.06881080565862441, 322.6421450901536], [0.020560848842925673, 287.61510794586883], [0.799631268139842, 694.3948342368042], [0.0, 333.734781480117], [0.03697254301515187, 160.4359473839458], [0.665959989982916, 348.9904146530375], [0.004300675351054025, 189.85900104165898]], "Pd": [[0.17208454571200046, 15.82461022420618], [0.7355978047404241, 15.557430750825183], [0.04828998722493681, 9.183520039100532], [0.2647337529778042, 9.72803557476731], [0.01311660437767832, 5.901293632153396], [0.08998943476157976, 6.543651351035635], [0.000967720804269529, 3.058089253340857], [0.011086319621036456, 3.4322011143730906], [3.8862975795085565e-07, 0.770214239984344], [2.8105378597217076e-05, 0.7186722153281916], [8.495312182045429e-13, 0.09579851951537853], [1.0530949854903416e-09, 0.06459500411004933], [4.059438105570144e-24, 0.0014999082499671157], [1.469689571940093e-18, 0.0005969806159118931], [0.0, 680.2199829665362], [2.8969921783012804, 1339.0774553779634], [0.50034203926832, 586.0279136978755], [0.11622805422127645, 505.8468001329346], [2.2581612173512298, 933.9576344679631], [0.6233975439578614, 430.46949002501225], [0.0, 497.01532792376423], [1.7871978465575515, 999.1121607682309], [0.18504763958633114, 428.8432803118022], [0.06881080565862441, 322.6421450901558], [1.3209770091224076, 593.9923398582329], [0.21809382696856305, 273.284856638939], [0.0, 333.73478148011566], [0.799631268139842, 694.3948342368044], [0.020560848842925677, 287.61510794586883], [0.004300675351054025, 189.85900104165927], [0.6659599899829165, 348.9904146530362], [0.03697252924305966, 160.4359473839458]]}, "fingerprints_tag": 1, "scalings": {"Cu": {"intercept": 4.2303153747632196, "slope": 21.847598795688366}, "Pd": {"intercept": 4.2286712906875001, "slope": 0.86315228666378652}}}