{"cutoff": 6.5, "Gs": {"Pd": [{"eta": 0.05, "type": "G2", "element": "Cu"}, {"eta": 0.05, "type": "G2", "element": "Pd"}, {"eta": 4.0, "type": "G2", "element": "Cu"}, {"eta": 4.0, "type": "G2", "element": "Pd"}, {"eta": 20.0, "type": "G2", "element": "Cu"}, {"eta": 20.0, "type": "G2", "element": "Pd"}, {"eta": 80.0, "type": "G2", "element": "Cu"}, {"eta": 80.0, "type": "G2", "element": "Pd"}, {"zeta": 1.0, "elements": ["Cu", "Cu"], "type": "G4", "gamma": 1.0, "eta": 0.005}, {"zeta": 1.0, "elements": ["Cu", "Pd"], "type": "G4", "gamma": 1.0, "eta": 0.005}, {"zeta": 1.0, "elements": ["Pd", "Pd"], "type": "G4", "gamma": 1.0, "eta": 0.005}, {"zeta": 1.0, "elements": ["Cu", "Cu"], "type": "G4", "gamma": -1.0, "eta": 0.005}, {"zeta": 1.0, "elements": ["Cu", "Pd"], "type": "G4", "gamma": -1.0, "eta": 0.005}, {"zeta": 1.0, "elements": ["Pd", "Pd"], "type": "G4", "gamma": -1.0, "eta": 0.005}, {"zeta": 4.0, "elements": ["Cu", "Cu"], "type": "G4", "gamma": 1.0, "eta": 0.005}, {"zeta": 4.0, "elements": ["Cu", "Pd"], "type": "G4", "gamma": 1.0, "eta": 0.005}, {"zeta": 4.0, "elements": ["Pd", "Pd"], "type": "G4", "gamma": 1.0, "eta": 0.005}, {"zeta": 4.0, "elements": ["Cu", "Cu"], "type": "G4", "gamma": -1.0, "eta": 0.005}, {"zeta": 4.0, "elements": ["Cu", "Pd"], "type": "G4", "gamma": -1.0, "eta": 0.005}, {"zeta": 4.0, "elements": ["Pd", "Pd"], "type": "G4", "gamma": -1.0, "eta": 0.005}], "Cu": [{"eta": 0.05, "type": "G2", "element": "Cu"}, {"eta": 0.05, "type": "G2", "element": "Pd"}, {"eta": 4.0, "type": "G2", "element": "Cu"}, {"eta": 4.0, "type": "G2", "element": "Pd"}, {"eta": 20.0, "type": "G2", "element": "Cu"}, {"eta": 20.0, "type": "G2", "element": "Pd"}, {"eta": 80.0, "type": "G2", "element": "Cu"}, {"eta": 80.0, "type": "G2", "element": "Pd"}, {"zeta": 1.0, "elements": ["Cu", "Cu"], "type": "G4", "gamma": 1.0, "eta": 0.005}, {"zeta": 1.0, "elements": ["Cu", "Pd"], "type": "G4", "gamma": 1.0, "eta": 0.005}, {"zeta": 1.0, "elements": ["Pd", "Pd"], "type": "G4", "gamma": 1.0, "eta": 0.005}, {"zeta": 1.0, "elements": ["Cu", "Cu"], "type": "G4", "gamma": -1.0, "eta": 0.005}, {"zeta": 1.0, "elements": ["Cu", "Pd"], "type": "G4", "gamma": -1.0, "eta": 0.005}, {"zeta": 1.0, "elements": ["Pd", "Pd"], "type": "G4", "gamma": -1.0, "eta": 0.005}, {"zeta": 4.0, "elements": ["Cu", "Cu"], "type": "G4", "gamma": 1.0, "eta": 0.005}, {"zeta": 4.0, "elements": ["Cu", "Pd"], "type": "G4", "gamma": 1.0, "eta": 0.005}, {"zeta": 4.0, "elements": ["Pd", "Pd"], "type": "G4", "gamma": 1.0, "eta": 0.005}, {"zeta": 4.0, "elements": ["Cu", "Cu"], "type": "G4", "gamma": -1.0, "eta": 0.005}, {"zeta": 4.0, "elements": ["Cu", "Pd"], "type": "G4", "gamma": -1.0, "eta": 0.005}, {"zeta": 4.0, "elements": ["Pd", "Pd"], "type": "G4", "gamma": -1.0, "eta": 0.005}]}, "activation": "tanh", "hiddenlayers": {"Pd": [2, 30], "Cu": [2, 30]}, "weights": {"Cu": {"1": [[0.060404050152083485, 0.0012485245641364467], [0.037569466883730446, 0.02351141097348121], [0.0679641373687639, 0.011584324711325034], [0.038648824747269134, -0.02813039440984222], [0.035651957944843965, 0.06823381381266634], [-0.050680575481559485, 0.07230416230822494], [-0.033528043754806267, 0.06067252336345695], [0.055258610054265286, -0.042846190024869106], [0.06827382069727671, -0.046189614160979955], [0.03073448675350228, 0.06315690209463763], [0.010757671520249437, 0.06301958129691147], [-0.025182960366282155, 0.04835374498316941], [-0.030817344336146364, 0.056872824472755004], [0.007257542343581877, -0.039330859363319086], [0.03229798527374672, 0.0012634617306508389], [0.028521346843307607, -0.04701721414233969], [-0.006247589594176775, 0.06643428444755438], [0.07164046840201653, -0.05702741888640005], [0.014577403812811598, 0.07174282153536664], [-0.0728410676578264, -0.06049728157445469], [0.0, 0.0]], "2": [[-0.26175803988405233, -0.30938261149853286, -0.1264575122008058, -0.4880024622608716, 0.21275999415481262, -0.5585973274590482, 0.34481553374035245, -0.09240800689893636, -0.6687513734537325, 0.7004720522741423, -0.19506665848251137, 0.46261967966087036, 0.16190448687656733, 0.017917982795291998, -0.385869867371995, 0.27510770042583377, 0.4044778379539009, -0.02182292819819276, 0.12226572160789972, -0.27435906725696185, -0.1873176060824897, -0.01970572159630557, 0.2502357470125882, -0.6006492319099554, 0.18679660133328269, 0.5533258992495405, 0.6455826414128749, 0.4926039873720991, 0.34945528589661734, 0.31100022320323206], [0.5021201515832572, -0.35499589149311717, 0.34811317128021235, 0.2897134969777835, 0.6732883417997888, 0.6339586300259943, 0.6711302433535675, -0.41240509989057056, -0.2874662692512139, -0.5520433540747218, 0.3723758269185151, -0.6804950031450732, 0.34975081125133745, 0.7139737657757663, 0.6402318221173515, -0.027225663232300912, -0.3928681521180129, -0.5535100390865687, -0.49414628754843853, 0.5974309018049686, -0.39841843507281405, -0.09255539574356175, 0.3637634688034288, 0.44286524448883857, 0.6609218800004963, -0.2104387885320409, 0.5666614404872383, -0.6396672409352906, -0.42316058985531, -0.10641789609293684], [0.0, 0.0, 0.0, 0.0, 0.0, 0.0, 0.0, 0.0, 0.0, 0.0, 0.0, 0.0, 0.0, 0.0, 0.0, 0.0, 0.0, 0.0, 0.0, 0.0, 0.0, 0.0, 0.0, 0.0, 0.0, 0.0, 0.0, 0.0, 0.0, 0.0]], "3": [[-0.04472101394560432], [-0.04662899101817528], [-0.04869116980069563], [-0.04606390789229323], [0.011638804476580646], [0.037799091238630025], [0.03793443242432486], [-0.00811044049519323], [-0.036940264947186385], [-0.047992402058810196], [-0.03650571801712954], [-0.018779965645691246], [0.03802336781300707], [-0.021932413007256304], [-0.03529797615157964], [0.027453207385949127], [-0.00797953047207943], [0.033864413588121464], [-0.035458566499425616], [-0.023541822031042305], [0.0025620143688956792], [-0.014053263984158529], [0.0252932377864256], [-0.047710524687937274], [0.047596695606949554], [0.04311838858461586], [-0.04132486071165057], [0.027767258214159346], [-0.03233039516842302], [-0.01029708316642449], [0.0]]}, "Pd": {"1": [[-0.03722777881549777, 0.05826923123679194], [-0.07055390051039222, -0.003436830661477902], [0.01460965750282972, -0.049836031498029884], [-0.03862223932814514, -0.06631073043899646], [0.020446950920121817, -0.037704790027965014], [0.019418709143750823, -0.03651815176093153], [0.013909686648744396, 0.01967242056427887], [0.03499192835763375, 0.05280639038118877], [-0.034106079394596575, 0.027988306146792333], [0.000809032361255152, -0.03560823312860603], [-0.043499693708196584, -0.009336033568226543], [0.021837843555435527, 0.051274789851726996], [0.05696844700643268, 0.06444394069303656], [-0.026004894580472844, -0.033536137320926473], [0.030501104462317727, -0.008877649156251194], [-0.005754667770055857, 0.05257014387833982], [0.04733499548369721, -0.045000792626590264], [-0.006054128298225617, 0.06941264636128448], [-0.016913145125369893, 0.026434071489734992], [-0.01869927822077888, 0.020217789310370382], [0.0, 0.0]], "2": [[0.3836702515448225, 0.6113450588918794, 0.30638551484874577, -0.08211141553729373, 0.31184984150193573, -0.7037945011901816, 0.3175597718607148, 0.2712938892582488, -0.5254294243235795, -0.1670638474114161, 0.6595325821799367, -0.4476931631316555, -0.4544900018637455, -0.09999847211513968, -0.11638680348251174, 0.3901828275360364, -0.22920885864729956, 0.11700021737976596, -0.15588144414071614, 0.2872100934061943, -0.2899370407522851, -0.509657674699961, 0.47594179224282973, -0.5283292583851233, 0.049228113717615596, 0.5325674894146004, 0.6827900867492689, -0.5594350610490022, 0.4328853519610314, 0.4770451046621671], [0.5319769507290566, -0.3099304956065845, 0.004569410895702397, -0.5566755170772912, 0.43877511787580636, -0.3882163310788468, -0.5469800186464568, -0.5803642930729553, -0.6927318890263479, 0.5770662998570835, -0.7427214744310429, 0.18884720577221137, 0.07748711375252804, 0.07422954015440242, 0.2723259497279582, 0.217487776349363, 0.12810538139886574, 0.6596789981515041, 0.7296374982459328, -0.0656412185772346, -0.6606058001968937, 0.20582093022188797, -0.2036046600790452, 0.06663082023377676, 0.6093049972220934, -0.5235341540048595, 0.7331331317038059, 0.313411635777884, 0.3435276704809298, -0.3635024072402657], [0.0, 0.0, 0.0, 0.0, 0.0, 0.0, 0.0, 0.0, 0.0, 0.0, 0.0, 0.0, 0.0, 0.0, 0.0, 0.0, 0.0, 0.0, 0.0, 0.0, 0.0, 0.0, 0.0, 0.0, 0.0, 0.0, 0.0, 0.0, 0.0, 0.0]], "3": [[0.04323362659470313], [-0.032469268936125104], [0.041538594698939446], [-0.03155021160957515], [-0.03733363226531932], [0.03813662710657727], [-0.021717951266580705], [-0.0030173565131208294], [0.01244068854779877], [0.04717746281983218], [0.038310871861211696], [-0.0293871360625941], [-0.017750157019187494], [0.03742244230942189], [-0.013845314833766824], [0.013978496441153482], [-0.00577244291040193], [0.040515892414581395], [0.017868819353210233], [0.040968046183045725], [0.031075307923216097], [0.037299949311229375], [0.020860258819236102], [0.005028846231967574], [0.03285422775282516], [-0.04761196801199067], [0.041526082010654095], [-0.02689132711640694], [0.0365172738866124], [-0.030738318429347367], [0.0]]}}, "fingerprints_range": {"Cu": [[0.0, 19.717528184980367], [0.0, 12.954617486692312], [0.0, 6.763827902345048], [0.0, 4.714947330374815], [0.0, 0.4690986508436296], [0.0, 0.3591942437989357], [0.0, 8.091157146993111e-05], [0.0, 6.70824590060896e-05], [0.0, 801.3693395965696], [0.0, 185.39781543928953], [0.0, 380.6581764033588], [0.0, 607.2663840318448], [0.0, 231.76903839707245], [0.0, 221.42076155225536], [0.0, 382.67810433385426], [0.0, 75.1704048127164], [0.0, 198.3503394287148], [0.0, 226.15041328755734], [0.0, 104.68820018085577], [0.0, 69.90910953322468]], "Pd": [[0.0, 12.8624897130153], [0.0, 18.849230862512158], [0.0, 4.565811427008994], [0.0, 6.436073106044743], [0.0, 0.31261700513528473], [0.0, 0.42485844093709624], [0.0, 5.453323564168128e-05], [0.0, 5.963922275121878e-05], [0.0, 387.63611918126753], [0.0, 201.06082384923803], [0.0, 768.9373797173059], [0.0, 216.01123836799178], [0.0, 234.91303084909833], [0.0, 579.7588665624862], [0.0, 204.69128069561307], [0.0, 81.20809618623912], [0.0, 368.92772219112385], [0.0, 65.71501674010052], [0.0, 106.06324624063065], [0.0, 215.963130891552]]}, "fingerprints_tag": 1, "scalings": {"Pd": {"slope": 1.0564404855714289, "intercept": -4.603714649857143}, "Cu": {"slope": 1.0564404855714289, "intercept": -4.603714649857143}}}