{"cutoff": 6.5, "Gs": {"Pd": [{"eta": 0.05, "type": "G2", "element": "Cu"}, {"eta": 0.05, "type": "G2", "element": "Pd"}, {"eta": 4.0, "type": "G2", "element": "Cu"}, {"eta": 4.0, "type": "G2", "element": "Pd"}, {"eta": 20.0, "type": "G2", "element": "Cu"}, {"eta": 20.0, "type": "G2", "element": "Pd"}, {"eta": 80.0, "type": "G2", "element": "Cu"}, {"eta": 80.0, "type": "G2", "element": "Pd"}, {"zeta": 1.0, "elements": ["Cu", "Cu"], "type": "G4", "gamma": 1.0, "eta": 0.005}, {"zeta": 1.0, "elements": ["Cu", "Pd"], "type": "G4", "gamma": 1.0, "eta": 0.005}, {"zeta": 1.0, "elements": ["Pd", "Pd"], "type": "G4", "gamma": 1.0, "eta": 0.005}, {"zeta": 1.0, "elements": ["Cu", "Cu"], "type": "G4", "gamma": -1.0, "eta": 0.005}, {"zeta": 1.0, "elements": ["Cu", "Pd"], "type": "G4", "gamma": -1.0, "eta": 0.005}, {"zeta": 1.0, "elements": ["Pd", "Pd"], "type": "G4", "gamma": -1.0, "eta": 0.005}, {"zeta": 4.0, "elements": ["Cu", "Cu"], "type": "G4", "gamma": 1.0, "eta": 0.005}, {"zeta": 4.0, "elements": ["Cu", "Pd"], "type": "G4", "gamma": 1.0, "eta": 0.005}, {"zeta": 4.0, "elements": ["Pd", "Pd"], "type": "G4", "gamma": 1.0, "eta": 0.005}, {"zeta": 4.0, "elements": ["Cu", "Cu"], "type": "G4", "gamma": -1.0, "eta": 0.005}, {"zeta": 4.0, "elements": ["Cu", "Pd"], "type": "G4", "gamma": -1.0, "eta": 0.005}, {"zeta": 4.0, "elements": ["Pd", "Pd"], "type": "G4", "gamma": -1.0, "eta": 0.005}], "Cu": [{"eta": 0.05, "type": "G2", "element": "Cu"}, {"eta": 0.05, "type": "G2", "element": "Pd"}, {"eta": 4.0, "type": "G2", "element": "Cu"}, {"eta": 4.0, "type": "G2", "element": "Pd"}, {"eta": 20.0, "type": "G2", "element": "Cu"}, {"eta": 20.0, "type": "G2", "element": "Pd"}, {"eta": 80.0, "type": "G2", "element": "Cu"}, {"eta": 80.0, "type": "G2", "element": "Pd"}, {"zeta": 1.0, "elements": ["Cu", "Cu"], "type": "G4", "gamma": 1.0, "eta": 0.005}, {"zeta": 1.0, "elements": ["Cu", "Pd"], "type": "G4", "gamma": 1.0, "eta": 0.005}, {"zeta": 1.0, "elements": ["Pd", "Pd"], "type": "G4", "gamma": 1.0, "eta": 0.005}, {"zeta": 1.0, "elements": ["Cu", "Cu"], "type": "G4", "gamma": -1.0, "eta": 0.005}, {"zeta": 1.0, "elements": ["Cu", "Pd"], "type": "G4", "gamma": -1.0, "eta": 0.005}, {"zeta": 1.0, "elements": ["Pd", "Pd"], "type": "G4", "gamma": -1.0, "eta": 0.005}, {"zeta": 4.0, "elements": ["Cu", "Cu"], "type": "G4", "gamma": 1.0, "eta": 0.005}, {"zeta": 4.0, "elements": ["Cu", "Pd"], "type": "G4", "gamma": 1.0, "eta": 0.005}, {"zeta": 4.0, "elements": ["Pd", "Pd"], "type": "G4", "gamma": 1.0, "eta": 0.005}, {"zeta": 4.0, "elements": ["Cu", "Cu"], "type": "G4", "gamma": -1.0, "eta": 0.005}, {"zeta": 4.0, "elements": ["Cu", "Pd"], "type": "G4", "gamma": -1.0, "eta": 0.005}, {"zeta": 4.0, "elements": ["Pd", "Pd"], "type": "G4", "gamma": -1.0, "eta": 0.005}]}, "activation": "tanh", "hiddenlayers": {"Pd": [2, 30], "Cu": [2, 30]}, "weights": {"Cu": {"1": [[-1.2175484385519577, 1.7881219248029718], [-2.913981449466564, 1.399122055467263], [-3.6997874636558636, -3.022152271356312], [-1.7335699657866104, -2.6315368106041253], [1.7768098500114995, 1.475587031817974], [1.3889605573381518, 1.8206639887281044], [-0.2519179402016428, -0.3884114646232783], [-0.5313164565362085, -0.9173062076618212], [7.3566532272187075, -24.608002423304217], [5.944426248655027, -2.555830628153313], [19.987139558812654, -1.4391022235605018], [-2.2384277094115714, 24.560341188613993], [-3.9875115428170003, 6.0367980339544705], [-4.989833138910345, 5.085692221177773], [-4.0627936072812165, 12.542419648730831], [-2.9094239320475666, 0.9541658372325226], [-13.183103631702652, 0.3691600595924974], [-0.9735350152163211, -12.13417451045451], [0.5081410826199594, -4.271393950685334], [0.19158549714071935, -3.3996035280164407], [-2.231566877030441, 0.45729159528417546]], "2": [[5.001045195175744, -1.3600177278682224, 0.8507790615263051, 0.3107336533186035, -0.27930772383153024, -5.203244307653154, 4.812447453524937, -0.4128084143581011, 0.03915981131345425, 4.236580853053684, 1.760547103059034, -1.165967818242392, 0.36315036124488875, 3.903468280253809, -2.920896690322603, -1.653384178988445, 4.757930993065226, -0.8848782323212122, -4.157516039402867, -0.5036376547696925, -0.18117577269850846, 0.3063089307097953, 5.16069140224293, 2.565302352656105, 2.601745122341602, -0.6171967014648839, 3.2515477669843906, -3.1193324024160143, -1.2537680981345627, 1.24688659526215], [-1.682576235447251, -0.8324704207570116, -2.4494954766437576, -5.2274052644406295, -13.605842887834202, -6.631190554071842, -5.270072732397951, 0.4899458093918699, -1.559376683934937, -4.412443220833952, -3.9490241709013496, 2.864840165045587, 1.960715384513706, -4.171274494225757, 3.6921630355127433, 1.7654685003582684, -3.5471088643183513, -1.1293039856981357, -0.1388385914437231, 4.321982358358762, 0.03177327831323273, 0.16982982588364037, -1.878728116211285, -4.136823332540916, 2.960461893763928, 0.9653530750437188, 4.256933600358389, 2.950746146725482, 4.698670520390926, -4.859881083449872], [4.2313757261344005, -8.298065153720048, 1.9863466193969792, 2.171277457130321, 4.8433641396642075, -0.9494270463978961, 3.1999539040036233, -4.3567441992796025, -1.1852011727778553, 1.557204460708739, 0.6433026246117685, -2.0630614751899627, 0.9398446521839017, 1.4077190052430235, -0.9780184451793346, -1.7496901579273934, 5.424652526808755, -0.8962955258636003, -5.328304988443796, -1.6531808725003168, -2.0231543632088727, -0.6238606312777172, 3.8888352302284654, 0.7628575544690542, 4.295358179723642, 1.3011345221889978, 0.5652821725988032, -4.640656163510294, 0.3312988360392032, -0.2841859210570555]], "3": [[1.1831657998064957], [-4.726983394099232], [-2.480557457474279], [0.6416389463858307], [0.01562104658639297], [-0.4439637650246183], [0.23976919823556528], [4.197385285648434], [-0.3266806066413877], [1.9727831190223055], [1.0120506001611538], [-2.0370852696372848], [0.7105397931097331], [-2.9188686635368493], [-1.9569554269767473], [2.2588439212282228], [1.5172425289360159], [0.3664231357052068], [2.1276050859541384], [1.2653653499995643], [-2.9650470265670092], [-2.0353779146822557], [-0.635673466159058], [-1.1808023870962983], [0.06552341346486464], [-3.145600976349132], [-0.5745810802195055], [0.43224843775933586], [-2.3938680083012094], [-2.5989093486480828], [0.5672310239983996]]}, "Pd": {"1": [[-0.5194449579090753, 0.4953627663735991], [-2.005048484535358, 1.8436046126199928], [-1.6361414317339367, 1.5362175689625661], [-0.7960831855579716, 0.9727178222210597], [0.5370770624382394, -0.5336255269586085], [0.3206869465207957, -0.4667344188490924], [0.01783924187287053, 0.012831300151340819], [0.357727868081219, -0.11701954579886938], [3.2033488851516307, -0.832335276327154], [-3.343401891341719, 4.078203011471407], [-23.2025690100958, 25.24874026267415], [-0.06442727330030186, -1.897927979652093], [6.320136462872096, -7.5773904837520325], [24.78779007131104, -27.835376376402596], [-2.493576265020758, 1.1701668037781319], [1.4017937778456682, -1.7236760692140178], [12.170734075991238, -13.007532298590288], [-0.43585691782589664, 1.1862927789594795], [-4.3441007545196255, 5.177288182275471], [-13.535841785585133, 15.227333845431756], [-0.6938600047978425, -0.3465524109014792]], "2": [[0.2590847552803777, -1.419805426384031, -1.3185215886097539, 3.594557838478321, -6.668768384911365, 2.597498569317765, -7.034518548176545, -4.903719427089306, 4.1618404909356785, 0.6309159508685115, -5.3885830240069525, 1.4028690381571511, -2.030777161509222, -1.39079745314799, -1.9588225458282864, 4.45247762892524, -0.2398705887335408, -0.11130878440047601, -2.090374335444015, -0.8566324198161015, 1.8494606038237384, 0.8018545093449654, -0.20036928173302895, -3.159267291442517, -0.36557753632794765, -7.235504286758307, 11.466214743209068, -1.5756974020737393, 4.462655703703212, 2.2193424137594766], [-0.40458254177037867, -7.935454649802707, -1.7794410217213203, 0.027613769047234258, -3.9848560081297584, -6.336427328856192, -10.397526898159992, -1.541594518485199, 8.619223826509348, 1.614140952536243, -9.088406677912403, 2.5720810779831416, -3.8603324227791838, 3.0099376211046205, -0.29358437906545776, 5.251991787695974, 0.44711359739750844, -1.147021598749185, -0.7617919188864483, -3.664200040859402, 4.717179041927855, -0.9618254628146893, -1.174564199748227, -4.615199403688537, -2.8987720058986195, 4.528406785913386, 6.408228729492782, 3.960796086842904, 0.4282579425647243, 1.2378830659201598], [-2.268660603324765, -4.007317207994475, 0.3008191902128544, -0.007548429311288582, -1.6691729085853249, -2.7235045894358323, -1.3763784391064178, -2.2212295922261216, 3.7672773444501133, -2.202301438061237, -4.692286362524452, 0.08108953106925587, -0.12250781501465276, 0.6993998315125379, -5.145149996879623, 1.9418405492027127, 0.46991648053105434, 0.7313727865541184, -3.0223432847602703, -0.601454301819998, 2.3581860071924834, 4.110028913335965, -0.05922623704943577, -3.076658717434517, -2.398148091605654, 0.08288850524478662, 9.754775403030836, 2.7796078810769616, 3.053121173094946, 2.623020843772954]], "3": [[-2.8109062134214304], [-1.0412261763870199], [-0.264279479020106], [1.3914581826803214], [-0.3618593006827489], [-0.6790247970483811], [-0.7754655313629392], [-0.48507497639413116], [3.418890287467564], [-2.5526979320602767], [3.9594398962828308], [0.3625966560364538], [7.480407462540658], [-2.870377570505899], [1.3647199379229116], [4.534335656927821], [1.611452296468536], [-1.4677372819467809], [3.992390489705798], [1.1995623623852216], [2.4573619920187815], [-2.3207418948562424], [-0.9630267968386799], [1.6107380264274231], [-0.11273021536422248], [-0.35923484836601166], [6.908532201940311], [1.3644617349588088], [-1.5739456904240052], [-1.0458991630573873], [-4.832312662634425]]}}, "fingerprints_range": {"Cu": [[0.0, 19.717528184980367], [0.0, 12.954617486692312], [0.0, 6.763827902345048], [0.0, 4.714947330374815], [0.0, 0.4690986508436296], [0.0, 0.3591942437989357], [0.0, 8.091157146993111e-05], [0.0, 6.70824590060896e-05], [0.0, 801.3693395965696], [0.0, 185.39781543928953], [0.0, 380.6581764033588], [0.0, 607.2663840318448], [0.0, 231.76903839707245], [0.0, 221.42076155225536], [0.0, 382.67810433385426], [0.0, 75.1704048127164], [0.0, 198.3503394287148], [0.0, 226.15041328755734], [0.0, 104.68820018085577], [0.0, 69.90910953322468]], "Pd": [[0.0, 12.8624897130153], [0.0, 18.849230862512158], [0.0, 4.565811427008994], [0.0, 6.436073106044743], [0.0, 0.31261700513528473], [0.0, 0.42485844093709624], [0.0, 5.453323564168128e-05], [0.0, 5.963922275121878e-05], [0.0, 387.63611918126753], [0.0, 201.06082384923803], [0.0, 768.9373797173059], [0.0, 216.01123836799178], [0.0, 234.91303084909833], [0.0, 579.7588665624862], [0.0, 204.69128069561307], [0.0, 81.20809618623912], [0.0, 368.92772219112385], [0.0, 65.71501674010052], [0.0, 106.06324624063065], [0.0, 215.963130891552]]}, "fingerprints_tag": 1, "scalings": {"Cu": {"intercept": -3.9390937579249785, "slope": 1.9808869921981087}, "Pd": {"intercept": -1.5780567365141176, "slope": 4.4031337260789503}}}