{"cutoff": 6.5, "Gs": {"Pd": [{"eta": 0.05, "type": "G2", "element": "Cu"}, {"eta": 0.05, "type": "G2", "element": "Pd"}, {"eta": 4.0, "type": "G2", "element": "Cu"}, {"eta": 4.0, "type": "G2", "element": "Pd"}, {"eta": 20.0, "type": "G2", "element": "Cu"}, {"eta": 20.0, "type": "G2", "element": "Pd"}, {"eta": 80.0, "type": "G2", "element": "Cu"}, {"eta": 80.0, "type": "G2", "element": "Pd"}, {"zeta": 1.0, "elements": ["Cu", "Cu"], "type": "G4", "gamma": 1.0, "eta": 0.005}, {"zeta": 1.0, "elements": ["Cu", "Pd"], "type": "G4", "gamma": 1.0, "eta": 0.005}, {"zeta": 1.0, "elements": ["Pd", "Pd"], "type": "G4", "gamma": 1.0, "eta": 0.005}, {"zeta": 1.0, "elements": ["Cu", "Cu"], "type": "G4", "gamma": -1.0, "eta": 0.005}, {"zeta": 1.0, "elements": ["Cu", "Pd"], "type": "G4", "gamma": -1.0, "eta": 0.005}, {"zeta": 1.0, "elements": ["Pd", "Pd"], "type": "G4", "gamma": -1.0, "eta": 0.005}, {"zeta": 4.0, "elements": ["Cu", "Cu"], "type": "G4", "gamma": 1.0, "eta": 0.005}, {"zeta": 4.0, "elements": ["Cu", "Pd"], "type": "G4", "gamma": 1.0, "eta": 0.005}, {"zeta": 4.0, "elements": ["Pd", "Pd"], "type": "G4", "gamma": 1.0, "eta": 0.005}, {"zeta": 4.0, "elements": ["Cu", "Cu"], "type": "G4", "gamma": -1.0, "eta": 0.005}, {"zeta": 4.0, "elements": ["Cu", "Pd"], "type": "G4", "gamma": -1.0, "eta": 0.005}, {"zeta": 4.0, "elements": ["Pd", "Pd"], "type": "G4", "gamma": -1.0, "eta": 0.005}], "Cu": [{"eta": 0.05, "type": "G2", "element": "Cu"}, {"eta": 0.05, "type": "G2", "element": "Pd"}, {"eta": 4.0, "type": "G2", "element": "Cu"}, {"eta": 4.0, "type": "G2", "element": "Pd"}, {"eta": 20.0, "type": "G2", "element": "Cu"}, {"eta": 20.0, "type": "G2", "element": "Pd"}, {"eta": 80.0, "type": "G2", "element": "Cu"}, {"eta": 80.0, "type": "G2", "element": "Pd"}, {"zeta": 1.0, "elements": ["Cu", "Cu"], "type": "G4", "gamma": 1.0, "eta": 0.005}, {"zeta": 1.0, "elements": ["Cu", "Pd"], "type": "G4", "gamma": 1.0, "eta": 0.005}, {"zeta": 1.0, "elements": ["Pd", "Pd"], "type": "G4", "gamma": 1.0, "eta": 0.005}, {"zeta": 1.0, "elements": ["Cu", "Cu"], "type": "G4", "gamma": -1.0, "eta": 0.005}, {"zeta": 1.0, "elements": ["Cu", "Pd"], "type": "G4", "gamma": -1.0, "eta": 0.005}, {"zeta": 1.0, "elements": ["Pd", "Pd"], "type": "G4", "gamma": -1.0, "eta": 0.005}, {"zeta": 4.0, "elements": ["Cu", "Cu"], "type": "G4", "gamma": 1.0, "eta": 0.005}, {"zeta": 4.0, "elements": ["Cu", "Pd"], "type": "G4", "gamma": 1.0, "eta": 0.005}, {"zeta": 4.0, "elements": ["Pd", "Pd"], "type": "G4", "gamma": 1.0, "eta": 0.005}, {"zeta": 4.0, "elements": ["Cu", "Cu"], "type": "G4", "gamma": -1.0, "eta": 0.005}, {"zeta": 4.0, "elements": ["Cu", "Pd"], "type": "G4", "gamma": -1.0, "eta": 0.005}, {"zeta": 4.0, "elements": ["Pd", "Pd"], "type": "G4", "gamma": -1.0, "eta": 0.005}]}, "activation": "tanh", "hiddenlayers": {"Pd": [2, 40], "Cu": [2, 40]}, "weights": {"Cu": {"1": [[-0.02551188416559603, 0.06777139107161469], [0.05685833853371024, 0.06659643058295288], [0.028605113456650608, -0.05775196515297172], [-0.07294481477577354, 0.07141937270119557], [-0.025207084401106687, 0.01913757725003641], [0.06902612811340837, 0.07381526642654844], [0.019202138712880013, 0.06693668551559355], [0.023932896454280414, 0.021084804113765093], [-0.017044207066869196, -0.06391815991401557], [0.039070892651766734, 0.07030157504519823], [0.042267318320541994, -0.024972704770191402], [0.041884632103101935, 0.045789330384514354], [-0.04105041084044099, -0.02269999846945834], [-0.0553155225161447, 0.054975979317198345], [0.030368375401545245, -0.03904283330472128], [0.03182936575904824, 0.059703568731155995], [-0.04613845764609077, -0.012683671072283978], [0.05925301260471848, 0.07336454881721137], [0.03710924606064671, 0.012125456196456996], [0.04319882478736363, -0.06398217559868212], [0.0, 0.0]], "2": [[0.5160894169074792, 0.15196549368513224, -0.3821060070215547, -0.6370433646720575, 0.1650240270186294, -0.2360361632024729, 0.6751280357070837, 0.285690595687182, -0.006017031418479868, -0.014964152302626044, -0.3730025681648405, -0.00426310579158351, -0.40087465374851583, -0.7433227246406583, -0.33479412491335775, 0.2198508483923367, -0.6568732274665277, -0.1493306286335273, -0.6339403626479494, 0.29582507435213357, 0.14825533974384997, 0.5798675773841495, -0.5656793010672814, 0.3533701464550534, 0.47683152080529356, 0.14343569712834447, -0.4078010875948897, 0.3480418343089222, -0.2596598463728331, -0.5053183997786124, -0.15996001169927532, 0.029305631383908404, -0.27405055784236576, 0.352160853278203, -0.5183976192055136, -0.38688195729533637, -0.6129503035224253, -0.49551781725304517, 0.6728915711846213, -0.4808886807183938], [-0.5926334144604989, 0.13869444663388508, -0.04271067010910268, 0.16282422846103595, -0.6269312079068653, 0.5759014048727464, -0.477547339748815, -0.2928716855926846, 0.4778792002132375, -0.11975720987588745, 0.2229311382274829, -0.5964610371016585, 0.018572839627975846, 0.1772573190651825, -0.08438400809175128, 0.6158351625127334, 0.13439438173535323, -0.36673372000814214, 0.7276426115888373, 0.5800287169596352, 0.20890601360514305, -0.6247931800358317, 0.4864253207362055, 0.303615636101632, 0.2533089854263486, -0.19772354970622175, -0.17208295454075118, -0.5583364750587935, 0.34354073468723123, -0.25076729445959695, -0.5550145657619519, -0.36575106915605904, -0.21883146891832883, 0.37282619140579687, 0.40317001021951815, -0.1314783099325023, -0.15646536991825555, 0.13151358544612157, -0.5466911244501484, 0.15333676382031158], [0.0, 0.0, 0.0, 0.0, 0.0, 0.0, 0.0, 0.0, 0.0, 0.0, 0.0, 0.0, 0.0, 0.0, 0.0, 0.0, 0.0, 0.0, 0.0, 0.0, 0.0, 0.0, 0.0, 0.0, 0.0, 0.0, 0.0, 0.0, 0.0, 0.0, 0.0, 0.0, 0.0, 0.0, 0.0, 0.0, 0.0, 0.0, 0.0, 0.0]], "3": [[0.01540015177902554], [0.01593043355800535], [0.01279456459272621], [0.033770487411978446], [-0.028432649350958225], [0.01629361123398676], [0.014228625698881073], [0.022403079191438108], [-0.012812087952904085], [-0.011733389159807671], [-0.012310292977095218], [0.023569909586500196], [-0.02549339263081272], [-0.016791437693995902], [0.0066881473124462895], [0.03347807204096092], [-0.0043795493193489535], [0.017208094126197594], [0.015388455484576853], [-0.03217837799588499], [0.034615781652265344], [-0.0077903932331592415], [-0.02286484352925689], [0.03697865886332572], [-0.005275284953127735], [0.021411442816614508], [-0.020811402614997462], [0.01255035265859198], [0.00067063178032091], [-0.009462178245454284], [-0.012547895510873642], [0.03431570597723569], [0.0007182519952397826], [0.03234638646507005], [0.012143139347485399], [0.017058142096240167], [-0.003688361743289355], [-0.037106954162156904], [-0.027933586030089688], [-0.02031290756232518], [0.0]]}, "Pd": {"1": [[-0.05422832206316028, 0.0648422851436823], [-0.04194621258119739, 0.042292106866739676], [-0.0370592969821635, -0.030171148016066386], [-0.05833200145098591, -0.019903591765061193], [0.054986431448910814, -0.04010963668858121], [-0.06437303746190216, -0.06248935970512551], [-0.013141327073561242, 0.05035496400155333], [-0.011718168310631077, 0.05087697096180345], [-0.033057024938433585, 0.05781470528715872], [0.004658146427216847, -0.05675367813516394], [0.033380725000322575, -0.0740946721243032], [0.05867707779179081, -0.07132557833081941], [0.06210540976175129, -0.04701692295380126], [0.05366457142060012, -0.02936664248233322], [0.07354513039400333, -0.015541582647873961], [-0.033195268824353884, -0.01952702944923676], [-0.017247688353200154, 0.07091972423808747], [-0.04204991157191568, -0.0068368894465163366], [-0.06992314761907906, -0.00947325626384124], [-0.07218576434940996, -0.02218611007001483], [0.0, 0.0]], "2": [[-0.5553422598452217, -0.4124037426479251, -0.4399470915366763, -0.45397623068819964, 0.5180540454938856, -0.27654982793474414, -0.28093692878084897, 0.18629898809964995, 0.1047849838315631, 0.36440220356612874, 0.34193973381734555, 0.38913444299940125, 0.3671363764438562, 0.2676286408321573, 0.04502726929571155, -0.04675553562553003, 0.054684859949677644, 0.2860943518329415, 0.04060042158554422, -0.5891900650381747, 0.2996726748324876, 0.4854566585472089, 0.6387032860831297, 0.26306666104512644, 0.2429722692713825, 0.6046093547627978, -0.7320514769941463, 0.13125865768172318, -0.4188481641984384, -0.7493657757667773, -0.7261467659845371, -0.027855403243110644, 0.23164883067826703, 0.3973710279871592, -0.5847953907464212, 0.37912551453083676, -0.4369893371952147, 0.3387803624539725, -0.4041925839576637, -0.17561625406098003], [-0.4476618984873086, 0.3386400899221025, 0.32295595214596196, 0.5853391555699563, 0.5784259563202037, -0.6660560153710166, -0.20463156646135294, -0.35829440666181656, -0.24308629740205867, 0.2206812325922336, -0.5007207967466571, 0.25029343384430547, 0.23442404810892592, -0.48779530406174015, -0.39174076203372354, -0.2339563036222604, 0.2501433706197358, 0.4058906459494409, 0.5134536651791424, -0.6189567874338522, -0.5254183576434845, 0.29351399297288583, 0.5363759264086503, 0.06570138438954531, 0.22140496466600756, 0.17983516701642377, -0.5625555985640757, 0.16789964007683156, 0.29246870578074224, 0.4024016265047685, 0.4572921529691567, -0.43832114069436195, 0.34365785134179294, -0.5553528784857179, 0.7296315021383479, -0.7197541785612184, -0.25096530464027544, 0.08701358120857661, -0.3793247123872336, 0.5283383808051418], [0.0, 0.0, 0.0, 0.0, 0.0, 0.0, 0.0, 0.0, 0.0, 0.0, 0.0, 0.0, 0.0, 0.0, 0.0, 0.0, 0.0, 0.0, 0.0, 0.0, 0.0, 0.0, 0.0, 0.0, 0.0, 0.0, 0.0, 0.0, 0.0, 0.0, 0.0, 0.0, 0.0, 0.0, 0.0, 0.0, 0.0, 0.0, 0.0, 0.0]], "3": [[-0.03734416715803427], [-0.007678761612210181], [0.025026573530550426], [0.011471482407748042], [0.00526189445888503], [-0.011990730922867236], [-0.0073948693872742735], [0.006791574277358402], [0.029867515977601393], [0.03538856980975074], [-0.005637290846007642], [-0.0229842932771614], [-0.0018458255105669452], [0.02606222680890532], [0.0044999619925060325], [0.017397770051269676], [-0.013500678093323937], [-0.029074645954552412], [0.0022298019697877536], [-0.012271824861695226], [-0.030811836509625486], [-0.03737937209512292], [-0.011151048794141596], [0.03572940361862766], [0.03584530939651954], [0.022093038269322796], [-0.03612117670077949], [-0.03456816176435553], [-0.007533018959891339], [-0.03154766934411003], [0.034036371169716105], [-0.02264205888607454], [-0.028714682937183583], [-0.007924631771167659], [0.0012455348430044783], [-0.005681332393832429], [0.019256244695949616], [-0.0045048080166690055], [-0.01711863379870356], [0.00037490368809774133], [0.0]]}}, "fingerprints_range": {"Cu": [[0.0, 19.717528184980367], [0.0, 12.954617486692312], [0.0, 6.763827902345048], [0.0, 4.714947330374815], [0.0, 0.4690986508436296], [0.0, 0.3591942437989357], [0.0, 8.091157146993111e-05], [0.0, 6.70824590060896e-05], [0.0, 801.3693395965696], [0.0, 185.39781543928953], [0.0, 380.6581764033588], [0.0, 607.2663840318448], [0.0, 231.76903839707245], [0.0, 221.42076155225536], [0.0, 382.67810433385426], [0.0, 75.1704048127164], [0.0, 198.3503394287148], [0.0, 226.15041328755734], [0.0, 104.68820018085577], [0.0, 69.90910953322468]], "Pd": [[0.0, 12.8624897130153], [0.0, 18.849230862512158], [0.0, 4.565811427008994], [0.0, 6.436073106044743], [0.0, 0.31261700513528473], [0.0, 0.42485844093709624], [0.0, 5.453323564168128e-05], [0.0, 5.963922275121878e-05], [0.0, 387.63611918126753], [0.0, 201.06082384923803], [0.0, 768.9373797173059], [0.0, 216.01123836799178], [0.0, 234.91303084909833], [0.0, 579.7588665624862], [0.0, 204.69128069561307], [0.0, 81.20809618623912], [0.0, 368.92772219112385], [0.0, 65.71501674010052], [0.0, 106.06324624063065], [0.0, 215.963130891552]]}, "fingerprints_tag": 1, "scalings": {"Pd": {"slope": 1.0564404855714289, "intercept": -4.603714649857143}, "Cu": {"slope": 1.0564404855714289, "intercept": -4.603714649857143}}}