{"cutoff": 6.5, "Gs": {"Pd": [{"eta": 0.05, "type": "G2", "element": "Cu"}, {"eta": 0.05, "type": "G2", "element": "Pd"}, {"eta": 4.0, "type": "G2", "element": "Cu"}, {"eta": 4.0, "type": "G2", "element": "Pd"}, {"eta": 20.0, "type": "G2", "element": "Cu"}, {"eta": 20.0, "type": "G2", "element": "Pd"}, {"eta": 80.0, "type": "G2", "element": "Cu"}, {"eta": 80.0, "type": "G2", "element": "Pd"}, {"zeta": 1.0, "elements": ["Cu", "Cu"], "type": "G4", "gamma": 1.0, "eta": 0.005}, {"zeta": 1.0, "elements": ["Cu", "Pd"], "type": "G4", "gamma": 1.0, "eta": 0.005}, {"zeta": 1.0, "elements": ["Pd", "Pd"], "type": "G4", "gamma": 1.0, "eta": 0.005}, {"zeta": 1.0, "elements": ["Cu", "Cu"], "type": "G4", "gamma": -1.0, "eta": 0.005}, {"zeta": 1.0, "elements": ["Cu", "Pd"], "type": "G4", "gamma": -1.0, "eta": 0.005}, {"zeta": 1.0, "elements": ["Pd", "Pd"], "type": "G4", "gamma": -1.0, "eta": 0.005}, {"zeta": 4.0, "elements": ["Cu", "Cu"], "type": "G4", "gamma": 1.0, "eta": 0.005}, {"zeta": 4.0, "elements": ["Cu", "Pd"], "type": "G4", "gamma": 1.0, "eta": 0.005}, {"zeta": 4.0, "elements": ["Pd", "Pd"], "type": "G4", "gamma": 1.0, "eta": 0.005}, {"zeta": 4.0, "elements": ["Cu", "Cu"], "type": "G4", "gamma": -1.0, "eta": 0.005}, {"zeta": 4.0, "elements": ["Cu", "Pd"], "type": "G4", "gamma": -1.0, "eta": 0.005}, {"zeta": 4.0, "elements": ["Pd", "Pd"], "type": "G4", "gamma": -1.0, "eta": 0.005}], "Cu": [{"eta": 0.05, "type": "G2", "element": "Cu"}, {"eta": 0.05, "type": "G2", "element": "Pd"}, {"eta": 4.0, "type": "G2", "element": "Cu"}, {"eta": 4.0, "type": "G2", "element": "Pd"}, {"eta": 20.0, "type": "G2", "element": "Cu"}, {"eta": 20.0, "type": "G2", "element": "Pd"}, {"eta": 80.0, "type": "G2", "element": "Cu"}, {"eta": 80.0, "type": "G2", "element": "Pd"}, {"zeta": 1.0, "elements": ["Cu", "Cu"], "type": "G4", "gamma": 1.0, "eta": 0.005}, {"zeta": 1.0, "elements": ["Cu", "Pd"], "type": "G4", "gamma": 1.0, "eta": 0.005}, {"zeta": 1.0, "elements": ["Pd", "Pd"], "type": "G4", "gamma": 1.0, "eta": 0.005}, {"zeta": 1.0, "elements": ["Cu", "Cu"], "type": "G4", "gamma": -1.0, "eta": 0.005}, {"zeta": 1.0, "elements": ["Cu", "Pd"], "type": "G4", "gamma": -1.0, "eta": 0.005}, {"zeta": 1.0, "elements": ["Pd", "Pd"], "type": "G4", "gamma": -1.0, "eta": 0.005}, {"zeta": 4.0, "elements": ["Cu", "Cu"], "type": "G4", "gamma": 1.0, "eta": 0.005}, {"zeta": 4.0, "elements": ["Cu", "Pd"], "type": "G4", "gamma": 1.0, "eta": 0.005}, {"zeta": 4.0, "elements": ["Pd", "Pd"], "type": "G4", "gamma": 1.0, "eta": 0.005}, {"zeta": 4.0, "elements": ["Cu", "Cu"], "type": "G4", "gamma": -1.0, "eta": 0.005}, {"zeta": 4.0, "elements": ["Cu", "Pd"], "type": "G4", "gamma": -1.0, "eta": 0.005}, {"zeta": 4.0, "elements": ["Pd", "Pd"], "type": "G4", "gamma": -1.0, "eta": 0.005}]}, "activation": "tanh", "hiddenlayers": {"Pd": [3, 40], "Cu": [3, 40]}, "weights": {"Cu": {"1": [[-4.810442469270545, 1.0712715947686413, 0.05029288883202287], [-6.073557732173451, 1.2085891390307024, 0.5602518318630134], [2.0771413852976086, -0.6570566401735956, 0.051146394872191095], [3.4938535994459556, 0.37812687391098826, 0.12741732263920993], [-3.1683340024151785, -0.500653479060706, -0.23567480289558207], [-3.221717570202158, -0.3782970111732358, -0.16802713965888358], [2.4467477795446557, 0.3758663838661635, 0.011677507461831578], [2.8436043247560536, -1.178995476482386, 0.08015789844277198], [46.261515017519024, 49.70321734768129, 4.992593300168803], [93.12746864906828, 123.84932713640453, 10.976869580781026], [60.486537403301234, 69.37892627315611, 4.0632056943180865], [-40.92647482120485, -48.141169977124015, -9.355548895998934], [-51.36507805019332, -107.48849491751875, -17.1676820741339], [-22.65704325381248, -63.161922408969254, -9.828270457789946], [-26.081838724209412, -27.81572502993087, -3.3000187271206705], [-45.26303603926115, -69.39973145841981, -5.436214872866951], [-25.59785528447984, -35.100374298623265, -1.195419049581664], [26.12637688814008, 26.662549157550128, 7.169459551248445], [20.26201651829529, 53.98225850778812, 12.81793743912731], [-5.062308677617605, 28.329929067933588, 5.881893566798406], [21.94440741453506, 1.4879900007663338, 2.0568619674475683]], "2": [[0.4077375005867493, 48.02565922924708, 76.24293641822526, -7.162583555600351, -4.211565884738369, 1.7108782020950455, 0.9990849105235696, 100.36265274039896, -5.810105374009429, 3.6200005317035, 10.78166716845682, -4.046067170368417, 75.90080974885532, -41.910383167391245, 4.5519215166311415, -0.7266046806711974, 9.970625096590412, -11.094291517170502, -6.684330234890726, 0.6861026965748431, 10.07237526988128, -24.928370320001925, -0.3031025129581796, -33.10244845878633, 0.7990198286527171, 124.3009682989044, -141.05589174742587, 0.6597091401304304, -47.25939680789474, 141.93102496537878, -18.53609961406243, -24.12534025771771, 13.800453437743654, -3.391331702861252, 150.64070504800262, -5.147168215162831, -22.99734684821811, -4.306867740685348, 0.9803294034917908, 10.200496312428228], [-2.235084813268667, 21.260086026771162, -6.6786086269850005, -6.867693152770297, 17.065311072983416, 3.9320086695301364, 26.645761795945837, -3.697860157617365, -19.32110764539722, -1.2757127206111465, 21.63298607915497, 1.9030452189009401, 38.308576040819375, -2.4927497286395646, -11.732996870382411, -9.948432311649034, -1.8857932152787513, 18.908691845484956, 11.701777110613088, 9.816089347891266, 8.458635309000393, 28.042788516952164, -6.8215633536238, -28.262859065976972, 3.9197598292948386, 9.6162270809334, -53.285886842097625, 1.9044779297647596, -20.225713613671893, 32.6566417260074, -5.366703329565709, -2.963184234654067, -45.77136291074921, 3.1797218654782284, 73.15229562270109, 10.8686017607614, -11.114928276001931, 11.092944432628883, 5.688471795526058, 3.666018409225466], [-51.49554951103624, 36.10704924101426, 74.20478136960894, 79.88147094076385, -25.798458692567035, -87.40764958024087, -30.282463389977462, -58.3020624361531, 67.51356202502377, 48.43347250930847, 6.949301638587503, 29.290298594826194, 37.81612883951918, 43.27152582218326, -37.2015091072484, 44.38690860719081, -33.70970002447236, -21.159006449002558, -7.9205044547709305, -45.05850776936672, 3.375810135231314, -135.8769471552863, 32.061771519861416, -30.07046832877328, -45.42124732999095, -13.456858854149727, -23.046398433060883, -46.74615834314829, 146.5638222255807, 95.35975137523515, 2.448659264300384, 36.12066801378346, 1.337242713407885, 70.14244059356379, 5.654118189053652, 38.06425601973088, -14.086044727162303, -29.402392608070258, -1.2142315177945713, -4.638383736724183], [48.71795823317064, 8.291755149880565, -11.845737230165968, -78.01695786621586, 14.52435396472516, 80.8025303166383, 0.26352494175568103, 131.40820749128864, -56.98181766844683, -51.221650183898895, -4.816835349748212, -27.564456842162816, 50.40392346581581, 1.494959726354204, 44.50877856097392, -34.71346166925655, 19.01651111702443, 21.562439830057038, 1.3550405127166028, 35.447645990035426, -0.24226817342544008, 128.60795883626716, -29.09689575701874, -30.796516909909492, 41.72569297825527, 91.78943869279699, -28.094438877600176, 44.34301815706867, -77.27290899163444, -22.53644606652805, -26.958895761804136, -59.39432005678508, 26.857726788094155, -69.35489684196526, 34.21499151273917, -45.29353226794348, -1.539926254540835, 20.761788770150332, -7.5302811584533975, 12.901111707652035]], "3": [[-3.9657411035112413], [-77.96642851422669], [-24.043586104780708], [-0.748966110109984], [-2.4215832575528915], [-1.0881403491714057], [-20.070204974163918], [41.51255760481426], [-0.10414587659719732], [6.820242106615644], [-65.40644273921782], [3.1653531419972545], [70.56015201897443], [0.8074621054083724], [-2.8008502727406617], [-14.078728543918427], [11.103316951827246], [-1.570965669326407], [-1.0263924019415973], [-14.154161491019796], [1.0945525914531276], [0.10120649506168841], [6.171117262037561], [-2.4320114863617355], [-4.383747923831541], [-68.4797993237271], [-14.202795676407668], [3.297060983075212], [-0.578059205702511], [49.97331209594071], [-21.515144899537205], [-71.44841469497462], [-6.761366558034011], [-4.3805844632704], [-13.522488604330915], [0.45463241858729403], [-1.800114256802739], [-1.3690731772333273], [20.629084474407307], [-10.974027427776443], [3.9794048233018895]]}, "Pd": {"1": [[3.28448523104679, 0.2886437715272386, 1.9499240406465184], [6.6814949391731515, 0.0703867220745866, 2.1308975540651645], [-3.3753896512886965, -0.1269527018157606, -0.8455929205489207], [-5.276135734416395, -0.047788604026054685, -0.5290852298597075], [-1.4570606346142114, 0.04393116099859107, 0.006738589954401458], [0.28501410309435193, -0.009362699024647396, -0.05122091552429681], [0.48652097171441183, -0.2148235898892693, -0.6102611691036833], [-0.5220186007320012, -0.23067221550187766, -0.6308091026069138], [74.1448286084849, -0.06218258020263364, 17.43164459092156], [-21.724085450365312, -0.4852630453308505, 31.582135960361303], [-105.42077207599192, -0.3976353516110996, 11.730662974205986], [-149.03450575546117, -3.110128707013113, -27.318556294151115], [-33.55358427682052, -3.1175900081058923, -44.71310667460775], [102.71779963866426, -0.6940858424563405, -16.581634723103797], [-42.06208650405467, 0.27744076594951705, -9.569839333721411], [15.080229741853278, 0.6762540850458569, -16.825248330579807], [55.48699489052247, 0.1902048685762767, -5.305756174827899], [113.15020610681802, 2.6188931844936434, 19.552808479247375], [48.351403678338755, 3.1224717276297946, 29.55970111470042], [-55.01043637113118, 0.7689632015439357, 9.88067185007582], [-1.9905150165576628, -0.3423696281930789, -1.292039520194609]], "2": [[-0.8549134267605887, 1.438162911324766, 1.849488046046394, -1.2644289632041201, -1.2605276105888312, -8.0852899058231, -0.35276021876631375, -0.04493293090892041, -1.677214526038188, 0.16893053545072878, 1.101176036202, -1.3708877891625246, 0.03683759104604153, 4.18616348099489, 0.9853233698762404, -1.1960939986616337, 3.995498181524252, -0.2685712586442231, -7.008127403691858, -1.033590013007574, -0.4229226606183695, 4.131507817495191, 0.9263539902970659, 1.4955985541684775, 0.21079554179021323, 0.2651236976820841, -1.4255367494524134, -6.941909850424395, -0.3992478115877102, 0.6979650506915495, 2.5480643936979246, -5.584256735322811, 6.925803334233138, 0.07759736984137491, 3.350355556949372, 0.2134256294548115, -0.14137218433969542, 0.629459270854403, 1.8236552703414517, 0.2728309874539092], [8.145644739782183, -0.43545194678008387, 5.35680120633395, -5.3278377559298224, 0.9646904534910573, -22.237165116780968, -3.323489712312935, -3.245709867796682, -4.56778191534729, -1.9663558148235716, 4.978764596338002, -15.093428141291298, -2.6568084716212494, 4.70550669625609, -12.091953669605482, 0.14135929413945414, 4.251128526228435, -3.9661574205894032, -23.434757528608472, 1.1263733350475622, 5.7150725092148384, -4.6472651645241925, 3.244932681026525, 3.1229890031741716, 5.608494036509299, 5.148798316041872, -1.0439984472997776, -5.714420240537405, 3.36481274537655, 4.596240168827073, 2.87169332961655, -12.254304136424269, 6.671298709773869, -4.580902272365086, -3.4197283711320687, -12.05044905917292, 6.0436094508499885, 12.933715156230681, -1.4902250938736576, -5.833930172504092], [-3.2664123774594613, 1.8745661072976865, -3.4067717503212527, 2.3683057140094417, -0.8099278911540309, 2.7617748937985525, -1.6139759249015584, -3.106277076471781, 2.4683051585460287, -0.9307661003538685, -2.6545174136372207, 2.399409421360176, -0.2122693062450737, -2.9799402631256604, -1.0536029085048808, -5.49387095684924, -1.8853778110681585, 0.529209343823274, 6.501577510950704, -3.0184596146836333, -2.422881690862076, -8.49988670063551, 4.074485057753315, 1.7561928893733854, 1.4513229562343883, 2.116854048798725, 1.165398347569949, 1.160495352007731, 6.2619038342987245, -3.1204469950744853, -1.2873892308935069, 2.717622701073361, -5.79748194510179, 2.6869981053093346, -7.6274015580034416, -2.974953187274758, -2.2777022146660992, -3.3518359534824773, 1.6861699681635682, 3.74632659391475], [-1.77689083000961, 1.7449384815355833, 4.499857228462206, 0.30562701112846613, -0.8105126125136839, -13.044067854139376, 3.9706124545289314, 3.1167839653985334, 1.0282462732830553, 1.2621909295451996, 1.343120760388292, 1.0161454401006496, -1.2115831019287366, 1.4240841209507564, 4.48133210987639, 3.670030136734777, 3.301200195418317, -0.7955244623222574, -15.007757112305091, 1.7919793915490332, -0.339416501326038, 1.179934731059124, -1.9539698254181346, 1.3925660743754833, -0.28440146896010576, -0.8660387552105413, 0.5967864426657553, -6.290030183287994, 5.260196299933889, 1.8886833875378766, 2.384571761180485, -6.854111618496138, 0.9636303837651735, -2.0355592717205377, -5.075040198803369, -6.870960388152062, 3.1487010629308854, -1.2721225075063054, 1.915788809095129, -4.273943529825758]], "3": [[0.6655464438918776], [-3.480795671799304], [2.714641161434094], [0.1473190248448872], [-2.1189336712477815], [-10.58285642444478], [-0.017935091872021882], [-0.7532124207895872], [-0.7167378750870361], [2.339337312815225], [-0.40840687734150133], [0.015567103551839384], [3.1945497972610624], [-0.1446051722496345], [0.4792610700779746], [0.08865304349693766], [0.9613601116663738], [-1.5096633050055384], [-2.063069454738832], [-0.28338222822205383], [1.1372653147316711], [0.007369627211304657], [0.12699149340977328], [2.043131071613243], [-0.7499320372112369], [0.612484274067778], [0.8285539659231459], [-0.3605980953034006], [-0.33068426596106776], [0.7735676770447717], [-3.318274018180096], [2.167545489957508], [-0.02987065195749022], [0.6936401817088484], [-1.5535593477073804], [10.196544508352492], [0.8677526608046376], [-0.3776673346753572], [1.6282897389137105], [1.2578205557340896], [-2.0174536118711]]}}, "fingerprints_range": {"Cu": [[0.1063750548408017, 15.55743075082518], [0.028202539821623157, 15.824610224206179], [0.0039475029562834815, 6.543651351035633], [0.0009775685586746502, 5.901293632153394], [6.336097831506945e-09, 0.7186722153281908], [1.190287988056906e-09, 0.7702142399843445], [1.1815297550357418e-30, 0.0005969806159118927], [7.875808503354093e-32, 0.0014999082499671163], [0.14542638955905765, 586.0279136978755], [1.0639431752062123, 1339.0774553779588], [-2.1232459816643144e-18, 680.2199829665379], [0.21753575331713212, 430.46949002501225], [0.7672793241028637, 933.9576344679633], [0.01912449962367862, 505.84680013293473], [0.009653362355969163, 287.61510794586883], [0.3377739380614941, 694.3948342368042], [0.0, 333.734781480117], [0.03697254301515187, 160.4359473839458], [0.23682355773155236, 348.9904146530375], [0.0018168617087065356, 189.85900104165898]], "Pd": [[0.028202539821623157, 15.82461022420618], [0.1063750548408017, 15.557430750825183], [0.0009775685586746502, 5.901293632153396], [0.0039475029562834815, 6.543651351035635], [1.190287988056906e-09, 0.770214239984344], [6.336097831506945e-09, 0.7186722153281916], [7.875808503354093e-32, 0.0014999082499671157], [1.1815297550357418e-30, 0.0005969806159118931], [-2.1232459816643144e-18, 680.2199829665362], [1.0639431752062118, 1339.0774553779634], [0.14542638955905765, 586.0279136978755], [0.01912449962367862, 505.8468001329346], [0.7672793241028637, 933.9576344679631], [0.21753575331713212, 430.46949002501225], [0.0, 333.73478148011566], [0.33777393806149464, 694.3948342368044], [0.009653362355969173, 287.61510794586883], [0.0018168617087065421, 189.85900104165927], [0.23682355773155245, 348.9904146530362], [0.03697252924305966, 160.4359473839458]]}, "fingerprints_tag": 1, "scalings": {"Cu": {"intercept": -2.6534424778966286, "slope": 3.8754557443974402}, "Pd": {"intercept": -2.6533487045990292, "slope": 7.7232441935241409}}}