{"cutoff": 6.5, "Gs": {"Pd": [{"eta": 0.05, "type": "G2", "element": "Cu"}, {"eta": 0.05, "type": "G2", "element": "Pd"}, {"eta": 4.0, "type": "G2", "element": "Cu"}, {"eta": 4.0, "type": "G2", "element": "Pd"}, {"eta": 20.0, "type": "G2", "element": "Cu"}, {"eta": 20.0, "type": "G2", "element": "Pd"}, {"eta": 80.0, "type": "G2", "element": "Cu"}, {"eta": 80.0, "type": "G2", "element": "Pd"}, {"zeta": 1.0, "elements": ["Cu", "Cu"], "type": "G4", "gamma": 1.0, "eta": 0.005}, {"zeta": 1.0, "elements": ["Cu", "Pd"], "type": "G4", "gamma": 1.0, "eta": 0.005}, {"zeta": 1.0, "elements": ["Pd", "Pd"], "type": "G4", "gamma": 1.0, "eta": 0.005}, {"zeta": 1.0, "elements": ["Cu", "Cu"], "type": "G4", "gamma": -1.0, "eta": 0.005}, {"zeta": 1.0, "elements": ["Cu", "Pd"], "type": "G4", "gamma": -1.0, "eta": 0.005}, {"zeta": 1.0, "elements": ["Pd", "Pd"], "type": "G4", "gamma": -1.0, "eta": 0.005}, {"zeta": 4.0, "elements": ["Cu", "Cu"], "type": "G4", "gamma": 1.0, "eta": 0.005}, {"zeta": 4.0, "elements": ["Cu", "Pd"], "type": "G4", "gamma": 1.0, "eta": 0.005}, {"zeta": 4.0, "elements": ["Pd", "Pd"], "type": "G4", "gamma": 1.0, "eta": 0.005}, {"zeta": 4.0, "elements": ["Cu", "Cu"], "type": "G4", "gamma": -1.0, "eta": 0.005}, {"zeta": 4.0, "elements": ["Cu", "Pd"], "type": "G4", "gamma": -1.0, "eta": 0.005}, {"zeta": 4.0, "elements": ["Pd", "Pd"], "type": "G4", "gamma": -1.0, "eta": 0.005}], "Cu": [{"eta": 0.05, "type": "G2", "element": "Cu"}, {"eta": 0.05, "type": "G2", "element": "Pd"}, {"eta": 4.0, "type": "G2", "element": "Cu"}, {"eta": 4.0, "type": "G2", "element": "Pd"}, {"eta": 20.0, "type": "G2", "element": "Cu"}, {"eta": 20.0, "type": "G2", "element": "Pd"}, {"eta": 80.0, "type": "G2", "element": "Cu"}, {"eta": 80.0, "type": "G2", "element": "Pd"}, {"zeta": 1.0, "elements": ["Cu", "Cu"], "type": "G4", "gamma": 1.0, "eta": 0.005}, {"zeta": 1.0, "elements": ["Cu", "Pd"], "type": "G4", "gamma": 1.0, "eta": 0.005}, {"zeta": 1.0, "elements": ["Pd", "Pd"], "type": "G4", "gamma": 1.0, "eta": 0.005}, {"zeta": 1.0, "elements": ["Cu", "Cu"], "type": "G4", "gamma": -1.0, "eta": 0.005}, {"zeta": 1.0, "elements": ["Cu", "Pd"], "type": "G4", "gamma": -1.0, "eta": 0.005}, {"zeta": 1.0, "elements": ["Pd", "Pd"], "type": "G4", "gamma": -1.0, "eta": 0.005}, {"zeta": 4.0, "elements": ["Cu", "Cu"], "type": "G4", "gamma": 1.0, "eta": 0.005}, {"zeta": 4.0, "elements": ["Cu", "Pd"], "type": "G4", "gamma": 1.0, "eta": 0.005}, {"zeta": 4.0, "elements": ["Pd", "Pd"], "type": "G4", "gamma": 1.0, "eta": 0.005}, {"zeta": 4.0, "elements": ["Cu", "Cu"], "type": "G4", "gamma": -1.0, "eta": 0.005}, {"zeta": 4.0, "elements": ["Cu", "Pd"], "type": "G4", "gamma": -1.0, "eta": 0.005}, {"zeta": 4.0, "elements": ["Pd", "Pd"], "type": "G4", "gamma": -1.0, "eta": 0.005}]}, "activation": "tanh", "hiddenlayers": {"Pd": [2, 35], "Cu": [2, 35]}, "weights": {"Cu": {"1": [[-0.047119574476350956, -0.030224072287975315], [0.019655455342409298, -0.039944249333760576], [-0.03705299331538054, -0.022874881557064637], [-0.02187724138916862, -0.0463049857909159], [0.03988933762716952, -0.02134520080014774], [0.0009615730840414616, 0.0355226852111729], [0.06984690444462009, 0.010188559130753533], [-0.0749036971211293, 0.017744799654576954], [-0.048737267390568044, -0.0006218003930257288], [-0.003761428669006181, -0.06499983714670789], [-0.007481050282611396, 0.002271693246699652], [-0.017390129875873607, -0.07100429034557847], [-0.039285018557051396, 0.026192379565766116], [-0.020623541449915052, -0.03008897452656928], [-0.040849900645597244, 0.0007378926553672088], [-0.05757587367382988, -0.016232610437560822], [0.0664649450330461, 0.05781988065132858], [-0.034427670757250874, -0.01524177825359073], [-0.009727619383457287, -0.07330317491885699], [-0.015815984375990577, 0.03811869359406815], [0.0, 0.0]], "2": [[0.4443059041199138, -0.6987231131929542, 0.5872858738562048, 0.4308991241309157, 0.5714913324700346, 0.05938577262093814, 0.1476060114770117, -0.4575999401176658, 0.1337149738690162, 0.20506242703274147, 0.018647407649154735, -0.421405068886813, -0.7073527960555098, 0.30443634497156147, 0.40097085391978826, 0.6821582335871414, -0.29821188955328387, 0.6553418904059876, -0.22592190778044052, -0.230577907841246, -0.0035755152218849284, 0.4951902273756412, -0.36879105251975514, -0.20311923975972868, -0.18711087462455855, 0.538954052829665, 0.6243692848089735, 0.6572865674793809, -0.16618857479685012, -0.4907536168120118, 0.6781463617588803, -0.24647418228595108, 0.49877130445788675, -0.24765282166799596, -0.2663629721104949], [-0.7433355137352291, 0.4166545572347411, 0.6778680882405677, 0.1683474404312011, -0.21935250262748773, -0.03289135469061466, 0.08180939704447054, 0.6054334075975065, 0.24911851210143365, 0.6456474697679913, -0.6811044586665799, 0.18392099330690748, 0.1351270043700249, -0.598247212639449, -0.5385814844505894, -0.24222696133737953, 0.29269671548578335, 0.5904340430257935, -0.27952203481536236, -0.14886091724624473, -0.6680817627421055, -0.2650960923360257, -0.45078229007158604, 0.12021742522593926, -0.6881967337608395, 0.18872713862611512, 0.4033382628285467, 0.14825646244725132, 0.26488647908735485, 0.7088643374234129, 0.008013315880968985, 0.6260116003191187, -0.15579331326803292, -0.2623859273976603, -0.39532234668093663], [0.0, 0.0, 0.0, 0.0, 0.0, 0.0, 0.0, 0.0, 0.0, 0.0, 0.0, 0.0, 0.0, 0.0, 0.0, 0.0, 0.0, 0.0, 0.0, 0.0, 0.0, 0.0, 0.0, 0.0, 0.0, 0.0, 0.0, 0.0, 0.0, 0.0, 0.0, 0.0, 0.0, 0.0, 0.0]], "3": [[0.04114952089540376], [-0.019603899486998772], [-0.022765577694903193], [-0.02518854393597141], [-0.009263100927103862], [-0.027677716693281004], [0.024212996937053408], [0.021699954909903216], [0.026921908495996752], [-0.033835359183061145], [-0.022473765693045426], [0.011780713599661062], [-0.010420171725884352], [-0.007517830494825926], [0.027535006508994278], [0.016216043619265166], [-0.009803613542730148], [-0.01265543833949357], [0.039200919811281085], [-0.03164230638422569], [0.04057916210188567], [-0.030418992844188964], [-0.013812005308093095], [-0.011436427574668326], [-0.03085091526870333], [0.021022454409397498], [0.014671234803536312], [0.010348461106604832], [0.014653963292463962], [-0.008423027632312778], [-0.02331474808403198], [0.0034874074977831807], [0.022063931739945003], [-0.029187872929424277], [-0.012080792725750005], [0.0]]}, "Pd": {"1": [[0.004753539945373836, 0.020003629591009528], [-0.03716732229807994, -0.009632813836404214], [0.012436561235535368, -0.04365075438113806], [0.05435504540861853, 0.015418437094051662], [0.025724717055686658, -0.00773675202176978], [0.03736880038825369, 0.007326083910489389], [-0.02179459741332225, -0.0022354485737416108], [0.021399969174420747, 0.04082653892529241], [-0.008951152213798455, 0.016115068539151026], [0.04853307313632679, -0.05118198538148482], [0.01903791085465867, -0.039331510820056675], [0.010783075878784285, -0.02572020416835156], [0.04180280032389558, -0.03924661827359958], [-0.04471137326950966, 0.026251915542328544], [0.013351811192651969, 0.04146474441873017], [-0.07147815083606675, 0.0041742293327261815], [0.04836430504719676, -0.03134010428921151], [-0.05295575613315179, -0.03270003113095186], [-0.008757228114902732, -0.007429114300151141], [0.025717409762065102, 0.00777020060429065], [0.0, 0.0]], "2": [[0.4901792680306567, 0.4949082057102274, 0.7402127913801002, -0.4332659100995932, -0.12490193799619509, 0.6596807216952765, -0.10614193185674414, -0.03550591443260731, 0.0441238818451728, -0.7482002143536672, -0.5042057667998885, 0.25304043819843813, -0.06826234031997447, 0.42153269517484193, 0.538296308867527, -0.45928717172257855, -0.14568264086104343, 0.33236367389472243, -0.12339736888528363, -0.2686593457104153, 0.5917997688987777, -0.5239796358494329, -0.31967730552000884, -0.2700916466054548, 0.13022142303432527, -0.13332012454233055, 0.2339270529059314, -0.19056339597466376, -0.5283001390518142, -0.6597840055136449, 0.637527143778208, 0.689895810629102, 0.629478270743423, -0.5180374150747116, 0.7197203548782221], [0.4767391089743893, 0.29860217245002385, -0.13128235720454628, 0.13818629162900575, 0.06653937667996401, -0.018961854915413356, -0.7477001916529129, -0.36245813835414115, 0.5458635594954742, 0.0577766117332732, 0.2957121631107835, -0.11599397185212323, 0.6044300863916514, -0.5036414719594927, 0.3070771506595469, -0.1334923900456383, -0.3034158296999814, -0.6094094928642724, 0.43092786146652395, 0.11576746019916628, 0.2653027323659749, 0.6465978361073179, -0.022162791595553677, -0.01604710344283866, -0.6053663135975055, -0.3665231341524683, 0.7220583734294341, 0.7078071036486664, 0.12910463696182328, -0.3660921216877386, -0.5724879332342101, -0.6068173246951365, 0.10913947562841075, 0.6204354619624957, 0.47731802189836126], [0.0, 0.0, 0.0, 0.0, 0.0, 0.0, 0.0, 0.0, 0.0, 0.0, 0.0, 0.0, 0.0, 0.0, 0.0, 0.0, 0.0, 0.0, 0.0, 0.0, 0.0, 0.0, 0.0, 0.0, 0.0, 0.0, 0.0, 0.0, 0.0, 0.0, 0.0, 0.0, 0.0, 0.0, 0.0]], "3": [[0.018007369611362685], [0.013696414149253058], [-0.03802385146463455], [-0.03470219475469082], [0.004288783538462224], [0.020557516865580938], [-0.032306414062925115], [-0.03147587310331672], [-0.02357613752022739], [0.012530979626034798], [-0.014225504258967875], [0.00409235687983385], [0.030327409198997665], [-0.024222352063182892], [0.010380444982082411], [-0.015003733835095713], [0.0026003073795301535], [0.02240689662484488], [0.005934668644207344], [-0.022324610341613472], [-0.03452450050727755], [-0.04251186778280286], [-0.01921335947251774], [0.005483942870804698], [0.040642110515541466], [-0.016241387432731836], [-0.021687162562002524], [0.0234184646312411], [-0.0001721340147986597], [-0.03171907098218439], [0.013626090440104918], [-0.01122804091209631], [-0.015261835592936236], [0.030503268258376348], [0.03589334082592788], [0.0]]}}, "fingerprints_range": {"Cu": [[0.0, 19.717528184980367], [0.0, 12.954617486692312], [0.0, 6.763827902345048], [0.0, 4.714947330374815], [0.0, 0.4690986508436296], [0.0, 0.3591942437989357], [0.0, 8.091157146993111e-05], [0.0, 6.70824590060896e-05], [0.0, 801.3693395965696], [0.0, 185.39781543928953], [0.0, 380.6581764033588], [0.0, 607.2663840318448], [0.0, 231.76903839707245], [0.0, 221.42076155225536], [0.0, 382.67810433385426], [0.0, 75.1704048127164], [0.0, 198.3503394287148], [0.0, 226.15041328755734], [0.0, 104.68820018085577], [0.0, 69.90910953322468]], "Pd": [[0.0, 12.8624897130153], [0.0, 18.849230862512158], [0.0, 4.565811427008994], [0.0, 6.436073106044743], [0.0, 0.31261700513528473], [0.0, 0.42485844093709624], [0.0, 5.453323564168128e-05], [0.0, 5.963922275121878e-05], [0.0, 387.63611918126753], [0.0, 201.06082384923803], [0.0, 768.9373797173059], [0.0, 216.01123836799178], [0.0, 234.91303084909833], [0.0, 579.7588665624862], [0.0, 204.69128069561307], [0.0, 81.20809618623912], [0.0, 368.92772219112385], [0.0, 65.71501674010052], [0.0, 106.06324624063065], [0.0, 215.963130891552]]}, "fingerprints_tag": 1, "scalings": {"Pd": {"slope": 1.0564404855714289, "intercept": -4.603714649857143}, "Cu": {"slope": 1.0564404855714289, "intercept": -4.603714649857143}}}