{"cutoff": 6.5, "Gs": {"Pd": [{"eta": 0.05, "type": "G2", "element": "Cu"}, {"eta": 0.05, "type": "G2", "element": "Pd"}, {"eta": 2.0, "type": "G2", "element": "Cu"}, {"eta": 2.0, "type": "G2", "element": "Pd"}, {"eta": 4.0, "type": "G2", "element": "Cu"}, {"eta": 4.0, "type": "G2", "element": "Pd"}, {"eta": 8.0, "type": "G2", "element": "Cu"}, {"eta": 8.0, "type": "G2", "element": "Pd"}, {"eta": 20.0, "type": "G2", "element": "Cu"}, {"eta": 20.0, "type": "G2", "element": "Pd"}, {"eta": 40.0, "type": "G2", "element": "Cu"}, {"eta": 40.0, "type": "G2", "element": "Pd"}, {"eta": 80.0, "type": "G2", "element": "Cu"}, {"eta": 80.0, "type": "G2", "element": "Pd"}, {"zeta": 1.0, "elements": ["Cu", "Cu"], "type": "G4", "gamma": 1.0, "eta": 0.005}, {"zeta": 1.0, "elements": ["Cu", "Pd"], "type": "G4", "gamma": 1.0, "eta": 0.005}, {"zeta": 1.0, "elements": ["Pd", "Pd"], "type": "G4", "gamma": 1.0, "eta": 0.005}, {"zeta": 1.0, "elements": ["Cu", "Cu"], "type": "G4", "gamma": -1.0, "eta": 0.005}, {"zeta": 1.0, "elements": ["Cu", "Pd"], "type": "G4", "gamma": -1.0, "eta": 0.005}, {"zeta": 1.0, "elements": ["Pd", "Pd"], "type": "G4", "gamma": -1.0, "eta": 0.005}, {"zeta": 2.0, "elements": ["Cu", "Cu"], "type": "G4", "gamma": 1.0, "eta": 0.005}, {"zeta": 2.0, "elements": ["Cu", "Pd"], "type": "G4", "gamma": 1.0, "eta": 0.005}, {"zeta": 2.0, "elements": ["Pd", "Pd"], "type": "G4", "gamma": 1.0, "eta": 0.005}, {"zeta": 2.0, "elements": ["Cu", "Cu"], "type": "G4", "gamma": -1.0, "eta": 0.005}, {"zeta": 2.0, "elements": ["Cu", "Pd"], "type": "G4", "gamma": -1.0, "eta": 0.005}, {"zeta": 2.0, "elements": ["Pd", "Pd"], "type": "G4", "gamma": -1.0, "eta": 0.005}, {"zeta": 4.0, "elements": ["Cu", "Cu"], "type": "G4", "gamma": 1.0, "eta": 0.005}, {"zeta": 4.0, "elements": ["Cu", "Pd"], "type": "G4", "gamma": 1.0, "eta": 0.005}, {"zeta": 4.0, "elements": ["Pd", "Pd"], "type": "G4", "gamma": 1.0, "eta": 0.005}, {"zeta": 4.0, "elements": ["Cu", "Cu"], "type": "G4", "gamma": -1.0, "eta": 0.005}, {"zeta": 4.0, "elements": ["Cu", "Pd"], "type": "G4", "gamma": -1.0, "eta": 0.005}, {"zeta": 4.0, "elements": ["Pd", "Pd"], "type": "G4", "gamma": -1.0, "eta": 0.005}], "Cu": [{"eta": 0.05, "type": "G2", "element": "Cu"}, {"eta": 0.05, "type": "G2", "element": "Pd"}, {"eta": 2.0, "type": "G2", "element": "Cu"}, {"eta": 2.0, "type": "G2", "element": "Pd"}, {"eta": 4.0, "type": "G2", "element": "Cu"}, {"eta": 4.0, "type": "G2", "element": "Pd"}, {"eta": 8.0, "type": "G2", "element": "Cu"}, {"eta": 8.0, "type": "G2", "element": "Pd"}, {"eta": 20.0, "type": "G2", "element": "Cu"}, {"eta": 20.0, "type": "G2", "element": "Pd"}, {"eta": 40.0, "type": "G2", "element": "Cu"}, {"eta": 40.0, "type": "G2", "element": "Pd"}, {"eta": 80.0, "type": "G2", "element": "Cu"}, {"eta": 80.0, "type": "G2", "element": "Pd"}, {"zeta": 1.0, "elements": ["Cu", "Cu"], "type": "G4", "gamma": 1.0, "eta": 0.005}, {"zeta": 1.0, "elements": ["Cu", "Pd"], "type": "G4", "gamma": 1.0, "eta": 0.005}, {"zeta": 1.0, "elements": ["Pd", "Pd"], "type": "G4", "gamma": 1.0, "eta": 0.005}, {"zeta": 1.0, "elements": ["Cu", "Cu"], "type": "G4", "gamma": -1.0, "eta": 0.005}, {"zeta": 1.0, "elements": ["Cu", "Pd"], "type": "G4", "gamma": -1.0, "eta": 0.005}, {"zeta": 1.0, "elements": ["Pd", "Pd"], "type": "G4", "gamma": -1.0, "eta": 0.005}, {"zeta": 2.0, "elements": ["Cu", "Cu"], "type": "G4", "gamma": 1.0, "eta": 0.005}, {"zeta": 2.0, "elements": ["Cu", "Pd"], "type": "G4", "gamma": 1.0, "eta": 0.005}, {"zeta": 2.0, "elements": ["Pd", "Pd"], "type": "G4", "gamma": 1.0, "eta": 0.005}, {"zeta": 2.0, "elements": ["Cu", "Cu"], "type": "G4", "gamma": -1.0, "eta": 0.005}, {"zeta": 2.0, "elements": ["Cu", "Pd"], "type": "G4", "gamma": -1.0, "eta": 0.005}, {"zeta": 2.0, "elements": ["Pd", "Pd"], "type": "G4", "gamma": -1.0, "eta": 0.005}, {"zeta": 4.0, "elements": ["Cu", "Cu"], "type": "G4", "gamma": 1.0, "eta": 0.005}, {"zeta": 4.0, "elements": ["Cu", "Pd"], "type": "G4", "gamma": 1.0, "eta": 0.005}, {"zeta": 4.0, "elements": ["Pd", "Pd"], "type": "G4", "gamma": 1.0, "eta": 0.005}, {"zeta": 4.0, "elements": ["Cu", "Cu"], "type": "G4", "gamma": -1.0, "eta": 0.005}, {"zeta": 4.0, "elements": ["Cu", "Pd"], "type": "G4", "gamma": -1.0, "eta": 0.005}, {"zeta": 4.0, "elements": ["Pd", "Pd"], "type": "G4", "gamma": -1.0, "eta": 0.005}]}, "activation": "tanh", "hiddenlayers": {"Pd": [4, 30], "Cu": [4, 30]}, "weights": {"Cu": {"1": [[0.016348849564079004, -0.019185282383067548, -0.026728209869440914, -0.04181895464538124], [-0.03759819376923418, -0.003612569462611237, 0.02083564634713865, -0.00396322660591307], [0.02097990510743679, -0.006886686897737707, -0.001246034619946615, 0.005778059533518287], [0.00536553473203262, 0.04251271588843432, -0.02022828902771972, -0.001823216713622025], [0.018871396725503004, -0.006072384693035837, -0.0064080250617362874, 0.036593838884699637], [-0.032654511029072866, 0.04068227998435375, -0.03315439531317477, -0.04326972381724982], [0.011118792278883446, -0.025950060093936404, 0.03987164884984179, -0.034999558963770605], [-0.02349618608343321, -0.045801397503320115, 0.04365146823417845, 0.010472809905106073], [0.04028828068299757, -0.039255516695590534, -0.039083193746299705, 0.03378707700311881], [-0.0042067470688123415, -0.03278742434893224, -0.0027089187966330003, -0.04336665473008933], [0.04294677054227394, -0.006792927056281373, 0.018533067063810138, -0.00761031291108602], [0.0014616526049676531, -0.04118218074526864, -0.011609598120670361, 0.006117101795236932], [0.0034873622587875963, 0.003280578315507092, 0.0391711297974892, 0.015240872254821729], [-0.020833238138918086, -0.04365237686891367, -0.02175041083425091, -0.012770767175750333], [-0.041718590112247635, -0.015959143245674656, -0.002755596877955978, -0.006919997068166456], [0.00458803139926877, 0.024569481184973513, 0.043170209909829324, -0.041091536024467384], [0.020353848627199453, 0.04439687696178542, -0.016263560814992598, 0.024306402213484707], [0.02951690857628264, 0.03166535055384681, 0.01065617112312453, 0.0009783053260547722], [0.04617875873433229, 0.0010842999362820557, -0.009397436163548885, 0.019003524286244605], [0.044148696459352765, 0.00037183340792363434, 0.01602125229439849, 0.03070211785826242], [-0.00945506340137063, 0.005408338745649076, -0.04454751149796522, 0.02999897966719635], [0.021959654450789595, -0.035739415751596726, -0.026681038904142827, 0.028779199025896707], [-0.04490799184971033, -0.011193240576680627, 0.017291981328398154, -0.02988815744101267], [-0.036185645412325815, 0.013365156616254231, 0.015135302207525306, -0.00044467196506385587], [-0.03305680877846783, 0.020041454639677492, -0.0035233819073130085, -0.04380726523002677], [0.007106232046218963, 0.012642847295168694, -0.02482928987831069, -0.0352243873199716], [0.043570245958882814, 0.011602573600620267, 0.04134173938072616, -0.011552211513711538], [0.010095031499143023, -0.04140040646805875, 0.011786710350321805, -0.01000976539564169], [-0.006661511274223264, 0.015468781428054683, 0.031247807782935552, 0.035410000919293], [-0.02473640023385436, -0.0312889913980025, -0.04045311551026831, 0.012978745556091714], [0.009981361261465635, 0.013476382648376417, 0.044528484628665085, 0.03645460588511919], [-0.009027868765183848, -0.02288742011203872, 0.028582606503874092, 0.036056672859017105], [0.0, 0.0, 0.0, 0.0]], "2": [[-0.038067416379069074, 0.015369675391293969, 0.22280596057628865, -0.047339397720011056, -0.22471759910939879, -0.0785458224500043, -0.1270115228550363, -0.34746548644011216, -0.010237418638269657, 0.23042100983161695, -0.24186495515087494, 0.32121337761361113, -0.3168621780169655, 0.01378380325662465, -0.363451635577712, -0.05906062853391292, -0.006246847416692569, 0.09364826510844093, -0.37084674955259544, 0.2778335399905233, 0.2547790141178713, -0.14335797365100975, 0.186643220861481, -0.1251451414883801, -0.11733354433010634, 0.01359627485440873, 0.3739064133050496, -0.3173404338418493, 0.21681954249177193, 0.2785980202262396], [0.26991292509491305, -0.21950349639315064, 0.2800467833661828, -0.12747453417821447, 0.15201015420474384, -0.33368165359852797, 0.1857174324349612, 0.152627949229296, 0.1636720454410615, -0.02661818831988244, 0.352692845298221, -0.24538005196912924, -0.16020193603857796, 0.26759827951559667, 0.31927692424085985, -0.012929338792680878, 0.2532184377399197, 0.3356839256356271, -0.06356537884480862, -0.1495270611563447, 0.0073196667724010345, 0.18895346627648957, -0.2624697368675085, 0.20218508987958628, -0.24822137030981065, 0.18653216089167823, -0.2262841193484402, -0.2979035614996325, -0.2523434594573726, -0.1439146425836224], [0.2695943840087991, 0.06776373499648386, 0.07290875174614442, -0.009697357430823117, -0.2981269128130954, -0.3256865689175993, 0.02979764355481057, 0.2260625912922939, -0.19392544041851587, -0.22543415578864057, -0.1511532563172565, -0.006511295405410122, 0.19942519264644476, -0.09269354274336183, 0.24147214668273753, 0.26034722540835886, 0.15820906890032382, 0.12941598469030635, -0.006710188645322135, -0.07107710634169156, -0.21635046974694974, 0.28459289966742674, -0.19947368914128077, 0.20524380073281245, -0.14864680729110277, -0.2639624427543915, -0.22064374514026636, 0.028594585064677547, 0.04193867938394158, 0.19942434743540227], [0.06660531594586805, -0.07141904034177626, 0.3689654398728863, 0.35564194902855417, -0.18251141750183894, 0.1874472009805641, 0.3395441579443368, 0.06698172038041844, -0.0039692903291833614, -0.3265547115914076, -0.36793544006560763, -0.32587946120599864, 0.21301757182244063, -0.06249671272008367, 0.3334254679448786, 0.37124870967666157, 0.14861251269903697, -0.01808009940474864, 0.10668836309073337, -0.3314809359515575, -0.09078836844127025, -0.3557354823847863, 0.05821975905512411, 0.1379340539764209, 0.3044835033878226, -0.19465665755792308, 0.06179978792529872, 0.05031960741345909, -0.15166990790746307, -0.23781568729172883], [0.0, 0.0, 0.0, 0.0, 0.0, 0.0, 0.0, 0.0, 0.0, 0.0, 0.0, 0.0, 0.0, 0.0, 0.0, 0.0, 0.0, 0.0, 0.0, 0.0, 0.0, 0.0, 0.0, 0.0, 0.0, 0.0, 0.0, 0.0, 0.0, 0.0]], "3": [[0.033433887661787245], [-0.020132152504391612], [-0.012657792603188688], [-0.004077273001281689], [-0.027506928727752025], [-0.0010514330961159044], [0.041304880459152385], [0.0036010615909468427], [-0.012388561645075027], [0.006399908886242291], [-0.01242418339165624], [0.045545763498234276], [0.0001306067112523679], [-0.013825091327732797], [0.04769881252944473], [0.03934329287494774], [-0.016216253967159276], [-0.020760460065163466], [0.04850060881163938], [0.046781766204551184], [-0.003999169313600906], [0.004726237919402063], [0.013991790544256519], [0.029635190064254288], [0.019945273255291635], [-0.03188218559865007], [-0.03659542273907358], [-0.001048792406345797], [-0.035335502682721835], [0.03504398507564281], [0.0]]}, "Pd": {"1": [[0.040007918909364504, -0.014135087333144794, -0.020441470884609864, -0.01046020326152998], [0.007998660184863761, -0.015767376396260906, 0.03423488383406942, -0.03706444629465613], [-0.014172687552050284, 0.01656756835603765, -0.02397717470859092, 0.016270317890611036], [-0.006490985256451434, 0.023501442006423068, -0.01992822034932072, -0.030200252653681637], [0.04147971592599908, -0.03257230928988821, -0.028464178241421466, -0.010305139653685777], [0.0037872826279278377, -0.04645020259416593, 0.0018729709293981434, 0.030508399865036714], [-0.009385108153519353, -0.01597644625021671, 0.03734707649037025, -0.024589507250796803], [0.013361569379413102, -0.020145636390024778, -0.018227670018116864, -0.0025546479744016914], [0.03739057107269558, 0.016949692863974575, 0.028369995193668646, -0.019829236671628545], [0.04110879362936569, 0.006902722232713404, -0.04001440834685163, 0.026933386700304984], [0.038891193288941445, 0.0334002797311999, 0.03876882471075886, 0.032695330875341266], [-0.025419078500231528, -0.008901794820479453, 0.03298280675802402, 0.008946432385973924], [0.03519149082682582, 0.012720419571148764, 0.031437308850503845, 0.04327352272447896], [-0.01845374949713925, 0.005374815757063396, -0.025943011357585408, 0.045111915825330265], [0.017192028754476618, 0.013935612056328296, -0.03128389271754656, -0.03730196277651931], [-0.009692643463613454, -0.0028124003944804687, -0.03180692108306932, -0.00017561312256517136], [-0.03608236597422133, -0.02987680258216985, 0.005513308029870885, -0.04134171157568438], [0.040840795331630764, 0.030979084046999644, 0.04546228210508037, -0.02190330185698683], [0.02034592896403664, 0.027330703971743836, 0.03356940600202843, -0.027369992267694217], [0.012366862695235875, -0.009547001538839223, 0.04607417574052895, -0.03199632164604105], [-0.018233228480404654, -0.04480766931322087, -0.009674928871117386, 0.02164666415026048], [-0.0026147278859869616, 0.038358468690792, -0.007236414822279519, -0.006452980117744075], [0.033985515897720156, -0.029263606328644668, 0.035994385171564156, -0.03041685592280401], [-0.020493308809838014, 0.006600997933763425, 0.03686086074303674, -0.016289784662867877], [-0.02653959558072931, 0.004029609476522929, 0.011012498446847804, -0.018012155897869038], [-0.0464377619256901, -0.046502964014042185, 0.022152978166172926, 0.042693722917745355], [-0.017295740195645358, 0.003442244777047687, 0.03631110477690688, -0.0073158491781131416], [-0.036456211565706456, -0.01860866554077992, -0.028697990831564234, 0.03906564368075499], [-0.028184206921385232, -0.03945366677318718, 0.009330059273092203, -0.028201714938001228], [0.0025769719780549608, 0.027087457330945003, -0.010262005788686815, -0.037121000296017004], [-0.029898069624289498, -0.010624618778705852, -0.020039461410747715, 0.0452738251225142], [0.019270679446261818, 0.04077774792465137, 0.01761434590919729, -0.00287837634810139], [0.0, 0.0, 0.0, 0.0]], "2": [[-0.30549355516550647, -0.3505276103070359, -0.3143837664540128, 0.188215462949626, -0.18197642739231912, 0.11281175025051515, 0.224934925066689, 0.02909650528119656, -0.29646086036245545, 0.06836282311317143, 0.1163451320564457, 0.15448524403382646, -0.3150872840421346, 0.008950464893387966, -0.1528183343856988, 0.33939792993177464, -0.03689628893551633, 0.3241543335231001, -0.015127424479266627, -0.2695431086833338, 0.19680892859143617, -0.33188639509581264, -0.10044337877149112, -0.06833934152326171, -0.2711148574089034, 0.3380461736497752, -0.35202805826949457, -0.16318291464114965, -0.1917300463897919, -0.328759514579832], [0.0418611835666407, -0.15863029511211288, 0.07135189069870557, 0.18386227160659718, 0.030651339317457338, -0.16476262759066096, 0.3618026407255235, -0.2512420233875847, 0.13802733094851438, -0.05454166325144, 3.117578607386706e-05, -0.10428242464028481, 0.24880319806035556, -0.02934000163393613, 0.19245609677755138, 0.2872085410812881, 0.19528909473192446, -0.23178055151073315, 0.2098491558514689, 0.22373250321125804, 0.3712639116710712, -0.030361253505096997, 0.11542999436507478, 0.07050479477490323, 0.29473347900816416, 0.2405242674398661, -0.23532749109216552, -0.1129598755181005, 0.23450709839132, 0.043015383866218004], [-0.006153357879972732, -0.3734529402465703, 0.00870983976628592, 0.19499222902886293, 0.048911063244014286, 0.0009547831481901969, -0.246239742553001, 0.11725386463746257, -0.04088060984622488, -0.058640773817289216, 0.041297796205430615, 0.22132530574680254, 0.2648036515142659, 0.2120077811468173, -0.30129819313231876, -0.31542887014363485, -0.3691434217006656, -0.1282103337876697, 0.35875835882621954, -0.007535592017592685, -0.08828944119817256, 0.33575877636730234, 0.10806901757113552, 0.3673526718754393, -0.17921898157154822, -0.16758742714578928, -0.11751431234722243, -0.19026631345011147, 0.3679829020904526, -0.0964081634071478], [0.1958004999712194, 0.06358388362538564, 0.329522963409139, -0.07479097625226216, 0.18061584917203344, -0.0608376631973947, -0.17897877965953754, -0.07453952250836082, -0.26532773631288675, -0.051432326222769276, 0.11772883778500187, -0.040390017454043914, 0.06271279986339184, 0.3084480220945909, 0.04939366090768027, 0.06344992277909778, 0.07568757680454719, 0.18417890341870824, 0.1030646035500189, 0.010615344954651329, -0.06147325487686317, 0.34233709689920133, 0.15143397697712746, 0.27543004575180263, -0.21119038161057047, -0.3344138962220784, -0.10122696585630964, 0.09458397706082528, -0.1353037461547734, 0.28832699049870314], [0.0, 0.0, 0.0, 0.0, 0.0, 0.0, 0.0, 0.0, 0.0, 0.0, 0.0, 0.0, 0.0, 0.0, 0.0, 0.0, 0.0, 0.0, 0.0, 0.0, 0.0, 0.0, 0.0, 0.0, 0.0, 0.0, 0.0, 0.0, 0.0, 0.0]], "3": [[-0.03173685456548695], [-0.04270570054532291], [-0.022014909123593652], [0.006273269076831199], [-0.001370448768260167], [0.032619049817681586], [0.02553601292834802], [-0.03765480590111381], [0.004848009420298803], [0.04485489381647549], [-0.03790064758305417], [0.04144870444624432], [-0.033321164862136474], [-0.029130376492109034], [-0.022698160823918324], [0.02535644994879231], [0.01155025874022074], [-0.001809181937228635], [0.0475977366994431], [-0.011097939143742151], [-0.03697719953653045], [0.034132422893494635], [0.04628616375312848], [0.008337234616807132], [0.04859342416413495], [-0.013537069180851291], [0.004711800400362176], [-0.029646423818101987], [-0.04084000481108228], [-0.04739592430653266], [0.0]]}}, "fingerprints_range": {"Cu": [[0.7355979085179102, 15.55743075082518], [0.17208454571200024, 15.824610224206179], [0.2647337529778042, 9.728035574767311], [0.048289987224936715, 9.183520039100534], [0.08998943476157976, 6.543651351035633], [0.013116604377678287, 5.901293632153394], [0.011086319621036456, 3.4322011143730915], [0.0009677208042695254, 3.058089253340858], [2.8105378597217076e-05, 0.7186722153281908], [3.886297579508524e-07, 0.7702142399843445], [1.0530964208036616e-09, 0.06459500411004929], [8.495312182045297e-13, 0.09579851951537856], [1.4696933730671603e-18, 0.0005969806159118927], [4.059438105570023e-24, 0.0014999082499671163], [0.50034203926832, 586.0279136978755], [2.8969921783012786, 1339.0774553779588], [0.0, 680.2199829665379], [0.623397651130686, 430.46949002501225], [2.2581612173512284, 933.9576344679633], [0.11622805422127631, 505.84680013293473], [0.18504763958633103, 428.8432803118022], [1.7871978465575518, 999.1121607682313], [0.0, 497.0153279237612], [0.21809387928730953, 273.284856638939], [1.3209770091224067, 593.9923398582351], [0.06881080565862441, 322.6421450901536], [0.020560848842925673, 287.61510794586883], [0.799631268139842, 694.3948342368042], [0.0, 333.734781480117], [0.03697254301515187, 160.4359473839458], [0.665959989982916, 348.9904146530375], [0.004300675351054025, 189.85900104165898]], "Pd": [[0.17208454571200046, 15.82461022420618], [0.7355978047404241, 15.557430750825183], [0.04828998722493681, 9.183520039100532], [0.2647337529778042, 9.72803557476731], [0.01311660437767832, 5.901293632153396], [0.08998943476157976, 6.543651351035635], [0.000967720804269529, 3.058089253340857], [0.011086319621036456, 3.4322011143730906], [3.8862975795085565e-07, 0.770214239984344], [2.8105378597217076e-05, 0.7186722153281916], [8.495312182045429e-13, 0.09579851951537853], [1.0530949854903416e-09, 0.06459500411004933], [4.059438105570144e-24, 0.0014999082499671157], [1.469689571940093e-18, 0.0005969806159118931], [0.0, 680.2199829665362], [2.8969921783012804, 1339.0774553779634], [0.50034203926832, 586.0279136978755], [0.11622805422127645, 505.8468001329346], [2.2581612173512298, 933.9576344679631], [0.6233975439578614, 430.46949002501225], [0.0, 497.01532792376423], [1.7871978465575515, 999.1121607682309], [0.18504763958633114, 428.8432803118022], [0.06881080565862441, 322.6421450901558], [1.3209770091224076, 593.9923398582329], [0.21809382696856305, 273.284856638939], [0.0, 333.73478148011566], [0.799631268139842, 694.3948342368044], [0.020560848842925677, 287.61510794586883], [0.004300675351054025, 189.85900104165927], [0.6659599899829165, 348.9904146530362], [0.03697252924305966, 160.4359473839458]]}, "fingerprints_tag": 1, "scalings": {"Pd": {"slope": 2.7555544681249997, "intercept": -2.459831533125}, "Cu": {"slope": 2.7555544681249997, "intercept": -2.459831533125}}}