{"cutoff": 6.5, "Gs": {"Pd": [{"eta": 0.05, "type": "G2", "element": "Cu"}, {"eta": 0.05, "type": "G2", "element": "Pd"}, {"eta": 2.0, "type": "G2", "element": "Cu"}, {"eta": 2.0, "type": "G2", "element": "Pd"}, {"eta": 4.0, "type": "G2", "element": "Cu"}, {"eta": 4.0, "type": "G2", "element": "Pd"}, {"eta": 8.0, "type": "G2", "element": "Cu"}, {"eta": 8.0, "type": "G2", "element": "Pd"}, {"eta": 20.0, "type": "G2", "element": "Cu"}, {"eta": 20.0, "type": "G2", "element": "Pd"}, {"eta": 40.0, "type": "G2", "element": "Cu"}, {"eta": 40.0, "type": "G2", "element": "Pd"}, {"eta": 80.0, "type": "G2", "element": "Cu"}, {"eta": 80.0, "type": "G2", "element": "Pd"}, {"zeta": 1.0, "elements": ["Cu", "Cu"], "type": "G4", "gamma": 1.0, "eta": 0.005}, {"zeta": 1.0, "elements": ["Cu", "Pd"], "type": "G4", "gamma": 1.0, "eta": 0.005}, {"zeta": 1.0, "elements": ["Pd", "Pd"], "type": "G4", "gamma": 1.0, "eta": 0.005}, {"zeta": 1.0, "elements": ["Cu", "Cu"], "type": "G4", "gamma": -1.0, "eta": 0.005}, {"zeta": 1.0, "elements": ["Cu", "Pd"], "type": "G4", "gamma": -1.0, "eta": 0.005}, {"zeta": 1.0, "elements": ["Pd", "Pd"], "type": "G4", "gamma": -1.0, "eta": 0.005}, {"zeta": 2.0, "elements": ["Cu", "Cu"], "type": "G4", "gamma": 1.0, "eta": 0.005}, {"zeta": 2.0, "elements": ["Cu", "Pd"], "type": "G4", "gamma": 1.0, "eta": 0.005}, {"zeta": 2.0, "elements": ["Pd", "Pd"], "type": "G4", "gamma": 1.0, "eta": 0.005}, {"zeta": 2.0, "elements": ["Cu", "Cu"], "type": "G4", "gamma": -1.0, "eta": 0.005}, {"zeta": 2.0, "elements": ["Cu", "Pd"], "type": "G4", "gamma": -1.0, "eta": 0.005}, {"zeta": 2.0, "elements": ["Pd", "Pd"], "type": "G4", "gamma": -1.0, "eta": 0.005}, {"zeta": 4.0, "elements": ["Cu", "Cu"], "type": "G4", "gamma": 1.0, "eta": 0.005}, {"zeta": 4.0, "elements": ["Cu", "Pd"], "type": "G4", "gamma": 1.0, "eta": 0.005}, {"zeta": 4.0, "elements": ["Pd", "Pd"], "type": "G4", "gamma": 1.0, "eta": 0.005}, {"zeta": 4.0, "elements": ["Cu", "Cu"], "type": "G4", "gamma": -1.0, "eta": 0.005}, {"zeta": 4.0, "elements": ["Cu", "Pd"], "type": "G4", "gamma": -1.0, "eta": 0.005}, {"zeta": 4.0, "elements": ["Pd", "Pd"], "type": "G4", "gamma": -1.0, "eta": 0.005}], "Cu": [{"eta": 0.05, "type": "G2", "element": "Cu"}, {"eta": 0.05, "type": "G2", "element": "Pd"}, {"eta": 2.0, "type": "G2", "element": "Cu"}, {"eta": 2.0, "type": "G2", "element": "Pd"}, {"eta": 4.0, "type": "G2", "element": "Cu"}, {"eta": 4.0, "type": "G2", "element": "Pd"}, {"eta": 8.0, "type": "G2", "element": "Cu"}, {"eta": 8.0, "type": "G2", "element": "Pd"}, {"eta": 20.0, "type": "G2", "element": "Cu"}, {"eta": 20.0, "type": "G2", "element": "Pd"}, {"eta": 40.0, "type": "G2", "element": "Cu"}, {"eta": 40.0, "type": "G2", "element": "Pd"}, {"eta": 80.0, "type": "G2", "element": "Cu"}, {"eta": 80.0, "type": "G2", "element": "Pd"}, {"zeta": 1.0, "elements": ["Cu", "Cu"], "type": "G4", "gamma": 1.0, "eta": 0.005}, {"zeta": 1.0, "elements": ["Cu", "Pd"], "type": "G4", "gamma": 1.0, "eta": 0.005}, {"zeta": 1.0, "elements": ["Pd", "Pd"], "type": "G4", "gamma": 1.0, "eta": 0.005}, {"zeta": 1.0, "elements": ["Cu", "Cu"], "type": "G4", "gamma": -1.0, "eta": 0.005}, {"zeta": 1.0, "elements": ["Cu", "Pd"], "type": "G4", "gamma": -1.0, "eta": 0.005}, {"zeta": 1.0, "elements": ["Pd", "Pd"], "type": "G4", "gamma": -1.0, "eta": 0.005}, {"zeta": 2.0, "elements": ["Cu", "Cu"], "type": "G4", "gamma": 1.0, "eta": 0.005}, {"zeta": 2.0, "elements": ["Cu", "Pd"], "type": "G4", "gamma": 1.0, "eta": 0.005}, {"zeta": 2.0, "elements": ["Pd", "Pd"], "type": "G4", "gamma": 1.0, "eta": 0.005}, {"zeta": 2.0, "elements": ["Cu", "Cu"], "type": "G4", "gamma": -1.0, "eta": 0.005}, {"zeta": 2.0, "elements": ["Cu", "Pd"], "type": "G4", "gamma": -1.0, "eta": 0.005}, {"zeta": 2.0, "elements": ["Pd", "Pd"], "type": "G4", "gamma": -1.0, "eta": 0.005}, {"zeta": 4.0, "elements": ["Cu", "Cu"], "type": "G4", "gamma": 1.0, "eta": 0.005}, {"zeta": 4.0, "elements": ["Cu", "Pd"], "type": "G4", "gamma": 1.0, "eta": 0.005}, {"zeta": 4.0, "elements": ["Pd", "Pd"], "type": "G4", "gamma": 1.0, "eta": 0.005}, {"zeta": 4.0, "elements": ["Cu", "Cu"], "type": "G4", "gamma": -1.0, "eta": 0.005}, {"zeta": 4.0, "elements": ["Cu", "Pd"], "type": "G4", "gamma": -1.0, "eta": 0.005}, {"zeta": 4.0, "elements": ["Pd", "Pd"], "type": "G4", "gamma": -1.0, "eta": 0.005}]}, "activation": "tanh", "hiddenlayers": {"Pd": [4, 30], "Cu": [4, 30]}, "weights": {"Cu": {"1": [[19.5621299551021, 1.1344723567747501, 0.6833583801850498, 22.784848108633472], [6.302544535198396, -10.78166096544854, -1.7232014308654826, 5.847773334872734], [-16.379851299408582, 3.6826249176965824, -0.4583459519090061, -51.92474183700526], [2.3462818859088106, -2.9913203251716434, 8.35102997665308, 31.906578890453886], [-24.892192784639487, 16.037289911050536, 0.8329629891908004, 30.59441674728719], [-16.85165264889034, -7.552571481575917, -8.904530254799495, -55.04115625650169], [-8.21132450546852, 9.895443387689072, -0.7695224868414944, -2.0587102496952974], [-32.88827490964415, 14.441814643557928, 3.8825535465300782, 28.200432006950646], [19.586947241690396, 24.469087713309403, 0.3681910012818306, 4.159474486284869], [44.988004158201605, 20.1788262983334, -1.3606732810643123, -9.119620356872726], [53.66814059658361, -6.675451711372834, -0.36141287747973244, -7.308231965337752], [32.77891278291052, 25.442067966118888, 0.23249900138606824, 5.738553813906919], [-23.036227993630877, -13.330996524529668, -0.033609428118067636, 6.595255747432735], [-25.58004450402528, -43.08609195684775, -0.10375985679193651, 5.98402823898856], [-12.470357754229193, -16.206114405875784, 3.598297498425732, 32.39096259100861], [18.40782158365817, 6.700820396845511, 3.474028815594598, -20.035288274652455], [-14.142112908769382, -23.052228983944804, 0.1753139785208016, -18.5622025354806], [1.731681448598825, 6.019730274833602, 9.208057135489668, 13.818947848306246], [7.906080541127416, -15.760575547525306, 9.8803228098798, -12.13572789642627], [-6.332404934988682, 3.329377229997499, 0.3269271456992532, 8.69699812095323], [-12.510724547704005, -19.498063651774114, -9.995426948032337, 18.717840201592328], [16.212487293711522, 8.238467069273467, -9.574128845470938, -4.008707347417012], [-11.493601140999273, -24.14007008610347, 0.06317180372556662, -32.88608637766136], [9.66715084044152, 13.555772760219885, -8.840461590773629, -18.36260988028407], [-1.9256407816376646, -25.90164712245706, -8.231053515099557, 19.11303057041147], [2.240504257178837, 16.754393139247494, 0.13424287694719106, 2.1350365910488915], [16.650072065484824, 21.931364413508316, 4.920593803746726, -43.907491988549204], [-8.159074466807546, -13.824281171240324, 5.480688972522409, 14.709820853197202], [8.238593472727878, -14.14328678074018, 0.32617636130439914, 49.47771160411749], [-7.039964268974786, -46.78977247325943, 0.9502211146202822, 0.2606874880783896], [2.3252572390600776, 0.9473012880924959, -0.8637705375809783, -14.041766817358642], [7.34429718532945, 19.362203481708736, -1.2489629820010761, -7.4998891013579225], [-5.768256175762653, 14.379683730095906, 0.08871563416249414, 1.9163985864970086]], "2": [[-2.4510384381543897, -6.967778443307293, 5.9192023024255125, 1.9740935332751401, 3.306632278179918, 7.9817303703360265, 4.777409978414646, 10.81023350788644, 7.698199380064991, 4.699974559667974, 6.64520747471838, -9.808883528182385, 6.177163781290716, 1.9846189930431084, -0.5650362080159069, -6.795660415798045, -4.56907321958504, 2.622452411852949, -4.43615387255731, -3.1038278542537756, -11.27091865588281, -19.000575977059842, 1.8265189018458352, 1.393119891203929, -14.322862571904091, -9.050744358381031, -4.231295035229647, 0.4717385630527675, 3.9591528445071957, -4.1265277268576686], [2.662239261835526, -0.9751425770852168, 17.06254065121312, -1.3565211248656386, -0.032451102910468634, 6.111623566792819, 5.406950938114862, 1.3977420366882198, 0.5211572997405274, 2.110249257462084, 2.5505297453900053, -1.731949978680432, -3.4895118544660395, -1.2782120841925824, 7.837354241424937, 1.8567489415461376, -2.653608538603925, 4.861803630573339, -3.1066892517310296, -5.090616846966966, -9.80278440157974, -2.4308963133271417, -6.734253376661371, -0.168109336208895, -16.388403102732052, 10.589099594046843, -16.63884129709783, -3.7275387738613848, 4.9986821964211945, -2.0493124660667856], [-23.247382710025217, -20.497053059562592, 20.994241757674985, 17.710093601260592, 3.3735424163508414, 0.6844706378178563, 0.9403765955778813, 5.953736272708257, -21.251288197496834, 11.252139754363535, -2.6295562191438093, -10.71155066045016, 0.8725124389220602, -1.6283382936823851, 5.883300572800689, -13.500636335512736, 3.1270603179722287, 10.15474786137725, -24.098482703684258, -33.066810066621365, 3.0736502352640374, -4.90763691353121, 4.860278721068117, -0.4131233329907727, -21.494716799136697, -36.48521718033544, -27.410772209835663, 12.881962963753937, 16.053448971881703, 1.1850721439495964], [-7.422273838409015, -6.4512633681624205, 12.034368314890868, -3.5312989143926248, -0.7874065253509598, 2.285176399373958, -10.027327752086011, 8.781328089731492, -12.043509756934085, -2.3328843977043308, -0.23998182576131558, 1.2489623496415536, 4.611391432320242, 8.875682558748505, 5.249910145916307, 2.3821948590070883, -7.274365982205437, -0.9858156314282545, -7.82095824863996, 1.4065434315914251, -6.900354537744032, 7.65083268689372, -1.220478883299516, -0.2814900295318459, -0.593766869903504, -15.997613668089423, 9.569150509908038, 18.102756127531304, -3.0771999572410516, -0.38045755227601724], [3.1246081506310683, 12.96859193651836, -13.228464677491209, -13.125695739977715, 2.6031374871142017, -1.7440075778433728, -0.37602242041981715, 17.7568433251988, 9.399357972285372, -11.662481388122625, 2.748652100850762, -8.144895192994635, 7.860564191215007, 11.973259730688783, 6.667485228427797, -3.5908963519765407, -11.777629193218456, -1.9894438914916246, 7.127523878286586, 10.64483903779079, -11.38440952424562, -9.602969570135542, 11.089302633463529, 0.7463938426131684, 5.731581667032626, 7.60564175614889, 14.732295958413118, 4.889510607949385, -0.5123124855217781, -4.022959774887962]], "3": [[7.285001504084518], [2.5161800849254314], [-15.285329319563363], [2.0219997229876805], [-0.5025283765503374], [4.205766017110171], [5.063377619402341], [0.5742151502010263], [-15.413518645437438], [-2.239956370843912], [4.949028088117613], [-8.80303623224484], [2.4795964412728106], [-0.20901917072900983], [6.515275927213714], [-0.5434391250004067], [9.921961607906724], [-8.544873698553634], [-6.906772778667833], [-3.493115201913143], [-22.81449224814484], [-0.6327701058286966], [-2.7321813498743133], [-5.50667976479981], [4.296768701547558], [-7.230741425511486], [-2.9504153797419894], [8.610482445192362], [-4.329274710871972], [-9.633844851462964], [-8.71634462790917]]}, "Pd": {"1": [[0.34727562773837556, 9.296982445870897, 0.8267542954072046, 9.914541396910215], [2.714480732605371, 8.340984901844578, 4.8970535109897035, -9.473154434557568], [-0.30740522039903967, -22.830312489011416, 0.3188595558024665, -34.36667400657818], [-2.45695713749137, -10.281095660519092, -13.556811339049203, 46.7528103067279], [-5.147737853286447, 25.038462096865885, -4.177523624588794, 41.43543527088612], [-3.733413880948462, 3.404957704671668, 13.220655104847307, -57.654203382234535], [3.1606308055744923, -10.428148122751098, 2.2829037959875658, -21.76226848265249], [4.5674632300893965, 5.129902048649837, -6.490612646159391, 31.57681908565671], [-0.6898599281451845, 2.7148925940278885, -0.49566157343989176, 11.975025958104675], [-2.504301508047221, -6.200436862588398, 2.8612230263986227, -12.608917961126153], [-0.6284503235174673, -2.3841222242616453, 0.25870739992717495, -14.00578724559758], [1.1648471408188408, 2.751153745702896, -1.1832156366604283, 1.004758758254542], [1.2409147588259015, 2.247455748614469, -0.2000114666820133, 7.143895781008085], [0.22562784798369606, 0.1597731739620074, 0.24974370224573236, 1.053318684149471], [-10.621025131599861, -15.578078089982311, -18.492620226470812, -5.691280643847101], [-13.56181158944403, -9.575534166016615, -39.79687985211796, 9.885853516174947], [-8.275690831872264, 9.202178425103266, -27.54393459097917, 45.9207957491768], [10.570056825987486, -21.84138506119332, -31.232391817505963, -37.498888508810246], [54.30855581343869, -8.746215249790106, -68.95045627275249, -78.39809966983499], [26.936796444691765, 28.28831523640279, -40.401048716391024, 41.64271137942544], [7.681024128281033, 23.696325274073182, 42.142475902296844, 33.649448253123175], [-37.280321770810325, 3.3923660690121724, 81.42304124296288, 71.3181874936191], [-17.11840508243514, -36.789630850271145, 49.57539846649709, -48.98055582351436], [50.79291587281979, 35.162156385568906, 54.859191825495856, 4.9642228354552875], [53.09690147181537, 13.405552381635088, 118.16409649340677, -25.42183305817006], [33.06984157905922, -32.99515048590988, 73.2176491260238, -109.74684102980282], [-3.576011059431317, -7.046249786960451, -21.140230950273278, -22.711208599527758], [29.19274967539111, 4.033613977499451, -37.99070918738437, -62.899315301456845], [16.052621580668, 20.368793638976864, -19.611612242465274, 9.50749691435706], [-50.97976136925633, -15.843227683995485, -24.288721623925042, 30.675520162848475], [-88.10423421680947, -1.9945873592536727, -54.485787529003915, 79.46193631680843], [-47.86311610741722, 11.393214236833579, -34.00330350171239, 64.63995014963524], [2.235655328692224, -4.945816335689197, -0.494653065815186, -3.4362815732451564]], "2": [[6.077486638630774, 1.5094324073405498, 1.709278561537001, 7.76204790305391, 1.6377485441860715, -6.399244867669325, -0.653134892833912, 6.153525656392063, -0.46040996505819703, 3.6801096679136394, -2.9469309843078535, 2.479706956172242, 13.031120028439314, -5.924899556874087, 2.355624527137418, 1.3324950021488575, -2.4913415845910993, -9.126717391506022, -1.9590151945279142, 2.2760633208163887, -0.22199943961642798, 0.6836337876232838, 6.365197900001745, -1.3300370066786045, -7.284411759821037, -6.356003689696416, -0.8376891387411975, -4.731830402863311, -1.155321495915882, -14.481905550029902], [17.712190370016746, 7.249144415381837, -5.332360690212817, 1.5555722186063679, -2.626951469451822, 0.1676414510672714, 1.4362278868341751, 8.695797662096679, -0.810629869978225, -3.434404877485974, 9.086609404981106, -3.7455137236867437, 16.365101782482782, -13.309617660054169, 5.306579924176493, -0.3490069925378953, -2.6327741725783578, 14.30979573986025, 13.492564388187388, -0.7225238945167581, 5.7263259307102405, -2.8159749599974675, -2.5246747465622223, 11.661721822516244, -9.784221532051953, 0.8650713167799201, -1.5016567429086398, -3.3549559782958553, -3.287025188327285, -5.647331848873275], [-29.31702832295434, -8.732471828409736, 7.520557957065806, -16.3451518658708, 6.136650101734234, 27.464508020999155, -2.756996994244557, -9.560366125148132, 0.6049298293789616, 0.09271625604213886, -14.919224886685832, 7.863995972031023, -18.450420282103124, 22.422211396047558, -8.5770162722642, -2.5934112839314025, -9.958240596703742, -9.932822097025836, -19.002969700421634, 9.06180341006143, 2.633380729384748, 15.018098763827481, -5.377923020560725, 4.649393230950529, 5.83018269065274, 6.802928147432133, -1.8278084770591212, 9.250889399439016, 5.903619497775407, 28.0969237403568], [2.6358831279762174, -16.841409097235058, -56.06338223582479, 25.27424784515974, -1.1156526746034614, -15.010294450727635, 1.4182515330388736, 25.893020149841373, -10.436418130563139, -10.785421758685553, 12.133886037826828, 2.169147834617001, 8.801678098089766, -5.692889588834158, 3.6574158617214985, -3.0345432505216943, 1.6920162812401216, -15.1621042687362, 9.691316029802474, 9.990455716307746, 7.028369603042716, 0.06572089484824162, -1.2068277063138304, -11.886511400145585, -11.476627288560497, 2.9603678728739915, 2.8234774858264426, 17.21282244033145, 2.8944101258458192, 30.998313115256913], [-2.33185926507152, -10.186326060676114, -56.68770891879388, 10.639905865656708, -3.4723545974795176, 3.662443570136963, 1.5555490513881538, 22.70557205130558, -6.099608479696736, -15.158849439687593, 18.865279390554168, -0.8511887985139526, -1.7491206933780388, -4.647204743294986, 3.68342772671365, -3.672521976658638, 4.0215137432401615, 4.543263346120602, 6.968785156700281, 7.5457453844972076, 13.463326290112208, 3.3506790469789705, -10.844938143897839, 3.00811536651909, -10.57769580881232, 11.680771051529078, 0.7220075984059103, 21.502630790225492, 3.2131680816951773, 33.21261281414703]], "3": [[-10.128083990477846], [-1.3451949559688086], [-0.09247390538956551], [-1.2354446738785332], [-5.935663903937967], [0.33914545074835545], [6.599834343836847], [1.2513073965159045], [-3.1583512239163816], [-0.32067501752917277], [1.5951677331053813], [8.679196100663246], [13.120401478270473], [-1.2693011255126203], [-7.3100524315100115], [6.011222310258834], [-6.1380389898735475], [2.4469094006988703], [0.057190261397748736], [-6.156876886835826], [4.905274955068238], [-2.319783250997471], [3.178135738029483], [-2.39218903607872], [3.1544960890068845], [4.034271820442308], [-8.741805243612076], [-0.7837641995822415], [-5.899374797458656], [-0.2420220213234332], [0.254867810802433]]}}, "fingerprints_range": {"Cu": [[0.7355979085179102, 15.55743075082518], [0.17208454571200024, 15.824610224206179], [0.2647337529778042, 9.728035574767311], [0.048289987224936715, 9.183520039100534], [0.08998943476157976, 6.543651351035633], [0.013116604377678287, 5.901293632153394], [0.011086319621036456, 3.4322011143730915], [0.0009677208042695254, 3.058089253340858], [2.8105378597217076e-05, 0.7186722153281908], [3.886297579508524e-07, 0.7702142399843445], [1.0530964208036616e-09, 0.06459500411004929], [8.495312182045297e-13, 0.09579851951537856], [1.4696933730671603e-18, 0.0005969806159118927], [4.059438105570023e-24, 0.0014999082499671163], [0.50034203926832, 586.0279136978755], [2.8969921783012786, 1339.0774553779588], [0.0, 680.2199829665379], [0.623397651130686, 430.46949002501225], [2.2581612173512284, 933.9576344679633], [0.11622805422127631, 505.84680013293473], [0.18504763958633103, 428.8432803118022], [1.7871978465575518, 999.1121607682313], [0.0, 497.0153279237612], [0.21809387928730953, 273.284856638939], [1.3209770091224067, 593.9923398582351], [0.06881080565862441, 322.6421450901536], [0.020560848842925673, 287.61510794586883], [0.799631268139842, 694.3948342368042], [0.0, 333.734781480117], [0.03697254301515187, 160.4359473839458], [0.665959989982916, 348.9904146530375], [0.004300675351054025, 189.85900104165898]], "Pd": [[0.17208454571200046, 15.82461022420618], [0.7355978047404241, 15.557430750825183], [0.04828998722493681, 9.183520039100532], [0.2647337529778042, 9.72803557476731], [0.01311660437767832, 5.901293632153396], [0.08998943476157976, 6.543651351035635], [0.000967720804269529, 3.058089253340857], [0.011086319621036456, 3.4322011143730906], [3.8862975795085565e-07, 0.770214239984344], [2.8105378597217076e-05, 0.7186722153281916], [8.495312182045429e-13, 0.09579851951537853], [1.0530949854903416e-09, 0.06459500411004933], [4.059438105570144e-24, 0.0014999082499671157], [1.469689571940093e-18, 0.0005969806159118931], [0.0, 680.2199829665362], [2.8969921783012804, 1339.0774553779634], [0.50034203926832, 586.0279136978755], [0.11622805422127645, 505.8468001329346], [2.2581612173512298, 933.9576344679631], [0.6233975439578614, 430.46949002501225], [0.0, 497.01532792376423], [1.7871978465575515, 999.1121607682309], [0.18504763958633114, 428.8432803118022], [0.06881080565862441, 322.6421450901558], [1.3209770091224076, 593.9923398582329], [0.21809382696856305, 273.284856638939], [0.0, 333.73478148011566], [0.799631268139842, 694.3948342368044], [0.020560848842925677, 287.61510794586883], [0.004300675351054025, 189.85900104165927], [0.6659599899829165, 348.9904146530362], [0.03697252924305966, 160.4359473839458]]}, "fingerprints_tag": 1, "scalings": {"Cu": {"intercept": -1.590646190456666, "slope": 3.5156353960856759}, "Pd": {"intercept": -1.5905136886588085, "slope": 4.1175495210369304}}}