{"cutoff": 6.5, "Gs": {"Pd": [{"eta": 0.05, "type": "G2", "element": "Cu"}, {"eta": 0.05, "type": "G2", "element": "Pd"}, {"eta": 4.0, "type": "G2", "element": "Cu"}, {"eta": 4.0, "type": "G2", "element": "Pd"}, {"eta": 20.0, "type": "G2", "element": "Cu"}, {"eta": 20.0, "type": "G2", "element": "Pd"}, {"eta": 80.0, "type": "G2", "element": "Cu"}, {"eta": 80.0, "type": "G2", "element": "Pd"}, {"zeta": 1.0, "elements": ["Cu", "Cu"], "type": "G4", "gamma": 1.0, "eta": 0.005}, {"zeta": 1.0, "elements": ["Cu", "Pd"], "type": "G4", "gamma": 1.0, "eta": 0.005}, {"zeta": 1.0, "elements": ["Pd", "Pd"], "type": "G4", "gamma": 1.0, "eta": 0.005}, {"zeta": 1.0, "elements": ["Cu", "Cu"], "type": "G4", "gamma": -1.0, "eta": 0.005}, {"zeta": 1.0, "elements": ["Cu", "Pd"], "type": "G4", "gamma": -1.0, "eta": 0.005}, {"zeta": 1.0, "elements": ["Pd", "Pd"], "type": "G4", "gamma": -1.0, "eta": 0.005}, {"zeta": 4.0, "elements": ["Cu", "Cu"], "type": "G4", "gamma": 1.0, "eta": 0.005}, {"zeta": 4.0, "elements": ["Cu", "Pd"], "type": "G4", "gamma": 1.0, "eta": 0.005}, {"zeta": 4.0, "elements": ["Pd", "Pd"], "type": "G4", "gamma": 1.0, "eta": 0.005}, {"zeta": 4.0, "elements": ["Cu", "Cu"], "type": "G4", "gamma": -1.0, "eta": 0.005}, {"zeta": 4.0, "elements": ["Cu", "Pd"], "type": "G4", "gamma": -1.0, "eta": 0.005}, {"zeta": 4.0, "elements": ["Pd", "Pd"], "type": "G4", "gamma": -1.0, "eta": 0.005}], "Cu": [{"eta": 0.05, "type": "G2", "element": "Cu"}, {"eta": 0.05, "type": "G2", "element": "Pd"}, {"eta": 4.0, "type": "G2", "element": "Cu"}, {"eta": 4.0, "type": "G2", "element": "Pd"}, {"eta": 20.0, "type": "G2", "element": "Cu"}, {"eta": 20.0, "type": "G2", "element": "Pd"}, {"eta": 80.0, "type": "G2", "element": "Cu"}, {"eta": 80.0, "type": "G2", "element": "Pd"}, {"zeta": 1.0, "elements": ["Cu", "Cu"], "type": "G4", "gamma": 1.0, "eta": 0.005}, {"zeta": 1.0, "elements": ["Cu", "Pd"], "type": "G4", "gamma": 1.0, "eta": 0.005}, {"zeta": 1.0, "elements": ["Pd", "Pd"], "type": "G4", "gamma": 1.0, "eta": 0.005}, {"zeta": 1.0, "elements": ["Cu", "Cu"], "type": "G4", "gamma": -1.0, "eta": 0.005}, {"zeta": 1.0, "elements": ["Cu", "Pd"], "type": "G4", "gamma": -1.0, "eta": 0.005}, {"zeta": 1.0, "elements": ["Pd", "Pd"], "type": "G4", "gamma": -1.0, "eta": 0.005}, {"zeta": 4.0, "elements": ["Cu", "Cu"], "type": "G4", "gamma": 1.0, "eta": 0.005}, {"zeta": 4.0, "elements": ["Cu", "Pd"], "type": "G4", "gamma": 1.0, "eta": 0.005}, {"zeta": 4.0, "elements": ["Pd", "Pd"], "type": "G4", "gamma": 1.0, "eta": 0.005}, {"zeta": 4.0, "elements": ["Cu", "Cu"], "type": "G4", "gamma": -1.0, "eta": 0.005}, {"zeta": 4.0, "elements": ["Cu", "Pd"], "type": "G4", "gamma": -1.0, "eta": 0.005}, {"zeta": 4.0, "elements": ["Pd", "Pd"], "type": "G4", "gamma": -1.0, "eta": 0.005}]}, "activation": "tanh", "hiddenlayers": {"Pd": [3, 35], "Cu": [3, 35]}, "weights": {"Cu": {"1": [[0.03211056838397573, 0.028846602472622246, 0.03870668295864309], [0.03662179228307688, -0.0023020628104563623, 0.018443020376020247], [-0.04358017138872369, 0.022677683452204334, -0.012330920905269563], [0.06205421328828632, 0.047344230839681214, -0.07301034314701148], [0.020159992965662343, -0.0018633819748872377, 0.05675896040906432], [-0.06232879091218389, 0.0616199212084481, 0.028592818125752734], [-0.04826459584307277, -0.023030395709896193, 0.020982128518213808], [0.014119268022144568, 0.008917476930132354, 0.014730659299996646], [0.005095275213234204, -0.055465369875720136, -0.019543015040604975], [-0.02811449556962834, 0.03951969350931195, 0.0030250784504714245], [0.07329570041958146, -0.04623669561422532, 0.02919634609367483], [-0.05766190342870296, 0.02462316352205049, -0.03972211907621502], [0.004346594320484939, 0.0006000870342925541, 0.03913643183489225], [-0.02148419095399997, -0.036938697850368025, -0.008936424902878104], [0.0600674995343294, -0.041008774366061124, 0.03729313103665588], [-0.06529091652921713, -0.0727903901312907, -0.048859755785105756], [0.060111188689503006, 0.05599091929099877, 0.07403471134250615], [-0.029703581435279285, 0.06854355335554473, -0.013532147505423281], [0.024842004650692737, 0.01578723989303968, -0.0664806126440618], [0.04804688004727957, 0.0643593084316084, 0.014805151916317288], [0.0, 0.0, 0.0]], "2": [[0.03339063498640549, -0.16809282183826424, 0.23133905420141632, 0.47220025480004835, 0.29854229580208824, 0.4417172296198433, 0.16877666572699745, -0.2767649048460801, -0.2122039895299297, 0.08582153779817225, 0.3864255764628489, 0.0059894720008106805, -0.4196207968021941, -0.35558981350620955, 0.3800835366722354, 0.3411996371539704, 0.26407800750663135, -0.295597397682682, -0.04006360410191412, -0.26732580680821116, 0.04541599396883411, -0.27774856215526655, -0.022375885574247634, -0.4158875649377263, 0.4951189235369249, 0.10299883082278116, 0.3414122367397253, -0.35822002213785176, -0.12458660070461525, -0.14289155324516556, 0.3806347805152194, -0.1863259072384449, 0.024328888966300255, 0.37429697154003927, 0.10475468757888218], [0.24169177988782964, 0.16584063222292889, 0.06458987876106437, 0.12665481356841723, -0.45826065632114554, -0.021759727451044597, 0.25389653028821124, 0.487608991640918, 0.06535296948186042, -0.23985192700483382, -0.3540895737008727, 0.4565071247497895, -0.4228875805458464, -0.30317831178346133, -0.3986554337523863, -0.46352187258827937, -0.10466952981322197, -0.49011588206699774, 0.2489872143858377, -0.22273959830798606, -0.3975096796225672, -0.45205669762222833, -0.3799052213791888, 0.13299787625693837, 0.014436595490981086, 0.03250960658085267, 0.2458131237109119, 0.4597563703469454, 0.20085466621136538, 0.3034201307013986, 0.14245293130498038, 0.36836859155158586, -0.014107780578666795, 0.24282817088901154, -0.2721788755342114], [0.21190042374886287, -0.008360455746048934, 0.21199608112313528, 0.09256796649046017, -0.1698695162693945, -0.11970826705800819, -0.3919577350945491, -0.4975056068125836, 0.07984617850687414, -0.04657961213591688, -0.2465011228460896, 0.20023884373959067, 0.22765271917991603, 0.22041400099476172, -0.2833598590128865, 0.017208420431132465, 0.20038575358933264, -0.4825906008497255, -0.10716099245075139, 0.45169082654640613, 0.028859969258003826, 0.4592170809250805, -0.22547646389553588, 0.1745027097295887, 0.2800712740402328, 0.26570610035994735, -0.4680884172301414, -0.0836019433526708, 0.20266584270960575, -0.1002670940104694, 0.21131549357081425, -0.018885212835908383, -0.29653645270374385, -0.45648423758081547, -0.0006980079885636759], [0.0, 0.0, 0.0, 0.0, 0.0, 0.0, 0.0, 0.0, 0.0, 0.0, 0.0, 0.0, 0.0, 0.0, 0.0, 0.0, 0.0, 0.0, 0.0, 0.0, 0.0, 0.0, 0.0, 0.0, 0.0, 0.0, 0.0, 0.0, 0.0, 0.0, 0.0, 0.0, 0.0, 0.0, 0.0]], "3": [[-0.03164262517018479], [-0.03060012836155939], [-0.012151616663204252], [-0.016344339835875923], [0.026496174051220497], [0.036235087154439516], [0.0244173477440799], [0.0037660675611401184], [-0.017926324315161658], [0.010398668257797339], [0.025343260822935226], [-0.0016032565673762891], [-0.013919941454225027], [-0.021119340772925668], [-0.040466837482694334], [0.039596784187783715], [-0.04117508426754418], [-0.04141650377250518], [-0.0038087233360639752], [0.022486423031742725], [0.0010893056781913074], [0.036905387660343236], [-0.028209200207087184], [-0.04155088022597717], [-0.030119872769811238], [0.008451112952540245], [0.0058672468956247545], [0.017527875788539364], [-0.024830828400345832], [-0.03972297016477932], [0.03164193447832035], [-0.00861126414241968], [-0.03791562149176188], [-0.012083828348541704], [0.017422260458996683], [0.0]]}, "Pd": {"1": [[-0.06978494847097928, -0.07479735190551276, 0.03514912653157429], [-0.04418715873655128, -0.04187145708097687, -0.0027381293691469133], [0.0608112804883147, 0.044723491732204856, 0.007632215022788685], [-0.06745745648201285, 0.004208082752697101, 0.049586785632562316], [-0.03280679740532666, -0.06839611468149197, -0.014807281182487822], [0.06358723358937278, 0.0016098252950786929, 0.0014138982383757742], [0.05101810204549666, -0.05465515302326986, -0.041864980368104425], [-0.05647227862385587, -0.04679439912079632, -0.0322251569775014], [-0.024871823186304466, -0.010965427119479815, 0.04757151187871543], [-0.014743817483023051, 0.007633939886004998, 0.015495440768473617], [0.033179642664038375, -0.06688782054397154, -0.011641698330778757], [-0.05400999740585537, -0.03242754206647578, -0.022114393250854604], [0.0730495500845726, -0.021760780372187052, -0.03503575856033242], [-0.0656898035291215, -0.057176183139406006, 0.03376094885923686], [-0.004338567084283387, -0.07498928117717898, -0.05909945905332155], [-0.02024626037477783, 0.02357552144652114, 0.021775409987849326], [0.022795709115390084, 0.05520919469680467, -0.05453442249570027], [-0.055547022909982355, 0.004300195043618976, 0.005643525999986965], [-0.07039640481688482, 0.03670293363707795, -0.01553649569521244], [0.051885872305267575, -0.01574933096898949, 0.0018224631453725992], [0.0, 0.0, 0.0]], "2": [[-0.27023518379450506, 0.3701813929829605, -0.1834929816184363, -0.05945359777990711, 0.20834266193137863, -0.41281332787264624, 0.3458841862140474, 0.2139716348940106, 0.29018359804634164, -0.4539856329174623, 0.2517251554365483, 0.26626158557384694, -0.34713312213327696, -0.4841386023707469, 0.29450420511090103, 0.48902173619672973, 0.4600685913966628, -0.12410117147695943, 0.4498723111576429, 0.12812064930412104, 0.2007907238119322, -0.2911904934461532, -0.4248449958124946, 0.44783573724732095, 0.02164724434991594, -0.42992211468315256, -0.472581698327048, 0.22828946572036413, -0.4149515351533798, -0.39001266866055406, 0.41759165726853376, -0.37424638190677895, 0.39741399266235833, 0.4945340462954664, 0.2123537309744381], [0.2971853496287544, -0.3021757818653681, 0.31094105471275546, -0.22554515200620806, -0.14871254606304574, -0.13016684911044696, -0.21825779239026022, -0.4100018420117677, -0.47819494470062784, 0.4719156442155418, 0.4211988489351046, -0.43582818336359386, -0.4468644292671864, -0.33527417694175166, -0.34518770413605393, -0.17096777304014155, 0.48597114785958473, -0.3632931697247047, 0.35115569905677513, 0.1310638729510224, 0.1505258064335081, 0.39312867549825103, -0.1064113605491287, 0.25896734140500877, -0.19900448989072095, -0.4546930279043502, 0.21271190071117774, -0.1413106787885673, -0.13559067265464508, -0.2858617546682465, 0.1062927840743575, 0.15840043427243045, -0.2660247898270097, -0.23585289292725276, 0.13763836757507786], [0.4147794578369054, -0.4420554789223121, 0.4816100957994298, -0.4410286717388886, -0.22310870358470192, 0.479046776928468, -0.370342083518446, -0.2361363707285855, 0.3018995488444097, -0.2286426274186628, -0.05190455391204507, 0.15683132112188058, 0.3421822811538203, -0.202670390075263, 0.14148982613733596, 0.16933434729057217, -0.27806728966479344, 0.4712523946259891, -0.4667178537258049, -0.4937582632956906, 0.4816553061671396, 0.40429005850766786, 0.21091994868324027, -0.20332857308757035, -0.14228734921412134, 0.48861942745568643, 0.1963716680441694, -0.286108211792492, -0.16326192653121685, 0.3967095679601538, -0.33239592503123294, 0.042698855950100145, -0.10540779642632281, 0.023187670243698166, 0.18103080978967234], [0.0, 0.0, 0.0, 0.0, 0.0, 0.0, 0.0, 0.0, 0.0, 0.0, 0.0, 0.0, 0.0, 0.0, 0.0, 0.0, 0.0, 0.0, 0.0, 0.0, 0.0, 0.0, 0.0, 0.0, 0.0, 0.0, 0.0, 0.0, 0.0, 0.0, 0.0, 0.0, 0.0, 0.0, 0.0]], "3": [[0.030589594891722444], [0.028614710336734378], [-0.03614100300038483], [-0.001210128122191588], [-0.016730456776809618], [-0.006848733987692597], [-0.01143227322026287], [-0.0343853974090361], [-0.02157230983005716], [-0.016524038120387444], [-0.024852724178670516], [0.020727497212846016], [0.009182616113791633], [-0.020968550786998094], [0.03393435410340506], [0.00228227488300764], [0.01542408287883628], [-0.0341612968548011], [0.01588734119911063], [-0.017831766401766234], [0.00058623924656976], [-0.008864654062774313], [0.04017303453244245], [-0.03295513659764189], [0.03560432713615001], [0.026886181913392898], [-0.040942056212253636], [-0.008406261722496776], [0.017820417402622614], [0.024619346095372863], [0.01688878343260869], [0.004650654528695473], [0.006103027848352351], [0.016776154998825378], [0.014443371924778944], [0.0]]}}, "fingerprints_range": {"Cu": [[0.1063750548408017, 15.55743075082518], [0.028202539821623157, 15.824610224206179], [0.0039475029562834815, 6.543651351035633], [0.0009775685586746502, 5.901293632153394], [6.336097831506945e-09, 0.7186722153281908], [1.190287988056906e-09, 0.7702142399843445], [1.1815297550357418e-30, 0.0005969806159118927], [7.875808503354093e-32, 0.0014999082499671163], [0.14542638955905765, 586.0279136978755], [1.0639431752062123, 1339.0774553779588], [-2.1232459816643144e-18, 680.2199829665379], [0.21753575331713212, 430.46949002501225], [0.7672793241028637, 933.9576344679633], [0.01912449962367862, 505.84680013293473], [0.009653362355969163, 287.61510794586883], [0.3377739380614941, 694.3948342368042], [0.0, 333.734781480117], [0.03697254301515187, 160.4359473839458], [0.23682355773155236, 348.9904146530375], [0.0018168617087065356, 189.85900104165898]], "Pd": [[0.028202539821623157, 15.82461022420618], [0.1063750548408017, 15.557430750825183], [0.0009775685586746502, 5.901293632153396], [0.0039475029562834815, 6.543651351035635], [1.190287988056906e-09, 0.770214239984344], [6.336097831506945e-09, 0.7186722153281916], [7.875808503354093e-32, 0.0014999082499671157], [1.1815297550357418e-30, 0.0005969806159118931], [-2.1232459816643144e-18, 680.2199829665362], [1.0639431752062118, 1339.0774553779634], [0.14542638955905765, 586.0279136978755], [0.01912449962367862, 505.8468001329346], [0.7672793241028637, 933.9576344679631], [0.21753575331713212, 430.46949002501225], [0.0, 333.73478148011566], [0.33777393806149464, 694.3948342368044], [0.009653362355969173, 287.61510794586883], [0.0018168617087065421, 189.85900104165927], [0.23682355773155245, 348.9904146530362], [0.03697252924305966, 160.4359473839458]]}, "fingerprints_tag": 1, "scalings": {"Pd": {"slope": 2.7555544681249997, "intercept": -2.459831533125}, "Cu": {"slope": 2.7555544681249997, "intercept": -2.459831533125}}}