{"cutoff": 6.5, "Gs": {"Pd": [{"eta": 0.05, "type": "G2", "element": "Cu"}, {"eta": 0.05, "type": "G2", "element": "Pd"}, {"eta": 4.0, "type": "G2", "element": "Cu"}, {"eta": 4.0, "type": "G2", "element": "Pd"}, {"eta": 20.0, "type": "G2", "element": "Cu"}, {"eta": 20.0, "type": "G2", "element": "Pd"}, {"eta": 80.0, "type": "G2", "element": "Cu"}, {"eta": 80.0, "type": "G2", "element": "Pd"}, {"zeta": 1.0, "elements": ["Cu", "Cu"], "type": "G4", "gamma": 1.0, "eta": 0.005}, {"zeta": 1.0, "elements": ["Cu", "Pd"], "type": "G4", "gamma": 1.0, "eta": 0.005}, {"zeta": 1.0, "elements": ["Pd", "Pd"], "type": "G4", "gamma": 1.0, "eta": 0.005}, {"zeta": 1.0, "elements": ["Cu", "Cu"], "type": "G4", "gamma": -1.0, "eta": 0.005}, {"zeta": 1.0, "elements": ["Cu", "Pd"], "type": "G4", "gamma": -1.0, "eta": 0.005}, {"zeta": 1.0, "elements": ["Pd", "Pd"], "type": "G4", "gamma": -1.0, "eta": 0.005}, {"zeta": 4.0, "elements": ["Cu", "Cu"], "type": "G4", "gamma": 1.0, "eta": 0.005}, {"zeta": 4.0, "elements": ["Cu", "Pd"], "type": "G4", "gamma": 1.0, "eta": 0.005}, {"zeta": 4.0, "elements": ["Pd", "Pd"], "type": "G4", "gamma": 1.0, "eta": 0.005}, {"zeta": 4.0, "elements": ["Cu", "Cu"], "type": "G4", "gamma": -1.0, "eta": 0.005}, {"zeta": 4.0, "elements": ["Cu", "Pd"], "type": "G4", "gamma": -1.0, "eta": 0.005}, {"zeta": 4.0, "elements": ["Pd", "Pd"], "type": "G4", "gamma": -1.0, "eta": 0.005}], "Cu": [{"eta": 0.05, "type": "G2", "element": "Cu"}, {"eta": 0.05, "type": "G2", "element": "Pd"}, {"eta": 4.0, "type": "G2", "element": "Cu"}, {"eta": 4.0, "type": "G2", "element": "Pd"}, {"eta": 20.0, "type": "G2", "element": "Cu"}, {"eta": 20.0, "type": "G2", "element": "Pd"}, {"eta": 80.0, "type": "G2", "element": "Cu"}, {"eta": 80.0, "type": "G2", "element": "Pd"}, {"zeta": 1.0, "elements": ["Cu", "Cu"], "type": "G4", "gamma": 1.0, "eta": 0.005}, {"zeta": 1.0, "elements": ["Cu", "Pd"], "type": "G4", "gamma": 1.0, "eta": 0.005}, {"zeta": 1.0, "elements": ["Pd", "Pd"], "type": "G4", "gamma": 1.0, "eta": 0.005}, {"zeta": 1.0, "elements": ["Cu", "Cu"], "type": "G4", "gamma": -1.0, "eta": 0.005}, {"zeta": 1.0, "elements": ["Cu", "Pd"], "type": "G4", "gamma": -1.0, "eta": 0.005}, {"zeta": 1.0, "elements": ["Pd", "Pd"], "type": "G4", "gamma": -1.0, "eta": 0.005}, {"zeta": 4.0, "elements": ["Cu", "Cu"], "type": "G4", "gamma": 1.0, "eta": 0.005}, {"zeta": 4.0, "elements": ["Cu", "Pd"], "type": "G4", "gamma": 1.0, "eta": 0.005}, {"zeta": 4.0, "elements": ["Pd", "Pd"], "type": "G4", "gamma": 1.0, "eta": 0.005}, {"zeta": 4.0, "elements": ["Cu", "Cu"], "type": "G4", "gamma": -1.0, "eta": 0.005}, {"zeta": 4.0, "elements": ["Cu", "Pd"], "type": "G4", "gamma": -1.0, "eta": 0.005}, {"zeta": 4.0, "elements": ["Pd", "Pd"], "type": "G4", "gamma": -1.0, "eta": 0.005}]}, "activation": "tanh", "hiddenlayers": {"Pd": [3, 35], "Cu": [3, 35]}, "weights": {"Cu": {"1": [[0.11416251936346393, -1.6374496068909747, -0.264765643225472], [2.558840644644815, 0.8929882587459075, -0.24893407151165997], [3.0096874090766215, -0.12421723162665214, 0.06840320424583095], [1.154882357909469, -0.6180018847699857, -0.05206322608914226], [-0.8513370341624522, -0.7578424548800029, 0.06319982803660658], [-0.9304275604873816, 0.23887110740527148, 0.0917499295910306], [-0.9227430957970348, 0.03366535431183509, 0.0025982204632356305], [2.0176351169498177, 1.1971371713133325, -0.0027886846817690544], [17.923916385714293, -42.86602727171111, 0.3634525844143464], [-5.645243358785421, -120.19998186929567, 1.3491114782208553], [-14.049805023446504, -83.23820430210566, -0.07041689926937975], [-12.861655624971416, 48.723943440931336, -0.240049605806233], [-4.746227326326371, 145.73491577175372, -0.9393821647746607], [-5.9880094940003525, 75.7959190508698, 1.1619675858016079], [-11.151765719109967, 16.46258940159342, -0.025436340730745455], [9.301160548004207, 63.76381586659383, -1.0833284751315033], [8.815729350278282, 43.384399478911554, -0.12744340549812858], [0.5054056367387043, -27.860021464038, 0.20513166200828448], [7.340930477587662, -77.1144967197345, 0.0197929851130822], [1.7140173405810308, -44.57626527317678, -0.4677570446756916], [-3.869780021307114, 0.350357711292099, -0.18944009905924517]], "2": [[9.765991474401195, -10.243589093538654, -16.56690016202733, -1.318969435057318, 0.22856441134425456, 0.12261186779222018, 2.3069865105282825, 0.9582281378575004, 0.4526613065402584, -9.5293656151984, -0.3045630961266511, -0.5934274836654706, 0.07925144621147072, -1.2832330311086393, -0.14017356014081772, -31.627819399016794, -0.4569236377247412, 8.15165043468642, -0.4256138746685682, 5.853437584009654, 14.355842031990285, 0.0423283375841833, -9.066701784052253, 2.936235888739978, 0.33885445729691027, 4.6986263699609125, 0.11459206977246544, -29.08030886181722, -23.731751966595336, 0.21993266258041028, -4.88859150884499, 10.18076041064066, -3.1026816463230937, 6.052394576558252, 5.991754810025506], [-3.853411454883078, 3.009610180708697, 16.327859178081393, 1.2449816674809473, -1.029152403476712, 8.608070049526454, -5.6572256597933315, 7.028390667309931, 1.3424205050582987, 4.219229997171581, 2.888577680863551, -7.0496884336064785, -0.14755377695507677, 0.6634614007960344, 0.8107902640153428, 51.58356547854712, 6.858093214874003, -8.209722902500971, 5.836277649691976, -5.2428971045965875, 7.34057609119093, 6.993122948988426, 9.161362715910828, 6.841804886086177, -2.4526288975727937, -2.818081611206016, 0.9370007294816871, 34.92064034624044, -4.1361216710736946, -0.23483031812867006, 1.8013102033471546, -8.213407195706079, 4.465412112466972, 5.856983360385071, 5.553569507008478], [-1.2378266369780513, 2.8789924317019704, -19.889922612129038, -0.8909597595940444, 8.38073316286987, 0.9156072858403276, 1.5366146456725198, -14.337782863625609, 15.38374307037398, 0.5495508190722452, -7.134926112477995, 14.366120809496628, 7.84161461521157, -2.0685261651003257, -2.964331304475194, -30.71036900822857, 10.347712821461373, -14.835665078548594, 3.7937593602872726, 11.282200334173286, 19.069043977016477, -14.7440186247015, -25.387086491907766, 11.082446333442537, -5.3007405156078935, 10.847935883214198, -9.168515865394824, -18.58141600983426, 2.369165361269677, 9.782632024777472, -9.919464638986103, 20.317358422855058, -3.0728532079664665, 9.925767430779088, 12.825353837057111], [3.9708785643738262, -2.9552386555914234, -18.02563092285443, -0.7988723141276716, 3.8733651108550795, -8.423683753918208, 7.2251373583216285, -8.009105208629038, 3.5275510780083925, -4.409149417261912, -2.9133933962390355, 8.231183130669208, 1.7206014144898996, -1.4508360459311311, -1.3282453918462087, -63.645924725448424, -4.957203493885227, -4.392029674105698, -5.3517196675204195, 5.396425337797957, -3.8340858145533225, -8.651482399003324, -10.19310239729952, -2.5000294817111923, 4.287371357501887, 4.293000056086757, -2.6351518400547898, 0.07744288130655896, -27.81779344293789, 3.9399278121433317, -0.7783075074430784, 13.06420592476166, -5.444772212124426, 3.263879808862134, -6.9290194922213315]], "3": [[-4.5331984869879065], [-1.275236260728803], [0.006482839280438368], [-5.000342805447846], [-3.993740311985548], [-0.9912420126151076], [2.1836337504991863], [-2.270638409909928], [0.4355399449338748], [-3.297003530676737], [-0.8318589252024645], [-3.9793517011021233], [4.519104498460635], [4.626084695147336], [0.542361926548066], [-0.019545033850184888], [-0.7091159834303024], [0.07046281026359749], [3.5700492885729562], [-0.2579629819158465], [-0.010574926606495175], [-1.820260769127946], [0.13837257186568755], [-0.08087321788908129], [-4.325242411621201], [-0.29300732277417707], [2.9002198292045835], [21.68507388027645], [-2.9497335010496863], [3.4037182638173107], [0.8241681280853166], [-0.06683208287578397], [-0.5733587784080825], [0.014600976120198566], [1.5204431037484958], [-16.69251300706015]]}, "Pd": {"1": [[0.7374869235967936, 1.0652334176829656, 0.49235770379199184], [1.571029576435558, 1.0031018193976053, 0.5347137935959918], [-1.4644820246822419, -0.6514635363648, -0.41157248947118913], [-0.8252419928583051, -0.31465796013847674, -0.25088130281199894], [0.24882419702707456, 0.16490161304771472, -0.03991687997828223], [0.37768706179498707, 0.0675955215632524, 0.0038198302654208725], [-0.048774954353507455, -0.8098983662579334, -0.021315016376552528], [0.050213012084586235, -0.5013273064209425, 0.004828554438121076], [-46.90214797247365, -8.335182696295801, 0.32472662540752867], [-105.60305230716709, -19.40765757688087, -3.061206584817135], [-56.71869797133701, -10.539684561545506, -2.984911877817872], [42.92329191639775, 3.828845114011647, 0.47025256946021626], [104.5752453088631, 12.172250699063415, 2.0606198029974965], [70.50904675116647, 10.268693186805503, 3.7376521954031974], [25.1715318458097, 4.765962403053194, -0.35876880806664113], [61.54846682656367, 12.14468064473301, 1.5930421679120965], [30.440515871910577, 6.196487758163011, 1.885577139661872], [-20.44208133291158, -0.24226710519740335, 0.26555933736415244], [-63.03001384691767, -6.063090450229055, -1.5944023021316844], [-43.31305497492256, -5.886414395781575, -2.2109363679412257], [0.2804141100595505, -1.6984630326853845, -0.7351924425480117]], "2": [[14.073978647465298, -1.7488705852292494, -6.556295590230875, 0.07992861354727157, 0.22490941649440088, -10.811561977665024, -0.5887920696950839, 4.503345134793715, 7.036360057598862, -5.956778266123988, -8.939141355557185, 1.4233389659919229, -3.6787018256759993, 2.0641753411032435, 7.042784441271196, 2.0948014554336662, 2.875065411396866, -0.17509874769092448, -0.8531908593250066, 2.468176206626387, 5.9746159909259315, 0.5755984342732486, 7.081179792040582, 1.6189458931473841, 1.8839385466561909, 0.9459459695358859, -2.5699392816319047, 11.925999022810139, -1.5577121202489679, 0.10690807270099072, -4.6030232896490535, -1.0759231234310727, -0.9791795698796537, -7.004651060827381, 5.6211561932954535], [1.1227439512532649, -2.949357753519514, -4.130354448786391, 3.6068267130991876, 4.224835974950142, -5.435234814020808, -1.616796552890819, 4.562392004448685, 1.215694703307442, -7.275315130576279, 6.5070438892628735, 3.590124841418416, -0.3011602590764347, -5.9239175086000655, -2.2743284358992777, 0.6269601147623504, 3.0846327508568048, 4.096722538622842, -0.5677967474276144, 3.6582930676382825, -2.8213062360301855, 3.7785988426042025, 4.311819774134344, 3.82875622078464, 32.1424335362166, 2.871813902346082, 6.064947012346025, -2.9119132802278225, -4.197039005551221, -0.3410110676387863, -1.1834584884328405, -6.017767081499403, -5.432235993246094, -1.2599022663142012, 1.4091316107356526], [36.215042753427156, 6.000397503640185, -11.042249026846264, 1.1563122780800543, -0.8310277134967384, -18.80278631950042, -7.485352035631329, 14.633517927407759, 11.605931362117893, -25.2862806111138, 1.770223451209388, -5.282542758672168, -2.8179682146515117, 18.73114095246022, -1.9279680262989722, -3.813019017084673, 15.220965252747462, 0.12094516255661926, -1.0186828145556455, 11.016312383341852, -4.418996471820023, 5.462104172645806, 11.967272569940866, -4.995033215485783, 49.841669760427145, 12.03340010649178, -19.731814602702745, 0.07392603359119233, 5.129950363499164, 8.17326375769988, -7.090371883857433, 2.9255212711395595, 2.6306895224099436, -11.81104908948867, 9.295035861654618], [7.0808591583808385, 2.813655726628708, -6.582377128355647, 0.49882152460916174, 6.546147606104132, -10.518210283504397, -1.9869117362409598, 11.512133532326477, 6.581038447823775, -30.72119788963996, 3.039976471317027, -2.5904268373339927, -1.1691677363004283, 12.126490390472927, -0.5678069490772236, -1.2487989010832372, 3.1466837169434205, 0.1165976509339827, -2.4937477198251052, 9.281317242065635, -2.0727445065398555, 7.986624700006544, 7.060379780350743, 10.606900951234909, 25.218856061554803, 4.9850798964003245, -12.656841609423175, 0.8448564939643393, 2.7304401349712104, 7.2182914413725525, -3.3604990798758507, 0.9731532977629742, 1.018830452402251, -6.699222736197892, 4.351312038070026]], "3": [[-0.46003995525335534], [0.9474987161542024], [-0.7104764908818906], [1.274251581273016], [-5.602735207196416], [-0.03863514125916365], [-7.486972816828956], [-0.4996773082757232], [-2.2133030562410942], [-8.783090855981444], [-0.0076724608865645335], [2.0663879758153407], [-0.9174288348779427], [3.4712449693700687], [0.7666601237069204], [-0.23194334540137235], [11.936952282981148], [-1.632008016311814], [6.542483891607595], [1.4559082878874854], [-0.5552808606622508], [5.24782500631195], [-0.6754881049355178], [12.563235881617837], [0.010675000205016466], [-1.2858590106797974], [2.8325312340587376], [-0.139144404117062], [1.7312980230813575], [-5.3204042165905205], [1.3663573615407894], [1.0943932175172282], [-1.8698389980676093], [-2.217004273827492], [0.6316561661090835], [5.38596423774374]]}}, "fingerprints_range": {"Cu": [[0.1063750548408017, 15.55743075082518], [0.028202539821623157, 15.824610224206179], [0.0039475029562834815, 6.543651351035633], [0.0009775685586746502, 5.901293632153394], [6.336097831506945e-09, 0.7186722153281908], [1.190287988056906e-09, 0.7702142399843445], [1.1815297550357418e-30, 0.0005969806159118927], [7.875808503354093e-32, 0.0014999082499671163], [0.14542638955905765, 586.0279136978755], [1.0639431752062123, 1339.0774553779588], [-2.1232459816643144e-18, 680.2199829665379], [0.21753575331713212, 430.46949002501225], [0.7672793241028637, 933.9576344679633], [0.01912449962367862, 505.84680013293473], [0.009653362355969163, 287.61510794586883], [0.3377739380614941, 694.3948342368042], [0.0, 333.734781480117], [0.03697254301515187, 160.4359473839458], [0.23682355773155236, 348.9904146530375], [0.0018168617087065356, 189.85900104165898]], "Pd": [[0.028202539821623157, 15.82461022420618], [0.1063750548408017, 15.557430750825183], [0.0009775685586746502, 5.901293632153396], [0.0039475029562834815, 6.543651351035635], [1.190287988056906e-09, 0.770214239984344], [6.336097831506945e-09, 0.7186722153281916], [7.875808503354093e-32, 0.0014999082499671157], [1.1815297550357418e-30, 0.0005969806159118931], [-2.1232459816643144e-18, 680.2199829665362], [1.0639431752062118, 1339.0774553779634], [0.14542638955905765, 586.0279136978755], [0.01912449962367862, 505.8468001329346], [0.7672793241028637, 933.9576344679631], [0.21753575331713212, 430.46949002501225], [0.0, 333.73478148011566], [0.33777393806149464, 694.3948342368044], [0.009653362355969173, 287.61510794586883], [0.0018168617087065421, 189.85900104165927], [0.23682355773155245, 348.9904146530362], [0.03697252924305966, 160.4359473839458]]}, "fingerprints_tag": 1, "scalings": {"Cu": {"intercept": 4.1331529284689434, "slope": 3.3125386000262735}, "Pd": {"intercept": 4.1355667356755115, "slope": 19.084087904961322}}}