{"cutoff": 6.5, "Gs": {"Pd": [{"eta": 0.05, "type": "G2", "element": "Cu"}, {"eta": 0.05, "type": "G2", "element": "Pd"}, {"eta": 4.0, "type": "G2", "element": "Cu"}, {"eta": 4.0, "type": "G2", "element": "Pd"}, {"eta": 20.0, "type": "G2", "element": "Cu"}, {"eta": 20.0, "type": "G2", "element": "Pd"}, {"eta": 80.0, "type": "G2", "element": "Cu"}, {"eta": 80.0, "type": "G2", "element": "Pd"}, {"zeta": 1.0, "elements": ["Cu", "Cu"], "type": "G4", "gamma": 1.0, "eta": 0.005}, {"zeta": 1.0, "elements": ["Cu", "Pd"], "type": "G4", "gamma": 1.0, "eta": 0.005}, {"zeta": 1.0, "elements": ["Pd", "Pd"], "type": "G4", "gamma": 1.0, "eta": 0.005}, {"zeta": 1.0, "elements": ["Cu", "Cu"], "type": "G4", "gamma": -1.0, "eta": 0.005}, {"zeta": 1.0, "elements": ["Cu", "Pd"], "type": "G4", "gamma": -1.0, "eta": 0.005}, {"zeta": 1.0, "elements": ["Pd", "Pd"], "type": "G4", "gamma": -1.0, "eta": 0.005}, {"zeta": 4.0, "elements": ["Cu", "Cu"], "type": "G4", "gamma": 1.0, "eta": 0.005}, {"zeta": 4.0, "elements": ["Cu", "Pd"], "type": "G4", "gamma": 1.0, "eta": 0.005}, {"zeta": 4.0, "elements": ["Pd", "Pd"], "type": "G4", "gamma": 1.0, "eta": 0.005}, {"zeta": 4.0, "elements": ["Cu", "Cu"], "type": "G4", "gamma": -1.0, "eta": 0.005}, {"zeta": 4.0, "elements": ["Cu", "Pd"], "type": "G4", "gamma": -1.0, "eta": 0.005}, {"zeta": 4.0, "elements": ["Pd", "Pd"], "type": "G4", "gamma": -1.0, "eta": 0.005}], "Cu": [{"eta": 0.05, "type": "G2", "element": "Cu"}, {"eta": 0.05, "type": "G2", "element": "Pd"}, {"eta": 4.0, "type": "G2", "element": "Cu"}, {"eta": 4.0, "type": "G2", "element": "Pd"}, {"eta": 20.0, "type": "G2", "element": "Cu"}, {"eta": 20.0, "type": "G2", "element": "Pd"}, {"eta": 80.0, "type": "G2", "element": "Cu"}, {"eta": 80.0, "type": "G2", "element": "Pd"}, {"zeta": 1.0, "elements": ["Cu", "Cu"], "type": "G4", "gamma": 1.0, "eta": 0.005}, {"zeta": 1.0, "elements": ["Cu", "Pd"], "type": "G4", "gamma": 1.0, "eta": 0.005}, {"zeta": 1.0, "elements": ["Pd", "Pd"], "type": "G4", "gamma": 1.0, "eta": 0.005}, {"zeta": 1.0, "elements": ["Cu", "Cu"], "type": "G4", "gamma": -1.0, "eta": 0.005}, {"zeta": 1.0, "elements": ["Cu", "Pd"], "type": "G4", "gamma": -1.0, "eta": 0.005}, {"zeta": 1.0, "elements": ["Pd", "Pd"], "type": "G4", "gamma": -1.0, "eta": 0.005}, {"zeta": 4.0, "elements": ["Cu", "Cu"], "type": "G4", "gamma": 1.0, "eta": 0.005}, {"zeta": 4.0, "elements": ["Cu", "Pd"], "type": "G4", "gamma": 1.0, "eta": 0.005}, {"zeta": 4.0, "elements": ["Pd", "Pd"], "type": "G4", "gamma": 1.0, "eta": 0.005}, {"zeta": 4.0, "elements": ["Cu", "Cu"], "type": "G4", "gamma": -1.0, "eta": 0.005}, {"zeta": 4.0, "elements": ["Cu", "Pd"], "type": "G4", "gamma": -1.0, "eta": 0.005}, {"zeta": 4.0, "elements": ["Pd", "Pd"], "type": "G4", "gamma": -1.0, "eta": 0.005}]}, "activation": "tanh", "hiddenlayers": {"Pd": [3, 35], "Cu": [3, 35]}, "weights": {"Cu": {"1": [[-0.5158314524526195, 0.9155649463355642, 0.04761897590905509], [-0.7666221117559571, 0.24671456744118647, 0.31916416252094165], [-0.28488997553297135, -0.4253605244733166, 0.06351695674341214], [-0.16646919804080146, 0.012725297918077947, 0.0039856851447986185], [0.3371476687085778, -0.00783334567940593, -0.3005290524015425], [0.32752910339628905, -0.05796730799879825, -0.32199219259761325], [-0.07186240550643161, -0.09827786032654262, 0.032548215365698206], [-0.14352672821277287, -0.10419960983396423, 0.11387587617052344], [4.6748750084473745, 2.0014593152578284, -0.09149652930063887], [1.9173396423864009, -0.5568948898304079, -2.2655102590726326], [5.755331032087673, -5.9314674589158365, -9.29850464993562], [-3.3334518379876283, -1.4134261222633484, -0.40925987155111865], [-1.674976584529117, -0.009513377339571426, 1.7040161904850804], [-2.250495713438517, 5.1436691708879545, 5.3045162989912775], [-2.193147571354925, -1.657129513345828, -0.4849099483151249], [-0.8281110479753436, 0.25763130002509665, 0.9636178123241573], [-3.3633641601299975, 3.459531083667623, 5.480769012694618], [0.6381520717407061, 1.5881995895681749, 1.506707653422122], [0.2144160212407241, 0.5731447382799434, 0.11585205484448953], [0.6402379187666613, -2.1410061938346905, -1.949502360477934], [-0.7793952056094163, 0.5159983884785618, 0.41122351680185354]], "2": [[-0.12573045718957399, 1.8470203195877477, 2.267326544028739, 1.5487589617694764, -3.422256506203028, -0.48359758695925914, -2.0370075784715826, 3.741598393966015, 2.413770451028849, 4.613531739054879, -2.539025782781899, -1.2907091953014398, 2.3716928878276087, 0.5642477720152079, -1.164011623663747, -3.6606699795317788, -4.456645635054255, 1.4452579980675218, -2.447554736402398, 4.153292638505555, 3.4625277171871396, -5.128760382992195, -0.5223682778133911, 2.846008885093144, -0.12316637190569979, -3.0294753926423423, -1.2449568253049144, -1.9148838792125153, -1.0293359040108114, 2.3422629435715985, -0.8524739166120012, -2.601161537226101, 1.2097142586577836, -1.2476626169986267, -2.841316566334715], [3.5777464512917305, 4.127034001602735, 1.4837744173992573, -2.602101315953797, 1.220150934936517, -0.5914682255131206, 2.9855665760076966, 1.5945650992673723, 1.8863519896841199, -4.013951559994377, -1.2283931147787488, -1.279060236262513, -5.258301589524901, 2.5660259507347654, 3.7517987619762327, 1.200416969839978, 3.122119935045853, -0.8300998083941346, -0.04407955202988563, 1.4234353432450122, -2.0969144677585807, 9.177314753462287, -2.199390463942188, 3.014678263050837, 0.8184633257865075, 0.15677712724406753, 2.6074925260757653, -2.6083370538930497, 0.5011398754520204, -0.0495364208992464, 0.325754827546212, -0.029509526853193378, 4.849421545682564, -3.049978877592505, 5.739906573071993], [-0.3242487938434469, 0.42667247082851006, -0.6974364159015058, 1.6013468232753523, -0.014945036114432226, -1.70837071389834, -3.3215092355281612, 2.888280841532434, 4.246183938408122, 0.8944763692980121, -0.4013982454312092, 1.35303358830675, -0.966906244078886, -3.897762413437543, -3.2691008182517214, -0.03139031144564286, -0.3329477212958202, 0.2614194493248388, 0.07707460397554496, 1.9567860663910694, 4.734512051508886, 1.441675499566757, -1.441483853902017, 2.0074673919608523, -2.823672179718988, -2.4853544504029035, -2.935657706360646, 0.6141610155911338, -1.1251745598441476, 1.1602367452304598, -1.5926730481513678, 0.793842157309756, 1.599596743360725, 2.685441234011773, -1.1686745657735302], [0.31919335785987435, 0.9617249687313014, -0.5180269215499914, 0.5821261803529953, -2.334777627657757, -0.028068270832750684, -2.2989011812969897, 1.3502998057613036, 2.2047036576611676, -1.5890118195977927, -2.3055288123898814, 1.3713519610472815, -1.7830875370062003, 1.3470481372062253, -0.05659607390582034, 2.184584396510888, 1.2360908155667993, 1.7831786445726512, 1.6511643506435718, 3.5695356079669045, 2.786178380762978, 3.2201145412909433, -0.6994775754477627, 1.2741668409751035, 0.5939043052539235, -0.9189253125417334, -1.1890680274479832, 0.5663413783379776, 0.15992808259671445, 0.3345732769887656, 1.6452438165300791, 2.368714438122017, 2.0364282255482706, -1.7590870633861864, 1.5057254311088955]], "3": [[-0.0723600081349089], [-0.8371171463836542], [1.0297603529751598], [-2.925473418209033], [-0.9704599981021844], [0.1345391136966336], [2.054950157457502], [-1.0005201094625713], [0.6250192278492672], [-1.393968495583127], [-1.9747549799192587], [1.9357004875784862], [2.2455045184958022], [1.5553829587400314], [-0.6307587665792235], [-1.60712718409013], [-1.6416747582051385], [0.21760372566442301], [1.3969621398652179], [-0.36392457448691895], [-1.4925787285958005], [1.0092013036032808], [1.6503887625020366], [1.2414357890182794], [-2.3567177993005073], [-0.35527630795936566], [-2.160233830667368], [-0.2559913906452367], [1.2942670459082144], [-0.2313338495910463], [-0.02691208055748238], [-1.0949974808800778], [0.09818567569900544], [1.4403531494569568], [1.0993204590887742], [0.6887619509439296]]}, "Pd": {"1": [[0.3494108127886906, -1.1420253085350796, 10.074443170789149], [0.6572603604636654, -2.0872368112456416, 0.27420707949667517], [0.02165823264861038, -0.08419906528546724, -1.8623934108162792], [-0.03184569527180612, -0.33679494404906934, 1.2417406674010598], [-0.01341882103359156, 0.15008173103757994, 0.6906087970285928], [0.006370467604644523, 0.256531892559039, 0.5711555898715144], [-0.017009373611155034, -0.018997745543625957, 0.010024126634178279], [-0.09698935324470495, -0.064975022795474, -0.11260204155399085], [-1.6620390914263192, 4.955357271638593, 5.292375679153241], [-0.05191715841122841, 0.19742209771345953, -13.205706159922643], [2.710444168758363, -7.962099052750815, -7.697050299042458], [1.0708182701365965, -2.957434109895443, 6.986393991912646], [-0.06469717555633706, 0.9972983763330668, 9.805091218832931], [-3.538329442639365, 13.637049622396091, -6.33329144771608], [1.0444204588722106, -2.840674683583214, -3.8157758442739547], [0.011159384798495297, -0.04764535108824099, 5.233155678085963], [-1.3822674156410877, 3.5804080486369196, 8.16768107210572], [-0.4336109445268621, 0.966340388877227, -9.625290674845212], [0.10410659482001294, -1.216666369740987, -6.966876720863672], [2.135748892515017, -8.67669900080414, 3.2094525115525023], [-0.050943304901840854, 0.05238306920946714, 0.08838081548870047]], "2": [[-0.21966617506218686, -2.650773796070961, 1.0246193356736453, -0.8923842197864068, 0.16729011490713674, 1.8037594187412593, -3.295608950296283, -1.4804709889718393, 1.020494758067087, 2.194090556417933, -10.37122420688527, 2.6139804574109746, -0.7716140274328146, -1.2639418927752775, -1.0130571024415982, -0.2571055845408998, -2.721184126816121, 0.8720032590090426, 6.044071010425286, 4.548143561452736, -0.5950931019536202, 5.34053819297028, -7.598337781974164, 1.992045352106143, -3.7109955968140906, 2.0263420126671896, -5.629018055659886, -1.9595795966554288, -8.806572143304042, -2.3191434295440123, 4.931297843395418, -2.4269421926442134, -0.09551544891729676, 3.5700119401870256, -5.232890603236348], [0.9736721752690065, 0.04124312027809668, -1.4468736072322455, -0.70608198474242, -1.7116315843659118, 0.694408388789512, -2.2008460660668248, -3.516764320388458, 2.972559812924705, 0.46497908205142535, -4.222678853073847, 3.615618004479445, -4.238567194237728, 2.6098058594271683, 2.451562681391326, -4.850173761934454, 0.6348493803859283, -0.020272545777130516, -0.9686505283008707, -2.8479826842943305, -1.8878953981756246, -0.979283832380808, -0.7377009539322819, 2.381311294599352, -3.1200596704511634, 1.6363078422400292, -4.039355460652446, -1.8879090230859208, -3.903012872111842, -3.033475820187212, 5.116435686635369, 3.6005067670645445, 0.8864136459093128, -2.1072534361356885, -0.8107030165348943], [-0.2791364850865312, -0.14791324972966444, -0.9644319715529656, 1.4051300006843643, -1.5376000998564743, -2.343948419953311, 2.9695994888923294, -1.8713356289354917, -1.8342347792690787, 1.2741304989548676, -6.228324860210642, 1.891908771608502, 10.565362205308475, 5.403104176973051, 1.612157456532243, 2.6234836624967324, 1.0941943348327232, 0.3838285978746255, 2.7857330711707498, -3.5869531112783593, 0.5953594479503507, 0.6994917340358371, -0.574798365049801, -9.755865760425552, -0.26154688226544454, -0.5901126829625106, -0.15264169966282215, 2.9860953032150817, -5.414208195621386, -1.381122982045136, 2.0030433884820233, 1.5241161473305351, -0.6408493030491729, -4.157478871281301, -4.003570858877425], [-1.2647838051352642, 3.2466972622820434, -3.0025343805404012, 1.5338475723591007, -4.200962034716186, -3.061233687373655, 1.9517383130464463, -0.629614086770904, -1.502920881808277, -5.504544924206172, -3.2730476230773613, -1.8032510196522056, 7.555121257496101, 2.8663140430704095, 0.250950503186843, -1.4226503989203825, 3.5984876110951554, -1.0072999350551204, 2.378310117318569, -0.42898634868841473, 0.07992051357041116, 0.2582101596814601, 0.9707462269875734, -5.809707986056145, 0.8486114515957502, -0.7983552899014276, 1.1287920200533712, 2.4967733126479392, -2.110664074190367, -3.6817814253300347, -2.454496052490477, 3.299350456299036, -2.9787002426435896, -1.2421701513725711, -2.5715679522395414]], "3": [[0.5864749118522306], [0.7848082011865429], [0.9652889432380574], [1.1151422199481575], [-1.6861292327458783], [1.0466779836383742], [0.9579986157958014], [1.8869210777967627], [-0.8590225764479911], [-2.5469682970139305], [1.7353342834263528], [-0.9323612113897463], [0.4702158230996683], [0.5930433600895116], [1.9979454966272745], [-0.6697558471512954], [-1.1926101906483038], [-1.6735207957941842], [-1.1632886347118598], [0.9062856444004569], [-1.479249168841149], [1.4915163839584875], [1.4537895149769668], [0.9728364306368544], [-2.165044338500896], [-0.3009024535955932], [1.5272071237687375], [-0.750130772529106], [-2.88113425393111], [-0.4241517078680107], [-1.3018306555240104], [-0.2666688650665322], [5.75006784878357], [0.37159711812205304], [-1.607476019809928], [-0.23678345310230967]]}}, "fingerprints_range": {"Cu": [[0.0, 19.717528184980367], [0.0, 12.954617486692312], [0.0, 6.763827902345048], [0.0, 4.714947330374815], [0.0, 0.4690986508436296], [0.0, 0.3591942437989357], [0.0, 8.091157146993111e-05], [0.0, 6.70824590060896e-05], [0.0, 801.3693395965696], [0.0, 185.39781543928953], [0.0, 380.6581764033588], [0.0, 607.2663840318448], [0.0, 231.76903839707245], [0.0, 221.42076155225536], [0.0, 382.67810433385426], [0.0, 75.1704048127164], [0.0, 198.3503394287148], [0.0, 226.15041328755734], [0.0, 104.68820018085577], [0.0, 69.90910953322468]], "Pd": [[0.0, 12.8624897130153], [0.0, 18.849230862512158], [0.0, 4.565811427008994], [0.0, 6.436073106044743], [0.0, 0.31261700513528473], [0.0, 0.42485844093709624], [0.0, 5.453323564168128e-05], [0.0, 5.963922275121878e-05], [0.0, 387.63611918126753], [0.0, 201.06082384923803], [0.0, 768.9373797173059], [0.0, 216.01123836799178], [0.0, 234.91303084909833], [0.0, 579.7588665624862], [0.0, 204.69128069561307], [0.0, 81.20809618623912], [0.0, 368.92772219112385], [0.0, 65.71501674010052], [0.0, 106.06324624063065], [0.0, 215.963130891552]]}, "fingerprints_tag": 1, "scalings": {"Cu": {"intercept": -2.9938935909510187, "slope": 3.0354107601514824}, "Pd": {"intercept": -4.9425072934122474, "slope": 3.3178562334247346}}}