{"cutoff": 6.5, "Gs": {"Pd": [{"eta": 0.05, "type": "G2", "element": "Cu"}, {"eta": 0.05, "type": "G2", "element": "Pd"}, {"eta": 4.0, "type": "G2", "element": "Cu"}, {"eta": 4.0, "type": "G2", "element": "Pd"}, {"eta": 20.0, "type": "G2", "element": "Cu"}, {"eta": 20.0, "type": "G2", "element": "Pd"}, {"eta": 80.0, "type": "G2", "element": "Cu"}, {"eta": 80.0, "type": "G2", "element": "Pd"}, {"zeta": 1.0, "elements": ["Cu", "Cu"], "type": "G4", "gamma": 1.0, "eta": 0.005}, {"zeta": 1.0, "elements": ["Cu", "Pd"], "type": "G4", "gamma": 1.0, "eta": 0.005}, {"zeta": 1.0, "elements": ["Pd", "Pd"], "type": "G4", "gamma": 1.0, "eta": 0.005}, {"zeta": 1.0, "elements": ["Cu", "Cu"], "type": "G4", "gamma": -1.0, "eta": 0.005}, {"zeta": 1.0, "elements": ["Cu", "Pd"], "type": "G4", "gamma": -1.0, "eta": 0.005}, {"zeta": 1.0, "elements": ["Pd", "Pd"], "type": "G4", "gamma": -1.0, "eta": 0.005}, {"zeta": 4.0, "elements": ["Cu", "Cu"], "type": "G4", "gamma": 1.0, "eta": 0.005}, {"zeta": 4.0, "elements": ["Cu", "Pd"], "type": "G4", "gamma": 1.0, "eta": 0.005}, {"zeta": 4.0, "elements": ["Pd", "Pd"], "type": "G4", "gamma": 1.0, "eta": 0.005}, {"zeta": 4.0, "elements": ["Cu", "Cu"], "type": "G4", "gamma": -1.0, "eta": 0.005}, {"zeta": 4.0, "elements": ["Cu", "Pd"], "type": "G4", "gamma": -1.0, "eta": 0.005}, {"zeta": 4.0, "elements": ["Pd", "Pd"], "type": "G4", "gamma": -1.0, "eta": 0.005}], "Cu": [{"eta": 0.05, "type": "G2", "element": "Cu"}, {"eta": 0.05, "type": "G2", "element": "Pd"}, {"eta": 4.0, "type": "G2", "element": "Cu"}, {"eta": 4.0, "type": "G2", "element": "Pd"}, {"eta": 20.0, "type": "G2", "element": "Cu"}, {"eta": 20.0, "type": "G2", "element": "Pd"}, {"eta": 80.0, "type": "G2", "element": "Cu"}, {"eta": 80.0, "type": "G2", "element": "Pd"}, {"zeta": 1.0, "elements": ["Cu", "Cu"], "type": "G4", "gamma": 1.0, "eta": 0.005}, {"zeta": 1.0, "elements": ["Cu", "Pd"], "type": "G4", "gamma": 1.0, "eta": 0.005}, {"zeta": 1.0, "elements": ["Pd", "Pd"], "type": "G4", "gamma": 1.0, "eta": 0.005}, {"zeta": 1.0, "elements": ["Cu", "Cu"], "type": "G4", "gamma": -1.0, "eta": 0.005}, {"zeta": 1.0, "elements": ["Cu", "Pd"], "type": "G4", "gamma": -1.0, "eta": 0.005}, {"zeta": 1.0, "elements": ["Pd", "Pd"], "type": "G4", "gamma": -1.0, "eta": 0.005}, {"zeta": 4.0, "elements": ["Cu", "Cu"], "type": "G4", "gamma": 1.0, "eta": 0.005}, {"zeta": 4.0, "elements": ["Cu", "Pd"], "type": "G4", "gamma": 1.0, "eta": 0.005}, {"zeta": 4.0, "elements": ["Pd", "Pd"], "type": "G4", "gamma": 1.0, "eta": 0.005}, {"zeta": 4.0, "elements": ["Cu", "Cu"], "type": "G4", "gamma": -1.0, "eta": 0.005}, {"zeta": 4.0, "elements": ["Cu", "Pd"], "type": "G4", "gamma": -1.0, "eta": 0.005}, {"zeta": 4.0, "elements": ["Pd", "Pd"], "type": "G4", "gamma": -1.0, "eta": 0.005}]}, "activation": "tanh", "hiddenlayers": {"Pd": [3, 35], "Cu": [3, 35]}, "weights": {"Cu": {"1": [[-0.3722383557325502, 1.4073002841833775, -0.17372044336735712], [-0.7028206907265002, 0.15862668421983483, 0.21013879878197525], [-0.4924507560517435, -0.5844555415875033, 0.317916196234847], [-0.28488447634160036, -0.04656333655002128, -0.029768215919092348], [0.418815936292768, 0.074255427040781, -0.4703996006865852], [0.43542385135091893, 0.08612685676733041, -0.4592444106438565], [-0.09704167460656422, -0.13968227128957703, 0.10032329931536961], [-0.19040933440100552, -0.19361491127075603, 0.22750455153950935], [0.8390961481860699, -0.014887658853578421, -0.7724666832548016], [1.6972417592077251, -0.4032153828639785, -2.874668955431469], [4.8219158652090695, -4.398211966703117, -9.180405056197605], [0.9040134478532299, -1.0118201079063076, -0.9040636283712946], [-0.8765619303411424, -0.7572737802330983, 1.8793377723537832], [-0.9161738804035662, 4.268546933413418, 4.1366633224439076], [-0.17367824116095124, -0.5426612390203405, -0.2882219314457861], [-0.7340417304988307, 0.22722422751424184, 1.2327280847187552], [-2.9421271296041085, 2.6006283258454244, 5.4834295641470625], [-1.7122886018740735, 1.8583655087261681, 2.3577551282311355], [-0.5010604227659816, 1.292142219092044, 0.4989092267432789], [-0.14271630166514987, -1.6639598704799894, -1.0408429066569573], [-0.813285874026187, 0.5974319334743429, 0.44254821107356906]], "2": [[0.7976593912176579, 2.29065844459779, 0.8576279162790252, 0.928358003472204, -3.321407569718224, -1.514463825612945, -1.2353207525015697, 3.766849146774075, 2.368318157849365, 3.318715287390531, -2.255261214508563, -1.1420584768940478, 0.7565182318239874, 0.02423660047304647, -0.5991088558052805, -4.070447061350268, -4.168697022781532, 0.5548743938404377, -1.9538052453592307, 2.0820843075816398, 3.766056909241979, -4.013335684420117, -0.9642947814249724, 3.2016608641752344, -0.9749414006259883, -2.084397282864838, -1.830356839775317, -0.9945389306016459, -1.4861606550123838, 3.012224878352357, -1.042895815238373, -2.6774696848105664, 0.5236464807698925, -1.5340469587659284, -1.6363547183870295], [2.5336535613783124, 3.632080950543052, 1.257379548988746, -2.2623602653775747, 0.9652733620929018, -1.4343503987631818, 2.2747651122399137, 1.3261605006312656, 1.8919929558929218, -3.2960072018936475, -1.3397685496565694, -1.6901711030642024, -3.2581506076259594, 1.4477250939576547, 2.794058355061272, 1.1765633787036123, 2.580236017189737, -0.8884828011829093, 0.38441755605356065, 2.271470127773882, -2.143343588518948, 5.981556311497829, -2.1561519071812842, 2.7835873844020074, 0.23141703818089768, -0.02980442624299916, 2.316754125882448, -2.7176453537364678, -0.0480864036313347, -0.06772893851150275, 0.38919145173313024, 1.8442416103973658, 3.8142321943752466, -2.378572735781007, 4.105875446679039], [0.15597659606340597, 1.117535783318573, -1.3203077158737007, 1.1059859341160367, -0.4319369181836107, -0.7733968714854683, -2.179349605159855, 2.790205165179147, 2.887688772002993, 0.10201130482249926, -0.30671005151796454, 1.0996843225535349, -0.9682817110205137, -2.9209826111794404, -1.939678357343776, -0.47637681663172476, -0.08477413841290221, -0.07882625254635972, -0.1849235617777509, 1.5713399004973614, 4.559488232416368, 0.8401266426582249, -1.5238130241114958, 2.3226094683475775, -2.754106076111956, -1.4294647284589486, -3.049893492600931, 1.4263753838983297, -0.4261654097528244, 1.4048383475246324, -1.595157187845372, -0.6415982147965648, 1.716777007161338, 1.4484262881476482, -0.6736956747073745], [0.42042847735096817, 1.0826651435573802, -0.7298047493861747, 0.2838641857927225, -2.2266174828069802, -0.7340944593914431, -1.778347146688926, 1.5650254162690507, 2.2730431229146135, -1.750516918276162, -2.190938498475988, 1.371116495206878, -1.6726539258281912, 0.964648397965417, 0.0967427791159473, 1.3759156123592393, 0.9899372508554255, 1.6645433928341975, 1.1587909639928589, 3.9704794075196514, 2.7482129321067768, 2.214961672461626, -0.7988727607646485, 1.5198346077983034, 0.19320001235404582, -0.47445729243977175, -1.657562010942165, 1.2010878084078795, -0.010346338511287436, 0.7940787860212319, 1.730984572093272, 3.0404056162719275, 1.718930869610737, -1.887748308914698, 1.3497781036412502]], "3": [[-0.2453857465410157], [-0.7175295957938028], [0.5603246103398225], [-2.918794469246712], [-0.7997846360615174], [0.3650015641691857], [1.6968389894145837], [-0.9758087421816534], [0.9385013392487596], [-1.344185560406756], [-1.5283487608640025], [1.5498500743568913], [1.7255306578067768], [1.3955428847144182], [-0.9630501816825043], [-1.3988536548168773], [-1.2557070658258005], [-0.0038730252265097753], [1.183774764648804], [-0.4669736292617731], [-1.3164189221127924], [0.5983595342157564], [1.6134772887659206], [1.3868298963384629], [-1.9199347091345111], [0.051680088209509346], [-2.4424382789505388], [-0.37110905153164997], [1.010140308910969], [0.060361626682569544], [-0.34203120456700176], [-1.4892956329998248], [0.08547915633579689], [1.3182176843811582], [0.6937133339162669], [0.8195843807089787]]}, "Pd": {"1": [[0.40545011956141913, -1.096149159948503, 13.40858736070224], [0.7647797825353689, -2.212235430056301, -0.45286721872816094], [0.09204824221838956, -0.2824673354061455, -2.251445192316063], [-0.04636763274650956, -0.314030764776142, 1.0575488400855884], [-0.024592141972480393, 0.19468232744979513, 0.563439042931171], [0.022478034095178654, 0.2535848213671579, 1.2447374712810402], [-0.021484355367108857, -0.016176824027813525, 0.24352315616035367], [-0.1402918528443286, -0.03600308901205871, -0.2848060018237228], [-1.4201746957834234, 4.260528048683284, 6.551938899879438], [-0.010809818997965279, -0.01860364807706054, -10.124383192408402], [2.3635996210281673, -5.944702459456414, -5.057053489890468], [0.6188964249156035, -1.9758355187568377, 3.389178312878471], [-0.2536852350416674, 1.5226052994534856, 4.4850213301280295], [-3.2242453428260305, 11.762257508169881, -4.646883185322428], [1.0357976898019232, -2.4947637130033122, 0.9122109866965257], [0.0028119443391407127, 0.037313924655146304, 3.6081658684890923], [-1.2157678669572776, 2.5949494399502906, 5.97954389450625], [-0.24508969304569442, 0.4449812727302167, -12.749819964990346], [0.24369006255986472, -1.6525537028118022, -4.934841179465323], [1.99478877331943, -7.840276615923137, 1.0964323933486837], [-0.03819476576759916, 0.055332857320346145, 0.5285213295962253]], "2": [[-0.7927557662854966, -1.6951650377064325, 2.2071972590986624, -0.6879117230589108, 0.8798460211321947, 0.992252105334752, -3.274779217335398, -1.2464896489404962, 1.13589341672871, 0.1924531201208634, -6.905669313933624, 1.5521963509796963, -1.064536224175396, -3.0527031790270023, -0.9813578618331429, 0.044742142190422024, -2.289466070653844, -0.8517481358428353, 4.679735205439285, 4.128457233132608, 0.06972530212948806, 3.9275546809331754, -5.81247037652165, 3.4604065171929825, -3.859135998321113, 0.9539354835107013, -5.4131206669930965, -1.1485196969133313, -6.9486379180297355, -2.212146225241259, 3.3615107765070404, -3.158977922167301, -0.5694729254765583, 2.5985380153124416, -3.4152283346896963], [1.639628477442048, 0.15733197775107963, -0.9231695015317535, -0.447124722716321, -1.4442880882535059, 0.14404236993321823, -2.0535764958042972, -3.445278731365224, 2.2334449389488173, -0.16464087312900788, -2.7295386681162586, 2.7528609981584413, -4.472512040464732, 1.6782853138537976, 2.375963514395512, -4.745772868842922, 0.6775354684994862, -1.177970317355093, -1.3018268401607573, -2.777653275538307, -1.5686561084775559, -1.461001578204449, -0.016977590820516204, 2.028279822770275, -3.2311908638699083, 1.8698703284932, -4.1141980217231895, -1.1861244771127994, -3.002263813104194, -2.408281524647503, 4.573314405622064, 2.4162580729543026, 0.32422481453897645, -1.825483469470955, -0.5897323074574959], [0.36056253221247064, 0.2128592453156474, -0.5848673824926655, 0.9621261653409963, 0.3807487145864775, -1.1659797743734568, 3.3252626152579854, -2.01817235443895, -1.2300685214856781, 1.094376679454419, -3.9985415628093204, 2.1132472939646156, 9.049235794929814, 4.2279088625436705, 1.1235539649526678, 2.904234982659151, 0.8996129988152102, -0.3107904462722853, 2.616792630689538, -3.178249586379954, 0.5411941043145615, 0.8005946368428096, -0.5221429755754672, -6.379813569053857, -0.09996567631254948, -0.8622581426455642, 0.030867877855363414, 2.4839212450071586, -3.4668426600632087, -1.0299200320932338, 1.3096489571722194, 1.9183981346658832, -0.8634281866576986, -3.0953532395133765, -2.7256492073150853], [-1.9517831045516512, 3.2127466690739337, -2.4746829444469984, 1.2448424094525545, -3.99159495849108, -1.6921232864512052, 2.1647830618955246, -0.8567537688343138, -0.8655469572283591, -5.311867286306808, -2.1553191385140438, -1.2377944562355008, 6.2050737095824555, 2.118540170911607, -0.02442980757213363, -0.9602990936781766, 2.6479676677777437, -1.2993086480592777, 2.111248733322471, -0.17346863587171685, -0.21825832985452356, 0.24860906561758486, 0.8717454114912916, -3.020100010503601, 1.1233249651043935, -1.386945801031684, 1.419608775161094, 1.767714282749235, -0.9612182771595059, -3.2845632628487587, -2.595213960179809, 3.602187508351089, -2.863678057539242, -0.7180966547981357, -1.8406040184164192]], "3": [[1.127071050213885], [1.0218918746156154], [0.6960645150752577], [0.8101551602089969], [-2.0460589676505054], [0.9529223863402281], [0.8427060855615197], [1.5027497742872857], [-0.7901301083161535], [-2.286259535004366], [1.2751683285669693], [-0.7003376791330599], [0.4593768088091776], [0.6416731806294955], [1.732122691050585], [-0.43021908679901194], [-0.8678969277331167], [-1.0745458790645712], [-1.158016452660936], [1.0047495454015327], [-1.181619695576192], [1.4154753309653285], [1.1450142596729018], [0.8013278244191568], [-1.930724238271383], [-0.3146317662583927], [1.2621945077950738], [-0.7782656898247815], [-1.7787960545395995], [-0.35105883284268297], [-1.098442964289478], [-0.31893944925719536], [5.168460980994687], [0.14965163595611125], [-1.3453573709514952], [-0.8367494070768445]]}}, "fingerprints_range": {"Cu": [[0.0, 19.717528184980367], [0.0, 12.954617486692312], [0.0, 6.763827902345048], [0.0, 4.714947330374815], [0.0, 0.4690986508436296], [0.0, 0.3591942437989357], [0.0, 8.091157146993111e-05], [0.0, 6.70824590060896e-05], [0.0, 801.3693395965696], [0.0, 185.39781543928953], [0.0, 380.6581764033588], [0.0, 607.2663840318448], [0.0, 231.76903839707245], [0.0, 221.42076155225536], [0.0, 382.67810433385426], [0.0, 75.1704048127164], [0.0, 198.3503394287148], [0.0, 226.15041328755734], [0.0, 104.68820018085577], [0.0, 69.90910953322468]], "Pd": [[0.0, 12.8624897130153], [0.0, 18.849230862512158], [0.0, 4.565811427008994], [0.0, 6.436073106044743], [0.0, 0.31261700513528473], [0.0, 0.42485844093709624], [0.0, 5.453323564168128e-05], [0.0, 5.963922275121878e-05], [0.0, 387.63611918126753], [0.0, 201.06082384923803], [0.0, 768.9373797173059], [0.0, 216.01123836799178], [0.0, 234.91303084909833], [0.0, 579.7588665624862], [0.0, 204.69128069561307], [0.0, 81.20809618623912], [0.0, 368.92772219112385], [0.0, 65.71501674010052], [0.0, 106.06324624063065], [0.0, 215.963130891552]]}, "fingerprints_tag": 1, "scalings": {"Cu": {"intercept": -3.086147220739782, "slope": 2.9253120681988021}, "Pd": {"intercept": -4.3288705248958985, "slope": 3.6032498163854934}}}