{"cutoff": 6.5, "Gs": {"Pd": [{"eta": 0.05, "type": "G2", "element": "Cu"}, {"eta": 0.05, "type": "G2", "element": "Pd"}, {"eta": 2.0, "type": "G2", "element": "Cu"}, {"eta": 2.0, "type": "G2", "element": "Pd"}, {"eta": 4.0, "type": "G2", "element": "Cu"}, {"eta": 4.0, "type": "G2", "element": "Pd"}, {"eta": 8.0, "type": "G2", "element": "Cu"}, {"eta": 8.0, "type": "G2", "element": "Pd"}, {"eta": 20.0, "type": "G2", "element": "Cu"}, {"eta": 20.0, "type": "G2", "element": "Pd"}, {"eta": 40.0, "type": "G2", "element": "Cu"}, {"eta": 40.0, "type": "G2", "element": "Pd"}, {"eta": 80.0, "type": "G2", "element": "Cu"}, {"eta": 80.0, "type": "G2", "element": "Pd"}, {"zeta": 1.0, "elements": ["Cu", "Cu"], "type": "G4", "gamma": 1.0, "eta": 0.005}, {"zeta": 1.0, "elements": ["Cu", "Pd"], "type": "G4", "gamma": 1.0, "eta": 0.005}, {"zeta": 1.0, "elements": ["Pd", "Pd"], "type": "G4", "gamma": 1.0, "eta": 0.005}, {"zeta": 1.0, "elements": ["Cu", "Cu"], "type": "G4", "gamma": -1.0, "eta": 0.005}, {"zeta": 1.0, "elements": ["Cu", "Pd"], "type": "G4", "gamma": -1.0, "eta": 0.005}, {"zeta": 1.0, "elements": ["Pd", "Pd"], "type": "G4", "gamma": -1.0, "eta": 0.005}, {"zeta": 2.0, "elements": ["Cu", "Cu"], "type": "G4", "gamma": 1.0, "eta": 0.005}, {"zeta": 2.0, "elements": ["Cu", "Pd"], "type": "G4", "gamma": 1.0, "eta": 0.005}, {"zeta": 2.0, "elements": ["Pd", "Pd"], "type": "G4", "gamma": 1.0, "eta": 0.005}, {"zeta": 2.0, "elements": ["Cu", "Cu"], "type": "G4", "gamma": -1.0, "eta": 0.005}, {"zeta": 2.0, "elements": ["Cu", "Pd"], "type": "G4", "gamma": -1.0, "eta": 0.005}, {"zeta": 2.0, "elements": ["Pd", "Pd"], "type": "G4", "gamma": -1.0, "eta": 0.005}, {"zeta": 4.0, "elements": ["Cu", "Cu"], "type": "G4", "gamma": 1.0, "eta": 0.005}, {"zeta": 4.0, "elements": ["Cu", "Pd"], "type": "G4", "gamma": 1.0, "eta": 0.005}, {"zeta": 4.0, "elements": ["Pd", "Pd"], "type": "G4", "gamma": 1.0, "eta": 0.005}, {"zeta": 4.0, "elements": ["Cu", "Cu"], "type": "G4", "gamma": -1.0, "eta": 0.005}, {"zeta": 4.0, "elements": ["Cu", "Pd"], "type": "G4", "gamma": -1.0, "eta": 0.005}, {"zeta": 4.0, "elements": ["Pd", "Pd"], "type": "G4", "gamma": -1.0, "eta": 0.005}], "Cu": [{"eta": 0.05, "type": "G2", "element": "Cu"}, {"eta": 0.05, "type": "G2", "element": "Pd"}, {"eta": 2.0, "type": "G2", "element": "Cu"}, {"eta": 2.0, "type": "G2", "element": "Pd"}, {"eta": 4.0, "type": "G2", "element": "Cu"}, {"eta": 4.0, "type": "G2", "element": "Pd"}, {"eta": 8.0, "type": "G2", "element": "Cu"}, {"eta": 8.0, "type": "G2", "element": "Pd"}, {"eta": 20.0, "type": "G2", "element": "Cu"}, {"eta": 20.0, "type": "G2", "element": "Pd"}, {"eta": 40.0, "type": "G2", "element": "Cu"}, {"eta": 40.0, "type": "G2", "element": "Pd"}, {"eta": 80.0, "type": "G2", "element": "Cu"}, {"eta": 80.0, "type": "G2", "element": "Pd"}, {"zeta": 1.0, "elements": ["Cu", "Cu"], "type": "G4", "gamma": 1.0, "eta": 0.005}, {"zeta": 1.0, "elements": ["Cu", "Pd"], "type": "G4", "gamma": 1.0, "eta": 0.005}, {"zeta": 1.0, "elements": ["Pd", "Pd"], "type": "G4", "gamma": 1.0, "eta": 0.005}, {"zeta": 1.0, "elements": ["Cu", "Cu"], "type": "G4", "gamma": -1.0, "eta": 0.005}, {"zeta": 1.0, "elements": ["Cu", "Pd"], "type": "G4", "gamma": -1.0, "eta": 0.005}, {"zeta": 1.0, "elements": ["Pd", "Pd"], "type": "G4", "gamma": -1.0, "eta": 0.005}, {"zeta": 2.0, "elements": ["Cu", "Cu"], "type": "G4", "gamma": 1.0, "eta": 0.005}, {"zeta": 2.0, "elements": ["Cu", "Pd"], "type": "G4", "gamma": 1.0, "eta": 0.005}, {"zeta": 2.0, "elements": ["Pd", "Pd"], "type": "G4", "gamma": 1.0, "eta": 0.005}, {"zeta": 2.0, "elements": ["Cu", "Cu"], "type": "G4", "gamma": -1.0, "eta": 0.005}, {"zeta": 2.0, "elements": ["Cu", "Pd"], "type": "G4", "gamma": -1.0, "eta": 0.005}, {"zeta": 2.0, "elements": ["Pd", "Pd"], "type": "G4", "gamma": -1.0, "eta": 0.005}, {"zeta": 4.0, "elements": ["Cu", "Cu"], "type": "G4", "gamma": 1.0, "eta": 0.005}, {"zeta": 4.0, "elements": ["Cu", "Pd"], "type": "G4", "gamma": 1.0, "eta": 0.005}, {"zeta": 4.0, "elements": ["Pd", "Pd"], "type": "G4", "gamma": 1.0, "eta": 0.005}, {"zeta": 4.0, "elements": ["Cu", "Cu"], "type": "G4", "gamma": -1.0, "eta": 0.005}, {"zeta": 4.0, "elements": ["Cu", "Pd"], "type": "G4", "gamma": -1.0, "eta": 0.005}, {"zeta": 4.0, "elements": ["Pd", "Pd"], "type": "G4", "gamma": -1.0, "eta": 0.005}]}, "activation": "tanh", "hiddenlayers": {"Pd": [2, 30], "Cu": [2, 30]}, "weights": {"Cu": {"1": [[0.03792969513690486, -0.016180900610468077], [0.007414243547006892, -0.017257772127841742], [-0.011170916372310255, 0.00486251019775874], [0.014995522890695931, -0.01917884018814754], [0.03877235333326248, 0.03582235330982381], [-0.0005373995530626174, 0.014662688808072782], [-0.04243271170797788, 0.011151333670793448], [-0.014688965741916984, -0.0015594605947005097], [0.04309983764582709, 0.013670148650971964], [-0.03609595585331778, -0.02540489164007033], [0.02245795636506967, 0.021988577809939486], [-0.014759742828308192, 0.023621931796504375], [0.04304111502301142, -0.034712215376054366], [0.01480342047190765, -0.020833072664237357], [0.004955570273800239, -0.028049381232431704], [0.015629762437259387, -0.037452050043307136], [-0.02482702507756006, -0.007153297021130101], [-0.046323131511912995, 0.040119860702616805], [-0.03402590841478254, 0.02346855174251862], [0.04184942620456655, 0.010475149298871611], [0.010640900354422923, 0.013460716253600201], [-0.020613184594347325, 0.00010381566733100311], [-0.020839287495023482, 0.04628761523253906], [0.03178665131420222, 0.0376437550857914], [0.03835338915322385, -0.003552633526332241], [0.0322846769275618, -0.0010370203880035594], [0.017030704192493265, -0.024052283631511063], [0.02133687089696272, 0.004517223851715352], [-0.018012570708123028, 0.0026960131578791166], [0.013372971429998465, 0.026391882309663772], [0.04289320722693146, 0.023086329871466874], [0.008514135225290383, 0.016160659861968338], [0.0, 0.0]], "2": [[-0.6334065344170834, 0.674645567581817, -0.46630285013839023, 0.5500210524410114, 0.6491990407319377, 0.49796287165635333, 0.30862917144169866, -0.3998247767007675, -0.7314280414818903, -0.12957122140265676, -0.636361898688174, 0.07145281662168612, 0.16526622453387474, -0.005402299768938468, 0.4240461167029781, -0.2051036874511789, 0.012898889906410527, -0.2306716610747359, -0.12552869345306816, -0.4993050187654492, -0.3648997078881259, -0.013482871169262056, 0.2740593949806165, 0.5467316784746881, -0.21269738185782416, 0.5809434455801341, -0.07228959839796945, -0.5610139675395961, 0.7185153845695347, -0.5736490930035625], [-0.5048345929501736, 0.6098081361834926, 0.5610426386779874, -0.031877935822661074, 0.12437268108005517, -0.6531339515092383, 0.6898027415517132, 0.7293789656668737, -0.7170095558537621, 0.599620860895707, 0.6479046107327882, 0.3369386010656492, 0.29401713610625313, 0.5925533483668137, 0.37507777621199656, -0.3944389761083197, -0.006044066070640786, -0.18261428331085994, -0.38900413131585837, 0.36062029662363404, 0.7073869198044505, 0.5902748302470706, -0.5287267914408392, -0.14479913945681178, 0.37324838961519813, 0.4990684633134921, 0.5521043078483621, 0.10875436172342945, 0.45858736581248705, 0.5311869787818062], [0.0, 0.0, 0.0, 0.0, 0.0, 0.0, 0.0, 0.0, 0.0, 0.0, 0.0, 0.0, 0.0, 0.0, 0.0, 0.0, 0.0, 0.0, 0.0, 0.0, 0.0, 0.0, 0.0, 0.0, 0.0, 0.0, 0.0, 0.0, 0.0, 0.0]], "3": [[0.004895585552925574], [0.0466236674052765], [0.04637555110883672], [0.024686954025780555], [-0.013165893979955767], [-0.02369716448004209], [-0.04968803988316903], [0.040722526089946934], [0.03819539041527689], [0.019555770755921215], [-0.04278154957122531], [0.03863359929013831], [0.017532750260125088], [0.004914764710943945], [-0.04411446908144399], [0.00819559465781846], [-0.04208918035743323], [0.04319423735963372], [0.03027256857347664], [-0.04807003816668409], [0.014637262220213637], [0.03403991298768848], [0.003840489469198363], [-0.005160624101464541], [-0.036124936758544834], [-0.02440027797967489], [-0.0060930621371552696], [-0.049987632243374526], [0.007931211388183798], [-0.011650074669967828], [0.0]]}, "Pd": {"1": [[-0.03850468546391002, 0.011204957215702235], [-0.005961549901597918, -0.021424026590264687], [-0.04000569391761735, -0.04326131166071842], [-0.03666857656473217, 0.0055738707638784205], [0.010104857690253904, 0.036752486455980504], [-0.03259718680659117, 0.02348142115181956], [-0.001198439940383711, -0.0056722478783561014], [-0.026349638538224918, 0.02152610776468536], [-0.026773724274778848, -0.03422005108654309], [-0.006502973737399588, 0.005139632452648452], [0.021197448385862405, -0.02362022001714824], [0.04123059469621736, 0.028025719654459824], [0.0044576637419589255, -0.024111937170299184], [-0.018945919434580256, -0.025686478592773412], [0.04678784592298753, -0.03477590491642171], [0.03672080780405938, -0.04094838930880029], [0.036994208325509634, 0.03507927926435089], [0.005473513770178039, 0.03936918135558008], [0.012364966039012937, 0.006917561031314669], [0.03705697211114854, -0.03355943508807693], [0.01703211778239705, -0.0452348219991837], [0.036277117303140094, -0.007632271567539324], [-0.001603690491099874, -0.03778279298491517], [0.0239164803492425, 0.003070398853284334], [0.029440263051806956, -0.017267635835360746], [-0.02326655911681521, -0.010590985092890179], [-0.00010518719660979753, -0.013018390274396073], [0.014106460787552816, 0.0450140308821919], [-0.009514613442525507, 0.01092583397481127], [0.01709053863757934, -0.029866962367418287], [0.023873637603497658, 0.035309875151721196], [0.032385850733178234, 0.01924704899561236], [0.0, 0.0]], "2": [[0.27303132636483296, -0.5506814880624308, -0.6440954862950556, 0.5413718872495548, 0.6613602462865198, 0.08366515404565078, 0.35335468231641687, -0.449228390180031, -0.2690724518248658, -0.29321546450646907, 0.501791309675089, 0.7131218873055079, -0.48296771369460506, -0.5725223753678601, -0.05387481495019042, 0.33228400024233773, -0.44739380159126607, 0.5962770942210021, 0.25339996553031985, -0.7163425546674685, 0.19655210156425618, 0.5417599247075684, 0.3668898908169147, -0.27591512229913817, 0.12818716911335093, 0.1978251925787482, 0.1770131822015275, 0.38788065099406244, -0.3611976323880014, -0.03288819022347034], [0.3267455244402697, 0.16239679175273247, 0.041701441754947166, -0.24336581373079724, 0.4318136889845876, -0.46009547999648664, 0.2145379127286573, -0.42485754495944905, 0.44201103119992813, -0.4798743788695009, -0.5898185481711868, 0.41863398380047867, -0.6313915810269468, 0.15975166755230386, 0.432749756657723, 0.49763062775981237, 0.5836289387537108, -0.5852106437723954, 0.11338875954384253, -0.1661605137763562, -0.6423182086518452, 0.35529902145197134, -0.44199182995322933, -0.714845327476642, 0.09089129070176027, 0.37154264751528676, -0.5435206435928246, -0.6604489887840009, 0.09489457963818282, -0.654428624050339], [0.0, 0.0, 0.0, 0.0, 0.0, 0.0, 0.0, 0.0, 0.0, 0.0, 0.0, 0.0, 0.0, 0.0, 0.0, 0.0, 0.0, 0.0, 0.0, 0.0, 0.0, 0.0, 0.0, 0.0, 0.0, 0.0, 0.0, 0.0, 0.0, 0.0]], "3": [[-0.002438218687387375], [0.03240456828585127], [0.009138802867756847], [-0.0015634189606515553], [-0.02565771557819431], [-0.0034667561517836773], [-0.04204928920341541], [0.04197938216290567], [-0.03337449515618322], [-0.028410439000704304], [-0.015990278156928585], [-0.020113099306871576], [-0.015017604055133929], [-0.002234382369946143], [-0.027115257743060697], [-0.03825433802538683], [0.0005218049461057223], [-0.0006727566488463274], [-0.0022287698442632134], [-0.007325916505088424], [0.0442338203360714], [0.03388118323762662], [0.03627879100692909], [-0.00030201631389582817], [0.007484251200993296], [-0.0013564216353641606], [0.04344893976783937], [-0.025409256373557666], [0.02460906850291933], [-0.04921965851987286], [0.0]]}}, "fingerprints_range": {"Cu": [[0.7355979085179102, 15.55743075082518], [0.17208454571200024, 15.824610224206179], [0.2647337529778042, 9.728035574767311], [0.048289987224936715, 9.183520039100534], [0.08998943476157976, 6.543651351035633], [0.013116604377678287, 5.901293632153394], [0.011086319621036456, 3.4322011143730915], [0.0009677208042695254, 3.058089253340858], [2.8105378597217076e-05, 0.7186722153281908], [3.886297579508524e-07, 0.7702142399843445], [1.0530964208036616e-09, 0.06459500411004929], [8.495312182045297e-13, 0.09579851951537856], [1.4696933730671603e-18, 0.0005969806159118927], [4.059438105570023e-24, 0.0014999082499671163], [0.50034203926832, 586.0279136978755], [2.8969921783012786, 1339.0774553779588], [0.0, 680.2199829665379], [0.623397651130686, 430.46949002501225], [2.2581612173512284, 933.9576344679633], [0.11622805422127631, 505.84680013293473], [0.18504763958633103, 428.8432803118022], [1.7871978465575518, 999.1121607682313], [0.0, 497.0153279237612], [0.21809387928730953, 273.284856638939], [1.3209770091224067, 593.9923398582351], [0.06881080565862441, 322.6421450901536], [0.020560848842925673, 287.61510794586883], [0.799631268139842, 694.3948342368042], [0.0, 333.734781480117], [0.03697254301515187, 160.4359473839458], [0.665959989982916, 348.9904146530375], [0.004300675351054025, 189.85900104165898]], "Pd": [[0.17208454571200046, 15.82461022420618], [0.7355978047404241, 15.557430750825183], [0.04828998722493681, 9.183520039100532], [0.2647337529778042, 9.72803557476731], [0.01311660437767832, 5.901293632153396], [0.08998943476157976, 6.543651351035635], [0.000967720804269529, 3.058089253340857], [0.011086319621036456, 3.4322011143730906], [3.8862975795085565e-07, 0.770214239984344], [2.8105378597217076e-05, 0.7186722153281916], [8.495312182045429e-13, 0.09579851951537853], [1.0530949854903416e-09, 0.06459500411004933], [4.059438105570144e-24, 0.0014999082499671157], [1.469689571940093e-18, 0.0005969806159118931], [0.0, 680.2199829665362], [2.8969921783012804, 1339.0774553779634], [0.50034203926832, 586.0279136978755], [0.11622805422127645, 505.8468001329346], [2.2581612173512298, 933.9576344679631], [0.6233975439578614, 430.46949002501225], [0.0, 497.01532792376423], [1.7871978465575515, 999.1121607682309], [0.18504763958633114, 428.8432803118022], [0.06881080565862441, 322.6421450901558], [1.3209770091224076, 593.9923398582329], [0.21809382696856305, 273.284856638939], [0.0, 333.73478148011566], [0.799631268139842, 694.3948342368044], [0.020560848842925677, 287.61510794586883], [0.004300675351054025, 189.85900104165927], [0.6659599899829165, 348.9904146530362], [0.03697252924305966, 160.4359473839458]]}, "fingerprints_tag": 1, "scalings": {"Pd": {"slope": 2.7555544681249997, "intercept": -2.459831533125}, "Cu": {"slope": 2.7555544681249997, "intercept": -2.459831533125}}}