{"cutoff": 6.5, "Gs": {"Pd": [{"eta": 0.05, "type": "G2", "element": "Cu"}, {"eta": 0.05, "type": "G2", "element": "Pd"}, {"eta": 2.0, "type": "G2", "element": "Cu"}, {"eta": 2.0, "type": "G2", "element": "Pd"}, {"eta": 4.0, "type": "G2", "element": "Cu"}, {"eta": 4.0, "type": "G2", "element": "Pd"}, {"eta": 8.0, "type": "G2", "element": "Cu"}, {"eta": 8.0, "type": "G2", "element": "Pd"}, {"eta": 20.0, "type": "G2", "element": "Cu"}, {"eta": 20.0, "type": "G2", "element": "Pd"}, {"eta": 40.0, "type": "G2", "element": "Cu"}, {"eta": 40.0, "type": "G2", "element": "Pd"}, {"eta": 80.0, "type": "G2", "element": "Cu"}, {"eta": 80.0, "type": "G2", "element": "Pd"}, {"zeta": 1.0, "elements": ["Cu", "Cu"], "type": "G4", "gamma": 1.0, "eta": 0.005}, {"zeta": 1.0, "elements": ["Cu", "Pd"], "type": "G4", "gamma": 1.0, "eta": 0.005}, {"zeta": 1.0, "elements": ["Pd", "Pd"], "type": "G4", "gamma": 1.0, "eta": 0.005}, {"zeta": 1.0, "elements": ["Cu", "Cu"], "type": "G4", "gamma": -1.0, "eta": 0.005}, {"zeta": 1.0, "elements": ["Cu", "Pd"], "type": "G4", "gamma": -1.0, "eta": 0.005}, {"zeta": 1.0, "elements": ["Pd", "Pd"], "type": "G4", "gamma": -1.0, "eta": 0.005}, {"zeta": 2.0, "elements": ["Cu", "Cu"], "type": "G4", "gamma": 1.0, "eta": 0.005}, {"zeta": 2.0, "elements": ["Cu", "Pd"], "type": "G4", "gamma": 1.0, "eta": 0.005}, {"zeta": 2.0, "elements": ["Pd", "Pd"], "type": "G4", "gamma": 1.0, "eta": 0.005}, {"zeta": 2.0, "elements": ["Cu", "Cu"], "type": "G4", "gamma": -1.0, "eta": 0.005}, {"zeta": 2.0, "elements": ["Cu", "Pd"], "type": "G4", "gamma": -1.0, "eta": 0.005}, {"zeta": 2.0, "elements": ["Pd", "Pd"], "type": "G4", "gamma": -1.0, "eta": 0.005}, {"zeta": 4.0, "elements": ["Cu", "Cu"], "type": "G4", "gamma": 1.0, "eta": 0.005}, {"zeta": 4.0, "elements": ["Cu", "Pd"], "type": "G4", "gamma": 1.0, "eta": 0.005}, {"zeta": 4.0, "elements": ["Pd", "Pd"], "type": "G4", "gamma": 1.0, "eta": 0.005}, {"zeta": 4.0, "elements": ["Cu", "Cu"], "type": "G4", "gamma": -1.0, "eta": 0.005}, {"zeta": 4.0, "elements": ["Cu", "Pd"], "type": "G4", "gamma": -1.0, "eta": 0.005}, {"zeta": 4.0, "elements": ["Pd", "Pd"], "type": "G4", "gamma": -1.0, "eta": 0.005}], "Cu": [{"eta": 0.05, "type": "G2", "element": "Cu"}, {"eta": 0.05, "type": "G2", "element": "Pd"}, {"eta": 2.0, "type": "G2", "element": "Cu"}, {"eta": 2.0, "type": "G2", "element": "Pd"}, {"eta": 4.0, "type": "G2", "element": "Cu"}, {"eta": 4.0, "type": "G2", "element": "Pd"}, {"eta": 8.0, "type": "G2", "element": "Cu"}, {"eta": 8.0, "type": "G2", "element": "Pd"}, {"eta": 20.0, "type": "G2", "element": "Cu"}, {"eta": 20.0, "type": "G2", "element": "Pd"}, {"eta": 40.0, "type": "G2", "element": "Cu"}, {"eta": 40.0, "type": "G2", "element": "Pd"}, {"eta": 80.0, "type": "G2", "element": "Cu"}, {"eta": 80.0, "type": "G2", "element": "Pd"}, {"zeta": 1.0, "elements": ["Cu", "Cu"], "type": "G4", "gamma": 1.0, "eta": 0.005}, {"zeta": 1.0, "elements": ["Cu", "Pd"], "type": "G4", "gamma": 1.0, "eta": 0.005}, {"zeta": 1.0, "elements": ["Pd", "Pd"], "type": "G4", "gamma": 1.0, "eta": 0.005}, {"zeta": 1.0, "elements": ["Cu", "Cu"], "type": "G4", "gamma": -1.0, "eta": 0.005}, {"zeta": 1.0, "elements": ["Cu", "Pd"], "type": "G4", "gamma": -1.0, "eta": 0.005}, {"zeta": 1.0, "elements": ["Pd", "Pd"], "type": "G4", "gamma": -1.0, "eta": 0.005}, {"zeta": 2.0, "elements": ["Cu", "Cu"], "type": "G4", "gamma": 1.0, "eta": 0.005}, {"zeta": 2.0, "elements": ["Cu", "Pd"], "type": "G4", "gamma": 1.0, "eta": 0.005}, {"zeta": 2.0, "elements": ["Pd", "Pd"], "type": "G4", "gamma": 1.0, "eta": 0.005}, {"zeta": 2.0, "elements": ["Cu", "Cu"], "type": "G4", "gamma": -1.0, "eta": 0.005}, {"zeta": 2.0, "elements": ["Cu", "Pd"], "type": "G4", "gamma": -1.0, "eta": 0.005}, {"zeta": 2.0, "elements": ["Pd", "Pd"], "type": "G4", "gamma": -1.0, "eta": 0.005}, {"zeta": 4.0, "elements": ["Cu", "Cu"], "type": "G4", "gamma": 1.0, "eta": 0.005}, {"zeta": 4.0, "elements": ["Cu", "Pd"], "type": "G4", "gamma": 1.0, "eta": 0.005}, {"zeta": 4.0, "elements": ["Pd", "Pd"], "type": "G4", "gamma": 1.0, "eta": 0.005}, {"zeta": 4.0, "elements": ["Cu", "Cu"], "type": "G4", "gamma": -1.0, "eta": 0.005}, {"zeta": 4.0, "elements": ["Cu", "Pd"], "type": "G4", "gamma": -1.0, "eta": 0.005}, {"zeta": 4.0, "elements": ["Pd", "Pd"], "type": "G4", "gamma": -1.0, "eta": 0.005}]}, "activation": "tanh", "hiddenlayers": {"Pd": [2, 30], "Cu": [2, 30]}, "weights": {"Cu": {"1": [[2.4426767170521684, -0.9364880497984692], [-19.52280003287767, -6.309764870500989], [-21.59246992952808, -15.269534030113824], [20.751260653781017, -3.3557984186185648], [-11.341389921011732, 18.216314067630847], [-36.64659753258328, 6.271045776438596], [24.355368928335675, 1.0764027807776755], [35.425390179913826, 4.236043284739404], [-3.1416224994079416, -13.884590555034336], [-17.928956024812155, -16.291285622921464], [4.865025558595675, 12.882489809586522], [16.21628399225577, 17.649417029645228], [-6.65477714892744, -4.771346398970639], [-2.8148877369321417, -5.930398921349821], [-78.57391954562448, -19.837331840761287], [-96.51103907797928, -8.278144692683709], [-0.7224682652736888, 10.839243679053858], [16.362110363233572, 40.99403643097861], [-35.900160614602505, 163.8307221076723], [-73.48792445602491, 111.57394829983812], [-124.30274465676227, -20.029488362029216], [-83.43855961017279, -123.52530023109337], [103.71661213887482, -99.61926800890656], [-0.7920965491981435, 75.52225998419243], [20.899130529490943, 68.22546328322393], [46.081659290973576, -1.5420316976917976], [123.49902662264303, 19.661794248013702], [95.57596479071836, 91.08305816736333], [-79.94075282512745, 61.33674027984468], [70.32746137344535, -97.76566097563419], [89.5261901000003, -181.06551193108524], [14.50608671680693, -84.67466572218838], [10.78497110707305, 1.974047101708405]], "2": [[4.127185475330581, 14.285989507238863, -10.435683829551401, -0.34561515978140633, -28.12838158349303, -8.188650790070172, 12.086415854237387, -3.9544086495564224, 2.5258910441963858, 17.88772720179011, 1.5604693634748072, 2.774956723965783, -17.363058430646884, 1.5976100939796007, 0.7475052156712461, -21.958903906015973, 21.41143445344612, 0.9633894764813851, -2.5895743796577664, -4.5091324794622665, 7.373773976343322, -5.438016748762027, 4.077455661119367, -5.241626761129217, 2.851156454635944, 2.200275675438625, 3.89663407378966, 1.9913833753565584, -16.027044790528027, 12.495229564060175], [2.8599442372044694, 9.305349787812185, -1.4433335472448197, 0.20742738588997756, -12.945986802535133, -6.309978268134219, 0.02538940233244111, 13.543922683462895, -17.967276795436874, 4.533803088285947, -1.1415638752097423, -0.8281572272651138, 12.258736032647043, 0.37535749520797235, 4.866004338471321, -0.010669593723050002, 7.47995116725717, -6.980202946288528, -4.710136911273586, -6.079209205006269, 42.526443591512184, 1.6575632283841684, 2.2454426052097363, 16.303666157697393, 7.0259630517981595, 7.2269687153258015, 1.2450614097305868, -14.968514845936063, 2.2431992632391187, 16.090423819886674], [-11.725767323787641, 21.534843683432083, 12.31461170377945, -1.4537832959128834, 2.681618474671576, 3.4251478851363775, 14.137518102528157, -2.911176525950273, -9.051426422080171, -14.676606815336351, -1.05598376396395, -1.276846803759989, 22.934583507266737, 2.463244962648048, 0.29567586849061556, 15.205298492205745, -8.073867899085426, -5.797257047023379, -2.885215773894818, -3.549894437403372, 8.777528744124856, 0.10363060190215916, -1.333138971670909, 10.550912525704165, -1.7699077987412817, 2.9494805473949017, -2.818665551824176, -7.686237036472253, 1.8259803778134625, -11.912403001637655]], "3": [[16.18022501642261], [17.35930293627735], [5.091224709498598], [12.439384006734002], [-4.9012881258646415], [4.008379796817192], [-1.8408298287426315], [-2.4956516113633964], [16.00771118849612], [1.5527868644195952], [-33.027826036306635], [0.6763949976863536], [-1.3579896265572073], [9.305971672739023], [-12.26256731352289], [2.1501737897595934], [1.5661993625694552], [7.10431307329381], [7.643213306169698], [-8.677225803573311], [4.345462014660665], [18.26422489217325], [4.017685444123069], [-14.408164978462914], [-0.33291221984696984], [7.47148103624591], [0.9028667923899991], [-13.417404601428315], [-12.432703449494705], [5.623106858372886], [-0.9253801296730412]]}, "Pd": {"1": [[-35.530054724708855, 7.9629798722288765], [-0.5564987652998123, -2.159180925484705], [29.69528249700618, -38.33085732483998], [-22.422431959228298, -6.856440010722724], [2.8209767210842265, 52.76116221781289], [31.060967820096433, 19.656272226632225], [-19.9352864994604, -27.189405234590442], [-17.526010968221307, -12.318975615568146], [21.409818608500917, 10.529296848215656], [14.360420044359612, 3.9709251642500716], [-14.74205272989179, -6.506990454334538], [-3.2807854430463763, -2.631238191863496], [5.03184087765681, 2.490594275098835], [0.6286826962256906, 0.6099870233235181], [-15.002889894140647, 62.9173475304059], [-7.897034352903723, 45.155461587731615], [-23.969032681510875, -13.107799579811864], [-32.99437251225701, 127.311464398974], [33.19350299746307, 97.04228712540424], [-4.479629285296923, -41.878325746841824], [37.93677666630198, -147.72752371573378], [-48.58611604302857, -99.88846186709858], [-10.900873964353998, 53.68188963344103], [38.44254371212145, -160.7299291232797], [-11.739695318682354, -117.45051433459203], [27.231467257154613, 46.62684659406649], [-31.890910415897633, 73.76453059239954], [34.13478411613325, 53.514974002959924], [27.515763161110883, -29.045009090079027], [4.502961372115419, 41.74012811943573], [12.070670758720448, 22.721878833183677], [-17.311355919533337, -17.910197759553462], [7.792192362962309, -0.6513178148844817]], "2": [[-5.362474086001462, 0.34081861942300323, 15.28514473497764, -0.23801285929406382, 1.727421159393414, -4.124876517301178, -8.768206972544927, 0.6460272925680471, 16.324568288039767, -3.075820079779835, -9.599404958977008, 6.478300914382686, -0.25900392700313685, -7.032653625434685, 3.898813932071797, -0.3267745210112185, 11.036518052866155, -18.414328424364168, -1.794615032085428, 0.2796477445022468, 2.360911970310707, -4.733615171664461, 0.14238394367314275, 1.0861713407306173, -2.9915971872237868, -5.621898662125352, 21.78528237375619, -10.205176317657997, -1.0399470988604653, -4.251306520049166], [0.08953312885278931, 4.43283397182215, 13.75991707011363, 5.0263613957192375, -2.894479205221733, -16.824522938253896, -5.85786562755617, -2.369957398469753, 13.912024082029307, 2.0652740541083654, 2.5975855965036874, -0.2870086401792088, 0.9572404299813596, 25.063639552774234, 20.82574692981485, 4.613100465386859, -3.3246896620648516, 22.987708484961505, 2.846756549909465, 39.73026072682492, 2.3948168406814205, -18.414840069442807, -9.453258049949708, 1.381447839871, -7.056782574319187, -3.807613359533621, -14.505436138978277, -2.374691398195961, -4.677250169212337, 2.7690438017738552], [-1.4345858106454146, 3.0022718635253582, 15.436272436318186, -3.639592317086064, 1.1840300803877981, -9.719832262899565, -2.3277611786408063, 7.595811523938896, 16.418277971651356, 2.0410939361308342, -7.37590185111465, -6.1427088631986235, 1.5683026643911082, 27.497490252122024, 24.174512360396037, -3.1795834095663076, 8.362667786410933, -2.5850190152541024, 1.7345908049094554, 38.15298767872767, -4.097107767831118, -10.828715375245107, -8.001290478263982, 1.8262533592191548, -8.894610424861641, -0.8592002063487172, -18.8785942585082, -4.557547572292413, -3.48013073837715, 4.81737813029171]], "3": [[-2.3748049825013906], [-9.388525477168043], [0.5428855913308002], [10.501139760604346], [1.7910042827256194], [3.190891182770972], [13.968369077100379], [22.72073762598579], [-0.5211389319572406], [-0.603914218846977], [3.401635798220905], [0.17849182185052548], [14.86876675311845], [8.585987064485584], [-7.367570382980657], [-10.176805636254718], [2.735508594225446], [0.10190110912755052], [4.721994443552871], [-5.58712644770882], [-1.6096270196410056], [-2.668555225912234], [3.5145273211335004], [0.8870282696368927], [-3.441092701871832], [-13.557265375646189], [42.43098756667771], [1.0459455137342348], [-7.3287466320898185], [11.024813675111535], [-4.344719791359133]]}}, "fingerprints_range": {"Cu": [[0.7355979085179102, 15.55743075082518], [0.17208454571200024, 15.824610224206179], [0.2647337529778042, 9.728035574767311], [0.048289987224936715, 9.183520039100534], [0.08998943476157976, 6.543651351035633], [0.013116604377678287, 5.901293632153394], [0.011086319621036456, 3.4322011143730915], [0.0009677208042695254, 3.058089253340858], [2.8105378597217076e-05, 0.7186722153281908], [3.886297579508524e-07, 0.7702142399843445], [1.0530964208036616e-09, 0.06459500411004929], [8.495312182045297e-13, 0.09579851951537856], [1.4696933730671603e-18, 0.0005969806159118927], [4.059438105570023e-24, 0.0014999082499671163], [0.50034203926832, 586.0279136978755], [2.8969921783012786, 1339.0774553779588], [0.0, 680.2199829665379], [0.623397651130686, 430.46949002501225], [2.2581612173512284, 933.9576344679633], [0.11622805422127631, 505.84680013293473], [0.18504763958633103, 428.8432803118022], [1.7871978465575518, 999.1121607682313], [0.0, 497.0153279237612], [0.21809387928730953, 273.284856638939], [1.3209770091224067, 593.9923398582351], [0.06881080565862441, 322.6421450901536], [0.020560848842925673, 287.61510794586883], [0.799631268139842, 694.3948342368042], [0.0, 333.734781480117], [0.03697254301515187, 160.4359473839458], [0.665959989982916, 348.9904146530375], [0.004300675351054025, 189.85900104165898]], "Pd": [[0.17208454571200046, 15.82461022420618], [0.7355978047404241, 15.557430750825183], [0.04828998722493681, 9.183520039100532], [0.2647337529778042, 9.72803557476731], [0.01311660437767832, 5.901293632153396], [0.08998943476157976, 6.543651351035635], [0.000967720804269529, 3.058089253340857], [0.011086319621036456, 3.4322011143730906], [3.8862975795085565e-07, 0.770214239984344], [2.8105378597217076e-05, 0.7186722153281916], [8.495312182045429e-13, 0.09579851951537853], [1.0530949854903416e-09, 0.06459500411004933], [4.059438105570144e-24, 0.0014999082499671157], [1.469689571940093e-18, 0.0005969806159118931], [0.0, 680.2199829665362], [2.8969921783012804, 1339.0774553779634], [0.50034203926832, 586.0279136978755], [0.11622805422127645, 505.8468001329346], [2.2581612173512298, 933.9576344679631], [0.6233975439578614, 430.46949002501225], [0.0, 497.01532792376423], [1.7871978465575515, 999.1121607682309], [0.18504763958633114, 428.8432803118022], [0.06881080565862441, 322.6421450901558], [1.3209770091224076, 593.9923398582329], [0.21809382696856305, 273.284856638939], [0.0, 333.73478148011566], [0.799631268139842, 694.3948342368044], [0.020560848842925677, 287.61510794586883], [0.004300675351054025, 189.85900104165927], [0.6659599899829165, 348.9904146530362], [0.03697252924305966, 160.4359473839458]]}, "fingerprints_tag": 1, "scalings": {"Cu": {"intercept": -3.6688367366518793, "slope": -3.0907005215594601}, "Pd": {"intercept": -3.6685526465038532, "slope": 3.8267257058008912}}}