{"cutoff": 6.5, "Gs": {"Pd": [{"eta": 0.05, "type": "G2", "element": "Cu"}, {"eta": 0.05, "type": "G2", "element": "Pd"}, {"eta": 4.0, "type": "G2", "element": "Cu"}, {"eta": 4.0, "type": "G2", "element": "Pd"}, {"eta": 20.0, "type": "G2", "element": "Cu"}, {"eta": 20.0, "type": "G2", "element": "Pd"}, {"eta": 80.0, "type": "G2", "element": "Cu"}, {"eta": 80.0, "type": "G2", "element": "Pd"}, {"zeta": 1.0, "elements": ["Cu", "Cu"], "type": "G4", "gamma": 1.0, "eta": 0.005}, {"zeta": 1.0, "elements": ["Cu", "Pd"], "type": "G4", "gamma": 1.0, "eta": 0.005}, {"zeta": 1.0, "elements": ["Pd", "Pd"], "type": "G4", "gamma": 1.0, "eta": 0.005}, {"zeta": 1.0, "elements": ["Cu", "Cu"], "type": "G4", "gamma": -1.0, "eta": 0.005}, {"zeta": 1.0, "elements": ["Cu", "Pd"], "type": "G4", "gamma": -1.0, "eta": 0.005}, {"zeta": 1.0, "elements": ["Pd", "Pd"], "type": "G4", "gamma": -1.0, "eta": 0.005}, {"zeta": 4.0, "elements": ["Cu", "Cu"], "type": "G4", "gamma": 1.0, "eta": 0.005}, {"zeta": 4.0, "elements": ["Cu", "Pd"], "type": "G4", "gamma": 1.0, "eta": 0.005}, {"zeta": 4.0, "elements": ["Pd", "Pd"], "type": "G4", "gamma": 1.0, "eta": 0.005}, {"zeta": 4.0, "elements": ["Cu", "Cu"], "type": "G4", "gamma": -1.0, "eta": 0.005}, {"zeta": 4.0, "elements": ["Cu", "Pd"], "type": "G4", "gamma": -1.0, "eta": 0.005}, {"zeta": 4.0, "elements": ["Pd", "Pd"], "type": "G4", "gamma": -1.0, "eta": 0.005}], "Cu": [{"eta": 0.05, "type": "G2", "element": "Cu"}, {"eta": 0.05, "type": "G2", "element": "Pd"}, {"eta": 4.0, "type": "G2", "element": "Cu"}, {"eta": 4.0, "type": "G2", "element": "Pd"}, {"eta": 20.0, "type": "G2", "element": "Cu"}, {"eta": 20.0, "type": "G2", "element": "Pd"}, {"eta": 80.0, "type": "G2", "element": "Cu"}, {"eta": 80.0, "type": "G2", "element": "Pd"}, {"zeta": 1.0, "elements": ["Cu", "Cu"], "type": "G4", "gamma": 1.0, "eta": 0.005}, {"zeta": 1.0, "elements": ["Cu", "Pd"], "type": "G4", "gamma": 1.0, "eta": 0.005}, {"zeta": 1.0, "elements": ["Pd", "Pd"], "type": "G4", "gamma": 1.0, "eta": 0.005}, {"zeta": 1.0, "elements": ["Cu", "Cu"], "type": "G4", "gamma": -1.0, "eta": 0.005}, {"zeta": 1.0, "elements": ["Cu", "Pd"], "type": "G4", "gamma": -1.0, "eta": 0.005}, {"zeta": 1.0, "elements": ["Pd", "Pd"], "type": "G4", "gamma": -1.0, "eta": 0.005}, {"zeta": 4.0, "elements": ["Cu", "Cu"], "type": "G4", "gamma": 1.0, "eta": 0.005}, {"zeta": 4.0, "elements": ["Cu", "Pd"], "type": "G4", "gamma": 1.0, "eta": 0.005}, {"zeta": 4.0, "elements": ["Pd", "Pd"], "type": "G4", "gamma": 1.0, "eta": 0.005}, {"zeta": 4.0, "elements": ["Cu", "Cu"], "type": "G4", "gamma": -1.0, "eta": 0.005}, {"zeta": 4.0, "elements": ["Cu", "Pd"], "type": "G4", "gamma": -1.0, "eta": 0.005}, {"zeta": 4.0, "elements": ["Pd", "Pd"], "type": "G4", "gamma": -1.0, "eta": 0.005}]}, "activation": "tanh", "hiddenlayers": {"Pd": [2, 30], "Cu": [2, 30]}, "weights": {"Cu": {"1": [[2.956251000076117, -10.839053300702092], [3.4363170025514114, -0.45979207427357777], [-2.8628020457229795, 65.51718994917955], [-2.157451183823603, -34.34658370643039], [-0.41955702218648216, -26.594601291752507], [0.34679445363629074, 95.93563652142988], [0.6384779814935582, -17.0891545020199], [-8.960098486695811, -87.76017088773493], [-77.02022164707901, -4.4958518443023], [-140.8450463214361, 6.751836661856095], [-47.767895148754626, -7.560857694204019], [99.59484647882151, -13.637999470645166], [157.69670071796762, -6.259120038464025], [53.84757133741341, -11.38573660694561], [34.49959626354918, 19.110629093985263], [67.56384698160798, 18.763042565978836], [22.48349595314012, -2.2028383184108296], [-53.617462786507105, 8.518302256163889], [-82.23125287522126, -22.595640083717345], [-25.284364883884315, 10.489440762438175], [-2.22729907421493, -96.81216739255576]], "2": [[-31.320641658305714, -15.268146224376338, 112.16008955121042, -1.0403769507146496, -0.0031423976314834284, -2.112767361402257, -12.195239213651634, -2.2103965582542138, 27.219525935842622, -0.9237058778201497, 1.4262373029682143, 0.2951668377315193, -0.17917900042546553, -0.4109837602287529, -13.353479905312481, 12.552085345783011, 90.91891393314899, 12.362383278456447, 14.457694803594054, -1.7869617035667422, 4.401721938244598, -134.7509551134628, -8.401970683639883, 0.6737527508094671, 23.50607155172425, 0.6639165505889876, 14.422268115588514, -0.6613234855659474, -8.185732455626948, -29.143323777835242], [-8.325623896811111, 26.815581510994885, 15.57992709766591, 13.880573906885518, 10.9983164613, 6.779361060035181, 9.215005966097458, 4.116277548972215, 1.0811434768940642, 0.07618722142537715, -3.764230352004082, -61.92121994450126, -20.483631182813546, -35.43645732417833, 42.45548682430975, -5.333833165472451, -63.915619323879845, 11.38716330354137, 11.848008004399718, -5.429903745434194, 3.3013661997051185, 78.78570264615463, 14.973013042105835, -6.771674850688921, -0.3938661595267334, 39.890251917787005, -29.79610895678554, -7.50737600953488, 22.38023587884639, -2.4556169948196374], [28.67613454258029, -56.71861733602246, -22.910211322114613, 25.251100035654154, 13.477143445964522, 11.314131128458143, -5.458377325306276, 7.325989199087067, -27.941107402990678, 2.8000968517357947, -6.2177052515939755, -63.65261040561556, -24.433011421140705, -37.052650421922706, -28.903307261421325, 6.077691489029965, 25.651174767374123, -57.30462422642861, -47.13638164181498, 14.911651423239782, 10.825535397878463, -56.8971280918666, 5.529983616109581, -9.1710591367832, -47.18121971032398, 43.484551078135794, -14.414912491397365, -6.004176973029108, -61.93344702147711, 27.33764579170973]], "3": [[-5.0140739775425525], [-10.672936319432411], [-0.005029633098814714], [42.04629895269434], [7.542854248146937], [34.0413280082154], [-3.0001298935704623], [1.2787533515992535], [-111.36377601542793], [7.049856584978475], [4.076658422410227], [4.248508287543134], [-16.788483880818273], [3.223912206483469], [43.90921388942951], [0.17812275738139202], [-0.04409965595129445], [37.6006361734941], [46.22724171612979], [-60.96322686228034], [-3.5649994933898097], [0.7047491900904373], [5.73032602307702], [1.49194393046618], [-7.7651975720241895], [-0.43500986431102584], [3.1918048122846683], [1.7989524963367167], [5.856379381647816], [-11.962054115210007], [-13.71283881822181]]}, "Pd": {"1": [[0.946608528811985, -4.54449117613567], [0.7956179080603512, -9.805486705641899], [-0.01770315078557061, -3.61487605340832], [0.08125112247432283, 8.151745175406887], [-0.13880767039855704, -0.9793463897086934], [-0.2633417484152683, -17.044738827942016], [-0.27733943276015594, 18.533635317870818], [-0.13056322877353468, -21.505080202616302], [19.600239722578504, 166.87202925704761], [43.30375379231204, 69.14630865597871], [21.91967521918849, 15.926391146892941], [-31.809935501535602, -164.149511823302], [-64.16597615564332, -66.29778307626836], [-33.26854560820291, -3.915740564376777], [-9.303837395202844, -110.8572677982311], [-22.017899482510657, -37.600669143568474], [-10.681273435384364, -44.83523196936037], [21.056373081933607, 100.47515604255521], [42.15948332079938, 60.4537870206831], [21.601574450563003, 34.92335932734094], [-1.29728017604103, -10.88117721686346]], "2": [[6.3631946975003455, 1.7409634649591996, 16.25645668709411, -0.5800567722935498, -9.135561046526256, -1.8245289338927884, 15.41034349871076, -2.3390417790156635, -0.954822669628859, -7.775183961410408, -6.95322728989698, 20.368059942020743, 0.7099433303734122, 11.52850265649775, -9.20308701408333, -9.524402652998495, 39.2939230781658, 18.126340980998066, -0.17926213353496123, 0.17066426513195934, 10.93269645647873, -8.978302214734212, -0.900900447875957, -1.0351590793704901, -16.5927897700703, -16.01462336253769, 16.83701567502809, 2.6384194194343946, 2.1809762744790118, -2.2171804121336733], [2.9204870502419866, 0.23869042853582595, 11.35623876437854, 2.4520525153689543, -5.7161642289535655, 2.095673717470477, -66.70068355870526, -18.828240273937116, 0.1285303572864099, 36.35293414385617, 10.045138498393072, -15.891122086258514, -2.976777319004065, 3.9621371042856013, 29.721230952794112, 3.6190276536322488, -6.130090548297208, -1.4390452648192058, -0.024493769802018495, -60.27462240607804, 5.786591808171981, -5.069913897476438, 5.69165452296675, 39.923123001437645, -15.026354593226706, 11.681516539385328, 8.667986518037223, -0.45525485481653843, -2.332085671669671, 4.342880319454649], [10.471277337114321, -2.659150618427909, 7.229184967962524, 0.6053140477428793, -4.91363930963674, 0.8713951818880182, -9.62955624003274, -19.462209560387375, -2.058364607799532, 5.458354668577444, 13.07523842296955, 21.4130919348015, -3.390153268884854, 0.9062169534673764, 4.7810870145905575, 6.369225661746553, -31.6679645742828, -5.26714952562641, -1.7295165420044638, 47.95105727123544, 4.140462459595287, -3.8876703454403683, 5.009912823048677, 4.35270988249013, -13.114468504378092, 1.183597939259627, 5.726130865095314, -1.12755480419344, -0.8717280667484677, 5.437791703215893]], "3": [[-30.83508667781517], [-21.248071048947693], [-0.1903885226365261], [0.7445980795407787], [1.5056461917178352], [-8.15877401333277], [18.66988880259421], [0.21535227503877802], [6.304589255597785], [32.0336752399505], [39.35185246659639], [0.010165873455909639], [-9.465348416197], [0.03377951418541305], [-10.95365815112042], [-7.82465112840494], [11.445185558090287], [-9.68878757908618], [18.539738626011484], [0.003549260975522907], [-2.768047955015985], [-3.7976708008135365], [-1.1767854028650124], [-2.4738976876886403], [-0.10543416795518384], [-0.014401259143940647], [0.5703274006211748], [-4.355471470578777], [-5.7912830532799475], [-12.734362034051081], [4.761334038370155]]}}, "fingerprints_range": {"Cu": [[0.1063750548408017, 15.55743075082518], [0.028202539821623157, 15.824610224206179], [0.0039475029562834815, 6.543651351035633], [0.0009775685586746502, 5.901293632153394], [6.336097831506945e-09, 0.7186722153281908], [1.190287988056906e-09, 0.7702142399843445], [1.1815297550357418e-30, 0.0005969806159118927], [7.875808503354093e-32, 0.0014999082499671163], [0.14542638955905765, 586.0279136978755], [1.0639431752062123, 1339.0774553779588], [-2.1232459816643144e-18, 680.2199829665379], [0.21753575331713212, 430.46949002501225], [0.7672793241028637, 933.9576344679633], [0.01912449962367862, 505.84680013293473], [0.009653362355969163, 287.61510794586883], [0.3377739380614941, 694.3948342368042], [0.0, 333.734781480117], [0.03697254301515187, 160.4359473839458], [0.23682355773155236, 348.9904146530375], [0.0018168617087065356, 189.85900104165898]], "Pd": [[0.028202539821623157, 15.82461022420618], [0.1063750548408017, 15.557430750825183], [0.0009775685586746502, 5.901293632153396], [0.0039475029562834815, 6.543651351035635], [1.190287988056906e-09, 0.770214239984344], [6.336097831506945e-09, 0.7186722153281916], [7.875808503354093e-32, 0.0014999082499671157], [1.1815297550357418e-30, 0.0005969806159118931], [-2.1232459816643144e-18, 680.2199829665362], [1.0639431752062118, 1339.0774553779634], [0.14542638955905765, 586.0279136978755], [0.01912449962367862, 505.8468001329346], [0.7672793241028637, 933.9576344679631], [0.21753575331713212, 430.46949002501225], [0.0, 333.73478148011566], [0.33777393806149464, 694.3948342368044], [0.009653362355969173, 287.61510794586883], [0.0018168617087065421, 189.85900104165927], [0.23682355773155245, 348.9904146530362], [0.03697252924305966, 160.4359473839458]]}, "fingerprints_tag": 1, "scalings": {"Cu": {"intercept": 10.698555610423259, "slope": 26.891047996012656}, "Pd": {"intercept": 10.697998537258188, "slope": 5.4621763477306926}}}