{"cutoff": 6.5, "Gs": {"Pd": [{"eta": 0.05, "type": "G2", "element": "Cu"}, {"eta": 0.05, "type": "G2", "element": "Pd"}, {"eta": 4.0, "type": "G2", "element": "Cu"}, {"eta": 4.0, "type": "G2", "element": "Pd"}, {"eta": 20.0, "type": "G2", "element": "Cu"}, {"eta": 20.0, "type": "G2", "element": "Pd"}, {"eta": 80.0, "type": "G2", "element": "Cu"}, {"eta": 80.0, "type": "G2", "element": "Pd"}, {"zeta": 1.0, "elements": ["Cu", "Cu"], "type": "G4", "gamma": 1.0, "eta": 0.005}, {"zeta": 1.0, "elements": ["Cu", "Pd"], "type": "G4", "gamma": 1.0, "eta": 0.005}, {"zeta": 1.0, "elements": ["Pd", "Pd"], "type": "G4", "gamma": 1.0, "eta": 0.005}, {"zeta": 1.0, "elements": ["Cu", "Cu"], "type": "G4", "gamma": -1.0, "eta": 0.005}, {"zeta": 1.0, "elements": ["Cu", "Pd"], "type": "G4", "gamma": -1.0, "eta": 0.005}, {"zeta": 1.0, "elements": ["Pd", "Pd"], "type": "G4", "gamma": -1.0, "eta": 0.005}, {"zeta": 4.0, "elements": ["Cu", "Cu"], "type": "G4", "gamma": 1.0, "eta": 0.005}, {"zeta": 4.0, "elements": ["Cu", "Pd"], "type": "G4", "gamma": 1.0, "eta": 0.005}, {"zeta": 4.0, "elements": ["Pd", "Pd"], "type": "G4", "gamma": 1.0, "eta": 0.005}, {"zeta": 4.0, "elements": ["Cu", "Cu"], "type": "G4", "gamma": -1.0, "eta": 0.005}, {"zeta": 4.0, "elements": ["Cu", "Pd"], "type": "G4", "gamma": -1.0, "eta": 0.005}, {"zeta": 4.0, "elements": ["Pd", "Pd"], "type": "G4", "gamma": -1.0, "eta": 0.005}], "Cu": [{"eta": 0.05, "type": "G2", "element": "Cu"}, {"eta": 0.05, "type": "G2", "element": "Pd"}, {"eta": 4.0, "type": "G2", "element": "Cu"}, {"eta": 4.0, "type": "G2", "element": "Pd"}, {"eta": 20.0, "type": "G2", "element": "Cu"}, {"eta": 20.0, "type": "G2", "element": "Pd"}, {"eta": 80.0, "type": "G2", "element": "Cu"}, {"eta": 80.0, "type": "G2", "element": "Pd"}, {"zeta": 1.0, "elements": ["Cu", "Cu"], "type": "G4", "gamma": 1.0, "eta": 0.005}, {"zeta": 1.0, "elements": ["Cu", "Pd"], "type": "G4", "gamma": 1.0, "eta": 0.005}, {"zeta": 1.0, "elements": ["Pd", "Pd"], "type": "G4", "gamma": 1.0, "eta": 0.005}, {"zeta": 1.0, "elements": ["Cu", "Cu"], "type": "G4", "gamma": -1.0, "eta": 0.005}, {"zeta": 1.0, "elements": ["Cu", "Pd"], "type": "G4", "gamma": -1.0, "eta": 0.005}, {"zeta": 1.0, "elements": ["Pd", "Pd"], "type": "G4", "gamma": -1.0, "eta": 0.005}, {"zeta": 4.0, "elements": ["Cu", "Cu"], "type": "G4", "gamma": 1.0, "eta": 0.005}, {"zeta": 4.0, "elements": ["Cu", "Pd"], "type": "G4", "gamma": 1.0, "eta": 0.005}, {"zeta": 4.0, "elements": ["Pd", "Pd"], "type": "G4", "gamma": 1.0, "eta": 0.005}, {"zeta": 4.0, "elements": ["Cu", "Cu"], "type": "G4", "gamma": -1.0, "eta": 0.005}, {"zeta": 4.0, "elements": ["Cu", "Pd"], "type": "G4", "gamma": -1.0, "eta": 0.005}, {"zeta": 4.0, "elements": ["Pd", "Pd"], "type": "G4", "gamma": -1.0, "eta": 0.005}]}, "activation": "tanh", "hiddenlayers": {"Pd": [3, 35], "Cu": [3, 35]}, "weights": {"Cu": {"1": [[2.271806708764225, -0.29287494822209903, -1.6852185446095809], [1.6795041511653157, 0.9409141759818065, -0.8304381572268856], [-0.2792351937145628, -0.15268949902811568, 0.42315592535428165], [0.07265806839978053, -2.679941333076731, -0.060538200056563456], [0.14482956502879246, -0.4400601562873233, -0.36882844589948416], [0.0386240030885519, 0.8603606732531637, -0.1716316471718501], [-0.08241710153037772, -0.13845004963223637, 0.1149012481481588], [-0.06562060149191538, -0.7156976202481405, 0.10197694471060578], [-1.681882565086191, 0.613874225922806, 0.7468866963482034], [-0.6447791925955079, 0.8574365899126404, -0.711633742783146], [-5.219855329387859, -1.1069142146886208, -0.07734356342569904], [-2.7265886824777263, 2.2344953910454954, 1.2682930381971054], [-0.7122929802353934, 1.3168329492862858, 2.1438694391542494], [1.0439490660917659, 4.0492916145019695, 1.8220483408823307], [1.828490047971548, -2.0940571766545384, -1.2113142028742314], [0.45824626657096823, -0.9584428254135926, 0.11483794491409624], [3.97564665928769, -2.060772051613171, -0.9093990375200418], [2.07441436953852, 0.1540029698000704, -0.3701459352517743], [0.7267225657034685, -0.23532952744587662, -1.3031739237265105], [-0.23357142880839418, -0.8194394989605205, -0.6997461708162743], [-0.22222646273383398, -0.3208851799888902, -0.3956590645887587]], "2": [[0.4332018947630233, -0.5866018050114009, 2.081289266571415, -1.7523439218831411, -0.19528207480689957, 0.08983306960087793, 1.239071986693175, 3.284470236837367, -2.01241919307539, -0.9010615997609948, -0.31675263186133007, -0.806519048316064, 1.2183825684297949, 2.2636238964876427, -1.7687905577836862, -0.557278824683788, -1.0257793173011127, -0.5309041261844282, -0.660546558139733, 1.3530879442858978, 2.1826390524172345, 3.1272386160299526, -0.680298586414311, -1.9045793808240497, 1.5991217133861215, -1.9103995088069865, -0.08920133962722121, -0.5190873712097801, 0.45270330246408236, 0.6891942169166265, 1.8034095460233206, 0.3244606788704041, -1.9287185994556186, -1.0560896428055258, 0.05402563692582751], [0.3205715954497438, -2.0486486032633615, -1.3878883411832759, -3.0807021987453442, 1.9905360340571998, -1.2797603607779586, -3.1683459808700105, 0.21904562773933836, 0.7328945835112728, -0.7880323857963449, -0.1411225415499093, -4.009760189217238, -3.9092343465401993, 2.8545350764078674, 1.5871542137372212, 0.2609258916913772, 1.2104455330948236, -0.668008947186439, -2.3437514384755143, -1.0304579418198156, -1.8080207554515662, 1.165545613337453, 1.9128356642122104, -0.8074930340507911, -1.6399557519182297, -1.9569802384033343, -2.624450688049267, -0.5587551291834887, 1.920848813100997, 2.3723472122603346, -4.496532161646038, 1.9151911901819283, 2.5253153408872007, 0.5873600238381692, -1.4081313749604663], [-1.966034193488134, 3.364566043190713, -0.5358757547812023, 2.948888591591481, 0.326081059115657, 0.7170462122410285, -0.9254828032959328, 2.491276400225326, 1.2511628146451783, 2.002542059568314, 1.1844630398929086, 6.962645924571969, -1.277371484703881, -2.1719964748487577, -0.5085279775104329, -0.31328204600380666, -0.10179309261401943, -0.531174155141267, 0.6042311290414386, -0.027552394371452307, 0.9692249702086125, 3.0540938642843574, 1.314769676354707, -0.16929972418351877, 3.811653999159618, -2.4942053627385783, 1.359467002344648, 1.42066441983962, 1.1564456357752304, -2.3233133213787505, 2.6259216886099943, -3.114061589884294, -2.420840331908253, 2.9230726035866113, 0.4479445919582949], [-0.340709710857099, -0.7842539863765465, 0.5296191793456227, -0.29776284419656035, 0.9163071451549781, -0.32437960403068794, -0.12215985534450924, 1.0007121530679712, -0.08801476562008272, 0.1475555681804033, -0.9373142787157507, 0.29321055523158945, -0.30536348138333513, 3.105942830989345, 0.07133969030105036, -1.5090952571953662, -2.059144328405183, 0.6311398393810206, 0.15578725330813045, 0.5286451225880326, 1.8649067795308867, 1.2734374065320637, 0.3350242166532102, -0.6914372259808805, 1.2499934290170311, -2.6212744119987574, 1.1984216620867203, 0.06333565420752625, 0.9458555875026652, 0.7275540493485639, -1.8790112539071355, -0.8741745712565697, -0.6939806571619411, 1.1125176794863305, 0.3879182148642591]], "3": [[-0.10877218679075192], [-2.9582727368375235], [-1.5312030650063604], [-0.2506414158217638], [-1.4951984793444442], [1.0443865243360109], [-1.9147452367374482], [0.7270793967877991], [-3.069430837774864], [-0.6587442317359413], [-0.18276302379142506], [-0.5587473861844818], [0.7345564932252786], [-1.0066331925320582], [0.7588848834702951], [-1.3905045872276107], [-1.0119564883369896], [0.7323944163092977], [0.5662311132788461], [-0.13414478167367655], [-1.5586606680558797], [0.23155442177862218], [-2.83144509059289], [-0.3243897968556141], [2.0303745100788584], [-1.077748374175628], [-0.3843691923906589], [2.321440405776489], [0.4891257448899967], [-1.9653287902239842], [-0.356684047469654], [0.6715273541942497], [1.6194222680402035], [1.6894184317847407], [0.6986247200994515], [-2.25511108627383]]}, "Pd": {"1": [[-0.3676639928981619, -1.1098751669622864, 0.9627284577818888], [-0.6428765004790616, -3.1947528757220947, 1.8454566908788728], [0.13325171383493473, -0.8171478821902135, 0.2822623644409807], [0.4616814563648596, 0.5469073998011179, -0.5654387446648815], [0.037424050641645404, 0.3340881061417129, -0.049861417232044805], [-0.09222289444845873, -0.060643262042518895, 0.27234852499115536], [-0.10520361502770063, -0.024718345090692477, -0.07999202630454771], [-0.3382241922653576, 0.09879257443572112, -0.46592309221465666], [5.941335479399513, 5.9941093305702156, -5.493533193280656], [2.9146741522856563, -1.0258152271505114, -0.28894846029229115], [11.570936728868265, -13.445430284669584, 7.549183376433925], [-4.764481637090492, -2.0653857250809593, 2.4872282095888494], [-4.388996447648679, 2.740371856990336, -0.13996578873876428], [-10.523551478121114, 16.76303972648598, -8.023658300196185], [-3.015020855180917, -3.951881672082899, 3.5308745483007966], [-1.2448738525113143, 0.4796112581115668, 0.1147748531300642], [-5.958561285562357, 6.738456294936865, -4.015689866142102], [1.9763693917320055, 0.442590110392146, -0.8978361338183185], [2.6105073652536883, -2.338518790469764, 0.33963351865542035], [4.872603399700493, -9.860058874589765, 4.547210841050782], [-0.7958987315251191, 0.4488206922199493, 0.42894715748455253]], "2": [[-0.7969390560205168, -0.7321400176615288, 2.5548831638001817, -1.000122090960295, 3.095090903253094, -3.5704767766927508, -4.109830411487124, -0.3093180792486049, 3.9340994452148266, 0.968205506518911, 1.0105657707903508, -0.6582730665316001, -5.0250757827824515, -2.8348530770226437, 1.758691719558218, -4.339820923366691, -0.6136752155764941, 3.3340580615182933, 4.576975907153276, -0.22623286816114985, 1.146672277225345, 1.1113447643986922, -1.50028138453246, -0.4292176618288587, 2.4087411220256056, 5.950627748792481, 2.794661703324903, -1.3181835975690053, -1.9833585819708106, -0.6626051298370501, -2.404960377296111, 2.381702350611521, 1.0317709305461844, 2.0565036577976175, 1.8427093249203619], [0.2805849834867391, -2.7350871674277393, -3.749985945547704, -2.6787854459946083, -3.5708052659757525, 0.19737436835469174, -1.1204722243840954, 0.21338225733442656, -0.6978747503599864, 0.34014762021592465, 1.2697392271112053, 2.1503932727458177, 2.9249252586421264, -1.987138370787144, 0.15536861098110352, -1.5049697791332337, -0.4439344713758344, -0.5231460899444937, 2.097988853185936, 0.2377043965252264, -2.6592733911939126, -5.158966010250039, 1.4317185881603105, -0.07401618020590388, 6.148132818303035, 1.317021588639469, 0.7670313299429511, 0.49378660866221424, 4.0790892940714, -0.5674812916734178, -0.8215541605783555, -0.48673763813612153, 1.2579017647792927, -2.7560874823839243, -3.5579616293835987], [-4.267701716244387, 0.5152052121941157, 1.232223807597093, 0.7047457620098765, 3.3268250334272187, -4.205355104544772, -2.113527414144298, -5.8835556946832925, 2.594212650124907, -0.9563461815185965, 0.5289491823844107, 3.564110513788581, 2.9730435735698557, 2.1789756174197583, 0.6081253708032879, -0.45910770465303896, -1.4278313674152139, 4.210913972718233, 2.4825747516533956, -1.4740765350743754, -2.4561286187577527, 4.575303656837251, -2.3463360775830897, -2.0709547625566134, -2.3110539995599977, -1.365411864857884, 4.197728571286649, -1.7427872158854414, -2.9798767765027456, -0.4979510318226102, -1.0801607769174562, 3.959706132205336, 2.8933615918492235, -6.913549003316019, -2.140855904941695], [3.0992004888719134, 2.307942668922309, 1.2545297191154223, 2.3712409804820442, 0.039045478899756944, 1.8769934466112916, 0.6454619696840541, 0.3248068748048044, -0.706184216016077, 2.508415356314644, -0.824507230020398, -2.6157796806697737, -3.388961567247689, -2.1348981205077084, 0.9293160464172509, 0.7410909048003508, -1.6254001269863447, -0.5550816734186695, -2.6559247072185963, 1.9528996997203902, 2.249034055222817, 4.375087210143173, -0.44081863753606554, 0.5681847912600657, -5.460744778020334, 2.946225347870045, 0.8705887573247064, -0.7513388911532595, -3.4919346456808125, 1.9143201645841779, -0.6053269877746412, -1.3630596745844035, -0.9411781938670508, 3.954244390855709, 5.301669451819194]], "3": [[-2.4322831225006523], [-1.3010093656832196], [2.314701525137203], [0.700261141879411], [-1.0732972789131792], [1.8974363332296118], [-1.5894170497320812], [2.1025400364698843], [-0.4241548254997429], [0.9806214649403572], [0.588452777743057], [1.924174290993507], [-3.634172080666457], [-1.3981345311747773], [-0.9519235540324065], [2.697187140291368], [1.25067721300195], [0.4626513272578555], [-1.030763100888552], [0.5781766865606635], [1.0960206421436778], [1.9279545612762763], [-0.6328713200041051], [1.2832090689603086], [-2.4607421549302098], [-0.7743522365502502], [-0.6828511197826349], [-2.0118895584085763], [2.085420425862238], [1.1908759853762594], [-0.7752529303649932], [-2.033965352623187], [-0.5171637920890595], [-1.1525985250035933], [1.5096293924446857], [-5.249186867927205]]}}, "fingerprints_range": {"Cu": [[0.0, 19.717528184980367], [0.0, 12.954617486692312], [0.0, 6.763827902345048], [0.0, 4.714947330374815], [0.0, 0.4690986508436296], [0.0, 0.3591942437989357], [0.0, 8.091157146993111e-05], [0.0, 6.70824590060896e-05], [0.0, 801.3693395965696], [0.0, 185.39781543928953], [0.0, 380.6581764033588], [0.0, 607.2663840318448], [0.0, 231.76903839707245], [0.0, 221.42076155225536], [0.0, 382.67810433385426], [0.0, 75.1704048127164], [0.0, 198.3503394287148], [0.0, 226.15041328755734], [0.0, 104.68820018085577], [0.0, 69.90910953322468]], "Pd": [[0.0, 12.8624897130153], [0.0, 18.849230862512158], [0.0, 4.565811427008994], [0.0, 6.436073106044743], [0.0, 0.31261700513528473], [0.0, 0.42485844093709624], [0.0, 5.453323564168128e-05], [0.0, 5.963922275121878e-05], [0.0, 387.63611918126753], [0.0, 201.06082384923803], [0.0, 768.9373797173059], [0.0, 216.01123836799178], [0.0, 234.91303084909833], [0.0, 579.7588665624862], [0.0, 204.69128069561307], [0.0, 81.20809618623912], [0.0, 368.92772219112385], [0.0, 65.71501674010052], [0.0, 106.06324624063065], [0.0, 215.963130891552]]}, "fingerprints_tag": 1, "scalings": {"Cu": {"intercept": -1.9381327085658215, "slope": 2.9537535882219088}, "Pd": {"intercept": -0.85411774990963019, "slope": 5.2002884525579089}}}