{"cutoff": 6.5, "Gs": {"Pd": [{"eta": 0.05, "type": "G2", "element": "Cu"}, {"eta": 0.05, "type": "G2", "element": "Pd"}, {"eta": 4.0, "type": "G2", "element": "Cu"}, {"eta": 4.0, "type": "G2", "element": "Pd"}, {"eta": 20.0, "type": "G2", "element": "Cu"}, {"eta": 20.0, "type": "G2", "element": "Pd"}, {"eta": 80.0, "type": "G2", "element": "Cu"}, {"eta": 80.0, "type": "G2", "element": "Pd"}, {"zeta": 1.0, "elements": ["Cu", "Cu"], "type": "G4", "gamma": 1.0, "eta": 0.005}, {"zeta": 1.0, "elements": ["Cu", "Pd"], "type": "G4", "gamma": 1.0, "eta": 0.005}, {"zeta": 1.0, "elements": ["Pd", "Pd"], "type": "G4", "gamma": 1.0, "eta": 0.005}, {"zeta": 1.0, "elements": ["Cu", "Cu"], "type": "G4", "gamma": -1.0, "eta": 0.005}, {"zeta": 1.0, "elements": ["Cu", "Pd"], "type": "G4", "gamma": -1.0, "eta": 0.005}, {"zeta": 1.0, "elements": ["Pd", "Pd"], "type": "G4", "gamma": -1.0, "eta": 0.005}, {"zeta": 4.0, "elements": ["Cu", "Cu"], "type": "G4", "gamma": 1.0, "eta": 0.005}, {"zeta": 4.0, "elements": ["Cu", "Pd"], "type": "G4", "gamma": 1.0, "eta": 0.005}, {"zeta": 4.0, "elements": ["Pd", "Pd"], "type": "G4", "gamma": 1.0, "eta": 0.005}, {"zeta": 4.0, "elements": ["Cu", "Cu"], "type": "G4", "gamma": -1.0, "eta": 0.005}, {"zeta": 4.0, "elements": ["Cu", "Pd"], "type": "G4", "gamma": -1.0, "eta": 0.005}, {"zeta": 4.0, "elements": ["Pd", "Pd"], "type": "G4", "gamma": -1.0, "eta": 0.005}], "Cu": [{"eta": 0.05, "type": "G2", "element": "Cu"}, {"eta": 0.05, "type": "G2", "element": "Pd"}, {"eta": 4.0, "type": "G2", "element": "Cu"}, {"eta": 4.0, "type": "G2", "element": "Pd"}, {"eta": 20.0, "type": "G2", "element": "Cu"}, {"eta": 20.0, "type": "G2", "element": "Pd"}, {"eta": 80.0, "type": "G2", "element": "Cu"}, {"eta": 80.0, "type": "G2", "element": "Pd"}, {"zeta": 1.0, "elements": ["Cu", "Cu"], "type": "G4", "gamma": 1.0, "eta": 0.005}, {"zeta": 1.0, "elements": ["Cu", "Pd"], "type": "G4", "gamma": 1.0, "eta": 0.005}, {"zeta": 1.0, "elements": ["Pd", "Pd"], "type": "G4", "gamma": 1.0, "eta": 0.005}, {"zeta": 1.0, "elements": ["Cu", "Cu"], "type": "G4", "gamma": -1.0, "eta": 0.005}, {"zeta": 1.0, "elements": ["Cu", "Pd"], "type": "G4", "gamma": -1.0, "eta": 0.005}, {"zeta": 1.0, "elements": ["Pd", "Pd"], "type": "G4", "gamma": -1.0, "eta": 0.005}, {"zeta": 4.0, "elements": ["Cu", "Cu"], "type": "G4", "gamma": 1.0, "eta": 0.005}, {"zeta": 4.0, "elements": ["Cu", "Pd"], "type": "G4", "gamma": 1.0, "eta": 0.005}, {"zeta": 4.0, "elements": ["Pd", "Pd"], "type": "G4", "gamma": 1.0, "eta": 0.005}, {"zeta": 4.0, "elements": ["Cu", "Cu"], "type": "G4", "gamma": -1.0, "eta": 0.005}, {"zeta": 4.0, "elements": ["Cu", "Pd"], "type": "G4", "gamma": -1.0, "eta": 0.005}, {"zeta": 4.0, "elements": ["Pd", "Pd"], "type": "G4", "gamma": -1.0, "eta": 0.005}]}, "activation": "tanh", "hiddenlayers": {"Pd": [3, 35], "Cu": [3, 35]}, "weights": {"Cu": {"1": [[1.8012869754572953, -0.16551661649806987, -1.354537920198852], [1.3802266823152958, 0.786394402967612, -0.6906432493344202], [-0.17417159657396167, -0.22641515084665023, 0.2992921663293038], [-0.01952466085131761, -2.204529767442732, 0.01450836137935581], [0.09294312620781653, -0.4175272192995063, -0.3296161105781047], [0.05502616633902852, 0.6547567879126773, -0.19151763014278148], [-0.05790453778610575, -0.12268852547009161, 0.09731707638522204], [-0.05564606125673296, -0.5903184743889809, 0.09526719404369322], [-1.2228074273051472, 0.831417141442058, 0.15428523096187266], [-0.3727817652901547, 0.4854341827723418, -0.966153154683316], [-3.2848815225482415, -1.2625924631487995, -1.4354097066089755], [-1.9953827950493774, 2.45964767894373, 1.31262197003146], [-0.7392131791208771, 1.7925115094328674, 2.2879243022065796], [0.4726600459100169, 3.6881549366251707, 2.2793189752608134], [1.3226172245040462, -2.2742998601903897, -0.815805596400576], [0.29328451250667087, -0.7802734663791221, 0.24149547736888485], [2.619360102317712, -1.5809019798248696, 0.019196983368029812], [1.5554639192375497, -0.12786611413092008, -0.30172430985938964], [0.7263548587735112, -0.5788626220296769, -1.3362626116157976], [-0.08649087982495306, -0.7818007389977585, -0.8193368684096027], [-0.18895326605733206, -0.24749985047340042, -0.3463187965251274]], "2": [[0.41422490091124553, -0.8078217236087163, 2.388003383499152, -1.3876110230497172, 0.11268443534845568, -0.6054569564747603, 1.5129831115645098, 4.190168505422907, -2.204637201480171, -1.1397101571014918, 0.2675938565839609, -0.06568508186471322, 1.4633368556179198, 2.1910138826397216, -2.1583544679493785, -0.8647913074887897, -1.776778855355856, -0.6817572809145716, -1.036699837688082, 1.6602820503552724, 2.707904589798885, 3.3684968125298926, -0.9311976243085238, -2.716482239876672, 1.323776029193717, -2.335001019954591, -0.030598273284803492, -0.6580930205166576, 0.5259498390078052, -0.2837547643955867, 1.3923181282578567, 0.2168142140929533, -2.1540145894115907, -1.2957166704520426, 0.3942825007598698], [0.40855182197123013, -1.6882264565946512, -1.6370698160877464, -3.471421738994716, 1.9675623099335053, -1.25499634839563, -3.3146923510290476, 0.04702881377018576, 0.8705240974686079, -0.42364734107716046, 0.0053795801679924465, -4.557835451600863, -4.115795057194425, 2.82529489394495, 1.8867839037614416, 0.5684248577848088, 1.8426010392399514, -1.2970204374448173, -2.5163044205823617, -0.4871227945698088, -2.0938812194396617, 1.5572446808522402, 1.9831714053950653, -1.0285280119545732, -1.6510201007503187, -2.192526265242909, -2.6110985631215695, -0.31988313933549606, 1.6139124783547976, 2.641988858357375, -4.8980131835020675, 1.7094324302678199, 2.8196414871458857, 0.6494366309311013, -1.286627342806851], [-2.077126781620044, 3.086190929170842, -0.6239635299536678, 3.9323249234950923, 0.8812899091041905, 0.969415768910539, -0.9427489622299031, 2.715710482592827, 1.351176445330439, 2.2426943255015814, 1.3793211020026563, 7.5306347290490825, -1.466465825435853, -2.556147618076967, -0.2580001170937624, -0.3358305968618522, -0.8694644351183128, -0.3511011292062653, 0.3391665998286286, 0.14371665676792142, 1.7215957210318127, 3.3951539207180415, 1.2454251474173617, -0.3828162889161617, 3.1618408419084374, -3.0698277566722947, 1.3168413350344015, 1.8155664462541434, 1.4056456094209073, -3.3318068225528923, 2.3671477060778807, -3.958191195809476, -2.9728853886934177, 2.900717706889495, 1.2126728359099461], [-0.0007413327456452527, -0.8138263285514173, 0.49838457154483945, -0.1229000103146559, 1.3083747798440652, -0.34890516609338346, -0.24722934404444158, 1.1263771114856074, -0.11143106858435438, 0.2698034756427005, -1.1336465592884988, 0.24875674297700615, -0.5581595888893932, 3.0450082226390505, 0.20322248543933732, -1.7334072786494328, -2.540188647806354, 0.7990587868602846, 0.10488342557222471, 0.3519000447222753, 2.360544255989994, 1.5636574976180706, 0.3686440402366497, -0.750295162690386, 0.9546107676248129, -3.208829443781244, 0.9122626970848922, 0.07629179928182817, 1.071432521980184, -0.018378432474657088, -2.553702896596962, -1.2872309439074805, -0.7790090253444893, 0.8880944532665145, 0.8513887703072199]], "3": [[-0.002723021977350613], [-3.17921499819044], [-1.8833470341817917], [-0.4266404402516091], [-1.784238956336525], [1.4575520700540536], [-2.147434063017448], [0.6464097853649688], [-3.4097163845394856], [-0.6242264822389597], [-0.19681908203282739], [-0.4871051878289811], [0.7419731322695748], [-1.0793338249195599], [0.9598537405611711], [-1.7509235893379176], [-0.9140195664173869], [0.5465350899539773], [0.36075290127840315], [-0.0014209681304317536], [-1.6761050950315688], [0.2442816423312963], [-3.2769351477448465], [-0.3590573608379932], [2.1728330799401934], [-1.07989083708719], [-0.49349938222204026], [2.262712513984027], [0.45297830035842884], [-2.131751170767514], [-0.3355810680575159], [0.7458410832913813], [1.8731788755815362], [1.9236121511721949], [0.6850482640045329], [-2.3171726802410935]]}, "Pd": {"1": [[-0.2599790026559383, -1.2242255559539958, 0.9885382463325083], [-0.6616081729676159, -3.367230653448319, 1.9366967891304303], [0.11503594904355488, -0.7640411493758072, 0.2836939098300206], [0.5197558703897133, 0.5742276505786144, -0.645843914462831], [0.0135722263610416, 0.3321561417750789, -0.06316583508803403], [-0.13221706003420292, -0.06554695052633881, 0.29763492252341317], [-0.08341945634527145, -0.013805653850866677, -0.0689803149290813], [-0.2883790378638058, 0.1407717053772221, -0.4507086307946749], [6.499313521895629, 5.9803881694087755, -5.803673138526397], [3.363256191342208, -1.3528290094361168, -0.47703346412287173], [13.629780425033468, -15.195352547563713, 6.253511106341363], [-5.449109036185432, -2.1490347633613087, 2.8405317150476876], [-5.257324671699597, 3.336295818998251, 0.11850306431150974], [-12.83894567074017, 18.45937588419093, -6.813684127133916], [-3.26000466763904, -3.8713362133934774, 3.6215017026063148], [-1.417424369599463, 0.6135778503475059, 0.20312514833570905], [-6.952744293648503, 7.665352230047196, -3.359408571785617], [2.2915820755991603, 0.47816057976270904, -1.056597254207027], [3.187791852126233, -2.705686225391761, 0.16895239960701589], [6.147329066857983, -10.627551319237016, 3.9380447482964223], [-0.7562324847546803, 0.581336578027522, 0.4715164276933744]], "2": [[-0.26945968066270937, -0.9686597612446622, 2.9968382036148755, -0.7694239485946014, 3.6266899720942063, -4.369359473542606, -4.656076251867424, -1.1418773544870648, 4.075470055811147, 0.6815132367971357, 1.802183934504144, -0.9937813046131103, -5.7808321987520825, -3.1378452099521494, 1.1162101223194179, -5.080965868168219, -0.838424712122654, 4.6027131973171125, 5.035127183866437, -0.6877196557240812, 0.7248910850702265, 1.9653568114505395, -2.6695939724088706, -0.6261576491403067, 3.0658446871928624, 6.238707372095119, 3.4812369216758623, -1.7009262219605148, -2.326452610466866, -1.3122483760220156, -2.45986996461205, 2.4039181073364646, 1.5512894354704345, 1.6869543586093694, 2.270194911552709], [-0.20965014511669053, -3.0826155350364557, -4.336180841192811, -3.3885478026084623, -4.419666622688268, 0.2285034749826808, -1.5877335194113498, -0.10485913775894622, -0.19736655063624545, 1.1372239483966156, 1.5592316637117225, 2.5505968717313294, 3.3451837372791506, -1.6732716344192804, 0.9287120096997193, -1.2598247875507569, -0.017922733966441173, -0.5963141136587761, 2.235138568441611, 0.36765967488581197, -2.932154966118269, -5.0374511212990996, 2.08141038910153, -0.46726727889318315, 5.595257798670466, 1.2151701793063703, 0.9555851567685264, 0.3277138301050761, 4.57758475014285, -0.5299901091623275, -1.378113065289272, -0.22958271596450447, 1.253639446703001, -2.924123707879508, -4.245821820721228], [-5.227948673767787, -0.0721769342644921, 1.1375416096132132, 0.43935763409988254, 3.2522602323344674, -4.360774658446554, -2.799438762391814, -5.734655991663388, 3.095257930201044, -0.7322684853295354, 1.1163762336420178, 3.568223552083788, 3.1555386900465456, 2.8988349055833567, 1.616817493664383, -0.18659277363270999, -2.3827217684147644, 5.792456876481469, 3.034778488010476, -1.9835298934009187, -3.06096938001558, 4.089412562064231, -2.7634105125208954, -2.067706048584618, -2.4074314112027717, -1.47164361157289, 4.549503235018804, -2.0664809662505808, -2.6254687369151815, -1.4318359028401166, -1.243771556536785, 5.003356412801415, 3.073562668264609, -6.97017462123259, -2.473944529738962], [4.083575848748867, 2.8377758507182818, 1.699258299800511, 2.864250923194215, 0.5103778795678191, 1.779214907284673, 1.220444194614989, 0.6457114738304042, -0.9781281200203932, 1.9701082615672012, -0.9637800515336213, -3.034254669335724, -3.98865003449756, -2.744851787230616, 0.3926260621340201, 0.47525766268978337, -1.4257051026293113, -1.061271977748605, -3.099899953882102, 1.7281481516664223, 2.6143168305950364, 4.349575956524256, -0.8869677350748276, 0.6026361398329381, -4.793063564961823, 2.9651337901420955, 0.6654675447064067, -0.7380954215034845, -3.916835161313038, 2.1129675757160293, -0.3668540432891861, -2.1317452568374895, -0.8970066630237161, 4.281997656882162, 6.009199190273188]], "3": [[-2.8704693298596475], [-1.4928413635011075], [2.466475125847726], [0.7905082121596018], [-1.218150903862793], [1.7679662647383447], [-1.4275992658352996], [2.213860676246714], [-0.6125447784086377], [1.0550532810934101], [0.6234152749755292], [2.168286036706422], [-4.010625989738957], [-1.5363017562357648], [-1.0411464501665484], [2.7333764339312676], [0.6877490271683311], [0.39644766100496187], [-1.2193785514540678], [0.2653672313055285], [1.3506367549033715], [2.0435322217270357], [-1.0405997116230215], [1.213465340757], [-2.7816796198675906], [-0.7759223743504398], [-0.6504124265142356], [-2.2501385923580695], [2.3839799598224602], [1.5148111277733611], [-0.8379420588757996], [-2.175991724860138], [-0.6738166343208227], [-1.0982652160217252], [1.6154489239860268], [-5.549566176140528]]}}, "fingerprints_range": {"Cu": [[0.0, 19.717528184980367], [0.0, 12.954617486692312], [0.0, 6.763827902345048], [0.0, 4.714947330374815], [0.0, 0.4690986508436296], [0.0, 0.3591942437989357], [0.0, 8.091157146993111e-05], [0.0, 6.70824590060896e-05], [0.0, 801.3693395965696], [0.0, 185.39781543928953], [0.0, 380.6581764033588], [0.0, 607.2663840318448], [0.0, 231.76903839707245], [0.0, 221.42076155225536], [0.0, 382.67810433385426], [0.0, 75.1704048127164], [0.0, 198.3503394287148], [0.0, 226.15041328755734], [0.0, 104.68820018085577], [0.0, 69.90910953322468]], "Pd": [[0.0, 12.8624897130153], [0.0, 18.849230862512158], [0.0, 4.565811427008994], [0.0, 6.436073106044743], [0.0, 0.31261700513528473], [0.0, 0.42485844093709624], [0.0, 5.453323564168128e-05], [0.0, 5.963922275121878e-05], [0.0, 387.63611918126753], [0.0, 201.06082384923803], [0.0, 768.9373797173059], [0.0, 216.01123836799178], [0.0, 234.91303084909833], [0.0, 579.7588665624862], [0.0, 204.69128069561307], [0.0, 81.20809618623912], [0.0, 368.92772219112385], [0.0, 65.71501674010052], [0.0, 106.06324624063065], [0.0, 215.963130891552]]}, "fingerprints_tag": 1, "scalings": {"Cu": {"intercept": -1.9060976953574196, "slope": 3.0894895251518784}, "Pd": {"intercept": -0.53418921697357991, "slope": 5.4791399820823559}}}