{"cutoff": 6.5, "Gs": {"Pd": [{"eta": 0.05, "type": "G2", "element": "Cu"}, {"eta": 0.05, "type": "G2", "element": "Pd"}, {"eta": 2.0, "type": "G2", "element": "Cu"}, {"eta": 2.0, "type": "G2", "element": "Pd"}, {"eta": 4.0, "type": "G2", "element": "Cu"}, {"eta": 4.0, "type": "G2", "element": "Pd"}, {"eta": 8.0, "type": "G2", "element": "Cu"}, {"eta": 8.0, "type": "G2", "element": "Pd"}, {"eta": 20.0, "type": "G2", "element": "Cu"}, {"eta": 20.0, "type": "G2", "element": "Pd"}, {"eta": 40.0, "type": "G2", "element": "Cu"}, {"eta": 40.0, "type": "G2", "element": "Pd"}, {"eta": 80.0, "type": "G2", "element": "Cu"}, {"eta": 80.0, "type": "G2", "element": "Pd"}, {"zeta": 1.0, "elements": ["Cu", "Cu"], "type": "G4", "gamma": 1.0, "eta": 0.005}, {"zeta": 1.0, "elements": ["Cu", "Pd"], "type": "G4", "gamma": 1.0, "eta": 0.005}, {"zeta": 1.0, "elements": ["Pd", "Pd"], "type": "G4", "gamma": 1.0, "eta": 0.005}, {"zeta": 1.0, "elements": ["Cu", "Cu"], "type": "G4", "gamma": -1.0, "eta": 0.005}, {"zeta": 1.0, "elements": ["Cu", "Pd"], "type": "G4", "gamma": -1.0, "eta": 0.005}, {"zeta": 1.0, "elements": ["Pd", "Pd"], "type": "G4", "gamma": -1.0, "eta": 0.005}, {"zeta": 2.0, "elements": ["Cu", "Cu"], "type": "G4", "gamma": 1.0, "eta": 0.005}, {"zeta": 2.0, "elements": ["Cu", "Pd"], "type": "G4", "gamma": 1.0, "eta": 0.005}, {"zeta": 2.0, "elements": ["Pd", "Pd"], "type": "G4", "gamma": 1.0, "eta": 0.005}, {"zeta": 2.0, "elements": ["Cu", "Cu"], "type": "G4", "gamma": -1.0, "eta": 0.005}, {"zeta": 2.0, "elements": ["Cu", "Pd"], "type": "G4", "gamma": -1.0, "eta": 0.005}, {"zeta": 2.0, "elements": ["Pd", "Pd"], "type": "G4", "gamma": -1.0, "eta": 0.005}, {"zeta": 4.0, "elements": ["Cu", "Cu"], "type": "G4", "gamma": 1.0, "eta": 0.005}, {"zeta": 4.0, "elements": ["Cu", "Pd"], "type": "G4", "gamma": 1.0, "eta": 0.005}, {"zeta": 4.0, "elements": ["Pd", "Pd"], "type": "G4", "gamma": 1.0, "eta": 0.005}, {"zeta": 4.0, "elements": ["Cu", "Cu"], "type": "G4", "gamma": -1.0, "eta": 0.005}, {"zeta": 4.0, "elements": ["Cu", "Pd"], "type": "G4", "gamma": -1.0, "eta": 0.005}, {"zeta": 4.0, "elements": ["Pd", "Pd"], "type": "G4", "gamma": -1.0, "eta": 0.005}], "Cu": [{"eta": 0.05, "type": "G2", "element": "Cu"}, {"eta": 0.05, "type": "G2", "element": "Pd"}, {"eta": 2.0, "type": "G2", "element": "Cu"}, {"eta": 2.0, "type": "G2", "element": "Pd"}, {"eta": 4.0, "type": "G2", "element": "Cu"}, {"eta": 4.0, "type": "G2", "element": "Pd"}, {"eta": 8.0, "type": "G2", "element": "Cu"}, {"eta": 8.0, "type": "G2", "element": "Pd"}, {"eta": 20.0, "type": "G2", "element": "Cu"}, {"eta": 20.0, "type": "G2", "element": "Pd"}, {"eta": 40.0, "type": "G2", "element": "Cu"}, {"eta": 40.0, "type": "G2", "element": "Pd"}, {"eta": 80.0, "type": "G2", "element": "Cu"}, {"eta": 80.0, "type": "G2", "element": "Pd"}, {"zeta": 1.0, "elements": ["Cu", "Cu"], "type": "G4", "gamma": 1.0, "eta": 0.005}, {"zeta": 1.0, "elements": ["Cu", "Pd"], "type": "G4", "gamma": 1.0, "eta": 0.005}, {"zeta": 1.0, "elements": ["Pd", "Pd"], "type": "G4", "gamma": 1.0, "eta": 0.005}, {"zeta": 1.0, "elements": ["Cu", "Cu"], "type": "G4", "gamma": -1.0, "eta": 0.005}, {"zeta": 1.0, "elements": ["Cu", "Pd"], "type": "G4", "gamma": -1.0, "eta": 0.005}, {"zeta": 1.0, "elements": ["Pd", "Pd"], "type": "G4", "gamma": -1.0, "eta": 0.005}, {"zeta": 2.0, "elements": ["Cu", "Cu"], "type": "G4", "gamma": 1.0, "eta": 0.005}, {"zeta": 2.0, "elements": ["Cu", "Pd"], "type": "G4", "gamma": 1.0, "eta": 0.005}, {"zeta": 2.0, "elements": ["Pd", "Pd"], "type": "G4", "gamma": 1.0, "eta": 0.005}, {"zeta": 2.0, "elements": ["Cu", "Cu"], "type": "G4", "gamma": -1.0, "eta": 0.005}, {"zeta": 2.0, "elements": ["Cu", "Pd"], "type": "G4", "gamma": -1.0, "eta": 0.005}, {"zeta": 2.0, "elements": ["Pd", "Pd"], "type": "G4", "gamma": -1.0, "eta": 0.005}, {"zeta": 4.0, "elements": ["Cu", "Cu"], "type": "G4", "gamma": 1.0, "eta": 0.005}, {"zeta": 4.0, "elements": ["Cu", "Pd"], "type": "G4", "gamma": 1.0, "eta": 0.005}, {"zeta": 4.0, "elements": ["Pd", "Pd"], "type": "G4", "gamma": 1.0, "eta": 0.005}, {"zeta": 4.0, "elements": ["Cu", "Cu"], "type": "G4", "gamma": -1.0, "eta": 0.005}, {"zeta": 4.0, "elements": ["Cu", "Pd"], "type": "G4", "gamma": -1.0, "eta": 0.005}, {"zeta": 4.0, "elements": ["Pd", "Pd"], "type": "G4", "gamma": -1.0, "eta": 0.005}]}, "activation": "tanh", "hiddenlayers": {"Pd": [4, 50], "Cu": [4, 50]}, "weights": {"Cu": {"1": [[0.0042036411771519955, 0.02123255230702273, 0.012554849562900518, -0.007911095802494716], [0.004829988150403711, -0.019807386406914512, -0.029736661242118396, 0.007696827957764718], [-0.014439785904363477, -0.044346708334044624, -0.02643790894667922, 0.006437686868404693], [-0.014182332579443777, -0.029526727358502678, -0.01028293460922284, -0.02046944902760575], [-0.024835358074464877, 0.014104607178835438, -0.033851224970160146, 0.044860319544257315], [-0.01826730317129432, -0.023915548782030085, -0.042701649522604905, -0.03513401986353833], [0.03740350094771176, -0.01971809689187485, -0.0199548001599594, -0.00815458402000304], [0.033390731962303244, -0.039822785760529056, 0.03625954478737545, -0.0347768961578013], [0.03831147117908018, -0.04543921072335387, 0.03240210652342325, 0.025734338178533572], [-0.012678915358583051, 0.04175018403030814, 0.04401890503625913, -0.0036120852890099836], [0.0019113112896903123, 0.01363176979610347, -0.034744217055392886, -0.039977170105580606], [-0.016929199127924895, 0.02859171332896214, 0.021009618825848744, -0.025724700905963648], [-0.01639867372754858, 0.03240363105503902, -0.03147569393194059, 0.017424167326655735], [0.035472007917813075, -0.025448545109908585, 0.028406876929434707, 0.029605429184594717], [-0.04008836840063705, -0.029361415682654175, -0.017595886085419857, -0.023661837407389436], [-0.04469484200418796, 0.01721658323908476, 0.0347755916100245, -0.007677093698343122], [0.03843547302955003, 0.03365240483420889, -0.006464250098515166, -0.012826446143032078], [-0.009935799140269583, 0.0023824700175516106, -0.012622591970570182, 0.04409957541297782], [0.02419258925109849, -0.001916028994278951, 0.008208641534783574, 0.0036597605097376945], [0.02816035461914662, 0.028820573889707116, 0.04106886711233737, 0.036538071048646356], [0.03142425492106812, 0.02318276061623048, -0.007044639855882814, 0.03976335733357657], [0.004860953307278773, 0.009759637877017585, 0.043597988678449856, 0.01566207118758102], [-0.018852875990759164, -0.04478289587108798, 0.03258462761717208, 0.03142231071231495], [-0.029490831892793397, -0.020495464750776644, 0.04153308176892062, 0.022060962092480832], [-0.021541664607498796, 0.043283878988418095, -0.007595157774775055, -0.04316902425163002], [-0.004571906910752099, 0.03383413568249301, 0.04321494557469044, 0.04225161069976552], [0.025076259038859516, 0.030445752134866957, -0.009686947841006044, 0.004122831723146883], [-0.034569987260882125, -0.032019525368858735, 0.02177313821712419, 0.02434411278045473], [0.0365573163820115, -0.0034915779321288976, 0.03504723818502156, -0.006183042898123783], [-0.023068042587361334, 0.004086014509803587, 0.04581982780129959, -0.019979561041265408], [0.00960983182553972, -0.032736887705590675, -0.023088558372904668, -0.026525494625146355], [0.038284654729022524, -0.019769415948566904, 0.030631073622453875, -0.010416030508761845], [0.0, 0.0, 0.0, 0.0]], "2": [[-0.18210735099424832, -0.3104899581947676, -0.21741704532216777, 0.25816691034045136, -0.1849637317001424, 0.08489994710630366, -0.26257005287475693, 0.3135697533620243, 0.20841182601305563, -0.12204459099541953, 0.28510616916291953, 0.3236477459510634, -0.21128444348582995, 0.05491904921064805, 0.3116422888453856, -0.18660287588624666, -0.03025181568791785, 0.012227847909308087, -0.3565383239736651, -0.14900237401879737, 0.11208303409496734, -0.1562310136260479, -0.046786359249171405, 0.34758837884051064, -0.15631613393016822, 0.08245698071607926, 0.3416834277443721, -0.13775301235042792, 0.2894103954977436, 0.08830041188444993, 0.03804910919674709, -0.21501837520173084, -0.03837138068737217, -0.23837608830305965, -0.02290180911499412, 0.06488036348076409, 0.09303834709865078, 0.3462852753709632, 0.031221321637452004, 0.0402274066687055, 0.0836630963761672, 0.21705929931963386, -0.329272607411759, 0.11877092503723236, -0.004917141220027066, 0.3124123912791579, 0.322118276539312, -0.35889737578065994, 0.02682670773085838, -0.1928200853070393], [0.15321795277722872, -0.27098504578987614, -0.22555097324845555, 0.12148728873020964, 0.10055145307616875, -0.19332453507583086, 0.25354770152585127, 0.29565720789658956, -0.17965393897145754, -0.3139587774992453, -0.21806299088614703, -0.279595024327985, -0.18819031218302462, 0.032426358847590264, 0.22972333648107157, 0.3139661605141669, 0.004409004043399889, 0.3192915462769428, -0.07052999939602672, -0.27962141295379306, 0.3184596332650017, -0.33267473006208736, 0.2933192198768957, 0.20961320107071546, -0.2170736016570702, 0.2655035649146609, -0.28600847585929756, 0.003996655064670063, -0.19359340776863204, 0.35136739062270794, -0.2968471011907027, 0.33674120560774634, 0.13616062054451328, 0.16458884659607653, 0.135420535611668, -0.20556973705704382, -0.06770718476595494, 0.15681489885482458, 0.35051856097270395, 0.18827856446459712, 0.30334666620715933, 0.22983073728272851, 0.18901004028220703, 0.17623318211272998, -0.19725128664900235, 0.06593287075896725, -0.3644665718786234, 0.2518553316737676, 0.17390134154100623, -0.2443908045422623], [0.30645021348278245, 0.22820296366473158, -0.10128196537108042, 0.18477744239572624, 0.08494584589676413, -0.26301785230453123, 0.2394336454708954, 0.1325203956875709, 0.004663609382797418, 0.019494891507656376, 0.14187725559635045, 0.256002809191467, 0.11298215851399551, 0.09606790724653258, -0.06532087847598833, 0.12527955730559315, -0.11054664404486059, -0.35315176140265125, 0.3165364600697067, -0.16046660351717504, 0.30751433179805165, 0.16342371487148566, 0.2210201120575147, 0.0025571288535188863, -0.038756764669716115, 0.20123763752690882, 0.35177441017813804, 0.33722296069289925, -0.11872383739704184, -0.04648004375124437, -0.35591832818989344, -0.03585923122218415, -0.33548572558887935, 0.250256853816174, -0.06328349497962849, -0.22457233992565995, 0.09645336519893266, 0.05299920589661833, 0.18184762894813433, -0.12331577731324672, -0.29928121956560905, -0.10755230904743629, 0.2069554505310951, 0.09234381825168508, -0.35090948841244607, 0.28377892110916336, 0.12356650639301203, 0.06677079262221264, 0.07453910091609522, -0.0820905953273311], [0.01742841343282797, -0.13113548958705734, 0.23664807720973946, -0.338575057145958, 0.20999146514322176, 0.35089731090902465, -0.3480551282431619, -0.15459417408371023, -0.03878799121616483, 0.1222129763522316, 0.29410449676579176, 0.33826934844751777, 0.2763905100977947, 0.11251619140918717, 0.1282774101576284, 0.05807974360893997, -0.09221661490804989, 0.18366940917424512, -0.3325945736507918, 0.33354311289256744, 0.32381013018251725, -0.04030241000604112, -0.2551924404858762, 0.36698048413923134, 0.19514181334124703, -0.16543032958854492, 0.30608723363132295, -0.06905583399793247, 0.25584009300546695, -0.29255566971717967, -0.2847233136923699, -0.11899647619198928, 0.03437399543241604, 0.014341721794155604, 0.18969168483788046, 0.007428575080214994, 0.2322949291633476, 0.240035520053841, 0.18261897222985246, 0.2984731503852114, -0.23663883882731127, 0.20887587755725723, 0.3006394155515426, -0.19547181832228358, 0.24050288273704767, 0.2291049353715554, 0.3078359748459796, 0.16218579821787438, -0.33054957651377326, -0.23837618987202763], [0.0, 0.0, 0.0, 0.0, 0.0, 0.0, 0.0, 0.0, 0.0, 0.0, 0.0, 0.0, 0.0, 0.0, 0.0, 0.0, 0.0, 0.0, 0.0, 0.0, 0.0, 0.0, 0.0, 0.0, 0.0, 0.0, 0.0, 0.0, 0.0, 0.0, 0.0, 0.0, 0.0, 0.0, 0.0, 0.0, 0.0, 0.0, 0.0, 0.0, 0.0, 0.0, 0.0, 0.0, 0.0, 0.0, 0.0, 0.0, 0.0, 0.0]], "3": [[0.01986733414092362], [0.027877401532967895], [-0.015817298604469687], [-0.027063169060774928], [0.02307474382327395], [-0.009107250658245164], [0.026674116885586234], [0.026677780391701385], [-0.004643458509064523], [-0.023330139704195306], [-0.008160967551730961], [0.01346291858239873], [0.019821054665076117], [0.011349936023744844], [-0.0023862870435637402], [0.029791296676700052], [0.025581333470471854], [0.016095724433232386], [6.720602930070096e-05], [0.012599193116676531], [0.0016160601215070777], [-0.023137695345975682], [0.009470549310922699], [-0.016030197392958585], [-0.024445074576510958], [0.010547189533805679], [-0.015125666360241352], [0.02997302217856651], [-0.010551579841174125], [-0.008191981121361339], [0.024420098019158405], [0.0014688453302515517], [-0.0016263306017891936], [-0.026818148819515712], [-0.013177855933959409], [-0.005098842916338466], [-0.011063994651435163], [-0.015909380477060656], [-0.005041145261029709], [-0.00559657435504405], [0.0076392116808421465], [0.026134552878641353], [-0.01362896806082314], [-0.004447778415967819], [0.020558428020007367], [0.02769837148460974], [-0.012554998779086331], [-0.02380595391017437], [-0.017862685419418566], [0.0013151063029491483], [0.0]]}, "Pd": {"1": [[0.02778531603043384, -0.0065717452079989, 0.02081280450069757, 0.0377733322206916], [-0.046232446334579555, 0.021606947042999508, 0.02998198272894685, 0.021713369141934058], [-0.013929450095468074, 0.043043923332951414, 0.041431469241249505, -0.01849915903000484], [-0.01754296360913696, 0.017973448985392493, 0.01575188775604003, 0.007765652708815643], [-0.030755743665402308, -0.0275833147158252, 0.030448410667044207, -0.03575929728516063], [-0.02149305933654643, 0.006690504121652438, 0.04465702307993803, 0.031457039997611735], [0.00403150440721399, -0.0200276790792358, -0.011885495362659898, 0.03302633946443281], [0.04492229986519482, 0.019109130872700053, 0.03659855326094713, 0.004163804304044123], [0.01973895756295299, -0.04519616599651509, 0.017047795646894598, 0.025948487210440546], [0.030958226116534357, 0.03499427087664235, -0.01707552131679408, 0.01244647691588499], [0.01629600141662263, 0.01000688258764336, -0.018731091037017502, 0.014500694793022864], [0.016121412787435868, 0.022602264443867023, -0.02818249130623869, -0.02345675145856363], [-0.03854153675179748, 0.00764832842858755, -0.0070951233606894315, 0.006215412149008379], [0.0335337784387449, -0.03611120166017329, 0.045134770134329844, 0.009039114916211663], [0.004433432525789191, -0.04107410332968033, -0.013546739043593582, -0.01872564306119855], [0.0071044498404430195, 0.024100229504415968, -0.003922972662942795, -0.0007781405692216109], [0.032335126454059754, 0.0439524116621168, -0.0071143181524983765, 0.012656225734672295], [-0.04457815620692507, -0.026376245913000893, -0.015074752522478196, -0.04573316744773299], [-0.026537005298905673, -0.02475929530021961, -0.030643522320135983, 0.03253486794932463], [0.028608574833499406, 0.019422572093838214, 0.022972282372051595, 0.01570918438732144], [0.036387670440965955, 0.017311780958200115, 0.028305209489903754, 0.016783212627143496], [-0.013511674421445137, -0.042445629403677236, -0.03230544363831565, -0.004791964587165798], [0.030539829697183662, 0.011722979835255859, 0.04046993826128792, 0.02483910446635601], [0.032183515135965485, 0.0387268797767063, 0.013125788395998851, -0.037486566403365326], [-0.0030352244521993227, -0.022000400769259614, -0.0368353694883648, 0.03902729453234946], [-0.012966398186137519, 0.01695320544806321, -0.01998913215332023, -0.0005264394390355337], [0.0012826136388766618, 0.03139709189468301, -0.024092204733066256, 0.044221172474502704], [-0.005266463978832833, 0.026954695010049268, -0.03183618362067276, 0.012045159212247913], [-0.018570767608984098, 0.01027601058640143, 0.013527734883657695, 0.03894653188160471], [0.026543111974678582, -0.011725240754279331, -0.00923317194620956, -0.026829824804033186], [0.01461789536866942, 0.0370799332930387, 0.014889610437216871, -0.0401877834782769], [-0.005850049215248926, 0.00982650951619985, -0.017995791140875253, -0.03612899548107601], [0.0, 0.0, 0.0, 0.0]], "2": [[-0.3048114486535265, 0.21923431444868857, -0.36598612345283454, 0.14360374331421588, 0.00478315720553768, -0.29148860928311837, 0.19920714084836888, 0.2375956345377127, -0.17425853926132992, 0.24061885091506763, -0.13673921925221902, 0.2991045450325358, -0.2752339459475218, 0.05070974233620368, 0.3275618344073503, -0.18232488058707835, -0.30304052708675966, -0.26915217618262777, 0.3545280404515171, -0.06967913194211917, -0.08258082841024406, -0.23962959487288993, -0.3034259966212022, -0.20452298107888067, -0.2593388839874381, -0.36404135950143324, -0.13089408736206382, -0.02866046405177647, -0.2875193321711349, 0.18808834003429287, 0.1955283874889765, -0.25741072917332025, 0.17076534661443976, -0.16775034828177926, -0.12558279250080495, 0.012757710846855397, -0.1374313147126075, -0.0803378340353158, 0.35896188096158, 0.0004020806126974197, 0.2756622909847374, -0.3046992188797324, 0.16095895121354076, -0.0895577575690577, -0.010514611621607495, -0.2572250839639528, -0.21209304960530276, -0.13849242722029184, 0.009027743111834297, -0.004462498439611995], [0.07846461275239558, -0.35448888581764304, 0.03150332523753252, -0.2737758454624412, 0.09512809697165181, -0.22779644778038569, -0.34891553619745286, -0.2827570014578714, -0.03787747585580847, -0.06366282131523232, -0.19827745456392568, 0.04553220487656484, -0.3297036875394143, 0.03439628294806485, -0.3047001320415866, -0.3549676547684582, 0.10690445523287967, 0.2513899752419595, -0.2233043138653097, -0.028704857259378103, 0.1686936539385696, -0.07425242059448822, 0.09181622981858845, -0.30962841823115, -0.07996268498269626, -0.24935454781589056, -0.2043998415083923, 0.253703412410059, 0.07388519711189345, -0.11351663589202654, -0.31880521438983356, -0.29616403519681933, -0.06188063683011319, 0.11477830928611599, -0.289889233449786, 0.12112743091951061, -0.15260180836117457, 0.31179526724276574, 0.3033354263228687, 0.2966197465260272, -0.3716844324885966, -0.0036034544675368485, -0.14877193304045644, -0.08177691839776136, -0.20808665527293493, -0.26896571364571853, 0.048101197702436815, 0.158882296384542, -0.04455099830203513, -0.07781823491788653], [0.30637382527459867, -0.013427977825948734, -0.17510344967203323, 0.0302258970799833, 0.20641710195973384, -0.2143187361450553, -0.36904421246272456, -0.18892601233326248, 0.22367995060737467, -0.05165591634238814, 0.2447288701378817, 0.24732216069293012, 0.11293985218410141, -0.03506532364930909, -0.3218805277767318, -0.08107096581474571, 0.14011781961313718, -0.12174801445753125, -0.19230721412726104, 0.003029629365946307, -0.27833403008880675, -0.3727175767858959, -0.3642170009766178, 0.16328188451528747, -0.32201732989869575, 0.14564942095606392, 0.31897815506766525, -0.2956812843695528, 0.3570837022701798, 0.12303239653114939, 0.2303777717265275, -0.07622491918858898, 0.24419817271785227, 0.050116099814017934, 0.1515554262751191, -0.16438284034293535, -0.19554857562927208, 0.35709575084297673, 0.12872191790191556, 0.05900427760072258, -0.19539296144108992, -0.20711342063938623, -0.34502392668207243, -0.10160329551499847, 0.14714903394189383, -0.13612095780960118, 0.11767702141032199, 0.3451034501981568, -0.14347250564483094, 0.3443791661602663], [-0.28425425536594195, -0.06603874050085551, 0.04999442949103361, 0.18840923689403455, -0.2811513857937258, 0.16497219553257692, 0.34995627215288194, -0.24187658657696123, -0.2424534110156886, -0.26223294209403686, -0.014776285373129805, 0.04780814070392919, -0.3070847079094353, -0.3017736833598874, 0.002676200232845205, -0.07801007598886933, -0.06275578027570367, 0.30982732439851646, 0.33850952626504904, 0.07312936855206786, 0.19073876210303775, -0.36891887683614066, -0.3577185104337315, 0.0027509909122380716, -0.3216591696223633, 0.2692428854402197, -0.1904709504653563, 0.12752180909185817, -0.34504981379111116, -0.36955970938995863, -0.3152679322221048, -0.29980262302330635, -0.049652264329985374, -0.36689406405478653, -0.1698342646699421, 0.1512959597861886, -0.004487377045729157, 0.2932791086119042, 0.23972723024102227, 0.34461847432875203, -0.06212235206942318, 0.3446005709373343, -0.2748218537056633, 0.11082053224229194, -0.08898865559822267, 0.17641696005594398, 0.08349572917314807, -0.06976256703060596, 0.1532864566766149, 0.35623889867087877], [0.0, 0.0, 0.0, 0.0, 0.0, 0.0, 0.0, 0.0, 0.0, 0.0, 0.0, 0.0, 0.0, 0.0, 0.0, 0.0, 0.0, 0.0, 0.0, 0.0, 0.0, 0.0, 0.0, 0.0, 0.0, 0.0, 0.0, 0.0, 0.0, 0.0, 0.0, 0.0, 0.0, 0.0, 0.0, 0.0, 0.0, 0.0, 0.0, 0.0, 0.0, 0.0, 0.0, 0.0, 0.0, 0.0, 0.0, 0.0, 0.0, 0.0]], "3": [[0.02359967342260296], [-0.021872248141045953], [-0.00874237399298555], [-0.0024727391476154076], [-0.013958598212795648], [0.013713895974360922], [0.012147887519694249], [-0.02237711369817356], [0.019288167782178275], [0.004044917420388976], [-0.027250188672016565], [-0.014871418648305722], [0.02399564227236598], [-0.0026164747069661216], [-0.024774148594126896], [-0.004917109407629006], [-6.657182288851218e-05], [-0.024480632887635172], [0.020510099354361315], [-0.011438044618917911], [0.027717972202164216], [-0.002185546399709918], [-0.0242446164114185], [-0.02025862958609985], [-0.008763826374986735], [-0.02964780810274302], [-0.011566427762364814], [0.007830659732676742], [-0.012788129853882325], [0.01933369712908834], [-0.02322726853722252], [0.015640221557482993], [0.018058143649499522], [0.026433989708678163], [-0.02765246934199502], [-0.01767365198875418], [0.02843231652056772], [-0.008175867289181796], [0.0058203426517319246], [-0.00532501453038834], [0.004444073196161663], [0.01613201430662322], [-0.0025585633394317533], [-0.007114302612771517], [0.004258996114209386], [0.007359868132656301], [0.003171457492773401], [0.029649154370273552], [-0.026213990948010173], [0.028357104493958736], [0.0]]}}, "fingerprints_range": {"Cu": [[0.7355979085179102, 15.55743075082518], [0.17208454571200024, 15.824610224206179], [0.2647337529778042, 9.728035574767311], [0.048289987224936715, 9.183520039100534], [0.08998943476157976, 6.543651351035633], [0.013116604377678287, 5.901293632153394], [0.011086319621036456, 3.4322011143730915], [0.0009677208042695254, 3.058089253340858], [2.8105378597217076e-05, 0.7186722153281908], [3.886297579508524e-07, 0.7702142399843445], [1.0530964208036616e-09, 0.06459500411004929], [8.495312182045297e-13, 0.09579851951537856], [1.4696933730671603e-18, 0.0005969806159118927], [4.059438105570023e-24, 0.0014999082499671163], [0.50034203926832, 586.0279136978755], [2.8969921783012786, 1339.0774553779588], [0.0, 680.2199829665379], [0.623397651130686, 430.46949002501225], [2.2581612173512284, 933.9576344679633], [0.11622805422127631, 505.84680013293473], [0.18504763958633103, 428.8432803118022], [1.7871978465575518, 999.1121607682313], [0.0, 497.0153279237612], [0.21809387928730953, 273.284856638939], [1.3209770091224067, 593.9923398582351], [0.06881080565862441, 322.6421450901536], [0.020560848842925673, 287.61510794586883], [0.799631268139842, 694.3948342368042], [0.0, 333.734781480117], [0.03697254301515187, 160.4359473839458], [0.665959989982916, 348.9904146530375], [0.004300675351054025, 189.85900104165898]], "Pd": [[0.17208454571200046, 15.82461022420618], [0.7355978047404241, 15.557430750825183], [0.04828998722493681, 9.183520039100532], [0.2647337529778042, 9.72803557476731], [0.01311660437767832, 5.901293632153396], [0.08998943476157976, 6.543651351035635], [0.000967720804269529, 3.058089253340857], [0.011086319621036456, 3.4322011143730906], [3.8862975795085565e-07, 0.770214239984344], [2.8105378597217076e-05, 0.7186722153281916], [8.495312182045429e-13, 0.09579851951537853], [1.0530949854903416e-09, 0.06459500411004933], [4.059438105570144e-24, 0.0014999082499671157], [1.469689571940093e-18, 0.0005969806159118931], [0.0, 680.2199829665362], [2.8969921783012804, 1339.0774553779634], [0.50034203926832, 586.0279136978755], [0.11622805422127645, 505.8468001329346], [2.2581612173512298, 933.9576344679631], [0.6233975439578614, 430.46949002501225], [0.0, 497.01532792376423], [1.7871978465575515, 999.1121607682309], [0.18504763958633114, 428.8432803118022], [0.06881080565862441, 322.6421450901558], [1.3209770091224076, 593.9923398582329], [0.21809382696856305, 273.284856638939], [0.0, 333.73478148011566], [0.799631268139842, 694.3948342368044], [0.020560848842925677, 287.61510794586883], [0.004300675351054025, 189.85900104165927], [0.6659599899829165, 348.9904146530362], [0.03697252924305966, 160.4359473839458]]}, "fingerprints_tag": 1, "scalings": {"Pd": {"slope": 2.7555544681249997, "intercept": -2.459831533125}, "Cu": {"slope": 2.7555544681249997, "intercept": -2.459831533125}}}