{"cutoff": 6.5, "Gs": {"Pd": [{"eta": 0.05, "type": "G2", "element": "Cu"}, {"eta": 0.05, "type": "G2", "element": "Pd"}, {"eta": 2.0, "type": "G2", "element": "Cu"}, {"eta": 2.0, "type": "G2", "element": "Pd"}, {"eta": 4.0, "type": "G2", "element": "Cu"}, {"eta": 4.0, "type": "G2", "element": "Pd"}, {"eta": 8.0, "type": "G2", "element": "Cu"}, {"eta": 8.0, "type": "G2", "element": "Pd"}, {"eta": 20.0, "type": "G2", "element": "Cu"}, {"eta": 20.0, "type": "G2", "element": "Pd"}, {"eta": 40.0, "type": "G2", "element": "Cu"}, {"eta": 40.0, "type": "G2", "element": "Pd"}, {"eta": 80.0, "type": "G2", "element": "Cu"}, {"eta": 80.0, "type": "G2", "element": "Pd"}, {"zeta": 1.0, "elements": ["Cu", "Cu"], "type": "G4", "gamma": 1.0, "eta": 0.005}, {"zeta": 1.0, "elements": ["Cu", "Pd"], "type": "G4", "gamma": 1.0, "eta": 0.005}, {"zeta": 1.0, "elements": ["Pd", "Pd"], "type": "G4", "gamma": 1.0, "eta": 0.005}, {"zeta": 1.0, "elements": ["Cu", "Cu"], "type": "G4", "gamma": -1.0, "eta": 0.005}, {"zeta": 1.0, "elements": ["Cu", "Pd"], "type": "G4", "gamma": -1.0, "eta": 0.005}, {"zeta": 1.0, "elements": ["Pd", "Pd"], "type": "G4", "gamma": -1.0, "eta": 0.005}, {"zeta": 2.0, "elements": ["Cu", "Cu"], "type": "G4", "gamma": 1.0, "eta": 0.005}, {"zeta": 2.0, "elements": ["Cu", "Pd"], "type": "G4", "gamma": 1.0, "eta": 0.005}, {"zeta": 2.0, "elements": ["Pd", "Pd"], "type": "G4", "gamma": 1.0, "eta": 0.005}, {"zeta": 2.0, "elements": ["Cu", "Cu"], "type": "G4", "gamma": -1.0, "eta": 0.005}, {"zeta": 2.0, "elements": ["Cu", "Pd"], "type": "G4", "gamma": -1.0, "eta": 0.005}, {"zeta": 2.0, "elements": ["Pd", "Pd"], "type": "G4", "gamma": -1.0, "eta": 0.005}, {"zeta": 4.0, "elements": ["Cu", "Cu"], "type": "G4", "gamma": 1.0, "eta": 0.005}, {"zeta": 4.0, "elements": ["Cu", "Pd"], "type": "G4", "gamma": 1.0, "eta": 0.005}, {"zeta": 4.0, "elements": ["Pd", "Pd"], "type": "G4", "gamma": 1.0, "eta": 0.005}, {"zeta": 4.0, "elements": ["Cu", "Cu"], "type": "G4", "gamma": -1.0, "eta": 0.005}, {"zeta": 4.0, "elements": ["Cu", "Pd"], "type": "G4", "gamma": -1.0, "eta": 0.005}, {"zeta": 4.0, "elements": ["Pd", "Pd"], "type": "G4", "gamma": -1.0, "eta": 0.005}], "Cu": [{"eta": 0.05, "type": "G2", "element": "Cu"}, {"eta": 0.05, "type": "G2", "element": "Pd"}, {"eta": 2.0, "type": "G2", "element": "Cu"}, {"eta": 2.0, "type": "G2", "element": "Pd"}, {"eta": 4.0, "type": "G2", "element": "Cu"}, {"eta": 4.0, "type": "G2", "element": "Pd"}, {"eta": 8.0, "type": "G2", "element": "Cu"}, {"eta": 8.0, "type": "G2", "element": "Pd"}, {"eta": 20.0, "type": "G2", "element": "Cu"}, {"eta": 20.0, "type": "G2", "element": "Pd"}, {"eta": 40.0, "type": "G2", "element": "Cu"}, {"eta": 40.0, "type": "G2", "element": "Pd"}, {"eta": 80.0, "type": "G2", "element": "Cu"}, {"eta": 80.0, "type": "G2", "element": "Pd"}, {"zeta": 1.0, "elements": ["Cu", "Cu"], "type": "G4", "gamma": 1.0, "eta": 0.005}, {"zeta": 1.0, "elements": ["Cu", "Pd"], "type": "G4", "gamma": 1.0, "eta": 0.005}, {"zeta": 1.0, "elements": ["Pd", "Pd"], "type": "G4", "gamma": 1.0, "eta": 0.005}, {"zeta": 1.0, "elements": ["Cu", "Cu"], "type": "G4", "gamma": -1.0, "eta": 0.005}, {"zeta": 1.0, "elements": ["Cu", "Pd"], "type": "G4", "gamma": -1.0, "eta": 0.005}, {"zeta": 1.0, "elements": ["Pd", "Pd"], "type": "G4", "gamma": -1.0, "eta": 0.005}, {"zeta": 2.0, "elements": ["Cu", "Cu"], "type": "G4", "gamma": 1.0, "eta": 0.005}, {"zeta": 2.0, "elements": ["Cu", "Pd"], "type": "G4", "gamma": 1.0, "eta": 0.005}, {"zeta": 2.0, "elements": ["Pd", "Pd"], "type": "G4", "gamma": 1.0, "eta": 0.005}, {"zeta": 2.0, "elements": ["Cu", "Cu"], "type": "G4", "gamma": -1.0, "eta": 0.005}, {"zeta": 2.0, "elements": ["Cu", "Pd"], "type": "G4", "gamma": -1.0, "eta": 0.005}, {"zeta": 2.0, "elements": ["Pd", "Pd"], "type": "G4", "gamma": -1.0, "eta": 0.005}, {"zeta": 4.0, "elements": ["Cu", "Cu"], "type": "G4", "gamma": 1.0, "eta": 0.005}, {"zeta": 4.0, "elements": ["Cu", "Pd"], "type": "G4", "gamma": 1.0, "eta": 0.005}, {"zeta": 4.0, "elements": ["Pd", "Pd"], "type": "G4", "gamma": 1.0, "eta": 0.005}, {"zeta": 4.0, "elements": ["Cu", "Cu"], "type": "G4", "gamma": -1.0, "eta": 0.005}, {"zeta": 4.0, "elements": ["Cu", "Pd"], "type": "G4", "gamma": -1.0, "eta": 0.005}, {"zeta": 4.0, "elements": ["Pd", "Pd"], "type": "G4", "gamma": -1.0, "eta": 0.005}]}, "activation": "tanh", "hiddenlayers": {"Pd": [4, 50], "Cu": [4, 50]}, "weights": {"Cu": {"1": [[-9.617723762198136, 0.7515796863551193, 29.963306968134795, -2.921535497596968], [-4.858797823759082, -7.506824804443773, 40.649573556566274, -19.30231132136418], [33.79989330956714, -3.523379716398593, -27.266328749381778, -5.33799991774213], [11.694259148700795, 23.116774243348274, -9.558503189595426, -2.5065799706380165], [-30.39922339994861, 8.51498411889357, -6.286126518844806, 1.6431715819105506], [-10.083305048200513, -20.323586638796527, -18.8690174186853, 2.598428439318925], [18.333761325693636, -7.7490814288050265, 11.660804317637252, 19.374721492525516], [11.652204896393256, 5.93997646581759, 25.620547941291175, -2.83429222441881], [-10.43147534253924, 2.385759902432511, -5.443526074145727, 4.023554472217934], [-12.052463260687292, -1.8178142655731226, -21.653833356701895, 21.173658482958732], [2.0296631092287916, -0.8762112885798629, 1.9871372796239792, 2.539949557453349], [3.6640865396121844, 2.2570278985820007, 17.91643812919925, 7.0176354105542025], [-0.4391680787227665, 0.9615841976424939, 2.2959805556782023, 9.348602789171286], [-0.8405583577284964, 0.5600644453843899, -5.114547097845989, -7.003873331271104], [0.1014569827772393, 28.130768773522394, 45.339928611181534, 15.869074114226445], [-3.640437039786612, 33.496022340222204, 47.93222289965526, -2.4652892484638547], [26.53895449043399, -4.313441402162632, -10.300069686106445, 3.081376846990355], [-1.8553840750962363, 42.91197800874706, 29.009401145487484, -11.506612789816467], [-10.694759316341926, 36.83893089058583, -4.236873682935332, -14.0199467536391], [44.708284357194415, -29.36725292798267, -11.104141121749171, 4.044223997066185], [13.127360144375531, -46.32779369142655, 6.119849686714422, 18.74305291712924], [24.791907702404984, -33.53730832303749, 58.02284238706649, 5.455055992432177], [-51.86842078766049, 37.93333040878518, -15.190109135697947, 0.09926238663916055], [17.335524812332576, -65.63993113474666, -42.012134167485186, -22.89990038585673], [32.95544029902398, -73.91440874452614, -17.03782446404479, -7.404705867526872], [-65.65640928881187, 21.598590843527493, -19.193385155017413, -0.10931139926828903], [-12.206277581078007, 17.48804901125536, -27.697630562594647, -0.786806308341365], [-19.140374529669003, 2.664041549489101, -20.112632685187716, 25.17979728553743], [19.43653588473215, -24.844730090335034, 53.76543388737882, -2.5226944788318817], [-18.20951568076838, 24.521660135942493, -22.906306580337343, -8.588350614049194], [-17.783924811193994, 32.95850030313622, -43.41545191091454, -14.414644134653665], [25.119632701158277, 0.3862066933937313, -18.654637424373604, 4.229902839018704], [-6.309325221513159, 2.762582021163527, -15.209608682296038, 18.819173329974948]], "2": [[2.1708805361578207, -18.341962774984065, -23.085887237604727, -1.7412810797190568, 1.7946884731182557, -5.4172181460747355, 0.3584402900414778, -8.368792130476324, 32.75629315148634, -6.221308840191549, 5.775593917496739, -1.1581573214610408, 4.434836219178529, -11.744757626351593, -3.5350481739286193, -19.978702498977988, -3.820993647855494, -0.5214778671208956, -4.61364677666926, -8.505679675193518, 1.8624860030179344, -0.030437364368658258, 2.8967229987787895, 9.24253808542243, 33.07673257649932, 1.883804427568642, 4.855873706966288, 5.370276468196526, 10.347594325068988, 2.968891016153632, 1.1087115107975936, 23.166864165969915, 3.860824795827424, -12.022772088275449, 6.872516354621501, -1.0052289169365332, -4.321949288621416, 21.469234796907923, 15.171621022780288, 21.759759678317387, 2.9117852910257502, 14.329251056945184, -4.227865694644577, 3.716193951368661, -2.2252390882840696, -18.172497952454936, -8.117246806477363, 17.441671507168703, 7.969268758954744, 5.312472423717883], [-4.158633513017488, 2.5295512320412334, 11.900436874245667, 43.54535162671545, -0.3138200941688195, -3.9214796777415506, 12.495127442710425, -9.450082575127286, 15.316916352410471, 6.961368197060042, 4.242126269145655, -4.796290740822728, 6.424136887401171, 18.724204774971852, 0.654620354278867, -1.075193497068138, -1.0819872431039839, -6.064771213046595, 4.209046155266036, -0.3051620478035816, -4.5778222322049915, -15.501568961562144, -0.827944015776599, -13.993648391152965, 2.186340801433961, -1.689252877727018, 3.754974360358679, -3.519064778030721, 1.6618487513880968, -7.40623932756316, 4.856005343071862, 5.5143721394871426, -1.9990437647603154, 0.484176051071317, 37.351274331013975, 0.2278974571219045, -12.9473928699411, 8.867638522016934, 9.125774972903464, 9.522829655970455, 5.035545299165959, 3.1361573169354404, 8.947476339792493, -15.990361970210502, 5.786008750980278, -4.023109509270286, 10.635328315040903, 5.648259904628041, 1.4113503868547435, 5.565832081876817], [-0.413679958466428, -0.26177450783789696, -1.4556613672462262, 10.884836399844882, 0.6533125336748241, 2.927273875762109, -5.26177062462963, -9.875282487530187, 1.540531787776996, -0.4835394294000176, 11.51778408746787, -1.6438089786499834, 14.956580532619784, 0.5965008116871734, 3.589265598193363, 0.6781818424453366, -1.7405574810485074, 9.454695761283666, 2.83996097913343, 1.1186841186736372, 0.28196964068978514, 10.752327172426117, -2.353958271813548, 5.681473703294367, 3.768745708144444, -1.9085682423845771, -2.2973087028631074, -2.7412633680072975, -1.8194678767523749, 1.4162337757109271, -0.3461702259070891, 2.6796465265679994, -1.2146365849150553, 1.9649435661589965, -0.39177613809629225, -16.202200244874327, 0.25821027192193274, -7.620666828239487, -5.635314852464913, -2.7250260528748633, 5.58042105831986, -0.10901488962628181, -2.105047597745131, 16.507214088920517, -10.218664017458398, 2.7824581704850955, 0.7920917854291021, -5.190090977851099, 1.8342141424789125, 4.743639150196402], [8.637460148451856, 1.951046389151144, 11.09766308522283, -19.283078474146347, -3.7282869090980433, 1.933974088948068, 0.7352324296066044, 3.6220487088261324, -12.943519728457625, -0.7729628959256438, -4.075702648270629, 2.029882032144148, -20.58071847991489, 6.517855459217844, 3.4695480036851425, -2.380763103466185, -1.8361240831163987, 1.8226353110774103, -3.3508684991545614, 0.424523343717298, 1.0121083155487474, -13.891914038769398, -6.744560365548613, -3.8504449970417083, -23.788033761703442, 3.4468039031751756, -1.6762776696739599, 3.2567077992843485, -1.7682691086254494, 10.674208342041913, -4.446802354740983, -17.653735235404636, 0.26531057066223085, -0.29865418205711136, 7.9452235062981, 16.9505372414248, -6.269167345383441, -9.923342796458627, 4.884430577210732, 12.044058560226278, -11.002566657176063, -1.1800124702254076, -0.36551880895445876, -4.902158801340773, -9.039894198402655, 2.2815917103307717, -4.847535810920241, -1.9082615201560835, -10.42471434774614, -12.002098768782073], [7.5456255570096715, -14.62056804875023, -17.291083096372553, -2.397644253713472, 1.2508863328536581, 0.9182111595883401, 9.915840748139143, -12.923224539641698, 21.797717111182614, -8.946302940934975, 10.304391848395689, 2.5763623892370187, -3.9900694178864358, -24.33808918226017, 0.009113034838383082, -17.193931102792774, -6.175787396711094, -3.343349547092595, -5.151799504860607, -8.726111704171824, 3.2623255543654297, 18.59164710254006, -1.9615276627793523, 8.361471564650445, 13.464552107613535, 4.176049401062318, -0.15105555342411325, 1.1402714044824867, 4.316453514528765, -3.7010912072874325, -2.586971837510578, 5.00472244641111, 7.528593613427626, -9.749425385495579, -25.487587816711834, -4.180675917702786, 4.239212073284327, 1.4328347825838283, 15.305002108639405, 14.435625914411721, 1.8971283429052685, 6.949797031142381, -9.338658377883522, 0.006673617017743906, -3.3774580939202745, -10.931465898092867, -1.2700156867473533, 14.021514319345817, 6.708948523073648, 4.174955423427455]], "3": [[0.8566240110052722], [1.6920396629444172], [-0.3579403895838217], [16.58252919047589], [-5.091035005710428], [-1.7867459963900503], [-11.417628976011011], [-1.2558245860860564], [-1.204925903623112], [-2.2045945846623796], [1.0512241682442536], [0.9476013022008746], [-0.6020213752564579], [1.7076859918067475], [1.0689810644160669], [1.1598509038431735], [-1.389542554689916], [-5.8825621624237785], [6.089195117789803], [21.039664513432708], [6.130427978376984], [-2.630304104306629], [-0.4485901690521715], [11.277584580282884], [2.177735659304927], [2.503258036779893], [-1.3282323618771052], [-1.0022013489564683], [2.4590803356247672], [-3.8388696163327753], [6.12924131022796], [-0.8331529681014056], [8.613621597275442], [2.3391822739352217], [10.946292637325056], [-3.2519619327371254], [2.373455260257209], [-0.25200404825168], [2.937082360718293], [-15.048822487899765], [2.2652439181872452], [2.6622635443497003], [1.4661255937379352], [0.17995516678484957], [-8.974335644809122], [-1.6998737565039932], [-0.9646426273911212], [2.3350226786326878], [-2.096449842420339], [-1.228683250008512], [8.704317609534233]]}, "Pd": {"1": [[-0.5586441011366653, 5.19100583087392, 17.25965152325108, -13.253299422231644], [2.4585210482479276, 0.23061942789880893, 3.737454726692142, -14.869204789156196], [-0.7242126212532106, -17.044978788069567, -49.680295654515945, -2.0819051278893195], [-9.097092484180294, -1.9489404403362054, -2.5009492977291425, -14.187054905455598], [-1.8122632984558142, 21.063058677570343, 60.60684497362306, 14.465035837818778], [8.553533971024857, 3.6760016874263584, 4.430192177622754, 32.73578598971689], [7.724972346203706, -12.0380202708072, -29.452040127867654, 1.9245357679165302], [4.48683384447667, -4.525522997287192, -3.2118153861055996, -12.80954384697544], [-7.07430328473268, 2.8385270042107424, 2.20897722245837, -2.804610721859922], [-5.899806497832155, 0.39130617727189854, -6.0564469998275205, 8.729954755137017], [2.1447483572373613, 1.4791661581239344, 3.3331519566269936, 1.9780081272738868], [0.3325767015881784, 3.0175900712689527, 7.406660608955533, -5.889267671622117], [-0.06310218248068766, -0.7028440915394465, 1.5125265011077758, -1.9804444435290058], [0.8134521204924698, -0.853653775258569, 0.5727695744643115, 1.8857391896693996], [25.643393360223268, -8.607259762770354, 2.5955406339218383, 10.257444105626664], [2.9631323818083093, -6.884859458175911, -9.601005486737318, 29.68294440394536], [-21.131872192005307, -3.5878880593317164, -12.372697622626255, 30.275765706522318], [45.58130148360932, -2.1506616657462585, -1.8050687581744502, 28.837843880093057], [-12.4741593405274, 15.58579305285618, -41.1814572256826, 31.715333618145173], [-46.15155820496342, 4.6824164851175825, -20.538071806662828, 25.054602121562443], [-58.80456740059969, 2.2080969994168016, -11.018964586494324, -21.866511709375008], [8.024822889878163, -19.305608170883616, 26.14030113074968, 22.605195091348286], [48.731031234208025, -7.4220215456253325, 5.928367131320423, 1.6263957024957407], [-73.11225251114712, 18.116861411603267, -25.308615147058976, -10.136281486427729], [-12.698963157742664, 7.660355918235957, 0.9123073602083945, 20.945597085578726], [49.10029142459043, 3.439438074460969, 3.3446477622873436, -22.975786637730206], [25.262111819908643, 4.398584533445832, 8.897208131284406, 5.681017331710534], [-10.41110940210626, 20.256010853464, -7.50068106302817, -50.623385086634315], [-22.0808415060543, 7.345573594551492, 4.50695249421831, -29.310064617245175], [35.21464316557117, -14.784572335432067, 23.264748741667965, -14.749638842543625], [25.62552836279887, -16.81710621158787, 33.158042783451414, -39.89604879664706], [-8.777657704305092, -5.152493483389966, 16.038841865110314, -4.089577354876644], [-2.120853887667046, 1.834872573145582, 5.1295374981467985, 0.9689186506013922]], "2": [[-2.207589255333595, 6.291319828532386, -5.561523132847957, 1.3970492485170825, -2.94953825207079, -13.548564764681279, 9.668481313229405, 7.122474402215183, -6.732398039972572, -21.48834403725476, -7.732741378296992, 9.473957296718227, -3.0154422124287805, 1.002414740654754, 8.280101749785908, -9.430863247119866, -6.351035970102214, -29.24227574916361, 1.5909613402491387, -30.57605282204684, 10.769675858779143, -0.7741724434457437, -0.6178087454739999, 4.278924829622528, 0.8172162603149181, -7.962876796668806, 2.7801649085039215, 18.63004969102736, -13.279128958226183, -2.7830625301626477, -7.713746802087904, -6.740533414674169, 10.258115427630997, 12.294003137856816, 4.055022950833789, -6.62226982805839, -6.793109369010852, -14.080639706691702, -8.402370969018348, -6.504807082533337, 12.290638971596701, 1.5212437994847618, -27.93258476557039, -8.962663032344073, 5.04299103870028, 1.2281565802624441, 2.518347162043386, 4.063769621209739, -9.747430488199793, -0.39054199805339324], [-0.9519702088276278, -3.026163399480878, -3.7440561288722884, 2.8763987043926487, -7.7525623498902, 11.607124700743258, -1.5333071952412072, 12.180791305969374, -2.9858653216385074, -13.677871418176856, -1.7529962261536616, -10.461307339203948, -11.28928440201753, 2.8745142634060423, 5.857987423245953, -4.7309846149029955, -9.131317191376551, -4.3324693255940865, 0.22068223672162937, -24.182703736261843, 2.0914682536810867, 0.14000010157856552, 12.572638876879406, 6.866515775165424, -1.9126726645793009, -5.021585484248057, -1.4215234569095028, 9.84556329114522, -3.044729428629143, 2.2817783265504947, 2.439692894421878, -11.37765470634074, 1.6443371705717718, 11.557604687300845, 3.870975440272557, -15.83710922082152, 0.5548311119039951, -13.892159838100897, 4.446639973623962, -2.2792339940123485, 0.26147771538865, -5.3794124525444, -5.18845844043665, 6.204643695137041, 4.108846190212495, -8.32023081332025, -4.79401583415033, -2.1888553693239805, -2.2237104522473508, 3.489409477112917], [5.161770779316092, 9.062385308973049, -1.8804486664987357, 5.948933216202402, 3.9857239914811817, -8.55653159452372, -0.07411326579342162, -12.607126691141275, -4.629730627492899, -6.9224928891450785, 2.4379485769825417, 1.5514692132212065, -9.156270434975353, 1.5216691584705906, 5.282604667812949, -7.254054445131573, -0.6982335252259334, -5.941890214662256, 17.097948584752995, -18.03030645554853, 11.545118320053483, 5.8441721462365654, 11.574224497302485, 12.432990029128305, 7.018414507981869, 2.9621593577673995, 2.2384589126290835, 4.4113525588337605, -13.488372581783796, 0.22697581132783637, -0.8822461899228249, -10.287648404016219, 8.491806946199157, -1.354480578223785, 3.626538743603357, 23.11387796200943, -4.678621327338707, -8.095222243122848, -2.8341127381998024, 4.484448664543182, -22.299910933054086, -3.536496079432096, -31.429870550595325, 6.586263552885705, -3.0649296408670543, -3.7887304775819377, -0.025261904846915224, -3.7725874895107254, -4.509114772274779, 1.9961930260800262], [0.5182103549981003, 3.131013663240033, -5.481252831222603, -8.751323396996222, 4.577734098940519, -7.346530819905869, 4.344723991311342, 19.593707033518807, -1.6432894391905986, -10.876586815527626, 5.464739384580277, 6.347808192557419, -4.714784219900312, 4.246376717930074, 0.8094722002238283, -4.221422395779462, 3.03021066238955, 7.504826181787579, 6.262884127502064, 4.932809491949812, -0.9812614516428796, -0.18130924868026638, -12.435938564751684, -1.086493823324573, 0.7149804021351761, -3.0519417563670252, -1.7727041219098727, -7.65581831967468, 1.838949377463772, 1.3447533266206388, -1.2094044946692413, 2.858996331293648, 8.160483416853147, -5.515169097327163, -4.07020340408395, 6.1912886152449955, -0.3641117221248505, 9.589748969157466, 13.632196371730995, -37.41676451840871, 8.049234136744703, 0.05197043054373343, 5.2575516142688965, -12.451045070913443, -1.073948765352552, -14.981440322166685, 9.511797194729954, 0.778594250501129, -6.063945447807888, -2.8772002311012788], [-3.7430393372801625, -8.924730262533787, 6.360303211599679, -6.575701540157817, -1.7952206279420695, -2.7345208139046773, 1.3885513100666826, -17.41991116168447, 1.3542277248909025, 11.655488351387866, -3.1917245207808937, 7.123418063960101, 13.642588931425545, 0.4004321892895301, -3.0385038552187025, 8.179127357692263, 7.5748461105324845, -14.251061404824508, -18.115329715729512, 9.17847188408576, -7.571843861094637, -5.326293279120108, -11.338410458654947, -17.477337571816623, -4.4012153436802866, -3.573460498071353, -1.316604340441298, 2.3697021412355848, 8.959086264058874, -1.92505730588706, -4.554865028130249, 18.294041019154072, -14.47029960229834, -3.2709059101744375, -2.0382046094782664, -20.586126929736835, 4.332423330112664, 4.11250945288818, -15.017588699940676, -46.6854977912167, 8.059312493127882, 3.0235133476526093, 24.15171992178227, -1.6598681489553249, 0.6891551537744393, -12.228810067988716, 1.5882227232001074, 6.024316772682361, 3.2478823706695015, -4.278896495912884]], "3": [[4.9213178220384535], [-12.629045411824581], [1.8796030406151583], [-9.965083660843977], [2.6277421066717106], [4.702099575858646], [0.9896316543415696], [7.438021936618533], [-3.625124515568579], [0.7129519797048854], [-1.122179281560226], [7.334953339285588], [7.46075199400317], [2.86815165625226], [-2.5624892544680695], [-4.790299635589586], [6.909160557366012], [4.018014539376534], [-6.193209456890856], [-0.0021405826275328528], [-4.71521499679469], [-0.736364979037655], [-7.2861781483996], [-20.036329354247226], [-1.7438018763441743], [-5.331888716128554], [2.762982999266603], [-1.2359113111420947], [-2.451904522949629], [1.1030753778192586], [-0.5608418470292903], [-8.787297889380268], [4.600851843286105], [0.7505735363916787], [5.701696653850969], [-9.418167559677897], [-5.23189864656755], [2.9077780160971547], [-3.8749958294018665], [1.3358342737624687], [-5.506192587289284], [15.961111211861697], [-0.7816126232752931], [-5.664439075255063], [0.10078790713983841], [-20.56399598129285], [3.224480534903554], [-0.3970608261762468], [1.4026633513403406], [7.244822363472485], [-18.380680508011952]]}}, "fingerprints_range": {"Cu": [[0.7355979085179102, 15.55743075082518], [0.17208454571200024, 15.824610224206179], [0.2647337529778042, 9.728035574767311], [0.048289987224936715, 9.183520039100534], [0.08998943476157976, 6.543651351035633], [0.013116604377678287, 5.901293632153394], [0.011086319621036456, 3.4322011143730915], [0.0009677208042695254, 3.058089253340858], [2.8105378597217076e-05, 0.7186722153281908], [3.886297579508524e-07, 0.7702142399843445], [1.0530964208036616e-09, 0.06459500411004929], [8.495312182045297e-13, 0.09579851951537856], [1.4696933730671603e-18, 0.0005969806159118927], [4.059438105570023e-24, 0.0014999082499671163], [0.50034203926832, 586.0279136978755], [2.8969921783012786, 1339.0774553779588], [0.0, 680.2199829665379], [0.623397651130686, 430.46949002501225], [2.2581612173512284, 933.9576344679633], [0.11622805422127631, 505.84680013293473], [0.18504763958633103, 428.8432803118022], [1.7871978465575518, 999.1121607682313], [0.0, 497.0153279237612], [0.21809387928730953, 273.284856638939], [1.3209770091224067, 593.9923398582351], [0.06881080565862441, 322.6421450901536], [0.020560848842925673, 287.61510794586883], [0.799631268139842, 694.3948342368042], [0.0, 333.734781480117], [0.03697254301515187, 160.4359473839458], [0.665959989982916, 348.9904146530375], [0.004300675351054025, 189.85900104165898]], "Pd": [[0.17208454571200046, 15.82461022420618], [0.7355978047404241, 15.557430750825183], [0.04828998722493681, 9.183520039100532], [0.2647337529778042, 9.72803557476731], [0.01311660437767832, 5.901293632153396], [0.08998943476157976, 6.543651351035635], [0.000967720804269529, 3.058089253340857], [0.011086319621036456, 3.4322011143730906], [3.8862975795085565e-07, 0.770214239984344], [2.8105378597217076e-05, 0.7186722153281916], [8.495312182045429e-13, 0.09579851951537853], [1.0530949854903416e-09, 0.06459500411004933], [4.059438105570144e-24, 0.0014999082499671157], [1.469689571940093e-18, 0.0005969806159118931], [0.0, 680.2199829665362], [2.8969921783012804, 1339.0774553779634], [0.50034203926832, 586.0279136978755], [0.11622805422127645, 505.8468001329346], [2.2581612173512298, 933.9576344679631], [0.6233975439578614, 430.46949002501225], [0.0, 497.01532792376423], [1.7871978465575515, 999.1121607682309], [0.18504763958633114, 428.8432803118022], [0.06881080565862441, 322.6421450901558], [1.3209770091224076, 593.9923398582329], [0.21809382696856305, 273.284856638939], [0.0, 333.73478148011566], [0.799631268139842, 694.3948342368044], [0.020560848842925677, 287.61510794586883], [0.004300675351054025, 189.85900104165927], [0.6659599899829165, 348.9904146530362], [0.03697252924305966, 160.4359473839458]]}, "fingerprints_tag": 1, "scalings": {"Cu": {"intercept": 1.1355623698220929, "slope": 3.5425297074038418}, "Pd": {"intercept": 1.1360715524358023, "slope": 10.241788538751122}}}