{"cutoff": 6.5, "Gs": {"Pd": [{"eta": 0.05, "type": "G2", "element": "Cu"}, {"eta": 0.05, "type": "G2", "element": "Pd"}, {"eta": 2.0, "type": "G2", "element": "Cu"}, {"eta": 2.0, "type": "G2", "element": "Pd"}, {"eta": 4.0, "type": "G2", "element": "Cu"}, {"eta": 4.0, "type": "G2", "element": "Pd"}, {"eta": 8.0, "type": "G2", "element": "Cu"}, {"eta": 8.0, "type": "G2", "element": "Pd"}, {"eta": 20.0, "type": "G2", "element": "Cu"}, {"eta": 20.0, "type": "G2", "element": "Pd"}, {"eta": 40.0, "type": "G2", "element": "Cu"}, {"eta": 40.0, "type": "G2", "element": "Pd"}, {"eta": 80.0, "type": "G2", "element": "Cu"}, {"eta": 80.0, "type": "G2", "element": "Pd"}, {"zeta": 1.0, "elements": ["Cu", "Cu"], "type": "G4", "gamma": 1.0, "eta": 0.005}, {"zeta": 1.0, "elements": ["Cu", "Pd"], "type": "G4", "gamma": 1.0, "eta": 0.005}, {"zeta": 1.0, "elements": ["Pd", "Pd"], "type": "G4", "gamma": 1.0, "eta": 0.005}, {"zeta": 1.0, "elements": ["Cu", "Cu"], "type": "G4", "gamma": -1.0, "eta": 0.005}, {"zeta": 1.0, "elements": ["Cu", "Pd"], "type": "G4", "gamma": -1.0, "eta": 0.005}, {"zeta": 1.0, "elements": ["Pd", "Pd"], "type": "G4", "gamma": -1.0, "eta": 0.005}, {"zeta": 2.0, "elements": ["Cu", "Cu"], "type": "G4", "gamma": 1.0, "eta": 0.005}, {"zeta": 2.0, "elements": ["Cu", "Pd"], "type": "G4", "gamma": 1.0, "eta": 0.005}, {"zeta": 2.0, "elements": ["Pd", "Pd"], "type": "G4", "gamma": 1.0, "eta": 0.005}, {"zeta": 2.0, "elements": ["Cu", "Cu"], "type": "G4", "gamma": -1.0, "eta": 0.005}, {"zeta": 2.0, "elements": ["Cu", "Pd"], "type": "G4", "gamma": -1.0, "eta": 0.005}, {"zeta": 2.0, "elements": ["Pd", "Pd"], "type": "G4", "gamma": -1.0, "eta": 0.005}, {"zeta": 4.0, "elements": ["Cu", "Cu"], "type": "G4", "gamma": 1.0, "eta": 0.005}, {"zeta": 4.0, "elements": ["Cu", "Pd"], "type": "G4", "gamma": 1.0, "eta": 0.005}, {"zeta": 4.0, "elements": ["Pd", "Pd"], "type": "G4", "gamma": 1.0, "eta": 0.005}, {"zeta": 4.0, "elements": ["Cu", "Cu"], "type": "G4", "gamma": -1.0, "eta": 0.005}, {"zeta": 4.0, "elements": ["Cu", "Pd"], "type": "G4", "gamma": -1.0, "eta": 0.005}, {"zeta": 4.0, "elements": ["Pd", "Pd"], "type": "G4", "gamma": -1.0, "eta": 0.005}], "Cu": [{"eta": 0.05, "type": "G2", "element": "Cu"}, {"eta": 0.05, "type": "G2", "element": "Pd"}, {"eta": 2.0, "type": "G2", "element": "Cu"}, {"eta": 2.0, "type": "G2", "element": "Pd"}, {"eta": 4.0, "type": "G2", "element": "Cu"}, {"eta": 4.0, "type": "G2", "element": "Pd"}, {"eta": 8.0, "type": "G2", "element": "Cu"}, {"eta": 8.0, "type": "G2", "element": "Pd"}, {"eta": 20.0, "type": "G2", "element": "Cu"}, {"eta": 20.0, "type": "G2", "element": "Pd"}, {"eta": 40.0, "type": "G2", "element": "Cu"}, {"eta": 40.0, "type": "G2", "element": "Pd"}, {"eta": 80.0, "type": "G2", "element": "Cu"}, {"eta": 80.0, "type": "G2", "element": "Pd"}, {"zeta": 1.0, "elements": ["Cu", "Cu"], "type": "G4", "gamma": 1.0, "eta": 0.005}, {"zeta": 1.0, "elements": ["Cu", "Pd"], "type": "G4", "gamma": 1.0, "eta": 0.005}, {"zeta": 1.0, "elements": ["Pd", "Pd"], "type": "G4", "gamma": 1.0, "eta": 0.005}, {"zeta": 1.0, "elements": ["Cu", "Cu"], "type": "G4", "gamma": -1.0, "eta": 0.005}, {"zeta": 1.0, "elements": ["Cu", "Pd"], "type": "G4", "gamma": -1.0, "eta": 0.005}, {"zeta": 1.0, "elements": ["Pd", "Pd"], "type": "G4", "gamma": -1.0, "eta": 0.005}, {"zeta": 2.0, "elements": ["Cu", "Cu"], "type": "G4", "gamma": 1.0, "eta": 0.005}, {"zeta": 2.0, "elements": ["Cu", "Pd"], "type": "G4", "gamma": 1.0, "eta": 0.005}, {"zeta": 2.0, "elements": ["Pd", "Pd"], "type": "G4", "gamma": 1.0, "eta": 0.005}, {"zeta": 2.0, "elements": ["Cu", "Cu"], "type": "G4", "gamma": -1.0, "eta": 0.005}, {"zeta": 2.0, "elements": ["Cu", "Pd"], "type": "G4", "gamma": -1.0, "eta": 0.005}, {"zeta": 2.0, "elements": ["Pd", "Pd"], "type": "G4", "gamma": -1.0, "eta": 0.005}, {"zeta": 4.0, "elements": ["Cu", "Cu"], "type": "G4", "gamma": 1.0, "eta": 0.005}, {"zeta": 4.0, "elements": ["Cu", "Pd"], "type": "G4", "gamma": 1.0, "eta": 0.005}, {"zeta": 4.0, "elements": ["Pd", "Pd"], "type": "G4", "gamma": 1.0, "eta": 0.005}, {"zeta": 4.0, "elements": ["Cu", "Cu"], "type": "G4", "gamma": -1.0, "eta": 0.005}, {"zeta": 4.0, "elements": ["Cu", "Pd"], "type": "G4", "gamma": -1.0, "eta": 0.005}, {"zeta": 4.0, "elements": ["Pd", "Pd"], "type": "G4", "gamma": -1.0, "eta": 0.005}]}, "activation": "tanh", "hiddenlayers": {"Pd": [2, 40], "Cu": [2, 40]}, "weights": {"Cu": {"1": [[21.562153065186546, 1.9507714231606539], [-5.24566532513978, -1.622819859266114], [-71.32109293343865, 3.6571373558649665], [15.163103851921415, 11.281476036820433], [80.32880762994796, -6.580329233252209], [-4.867786877124791, -14.143240531574587], [-31.581472196224134, 2.735916106804122], [0.32171965814983994, 6.073851302507746], [8.364558125572746, -0.21439549243274875], [-1.159562233769968, -0.9657729958586205], [-5.736292623609249, 0.057773113227658816], [0.963536616593927, -0.03651417557495666], [2.8420004634634752, 0.016264443748290246], [-0.06456352405680588, 0.0982623659510875], [-2.703506599140523, -13.76709442282077], [-24.91399675902792, -4.400410122766521], [1.8803832323785492, -5.74835825273124], [-14.551447156223356, -144.61002145994024], [-33.88912980681923, -81.7543944247666], [4.436288428400067, -84.30227218867557], [-6.372244747955957, 134.84335971263695], [23.842742044652983, 81.00798937916781], [-6.917965774938426, 87.16502749923416], [-27.216187327816808, 22.362913510797934], [42.91533855947941, 17.775317121024003], [-7.962082785911775, 17.641615397899432], [8.352094783620132, -86.45315318953627], [0.56150454256456, -56.17931979642754], [13.020825215312911, -59.447350394289906], [44.759839239370095, 86.2116973482229], [-13.711946656032337, 42.8010066189533], [-9.857090154610049, 44.28558120585862], [0.5758072566335307, -0.7879094519349954]], "2": [[2.7382170527057186, 10.868923660349587, 1.742610919262522, -3.044931613161868, 0.07286511104453547, -8.602490308750363, -2.2787594911789277, 0.08776136575452079, 6.626912970948228, -6.296212694071235, 7.740803604644983, -11.397039660363282, 8.41710040366385, 3.7972759280145794, -3.1614958013264776, 9.750839077804557, 3.6553132482383357, 0.024609993738117945, -0.2948212457582298, 7.013677027919386, 13.692482366147253, 6.527355731944645, 4.525375351866941, 8.034532064296954, 3.5682814990414706, 6.507097364103325, 2.156390385352895, 0.017493484985360293, -1.2851040710096329, -4.7088984201545605, 0.9056687783420693, -9.359199998509453, 0.06780896203037785, -7.5289190728061826, -2.5449301003299207, -2.247824472250536, 0.3217699520450862, -2.634965158100982, 0.9489191324816537, 5.499126583556803], [4.782562408768383, -2.5172601599024618, 1.3564340285615857, 5.460854352255569, -0.3630197431071918, -4.988530989124992, 7.2469085314680175, 6.729975039093102, -21.770600109144585, 11.511859755575385, -6.2477828542013825, -1.0574056843002175, -1.9551457000967656, -0.045307565167697954, 3.589578749502107, -4.419632775584162, -11.781471358986954, 13.08766108663773, 3.230301568652534, -0.898795327095094, -2.7919408262844643, -12.3942529969143, -1.8850302165060526, -10.952600970337345, -4.967753840520693, -11.890914873139634, -1.6480704051579413, -14.277363289376936, 1.8961362441176552, 2.1686493974920444, -4.73580062711506, 12.529462706316039, -2.357266785610537, 10.292665979569374, 8.402156384236854, 10.160238921965385, -1.5634056532994152, 23.22338135386529, -4.84718353115314, -2.7789075440673687], [5.677137381013661, -7.811526006743042, -0.01733000988562495, 1.9792672903799413, -1.6206835760237723, -11.533061145055791, 1.0610946088299662, -6.377850855520986, 3.547639829842561, -0.8539098606600538, -4.843626147811453, 5.635416015533167, -6.125526640834341, -3.1526794569815153, 1.1856392837589667, -8.717569466640963, -0.8047795437765535, -0.46142534591862666, -3.576643356170915, -13.259899280117034, -9.83825231528669, 0.7871874465266526, 1.079594503810937, -0.679389938332666, -1.2944446994122494, 0.9522720723957159, 3.698818456882861, 0.5552661989757943, -2.8325760204145976, -1.1696151033137896, 1.9652773698023687, 0.9752653803148258, 1.3000802629048842, 0.529088251351701, 1.1968692486983425, -5.5347670682215195, -0.9211173454709338, 1.6444531967765887, 3.426337603361007, -6.789254503889379]], "3": [[4.437223584480133], [2.1448472727643844], [0.4337593102762676], [-1.1876314963714123], [-1.3894410367533907], [4.681919037105038], [4.73543017361517], [-0.07958755113979214], [-0.01952668188955006], [-4.946891953601814], [-0.17739766055265213], [-0.041122309815371204], [-2.173513582043785], [1.3133930135027418], [3.1169636180869107], [-0.24423510439943705], [0.23131732470010602], [-0.6754300755678749], [1.0494397665833717], [0.7218752660228616], [-0.633757740697362], [-1.1599977469085643], [-1.750493250847567], [4.881501464481016], [2.408578881342569], [-3.4343007351213406], [3.280231100626791], [-0.5682834576473749], [5.414017838486198], [-1.5683446754407577], [-0.6999164221443938], [1.5962534763072926], [1.8946281451710683], [3.2932531710837867], [-3.19400668547186], [0.9864473454818659], [2.294406358814581], [-0.05642135714701411], [7.240157519463143], [-1.8110725458317598], [-4.77985655975493]]}, "Pd": {"1": [[1.6366948391528058, -0.5734105031045418], [-1.2520834813416946, -1.613123229926881], [-2.0044970400835687, 7.363296685004061], [7.004422200364931, 10.801973196680798], [3.5806604019460435, -6.60772181459023], [-6.336922836468314, -10.420124406885902], [-3.379212800162236, 1.0546628989218552], [1.1618094200761617, 2.846676369128616], [2.701299993823569, 1.3281535728294966], [1.1369536458883818, 0.4956185497858019], [-1.6727882505363336, -1.304382915961614], [-1.3296697167566431, -0.9798967598010201], [-0.48132205450108567, -0.2990562859535113], [-0.17932872216386445, -0.1253312030223023], [-19.647169624674873, -17.105334742422233], [-18.788954827053097, -16.751644841548362], [-23.241309193619937, -24.113033623766896], [-4.769545036901205, -29.6140871345054], [-21.349528311295657, -33.624360426040035], [-29.767319496204603, -43.841691924953636], [1.7648722167607367, 29.390768282355634], [21.926446414228845, 34.58676470230732], [33.38494052877387, 46.31398064905311], [38.063264170753975, 37.980402842050864], [45.790222971665095, 42.94632851163023], [58.30337589286836, 59.07442347383537], [11.787861915060846, -10.150473657930506], [-4.204033033577811, -14.716895465904713], [-10.505081531069045, -18.857508271017682], [-27.111945658608903, -10.526311977613291], [-23.30651540941498, -12.522699945442653], [-28.147410609806812, -18.746318948793892], [-0.3730171287658046, -1.9771254758155998]], "2": [[0.3045423266397054, 1.2799977979714778, 2.42163151320567, 10.119362032797993, 7.2753186388105515, -5.964183106419527, 8.590206127800132, 1.802252071679899, -5.61703227173252, 10.835994073821901, -10.046508515315141, -4.18113576133058, -3.93494468128086, 2.9279732577539606, -13.604851587479859, 2.6149344915959007, -3.001072146451859, 2.3757959283314354, -4.990325115639539, 7.6048309058455965, 4.827833545494783, 16.12665330786965, 1.522298650074351, -1.0104705685611086, -12.635055592209548, 2.72631101363147, 1.6382970211570718, 0.027806234038579392, 5.718104987394528, 7.674643506593122, 5.179384107701494, 9.78436898680927, -0.8154465611382042, -5.200787731417811, 6.262517963100817, -3.7123546809800034, 4.860761314906468, 1.4467619122843176, 3.8087852772392066, 4.880557166517454], [19.398717540181657, 3.0489834146198467, -22.442265498689807, -12.39436540240905, -11.558706246337117, 4.881676105452468, -11.078662946337323, 21.77414099614266, 9.04713314522059, 4.748761677888599, 28.231366695048067, 2.854606839784328, 42.307887178246936, -1.3163650843385168, -20.17701586190836, -1.0203499100357594, 30.95823039381661, -29.525530002289386, 13.383766654178178, -24.26152752911499, -7.691267116844653, 4.329275882697198, 31.786594719155293, 0.6929878254934863, 21.895866618696072, -6.493809700832374, -20.866913066304974, 6.824367454166145, 21.999999356301288, 1.0763284292979833, -2.6511715217091822, -15.710647473191003, 18.345902428882557, 21.347974299341995, -18.594687074574008, 12.617481790674436, 8.023549769756732, -17.06279874398781, 15.366980429499781, -5.507211783453204], [19.456661029708904, 0.9576221285409412, -24.577649151664062, -1.7011280095280907, -12.923157159585166, -1.1532034785563208, -1.2831609041998395, 21.005134731138657, 11.342244415781627, 1.9190142679447755, 22.85430000161977, 0.7461723146791283, 39.8775420034842, -1.613169974451576, -31.715665213761376, -4.63642768050328, 30.876481860164603, -29.808936253839796, 16.794126707540865, -19.970806230563937, -12.212106281890696, -11.9077727110895, 30.47270590219771, 0.11878647321347763, 24.98012321681314, -5.736000390009209, -20.411534984882664, 7.702422886298096, 26.430100907412392, -5.947114544740001, -1.925383130002473, -20.061618744578837, 22.35199605307679, 17.66616540484481, -15.325705545517739, 11.364704476740666, 11.530829222412141, -16.094204501350347, 20.69167000934933, -0.8527390314224401]], "3": [[0.9321857231445849], [-1.1581864151226104], [-5.387848325911475], [-3.365042618922133], [-0.36666201883079175], [11.643496699633587], [-3.8672715133428808], [0.803272447797377], [-2.8743297656716456], [-0.008159177947188975], [-0.8116935053709139], [0.3216577303429154], [0.1896232697379792], [-0.2102419039402873], [-3.8758767936864422], [1.4564087096349079], [12.733582322318632], [11.8445889750611], [1.177937266354093], [-2.2492184957182078], [-2.8354718897975038], [-11.49365973201467], [-0.4716602824530723], [1.2572847049101734], [0.31203628712364007], [1.8519443295960079], [5.136207076618961], [5.816877958335863], [-0.34304876759072234], [-0.5966040358745852], [-0.1470601978259891], [-4.520709660900193], [-0.8133997853759819], [-1.248895301826957], [0.41212815105985395], [1.4328114482765322], [1.5031946997294594], [-1.1125997566345747], [-5.887338816858404], [-5.044579730014887], [-1.0483081313164377]]}}, "fingerprints_range": {"Cu": [[0.0, 30.80216816946124], [0.0, 21.107715476229174], [0.0, 17.484290395410294], [0.0, 12.337890561734708], [0.0, 10.890146255978296], [0.0, 7.8762065126559815], [0.0, 5.204830005858291], [0.0, 3.8384169191962156], [0.0, 1.0822029998103229], [0.0, 0.7702142399843445], [0.0, 0.11672821813605691], [0.0, 0.09579851951537856], [0.0, 0.0016620228859608299], [0.0, 0.0014999082499671163], [-2.903634418643349e-17, 2753.967158376269], [0.0, 1339.0774553779588], [0.0, 1219.2135050010959], [0.0, 1969.1638860151352], [0.0, 933.9576344679633], [0.0, 890.6147634923126], [0.0, 2037.9504191669928], [0.0, 999.1121607682313], [0.0, 895.7686385654737], [0.0, 1253.1471468059065], [0.0, 593.9923398582351], [0.0, 567.1698970566891], [0.0, 1396.4850770342705], [0.0, 694.3948342368042], [0.0, 606.8013791049098], [0.0, 736.8377080388007], [0.0, 348.9904146530375], [0.0, 333.4019139572645]], "Pd": [[0.0, 24.8400310718317], [0.0, 23.80998849005955], [0.0, 14.474024824677544], [0.0, 13.53970742462996], [0.0, 9.279759042906964], [0.0, 8.380887593342328], [0.0, 4.621782142076165], [0.0, 3.9013328509929], [0.0, 0.9638689065495792], [0.0, 0.7254885658534357], [0.0, 0.09688617543634871], [0.0, 0.06459500411004933], [0.0, 0.0014999082499671157], [0.0, 0.0005969806159118931], [-2.6171500434006593e-17, 1778.0113970967157], [0.0, 1339.0774553779634], [-5.540189831791549e-17, 1609.8718092115669], [0.0, 1282.3086028451698], [0.0, 933.9576344679631], [0.0, 1155.1585128594002], [0.0, 1312.249733255385], [0.0, 999.1121607682309], [0.0, 1189.5611400731427], [0.0, 816.5469390038353], [0.0, 593.9923398582329], [0.0, 734.8478437209878], [0.0, 895.5277923005882], [0.0, 694.3948342368044], [0.0, 812.5636028169727], [0.0, 480.2246777464244], [0.0, 348.9904146530362], [0.0, 432.15164930503533]]}, "fingerprints_tag": 1, "scalings": {"Cu": {"intercept": -1.3648689335094715, "slope": 3.8076435893694978}, "Pd": {"intercept": -0.56806469177604546, "slope": 7.7693282872477916}}}