{"cutoff": 6.5, "Gs": {"Pd": [{"eta": 0.05, "type": "G2", "element": "Cu"}, {"eta": 0.05, "type": "G2", "element": "Pd"}, {"eta": 4.0, "type": "G2", "element": "Cu"}, {"eta": 4.0, "type": "G2", "element": "Pd"}, {"eta": 20.0, "type": "G2", "element": "Cu"}, {"eta": 20.0, "type": "G2", "element": "Pd"}, {"eta": 80.0, "type": "G2", "element": "Cu"}, {"eta": 80.0, "type": "G2", "element": "Pd"}, {"zeta": 1.0, "elements": ["Cu", "Cu"], "type": "G4", "gamma": 1.0, "eta": 0.005}, {"zeta": 1.0, "elements": ["Cu", "Pd"], "type": "G4", "gamma": 1.0, "eta": 0.005}, {"zeta": 1.0, "elements": ["Pd", "Pd"], "type": "G4", "gamma": 1.0, "eta": 0.005}, {"zeta": 1.0, "elements": ["Cu", "Cu"], "type": "G4", "gamma": -1.0, "eta": 0.005}, {"zeta": 1.0, "elements": ["Cu", "Pd"], "type": "G4", "gamma": -1.0, "eta": 0.005}, {"zeta": 1.0, "elements": ["Pd", "Pd"], "type": "G4", "gamma": -1.0, "eta": 0.005}, {"zeta": 4.0, "elements": ["Cu", "Cu"], "type": "G4", "gamma": 1.0, "eta": 0.005}, {"zeta": 4.0, "elements": ["Cu", "Pd"], "type": "G4", "gamma": 1.0, "eta": 0.005}, {"zeta": 4.0, "elements": ["Pd", "Pd"], "type": "G4", "gamma": 1.0, "eta": 0.005}, {"zeta": 4.0, "elements": ["Cu", "Cu"], "type": "G4", "gamma": -1.0, "eta": 0.005}, {"zeta": 4.0, "elements": ["Cu", "Pd"], "type": "G4", "gamma": -1.0, "eta": 0.005}, {"zeta": 4.0, "elements": ["Pd", "Pd"], "type": "G4", "gamma": -1.0, "eta": 0.005}], "Cu": [{"eta": 0.05, "type": "G2", "element": "Cu"}, {"eta": 0.05, "type": "G2", "element": "Pd"}, {"eta": 4.0, "type": "G2", "element": "Cu"}, {"eta": 4.0, "type": "G2", "element": "Pd"}, {"eta": 20.0, "type": "G2", "element": "Cu"}, {"eta": 20.0, "type": "G2", "element": "Pd"}, {"eta": 80.0, "type": "G2", "element": "Cu"}, {"eta": 80.0, "type": "G2", "element": "Pd"}, {"zeta": 1.0, "elements": ["Cu", "Cu"], "type": "G4", "gamma": 1.0, "eta": 0.005}, {"zeta": 1.0, "elements": ["Cu", "Pd"], "type": "G4", "gamma": 1.0, "eta": 0.005}, {"zeta": 1.0, "elements": ["Pd", "Pd"], "type": "G4", "gamma": 1.0, "eta": 0.005}, {"zeta": 1.0, "elements": ["Cu", "Cu"], "type": "G4", "gamma": -1.0, "eta": 0.005}, {"zeta": 1.0, "elements": ["Cu", "Pd"], "type": "G4", "gamma": -1.0, "eta": 0.005}, {"zeta": 1.0, "elements": ["Pd", "Pd"], "type": "G4", "gamma": -1.0, "eta": 0.005}, {"zeta": 4.0, "elements": ["Cu", "Cu"], "type": "G4", "gamma": 1.0, "eta": 0.005}, {"zeta": 4.0, "elements": ["Cu", "Pd"], "type": "G4", "gamma": 1.0, "eta": 0.005}, {"zeta": 4.0, "elements": ["Pd", "Pd"], "type": "G4", "gamma": 1.0, "eta": 0.005}, {"zeta": 4.0, "elements": ["Cu", "Cu"], "type": "G4", "gamma": -1.0, "eta": 0.005}, {"zeta": 4.0, "elements": ["Cu", "Pd"], "type": "G4", "gamma": -1.0, "eta": 0.005}, {"zeta": 4.0, "elements": ["Pd", "Pd"], "type": "G4", "gamma": -1.0, "eta": 0.005}]}, "activation": "tanh", "hiddenlayers": {"Pd": [3, 30], "Cu": [3, 30]}, "weights": {"Cu": {"1": [[0.0710932054535026, 0.048344288399469804, -0.004216804843758165], [-0.06651901652022192, -0.005591182281752566, -0.07156938406149206], [0.03500671908933001, -0.025694592216502832, -0.009145511482012092], [-0.04199150343347362, 0.004130019539756211, 0.06961526024173158], [-0.058316471773448, 0.012870338107506527, -0.01924839506261447], [-0.07234960618302587, 0.015127720913638176, -0.04580347243355157], [0.03726543228137455, -0.000938569278316842, 0.06771322804646145], [0.013651300348324569, -0.0003400222014619675, 0.047530786830579166], [-0.04812147124920181, 0.0591463439950385, 0.05802778510711294], [-0.010418128941114962, 0.014949375801427009, 0.06317280413866493], [0.004238356292810247, -0.0575416586869653, -0.038859724738439884], [-0.008417862421585445, -0.0491880359045371, -0.02131336565978327], [0.021891075148442546, -0.012592693252988021, 0.04683652189865292], [0.011866849971513688, 0.01605521069696761, -0.07367931468624103], [-0.02819852373116801, 0.029841874802131588, -0.03832100730933064], [0.060596591115281, -0.007271590875511269, 0.020992872411212643], [-0.051281323755036634, -0.03117285545812635, 0.017304928212913656], [-0.028685704217929806, 0.06639433408173658, 0.048382940467220206], [0.05656134531979544, 0.011550320546799664, -0.0008508567176245263], [-0.03849810635098971, 0.04426519070944647, 0.06985407499214542], [0.0, 0.0, 0.0]], "2": [[0.4543950085457791, -0.40489439755455514, -0.1372741919519318, 0.1883985643215127, 0.19326971393529635, -0.1372198548253497, -0.4754702579026858, -0.2663142030311184, -0.3199273412863849, -0.08064298011318272, 0.35040507965856527, -0.3161143851200753, 0.25990199591091334, 0.41885992001718886, 0.04909727662145935, -0.44912504252056995, 0.1270251871193313, 0.4622765323786491, 0.18531643830302336, -0.233013356451943, -0.42620918244204753, -0.3605634189803105, 0.46208498893679095, 0.223366838201436, 0.1494071244415882, 0.3880993243530023, 0.21564278769262224, 0.01297304934834509, -0.48944723761938425, -0.10162892276491509], [-0.2691535482778491, -0.04999199605570037, 0.2206147425549918, 0.20301949525242025, 0.4543777119059025, 0.4573772014617806, -0.37640482412955145, -0.20549969374818355, 0.19683074128561595, -0.4082239321488548, -0.16290220339440642, 0.29230070153514387, -0.38617449286440075, 0.06509734835070757, 0.310959067266925, 0.1114119560699528, -0.14152857956721965, 0.4246816641119857, -0.3585669542840917, -0.18377329957657362, 0.08813568995574772, 0.16294012650810308, 0.23231942006463735, -0.4991722694364785, 0.3602526349230514, -0.06685062896751448, 0.46951233526594593, -0.2582209600625964, 0.13142583463869495, 0.39813106843489654], [-0.02144103617279236, -0.08714140184631214, -0.3363516582522038, -0.4520594261388472, 0.049588434842028684, -0.3987937225897704, 0.05777325129098221, -0.3342337799901226, -0.4407465226975793, 0.23511667689710913, 0.38098789657559795, 0.395887368989857, 0.04114530619192924, 0.2163774874422001, -0.08667437561195745, -0.04236153042715485, 0.3355397753995455, 0.2839532951396758, 0.42022431174109554, -0.47122498407889235, 0.4463594128992232, 0.3660582655084992, -0.05555959595861648, 0.18275139944298002, -0.4115555127486814, 0.010781647467035249, 0.1613731656686085, -0.11406667653693048, 0.30380129917647014, 0.3992023200187269], [0.0, 0.0, 0.0, 0.0, 0.0, 0.0, 0.0, 0.0, 0.0, 0.0, 0.0, 0.0, 0.0, 0.0, 0.0, 0.0, 0.0, 0.0, 0.0, 0.0, 0.0, 0.0, 0.0, 0.0, 0.0, 0.0, 0.0, 0.0, 0.0, 0.0]], "3": [[0.026298305955537934], [-0.022791669751312763], [0.04510636020559576], [-0.0029809248801589], [-0.015492164435618842], [-0.02293382600072971], [0.00284258057369767], [0.026784208652090954], [0.0159052311632642], [-0.004632527841939106], [0.03211384164567155], [-0.017763586822833688], [-0.011806238086211576], [-0.03825426082672732], [-0.030541169833104998], [-0.03801130362258165], [-0.002028202440204449], [0.024827621902858976], [-0.0057901219288818764], [-0.01855461731533003], [-0.042843229420118784], [-0.03902271177830544], [-0.04006677064317571], [-0.003927318292831626], [0.025308751746569644], [0.016165696768699916], [0.047650234176129805], [-0.021306390993435165], [-0.0244058607610688], [0.034932514848361115], [0.0]]}, "Pd": {"1": [[-0.07181262341084992, -0.06627028544521736, 0.07365208560621521], [-0.06459660232412323, -0.031499647746742895, -0.07024916326074192], [0.04643612279412633, 0.060048065786220614, 0.03159081288894339], [-0.030689296034727205, -0.05863362296716533, -0.027871752891043475], [0.06023847208743517, -0.004779497394521548, 0.01743893172976646], [0.006899720086200822, -0.013766498656855232, 0.003842504591942547], [0.05348160038045237, 0.002669833581606676, -0.024394121060204083], [-0.002507000648914043, -0.03930733883869725, -0.024368080705822026], [-0.04139694901240096, 0.02171590479655572, -0.018211807034289942], [-0.05351250838041473, -0.039720017569619015, 0.022360246105070564], [0.06689092190371564, 0.0553889347793249, 0.05504128021728784], [0.07147170648403413, -0.04554174991585937, 0.007139367353996895], [0.017787960042123102, -0.0747698355331706, -0.04570497723939071], [-0.07306694630432678, 0.0011823488811567862, -0.013701368389766738], [0.041434032588912845, -0.029643352275953126, 0.022486331779288937], [0.014769076489488525, -0.03687794219333891, 0.07046743763702205], [0.018936528206139294, 0.07156927590175015, 0.07431119333897153], [0.03755618319474428, -0.05503806465434204, -0.045971350938439896], [-0.022456861133864095, 0.03210181603373102, -0.014381762007041457], [0.01449956478017489, -0.030984074360027647, -0.06564529708605017], [0.0, 0.0, 0.0]], "2": [[0.16867953989337392, 0.3976240838695433, -0.49272582048761393, 0.2145769860456339, -0.3307197767001271, 0.38339640403821107, -0.12114194287110469, -0.36019255216035473, -0.1788651823083648, -0.23595636093125938, 0.27706756210103, 0.4283307460888027, 0.4657659246322463, -0.2093342953980245, 0.2731025117125292, 0.10821417589884497, 0.44020879308799, -0.1925839178640919, 0.48777152233608356, 0.04204655137116664, -0.3670382492480945, 0.19242084388105163, 0.47734209814813233, 0.3308313785868864, 0.3842650690653473, -0.20985193880107655, -0.18976666658935648, -0.30289091494105236, 0.29656354030184184, -0.105722479997308], [0.1768553568860255, 0.47006418926403293, 0.3503360649081484, 0.36866983884884996, 0.34725384027289075, 0.435196911590918, 0.20163872783554704, -0.3998931537983115, -0.2165933876045968, 0.4567817726901876, 0.2898112364065597, 0.37354559147075195, 0.17022842310681785, -0.3425876850560594, 0.007436686352525257, 0.0941881474200632, -0.007055497776944253, 0.03873055381059898, -0.43240887789550264, -0.37017246344739696, -0.01882625845792041, 0.34314837336036963, -0.0028441125275149304, 0.31000116877430617, -0.07690423180592976, 0.3174383600289574, 0.46215969402069046, 0.320243670561141, 0.018134767827380993, 0.04086958014574216], [-0.008799794616297096, 0.427157622036346, -0.47036228416212966, -0.15498481254296637, -0.03242279020771688, -0.4469526539820815, -0.13717737360543936, 0.4484338835569591, -0.3985797811667514, -0.04432517453281759, 0.4624354668617179, 0.3946998860070443, -0.2259183972438118, -0.08921933346271116, -0.2088433159117159, 0.21847900080554716, 0.05793745522207849, -0.47505021030071193, 0.3166239393732947, 0.13711088106481617, 0.12414613369620864, -0.4147872268684265, 0.13272726103500365, 0.01183096065892697, 0.41488900973867915, -0.4221828458029169, -0.0466927463752731, 0.12514031181433705, -0.3851253978738637, 0.11734754531675251], [0.0, 0.0, 0.0, 0.0, 0.0, 0.0, 0.0, 0.0, 0.0, 0.0, 0.0, 0.0, 0.0, 0.0, 0.0, 0.0, 0.0, 0.0, 0.0, 0.0, 0.0, 0.0, 0.0, 0.0, 0.0, 0.0, 0.0, 0.0, 0.0, 0.0]], "3": [[-0.04895227343146816], [0.019239708370978423], [-0.015732710492542372], [-0.03801349919476759], [-0.004838589142781569], [-0.012748671055921347], [-0.039129693789252684], [-0.013416130317470687], [0.001569765151070067], [-0.003623525905825521], [-0.025809326823217182], [0.000585845756491496], [-0.03247179046541604], [0.04333680090562035], [0.024535329530101097], [0.017423478911983037], [0.031658788113289135], [0.003169532323871016], [0.04047372037106266], [0.04919376018167995], [-0.04644046800686117], [-0.03134556799776665], [-0.01956165458209107], [-0.047258057679698796], [0.040300163794559196], [0.00026997675880160305], [-0.03744678397054782], [0.024083248453739575], [-0.03196739139874212], [0.018084115046842472], [0.0]]}}, "fingerprints_range": {"Cu": [[0.0, 19.717528184980367], [0.0, 12.954617486692312], [0.0, 6.763827902345048], [0.0, 4.714947330374815], [0.0, 0.4690986508436296], [0.0, 0.3591942437989357], [0.0, 8.091157146993111e-05], [0.0, 6.70824590060896e-05], [0.0, 801.3693395965696], [0.0, 185.39781543928953], [0.0, 380.6581764033588], [0.0, 607.2663840318448], [0.0, 231.76903839707245], [0.0, 221.42076155225536], [0.0, 382.67810433385426], [0.0, 75.1704048127164], [0.0, 198.3503394287148], [0.0, 226.15041328755734], [0.0, 104.68820018085577], [0.0, 69.90910953322468]], "Pd": [[0.0, 12.8624897130153], [0.0, 18.849230862512158], [0.0, 4.565811427008994], [0.0, 6.436073106044743], [0.0, 0.31261700513528473], [0.0, 0.42485844093709624], [0.0, 5.453323564168128e-05], [0.0, 5.963922275121878e-05], [0.0, 387.63611918126753], [0.0, 201.06082384923803], [0.0, 768.9373797173059], [0.0, 216.01123836799178], [0.0, 234.91303084909833], [0.0, 579.7588665624862], [0.0, 204.69128069561307], [0.0, 81.20809618623912], [0.0, 368.92772219112385], [0.0, 65.71501674010052], [0.0, 106.06324624063065], [0.0, 215.963130891552]]}, "fingerprints_tag": 1, "scalings": {"Pd": {"slope": 1.0564404855714289, "intercept": -4.603714649857143}, "Cu": {"slope": 1.0564404855714289, "intercept": -4.603714649857143}}}