{"cutoff": 6.5, "Gs": {"Pd": [{"eta": 0.05, "type": "G2", "element": "Cu"}, {"eta": 0.05, "type": "G2", "element": "Pd"}, {"eta": 2.0, "type": "G2", "element": "Cu"}, {"eta": 2.0, "type": "G2", "element": "Pd"}, {"eta": 4.0, "type": "G2", "element": "Cu"}, {"eta": 4.0, "type": "G2", "element": "Pd"}, {"eta": 8.0, "type": "G2", "element": "Cu"}, {"eta": 8.0, "type": "G2", "element": "Pd"}, {"eta": 20.0, "type": "G2", "element": "Cu"}, {"eta": 20.0, "type": "G2", "element": "Pd"}, {"eta": 40.0, "type": "G2", "element": "Cu"}, {"eta": 40.0, "type": "G2", "element": "Pd"}, {"eta": 80.0, "type": "G2", "element": "Cu"}, {"eta": 80.0, "type": "G2", "element": "Pd"}, {"zeta": 1.0, "elements": ["Cu", "Cu"], "type": "G4", "gamma": 1.0, "eta": 0.005}, {"zeta": 1.0, "elements": ["Cu", "Pd"], "type": "G4", "gamma": 1.0, "eta": 0.005}, {"zeta": 1.0, "elements": ["Pd", "Pd"], "type": "G4", "gamma": 1.0, "eta": 0.005}, {"zeta": 1.0, "elements": ["Cu", "Cu"], "type": "G4", "gamma": -1.0, "eta": 0.005}, {"zeta": 1.0, "elements": ["Cu", "Pd"], "type": "G4", "gamma": -1.0, "eta": 0.005}, {"zeta": 1.0, "elements": ["Pd", "Pd"], "type": "G4", "gamma": -1.0, "eta": 0.005}, {"zeta": 2.0, "elements": ["Cu", "Cu"], "type": "G4", "gamma": 1.0, "eta": 0.005}, {"zeta": 2.0, "elements": ["Cu", "Pd"], "type": "G4", "gamma": 1.0, "eta": 0.005}, {"zeta": 2.0, "elements": ["Pd", "Pd"], "type": "G4", "gamma": 1.0, "eta": 0.005}, {"zeta": 2.0, "elements": ["Cu", "Cu"], "type": "G4", "gamma": -1.0, "eta": 0.005}, {"zeta": 2.0, "elements": ["Cu", "Pd"], "type": "G4", "gamma": -1.0, "eta": 0.005}, {"zeta": 2.0, "elements": ["Pd", "Pd"], "type": "G4", "gamma": -1.0, "eta": 0.005}, {"zeta": 4.0, "elements": ["Cu", "Cu"], "type": "G4", "gamma": 1.0, "eta": 0.005}, {"zeta": 4.0, "elements": ["Cu", "Pd"], "type": "G4", "gamma": 1.0, "eta": 0.005}, {"zeta": 4.0, "elements": ["Pd", "Pd"], "type": "G4", "gamma": 1.0, "eta": 0.005}, {"zeta": 4.0, "elements": ["Cu", "Cu"], "type": "G4", "gamma": -1.0, "eta": 0.005}, {"zeta": 4.0, "elements": ["Cu", "Pd"], "type": "G4", "gamma": -1.0, "eta": 0.005}, {"zeta": 4.0, "elements": ["Pd", "Pd"], "type": "G4", "gamma": -1.0, "eta": 0.005}], "Cu": [{"eta": 0.05, "type": "G2", "element": "Cu"}, {"eta": 0.05, "type": "G2", "element": "Pd"}, {"eta": 2.0, "type": "G2", "element": "Cu"}, {"eta": 2.0, "type": "G2", "element": "Pd"}, {"eta": 4.0, "type": "G2", "element": "Cu"}, {"eta": 4.0, "type": "G2", "element": "Pd"}, {"eta": 8.0, "type": "G2", "element": "Cu"}, {"eta": 8.0, "type": "G2", "element": "Pd"}, {"eta": 20.0, "type": "G2", "element": "Cu"}, {"eta": 20.0, "type": "G2", "element": "Pd"}, {"eta": 40.0, "type": "G2", "element": "Cu"}, {"eta": 40.0, "type": "G2", "element": "Pd"}, {"eta": 80.0, "type": "G2", "element": "Cu"}, {"eta": 80.0, "type": "G2", "element": "Pd"}, {"zeta": 1.0, "elements": ["Cu", "Cu"], "type": "G4", "gamma": 1.0, "eta": 0.005}, {"zeta": 1.0, "elements": ["Cu", "Pd"], "type": "G4", "gamma": 1.0, "eta": 0.005}, {"zeta": 1.0, "elements": ["Pd", "Pd"], "type": "G4", "gamma": 1.0, "eta": 0.005}, {"zeta": 1.0, "elements": ["Cu", "Cu"], "type": "G4", "gamma": -1.0, "eta": 0.005}, {"zeta": 1.0, "elements": ["Cu", "Pd"], "type": "G4", "gamma": -1.0, "eta": 0.005}, {"zeta": 1.0, "elements": ["Pd", "Pd"], "type": "G4", "gamma": -1.0, "eta": 0.005}, {"zeta": 2.0, "elements": ["Cu", "Cu"], "type": "G4", "gamma": 1.0, "eta": 0.005}, {"zeta": 2.0, "elements": ["Cu", "Pd"], "type": "G4", "gamma": 1.0, "eta": 0.005}, {"zeta": 2.0, "elements": ["Pd", "Pd"], "type": "G4", "gamma": 1.0, "eta": 0.005}, {"zeta": 2.0, "elements": ["Cu", "Cu"], "type": "G4", "gamma": -1.0, "eta": 0.005}, {"zeta": 2.0, "elements": ["Cu", "Pd"], "type": "G4", "gamma": -1.0, "eta": 0.005}, {"zeta": 2.0, "elements": ["Pd", "Pd"], "type": "G4", "gamma": -1.0, "eta": 0.005}, {"zeta": 4.0, "elements": ["Cu", "Cu"], "type": "G4", "gamma": 1.0, "eta": 0.005}, {"zeta": 4.0, "elements": ["Cu", "Pd"], "type": "G4", "gamma": 1.0, "eta": 0.005}, {"zeta": 4.0, "elements": ["Pd", "Pd"], "type": "G4", "gamma": 1.0, "eta": 0.005}, {"zeta": 4.0, "elements": ["Cu", "Cu"], "type": "G4", "gamma": -1.0, "eta": 0.005}, {"zeta": 4.0, "elements": ["Cu", "Pd"], "type": "G4", "gamma": -1.0, "eta": 0.005}, {"zeta": 4.0, "elements": ["Pd", "Pd"], "type": "G4", "gamma": -1.0, "eta": 0.005}]}, "activation": "tanh", "hiddenlayers": {"Pd": [4, 40], "Cu": [4, 40]}, "weights": {"Cu": {"1": [[0.37418099317933995, -0.20316021273177445, 5.7381693344889815, 3.3400905956211573], [5.190881703346537, 0.17441911776379357, 8.034128227261043, 1.8401051747341233], [18.538605859578748, -5.837341574344258, -2.8749983343507797, 3.25517696573463], [-3.221111378260183, -1.8882545355214384, -11.330768001432247, 2.922140137524592], [-20.291663893551167, 5.083964579315283, -4.350518207390689, 2.8739813131160554], [6.68728703148618, -0.672945537952053, 8.287746464203884, 3.7479913563528093], [6.905394292648807, 1.139958451474651, 7.362400788275361, 1.6769293331002006], [-5.818335522545608, 3.891612763989934, -0.22469130538331275, 3.8721088022271353], [-4.405300834975224, -0.3174969648041032, -7.473663888913395, -2.6288541038366047], [1.329588313882801, -1.8857418123580953, -3.210508076514633, -1.2658962400669012], [3.0888378045080382, -0.8651312259591339, 4.076285295140564, -4.071958552779684], [0.9710616471723734, 0.09626863308050503, 4.134256201426359, -0.3521660513430982], [0.10901314077194886, -0.15199982371333248, 0.032382908495751594, -0.8292376271351671], [0.580354545725243, -0.3602833332005567, -0.3104243509559065, 5.734677827853406], [16.71454408519243, -7.672205592456915, -1.9309499965576638, 0.13544875212420143], [10.315826641416473, -10.266570188400275, -2.4858343982301494, -1.6083234804330493], [12.754579894497796, -16.618787925264996, -4.973830656254103, -2.477167748996864], [-32.13570038982439, -14.509054491817569, -8.7739968275621, 0.8101207637997834], [-8.697269257002963, -8.27391827139395, 0.38020281356282243, -2.0680437754510845], [1.7700747385114592, -11.025059440441911, 4.079002010487742, -1.7384698867644661], [35.72678124923805, 1.9433144530764705, 1.5520911988869093, -0.09013140677569523], [15.979110277597266, -3.4798430907146423, -2.954872307752005, -1.4932162979221153], [8.089072681191555, -3.7751758687046264, -7.077721104589415, -2.847902338352954], [-29.16388489424779, -2.6505342296789647, -7.004093460452448, 0.7652612456376623], [-9.993038646745466, 4.322512517876403, 1.1049697313804205, -2.014507964359686], [-12.07012609149006, 12.449562807198339, 5.850543728002745, -1.7013858747434805], [-26.281664295567257, -3.373302079573122, 6.809310303743079, -0.5240248758791245], [-7.506845032395705, 4.556375338838869, 13.731191316803319, -1.1884469523273398], [0.23761746712314077, 8.23408689940465, 21.74169497798153, -3.2303414006054094], [32.6133459377554, 27.68428567442439, 7.28252757641743, 0.7104291721667662], [-1.7029908033645744, 13.643979846662248, -11.194099808020416, -1.9606622683431068], [-14.76500233255328, 11.820636711239608, -24.262369844661556, -1.794027442565435], [-0.006543371918465647, -1.43355410448064, -1.4163485159093818, -21.579529825289544]], "2": [[-2.7247484660632284, 3.351439537398618, -0.8388411797723286, -1.5267093942154024, 1.2378870043928063, 2.8773667438057275, -0.2514570961055347, -1.688170933149977, -0.09997678446935386, 1.8584520459269298, 0.5374038392507039, 7.24644326587667, -1.9942075192357283, 4.331412813276688, 0.40520805613687016, 3.0790984474535676, -3.810174770478656, 1.0305609197093204, 3.1654735030480667, -0.9479845644879666, 1.8904978643219215, 0.21492409718072047, 1.9892492105620405, -0.030130861306945592, -6.30219046792942, 0.22497347929601078, -0.7089662783525502, 2.232101830252965, -0.3998345878542207, 2.5548110764482717, 1.7702335923297994, -0.26164172015989023, 0.14565132361860522, 0.9752926447775423, -0.06651897430704863, -0.6573334621501381, -1.5908979474180815, -0.6928791702173442, 0.32226664747125766, -0.26333406847923496], [-0.8269911361416366, -1.0642810041465907, 3.1921556254131507, -12.785706866679641, 3.208486377362439, 4.075694834296775, 4.924121526100991, 2.778305955374212, -2.2165020136390523, 9.240736816319794, 26.979470418882602, 0.44202460476817357, 3.373060194945063, -3.8975507912547154, -4.562420445786833, -6.2135192601099964, -1.9224927840559505, 7.827960341966749, -11.390281109125247, -3.518550990235208, 4.020000699981125, -2.1670037370427377, 15.394370552743897, 3.7622503602461004, -4.671431956628645, 2.36522201573438, -4.215791336346151, 4.712990170848213, -1.552193107626478, 18.175687864547363, 5.415585737003109, 1.0600161050381336, -3.639504112580632, -1.2739519372972852, 14.51613825844776, -0.23288377464546164, 1.8061210365160147, 1.8999657291394767, 2.426192215372324, 9.901012012983], [-0.1360159008854997, -0.9756892270541995, 2.7451030330695176, -1.2756014917385732, 2.272529249091631, -0.5065464271862115, 4.862500356483711, 0.16229003523101068, 1.768332504161505, -0.7169995257440238, -0.28336876125143523, 4.78294179749691, 0.8539024344020602, 3.3633970815645347, -0.007840773531275937, 0.5733101283250723, -4.060054218710445, 1.3079573750940046, -1.4690705211032087, 1.3725113584724613, 0.3102216904038183, 1.0905559683651267, 2.252751937444127, 0.06623260363426536, -2.380154951806999, -0.5263508407680572, 1.1435781427012677, -0.3569768698665473, 1.1924041089339474, -0.38362065204568185, -1.873287942301179, -0.040783401947650365, -0.6999208339591086, 3.5843252495777813, 2.5245915428883157, -0.761724513815579, 1.441349394251763, 0.22332493702050057, 1.9260012393104033, 1.370896758078066], [-3.519062519434086, 4.246734522077086, -0.9884591447978788, 6.213155486714271, -8.27436729376369, -1.104468374180393, 2.1277423127053456, -4.786805458449944, -3.242176563623571, -5.452093816476423, -8.436153692336347, -1.5169924716643637, -4.20415443875679, 5.731272895038561, -1.6650911213727655, 0.9606190920266123, 1.2761332118022983, -1.91380077427914, 5.984517053331202, 2.0430394020719036, -2.6721638236194463, -2.05067146507617, -6.898889366085538, 0.7598976390713156, -6.117038780464043, -1.2714418037502482, -1.135165823490478, -0.8400501728407783, 0.9366290863706872, -5.86829783365296, -1.4778749286469797, 0.7722225982880134, -1.9263530681170877, -5.8141267040354645, -6.881903964732556, 3.859215924846907, 1.8184161319424856, -5.604167587023907, 1.7989213511169606, -7.33368725980958], [-2.6743729825750115, 2.0112210449329315, 1.69277079722402, -6.722607069290488, -1.0316580698304771, 1.8603159382631707, 3.3299024264779002, -1.29468946473632, -6.722724898395251, 3.731592754962191, 16.826622748390026, -4.957333753141628, 0.3053566426145901, -4.820954542548846, -6.448676291269881, -5.228606622430003, -0.2866605158283759, 2.6951247722661043, -6.843010804600639, -3.8758775241153285, 1.154252093573926, -6.320370863654368, 8.87940581943528, 5.352659554351885, 2.3132951372674246, 3.2789805470529108, -6.838398553149356, 0.8192723063300837, 0.6276139778582165, 8.86969980065987, 2.3660726461427184, 2.011688838095428, -3.539481758530346, -1.202061795769738, 5.560584919865006, 1.9580123466295134, -2.48682371225712, -1.0781540054326861, 2.7814926060027463, 0.924435472081376]], "3": [[0.9891204145406647], [-1.0254535970669085], [-1.0041482850110084], [-3.7340691672402233], [3.1208898430528276], [1.5753110396269412], [1.6720932337868981], [0.008686642084752642], [2.24931957006387], [-1.8133936393088015], [0.42970464748578524], [-0.03713234025162383], [-1.8397009646698024], [-1.2147854441201547], [2.4401704687516204], [0.1998326302015906], [0.05582472000987395], [0.20168670632798624], [-0.6875609852967324], [2.0084554218214072], [-2.3500176750770474], [-6.919869382117927], [-1.4380472803389894], [-1.7840130904569345], [0.7048354059899002], [-0.00800218152195208], [-3.0560018686616988], [0.2352620498380034], [1.0649856982280679], [0.7994709928016017], [0.215272749011426], [-0.2057156411046762], [3.6380525147825464], [-1.6253027837511915], [0.23573411934418168], [2.635177565624066], [-0.5950514881766072], [-0.7409130675123837], [2.211154428418835], [-0.637500680207368], [-5.336631780344345]]}, "Pd": {"1": [[-8.000103838442529, -3.22094699125609, 2.53609884977633, -2.9513781136462662], [1.6133806837016724, -1.0823553274198972, -0.9881040935043394, -2.0432913919882827], [12.30822281077946, 11.618279464759043, 1.426625953154169, 17.92905218019071], [-6.595512224192881, 5.831634865090026, 8.394768894154696, 13.673507866829619], [15.435050960913568, -12.633488480744626, -15.05778434960105, -21.260060042798496], [-7.456124598117464, -6.557745363909076, -15.63860273791918, -14.897770337220663], [4.466065842578665, 5.0604203583957705, 14.945143362610484, 8.732051421557925], [-5.579821066825185, 2.7050007548733963, 9.924585028435184, 5.250804087575918], [-13.133347521232638, -1.3214116991456022, -6.996537250900727, -0.9489030881693021], [20.03316374746505, -0.7320577957120004, -3.6431989376870675, -0.1869821556706983], [-4.949149032207451, 0.3933645179317692, 1.4675707348519198, -1.2751705562978402], [20.046370333217073, 0.35065218170887896, 0.3310981947736554, -1.4718799573866441], [9.97293739278386, 0.04348010140159807, -0.24953865700793537, 0.06514035227010848], [-9.03538627087977, 0.0420286477203837, -0.48522770254138586, 0.12343893278570192], [-8.663791893429769, 7.315698692098518, 5.386632031748791, 3.053770995151493], [7.092736279401567, 1.6899094297309243, 11.341006339102428, 0.2398135309479946], [2.39323367484832, -1.4390467439472414, -2.503961123313429, -3.181127244289765], [-18.694383187477722, 16.54377969113359, 3.062304589006592, -6.524678426762136], [5.642054749130815, 9.968295391610775, 34.23848824446202, -2.6275874056437454], [1.694120155662757, 12.240995506926305, 2.4194209876362933, -4.152953735316634], [-2.674291355985089, -10.857966418935943, 11.249827526157329, 11.369030514622189], [2.043361955684254, -5.953318165301879, -32.02717614067527, 5.425119184474956], [4.308798235643146, -8.028652928617403, -0.76596382394643, 7.267967762690027], [-14.72215657447429, -7.41707320944146, 11.121866132019587, 1.2756785103987214], [-3.677215013118649, 1.8285129904932491, -25.40213948389437, 4.571973425352201], [4.401888953943849, 9.482775824060194, 8.015473480019649, 12.339017473818181], [5.837803396942864, 2.459171540329349, -16.630536170041115, -10.41059118870234], [-3.6003446620507282, 3.196856308235901, 12.143506796542615, -4.314802064193487], [4.2488187893673555, 7.193028766015684, -1.2584554294847152, -2.8334977479363808], [-11.480909120064865, -7.675250516272643, -11.867642339769473, 1.503794070785373], [-8.77588429271884, -10.622547461269711, 0.6918491217859738, -3.2485464978798655], [6.656905247970765, -19.469815389541218, -4.956980647609105, -9.545427969840754], [8.315093972672337, 0.4543164169483061, 0.8247340214874317, -0.167845186857477]], "2": [[0.799787719906746, -0.5740602785302846, 1.6986174453896554, 0.8708169381085225, 0.6672115700165726, 1.898941644614154, -1.9214973481215893, 2.375981418778825, 0.9010665357694051, -0.27208277487201377, 1.6725840707050674, -0.5432658675216817, 1.4007879748894045, -1.850230992630792, 3.9826474956547844, -2.7571107549719494, 4.009163499116884, -2.822015508260563, -0.05112274811836802, 2.6297673876554764, -3.7383059559693725, 1.1427941095825978, 1.964348366394463, 0.24440302346402545, 0.125719154953828, 3.5602409870047125, -6.481155328879972, -0.7225459030915795, -1.6086679020327392, -0.5885955542017655, 4.56439218407254, 3.2504422001364635, -1.271866030784814, 0.06505442493966132, 0.18273740444976933, -3.556898885501443, 6.160414530125532, -0.7122879115985533, -0.029948834233460005, -0.8941437777248423], [4.70381974751881, -3.877267685388282, -8.469325420664385, -1.9758206133952398, -4.816376690591039, -1.0046431615700515, -1.5452908741181752, 8.01905591238426, 1.4604143301830388, -2.8631119051856673, -0.21655680488985224, -2.7870079029896337, -3.102689907005905, 7.661417456553169, 3.97571905061061, -1.8922011357800494, -3.238254948384306, -2.3304208353863625, -2.183291790265916, -2.1537693356871, -5.098369412875838, -0.2359422159890046, -2.766256861327272, 3.0946997472094475, 2.7973156536626713, -0.45866295323544964, 6.992046202970162, -1.4803095291012296, -5.503679675814583, 1.6172847163133872, 1.480259308800419, 4.259602202827618, 4.031021299391232, 2.0761887502743264, -1.6928221895447422, -4.91358891313257, 1.5813990976099717, -1.2118105209262724, 2.9346982333588136, 7.376160588569453], [-0.7533366364531963, 0.6725082516559473, 1.1905538567914782, 4.835086431473209, 1.8487940327037184, -4.8441282303199635, -2.8051673426812176, 3.1012810366633587, 0.47293664517352085, -0.14354102731982268, -5.231047688345307, 1.0186830655828627, -6.543971935024699, 7.112252056377911, -6.5948433949094145, -2.4745860731750025, 2.1204260150686527, 2.5866347188283094, 0.7846550970452442, 1.511395942195405, -2.4820900950122247, -3.064828674241475, -1.921323633011209, 2.387610441901666, 0.4110745741518552, -9.501831815778171, -2.3396276524838178, 0.2408634755048582, -0.625447495916294, 0.3193440189449269, -2.435798904654186, -0.3260485407307593, 2.1971588092279557, 0.4280028633089631, -2.0563251347925853, -2.282832719459922, -2.7735748599333983, 0.3098882582430286, 0.36284542877915626, 0.08436736055126937], [1.973586288351026, -1.3459608014820477, 1.4153423240582805, -0.48124717192757066, 0.5880732801541301, 2.9331097344015267, 3.3407644629352395, 0.7737175685055404, -1.1872138587905299, 1.2013062780978754, 2.7867809282107054, -1.2728866056410657, -1.9147703878013875, -0.6025153707219506, 0.6336272379369977, 5.197029731084982, 1.2635222710172918, 2.9100362052654307, -0.3786369300660909, 2.0550360443345124, 2.3846053095940984, 1.6175898506066435, 1.056205370731845, 1.344609357015527, -1.6595621074013152, 3.470145640058786, 1.515555505921407, -1.2068988745126408, 1.7175387420610615, -1.7209805962165614, -0.36281773218648405, 2.9510607996629687, -0.1170200533225718, -2.0039328473211824, -1.5782210590375498, 2.2748037420969363, -0.31642462154756845, -1.9305005351598121, 0.6835070092913137, -1.405160182060647], [-7.293932443859409, 1.1980174556608019, -4.781041472199885, -2.1378920058034847, 1.4343584661612905, 0.4524358376952483, 0.7019732554670393, -9.515170457222021, -2.939678686372622, -1.4639447076631091, 2.2743024373463316, 0.7258481852920239, -12.577709514207756, -4.530615253647652, -3.6269443594768394, 5.2685942867584385, -3.3133378173499, 3.56081389472039, -1.1103350241342642, -3.113565480205092, 3.7603698456171912, 0.9324843185226538, 0.3314106326112235, -3.4334497399201296, 1.4950150604536017, 5.899712787296389, 13.842465277692224, 2.12345148920297, 1.7480347516742287, 1.5714927044176834, -4.274069842831392, -7.547159083376988, -2.4505447274815073, 2.212035129463742, -3.090906753619715, 3.5396534171754204, -5.765260308967619, 2.894195649291092, -0.41142585395120845, 3.002386334800679]], "3": [[3.8431190330268308], [-0.8919163942653834], [0.3004041864382923], [-0.09562261636034854], [-0.1703960618426187], [-0.4976243491711472], [-0.1135424819783297], [1.4835033602102938], [-1.7507598983575083], [-4.290963986168855], [-0.7887642881716124], [1.1175931250539421], [-0.39316134164561845], [-0.11333230860336997], [0.07290871843401941], [-0.1715671151237471], [0.07774022045365021], [0.07816422788498949], [1.63552846660567], [0.12701718525295727], [1.6054576962070721], [2.067704835482925], [-0.5904259004712922], [0.14315189551592758], [-6.717496719042869], [0.10125712590345386], [-0.3001130219103155], [1.1129163512328095], [0.20445567822734986], [0.9725883991697677], [2.1997759652923516], [1.9933867884925753], [0.20054148011236114], [6.859648073727338], [0.09157143765025492], [-1.754964513579934], [-1.8891518654515729], [-1.5098020485943362], [0.9710051628552547], [0.7138218990802434], [1.6299634529077416]]}}, "fingerprints_range": {"Cu": [[0.0, 30.80216816946124], [0.0, 21.107715476229174], [0.0, 17.484290395410294], [0.0, 12.337890561734708], [0.0, 10.890146255978296], [0.0, 7.8762065126559815], [0.0, 5.204830005858291], [0.0, 3.8384169191962156], [0.0, 1.0822029998103229], [0.0, 0.7702142399843445], [0.0, 0.11672821813605691], [0.0, 0.09579851951537856], [0.0, 0.0016620228859608299], [0.0, 0.0014999082499671163], [-2.903634418643349e-17, 2753.967158376269], [0.0, 1339.0774553779588], [0.0, 1219.2135050010959], [0.0, 1969.1638860151352], [0.0, 933.9576344679633], [0.0, 890.6147634923126], [0.0, 2037.9504191669928], [0.0, 999.1121607682313], [0.0, 895.7686385654737], [0.0, 1253.1471468059065], [0.0, 593.9923398582351], [0.0, 567.1698970566891], [0.0, 1396.4850770342705], [0.0, 694.3948342368042], [0.0, 606.8013791049098], [0.0, 736.8377080388007], [0.0, 348.9904146530375], [0.0, 333.4019139572645]], "Pd": [[0.0, 24.8400310718317], [0.0, 23.80998849005955], [0.0, 14.474024824677544], [0.0, 13.53970742462996], [0.0, 9.279759042906964], [0.0, 8.380887593342328], [0.0, 4.621782142076165], [0.0, 3.9013328509929], [0.0, 0.9638689065495792], [0.0, 0.7254885658534357], [0.0, 0.09688617543634871], [0.0, 0.06459500411004933], [0.0, 0.0014999082499671157], [0.0, 0.0005969806159118931], [-2.6171500434006593e-17, 1778.0113970967157], [0.0, 1339.0774553779634], [-5.540189831791549e-17, 1609.8718092115669], [0.0, 1282.3086028451698], [0.0, 933.9576344679631], [0.0, 1155.1585128594002], [0.0, 1312.249733255385], [0.0, 999.1121607682309], [0.0, 1189.5611400731427], [0.0, 816.5469390038353], [0.0, 593.9923398582329], [0.0, 734.8478437209878], [0.0, 895.5277923005882], [0.0, 694.3948342368044], [0.0, 812.5636028169727], [0.0, 480.2246777464244], [0.0, 348.9904146530362], [0.0, 432.15164930503533]]}, "fingerprints_tag": 1, "scalings": {"Cu": {"intercept": 0.25206397164213229, "slope": 5.0519154824800774}, "Pd": {"intercept": -1.3545188446274337, "slope": 6.4283237143567451}}}