{"cutoff": 6.5, "Gs": {"Pd": [{"eta": 0.05, "type": "G2", "element": "Cu"}, {"eta": 0.05, "type": "G2", "element": "Pd"}, {"eta": 2.0, "type": "G2", "element": "Cu"}, {"eta": 2.0, "type": "G2", "element": "Pd"}, {"eta": 4.0, "type": "G2", "element": "Cu"}, {"eta": 4.0, "type": "G2", "element": "Pd"}, {"eta": 8.0, "type": "G2", "element": "Cu"}, {"eta": 8.0, "type": "G2", "element": "Pd"}, {"eta": 20.0, "type": "G2", "element": "Cu"}, {"eta": 20.0, "type": "G2", "element": "Pd"}, {"eta": 40.0, "type": "G2", "element": "Cu"}, {"eta": 40.0, "type": "G2", "element": "Pd"}, {"eta": 80.0, "type": "G2", "element": "Cu"}, {"eta": 80.0, "type": "G2", "element": "Pd"}, {"zeta": 1.0, "elements": ["Cu", "Cu"], "type": "G4", "gamma": 1.0, "eta": 0.005}, {"zeta": 1.0, "elements": ["Cu", "Pd"], "type": "G4", "gamma": 1.0, "eta": 0.005}, {"zeta": 1.0, "elements": ["Pd", "Pd"], "type": "G4", "gamma": 1.0, "eta": 0.005}, {"zeta": 1.0, "elements": ["Cu", "Cu"], "type": "G4", "gamma": -1.0, "eta": 0.005}, {"zeta": 1.0, "elements": ["Cu", "Pd"], "type": "G4", "gamma": -1.0, "eta": 0.005}, {"zeta": 1.0, "elements": ["Pd", "Pd"], "type": "G4", "gamma": -1.0, "eta": 0.005}, {"zeta": 2.0, "elements": ["Cu", "Cu"], "type": "G4", "gamma": 1.0, "eta": 0.005}, {"zeta": 2.0, "elements": ["Cu", "Pd"], "type": "G4", "gamma": 1.0, "eta": 0.005}, {"zeta": 2.0, "elements": ["Pd", "Pd"], "type": "G4", "gamma": 1.0, "eta": 0.005}, {"zeta": 2.0, "elements": ["Cu", "Cu"], "type": "G4", "gamma": -1.0, "eta": 0.005}, {"zeta": 2.0, "elements": ["Cu", "Pd"], "type": "G4", "gamma": -1.0, "eta": 0.005}, {"zeta": 2.0, "elements": ["Pd", "Pd"], "type": "G4", "gamma": -1.0, "eta": 0.005}, {"zeta": 4.0, "elements": ["Cu", "Cu"], "type": "G4", "gamma": 1.0, "eta": 0.005}, {"zeta": 4.0, "elements": ["Cu", "Pd"], "type": "G4", "gamma": 1.0, "eta": 0.005}, {"zeta": 4.0, "elements": ["Pd", "Pd"], "type": "G4", "gamma": 1.0, "eta": 0.005}, {"zeta": 4.0, "elements": ["Cu", "Cu"], "type": "G4", "gamma": -1.0, "eta": 0.005}, {"zeta": 4.0, "elements": ["Cu", "Pd"], "type": "G4", "gamma": -1.0, "eta": 0.005}, {"zeta": 4.0, "elements": ["Pd", "Pd"], "type": "G4", "gamma": -1.0, "eta": 0.005}], "Cu": [{"eta": 0.05, "type": "G2", "element": "Cu"}, {"eta": 0.05, "type": "G2", "element": "Pd"}, {"eta": 2.0, "type": "G2", "element": "Cu"}, {"eta": 2.0, "type": "G2", "element": "Pd"}, {"eta": 4.0, "type": "G2", "element": "Cu"}, {"eta": 4.0, "type": "G2", "element": "Pd"}, {"eta": 8.0, "type": "G2", "element": "Cu"}, {"eta": 8.0, "type": "G2", "element": "Pd"}, {"eta": 20.0, "type": "G2", "element": "Cu"}, {"eta": 20.0, "type": "G2", "element": "Pd"}, {"eta": 40.0, "type": "G2", "element": "Cu"}, {"eta": 40.0, "type": "G2", "element": "Pd"}, {"eta": 80.0, "type": "G2", "element": "Cu"}, {"eta": 80.0, "type": "G2", "element": "Pd"}, {"zeta": 1.0, "elements": ["Cu", "Cu"], "type": "G4", "gamma": 1.0, "eta": 0.005}, {"zeta": 1.0, "elements": ["Cu", "Pd"], "type": "G4", "gamma": 1.0, "eta": 0.005}, {"zeta": 1.0, "elements": ["Pd", "Pd"], "type": "G4", "gamma": 1.0, "eta": 0.005}, {"zeta": 1.0, "elements": ["Cu", "Cu"], "type": "G4", "gamma": -1.0, "eta": 0.005}, {"zeta": 1.0, "elements": ["Cu", "Pd"], "type": "G4", "gamma": -1.0, "eta": 0.005}, {"zeta": 1.0, "elements": ["Pd", "Pd"], "type": "G4", "gamma": -1.0, "eta": 0.005}, {"zeta": 2.0, "elements": ["Cu", "Cu"], "type": "G4", "gamma": 1.0, "eta": 0.005}, {"zeta": 2.0, "elements": ["Cu", "Pd"], "type": "G4", "gamma": 1.0, "eta": 0.005}, {"zeta": 2.0, "elements": ["Pd", "Pd"], "type": "G4", "gamma": 1.0, "eta": 0.005}, {"zeta": 2.0, "elements": ["Cu", "Cu"], "type": "G4", "gamma": -1.0, "eta": 0.005}, {"zeta": 2.0, "elements": ["Cu", "Pd"], "type": "G4", "gamma": -1.0, "eta": 0.005}, {"zeta": 2.0, "elements": ["Pd", "Pd"], "type": "G4", "gamma": -1.0, "eta": 0.005}, {"zeta": 4.0, "elements": ["Cu", "Cu"], "type": "G4", "gamma": 1.0, "eta": 0.005}, {"zeta": 4.0, "elements": ["Cu", "Pd"], "type": "G4", "gamma": 1.0, "eta": 0.005}, {"zeta": 4.0, "elements": ["Pd", "Pd"], "type": "G4", "gamma": 1.0, "eta": 0.005}, {"zeta": 4.0, "elements": ["Cu", "Cu"], "type": "G4", "gamma": -1.0, "eta": 0.005}, {"zeta": 4.0, "elements": ["Cu", "Pd"], "type": "G4", "gamma": -1.0, "eta": 0.005}, {"zeta": 4.0, "elements": ["Pd", "Pd"], "type": "G4", "gamma": -1.0, "eta": 0.005}]}, "activation": "tanh", "hiddenlayers": {"Pd": [4, 40], "Cu": [4, 40]}, "weights": {"Cu": {"1": [[0.4644755992355062, -0.2418069191834496, 5.697158124535518, 3.3549682938489935], [5.170093137904036, 0.07944737311022482, 7.9157557268522964, 1.8312490901411844], [18.340024397760782, -5.669779578402576, -3.011829708504588, 3.2724841570215366], [-3.1397854686991247, -1.554142793792862, -11.274700666040001, 2.912331619518962], [-20.185422502964414, 4.946886878321182, -4.140708886362174, 2.89312785574306], [6.620247147325025, -1.015163042117866, 8.372426377323437, 3.7373857330153917], [6.9617480494090165, 1.1520383434288544, 7.307538544900423, 1.6972391236778037], [-5.770583835517467, 4.005991693317752, -0.27778378555238936, 3.856974139390097], [-4.511388595283313, -0.28067436759354053, -7.475938418986584, -2.618313936954036], [1.2803935671062314, -1.8944010632427832, -3.2178679527953955, -1.2992348377821683], [3.15623778730548, -0.8931744819773879, 4.059712172826592, -4.080454309369193], [1.0007785771313458, 0.09781093647646953, 4.122370808108854, -0.3736489607644116], [0.09354933090383116, -0.1427133522314908, 0.038559996005481385, -0.8440663087556833], [0.5864668064290103, -0.36677033174100615, -0.3132280450349135, 5.740899229966058], [16.706178268800876, -7.740594117462211, -1.7547591853445643, 0.12320390212082233], [10.341495118620093, -10.276117259632304, -2.449305025881444, -1.5764524115691696], [12.909089903041172, -16.672261309839687, -4.766093554908937, -2.4857811277749144], [-32.335374371654666, -14.637439479785048, -8.59856612021396, 0.7984286640050762], [-8.787242603158404, -8.435854992780737, 0.44497291590166765, -2.033957600671956], [1.7917023010190458, -11.320887978343045, 4.397545014947183, -1.7509520205060787], [35.87457002997116, 1.9555851364089056, 1.5766050416276718, -0.10259241095328711], [16.122902693932296, -3.3623551988937725, -2.8607219592549264, -1.4619406291600332], [8.203374202478221, -3.519560995444859, -7.1661615159634815, -2.855329460707206], [-29.218918973119393, -2.6820266133775412, -7.075764104867215, 0.7535334532709314], [-9.950509897358572, 4.287033805018653, 1.282823042040214, -1.980155458016812], [-12.18778149576179, 12.503687530998764, 5.764504962927505, -1.7142007284679457], [-26.38733162076698, -3.2929078540494725, 6.578119645489901, -0.5368613616070694], [-7.5848940116614, 4.479239800113959, 13.535918464850493, -1.1578171025410287], [0.13016349846601719, 8.071265666147527, 21.548989009393097, -3.2362030892748703], [32.83894786294474, 27.799370911255632, 7.245691871965669, 0.6986833222284462], [-1.749793935511382, 13.806647101149814, -11.352106467199894, -1.926486848391026], [-14.844414772800576, 12.022556742384669, -24.371182210648236, -1.8067258101719732], [0.007811411050467909, -1.4452275481741041, -1.390824033272057, -21.630867132414537]], "2": [[-2.758342095731261, 3.3492560538354104, -0.846947458245131, -1.5269396522833507, 1.2370928446195697, 2.889859101174317, -0.18681396677885043, -1.6884196073432214, -0.0948913456388643, 1.8605325894965545, 0.5558021230963035, 7.259456579182402, -1.995283905254852, 4.307480912388428, 0.39823090352937596, 3.023038584794642, -3.786403817060199, 1.0354322660563007, 3.1666096193129527, -0.9283306419981577, 1.8912692108716476, 0.19822304982320815, 1.9868167942382349, -0.03151290066612257, -6.320212673605136, 0.22701676193246195, -0.7148741808986285, 2.2379503723827265, -0.4029565653506159, 2.5771597570190794, 1.7964871972416718, -0.2696272897954684, 0.15317495144863102, 1.0558042432797061, -0.058617226497916536, -0.652598898812747, -1.5846977881187259, -0.6789507232137391, 0.34219082607549833, -0.2714162547195537], [-0.8273345700126967, -1.0442083303839136, 3.3727829020840847, -12.846712479293268, 3.218213141757457, 4.149004065759236, 4.829698290963758, 2.8293662483386095, -2.2636142791849854, 9.208902007734775, 26.874897803676284, 0.37547512176270104, 3.420270943533745, -3.916148080809716, -4.54501965668359, -6.310924722712844, -1.923429937465156, 7.776391703920213, -11.421612764236334, -3.6132262663331285, 4.098588358520335, -2.030780002045621, 15.440343679590471, 3.803271516485065, -4.609671547228028, 2.3525929079125207, -4.14837054867024, 4.734214660411737, -1.4800266685549168, 18.352521404831396, 5.5138286796951395, 1.0468429096122474, -3.6974783453169144, -1.346940566265623, 14.588986753274188, -0.2229848625089756, 1.8633640823846052, 1.9951871973328008, 2.461331837222134, 9.911926683504209], [-0.12893815580583223, -0.9797502053511533, 2.745901215831726, -1.2787032925110682, 2.2728864332390666, -0.5154288834459704, 4.8654417169473, 0.17005702376692125, 1.7746769856268458, -0.7467291172874285, -0.28067481825403834, 4.781799948325883, 0.8806007055328136, 3.3825356240429274, -0.003928285725218689, 0.5525953030544779, -4.083488434391189, 1.297603307684253, -1.4892437694277278, 1.3516003608711262, 0.3130062334534003, 1.0983918347880568, 2.254891573089187, 0.06830152182837332, -2.3839969212359655, -0.519116738026969, 1.154802468056633, -0.380119143702822, 1.1963278956560353, -0.38034417042897306, -1.8690103551483923, -0.0283267907594405, -0.6979153331601105, 3.5322357822457344, 2.519200966237089, -0.7597250459888338, 1.4582704390257921, 0.22532348073237676, 1.9339411033002927, 1.3711715200406294], [-3.5321151356533083, 4.226580873258892, -1.147587132142918, 6.254927466206309, -8.299026895706845, -1.120687594418731, 2.158341673045295, -4.785509886811832, -3.238161989399631, -5.482361012408591, -8.30168435252221, -1.4985850800800742, -4.313646606851391, 5.678146364787705, -1.6964862666700347, 1.0127969075435446, 1.296095017041198, -1.8649354806814926, 6.004935206619278, 2.0517894734207496, -2.719668976431773, -2.0945618516280304, -6.926776118123286, 0.8008285945814823, -6.124606730013878, -1.2940124885382807, -1.1525401469251972, -0.8128460334325002, 0.9463632652263132, -5.9450982743088, -1.5279180524142362, 0.7130142642289303, -1.928821710911647, -5.820057373713984, -6.956925784108237, 3.8616910685868957, 1.7626415609860475, -5.609031174966757, 1.7944686702183104, -7.33137991337207], [-2.6537050619384766, 2.0017759153614856, 1.718707490125582, -6.734578468397957, -1.0450391398647154, 1.9012744711209015, 3.2831456517242117, -1.2388191849272507, -6.7539227039439265, 3.654662021656351, 16.860292268080435, -5.04289848742374, 0.26567086584985194, -4.8538581874776145, -6.465976975000967, -5.274967555394555, -0.2704075246512809, 2.6718897136724236, -6.872342213581269, -3.9475220726768434, 1.1820205736139344, -6.214709356133271, 8.887901143362107, 5.427568246446811, 2.3615751499903936, 3.2644657238058277, -6.79446073237369, 0.8638269001712239, 0.705272462235939, 8.945482648909653, 2.3958932321794966, 1.9469720953787504, -3.5955972351021566, -1.2736418020542004, 5.5721054746002645, 1.9757141800006828, -2.5104805819302793, -0.9661482071936002, 2.7883975342462124, 0.9161131799864298]], "3": [[0.9885118473839845], [-1.038418468324583], [-1.0308965352628543], [-3.7408737431173122], [3.0982197928140933], [1.5691803504329038], [1.6965731628074192], [-0.0025091185973974365], [2.2420144909928776], [-1.811468845453073], [0.4360595218107214], [-0.03697038978399293], [-1.8519926618755136], [-1.2425953375910255], [2.4558474135304245], [0.2034496910341243], [0.05557974111143474], [0.21679222296911663], [-0.692076668157368], [2.0137240102237484], [-2.352919305806129], [-6.892794576742751], [-1.440254095514894], [-1.7574465833013524], [0.7007556251426817], [-0.004713604654872477], [-3.0691551633629914], [0.232768851813785], [1.0682992657029182], [0.7945052113855956], [0.20973039248914443], [-0.21615796918399016], [3.62672284417216], [-1.6470675614854229], [0.23591439737888606], [2.617074324842399], [-0.5988963271140066], [-0.7382158026742244], [2.224214795060348], [-0.6442820761987611], [-5.3008842096070845]]}, "Pd": {"1": [[-7.908420938499573, -3.183246122420708, 2.578874513294909, -2.909653800101335], [1.6554473099561677, -1.0875918046392248, -0.9833560461368729, -2.038099715462369], [12.236301869055282, 11.502414155038151, 1.4469480957713379, 17.85330207178451], [-6.453279957522118, 5.867421902903242, 8.441632498376613, 13.751533530539067], [15.276295577211979, -12.509735179811987, -15.180282158398528, -21.186238958518906], [-7.365587644140847, -6.596871361346783, -15.70767793133357, -15.009028227405235], [4.38581761472213, 5.011353501612089, 15.054104500477301, 8.707335581944655], [-5.774829533693884, 2.7239138665328695, 9.947775597413482, 5.305372152747019], [-12.95233016571611, -1.309843726053273, -7.054584776220874, -0.952470134896626], [19.90991712929019, -0.7373976518278035, -3.649750573458982, -0.20318987531476315], [-4.867269798086726, 0.3911923477969079, 1.4933059056939282, -1.2587543107013266], [20.075876621236667, 0.35281142566204104, 0.33953176447774996, -1.459380782266408], [9.87170013928201, 0.043255355797580754, -0.2524523217518171, 0.06243324052887296], [-9.084999897535827, 0.04224672240713773, -0.4895101529281954, 0.12332157144358452], [-8.63452755202064, 7.364676135842455, 5.363658014056455, 2.9196106956855177], [7.13943044660376, 1.6870770985598955, 11.379875846225685, 0.2032570355612912], [2.3313742693732302, -1.4666396080220818, -2.508399041889018, -3.227838645291811], [-18.708006867254152, 16.532240176016135, 3.1471493379650566, -6.597239418385016], [5.7797569663294075, 9.8562425295285, 34.31848391763306, -2.6678383027638115], [1.6392103022474844, 12.052855199708649, 2.3319204866591017, -4.297751601030175], [-2.5967632870051847, -10.90610127339114, 11.208732522419433, 11.444537640756373], [1.9970185147718613, -5.86255739780934, -32.13780179601308, 5.437600528265527], [4.263850739156546, -7.850188424859629, -0.7526482048405211, 7.359246237946614], [-14.682680407084682, -7.619198384194623, 11.239089584553335, 1.575204868471903], [-3.643917008033708, 1.8113751502323363, -25.550061269410417, 4.612091283486537], [4.378330912488778, 9.536370219214788, 7.909202748692329, 12.361493215880628], [5.987893303766295, 2.4697435673787442, -16.54483070864655, -10.327708156552962], [-3.767702954989667, 3.1398572703526217, 12.216627175826167, -4.257229650307478], [4.2113178249665975, 7.0926951264801055, -1.2866968094149125, -2.8288449161952687], [-11.39516225275739, -7.477039011135634, -12.105800301461384, 1.2322014100075909], [-8.832616714980094, -10.527112405677876, 0.7565356898338486, -3.290204652653351], [6.661179853820749, -19.389575142425155, -4.743241606442079, -9.48603607662862], [8.23254052880774, 0.45110650215859377, 0.8236136652926999, -0.16958276346710455]], "2": [[0.792995867336634, -0.5573050820272893, 1.686939159095127, 0.8678494809764248, 0.6671885992507761, 1.9007942930695076, -1.9191358297770116, 2.386043362415562, 0.899223603291805, -0.2729107076911228, 1.6717652966739065, -0.5250345228560476, 1.5197396306046593, -1.8762745796903735, 3.950119205667023, -2.776597043974766, 3.998508350457411, -2.7867963638949855, -0.05088896248212453, 2.628240166665317, -3.787766687011829, 1.135904868946898, 1.9873924464710235, 0.2433588242678868, 0.12530805734220876, 3.5440876448267775, -6.525906318563088, -0.719149130597025, -1.620016826264595, -0.5873666151009149, 4.480594634383296, 3.2390839018012727, -1.2630687717725948, 0.06355216576695638, 0.24090664274099968, -3.598624461825807, 6.0812606244240195, -0.7110250088210581, -0.032913613666117454, -0.8918246381947283], [4.7336443505928925, -3.8729663563098566, -8.506077724018247, -2.001826390270286, -4.798063080412098, -1.0081666308584811, -1.581392401582548, 8.071270381043888, 1.4746705745216144, -2.8798961681345485, -0.23055210073213203, -2.781348489206333, -3.1318347550993053, 7.659041806877791, 4.044030364540241, -1.9125180655105223, -3.1997933605476425, -2.3285707320137226, -2.1922966941053383, -2.1785386675071114, -5.115567120825843, -0.2462616633312211, -2.7956260924652723, 3.1007598222068466, 2.8119981742099753, -0.4861610297920623, 7.042983840543428, -1.4771395225528907, -5.574073656642954, 1.6306023950941442, 1.50684539045181, 4.2389852850768275, 4.051570971571377, 2.08780496370025, -1.6908480351638282, -4.929372871318319, 1.6158308703514177, -1.1987886411243265, 2.9363288643076193, 7.400999548678591], [-0.7535062241182842, 0.6781243817507022, 1.1534391088752298, 4.811130535137816, 1.8625998121289247, -4.825539178165837, -2.8247988186501893, 3.0958109835657885, 0.47648531536417854, -0.15299945692618927, -5.225060235577794, 1.0180196481623747, -6.373527475067101, 7.1189579956931395, -6.587982814549372, -2.469893654585147, 2.148754464966286, 2.5996763626920867, 0.7851759841092011, 1.4927385668810509, -2.486746215739151, -3.0541014750821134, -1.9480728622963663, 2.3876648387388375, 0.41849254035982264, -9.490412677835526, -2.3583464060184802, 0.2379794323520959, -0.6356564393836528, 0.3206945609873003, -2.4335303607441996, -0.3295860257658204, 2.187867560615035, 0.4280761723155734, -2.0369159720884875, -2.28512202479559, -2.775478990094715, 0.298810199245324, 0.3769857083977069, 0.09944589285709855], [1.9623302739649942, -1.3474654587079244, 1.4419875494378824, -0.4841968356959235, 0.5680972950800377, 2.925500317484771, 3.381174869093713, 0.8039667073201164, -1.195602122054304, 1.2035008416138928, 2.795599206054406, -1.2659570852388868, -1.8941746690702457, -0.5824844597707868, 0.6287570116955504, 5.183268010956727, 1.266341449535072, 2.905664179876108, -0.3704649584200016, 2.068315581254004, 2.39571005087751, 1.6180407831558352, 1.0741284478456032, 1.3325169821779936, -1.6625887765419933, 3.5200786535524644, 1.519638294021544, -1.2204458481269194, 1.7319464422755542, -1.7256314167282012, -0.3803443584911451, 2.968932891999186, -0.10696503036802284, -2.0065964199577335, -1.580867747773314, 2.2886052143663522, -0.3316896782050831, -1.9442448759393889, 0.6758154727303238, -1.424759959260082], [-7.300227983084836, 1.1889285785506671, -4.77724788556624, -2.124478522925488, 1.4143644352414184, 0.44078580248724497, 0.6976518108306123, -9.52867216752128, -2.944843294786216, -1.461873971703989, 2.2765490472163106, 0.7168050018417209, -12.519927252285864, -4.5278566419582384, -3.5893688761628626, 5.277624474950016, -3.3377610985491883, 3.490819601275709, -1.1155517139317639, -3.1079752607925744, 3.8072364270487626, 0.929942335298844, 0.33618208629604485, -3.4564701709857024, 1.4937569248707125, 5.869147130387845, 13.902126505483249, 2.1314100936502864, 1.7648968763424604, 1.5667589981298806, -4.183801517353367, -7.546271294510359, -2.454838312650999, 2.2119478642690766, -3.1438691688650016, 3.5758202521651823, -5.679039759764045, 2.8915064247581515, -0.41365218166509204, 3.0132060315550753]], "3": [[3.8582074979392154], [-0.8946244235729492], [0.300465462151287], [-0.09622781897073165], [-0.16930320686358907], [-0.5004274486937006], [-0.11178256726348573], [1.4111812982120842], [-1.7545476505877962], [-4.28335782176631], [-0.7823967957968234], [1.1185644919676472], [-0.38728114069281583], [-0.11450032042894077], [0.07302590390225487], [-0.17202389715234098], [0.08008797637794604], [0.07836587678446211], [1.6376288887828316], [0.13066682656418152], [1.604065572795406], [2.0598339550766522], [-0.5929096079624707], [0.14439732109879388], [-6.717871317509605], [0.10058589716299049], [-0.30149458491937386], [1.121482437002813], [0.2032696897569707], [0.9703887277092715], [2.1993004525246924], [1.9911895927775123], [0.200041728719778], [6.844290469043159], [0.09396043467845115], [-1.754307424343501], [-1.8847387806260711], [-1.5037263416903883], [0.9768787502431788], [0.7145722679185513], [1.5896059467396608]]}}, "fingerprints_range": {"Cu": [[0.0, 30.80216816946124], [0.0, 21.107715476229174], [0.0, 17.484290395410294], [0.0, 12.337890561734708], [0.0, 10.890146255978296], [0.0, 7.8762065126559815], [0.0, 5.204830005858291], [0.0, 3.8384169191962156], [0.0, 1.0822029998103229], [0.0, 0.7702142399843445], [0.0, 0.11672821813605691], [0.0, 0.09579851951537856], [0.0, 0.0016620228859608299], [0.0, 0.0014999082499671163], [-2.903634418643349e-17, 2753.967158376269], [0.0, 1339.0774553779588], [0.0, 1219.2135050010959], [0.0, 1969.1638860151352], [0.0, 933.9576344679633], [0.0, 890.6147634923126], [0.0, 2037.9504191669928], [0.0, 999.1121607682313], [0.0, 895.7686385654737], [0.0, 1253.1471468059065], [0.0, 593.9923398582351], [0.0, 567.1698970566891], [0.0, 1396.4850770342705], [0.0, 694.3948342368042], [0.0, 606.8013791049098], [0.0, 736.8377080388007], [0.0, 348.9904146530375], [0.0, 333.4019139572645]], "Pd": [[0.0, 24.8400310718317], [0.0, 23.80998849005955], [0.0, 14.474024824677544], [0.0, 13.53970742462996], [0.0, 9.279759042906964], [0.0, 8.380887593342328], [0.0, 4.621782142076165], [0.0, 3.9013328509929], [0.0, 0.9638689065495792], [0.0, 0.7254885658534357], [0.0, 0.09688617543634871], [0.0, 0.06459500411004933], [0.0, 0.0014999082499671157], [0.0, 0.0005969806159118931], [-2.6171500434006593e-17, 1778.0113970967157], [0.0, 1339.0774553779634], [-5.540189831791549e-17, 1609.8718092115669], [0.0, 1282.3086028451698], [0.0, 933.9576344679631], [0.0, 1155.1585128594002], [0.0, 1312.249733255385], [0.0, 999.1121607682309], [0.0, 1189.5611400731427], [0.0, 816.5469390038353], [0.0, 593.9923398582329], [0.0, 734.8478437209878], [0.0, 895.5277923005882], [0.0, 694.3948342368044], [0.0, 812.5636028169727], [0.0, 480.2246777464244], [0.0, 348.9904146530362], [0.0, 432.15164930503533]]}, "fingerprints_tag": 1, "scalings": {"Cu": {"intercept": 0.2553800237502637, "slope": 5.0452245515193166}, "Pd": {"intercept": -1.3487955573065571, "slope": 6.427780413670459}}}