{"cutoff": 6.5, "Gs": {"Pd": [{"eta": 0.05, "type": "G2", "element": "Cu"}, {"eta": 0.05, "type": "G2", "element": "Pd"}, {"eta": 4.0, "type": "G2", "element": "Cu"}, {"eta": 4.0, "type": "G2", "element": "Pd"}, {"eta": 20.0, "type": "G2", "element": "Cu"}, {"eta": 20.0, "type": "G2", "element": "Pd"}, {"eta": 80.0, "type": "G2", "element": "Cu"}, {"eta": 80.0, "type": "G2", "element": "Pd"}, {"zeta": 1.0, "elements": ["Cu", "Cu"], "type": "G4", "gamma": 1.0, "eta": 0.005}, {"zeta": 1.0, "elements": ["Cu", "Pd"], "type": "G4", "gamma": 1.0, "eta": 0.005}, {"zeta": 1.0, "elements": ["Pd", "Pd"], "type": "G4", "gamma": 1.0, "eta": 0.005}, {"zeta": 1.0, "elements": ["Cu", "Cu"], "type": "G4", "gamma": -1.0, "eta": 0.005}, {"zeta": 1.0, "elements": ["Cu", "Pd"], "type": "G4", "gamma": -1.0, "eta": 0.005}, {"zeta": 1.0, "elements": ["Pd", "Pd"], "type": "G4", "gamma": -1.0, "eta": 0.005}, {"zeta": 4.0, "elements": ["Cu", "Cu"], "type": "G4", "gamma": 1.0, "eta": 0.005}, {"zeta": 4.0, "elements": ["Cu", "Pd"], "type": "G4", "gamma": 1.0, "eta": 0.005}, {"zeta": 4.0, "elements": ["Pd", "Pd"], "type": "G4", "gamma": 1.0, "eta": 0.005}, {"zeta": 4.0, "elements": ["Cu", "Cu"], "type": "G4", "gamma": -1.0, "eta": 0.005}, {"zeta": 4.0, "elements": ["Cu", "Pd"], "type": "G4", "gamma": -1.0, "eta": 0.005}, {"zeta": 4.0, "elements": ["Pd", "Pd"], "type": "G4", "gamma": -1.0, "eta": 0.005}], "Cu": [{"eta": 0.05, "type": "G2", "element": "Cu"}, {"eta": 0.05, "type": "G2", "element": "Pd"}, {"eta": 4.0, "type": "G2", "element": "Cu"}, {"eta": 4.0, "type": "G2", "element": "Pd"}, {"eta": 20.0, "type": "G2", "element": "Cu"}, {"eta": 20.0, "type": "G2", "element": "Pd"}, {"eta": 80.0, "type": "G2", "element": "Cu"}, {"eta": 80.0, "type": "G2", "element": "Pd"}, {"zeta": 1.0, "elements": ["Cu", "Cu"], "type": "G4", "gamma": 1.0, "eta": 0.005}, {"zeta": 1.0, "elements": ["Cu", "Pd"], "type": "G4", "gamma": 1.0, "eta": 0.005}, {"zeta": 1.0, "elements": ["Pd", "Pd"], "type": "G4", "gamma": 1.0, "eta": 0.005}, {"zeta": 1.0, "elements": ["Cu", "Cu"], "type": "G4", "gamma": -1.0, "eta": 0.005}, {"zeta": 1.0, "elements": ["Cu", "Pd"], "type": "G4", "gamma": -1.0, "eta": 0.005}, {"zeta": 1.0, "elements": ["Pd", "Pd"], "type": "G4", "gamma": -1.0, "eta": 0.005}, {"zeta": 4.0, "elements": ["Cu", "Cu"], "type": "G4", "gamma": 1.0, "eta": 0.005}, {"zeta": 4.0, "elements": ["Cu", "Pd"], "type": "G4", "gamma": 1.0, "eta": 0.005}, {"zeta": 4.0, "elements": ["Pd", "Pd"], "type": "G4", "gamma": 1.0, "eta": 0.005}, {"zeta": 4.0, "elements": ["Cu", "Cu"], "type": "G4", "gamma": -1.0, "eta": 0.005}, {"zeta": 4.0, "elements": ["Cu", "Pd"], "type": "G4", "gamma": -1.0, "eta": 0.005}, {"zeta": 4.0, "elements": ["Pd", "Pd"], "type": "G4", "gamma": -1.0, "eta": 0.005}]}, "activation": "tanh", "hiddenlayers": {"Pd": [2, 35], "Cu": [2, 35]}, "weights": {"Cu": {"1": [[0.009950864355552355, 0.046837198930261864], [-0.013607194591366903, -0.011575886334746655], [0.05870138999159215, -0.05810247459765898], [-0.07051629131077417, 0.03325367003934382], [0.06436350583710125, 0.023616310192721743], [-0.03347410054208839, 0.0513731874366755], [0.065291994996947, -0.025306947186453606], [0.028354562359427696, -0.012198731478972005], [0.06702072356342074, 0.05812791948689976], [0.024128594712041804, -0.06284824664422761], [-0.06084845205424593, 0.012233917746270431], [-0.03567863985279483, -0.044386800077040794], [-0.06511558529981823, 0.0319371308376782], [-0.028220962794721006, -0.05405091603998714], [-0.019985798878540496, -0.07321277186646946], [-0.002310866739319406, 0.05230283388955108], [0.06433541647768411, -0.006260406374204636], [-0.050593721014530454, -0.002357733887467267], [-0.07018419258780932, -0.01131541829997651], [-0.026400980615737132, -0.0009286381974221575], [0.0, 0.0]], "2": [[-0.019798067937327635, 0.462654775455422, 0.2652859815374218, 0.12659178603161303, -0.22765658533410693, -0.448399964867484, 0.18964386026386348, -0.4978670911238415, -0.3643257602740064, -0.45109431972241815, 0.7102507724207339, 0.26761214143327217, 0.250961123479021, -0.011791939830986142, -0.6534123786195649, -0.7290303750065357, 0.6443980335735988, 0.6705635570032213, 0.2761612155992972, -0.614909550939559, 0.18259737510277052, 0.4833639984224465, -0.3927676816471761, 0.7121451648119188, 0.18217883480877006, -0.0912653926975775, 0.5873238628542266, 0.029330797593559943, -0.4157431399526748, 0.6354600106166255, -0.12062753990307407, -0.05334727115218607, -0.588480298453447, 0.519053590371372, 0.549386390880469], [0.6256033981600728, 0.18925621438490847, 0.5116117099593209, -0.7309770275043022, -0.5649448630830436, -0.5197297503849873, 0.16004088831334018, -0.03203448872858716, 0.2050836440030468, 0.022397368268548767, -0.09844170944252861, 0.667358510260627, 0.4933038756986192, 0.3711223701985411, 0.07699721062383591, -0.6815248520598859, 0.3648865608523595, -0.30632520722190687, 0.2530316113805071, -0.06139442965244424, 0.5737018457317329, -0.40974162827442256, 0.5778171102970513, 0.6079269715254698, -0.6109465506994136, -0.531578038245666, 0.39042151229192434, -0.6510835104088539, -0.546383428894579, -0.4923723487247877, -0.5831328832998435, -0.18354499596523122, -0.07189155252246149, -0.5236800037065296, 0.18057442898311782], [0.0, 0.0, 0.0, 0.0, 0.0, 0.0, 0.0, 0.0, 0.0, 0.0, 0.0, 0.0, 0.0, 0.0, 0.0, 0.0, 0.0, 0.0, 0.0, 0.0, 0.0, 0.0, 0.0, 0.0, 0.0, 0.0, 0.0, 0.0, 0.0, 0.0, 0.0, 0.0, 0.0, 0.0, 0.0]], "3": [[-0.015913038182792823], [0.0032045619809696266], [-0.04025751274251128], [0.0328271322311412], [-0.041894645442624036], [0.0067996918617086455], [0.017785086490471107], [0.017599238552690105], [0.01701497056379009], [0.03726527702260632], [0.0054767683280069965], [-0.025309514261935003], [0.015620610421065662], [0.011902347696920175], [-0.02268442090829206], [-0.0033678564131934055], [-0.0037512301728851657], [-0.032109109695061686], [-0.03518089788136692], [-0.007362311329118042], [0.03877007296432507], [0.023430337259733577], [-0.004772589650505664], [0.02162103559257171], [-0.022071284806567372], [-0.04138696463097198], [0.02794077467351941], [0.020403372313196208], [0.02952240792532461], [0.03752661798823881], [0.03600536258224869], [0.014439620889958066], [-0.019775751835322767], [-0.031156103193992233], [0.03925725607189885], [0.0]]}, "Pd": {"1": [[-0.03451906718024617, -0.018175973302643797], [-0.0001936434909835666, 0.0054708067408856115], [-0.020860006779057014, 0.006441466153064929], [0.07016140539747877, -0.07381888606316368], [0.025799918407681033, 0.06571063457355884], [0.009929973902264785, 0.0005825334167270102], [-0.03672525864823613, -0.031026124404734685], [-0.015047466026243586, -0.034919272011870256], [0.07173568349682884, -0.0523603208253091], [0.02592274047442336, -0.004754948856702662], [0.06553032792729675, -0.021739742467461527], [0.04526930237539471, -0.0316234461307411], [-0.041582449338535374, 0.07446883541820924], [-0.05933116683090869, 0.04670123460905111], [-0.03997432374498725, -0.0452919913863869], [-0.022369219618419207, -0.04881855268977278], [0.025254898140381482, 0.005849976841832083], [0.002750411360658303, 0.06536394472444985], [-0.05196263617099035, 0.023380959589064484], [0.019732835685192435, 0.02186202635793616], [0.0, 0.0]], "2": [[0.056704269754397574, 0.6653044359820006, -0.7470377649838338, -0.2965474330402129, 0.4366446925703489, -0.6265854593124449, 0.1534002379172147, 0.5242075488546358, 0.7275016290458742, -0.20922184636278374, -0.10103729926134397, -0.11837718586687396, -0.7351053565349757, 0.5102638128640642, -0.6035620812630584, 0.518597482511375, -0.23670308698719955, 0.696028732484608, -0.3650318937636572, 0.5772896762217798, -0.5278245999979861, -0.6510213492449026, 0.5966683899957457, 0.2989809994615942, 0.6603192651143108, -0.06229058949515065, 0.5302636269998033, -0.36810249638009407, -0.34446431271592914, 0.34775746968386656, 0.22547379254198385, -0.3186117511385511, 0.4851550596181111, -0.10845865442166192, -0.6366429853530831], [-0.4536400927339446, 0.6433643989705651, -0.29877611910633983, 0.41715714948434024, -0.7001068051151589, 0.43344977945125485, 0.6689226646872841, 0.010827184617168362, -0.1630136483300404, 0.0009420558720111272, -0.36444592276049614, 0.3838194510503228, 0.6139815414722607, 0.20121929260445626, 0.1034684599394643, -0.4237850072671852, 0.10065269049415249, -0.399783552946269, -0.4153610820087607, 0.16082941100864245, 0.5177494912365801, 0.484832528761149, -0.43262636107647534, -0.5386159243107238, -0.09445002093579635, -0.5166572348057759, 0.3665005886714252, -0.09418813127360548, 0.2444824630276804, 0.06051303145418485, 0.62935381010193, -0.44623571465299, 0.4745907404981109, -0.4125275819534947, 0.09256675620749], [0.0, 0.0, 0.0, 0.0, 0.0, 0.0, 0.0, 0.0, 0.0, 0.0, 0.0, 0.0, 0.0, 0.0, 0.0, 0.0, 0.0, 0.0, 0.0, 0.0, 0.0, 0.0, 0.0, 0.0, 0.0, 0.0, 0.0, 0.0, 0.0, 0.0, 0.0, 0.0, 0.0, 0.0, 0.0]], "3": [[0.0028253110639526804], [-0.024873756665460302], [-0.037436281242666306], [-0.0013098864737283583], [-0.010327479835763327], [-0.01008764687411956], [-0.03217443158494639], [0.009819812722116128], [-0.0305309453722615], [-0.030271483351621588], [0.0025700951085357374], [-0.03838325368223863], [0.01092701620169876], [0.005112611115525245], [0.016223678970945336], [0.008478319437578277], [-0.03452510701677268], [-0.011267670757747053], [0.036893064281960514], [0.02980704409563316], [-0.02146917593416126], [-0.009504868015185033], [0.00967441048494315], [-0.03760091920841416], [-0.03215711296781989], [-0.02074432505080055], [-0.01425483636013897], [0.03770870602541407], [-0.012886657664544443], [0.030894454561924606], [-0.03269272586688668], [0.026370398835939335], [0.018393003875132742], [0.0023893583512797634], [-0.019270618040293973], [0.0]]}}, "fingerprints_range": {"Cu": [[0.0, 19.717528184980367], [0.0, 12.954617486692312], [0.0, 6.763827902345048], [0.0, 4.714947330374815], [0.0, 0.4690986508436296], [0.0, 0.3591942437989357], [0.0, 8.091157146993111e-05], [0.0, 6.70824590060896e-05], [0.0, 801.3693395965696], [0.0, 185.39781543928953], [0.0, 380.6581764033588], [0.0, 607.2663840318448], [0.0, 231.76903839707245], [0.0, 221.42076155225536], [0.0, 382.67810433385426], [0.0, 75.1704048127164], [0.0, 198.3503394287148], [0.0, 226.15041328755734], [0.0, 104.68820018085577], [0.0, 69.90910953322468]], "Pd": [[0.0, 12.8624897130153], [0.0, 18.849230862512158], [0.0, 4.565811427008994], [0.0, 6.436073106044743], [0.0, 0.31261700513528473], [0.0, 0.42485844093709624], [0.0, 5.453323564168128e-05], [0.0, 5.963922275121878e-05], [0.0, 387.63611918126753], [0.0, 201.06082384923803], [0.0, 768.9373797173059], [0.0, 216.01123836799178], [0.0, 234.91303084909833], [0.0, 579.7588665624862], [0.0, 204.69128069561307], [0.0, 81.20809618623912], [0.0, 368.92772219112385], [0.0, 65.71501674010052], [0.0, 106.06324624063065], [0.0, 215.963130891552]]}, "fingerprints_tag": 1, "scalings": {"Pd": {"slope": 1.0564404855714289, "intercept": -4.603714649857143}, "Cu": {"slope": 1.0564404855714289, "intercept": -4.603714649857143}}}