{"cutoff": 6.5, "Gs": {"Pd": [{"eta": 0.05, "type": "G2", "element": "Cu"}, {"eta": 0.05, "type": "G2", "element": "Pd"}, {"eta": 4.0, "type": "G2", "element": "Cu"}, {"eta": 4.0, "type": "G2", "element": "Pd"}, {"eta": 20.0, "type": "G2", "element": "Cu"}, {"eta": 20.0, "type": "G2", "element": "Pd"}, {"eta": 80.0, "type": "G2", "element": "Cu"}, {"eta": 80.0, "type": "G2", "element": "Pd"}, {"zeta": 1.0, "elements": ["Cu", "Cu"], "type": "G4", "gamma": 1.0, "eta": 0.005}, {"zeta": 1.0, "elements": ["Cu", "Pd"], "type": "G4", "gamma": 1.0, "eta": 0.005}, {"zeta": 1.0, "elements": ["Pd", "Pd"], "type": "G4", "gamma": 1.0, "eta": 0.005}, {"zeta": 1.0, "elements": ["Cu", "Cu"], "type": "G4", "gamma": -1.0, "eta": 0.005}, {"zeta": 1.0, "elements": ["Cu", "Pd"], "type": "G4", "gamma": -1.0, "eta": 0.005}, {"zeta": 1.0, "elements": ["Pd", "Pd"], "type": "G4", "gamma": -1.0, "eta": 0.005}, {"zeta": 4.0, "elements": ["Cu", "Cu"], "type": "G4", "gamma": 1.0, "eta": 0.005}, {"zeta": 4.0, "elements": ["Cu", "Pd"], "type": "G4", "gamma": 1.0, "eta": 0.005}, {"zeta": 4.0, "elements": ["Pd", "Pd"], "type": "G4", "gamma": 1.0, "eta": 0.005}, {"zeta": 4.0, "elements": ["Cu", "Cu"], "type": "G4", "gamma": -1.0, "eta": 0.005}, {"zeta": 4.0, "elements": ["Cu", "Pd"], "type": "G4", "gamma": -1.0, "eta": 0.005}, {"zeta": 4.0, "elements": ["Pd", "Pd"], "type": "G4", "gamma": -1.0, "eta": 0.005}], "Cu": [{"eta": 0.05, "type": "G2", "element": "Cu"}, {"eta": 0.05, "type": "G2", "element": "Pd"}, {"eta": 4.0, "type": "G2", "element": "Cu"}, {"eta": 4.0, "type": "G2", "element": "Pd"}, {"eta": 20.0, "type": "G2", "element": "Cu"}, {"eta": 20.0, "type": "G2", "element": "Pd"}, {"eta": 80.0, "type": "G2", "element": "Cu"}, {"eta": 80.0, "type": "G2", "element": "Pd"}, {"zeta": 1.0, "elements": ["Cu", "Cu"], "type": "G4", "gamma": 1.0, "eta": 0.005}, {"zeta": 1.0, "elements": ["Cu", "Pd"], "type": "G4", "gamma": 1.0, "eta": 0.005}, {"zeta": 1.0, "elements": ["Pd", "Pd"], "type": "G4", "gamma": 1.0, "eta": 0.005}, {"zeta": 1.0, "elements": ["Cu", "Cu"], "type": "G4", "gamma": -1.0, "eta": 0.005}, {"zeta": 1.0, "elements": ["Cu", "Pd"], "type": "G4", "gamma": -1.0, "eta": 0.005}, {"zeta": 1.0, "elements": ["Pd", "Pd"], "type": "G4", "gamma": -1.0, "eta": 0.005}, {"zeta": 4.0, "elements": ["Cu", "Cu"], "type": "G4", "gamma": 1.0, "eta": 0.005}, {"zeta": 4.0, "elements": ["Cu", "Pd"], "type": "G4", "gamma": 1.0, "eta": 0.005}, {"zeta": 4.0, "elements": ["Pd", "Pd"], "type": "G4", "gamma": 1.0, "eta": 0.005}, {"zeta": 4.0, "elements": ["Cu", "Cu"], "type": "G4", "gamma": -1.0, "eta": 0.005}, {"zeta": 4.0, "elements": ["Cu", "Pd"], "type": "G4", "gamma": -1.0, "eta": 0.005}, {"zeta": 4.0, "elements": ["Pd", "Pd"], "type": "G4", "gamma": -1.0, "eta": 0.005}]}, "activation": "tanh", "hiddenlayers": {"Pd": [2, 35], "Cu": [2, 35]}, "weights": {"Cu": {"1": [[1.4054904913005137, -2.7446025768595104], [-1.4614381660830096, -2.730347406530365], [-2.8508618003400583, 1.0531575448196946], [-1.7685293262516428, 1.463593487870845], [1.2944499721207117, -0.4118427037380056], [1.4175783167177949, -0.7560528397746922], [-0.5124187055039046, 0.16998474057341093], [-1.10581295777256, 0.40163008243183385], [16.531883141210074, 26.515709659160066], [3.8206224779949207, 6.028089606082051], [2.102677957384513, 11.752515365290362], [-9.517153439235328, -22.212567018119408], [4.217935302895087, -9.762732227043896], [15.540461880273147, -10.742247138720183], [-10.105717487261776, -14.257226924288325], [-2.525685474875219, -2.662860191493781], [-5.160155167624205, -6.526489676842235], [3.380263881556975, 10.13053867007256], [-5.1682327571752, 6.121314258742068], [-9.076828024613635, 5.399057454808643], [0.010187213350146834, -1.3396053024248658]], "2": [[-1.6151770928721516, 3.6183968002332016, 0.6949937706001301, 5.582082045487824, -3.9627325367583768, 0.47482694903768685, 3.3907114181982836, -1.8216880019020838, 1.1233596094857619, -1.5194195890901514, 8.698848193954927, 0.7219094307706129, -5.809544591491414, -1.0648837264086481, -4.236902015449337, 5.698089185755392, -2.0694526931152466, 2.2637333085233857, -1.7629083538247547, -1.8251217597164109, -1.405680916867029, 4.086141094927422, -0.6936267354607856, 2.4981450789116355, 3.2010792246824726, -1.695206536001104, -3.794614566186526, 0.639377428494961, 1.0381603357320544, 0.16153780309326476, 3.729264253129679, 2.546127097998133, -0.6887914719711937, 1.7921653110926201, 4.0243412197222606], [3.1563073928975807, -1.5958583066821395, -1.1453206751678893, 4.208027067134858, 2.0830144571001044, -1.6062861568413682, 5.148699980127371, -2.2999121225268566, 10.830703086784345, -1.731059412050175, 7.819335976512811, 0.9531741802828786, -1.905522836504781, 1.4068708040485616, -2.1746933705917364, -2.564758200513971, -2.184089319064511, 0.868924095291326, -2.8694605937957363, 1.6896725911470842, 0.17720398727664116, 3.671519993923441, -0.3528860570128185, 3.328439466654991, 3.568304487125654, -3.3131547122476888, 2.463389405716031, 2.192988239339128, -2.4345756947580672, 4.878261167964468, 3.83874193955766, 1.975332774791594, 2.9100635788777645, 1.666911813463956, 4.793378993498863], [2.2002999718664595, 3.353377452424745, -1.1854972894086284, -1.8314321836178358, -3.6291801091407887, -1.2187812520021628, -1.3291743088217465, -0.5454231784802884, -6.808132855048734, 0.00506741702593996, 1.2747346353208395, 0.6947010964837855, -1.264573357993064, 2.6616250948886604, -0.782309528706035, 6.5740465226805345, 1.0017605041342619, -6.473035099741408, 0.6216271304128071, 1.8269018700435502, 1.3374010855820904, 2.1254357300566236, -0.33137968766601644, 0.7323870080862622, 0.7037769193362431, 1.3919747530154274, -3.527495984572777, 0.11430864699878923, -0.6328222868772362, 4.925043129681894, -2.50811649747887, 0.3965923197619701, 2.39821281886075, -3.7369734269421238, 0.7100081330791067]], "3": [[0.8502748581682775], [1.935402022827384], [8.058385614439054], [-0.47929944688808546], [5.051051543314305], [-2.205968427816494], [0.16410546645315963], [1.3105636970476437], [-0.06422126695032358], [-2.0514416472513717], [0.13510886279520817], [-5.013155012147984], [0.7141922183525434], [4.702750353730217], [-1.3327421139149729], [-0.20503746194315187], [-1.1837328830221405], [-2.8254432440771593], [1.6232741329062994], [-0.5194575963953568], [-2.0142219710613936], [1.2168413197294696], [-4.308129654806886], [-2.4410491082140178], [1.2861466807102242], [-1.402711817655175], [-3.378762291249799], [3.166276786643198], [-0.9458323087421738], [-2.370433655100824], [-3.12898586250785], [-3.393406887572966], [2.138620007831025], [-0.9428580852201314], [0.6236538828170823], [-3.6363019493144115]]}, "Pd": {"1": [[-2.3340474240408686, -0.5448283369443375], [-2.7332633617650757, -2.788232750612235], [1.5559772447753004, 0.9568429362713895], [0.08774358112380419, 2.4154861005707384], [-0.31173016218318356, -0.3988148129028158], [0.044397724154992775, -1.4960411528146198], [-0.10242062169303207, 0.16618422050648882], [0.0425874669996611, 1.5397711530364129], [-17.218216072094158, 17.611170993500185], [4.769008744862314, 5.152519455052317], [3.689396934973199, 8.49785704269738], [18.022742053312314, -8.431575455643463], [-7.68568354092956, -4.726623098478532], [-0.9277619954932246, -9.03624223875362], [11.376825442302499, -10.82038973918706], [-1.4380253465467858, -2.4449115234052132], [-0.008648288987943707, -4.102314748421123], [-0.12272035829878217, 1.120278929834419], [4.562769428598752, 1.6450473654287987], [-0.6627260908353726, 5.265864359918012], [11.422705038966548, 1.3222722094553112]], "2": [[-4.592476072199415, 2.149858641871714, -1.626229872641915, 0.030541293560118907, -13.682915534481713, 2.932990931053619, -2.581229793160402, 0.25729098759168656, -0.9472068767717624, -5.970237989346887, -1.405286858981545, -6.727901770889715, 8.317023825230118, -2.6271683897971405, 0.4412679563896278, 3.5186027544861695, 1.0418891812707094, -1.7448298972328324, 22.38698688672573, -17.055365184430634, 0.7086368218965639, 0.48913281931713676, -2.4720125719257138, -4.555151043412534, 6.0536294240834, -12.116175166274811, -0.2725656647843502, -3.5700831839754645, 3.104612988551899, -0.9934530263787837, 2.3838369892295876, -13.195073009122094, -0.5192262804615811, -1.4368280040424164, 7.585470857971439], [-7.254025766321021, -0.23348196598841295, 3.0204786864781266, 0.9832599637448397, -8.102815557761874, -6.810832809631178, -6.202303814590405, -0.8889193374288262, 3.2665390104145455, 10.076288365004105, -5.263060195144178, 3.076148873100102, 17.198481012253318, -0.15319040120228689, -1.4370588918996143, -2.4528329041279657, -1.5033642182264855, -5.831862530788859, -0.2762643931592037, 9.559237708981914, 0.7038612981188598, 3.4582733943395545, -3.777238629824742, -1.9879244151358462, 1.0488718430741362, -7.961215433462622, -14.072531628196263, 1.1731882598923462, -6.860279673622354, 1.8391769168591015, 2.808461755773844, -4.355650334553006, -3.11210028653812, -0.262566590434327, 2.6980364977954316], [3.8477012539487134, -8.210506576230422, 0.4531701056516587, -0.4539941416943349, 5.642493094402807, 5.414214766156165, 3.6446083452117306, -0.9434026069666823, -0.641360425275281, -12.957204229438549, 7.857383996980738, -1.7433520220428755, -12.840649885041021, 1.7022849601091183, 2.9653415103308443, -1.4032753867073944, -0.5101730958135597, 7.081450218831729, 1.2558663705952993, -6.67655966262362, 6.569837498028292, -2.4259605261539425, -0.5582916414217526, -1.4651494146709432, 3.856405668504921, 5.68470991546225, 15.58551437039895, 0.9179025628155596, 5.435123537472307, 0.12674727928565277, -0.701910981423798, 4.191699403506162, 2.6823128298234096, -0.8257743997054605, -2.3685868823523735]], "3": [[2.4560171794208614], [1.6964224009352422], [1.1019280718320636], [-0.8398648466311595], [-1.2633545764918788], [2.87060594639344], [-2.936607616778154], [2.450945823214042], [3.275824298137949], [0.07263762228758569], [0.39390972807849717], [0.35910600973575885], [-0.09675475405916063], [-1.6770347898193851], [-4.484810751054655], [-1.5445622756030024], [-0.5050635000050518], [-0.22764817290210407], [-0.0820580632812953], [-0.08736561091476075], [6.013157812953216], [0.09426704165975672], [-6.215990490542922], [5.062913049819056], [4.20127288583191], [1.299871538514471], [-1.2994399697439698], [2.0359547337691306], [-2.683937336700243], [-9.114675903821148], [1.5646068444752808], [-0.8612714668395294], [-0.7736335387120786], [-2.123714927064255], [-1.4696835777232553], [-4.8927164958109515]]}}, "fingerprints_range": {"Cu": [[0.0, 19.717528184980367], [0.0, 12.954617486692312], [0.0, 6.763827902345048], [0.0, 4.714947330374815], [0.0, 0.4690986508436296], [0.0, 0.3591942437989357], [0.0, 8.091157146993111e-05], [0.0, 6.70824590060896e-05], [0.0, 801.3693395965696], [0.0, 185.39781543928953], [0.0, 380.6581764033588], [0.0, 607.2663840318448], [0.0, 231.76903839707245], [0.0, 221.42076155225536], [0.0, 382.67810433385426], [0.0, 75.1704048127164], [0.0, 198.3503394287148], [0.0, 226.15041328755734], [0.0, 104.68820018085577], [0.0, 69.90910953322468]], "Pd": [[0.0, 12.8624897130153], [0.0, 18.849230862512158], [0.0, 4.565811427008994], [0.0, 6.436073106044743], [0.0, 0.31261700513528473], [0.0, 0.42485844093709624], [0.0, 5.453323564168128e-05], [0.0, 5.963922275121878e-05], [0.0, 387.63611918126753], [0.0, 201.06082384923803], [0.0, 768.9373797173059], [0.0, 216.01123836799178], [0.0, 234.91303084909833], [0.0, 579.7588665624862], [0.0, 204.69128069561307], [0.0, 81.20809618623912], [0.0, 368.92772219112385], [0.0, 65.71501674010052], [0.0, 106.06324624063065], [0.0, 215.963130891552]]}, "fingerprints_tag": 1, "scalings": {"Cu": {"intercept": -1.0467715539997349, "slope": 3.7238481274953048}, "Pd": {"intercept": 0.023048257047716951, "slope": 5.8225698697790529}}}