{"cutoff": 6.5, "Gs": {"Pd": [{"eta": 0.05, "type": "G2", "element": "Cu"}, {"eta": 0.05, "type": "G2", "element": "Pd"}, {"eta": 2.0, "type": "G2", "element": "Cu"}, {"eta": 2.0, "type": "G2", "element": "Pd"}, {"eta": 4.0, "type": "G2", "element": "Cu"}, {"eta": 4.0, "type": "G2", "element": "Pd"}, {"eta": 8.0, "type": "G2", "element": "Cu"}, {"eta": 8.0, "type": "G2", "element": "Pd"}, {"eta": 20.0, "type": "G2", "element": "Cu"}, {"eta": 20.0, "type": "G2", "element": "Pd"}, {"eta": 40.0, "type": "G2", "element": "Cu"}, {"eta": 40.0, "type": "G2", "element": "Pd"}, {"eta": 80.0, "type": "G2", "element": "Cu"}, {"eta": 80.0, "type": "G2", "element": "Pd"}, {"zeta": 1.0, "elements": ["Cu", "Cu"], "type": "G4", "gamma": 1.0, "eta": 0.005}, {"zeta": 1.0, "elements": ["Cu", "Pd"], "type": "G4", "gamma": 1.0, "eta": 0.005}, {"zeta": 1.0, "elements": ["Pd", "Pd"], "type": "G4", "gamma": 1.0, "eta": 0.005}, {"zeta": 1.0, "elements": ["Cu", "Cu"], "type": "G4", "gamma": -1.0, "eta": 0.005}, {"zeta": 1.0, "elements": ["Cu", "Pd"], "type": "G4", "gamma": -1.0, "eta": 0.005}, {"zeta": 1.0, "elements": ["Pd", "Pd"], "type": "G4", "gamma": -1.0, "eta": 0.005}, {"zeta": 2.0, "elements": ["Cu", "Cu"], "type": "G4", "gamma": 1.0, "eta": 0.005}, {"zeta": 2.0, "elements": ["Cu", "Pd"], "type": "G4", "gamma": 1.0, "eta": 0.005}, {"zeta": 2.0, "elements": ["Pd", "Pd"], "type": "G4", "gamma": 1.0, "eta": 0.005}, {"zeta": 2.0, "elements": ["Cu", "Cu"], "type": "G4", "gamma": -1.0, "eta": 0.005}, {"zeta": 2.0, "elements": ["Cu", "Pd"], "type": "G4", "gamma": -1.0, "eta": 0.005}, {"zeta": 2.0, "elements": ["Pd", "Pd"], "type": "G4", "gamma": -1.0, "eta": 0.005}, {"zeta": 4.0, "elements": ["Cu", "Cu"], "type": "G4", "gamma": 1.0, "eta": 0.005}, {"zeta": 4.0, "elements": ["Cu", "Pd"], "type": "G4", "gamma": 1.0, "eta": 0.005}, {"zeta": 4.0, "elements": ["Pd", "Pd"], "type": "G4", "gamma": 1.0, "eta": 0.005}, {"zeta": 4.0, "elements": ["Cu", "Cu"], "type": "G4", "gamma": -1.0, "eta": 0.005}, {"zeta": 4.0, "elements": ["Cu", "Pd"], "type": "G4", "gamma": -1.0, "eta": 0.005}, {"zeta": 4.0, "elements": ["Pd", "Pd"], "type": "G4", "gamma": -1.0, "eta": 0.005}], "Cu": [{"eta": 0.05, "type": "G2", "element": "Cu"}, {"eta": 0.05, "type": "G2", "element": "Pd"}, {"eta": 2.0, "type": "G2", "element": "Cu"}, {"eta": 2.0, "type": "G2", "element": "Pd"}, {"eta": 4.0, "type": "G2", "element": "Cu"}, {"eta": 4.0, "type": "G2", "element": "Pd"}, {"eta": 8.0, "type": "G2", "element": "Cu"}, {"eta": 8.0, "type": "G2", "element": "Pd"}, {"eta": 20.0, "type": "G2", "element": "Cu"}, {"eta": 20.0, "type": "G2", "element": "Pd"}, {"eta": 40.0, "type": "G2", "element": "Cu"}, {"eta": 40.0, "type": "G2", "element": "Pd"}, {"eta": 80.0, "type": "G2", "element": "Cu"}, {"eta": 80.0, "type": "G2", "element": "Pd"}, {"zeta": 1.0, "elements": ["Cu", "Cu"], "type": "G4", "gamma": 1.0, "eta": 0.005}, {"zeta": 1.0, "elements": ["Cu", "Pd"], "type": "G4", "gamma": 1.0, "eta": 0.005}, {"zeta": 1.0, "elements": ["Pd", "Pd"], "type": "G4", "gamma": 1.0, "eta": 0.005}, {"zeta": 1.0, "elements": ["Cu", "Cu"], "type": "G4", "gamma": -1.0, "eta": 0.005}, {"zeta": 1.0, "elements": ["Cu", "Pd"], "type": "G4", "gamma": -1.0, "eta": 0.005}, {"zeta": 1.0, "elements": ["Pd", "Pd"], "type": "G4", "gamma": -1.0, "eta": 0.005}, {"zeta": 2.0, "elements": ["Cu", "Cu"], "type": "G4", "gamma": 1.0, "eta": 0.005}, {"zeta": 2.0, "elements": ["Cu", "Pd"], "type": "G4", "gamma": 1.0, "eta": 0.005}, {"zeta": 2.0, "elements": ["Pd", "Pd"], "type": "G4", "gamma": 1.0, "eta": 0.005}, {"zeta": 2.0, "elements": ["Cu", "Cu"], "type": "G4", "gamma": -1.0, "eta": 0.005}, {"zeta": 2.0, "elements": ["Cu", "Pd"], "type": "G4", "gamma": -1.0, "eta": 0.005}, {"zeta": 2.0, "elements": ["Pd", "Pd"], "type": "G4", "gamma": -1.0, "eta": 0.005}, {"zeta": 4.0, "elements": ["Cu", "Cu"], "type": "G4", "gamma": 1.0, "eta": 0.005}, {"zeta": 4.0, "elements": ["Cu", "Pd"], "type": "G4", "gamma": 1.0, "eta": 0.005}, {"zeta": 4.0, "elements": ["Pd", "Pd"], "type": "G4", "gamma": 1.0, "eta": 0.005}, {"zeta": 4.0, "elements": ["Cu", "Cu"], "type": "G4", "gamma": -1.0, "eta": 0.005}, {"zeta": 4.0, "elements": ["Cu", "Pd"], "type": "G4", "gamma": -1.0, "eta": 0.005}, {"zeta": 4.0, "elements": ["Pd", "Pd"], "type": "G4", "gamma": -1.0, "eta": 0.005}]}, "activation": "tanh", "hiddenlayers": {"Pd": [2, 20], "Cu": [2, 20]}, "weights": {"Cu": {"1": [[0.009197463890570481, -0.0197785806137389], [-0.004289536965735849, -0.010401198677360154], [-0.008576428456845468, -0.04388302437325757], [-0.03887154340965841, -0.009532410989096865], [-0.028889155922757554, -0.039005892215966134], [-0.02827909616180259, -0.04657694902955571], [0.030817419964809203, -0.02971395991560131], [0.011098929008000455, -0.00443440122493001], [0.03906102679386084, 0.03246404908339126], [0.027632539584111965, 0.03263302324976011], [-0.02516082817514483, 0.02513187760506508], [-0.010931904397132569, -0.028745449594071416], [-0.03768185036831168, 0.011325265167339449], [-0.013899082569734156, 0.015758404827114894], [0.03873453206497425, -0.03813022330677438], [0.015422451924800143, 0.013477805302664694], [-0.016735990411024103, -0.0029142989718096146], [-0.01608204432338952, 0.008071533632205113], [-0.035285885958448004, 0.04470228813126062], [-0.03572881167843056, 0.03456416214838019], [-0.030228684864873432, 0.0037723162941292188], [0.002935482573585918, 0.03697122666950273], [-0.022128604076577168, 0.00518469141235587], [0.009458159072032707, 0.025965626051607266], [-0.03938105643320565, -2.4375311923334475e-05], [0.015026828998347619, 0.019529262723820245], [0.018571538211640842, 0.03536017713618861], [-0.025239597774637718, -0.029558557649799533], [-0.04642562745272485, 0.03931939737557802], [-0.008943136710178184, 0.016068014300675393], [-0.027965883493281093, -0.029778654897987675], [0.00639575701293308, 0.034192035881891875], [0.0, 0.0]], "2": [[-0.3059978517228526, 0.7302658662266936, 0.4512445438944388, 0.14821266515457387, 0.6100777627381935, 0.30090782112439873, 0.5604577493700584, -0.6925619518886544, 0.6304945519568554, 0.3440932515838897, 0.7109659470555567, -0.1284756512132461, 0.6407848419903421, 0.6193519967403891, 0.09574429125869033, -0.21534187685331152, -0.08087511167473371, -0.12997062514366797, -0.5199383473332578, 0.5879320184751955], [-0.320406066613588, -0.45443973271589283, 0.25161737766747594, 0.6525447341878257, 0.09901280778115273, 0.5410227350390058, -0.1317012021391647, 0.5782192240459456, -0.17118818426331572, -0.352199405281993, -0.23858638411635003, 0.4663435923430621, -0.7181505664473405, 0.7421718043242995, 0.3358500491048353, -0.28495036985234184, 0.15834736862284426, 0.09163944215893782, 0.7383787796293562, 0.33930827428484944], [0.0, 0.0, 0.0, 0.0, 0.0, 0.0, 0.0, 0.0, 0.0, 0.0, 0.0, 0.0, 0.0, 0.0, 0.0, 0.0, 0.0, 0.0, 0.0, 0.0]], "3": [[-0.04235150139554164], [-0.04381430875292977], [-0.06723097329687712], [-0.05853922078105406], [-0.046449792001356904], [0.030767385917300383], [-0.07204012358309708], [-0.009221783877145381], [0.06365701138420941], [0.011456022129801416], [-0.040312230459394104], [-0.01838023792704096], [0.02443146669224107], [0.06869028623486205], [-0.005137106722777007], [0.06305449024959779], [-0.07145116786767544], [0.032590829823340384], [-0.003362623633097625], [-0.04043250451441327], [0.0]]}, "Pd": {"1": [[0.026815193086213593, -0.006197260773768205], [0.014443220272918944, -0.03977878483514651], [-0.0006580427256221155, 0.02601510858381531], [0.04105750981004169, 0.036053877861679656], [0.04093750919927505, -0.005118257945985472], [-0.0034680972523279743, 0.014165486616559815], [-0.0467572841755539, -0.034859560735359174], [0.0022536393972584987, 0.03341514928559673], [-0.017891958911389987, -0.0004912561962960166], [-0.036912346144188674, -0.041916266578319275], [-0.03312628113908932, 0.03745744531413603], [-0.008552772411780762, -0.030945089827154302], [-0.024745107054012384, 0.022117536873481378], [-0.04576751681400065, 0.03135221784988164], [0.019310491598030777, -0.03495353496060084], [0.0268718957158475, 0.021187104752975375], [0.009856970848642385, 0.028052806724885956], [-0.029945206418441173, -0.04142917141658063], [0.04212694320922676, 0.04189621866059898], [0.008308733738775005, 0.04603648051493514], [0.00036776107797009683, 0.03981560870434771], [0.007268126794288891, -0.01904388890463529], [-0.023420168612321105, 0.01021146583686268], [-0.005536200776654586, -0.017493416910723963], [-0.018867997325273302, 0.007952065161666147], [-0.03038609518370617, -0.015011401216063869], [0.03738902728448927, 0.006562536531163052], [-0.0424886767234155, 0.015049175814815546], [-0.010493695909339698, -0.04369148085002758], [-0.018892221126080598, 0.024229944890629906], [-0.010527716103776938, -0.008089959759397192], [0.02789104097574714, -0.031795384164096725], [0.0, 0.0]], "2": [[-0.3357633001937312, 0.06133220724601807, -0.20633393655236532, -0.4580206563472347, 0.37193534690434316, -0.07730897838742012, -0.7071957561268027, 0.08905077713458076, 0.2678163655951351, 0.6566084513526798, -0.5701010540985243, -0.3427506793706926, -0.06736768702191931, 0.7329472177689627, -0.6801947669378066, -0.703533400612536, 0.42832360951713655, -0.23767575722940715, -0.6713300773076869, -0.037029439056928126], [-0.22738115761342992, 0.1123749174051345, 0.43443423696964434, -0.39742660999814017, -0.22808923203561304, 0.6305614376589523, 0.13540003505227083, -0.4358430993548215, -0.5324980734554684, 0.5273389151380157, 0.11525036127191757, -0.5881621778921204, -0.318421042514238, -0.5302041981655532, -0.32381842861769666, 0.22275793929627852, 0.018419056796096123, 0.6668666439846129, -0.5390263022630766, -0.7473759680037889], [0.0, 0.0, 0.0, 0.0, 0.0, 0.0, 0.0, 0.0, 0.0, 0.0, 0.0, 0.0, 0.0, 0.0, 0.0, 0.0, 0.0, 0.0, 0.0, 0.0]], "3": [[0.06113729395176144], [-0.027399110675592545], [-0.01959370941138068], [0.06517087840213613], [0.0621899877845858], [-0.054441473374947424], [-0.004490640936238924], [-0.03685274452803925], [-0.02084650692202062], [0.05971157533322592], [-0.00847861774581124], [0.05450677197491728], [-0.003153601392843361], [0.025679696914396144], [0.06799416347002259], [0.042493009736213366], [-0.002524222113487351], [0.013141862203927462], [0.03343273135186378], [0.054276237870858404], [0.0]]}}, "fingerprints_range": {"Cu": [[0.0, 30.80216816946124], [0.0, 21.107715476229174], [0.0, 17.484290395410294], [0.0, 12.337890561734708], [0.0, 10.890146255978296], [0.0, 7.8762065126559815], [0.0, 5.204830005858291], [0.0, 3.8384169191962156], [0.0, 1.0822029998103229], [0.0, 0.7702142399843445], [0.0, 0.11672821813605691], [0.0, 0.09579851951537856], [0.0, 0.0016620228859608299], [0.0, 0.0014999082499671163], [-2.903634418643349e-17, 2753.967158376269], [0.0, 1339.0774553779588], [0.0, 1219.2135050010959], [0.0, 1969.1638860151352], [0.0, 933.9576344679633], [0.0, 890.6147634923126], [0.0, 2037.9504191669928], [0.0, 999.1121607682313], [0.0, 895.7686385654737], [0.0, 1253.1471468059065], [0.0, 593.9923398582351], [0.0, 567.1698970566891], [0.0, 1396.4850770342705], [0.0, 694.3948342368042], [0.0, 606.8013791049098], [0.0, 736.8377080388007], [0.0, 348.9904146530375], [0.0, 333.4019139572645]], "Pd": [[0.0, 24.8400310718317], [0.0, 23.80998849005955], [0.0, 14.474024824677544], [0.0, 13.53970742462996], [0.0, 9.279759042906964], [0.0, 8.380887593342328], [0.0, 4.621782142076165], [0.0, 3.9013328509929], [0.0, 0.9638689065495792], [0.0, 0.7254885658534357], [0.0, 0.09688617543634871], [0.0, 0.06459500411004933], [0.0, 0.0014999082499671157], [0.0, 0.0005969806159118931], [-2.6171500434006593e-17, 1778.0113970967157], [0.0, 1339.0774553779634], [-5.540189831791549e-17, 1609.8718092115669], [0.0, 1282.3086028451698], [0.0, 933.9576344679631], [0.0, 1155.1585128594002], [0.0, 1312.249733255385], [0.0, 999.1121607682309], [0.0, 1189.5611400731427], [0.0, 816.5469390038353], [0.0, 593.9923398582329], [0.0, 734.8478437209878], [0.0, 895.5277923005882], [0.0, 694.3948342368044], [0.0, 812.5636028169727], [0.0, 480.2246777464244], [0.0, 348.9904146530362], [0.0, 432.15164930503533]]}, "fingerprints_tag": 1, "scalings": {"Pd": {"slope": 2.8605843268749997, "intercept": -2.564861391875}, "Cu": {"slope": 2.8605843268749997, "intercept": -2.564861391875}}}