{"cutoff": 6.5, "Gs": {"Pd": [{"eta": 0.05, "type": "G2", "element": "Cu"}, {"eta": 0.05, "type": "G2", "element": "Pd"}, {"eta": 2.0, "type": "G2", "element": "Cu"}, {"eta": 2.0, "type": "G2", "element": "Pd"}, {"eta": 4.0, "type": "G2", "element": "Cu"}, {"eta": 4.0, "type": "G2", "element": "Pd"}, {"eta": 8.0, "type": "G2", "element": "Cu"}, {"eta": 8.0, "type": "G2", "element": "Pd"}, {"eta": 20.0, "type": "G2", "element": "Cu"}, {"eta": 20.0, "type": "G2", "element": "Pd"}, {"eta": 40.0, "type": "G2", "element": "Cu"}, {"eta": 40.0, "type": "G2", "element": "Pd"}, {"eta": 80.0, "type": "G2", "element": "Cu"}, {"eta": 80.0, "type": "G2", "element": "Pd"}, {"zeta": 1.0, "elements": ["Cu", "Cu"], "type": "G4", "gamma": 1.0, "eta": 0.005}, {"zeta": 1.0, "elements": ["Cu", "Pd"], "type": "G4", "gamma": 1.0, "eta": 0.005}, {"zeta": 1.0, "elements": ["Pd", "Pd"], "type": "G4", "gamma": 1.0, "eta": 0.005}, {"zeta": 1.0, "elements": ["Cu", "Cu"], "type": "G4", "gamma": -1.0, "eta": 0.005}, {"zeta": 1.0, "elements": ["Cu", "Pd"], "type": "G4", "gamma": -1.0, "eta": 0.005}, {"zeta": 1.0, "elements": ["Pd", "Pd"], "type": "G4", "gamma": -1.0, "eta": 0.005}, {"zeta": 2.0, "elements": ["Cu", "Cu"], "type": "G4", "gamma": 1.0, "eta": 0.005}, {"zeta": 2.0, "elements": ["Cu", "Pd"], "type": "G4", "gamma": 1.0, "eta": 0.005}, {"zeta": 2.0, "elements": ["Pd", "Pd"], "type": "G4", "gamma": 1.0, "eta": 0.005}, {"zeta": 2.0, "elements": ["Cu", "Cu"], "type": "G4", "gamma": -1.0, "eta": 0.005}, {"zeta": 2.0, "elements": ["Cu", "Pd"], "type": "G4", "gamma": -1.0, "eta": 0.005}, {"zeta": 2.0, "elements": ["Pd", "Pd"], "type": "G4", "gamma": -1.0, "eta": 0.005}, {"zeta": 4.0, "elements": ["Cu", "Cu"], "type": "G4", "gamma": 1.0, "eta": 0.005}, {"zeta": 4.0, "elements": ["Cu", "Pd"], "type": "G4", "gamma": 1.0, "eta": 0.005}, {"zeta": 4.0, "elements": ["Pd", "Pd"], "type": "G4", "gamma": 1.0, "eta": 0.005}, {"zeta": 4.0, "elements": ["Cu", "Cu"], "type": "G4", "gamma": -1.0, "eta": 0.005}, {"zeta": 4.0, "elements": ["Cu", "Pd"], "type": "G4", "gamma": -1.0, "eta": 0.005}, {"zeta": 4.0, "elements": ["Pd", "Pd"], "type": "G4", "gamma": -1.0, "eta": 0.005}], "Cu": [{"eta": 0.05, "type": "G2", "element": "Cu"}, {"eta": 0.05, "type": "G2", "element": "Pd"}, {"eta": 2.0, "type": "G2", "element": "Cu"}, {"eta": 2.0, "type": "G2", "element": "Pd"}, {"eta": 4.0, "type": "G2", "element": "Cu"}, {"eta": 4.0, "type": "G2", "element": "Pd"}, {"eta": 8.0, "type": "G2", "element": "Cu"}, {"eta": 8.0, "type": "G2", "element": "Pd"}, {"eta": 20.0, "type": "G2", "element": "Cu"}, {"eta": 20.0, "type": "G2", "element": "Pd"}, {"eta": 40.0, "type": "G2", "element": "Cu"}, {"eta": 40.0, "type": "G2", "element": "Pd"}, {"eta": 80.0, "type": "G2", "element": "Cu"}, {"eta": 80.0, "type": "G2", "element": "Pd"}, {"zeta": 1.0, "elements": ["Cu", "Cu"], "type": "G4", "gamma": 1.0, "eta": 0.005}, {"zeta": 1.0, "elements": ["Cu", "Pd"], "type": "G4", "gamma": 1.0, "eta": 0.005}, {"zeta": 1.0, "elements": ["Pd", "Pd"], "type": "G4", "gamma": 1.0, "eta": 0.005}, {"zeta": 1.0, "elements": ["Cu", "Cu"], "type": "G4", "gamma": -1.0, "eta": 0.005}, {"zeta": 1.0, "elements": ["Cu", "Pd"], "type": "G4", "gamma": -1.0, "eta": 0.005}, {"zeta": 1.0, "elements": ["Pd", "Pd"], "type": "G4", "gamma": -1.0, "eta": 0.005}, {"zeta": 2.0, "elements": ["Cu", "Cu"], "type": "G4", "gamma": 1.0, "eta": 0.005}, {"zeta": 2.0, "elements": ["Cu", "Pd"], "type": "G4", "gamma": 1.0, "eta": 0.005}, {"zeta": 2.0, "elements": ["Pd", "Pd"], "type": "G4", "gamma": 1.0, "eta": 0.005}, {"zeta": 2.0, "elements": ["Cu", "Cu"], "type": "G4", "gamma": -1.0, "eta": 0.005}, {"zeta": 2.0, "elements": ["Cu", "Pd"], "type": "G4", "gamma": -1.0, "eta": 0.005}, {"zeta": 2.0, "elements": ["Pd", "Pd"], "type": "G4", "gamma": -1.0, "eta": 0.005}, {"zeta": 4.0, "elements": ["Cu", "Cu"], "type": "G4", "gamma": 1.0, "eta": 0.005}, {"zeta": 4.0, "elements": ["Cu", "Pd"], "type": "G4", "gamma": 1.0, "eta": 0.005}, {"zeta": 4.0, "elements": ["Pd", "Pd"], "type": "G4", "gamma": 1.0, "eta": 0.005}, {"zeta": 4.0, "elements": ["Cu", "Cu"], "type": "G4", "gamma": -1.0, "eta": 0.005}, {"zeta": 4.0, "elements": ["Cu", "Pd"], "type": "G4", "gamma": -1.0, "eta": 0.005}, {"zeta": 4.0, "elements": ["Pd", "Pd"], "type": "G4", "gamma": -1.0, "eta": 0.005}]}, "activation": "tanh", "hiddenlayers": {"Pd": [3, 20], "Cu": [3, 20]}, "weights": {"Cu": {"1": [[3.7109359215886277, 3.706327448987678, -0.005281691842974545], [2.8058964231233716, 1.0063377350492981, 0.23335467815560587], [3.498966379113478, 3.835076813286569, -0.06372740944651756], [2.4313745437822605, 0.6224388533268593, 0.20919654583541517], [3.058812193136899, 3.551164473119019, -0.1443790869810767], [2.0895001702796017, 0.623100693761045, 0.14218561747324238], [1.7992410587499448, 2.6568867619710503, -0.3113419477777097], [0.9861571396403653, 0.5196993157399441, 0.21890311829203224], [-1.8696824464029957, 0.01563180319089119, -0.9223948984034929], [-1.8914776107422149, -1.346234491501402, 0.569386262466317], [-3.2246471392522142, -2.068778790759321, -1.5621883753556145], [-1.738821444939117, -1.4427994213120114, -0.24672404827760774], [0.9258710963732933, -2.78835926502917, -2.357006860056281], [0.9319390037533178, 0.9708860999609169, -1.4067101835276459], [-0.4557306491240133, 1.3223758721126246, -1.6827628932438277], [0.23437423871760144, 0.6184677343394416, 0.9079438901738289], [-0.17513699538549182, 2.1460304313602645, -1.1699975786661143], [-0.05352456299657665, 1.0841842673850295, -1.6737223334952962], [0.8012595156755866, 2.8745215838233427, 0.9319146812379488], [-0.47762577024615854, 0.22603811138910362, -1.1064800365615288], [-0.5126978182391303, 1.466222813344647, -1.699407164238936], [-0.13173270603619475, -0.3958018236620452, 0.878670343588633], [0.08803486328238949, 2.8897107005931977, -1.2070874275529733], [0.030534330664566095, 1.1331891229633544, -1.6352627989037172], [0.4219315374060735, 2.5226722061062348, 0.9420267718745426], [-0.29441257739915955, 0.3919299397184139, -1.1504429371787386], [-0.7024435041847645, 1.7908741933785985, -1.7664207037637194], [-0.892512550537058, -1.91513434693632, 0.8325963674226319], [0.663357354817031, 4.087442751261394, -1.1814606494066109], [0.053334003860101155, 1.27495113580241, -1.6585260500354813], [0.1319829514922125, 1.9087132874679273, 0.93858310686495], [-0.18553750289219714, 0.6417524560831451, -1.115120927446417], [-0.6302556705372537, 2.066651343517165, 3.574317817133051]], "2": [[0.0027157151224841726, 0.31964971875993364, -1.1422166440953583, -0.5650064633222047, 0.5548462480091773, 0.2678036817674493, 1.2300878834468556, 0.287077494656764, -3.889808240895898, -2.3854269443829343, 1.2796846449511514, 0.530788405228621, 0.1632454499590499, -0.2628439668333551, 0.9461582584639638, 1.484618182206661, -1.2403347242469893, -1.3269047926160125, -0.33166981857796735, -1.6638319116699496], [1.4629052471180215, -2.3429224196641876, 2.928545092336167, 0.37279726655007284, -1.646244182023059, 2.461377299846166, 2.838746834932318, 0.43575293586822056, -6.189008167458504, 0.5903661065997056, 0.5909113305192406, 0.20205843833973788, 0.17526740170478858, 0.21661254703479704, -0.5287989266580415, 0.2217135939737064, 1.0754796012165633, -1.029713750737198, -2.644673917659342, 1.1166380703455203], [2.8246923613794968, -2.518078232991218, 1.0573289628322464, 0.33289894184583413, -1.5168089557050533, 3.660132413700515, 0.6490764275542399, 3.1996341812442326, -1.2898761942723358, 0.9661379434713686, 0.08203038188772602, -1.1969111070933942, -0.758076450265378, 0.5254315587986225, -1.2278610881381182, -1.006215302048812, -0.4822944476463494, -0.5905900711158267, -0.26267212411813423, -0.07061883306221332], [1.4125632407260413, -1.7876453784173383, -0.100034421732791, 1.1519332470494559, -1.581499070439521, 1.846500901287853, 1.165827099280514, 1.2938131468032024, -0.5458488705506644, 0.9106723944329949, 0.4959840239449538, -0.8398764253177066, -1.2449705057011382, -0.08971261481245167, 0.19877929410461379, -0.5364173308587669, -1.0703249561252532, -1.3754017831592529, -0.374698259018869, -0.096551118509351]], "3": [[-0.37899082343625107], [-0.3979531891932462], [1.149339319363873], [-0.04928633498666106], [-0.7273633704959719], [-0.6519233828273759], [0.2876258436226047], [1.3191262598711133], [-2.482534533086449], [0.08603634144086103], [-0.00021153862938325801], [-0.8115413173152656], [-2.500938265075165], [-0.0959631317701411], [0.27628263761441085], [0.7169637169796532], [0.2554416264171437], [-0.7456951805409922], [-0.5386575310271562], [-1.3206158960172156], [-1.6063144326687666]]}, "Pd": {"1": [[3.886909222873153, -0.13112638769737, 6.973256253498739], [2.4531422892871446, -0.0914350760685529, -3.156572070735427], [2.838472258789248, 1.3733783979393153, -0.6209003965817246], [2.9383460538530817, 0.816599516288021, 1.741436860108459], [2.0766684271548828, -0.35832013521131795, -4.763270566709358], [2.115694065845744, -0.6715277312806621, 0.8647962342070467], [0.352720113070674, -2.9208459225580694, -5.314123300590987], [0.016299917489014236, -2.3170014289545176, -2.7918460047485354], [-2.31240483451004, 2.6750289386246164, 2.862218762141893], [-1.9606118719267225, 2.3900163219562685, 0.8771296791689666], [-1.5753700713978123, -0.8871230109972539, 5.113202656627114], [-0.9719702654688709, -1.4062016121216654, 3.4388290558647627], [-1.1370233163460446, -0.3264930188716143, 2.332800202956759], [0.8501055003961488, 0.0009527587231607298, -0.320544231463436], [-0.05907609489816992, 0.2547056698379512, 0.9370036697677607], [-0.04434135461102884, -0.008809503589395704, -2.3878969492432094], [0.324899041396404, 0.4890877547256484, 0.8176639314538953], [-0.08866364800920992, -1.6531223556121972, 0.5998386883726358], [-0.03852884276670204, -0.022530839648549635, 1.2127111612933155], [0.11072810345611718, -1.3780086611377593, -0.8131790678772011], [0.031153299776554483, 1.0597965464763734, 0.9579058999955089], [-0.17443674561948025, 0.04929329975449144, -3.187505766619959], [0.4229510462620344, 1.0709893879225016, 1.25748588604216], [0.014799873339379897, -1.5217254612963802, 0.3414502275466516], [-0.18417729715647196, 0.15011803981909486, 1.842093608246244], [0.12692536751906255, -1.600991149304561, -1.1102204494175685], [0.140175775672708, 2.398785247304621, 0.2060847794099076], [-0.16078565881246817, 1.5035595674197086, -2.8315422110625175], [0.5648154307741727, 1.0039231547853071, 1.2312301827531675], [0.2856365274186283, -0.9491616834163165, 0.8506283198192772], [-0.6086935264048003, -2.1530518073720617, 0.18491275094011583], [0.2172926387070834, -0.09217856744359976, -0.44850885724176986], [3.197062580049255, -1.3001105465423977, 5.3668315604701]], "2": [[-1.7293610982148822, -2.3270293410160905, -0.4659732057509111, 0.7903381240096835, 0.15235707091154022, 2.0537280185718023, 0.12849270862256587, 0.07625654298957721, -1.8299823707051883, -0.7464210542235413, 0.06555407735338638, 1.099643732474814, -0.8286268191312182, 0.12601304232830676, 0.8888253295070089, 0.579734705454337, 2.335767772480456, -2.2263297349338735, 0.2862895060833404, 0.18818042463613627], [1.0393401422177937, 1.7529686227751078, -1.6034594690737878, 4.168529512056392, 2.415781989495329, -1.7574235252394421, -0.49448068798456646, -1.5304947780451776, 1.3931716938401124, -0.8335153812398846, 0.9192739186627552, -1.6099244385852918, 0.8703727701269969, -1.9866732924247896, 0.37819203200596785, 1.5778036989157374, 0.6463009865770729, -0.49354033730258073, -2.570830305734421, -0.20228421799530022], [1.8334406048140885, -2.0211176216689655, 0.5399843164121197, -0.8534047864015638, -2.376862962698253, 0.3827137166601027, 0.09042355243493017, 0.22011238384448528, -0.41236915954686926, -1.0932040285591031, 0.6314450370994701, -0.535847262108254, -0.020841593105297374, 0.874695496687858, -1.2944086934138617, 0.470876815194475, -0.28406638515324195, -1.0807841359838242, 0.08095918967219674, 0.30225606025038027], [-0.9322836191037637, -0.07813576425490132, -0.1079146584048044, 3.084770616152953, 1.0674206797500998, -2.0555987197153955, 0.3814680875914766, -1.8801780463448612, 0.4013463907657056, 1.448293790812697, 0.09850570883332618, -2.212399645817914, -0.23266555120040905, 1.6688550863248328, -0.11793705870979115, -0.329448931140396, -1.046935047621774, 2.064192282428501, 2.9329291563560194, -0.8858717032198054]], "3": [[0.4207962817157575], [1.359372847880854], [-1.0383115976583348], [0.6278071923220986], [0.002879972428342946], [0.9672899826662315], [0.6098617262371467], [3.063618676327079], [-0.18252512927348227], [1.5617299547922556], [2.22792020322096], [0.2216188140580527], [0.612954462913217], [2.9114787197608925], [-0.7804631859718948], [0.24464375685332793], [-0.20875623880584762], [1.4985681558727335], [-0.6787353476131976], [1.1111130804174056], [0.8249799614943918]]}}, "fingerprints_range": {"Cu": [[0.0, 30.80216816946124], [0.0, 21.107715476229174], [0.0, 17.484290395410294], [0.0, 12.337890561734708], [0.0, 10.890146255978296], [0.0, 7.8762065126559815], [0.0, 5.204830005858291], [0.0, 3.8384169191962156], [0.0, 1.0822029998103229], [0.0, 0.7702142399843445], [0.0, 0.11672821813605691], [0.0, 0.09579851951537856], [0.0, 0.0016620228859608299], [0.0, 0.0014999082499671163], [-2.903634418643349e-17, 2753.967158376269], [0.0, 1339.0774553779588], [0.0, 1219.2135050010959], [0.0, 1969.1638860151352], [0.0, 933.9576344679633], [0.0, 890.6147634923126], [0.0, 2037.9504191669928], [0.0, 999.1121607682313], [0.0, 895.7686385654737], [0.0, 1253.1471468059065], [0.0, 593.9923398582351], [0.0, 567.1698970566891], [0.0, 1396.4850770342705], [0.0, 694.3948342368042], [0.0, 606.8013791049098], [0.0, 736.8377080388007], [0.0, 348.9904146530375], [0.0, 333.4019139572645]], "Pd": [[0.0, 24.8400310718317], [0.0, 23.80998849005955], [0.0, 14.474024824677544], [0.0, 13.53970742462996], [0.0, 9.279759042906964], [0.0, 8.380887593342328], [0.0, 4.621782142076165], [0.0, 3.9013328509929], [0.0, 0.9638689065495792], [0.0, 0.7254885658534357], [0.0, 0.09688617543634871], [0.0, 0.06459500411004933], [0.0, 0.0014999082499671157], [0.0, 0.0005969806159118931], [-2.6171500434006593e-17, 1778.0113970967157], [0.0, 1339.0774553779634], [-5.540189831791549e-17, 1609.8718092115669], [0.0, 1282.3086028451698], [0.0, 933.9576344679631], [0.0, 1155.1585128594002], [0.0, 1312.249733255385], [0.0, 999.1121607682309], [0.0, 1189.5611400731427], [0.0, 816.5469390038353], [0.0, 593.9923398582329], [0.0, 734.8478437209878], [0.0, 895.5277923005882], [0.0, 694.3948342368044], [0.0, 812.5636028169727], [0.0, 480.2246777464244], [0.0, 348.9904146530362], [0.0, 432.15164930503533]]}, "fingerprints_tag": 1, "scalings": {"Cu": {"intercept": -2.6589464244082048, "slope": 0.90466991539044683}, "Pd": {"intercept": 0.053144957505794031, "slope": 7.6348582502473024}}}