{"cutoff": 6.5, "Gs": {"Pd": [{"eta": 0.05, "type": "G2", "element": "Cu"}, {"eta": 0.05, "type": "G2", "element": "Pd"}, {"eta": 2.0, "type": "G2", "element": "Cu"}, {"eta": 2.0, "type": "G2", "element": "Pd"}, {"eta": 4.0, "type": "G2", "element": "Cu"}, {"eta": 4.0, "type": "G2", "element": "Pd"}, {"eta": 8.0, "type": "G2", "element": "Cu"}, {"eta": 8.0, "type": "G2", "element": "Pd"}, {"eta": 20.0, "type": "G2", "element": "Cu"}, {"eta": 20.0, "type": "G2", "element": "Pd"}, {"eta": 40.0, "type": "G2", "element": "Cu"}, {"eta": 40.0, "type": "G2", "element": "Pd"}, {"eta": 80.0, "type": "G2", "element": "Cu"}, {"eta": 80.0, "type": "G2", "element": "Pd"}, {"zeta": 1.0, "elements": ["Cu", "Cu"], "type": "G4", "gamma": 1.0, "eta": 0.005}, {"zeta": 1.0, "elements": ["Cu", "Pd"], "type": "G4", "gamma": 1.0, "eta": 0.005}, {"zeta": 1.0, "elements": ["Pd", "Pd"], "type": "G4", "gamma": 1.0, "eta": 0.005}, {"zeta": 1.0, "elements": ["Cu", "Cu"], "type": "G4", "gamma": -1.0, "eta": 0.005}, {"zeta": 1.0, "elements": ["Cu", "Pd"], "type": "G4", "gamma": -1.0, "eta": 0.005}, {"zeta": 1.0, "elements": ["Pd", "Pd"], "type": "G4", "gamma": -1.0, "eta": 0.005}, {"zeta": 2.0, "elements": ["Cu", "Cu"], "type": "G4", "gamma": 1.0, "eta": 0.005}, {"zeta": 2.0, "elements": ["Cu", "Pd"], "type": "G4", "gamma": 1.0, "eta": 0.005}, {"zeta": 2.0, "elements": ["Pd", "Pd"], "type": "G4", "gamma": 1.0, "eta": 0.005}, {"zeta": 2.0, "elements": ["Cu", "Cu"], "type": "G4", "gamma": -1.0, "eta": 0.005}, {"zeta": 2.0, "elements": ["Cu", "Pd"], "type": "G4", "gamma": -1.0, "eta": 0.005}, {"zeta": 2.0, "elements": ["Pd", "Pd"], "type": "G4", "gamma": -1.0, "eta": 0.005}, {"zeta": 4.0, "elements": ["Cu", "Cu"], "type": "G4", "gamma": 1.0, "eta": 0.005}, {"zeta": 4.0, "elements": ["Cu", "Pd"], "type": "G4", "gamma": 1.0, "eta": 0.005}, {"zeta": 4.0, "elements": ["Pd", "Pd"], "type": "G4", "gamma": 1.0, "eta": 0.005}, {"zeta": 4.0, "elements": ["Cu", "Cu"], "type": "G4", "gamma": -1.0, "eta": 0.005}, {"zeta": 4.0, "elements": ["Cu", "Pd"], "type": "G4", "gamma": -1.0, "eta": 0.005}, {"zeta": 4.0, "elements": ["Pd", "Pd"], "type": "G4", "gamma": -1.0, "eta": 0.005}], "Cu": [{"eta": 0.05, "type": "G2", "element": "Cu"}, {"eta": 0.05, "type": "G2", "element": "Pd"}, {"eta": 2.0, "type": "G2", "element": "Cu"}, {"eta": 2.0, "type": "G2", "element": "Pd"}, {"eta": 4.0, "type": "G2", "element": "Cu"}, {"eta": 4.0, "type": "G2", "element": "Pd"}, {"eta": 8.0, "type": "G2", "element": "Cu"}, {"eta": 8.0, "type": "G2", "element": "Pd"}, {"eta": 20.0, "type": "G2", "element": "Cu"}, {"eta": 20.0, "type": "G2", "element": "Pd"}, {"eta": 40.0, "type": "G2", "element": "Cu"}, {"eta": 40.0, "type": "G2", "element": "Pd"}, {"eta": 80.0, "type": "G2", "element": "Cu"}, {"eta": 80.0, "type": "G2", "element": "Pd"}, {"zeta": 1.0, "elements": ["Cu", "Cu"], "type": "G4", "gamma": 1.0, "eta": 0.005}, {"zeta": 1.0, "elements": ["Cu", "Pd"], "type": "G4", "gamma": 1.0, "eta": 0.005}, {"zeta": 1.0, "elements": ["Pd", "Pd"], "type": "G4", "gamma": 1.0, "eta": 0.005}, {"zeta": 1.0, "elements": ["Cu", "Cu"], "type": "G4", "gamma": -1.0, "eta": 0.005}, {"zeta": 1.0, "elements": ["Cu", "Pd"], "type": "G4", "gamma": -1.0, "eta": 0.005}, {"zeta": 1.0, "elements": ["Pd", "Pd"], "type": "G4", "gamma": -1.0, "eta": 0.005}, {"zeta": 2.0, "elements": ["Cu", "Cu"], "type": "G4", "gamma": 1.0, "eta": 0.005}, {"zeta": 2.0, "elements": ["Cu", "Pd"], "type": "G4", "gamma": 1.0, "eta": 0.005}, {"zeta": 2.0, "elements": ["Pd", "Pd"], "type": "G4", "gamma": 1.0, "eta": 0.005}, {"zeta": 2.0, "elements": ["Cu", "Cu"], "type": "G4", "gamma": -1.0, "eta": 0.005}, {"zeta": 2.0, "elements": ["Cu", "Pd"], "type": "G4", "gamma": -1.0, "eta": 0.005}, {"zeta": 2.0, "elements": ["Pd", "Pd"], "type": "G4", "gamma": -1.0, "eta": 0.005}, {"zeta": 4.0, "elements": ["Cu", "Cu"], "type": "G4", "gamma": 1.0, "eta": 0.005}, {"zeta": 4.0, "elements": ["Cu", "Pd"], "type": "G4", "gamma": 1.0, "eta": 0.005}, {"zeta": 4.0, "elements": ["Pd", "Pd"], "type": "G4", "gamma": 1.0, "eta": 0.005}, {"zeta": 4.0, "elements": ["Cu", "Cu"], "type": "G4", "gamma": -1.0, "eta": 0.005}, {"zeta": 4.0, "elements": ["Cu", "Pd"], "type": "G4", "gamma": -1.0, "eta": 0.005}, {"zeta": 4.0, "elements": ["Pd", "Pd"], "type": "G4", "gamma": -1.0, "eta": 0.005}]}, "activation": "tanh", "hiddenlayers": {"Pd": [3, 40], "Cu": [3, 40]}, "weights": {"Cu": {"1": [[0.024511122547245745, -0.012040555395030489, -0.01607555303437647], [-0.04591894220149996, -0.0337466865119538, 0.034771294454595494], [0.0457436295211264, 0.03795329400300082, 0.025912925777165016], [-0.04645944365307814, -0.038754195127935376, 0.005348439587876619], [0.041431079972098814, -0.009709912951867475, -0.03368412324414603], [0.0016983653713886354, 0.03757523011778956, -0.028468406381414048], [0.043957327325195875, -0.035908430662168325, -0.02610957597168935], [-0.005755754085753809, -0.009455179800368224, 0.035486220905612265], [-0.023116025839924715, 0.04508321085680078, -0.008557680591708985], [-0.01975023397051946, -0.03443808333832801, -0.01913072986980787], [-0.014638406583570601, -0.007528689019691975, 0.03477894365501749], [0.019237183320661155, 0.013204412813251992, 0.02251420120165859], [-0.027527116860443245, 0.031061626665241482, -0.027934685761745903], [0.04450161477650669, -0.01261938126910303, 0.029117777673887443], [0.036189477397996994, 0.03625336418554151, 0.026950051487746693], [-0.03447121918719789, 0.039416954534934726, 0.005302716471418362], [-0.04603264696823142, -0.013286967280718431, 0.03518916937518829], [-0.014638692276780232, -0.013739847206929029, -0.021285129492235957], [0.04448966045767662, 0.043419211272568134, 0.02950223308018879], [0.046500512374279684, -0.020295332486433948, 0.030215877846695202], [-0.028323660758326402, 0.026814443330772736, 0.009200460481744825], [-0.03156989091808174, -0.012494224949537093, 0.020811404102326292], [-0.012900010056670769, -0.005921431883360723, 0.006677330661634964], [0.015130620650334381, 0.0028630306778786863, -0.021588759985602182], [-0.009587932036570324, -0.006978478158381707, -0.024428778499462362], [-0.007593932806712389, -0.04301360983739089, 0.02782604999895308], [-0.03569553359514637, 0.01542742896128961, -0.028914773619019514], [0.004266922091474737, 0.03414865385391605, 0.025599441208195045], [-0.022612557331239066, -0.0355179008202683, -0.033928005015694804], [0.006625113491348797, 0.012089437258796278, 0.013774729891178006], [-0.0025788770099209463, -0.014541780595162132, -0.032619564325498084], [-0.04331610439499253, -0.022994548428118846, 0.0028786450258317525], [0.0, 0.0, 0.0]], "2": [[0.1402519471785888, -0.10795114054119959, -0.2381293528542826, 0.4607146615004519, -0.2573634580059512, -0.47328823142080356, -0.40614087510713703, 0.01184842524106855, 0.30749611497246976, -0.37498541494908555, -0.247433754695759, 0.35238367002141413, -0.23388018168632274, -0.32457131184012966, 0.06181690421049957, 0.08390092946968408, 0.32853858689989524, -0.18293597821634477, 0.13440144015756694, -0.15250841624440925, 0.2979293630917389, -0.0001954029615711672, 0.41706947567108066, 0.040081391575738534, 0.19756820472222392, 0.23255407042911125, -0.05535454947888596, -0.19665844952126488, -0.01682755550647963, 0.34015092605021235, 0.06506468415931965, -0.1266335370017483, 0.03594954389190064, -0.4842922043451584, 0.30584608058676166, -0.0089798169529689, 0.27947977360741993, 0.15516017366270274, -0.25268570389880607, -0.027946950867452136], [-0.13281466301684486, -0.261300910175044, 0.47739419594227395, 0.01300117806851342, -0.06725762253312717, 0.13240726750372522, -0.2677222980759598, -0.12745267273942684, -0.4616789818830962, 0.435918886985867, 0.2090344135452733, -0.16004826356901047, 0.32659158569336644, -0.016139278723395822, -0.23104830330829007, 0.4108964513563752, 0.4141951463133047, -0.43295792277887535, 0.08562510784485922, -0.16859277147579632, -0.33396219488686785, 0.2934765217201326, -0.12275587368851626, 0.10452197047617295, -0.1980213278497972, -0.036987807804056416, 0.3887716061861294, -0.26093686870766963, 0.4114343548015701, -0.39046327320700136, 0.11486549485171504, 0.4730096248075788, 0.25942466224166993, 0.01933280229735046, 0.3867009040424081, -0.0064230782525183105, -0.06736707823959176, 0.2838472696834522, 0.4828420180561025, -0.15791511635231803], [-0.3938650605867673, 0.09383845884214992, 0.44181603491487464, 0.3294328455672747, 0.20387306414967465, -0.08404440109278222, 0.12196457100835412, -0.46876404071262157, 0.16746811440075504, 0.32004280978118316, 0.10315236222022406, 0.16991493674549452, 0.015238219602468628, 0.4565856095101132, -0.3419842653083702, 0.3099037921329916, 0.04990802787931703, -0.23094010316135205, 0.02811397034605556, -0.4572251851401502, 0.07785484220061989, 0.3028846192413571, -0.40288370693543163, -0.16534135006952444, 0.17592086227663128, 0.20510935419958198, -0.3681997774383078, -0.46490421050889175, 0.043094593445756724, -0.29548411602413605, 0.14316048918698787, 0.03195179072116383, -0.38395185686268796, -0.22811480880086643, -0.28156789418755934, -0.48431674857053986, -0.4527555439437053, -0.22740025493487603, 0.387175310009534, 0.03840564253538592], [0.0, 0.0, 0.0, 0.0, 0.0, 0.0, 0.0, 0.0, 0.0, 0.0, 0.0, 0.0, 0.0, 0.0, 0.0, 0.0, 0.0, 0.0, 0.0, 0.0, 0.0, 0.0, 0.0, 0.0, 0.0, 0.0, 0.0, 0.0, 0.0, 0.0, 0.0, 0.0, 0.0, 0.0, 0.0, 0.0, 0.0, 0.0, 0.0, 0.0]], "3": [[0.027598287751510707], [-0.021787316330956447], [0.018511259871700644], [0.03295156097778531], [-0.02271074200165529], [-0.015171464166643046], [-0.01380679601515053], [0.020395372763696802], [0.02488713621611513], [-0.03101242448571487], [-0.025761455501258995], [-0.030700379533185218], [0.013400924471758426], [-0.03391261258699921], [-0.0172344804962295], [-0.03660380569998508], [-0.0003132986951064898], [0.028032131529775232], [-0.024852680935085865], [-0.015068575446921938], [-0.024788844328945438], [-0.02387936102741557], [0.034801641895722484], [0.035580453560126186], [0.02815834296629397], [-0.030085947612504424], [0.022680545069446216], [0.035704634992093025], [0.001753883583389175], [-0.020439394780475826], [0.007608017173571804], [0.03687933294893551], [0.028771950333102085], [0.0358102699780015], [0.0005037454475250447], [-0.0075444942502895], [0.028105172015015993], [-0.013588441023283424], [0.00630260687167615], [0.019025340537999764], [0.0]]}, "Pd": {"1": [[0.003949711902417503, -0.0289978585696291, -0.04320898062024305], [-0.003859865545359345, -0.04129526141607899, 0.04018805837774245], [0.0337913090863905, 0.020989146527009367, -0.0016653703028886024], [0.017054998746496214, 0.00908586301630554, 0.02857129108980644], [0.02473083958748691, -0.035002516710574104, -0.023784105651316157], [0.030180481963416952, 0.04392121837516505, -0.006622235498018374], [-0.001760547240414037, -0.026161822454739428, -0.003070488665959506], [0.04160057825972825, -0.04178860106187634, -0.023121905290489027], [0.006822839715578753, -0.01293974382605518, 0.011091060626275406], [-0.04638072354954817, -0.0005017397748075386, 0.022896680002683384], [0.01910582332796583, 0.03807327873443728, -0.0067722067089301535], [-0.012865510181232755, -0.012719968480848678, -0.03998597739376897], [-0.0054519064421506905, -0.021527633482765204, -0.04207528887929371], [-0.037540626899120286, -0.030958876742841056, -0.009299494152434376], [0.008651297271958291, -0.025875577445903908, -0.019626493259213774], [-0.0321837550354995, -0.017557973580216896, 0.022598553315560904], [-0.041811842701512315, -0.001514949761292135, -0.0378898007838694], [0.029437999953777355, 0.003797323035038408, 0.04570816875418808], [-0.04136881113347152, -0.041040445601203866, -0.034030547963723], [-0.012970063270721324, -0.03811296254278422, 0.0329952451656747], [0.01690775040548373, -0.030636282142655714, -0.015446705655468074], [0.03975606653571806, 0.013828530315318194, -0.006918452383136334], [0.0015826268138139088, -0.04631739428803306, 0.045910527717429844], [-0.02161259344467731, 0.037562607404086706, 0.03056533773167569], [-0.032498329482964924, 0.011196043819603214, 0.034301388286025636], [0.03273179940140891, -0.00618182925933293, 0.024808627763901872], [-0.014449344589347345, 0.031322704772046336, -0.007087775090652365], [-0.007079610026722957, 0.02435751318085981, -0.003705108334270943], [0.0232184195435077, -0.020342166582826712, -0.0032444553926489067], [0.03584332956669699, -0.024991933204335116, 0.0038718539059349744], [0.00026050529026368924, -0.004577145615572306, -0.027684987513259082], [0.005079401300215766, 0.044042426962508985, 0.03472653894636568], [0.0, 0.0, 0.0]], "2": [[0.012748237474402568, 0.08943038452198648, 0.3231843477101265, -0.11228577052387567, 0.1253294783900798, -0.005514116141311698, -0.4896094887792377, -0.08924854378381597, -0.044921407697378624, 0.46237349282928597, 0.3205531571520096, 0.46713385471751956, -0.3247544660908105, -0.06223886634361331, -0.29008882722249996, -0.21191545359621178, -0.06940119186185423, 0.46407874363246027, 0.24875660279078382, 0.18691398869488995, -0.39764103483953184, -0.34316780320426543, -0.24854807184331096, -0.20209666544091576, -0.4137881191219607, 0.06713559727159624, -0.10380874931865991, -0.37621252590596477, 0.18301041109744076, 0.45985208245325826, -0.19034200478072616, 0.39027674406110224, 0.13152778579421454, -0.23563679613616761, 0.19346496899356713, 0.0192414509544786, -0.4811933707154179, -0.3721166675803226, -0.27067873329419545, -0.1412207185196468], [-0.06842171018776544, -0.31289390811427575, 0.0248796618785716, 0.3792065899816176, -0.47525148397373596, 0.20553615851964646, 0.29046956199937446, 0.26687001634772567, -0.06707309025914387, 0.2693797170033174, 0.03720099459401138, 0.14780387443431364, -0.1374890591288005, -0.21168732981957883, 0.41809331519724857, -0.1466146468422428, 0.27029246945886454, 0.24637110315908062, 0.4988527074025383, 0.10896766696827509, 0.4145120467775383, 0.2885569863825441, -0.34713368925204646, -0.18086789143129622, -0.24912239628104216, 0.13576194580550682, -0.4159647536268901, 0.4422872741134427, 0.37337475317057656, 0.32485505616270627, 0.4056502846966561, -0.48626787387195747, 0.04393275027911958, -0.157780803265697, 0.4293621519509381, 0.04977429078796669, -0.4110459047956414, 0.4005681208599611, 0.0937164265552185, 0.31415588758102786], [-0.4625717066989088, 0.3921597138568397, 0.4710291018184696, -0.4370585108562366, 0.38405660418959797, 0.2694732299413385, -0.20703691362858123, -0.4126413665881308, 0.036598241978874624, 0.44618108432096204, -0.3187394744684281, -0.3345496020159977, 0.1075893997529932, 0.17688009040205688, -0.38182821721511584, 0.008766976605311116, 0.32728627008201006, -0.045907739149847915, -0.4171214113252769, -0.41717492006519674, 0.1808850972687952, -0.21537069767724837, 0.12591799267979964, -0.4130575182323596, -0.08382059799877084, -0.36437639989063897, 0.18058637536859234, -0.4388197392548193, -0.4461644751433095, 0.29245289270855046, -0.3045278475976121, 0.2095366064716505, -0.44605283144226837, 0.032726479855861856, 0.31367765121754765, 0.12343805024781984, 0.007600464550117203, 0.10180930104304331, -0.21698502373158457, 0.24705438899688414], [0.0, 0.0, 0.0, 0.0, 0.0, 0.0, 0.0, 0.0, 0.0, 0.0, 0.0, 0.0, 0.0, 0.0, 0.0, 0.0, 0.0, 0.0, 0.0, 0.0, 0.0, 0.0, 0.0, 0.0, 0.0, 0.0, 0.0, 0.0, 0.0, 0.0, 0.0, 0.0, 0.0, 0.0, 0.0, 0.0, 0.0, 0.0, 0.0, 0.0]], "3": [[-0.023661208829482007], [-1.1149266903508204e-05], [0.027673416639472224], [-0.0372430052145082], [-0.01267695377323241], [-0.03515769373516334], [-0.016366148293536227], [-0.027451505446121127], [0.0099747300553817], [-0.0031118309011529677], [-0.00551574489738256], [-0.01332807999563176], [-0.025729124462375727], [-0.00044786588178770403], [-0.0271720839301363], [-0.03703857992984544], [0.03327616532334606], [0.028044165568866374], [-0.006622790983627037], [0.01739462206482465], [0.013407616505345776], [-0.01417277072431965], [0.012735009680681988], [-0.007073489228631082], [0.0001466423528472538], [0.035125838743648115], [0.004061099198969256], [-0.03537990723219276], [0.03499136471354105], [0.03006740892814775], [-0.019499047331156694], [0.014449567396288401], [-0.013944361170127869], [0.01668814226568255], [-0.004030825422142316], [-0.013260190571300678], [0.019717333626820634], [0.01580835238609602], [-0.03249566485046495], [-0.004009030962930253], [0.0]]}}, "fingerprints_range": {"Cu": [[0.0, 30.80216816946124], [0.0, 21.107715476229174], [0.0, 17.484290395410294], [0.0, 12.337890561734708], [0.0, 10.890146255978296], [0.0, 7.8762065126559815], [0.0, 5.204830005858291], [0.0, 3.8384169191962156], [0.0, 1.0822029998103229], [0.0, 0.7702142399843445], [0.0, 0.11672821813605691], [0.0, 0.09579851951537856], [0.0, 0.0016620228859608299], [0.0, 0.0014999082499671163], [-2.903634418643349e-17, 2753.967158376269], [0.0, 1339.0774553779588], [0.0, 1219.2135050010959], [0.0, 1969.1638860151352], [0.0, 933.9576344679633], [0.0, 890.6147634923126], [0.0, 2037.9504191669928], [0.0, 999.1121607682313], [0.0, 895.7686385654737], [0.0, 1253.1471468059065], [0.0, 593.9923398582351], [0.0, 567.1698970566891], [0.0, 1396.4850770342705], [0.0, 694.3948342368042], [0.0, 606.8013791049098], [0.0, 736.8377080388007], [0.0, 348.9904146530375], [0.0, 333.4019139572645]], "Pd": [[0.0, 24.8400310718317], [0.0, 23.80998849005955], [0.0, 14.474024824677544], [0.0, 13.53970742462996], [0.0, 9.279759042906964], [0.0, 8.380887593342328], [0.0, 4.621782142076165], [0.0, 3.9013328509929], [0.0, 0.9638689065495792], [0.0, 0.7254885658534357], [0.0, 0.09688617543634871], [0.0, 0.06459500411004933], [0.0, 0.0014999082499671157], [0.0, 0.0005969806159118931], [-2.6171500434006593e-17, 1778.0113970967157], [0.0, 1339.0774553779634], [-5.540189831791549e-17, 1609.8718092115669], [0.0, 1282.3086028451698], [0.0, 933.9576344679631], [0.0, 1155.1585128594002], [0.0, 1312.249733255385], [0.0, 999.1121607682309], [0.0, 1189.5611400731427], [0.0, 816.5469390038353], [0.0, 593.9923398582329], [0.0, 734.8478437209878], [0.0, 895.5277923005882], [0.0, 694.3948342368044], [0.0, 812.5636028169727], [0.0, 480.2246777464244], [0.0, 348.9904146530362], [0.0, 432.15164930503533]]}, "fingerprints_tag": 1, "scalings": {"Pd": {"slope": 2.8605843268749997, "intercept": -2.564861391875}, "Cu": {"slope": 2.8605843268749997, "intercept": -2.564861391875}}}