{"cutoff": 6.5, "Gs": {"Pd": [{"eta": 0.05, "type": "G2", "element": "Cu"}, {"eta": 0.05, "type": "G2", "element": "Pd"}, {"eta": 2.0, "type": "G2", "element": "Cu"}, {"eta": 2.0, "type": "G2", "element": "Pd"}, {"eta": 4.0, "type": "G2", "element": "Cu"}, {"eta": 4.0, "type": "G2", "element": "Pd"}, {"eta": 8.0, "type": "G2", "element": "Cu"}, {"eta": 8.0, "type": "G2", "element": "Pd"}, {"eta": 20.0, "type": "G2", "element": "Cu"}, {"eta": 20.0, "type": "G2", "element": "Pd"}, {"eta": 40.0, "type": "G2", "element": "Cu"}, {"eta": 40.0, "type": "G2", "element": "Pd"}, {"eta": 80.0, "type": "G2", "element": "Cu"}, {"eta": 80.0, "type": "G2", "element": "Pd"}, {"zeta": 1.0, "elements": ["Cu", "Cu"], "type": "G4", "gamma": 1.0, "eta": 0.005}, {"zeta": 1.0, "elements": ["Cu", "Pd"], "type": "G4", "gamma": 1.0, "eta": 0.005}, {"zeta": 1.0, "elements": ["Pd", "Pd"], "type": "G4", "gamma": 1.0, "eta": 0.005}, {"zeta": 1.0, "elements": ["Cu", "Cu"], "type": "G4", "gamma": -1.0, "eta": 0.005}, {"zeta": 1.0, "elements": ["Cu", "Pd"], "type": "G4", "gamma": -1.0, "eta": 0.005}, {"zeta": 1.0, "elements": ["Pd", "Pd"], "type": "G4", "gamma": -1.0, "eta": 0.005}, {"zeta": 2.0, "elements": ["Cu", "Cu"], "type": "G4", "gamma": 1.0, "eta": 0.005}, {"zeta": 2.0, "elements": ["Cu", "Pd"], "type": "G4", "gamma": 1.0, "eta": 0.005}, {"zeta": 2.0, "elements": ["Pd", "Pd"], "type": "G4", "gamma": 1.0, "eta": 0.005}, {"zeta": 2.0, "elements": ["Cu", "Cu"], "type": "G4", "gamma": -1.0, "eta": 0.005}, {"zeta": 2.0, "elements": ["Cu", "Pd"], "type": "G4", "gamma": -1.0, "eta": 0.005}, {"zeta": 2.0, "elements": ["Pd", "Pd"], "type": "G4", "gamma": -1.0, "eta": 0.005}, {"zeta": 4.0, "elements": ["Cu", "Cu"], "type": "G4", "gamma": 1.0, "eta": 0.005}, {"zeta": 4.0, "elements": ["Cu", "Pd"], "type": "G4", "gamma": 1.0, "eta": 0.005}, {"zeta": 4.0, "elements": ["Pd", "Pd"], "type": "G4", "gamma": 1.0, "eta": 0.005}, {"zeta": 4.0, "elements": ["Cu", "Cu"], "type": "G4", "gamma": -1.0, "eta": 0.005}, {"zeta": 4.0, "elements": ["Cu", "Pd"], "type": "G4", "gamma": -1.0, "eta": 0.005}, {"zeta": 4.0, "elements": ["Pd", "Pd"], "type": "G4", "gamma": -1.0, "eta": 0.005}], "Cu": [{"eta": 0.05, "type": "G2", "element": "Cu"}, {"eta": 0.05, "type": "G2", "element": "Pd"}, {"eta": 2.0, "type": "G2", "element": "Cu"}, {"eta": 2.0, "type": "G2", "element": "Pd"}, {"eta": 4.0, "type": "G2", "element": "Cu"}, {"eta": 4.0, "type": "G2", "element": "Pd"}, {"eta": 8.0, "type": "G2", "element": "Cu"}, {"eta": 8.0, "type": "G2", "element": "Pd"}, {"eta": 20.0, "type": "G2", "element": "Cu"}, {"eta": 20.0, "type": "G2", "element": "Pd"}, {"eta": 40.0, "type": "G2", "element": "Cu"}, {"eta": 40.0, "type": "G2", "element": "Pd"}, {"eta": 80.0, "type": "G2", "element": "Cu"}, {"eta": 80.0, "type": "G2", "element": "Pd"}, {"zeta": 1.0, "elements": ["Cu", "Cu"], "type": "G4", "gamma": 1.0, "eta": 0.005}, {"zeta": 1.0, "elements": ["Cu", "Pd"], "type": "G4", "gamma": 1.0, "eta": 0.005}, {"zeta": 1.0, "elements": ["Pd", "Pd"], "type": "G4", "gamma": 1.0, "eta": 0.005}, {"zeta": 1.0, "elements": ["Cu", "Cu"], "type": "G4", "gamma": -1.0, "eta": 0.005}, {"zeta": 1.0, "elements": ["Cu", "Pd"], "type": "G4", "gamma": -1.0, "eta": 0.005}, {"zeta": 1.0, "elements": ["Pd", "Pd"], "type": "G4", "gamma": -1.0, "eta": 0.005}, {"zeta": 2.0, "elements": ["Cu", "Cu"], "type": "G4", "gamma": 1.0, "eta": 0.005}, {"zeta": 2.0, "elements": ["Cu", "Pd"], "type": "G4", "gamma": 1.0, "eta": 0.005}, {"zeta": 2.0, "elements": ["Pd", "Pd"], "type": "G4", "gamma": 1.0, "eta": 0.005}, {"zeta": 2.0, "elements": ["Cu", "Cu"], "type": "G4", "gamma": -1.0, "eta": 0.005}, {"zeta": 2.0, "elements": ["Cu", "Pd"], "type": "G4", "gamma": -1.0, "eta": 0.005}, {"zeta": 2.0, "elements": ["Pd", "Pd"], "type": "G4", "gamma": -1.0, "eta": 0.005}, {"zeta": 4.0, "elements": ["Cu", "Cu"], "type": "G4", "gamma": 1.0, "eta": 0.005}, {"zeta": 4.0, "elements": ["Cu", "Pd"], "type": "G4", "gamma": 1.0, "eta": 0.005}, {"zeta": 4.0, "elements": ["Pd", "Pd"], "type": "G4", "gamma": 1.0, "eta": 0.005}, {"zeta": 4.0, "elements": ["Cu", "Cu"], "type": "G4", "gamma": -1.0, "eta": 0.005}, {"zeta": 4.0, "elements": ["Cu", "Pd"], "type": "G4", "gamma": -1.0, "eta": 0.005}, {"zeta": 4.0, "elements": ["Pd", "Pd"], "type": "G4", "gamma": -1.0, "eta": 0.005}]}, "activation": "tanh", "hiddenlayers": {"Pd": [4, 40], "Cu": [4, 40]}, "weights": {"Cu": {"1": [[-0.04651602365315852, 0.04155951590967806, 0.03669405490442568, 0.03678107877037998], [-0.043800182514656505, -0.03625560742004615, -0.04619235711790626, -0.022359053620320125], [0.04622396440716307, 0.03133884839171029, -0.04111325795322264, -0.00589224560546097], [-0.0248975177726975, -0.021950510257351025, -0.03710753485743759, 0.02780583708442061], [-0.01798629810049521, -0.007494762401516419, -0.020041005294896906, 0.00047524590741464257], [0.045498904780961, -0.015377492367438052, -0.04466630615737463, -0.011287684253286953], [0.031143755199409262, 0.024064985520858923, -0.02557037472337372, -0.03635358310621255], [0.024901155205580033, 0.03934959506389957, 0.03308872181047198, 0.010446902029746255], [0.0306694647277624, -0.03248616599680769, 0.011938466773570987, -0.010361468240002294], [0.025007924363521755, -0.025943342341160892, 0.02963024418618837, -0.014162202536607743], [0.016369059936107114, 0.03943390431926014, 0.029055454145868326, 0.0023218382174041152], [-0.03154642563616257, 0.03612587647256549, 0.03172381333208493, -0.040714776919325776], [-0.0007728440998146097, -0.005503243924417547, -0.004437899897248347, 0.04670648127281042], [-0.04142094906701095, -0.032006424837598815, -0.008492720492950842, 0.0011265458643533316], [0.016657841717257066, -0.043586355648264144, -0.014703366342665683, -0.04566816379769971], [-0.013192623327570513, -0.03555546643689329, -0.03186236781971798, 0.002389744309941856], [0.04086980859434318, -0.023033101846391568, -0.024918238933288813, 0.01294060169644344], [0.016721294555362018, 0.03131798589199386, 0.01649196043724123, 0.04296241042692296], [0.034881653713440014, 0.02158131297518391, -0.004339770607260929, 0.0032344532360557426], [0.024826196240552545, 0.03682270088742991, 0.04595238508393737, -0.010108321316733213], [0.009456815865115702, -0.04178894650110282, -0.032198065726767006, -0.02272205640565393], [-0.03559648062208899, 0.02863780766351881, 0.008158362345915687, 0.013036996886835267], [-0.01247995865130034, -0.014490140802454303, -0.013532769135565725, -0.03165768007795371], [0.017084294622109086, 0.02506577328359319, 0.03614228736396653, -0.04675053246691621], [-0.0011860672114019574, -0.04531888207801861, -0.04655192294023594, -0.011963991007816782], [-0.028935662023488407, -0.00019049232225591683, -0.03858596660728013, 0.023847766388751745], [0.0024003291515036773, 0.021788805250397114, 0.04546150394073803, 0.03108283551517363], [-0.0029642612113076477, -0.043979835478138427, -0.01626702169321507, 0.008913082320383903], [-0.011774745166784319, 0.03869547948590166, -0.027306931444399732, 0.004964306146538713], [0.02921265272854455, -0.017674024437302562, 0.0021900709746697222, 0.028652624376792224], [-0.03909247706897179, 0.03154273161998032, -0.02127809266607241, -0.019268158346825007], [-0.003996729745646813, -0.02352573488205113, -0.02578468080395798, 0.04351792497292495], [0.0, 0.0, 0.0, 0.0]], "2": [[0.12323153841538803, -0.16195186054085853, -0.23885425960114348, -0.04266936711891833, 0.287007267762974, -0.03299665214867065, -0.29654193616554636, 0.18141027240321794, 0.06194663193242911, -0.2048685878253585, -0.24563108000177164, 0.19519041509936552, -0.0725467158236871, 0.22135354795064732, -0.09432223843675552, -0.09770277063507127, 0.10432111292804952, 0.06328247063768083, -0.06210706319167425, 0.36669626042751624, 0.14615891626082766, -0.01944501405681137, -0.033929108626955196, -0.2212702239389722, 0.08050711957247536, 0.0363063366095161, -0.1711068494246575, 0.014739608706905494, 0.34243528173846804, 0.2759511076400787, 0.3009242965179545, 0.31296444925513833, -0.03488972011941194, -0.08720612263377414, 0.3445360539366278, -0.026403752056434138, 0.22339267853519806, 0.1664273484844978, 0.019069186569488528, 0.1106072607315951], [0.06303436180790056, 0.06698760785322538, 0.27355144343264315, -0.18134536050521483, -0.2576749805915016, 0.15233904630214712, 0.3121328373712474, -0.25081468592298223, 0.09359197243201589, 0.2736877040849267, 0.13956741971199405, -0.08647639412724639, -0.10311980064796922, -0.19534954778726937, -0.03391356700309012, -0.221963975034403, -0.33849727217239367, -0.20991981168098878, -0.27430553798657376, 0.16308052272019846, 0.07252572946121705, -0.3601491593857643, -0.0769167990621844, -0.162201510161366, -0.1697545196632725, -0.05795393734217558, -0.0861985430684622, 0.3208155927165087, 0.12732058811157554, 0.36922020827576996, 0.08391514701618197, -0.07276306213690442, -0.1652385784834962, -0.1349206900963072, 0.16822346836852475, 0.21260301114801372, 0.3152717059049551, -0.17111158552379338, 0.25836810535147703, -0.2759306155939385], [0.20647322670624368, -0.04999542576567095, -0.32793203174162666, 0.27136302837249704, -0.17147196861287212, 0.05944410719951576, 0.1532830667657712, -0.172944253367714, 0.028700363459771006, 0.043237654580795815, 0.3256878128293299, 0.13495411898075715, -0.10158052351402563, -0.06440884566029004, 0.35474260652877343, 0.11289471639691995, -0.34285293472665906, 0.1256410973179567, -0.2924596417179333, -0.04815596985423687, 0.0912311809182097, 0.2155536990921061, 0.11519919669192907, -0.23088642053101252, -0.3182973448864743, 0.1435686846467572, -0.2714949950946654, 0.3679505028482566, -0.3682832202756422, 0.021793638424468798, -0.27417639948535344, 0.12376120225037118, -0.2308575179197468, -0.0350417493074891, 0.3692395208549062, 0.2158425215686509, 0.29584441094152925, 0.0621388817148254, -0.24705717574397595, 0.14337711448623436], [-0.18621397305684764, -0.18590040490569865, 0.34111340881677443, 0.22364995637184804, 0.08692735055016593, 0.04989555309940663, -0.0929861493492376, 0.12653197655154902, -0.3165742457517934, 0.06888884309307064, -0.08744378324735552, 0.16300728246867668, 0.31209849099876796, -0.2977216401161904, -0.1739804833458681, 0.2612157048526097, 0.32689611671528274, -0.17875665958817497, -0.0911278303994647, 0.2919879228738267, 0.2917042381307431, 0.16387839868515774, -0.23589355302417556, 0.06388224662002617, 0.2963720261169608, -0.3222770945270854, -0.249807798294645, -0.1880240023767601, -0.0590388917812219, -0.2757673108704666, 0.14272263608454794, -0.10746372223607192, 0.35424783884297306, -0.012130839243618463, 0.3090227022185126, 0.1379122914233748, -0.37228421540931494, 0.22227191492307596, -0.3673008930231234, -0.2560886122510148], [0.0, 0.0, 0.0, 0.0, 0.0, 0.0, 0.0, 0.0, 0.0, 0.0, 0.0, 0.0, 0.0, 0.0, 0.0, 0.0, 0.0, 0.0, 0.0, 0.0, 0.0, 0.0, 0.0, 0.0, 0.0, 0.0, 0.0, 0.0, 0.0, 0.0, 0.0, 0.0, 0.0, 0.0, 0.0, 0.0, 0.0, 0.0, 0.0, 0.0]], "3": [[-0.002978312237112035], [-0.007552376388837871], [0.0016948878062975764], [-0.012591492980117195], [-0.012100321684609124], [-0.03187360039655247], [0.028445466626675554], [0.028515479186207164], [-0.032234243136145674], [0.007395067503057455], [-0.015729572850853687], [0.03694647046716231], [-0.009110376929621251], [0.021028808817630633], [0.01615665275111529], [-0.029797838515022712], [0.01672458059520779], [0.019776256509486535], [0.012014451267404906], [0.0012916928263501729], [0.03185187658788743], [-0.01187958240163238], [0.02542266251349532], [-0.035896592024554565], [0.006799600724595546], [-0.03129174621290149], [-0.006672607722201972], [0.030335611824443963], [0.012381498710986663], [0.03672420177329303], [-0.013990363889175465], [-0.028601538464146058], [-0.018422367960171455], [-0.0026094375334327832], [0.022562070115438308], [-0.006904946022719169], [-0.021731450785711388], [0.011541623429067976], [-0.014390292385897764], [0.029142656894318185], [0.0]]}, "Pd": {"1": [[0.04026003541340657, -0.02277340269352004, -0.03540988570068762, 0.0014195537682733933], [0.0435316629309211, -0.04641333776972835, -0.005041001277402389, 0.03644735680477315], [-0.025121109517870267, 0.029374650005616898, 0.027072091559315004, 0.02463535682780081], [-0.04030619638215954, -0.023012797468433578, -0.008488914224155014, -0.018534286094276726], [0.013735817908946929, 0.026430460334163713, -0.04357794137994091, -0.00520254074425712], [-0.0039536160220391345, -0.03985610488777186, 0.021725399690509573, -0.01533241965748404], [-0.03089822196113385, -0.020772296524882657, -0.004112047621100262, 0.02221612667043929], [-0.0009549516422990012, -0.025396660935734013, 0.027434458928734473, 0.008304732126910838], [0.03392169326349792, -0.001725832412482059, 0.020908841274535322, 0.024596151081993464], [0.0009993740994233558, 0.017753530047327507, -0.005202029730897825, -0.014165125240429177], [-0.022524776332285168, -0.015209798019702597, -0.025427097092619276, -0.04106370958621781], [0.03310552199041902, -0.023601599365969155, 0.022569368236905835, 0.007100545198214105], [-0.014091688532922683, 0.01780569018529747, 0.03386406478465552, -0.00784744057185452], [0.018959159870901868, 0.026401978655286318, 0.010618862907380004, -0.04619800474653057], [0.007180288484778571, 0.022734528430150114, 0.00520359279049927, -0.04044381565069585], [0.03161672517932214, -0.010454368596337596, -0.004965948580565961, 0.03772651389380248], [-0.03979924107592275, -0.002544673048944193, 0.0394317542925557, -0.005974012524744651], [0.007757976086822965, 0.0021221142165814832, -0.02318789182473554, 0.02451047656312172], [0.04232822871028266, 0.00162673230744987, 0.013675021860186432, 0.01414543908721233], [-0.018093769081960778, 0.038810903455634774, 0.013566704520414023, 0.0391443124433163], [-0.027224718544747332, -0.034745456455245884, -0.04449818892494055, -0.01718766825226352], [0.04394037932054751, 0.03622144016627453, 0.009505257874287056, 0.046296233678785007], [0.019005951561629347, 0.018397078994692756, 0.0033272146886378223, 0.023831180695848886], [0.04651123466759148, -0.009652942547607749, -0.03911726156019245, -0.030895024174287373], [0.012404971222405636, 0.008154486960099974, 0.02541360440580856, 0.042510833642944335], [0.03027768096600321, 0.039668342218892344, -0.038829957734840465, -0.04379808238633552], [-0.026848993243605363, -0.020347342869134828, 0.021418301473727683, 0.012403391363269942], [-0.03570084710828015, 0.01264490082869122, 0.014838308574011902, -0.04676274165119153], [-0.028648780829541285, 0.04207491344293299, 0.03321389121683353, -0.022448574153256663], [0.03637499671398524, 0.029269878778030223, -0.03035777336457111, -0.025952570244677897], [0.043005228417484845, -0.02920324463155405, 0.011993438079548058, -0.029513735436559115], [-0.024706295940976352, -0.04583460834231019, -0.04565207527825103, -0.039878772694487405], [0.0, 0.0, 0.0, 0.0]], "2": [[-0.13266605189872027, 0.19041681076721617, -0.3094350409165624, -0.3725855983529134, -0.2785683763821758, -0.2985928255137569, 0.1801597586209993, 0.3247458962326558, 0.3455577220958457, 0.09651503564359504, -0.08710700305110541, 0.22570206154482486, 0.07929539929240248, -0.12057199555356934, 0.0020868752612918096, 0.3428307244393711, 0.0379563200532641, 0.12379247355981343, -0.33346806153696196, 0.16933393952690057, 0.07332996877831505, -0.20410941152539686, 0.24205299330728947, 0.342856903731766, 0.36006323393086404, -0.3344593956275842, -0.2387469183202618, -0.04971559969435446, -0.228211867364433, 0.35374178922792177, -0.10420403563491765, -0.20768864762851774, -0.15617484518232602, 0.25228237317512203, 0.11080685566784654, 0.013481115312101943, 0.24212608452547746, 0.27182311084096356, 0.09370534671437608, 0.21280665929013254], [0.23586590453536083, 0.2738453593158088, -0.10517787889436114, 0.17518679268459147, -0.31387941154407273, 0.10250565989652516, 0.3605217479660462, -0.22867321150456962, -0.28739836057558865, -0.07161943231702711, -0.07111381744301415, -0.0008385804142087006, 0.04574435680239386, 0.27054211715281795, 0.23706150498211442, -0.15816037848995942, -0.045090044806677165, -0.10600725885238049, -0.22064176598993532, -0.2015266086383882, 0.32798580765063756, -0.09275700066761322, 0.09737815219240503, -0.027206901857109167, 0.19964906081126843, 0.08321195573778561, -0.2779751566118788, 0.26641776945604256, 0.30204773454598777, 0.23455969288282397, 0.3527932539676999, 0.33285625189092183, -0.002437544609828035, 0.15780079652427448, -0.21684602735520148, 0.006236406464484867, 0.3383536172829841, -0.1656025225296489, 0.3599608967131058, -0.21749227214345726], [0.3323194661112818, -0.18005068499300497, 0.12711275801770838, -0.3210296506884023, 0.2663254579675709, -0.11773974994306291, 0.028666227752249474, -0.10055404196049772, 0.18896249936711018, 0.1527828253103325, -0.2980717813953956, -0.14947643942831673, -0.31178850779235623, -0.005635192543623324, 0.3326458203493474, -0.3200554976164846, 0.3447958313086742, 0.1858158846645348, -0.363470999044097, 0.11998725134950328, 0.022789718325259334, -0.09830938449825882, 0.0034605581288512655, 0.1559984142750953, 0.27799875288768916, -0.3653248137729759, 0.03045291863357763, -0.08947908772044427, 0.32390193692286695, -0.054328757043961895, 0.3079889075040141, -0.2328048091835022, 0.215501096205707, 0.29587153150768297, -0.19252623473154304, -0.04260808563552765, 0.24269730411591317, -0.11908834733959711, 0.3495457920481567, -0.053488532255397736], [-0.37321748607792793, 0.09204151181130038, -0.21278219372256685, 0.2202077945891937, 0.18092382003683216, 0.25447069215719276, -0.34090354603321366, -0.2653083217890371, 0.28402850495598986, 0.18614471556945555, -0.3744330845912506, 0.35149682100975677, 0.011223000817969508, 0.009548329548636492, -0.1343403917095476, -0.326866748871716, -0.32169333590564797, -0.017383731350346765, -0.08351650044926606, -0.2673448842860904, -0.25941814641173333, -0.3701761057677547, 0.03902316068543121, -0.07415079220322429, -0.08739591621207071, -0.23285242056106784, -0.16652985340245474, -0.3294493079861276, -0.2886254646083317, -0.1316657600271642, 0.20277286177083997, 0.29823099585790025, 0.15159333778832562, 0.15012354743402967, -0.3195785942962194, 0.019503276054137375, 0.181015914047145, -0.32417786945480387, -0.2481286538164862, -0.14404584089557876], [0.0, 0.0, 0.0, 0.0, 0.0, 0.0, 0.0, 0.0, 0.0, 0.0, 0.0, 0.0, 0.0, 0.0, 0.0, 0.0, 0.0, 0.0, 0.0, 0.0, 0.0, 0.0, 0.0, 0.0, 0.0, 0.0, 0.0, 0.0, 0.0, 0.0, 0.0, 0.0, 0.0, 0.0, 0.0, 0.0, 0.0, 0.0, 0.0, 0.0]], "3": [[0.01588925744669064], [-0.02244271273787163], [-0.028589741643160468], [-0.0011561093743001766], [0.004683963629935443], [0.0279972135881763], [-0.003360453996120616], [-0.019309743485493285], [0.01458071839674785], [0.018618498179973235], [-0.015873293194318235], [0.009351238109583104], [-0.022400308589563614], [0.03547851271446326], [0.004497558035632107], [-0.0055740342052117975], [0.021998035561088654], [0.023138131618396666], [0.00441985848024453], [0.010745552011029377], [0.012688348168285506], [0.037041007459931795], [-0.014741013401520318], [0.03338596149782371], [-0.021459187521997623], [0.028575336455765217], [-0.011763363446697768], [-0.02651649708380476], [0.012459153591200256], [-0.03433099870384605], [-0.02497266066780132], [0.015883820893338105], [0.02507621761792104], [0.014052326884244022], [0.011027221498914573], [0.029175536963246644], [-0.018174618727250774], [-0.03203017569204614], [-0.008611269035332544], [-0.020407747768175135], [0.0]]}}, "fingerprints_range": {"Cu": [[0.0, 30.80216816946124], [0.0, 21.107715476229174], [0.0, 17.484290395410294], [0.0, 12.337890561734708], [0.0, 10.890146255978296], [0.0, 7.8762065126559815], [0.0, 5.204830005858291], [0.0, 3.8384169191962156], [0.0, 1.0822029998103229], [0.0, 0.7702142399843445], [0.0, 0.11672821813605691], [0.0, 0.09579851951537856], [0.0, 0.0016620228859608299], [0.0, 0.0014999082499671163], [-2.903634418643349e-17, 2753.967158376269], [0.0, 1339.0774553779588], [0.0, 1219.2135050010959], [0.0, 1969.1638860151352], [0.0, 933.9576344679633], [0.0, 890.6147634923126], [0.0, 2037.9504191669928], [0.0, 999.1121607682313], [0.0, 895.7686385654737], [0.0, 1253.1471468059065], [0.0, 593.9923398582351], [0.0, 567.1698970566891], [0.0, 1396.4850770342705], [0.0, 694.3948342368042], [0.0, 606.8013791049098], [0.0, 736.8377080388007], [0.0, 348.9904146530375], [0.0, 333.4019139572645]], "Pd": [[0.0, 24.8400310718317], [0.0, 23.80998849005955], [0.0, 14.474024824677544], [0.0, 13.53970742462996], [0.0, 9.279759042906964], [0.0, 8.380887593342328], [0.0, 4.621782142076165], [0.0, 3.9013328509929], [0.0, 0.9638689065495792], [0.0, 0.7254885658534357], [0.0, 0.09688617543634871], [0.0, 0.06459500411004933], [0.0, 0.0014999082499671157], [0.0, 0.0005969806159118931], [-2.6171500434006593e-17, 1778.0113970967157], [0.0, 1339.0774553779634], [-5.540189831791549e-17, 1609.8718092115669], [0.0, 1282.3086028451698], [0.0, 933.9576344679631], [0.0, 1155.1585128594002], [0.0, 1312.249733255385], [0.0, 999.1121607682309], [0.0, 1189.5611400731427], [0.0, 816.5469390038353], [0.0, 593.9923398582329], [0.0, 734.8478437209878], [0.0, 895.5277923005882], [0.0, 694.3948342368044], [0.0, 812.5636028169727], [0.0, 480.2246777464244], [0.0, 348.9904146530362], [0.0, 432.15164930503533]]}, "fingerprints_tag": 1, "scalings": {"Pd": {"slope": 2.8605843268749997, "intercept": -2.564861391875}, "Cu": {"slope": 2.8605843268749997, "intercept": -2.564861391875}}}