{"cutoff": 6.5, "Gs": {"Pd": [{"eta": 0.05, "type": "G2", "element": "Cu"}, {"eta": 0.05, "type": "G2", "element": "Pd"}, {"eta": 4.0, "type": "G2", "element": "Cu"}, {"eta": 4.0, "type": "G2", "element": "Pd"}, {"eta": 20.0, "type": "G2", "element": "Cu"}, {"eta": 20.0, "type": "G2", "element": "Pd"}, {"eta": 80.0, "type": "G2", "element": "Cu"}, {"eta": 80.0, "type": "G2", "element": "Pd"}, {"zeta": 1.0, "elements": ["Cu", "Cu"], "type": "G4", "gamma": 1.0, "eta": 0.005}, {"zeta": 1.0, "elements": ["Cu", "Pd"], "type": "G4", "gamma": 1.0, "eta": 0.005}, {"zeta": 1.0, "elements": ["Pd", "Pd"], "type": "G4", "gamma": 1.0, "eta": 0.005}, {"zeta": 1.0, "elements": ["Cu", "Cu"], "type": "G4", "gamma": -1.0, "eta": 0.005}, {"zeta": 1.0, "elements": ["Cu", "Pd"], "type": "G4", "gamma": -1.0, "eta": 0.005}, {"zeta": 1.0, "elements": ["Pd", "Pd"], "type": "G4", "gamma": -1.0, "eta": 0.005}, {"zeta": 4.0, "elements": ["Cu", "Cu"], "type": "G4", "gamma": 1.0, "eta": 0.005}, {"zeta": 4.0, "elements": ["Cu", "Pd"], "type": "G4", "gamma": 1.0, "eta": 0.005}, {"zeta": 4.0, "elements": ["Pd", "Pd"], "type": "G4", "gamma": 1.0, "eta": 0.005}, {"zeta": 4.0, "elements": ["Cu", "Cu"], "type": "G4", "gamma": -1.0, "eta": 0.005}, {"zeta": 4.0, "elements": ["Cu", "Pd"], "type": "G4", "gamma": -1.0, "eta": 0.005}, {"zeta": 4.0, "elements": ["Pd", "Pd"], "type": "G4", "gamma": -1.0, "eta": 0.005}], "Cu": [{"eta": 0.05, "type": "G2", "element": "Cu"}, {"eta": 0.05, "type": "G2", "element": "Pd"}, {"eta": 4.0, "type": "G2", "element": "Cu"}, {"eta": 4.0, "type": "G2", "element": "Pd"}, {"eta": 20.0, "type": "G2", "element": "Cu"}, {"eta": 20.0, "type": "G2", "element": "Pd"}, {"eta": 80.0, "type": "G2", "element": "Cu"}, {"eta": 80.0, "type": "G2", "element": "Pd"}, {"zeta": 1.0, "elements": ["Cu", "Cu"], "type": "G4", "gamma": 1.0, "eta": 0.005}, {"zeta": 1.0, "elements": ["Cu", "Pd"], "type": "G4", "gamma": 1.0, "eta": 0.005}, {"zeta": 1.0, "elements": ["Pd", "Pd"], "type": "G4", "gamma": 1.0, "eta": 0.005}, {"zeta": 1.0, "elements": ["Cu", "Cu"], "type": "G4", "gamma": -1.0, "eta": 0.005}, {"zeta": 1.0, "elements": ["Cu", "Pd"], "type": "G4", "gamma": -1.0, "eta": 0.005}, {"zeta": 1.0, "elements": ["Pd", "Pd"], "type": "G4", "gamma": -1.0, "eta": 0.005}, {"zeta": 4.0, "elements": ["Cu", "Cu"], "type": "G4", "gamma": 1.0, "eta": 0.005}, {"zeta": 4.0, "elements": ["Cu", "Pd"], "type": "G4", "gamma": 1.0, "eta": 0.005}, {"zeta": 4.0, "elements": ["Pd", "Pd"], "type": "G4", "gamma": 1.0, "eta": 0.005}, {"zeta": 4.0, "elements": ["Cu", "Cu"], "type": "G4", "gamma": -1.0, "eta": 0.005}, {"zeta": 4.0, "elements": ["Cu", "Pd"], "type": "G4", "gamma": -1.0, "eta": 0.005}, {"zeta": 4.0, "elements": ["Pd", "Pd"], "type": "G4", "gamma": -1.0, "eta": 0.005}]}, "activation": "tanh", "hiddenlayers": {"Pd": [3, 25], "Cu": [3, 25]}, "weights": {"Cu": {"1": [[4.834209029808204, -3.5089229535896975, -0.6671651874413196], [4.984948744629071, -3.9137162103392127, 0.1596084629238637], [0.08880427818157466, -0.6340909027939949, 0.7908895028991487], [-1.3181262151667184, 0.7068432926028085, -0.9855433823821358], [-0.2466797792432584, 0.7968292224451202, -0.08127246038791398], [0.34629731995397106, 0.3559063020636452, 0.41768556966610126], [-0.07907188726889999, -0.047253615170491224, 0.3935908330311918], [-0.12142626880785799, -0.14743238148494214, 0.33141450167044156], [-2.5017303788181637, 3.995881394783283, -2.150458672327934], [2.3632952051064926, 0.28714884268523644, 1.815340849264616], [-1.0238073404808297, 4.746419192256025, 0.855316842304605], [-7.106551053953844, 5.300217215958563, 3.1320380875573193], [-7.002703978336444, 4.236090803763647, -0.6579797931976453], [-3.9453489019733974, 3.4869463764132154, 2.011864835335126], [3.1316921685153742, -3.5725040561669763, 1.3489058082242544], [-0.6730305460144599, -0.5554930630473693, -1.2484162687246276], [1.3121054698245769, -3.8698689285944767, -3.607694154958604], [4.026667386500953, -3.686108148671835, -3.03757108789036], [4.022406653885061, -3.3187138870344493, 0.1612824050663591], [2.365894691288922, -2.852071079274998, 0.7094508547212752], [-0.5936969239289682, 0.0735752890500954, 0.996012547629829]], "2": [[0.7838862718071036, -0.7315243792944064, -0.12176903067634436, 2.361410382273696, -1.328157336851951, 0.01017674145916252, -2.2738655962548036, 4.36187304033477, -0.543492997746852, 0.4189640288665476, 0.9439341409334523, -0.6995655910972444, -1.6953490920378071, 2.055969874144724, 1.7789076296628847, 1.1649376155403481, 2.248645330325108, -1.7492096378711577, -1.7290267483010835, 0.02002130616826433, -3.430467790139968, -1.6121902435101856, 3.6666911173535244, -3.91235687591789, -1.2089691903735846], [1.5719808674354045, -0.5050596978481263, -0.3522942300173832, -1.3637453343214214, -1.854250208198267, -2.105964004737555, 0.6094985744041207, 0.3128233853025973, -1.7075294669179497, 1.888698534003679, 0.31773539687106034, -0.9891911016132008, 0.7108917627195142, 3.1217848258526386, 3.364257795904233, -2.915381453129653, 2.8672204293465726, -2.2978785508353514, -4.137751102328931, -0.3847740909183148, -1.8112481686938557, -1.8715904844155822, 7.509605341038004, -4.167369451869444, -1.3643414722193676], [3.7585567550484917, -1.5855675442794646, -1.1704402008686239, -1.5180003794184223, 0.8489908881689452, -0.8934773781960176, -1.2765862155642207, 0.8825991486919601, -2.7547014373778413, 1.2488349199515292, 0.9201022574421001, -3.3759287832106133, 0.5792312148642733, -3.3286717756093167, 1.1991013603059097, -0.5236734584254958, -3.7353499133135566, 0.20819266642888537, 1.1080721920293848, 0.20903104693043575, 2.443581690190405, -0.2812014488221152, 2.7669657575094426, -0.1563582484429454, -1.6707219333236019], [-1.5766999146468235, -0.18902477870395365, -1.225205335643338, 4.0824301956031634, 0.09471650696979586, 0.2636449567268202, -2.02357236040718, 3.188409453495878, -2.1541542511703122, -1.6839454996866767, 0.4273238658205014, 1.6043349965530107, -0.3957242794804472, 3.339317655821697, 0.7783548700643931, 0.4631937955788652, 3.3613691308306497, -0.4495312944958382, -1.1746328467266498, 1.071840160259104, -3.1855695094314838, -0.7857848228052157, -2.3385827538933506, -0.6547985144487568, -0.2846482039360597]], "3": [[0.7833805819330366], [1.783391724756178], [-1.4103892906695803], [-1.092916953395226], [0.8647785632352984], [0.44786276364374905], [-0.2884320654988528], [-0.38768787697366897], [1.139255060250517], [1.1717752765900602], [0.9091257053427337], [0.9449736827226766], [0.41173337893535567], [-1.1650624006448944], [-0.21226769221362113], [-0.2146925634763291], [0.8640872307516864], [-1.7755316458197932], [0.28781014176391784], [1.4331174510714013], [-0.17182957442058452], [0.7313346445347988], [-2.0394488652140987], [0.2433935666811363], [-1.070969677626523], [-1.3559421261988487]]}, "Pd": {"1": [[0.062351245637051037, -0.4074521972639467, -0.04873537885725815], [0.5218192109383397, -1.522523803831343, -1.551840537006935], [0.8709558353081975, -0.593291120366808, -1.1722314522164814], [-0.6196042251118411, 0.20224373245565247, -0.4100171927439519], [-0.1836545667745882, 0.1356719169148591, 0.4110365330021727], [0.10823093306245812, -0.05382177761098006, 0.486752005972808], [-0.12584600642530355, 0.043783324635510934, -0.04651953174751115], [-0.6808732496136468, 0.27676703530653024, -0.3142978367821382], [-12.199491154414591, 4.738721448796677, 9.093926759712303], [-1.7705093450180687, -0.07921378733982505, 1.2238355204299078], [4.72967662863432, -6.10378476601298, -1.0499773319327204], [4.803424846952658, -1.1890271805702155, -2.4630090356435494], [1.9164003831009815, 0.9721241394039972, -0.16954047151079912], [-1.4340847506663192, 7.184668153941039, 5.810031672606965], [8.106185800524786, -3.598171306093762, -6.348889547592053], [0.5685878261249127, -0.031336372469376914, -0.6278830298367012], [-4.147815062447096, 3.10266863764181, -0.14492912417095333], [-1.312349378960855, 0.3078407347911443, 0.4911167952761993], [-0.20077254750127424, -0.8188017057445581, -0.660420053206524], [2.7517329961922194, -3.949621019502948, -4.371201563777208], [1.5900130167284678, 0.05489957874211703, 0.12208523151046463]], "2": [[1.8770700160031701, -0.3425476875657726, 1.6491828746677173, 0.003938934418328568, 0.9402064192223873, 7.149777132204433, -0.8151198161704034, 0.42050378154276163, -0.16376260508501486, -0.12734795634560991, 0.6922666492299829, -0.28326848795437576, -0.9064732957034777, 0.8355331257163572, -1.214649425636877, 1.0456976603273413, -1.1367339850697753, 1.20402266784661, -1.0076580096283514, -2.156614248721392, 2.669351971286982, -2.0258801175016226, -0.9739398239465107, 0.878155999857388, 0.8446221009879139], [3.006603025186904, -0.9595035843393162, 1.5252612901901348, 1.6009380376705074, 0.25428954582581037, 0.44971082138208013, -1.5813970773988018, -0.10579883990046994, 1.9128234973161722, 0.1520170430229064, -0.565560516758864, -1.073301572349102, -1.691835724173913, 0.2968617799942028, 1.78189401449586, 1.5954539190368449, -1.7471547426304261, 3.2322092282056976, 1.5157808377965412, 0.7753487907841468, 3.0258330857687707, -6.350586908739273, -2.0288834422098505, 1.0207413528031621, 1.8286093901692355], [-2.835243004130527, -1.4626824955419786, -2.769410079692624, -4.9638356431959085, 1.2726710177482945, 2.6087973314103126, -1.6645205411805302, -2.017481141390349, -0.11740766760372605, -0.015862929866119622, 1.740359298675201, -1.2837498376143663, 0.04140997608766403, -2.2854944509311994, -0.17132844328804983, -2.282482607089131, -4.00782089743713, -1.7951170666398228, -0.4350309526816127, -0.9878525948074834, 3.0829060426151886, 0.37398203168168687, -3.1831904235554545, -2.233195476824279, 2.4814092080677823], [-0.7809864002795892, -1.28950894412943, -2.259582857900848, 1.8514662447972499, -0.22605008875132823, -4.0007937608494615, -0.8971183335377604, 2.054445632718532, 0.9905014362358102, -1.0182076845818229, 1.608323658569579, 2.303386522273472, -0.6636816771790658, 0.6434243248263334, -1.5120461812306365, 1.2810288100483596, -0.4389272524806943, -0.24078665684485645, 1.340978768874897, 3.170507385661158, -1.447269665243041, -1.1824598170207057, -0.4882738831741892, 0.8910366884708176, 3.504001962312294]], "3": [[-0.8876967415579514], [3.086395513906843], [-0.8349432783909381], [0.16594826941469626], [0.7940728992046796], [-0.07283776838416012], [-1.9594321652169737], [-1.120407241726828], [2.9510921068197375], [-2.967720974869171], [-0.5067510412694706], [3.1212887546862547], [3.048865788346974], [2.2565567882619555], [-0.005548264072932257], [2.546188726880475], [-1.5349236268354591], [1.798574566690178], [-2.2372795968773893], [3.595325911329077], [-0.029389163976643776], [0.785245390540037], [2.34001967415048], [-4.746021010445789], [-3.6821973006862514], [-1.1910277897683346]]}}, "fingerprints_range": {"Cu": [[0.0, 19.717528184980367], [0.0, 12.954617486692312], [0.0, 6.763827902345048], [0.0, 4.714947330374815], [0.0, 0.4690986508436296], [0.0, 0.3591942437989357], [0.0, 8.091157146993111e-05], [0.0, 6.70824590060896e-05], [0.0, 801.3693395965696], [0.0, 185.39781543928953], [0.0, 380.6581764033588], [0.0, 607.2663840318448], [0.0, 231.76903839707245], [0.0, 221.42076155225536], [0.0, 382.67810433385426], [0.0, 75.1704048127164], [0.0, 198.3503394287148], [0.0, 226.15041328755734], [0.0, 104.68820018085577], [0.0, 69.90910953322468]], "Pd": [[0.0, 12.8624897130153], [0.0, 18.849230862512158], [0.0, 4.565811427008994], [0.0, 6.436073106044743], [0.0, 0.31261700513528473], [0.0, 0.42485844093709624], [0.0, 5.453323564168128e-05], [0.0, 5.963922275121878e-05], [0.0, 387.63611918126753], [0.0, 201.06082384923803], [0.0, 768.9373797173059], [0.0, 216.01123836799178], [0.0, 234.91303084909833], [0.0, 579.7588665624862], [0.0, 204.69128069561307], [0.0, 81.20809618623912], [0.0, 368.92772219112385], [0.0, 65.71501674010052], [0.0, 106.06324624063065], [0.0, 215.963130891552]]}, "fingerprints_tag": 1, "scalings": {"Cu": {"intercept": -3.7633189398836802, "slope": 1.8969863855375986}, "Pd": {"intercept": -4.4158549781974905, "slope": 2.8050911485854062}}}