{"cutoff": 6.5, "Gs": {"Pd": [{"eta": 0.05, "type": "G2", "element": "Cu"}, {"eta": 0.05, "type": "G2", "element": "Pd"}, {"eta": 4.0, "type": "G2", "element": "Cu"}, {"eta": 4.0, "type": "G2", "element": "Pd"}, {"eta": 20.0, "type": "G2", "element": "Cu"}, {"eta": 20.0, "type": "G2", "element": "Pd"}, {"eta": 80.0, "type": "G2", "element": "Cu"}, {"eta": 80.0, "type": "G2", "element": "Pd"}, {"zeta": 1.0, "elements": ["Cu", "Cu"], "type": "G4", "gamma": 1.0, "eta": 0.005}, {"zeta": 1.0, "elements": ["Cu", "Pd"], "type": "G4", "gamma": 1.0, "eta": 0.005}, {"zeta": 1.0, "elements": ["Pd", "Pd"], "type": "G4", "gamma": 1.0, "eta": 0.005}, {"zeta": 1.0, "elements": ["Cu", "Cu"], "type": "G4", "gamma": -1.0, "eta": 0.005}, {"zeta": 1.0, "elements": ["Cu", "Pd"], "type": "G4", "gamma": -1.0, "eta": 0.005}, {"zeta": 1.0, "elements": ["Pd", "Pd"], "type": "G4", "gamma": -1.0, "eta": 0.005}, {"zeta": 4.0, "elements": ["Cu", "Cu"], "type": "G4", "gamma": 1.0, "eta": 0.005}, {"zeta": 4.0, "elements": ["Cu", "Pd"], "type": "G4", "gamma": 1.0, "eta": 0.005}, {"zeta": 4.0, "elements": ["Pd", "Pd"], "type": "G4", "gamma": 1.0, "eta": 0.005}, {"zeta": 4.0, "elements": ["Cu", "Cu"], "type": "G4", "gamma": -1.0, "eta": 0.005}, {"zeta": 4.0, "elements": ["Cu", "Pd"], "type": "G4", "gamma": -1.0, "eta": 0.005}, {"zeta": 4.0, "elements": ["Pd", "Pd"], "type": "G4", "gamma": -1.0, "eta": 0.005}], "Cu": [{"eta": 0.05, "type": "G2", "element": "Cu"}, {"eta": 0.05, "type": "G2", "element": "Pd"}, {"eta": 4.0, "type": "G2", "element": "Cu"}, {"eta": 4.0, "type": "G2", "element": "Pd"}, {"eta": 20.0, "type": "G2", "element": "Cu"}, {"eta": 20.0, "type": "G2", "element": "Pd"}, {"eta": 80.0, "type": "G2", "element": "Cu"}, {"eta": 80.0, "type": "G2", "element": "Pd"}, {"zeta": 1.0, "elements": ["Cu", "Cu"], "type": "G4", "gamma": 1.0, "eta": 0.005}, {"zeta": 1.0, "elements": ["Cu", "Pd"], "type": "G4", "gamma": 1.0, "eta": 0.005}, {"zeta": 1.0, "elements": ["Pd", "Pd"], "type": "G4", "gamma": 1.0, "eta": 0.005}, {"zeta": 1.0, "elements": ["Cu", "Cu"], "type": "G4", "gamma": -1.0, "eta": 0.005}, {"zeta": 1.0, "elements": ["Cu", "Pd"], "type": "G4", "gamma": -1.0, "eta": 0.005}, {"zeta": 1.0, "elements": ["Pd", "Pd"], "type": "G4", "gamma": -1.0, "eta": 0.005}, {"zeta": 4.0, "elements": ["Cu", "Cu"], "type": "G4", "gamma": 1.0, "eta": 0.005}, {"zeta": 4.0, "elements": ["Cu", "Pd"], "type": "G4", "gamma": 1.0, "eta": 0.005}, {"zeta": 4.0, "elements": ["Pd", "Pd"], "type": "G4", "gamma": 1.0, "eta": 0.005}, {"zeta": 4.0, "elements": ["Cu", "Cu"], "type": "G4", "gamma": -1.0, "eta": 0.005}, {"zeta": 4.0, "elements": ["Cu", "Pd"], "type": "G4", "gamma": -1.0, "eta": 0.005}, {"zeta": 4.0, "elements": ["Pd", "Pd"], "type": "G4", "gamma": -1.0, "eta": 0.005}]}, "activation": "tanh", "hiddenlayers": {"Pd": [2, 20], "Cu": [2, 20]}, "weights": {"Cu": {"1": [[0.09083423702621188, 1.5883502024914673], [0.7041169397996565, 0.4690945219637435], [-1.1329456830525912, -0.27163277098653515], [-0.7780470219154577, 0.1465751847079705], [0.547078632910557, 0.10047071726711221], [0.49307985520296493, -0.007606872099241414], [-0.2154264304327563, -0.022992327599576763], [-0.3607644867132051, 0.017379448009794435], [0.973635411451079, -9.994782904890888], [-2.726279959794178, -0.11627919635431744], [-14.295040617028112, 2.7107654975990547], [7.233049465296899, 2.2481975461020656], [6.902445660979858, -1.8344684073043114], [12.577737018278524, -3.534713229993874], [-2.022380559673125, 6.616873860295547], [0.9070663968800686, 0.315411755781318], [7.721168037894879, -1.165896137979153], [-4.880644076776551, -0.04283569962925719], [-4.643782752212448, 1.3704659199309979], [-5.980977229979005, 1.807732603901056], [1.1097602682213294, -0.3480128063085489]], "2": [[1.793572664772236, -2.8732818402899785, 1.5697653147665538, 2.5685320528596542, -1.623287012506858, 0.9195193613222208, 1.790385413869846, 6.340288233600669, 3.5244204676307103, -0.7680497156855843, -3.2046272443201484, -5.572696433887393, -1.3516966443646494, -4.1048293177646284, 0.24533385251536724, 5.408363594487326, 6.050529965088979, 0.7023811981881062, -5.75693734020648, -0.9927116324037069], [1.6279356797554458, -2.393016743621309, -1.1779300368105, 6.878823433544565, -0.37212900893019424, -9.505044231947391, -6.798554442448398, -0.0007810805481238622, 6.957668261647571, -1.2273727160812187, -5.10407637976564, 3.4248117097957693, 7.747041577733853, 0.25485754549147216, -0.6124946847169729, 3.0959141176996297, -3.5830015537259174, -5.283217821740231, -0.10591457145334018, 5.822383325984205], [-0.15756084431099965, 0.5410257969604535, -1.8004601953615857, -1.4425594294488313, 0.7058598038231012, 1.5720663812807016, -5.068854476430301, -0.03695320094722276, -0.6277152063499439, 1.4161202464765787, 0.6295808070499531, 1.4926120332511021, 0.27444699758206587, -0.7951019629752868, -1.0796313191381492, 2.575220357193359, -1.6618598637399933, 1.8496174198172306, -1.8608462103646142, -1.5649506715489483]], "3": [[-5.802162054816421], [-0.31583798506543126], [-0.7272092466160598], [-0.571618548427254], [-1.123635073561227], [-2.3094234400927793], [4.910623713660376], [0.6653183349311668], [-1.912532422519069], [-5.676698494019554], [-3.5721368099557433], [-2.311890872813979], [0.4254694338738726], [2.07790911737328], [-2.034722741670693], [0.771686975804954], [-1.832703802092033], [3.9219731205719435], [-5.77045722797632], [-3.01335630238449], [-1.4361656752759886]]}, "Pd": {"1": [[-1.2599047312661689, -1.294679897585718], [-2.1416655320203795, -1.0147173973379475], [-0.5791825251696573, 1.10772729380646], [-0.5991105312208945, 1.308574202667987], [0.1567421325809534, -0.5501455213396526], [0.27265297092196306, -0.9609397245326208], [-0.001734855359500008, 0.2711362428595641], [-0.07485524477067433, 1.3908203341901866], [-8.244039556927245, 10.436088316254759], [-5.166868630431653, 2.183098846088066], [-17.41678535312658, 8.0411263028297], [9.128467603068925, -5.7735678240168244], [10.629022530341299, -3.2131439858857305], [23.187346574103433, -12.79497993359749], [3.1380376182333163, -6.400585131131365], [1.7850008587355375, -0.915660434667447], [6.964053636277154, -2.969392757993205], [-3.732199605210652, 2.262525485654662], [-6.614754126148555, 1.7410852522931295], [-11.7371249857965, 7.07674351980534], [0.5454014774938777, 1.108332069474679]], "2": [[1.8399048322737632, -9.0011797388008, -1.5141510337579174, -1.996017974062652, 0.048250048681603715, -4.62905073651766, 4.97306510481774, -5.323951575519993, -2.1758626472961207, 0.5614485882664928, 8.45054260877408, 4.924796007587269, 7.523370613638141, 2.3062312040744546, 3.9467055774618243, -8.22219761761275, 2.925704111067148, -1.8173545581698227, 4.3765176170166695, 2.6038895158128534], [1.6049485607663383, -3.068656873118476, 0.6637791510171244, 1.2975317208326727, 2.5379410475988404, 5.7301131398277265, -7.1938260668115115, -1.028969096216633, -1.207569465724673, 3.3883726900545543, 2.6447432470728884, -4.104110874310194, 5.090622036065911, 9.17407045356579, 6.597017290926056, 10.324387691266535, 0.48615857244245375, 3.104438682084598, 2.403298579569154, 4.896282524626269], [0.005866609887270158, 0.5651906865756586, 0.4231574633294631, -0.39446137746156185, -2.173873746372315, 0.17050094461562162, 0.4787177494888377, 0.4135466356434595, 0.9229805467728736, -0.17514402172815163, -0.45536894321582466, -1.442269288900186, -0.7799655941771518, 0.7077567939619748, -2.152311011031671, 0.018343849146151767, 0.978905394874167, -1.4739969729840006, 0.24278959697922536, -0.17861781110143404]], "3": [[1.9758902563752054], [0.7299430806575717], [0.227943071889953], [-2.3509334696053275], [1.1063406603613328], [-1.385803517079263], [-0.43378258330461106], [0.24369785454282628], [1.9464823214158002], [3.8465460162875638], [0.6158611229681965], [-0.43393083348642153], [0.6366274827345147], [1.362525375805098], [-0.2495149562911827], [0.3172596254204626], [2.5320770600650047], [0.7804601495162073], [-3.2640122863566425], [-2.5137219332912144], [-3.931893451661034]]}}, "fingerprints_range": {"Cu": [[0.0, 19.717528184980367], [0.0, 12.954617486692312], [0.0, 6.763827902345048], [0.0, 4.714947330374815], [0.0, 0.4690986508436296], [0.0, 0.3591942437989357], [0.0, 8.091157146993111e-05], [0.0, 6.70824590060896e-05], [0.0, 801.3693395965696], [0.0, 185.39781543928953], [0.0, 380.6581764033588], [0.0, 607.2663840318448], [0.0, 231.76903839707245], [0.0, 221.42076155225536], [0.0, 382.67810433385426], [0.0, 75.1704048127164], [0.0, 198.3503394287148], [0.0, 226.15041328755734], [0.0, 104.68820018085577], [0.0, 69.90910953322468]], "Pd": [[0.0, 12.8624897130153], [0.0, 18.849230862512158], [0.0, 4.565811427008994], [0.0, 6.436073106044743], [0.0, 0.31261700513528473], [0.0, 0.42485844093709624], [0.0, 5.453323564168128e-05], [0.0, 5.963922275121878e-05], [0.0, 387.63611918126753], [0.0, 201.06082384923803], [0.0, 768.9373797173059], [0.0, 216.01123836799178], [0.0, 234.91303084909833], [0.0, 579.7588665624862], [0.0, 204.69128069561307], [0.0, 81.20809618623912], [0.0, 368.92772219112385], [0.0, 65.71501674010052], [0.0, 106.06324624063065], [0.0, 215.963130891552]]}, "fingerprints_tag": 1, "scalings": {"Cu": {"intercept": -2.7613496018885626, "slope": 1.8962972215473843}, "Pd": {"intercept": -1.4775908288292212, "slope": 4.5064277842991842}}}