{"cutoff": 6.5, "Gs": {"Pd": [{"eta": 0.05, "type": "G2", "element": "Cu"}, {"eta": 0.05, "type": "G2", "element": "Pd"}, {"eta": 4.0, "type": "G2", "element": "Cu"}, {"eta": 4.0, "type": "G2", "element": "Pd"}, {"eta": 20.0, "type": "G2", "element": "Cu"}, {"eta": 20.0, "type": "G2", "element": "Pd"}, {"eta": 80.0, "type": "G2", "element": "Cu"}, {"eta": 80.0, "type": "G2", "element": "Pd"}, {"zeta": 1.0, "elements": ["Cu", "Cu"], "type": "G4", "gamma": 1.0, "eta": 0.005}, {"zeta": 1.0, "elements": ["Cu", "Pd"], "type": "G4", "gamma": 1.0, "eta": 0.005}, {"zeta": 1.0, "elements": ["Pd", "Pd"], "type": "G4", "gamma": 1.0, "eta": 0.005}, {"zeta": 1.0, "elements": ["Cu", "Cu"], "type": "G4", "gamma": -1.0, "eta": 0.005}, {"zeta": 1.0, "elements": ["Cu", "Pd"], "type": "G4", "gamma": -1.0, "eta": 0.005}, {"zeta": 1.0, "elements": ["Pd", "Pd"], "type": "G4", "gamma": -1.0, "eta": 0.005}, {"zeta": 4.0, "elements": ["Cu", "Cu"], "type": "G4", "gamma": 1.0, "eta": 0.005}, {"zeta": 4.0, "elements": ["Cu", "Pd"], "type": "G4", "gamma": 1.0, "eta": 0.005}, {"zeta": 4.0, "elements": ["Pd", "Pd"], "type": "G4", "gamma": 1.0, "eta": 0.005}, {"zeta": 4.0, "elements": ["Cu", "Cu"], "type": "G4", "gamma": -1.0, "eta": 0.005}, {"zeta": 4.0, "elements": ["Cu", "Pd"], "type": "G4", "gamma": -1.0, "eta": 0.005}, {"zeta": 4.0, "elements": ["Pd", "Pd"], "type": "G4", "gamma": -1.0, "eta": 0.005}], "Cu": [{"eta": 0.05, "type": "G2", "element": "Cu"}, {"eta": 0.05, "type": "G2", "element": "Pd"}, {"eta": 4.0, "type": "G2", "element": "Cu"}, {"eta": 4.0, "type": "G2", "element": "Pd"}, {"eta": 20.0, "type": "G2", "element": "Cu"}, {"eta": 20.0, "type": "G2", "element": "Pd"}, {"eta": 80.0, "type": "G2", "element": "Cu"}, {"eta": 80.0, "type": "G2", "element": "Pd"}, {"zeta": 1.0, "elements": ["Cu", "Cu"], "type": "G4", "gamma": 1.0, "eta": 0.005}, {"zeta": 1.0, "elements": ["Cu", "Pd"], "type": "G4", "gamma": 1.0, "eta": 0.005}, {"zeta": 1.0, "elements": ["Pd", "Pd"], "type": "G4", "gamma": 1.0, "eta": 0.005}, {"zeta": 1.0, "elements": ["Cu", "Cu"], "type": "G4", "gamma": -1.0, "eta": 0.005}, {"zeta": 1.0, "elements": ["Cu", "Pd"], "type": "G4", "gamma": -1.0, "eta": 0.005}, {"zeta": 1.0, "elements": ["Pd", "Pd"], "type": "G4", "gamma": -1.0, "eta": 0.005}, {"zeta": 4.0, "elements": ["Cu", "Cu"], "type": "G4", "gamma": 1.0, "eta": 0.005}, {"zeta": 4.0, "elements": ["Cu", "Pd"], "type": "G4", "gamma": 1.0, "eta": 0.005}, {"zeta": 4.0, "elements": ["Pd", "Pd"], "type": "G4", "gamma": 1.0, "eta": 0.005}, {"zeta": 4.0, "elements": ["Cu", "Cu"], "type": "G4", "gamma": -1.0, "eta": 0.005}, {"zeta": 4.0, "elements": ["Cu", "Pd"], "type": "G4", "gamma": -1.0, "eta": 0.005}, {"zeta": 4.0, "elements": ["Pd", "Pd"], "type": "G4", "gamma": -1.0, "eta": 0.005}]}, "activation": "tanh", "hiddenlayers": {"Pd": [2, 20], "Cu": [2, 20]}, "weights": {"Cu": {"1": [[0.1728389366872238, 1.542756744703265], [0.6887628303025031, 0.4204502352421923], [-0.9979337208868421, -0.2132249400913501], [-0.6755330500327165, 0.171724942981726], [0.49117703598758755, 0.06010098782211538], [0.4171709441744877, -0.0184856486426408], [-0.1903253728114028, -0.005599522559304603], [-0.3159229692892225, 0.039533167334843404], [1.8837487726076299, -11.298379586058555], [-2.3228220336990724, -0.015934298699885493], [-12.727153636006872, 4.285817701356535], [4.932560356610529, 3.114228604631516], [5.859743286602439, -2.069547521705527], [11.114482808767477, -4.626444936268261], [-2.2299006921315265, 7.370499383797987], [0.7905882169578535, 0.264612658019606], [6.884666308480123, -2.124996612519804], [-3.5094238135356246, -0.42107872307729527], [-3.9767885144151207, 1.5358619040201626], [-5.26550505655852, 2.2580447370321095], [1.0406239398650121, -0.39759586142768094]], "2": [[1.6676906647873702, -3.560475105206903, 1.606025487037892, 2.327718403955132, -1.5730536035359768, 1.1177145651476772, 1.64693853753391, 6.57498534159269, 3.9797423915896135, -0.7452455007454799, -3.6218186702750588, -6.547583431835141, -1.2853404904859747, -4.482860879423565, -0.07561900561448918, 6.759799024197789, 6.883879344388553, 0.5057084803535371, -6.547233772774223, -1.1905675984199928], [0.839430657702274, -3.639145621725836, -0.8808966701824681, 6.785988909560899, 1.777120812285694, -10.260382502878409, -8.830647984955805, -1.2027200621394734, 6.022201184435262, -3.1852345421286747, -4.3809864534054554, 5.26933244164628, 8.203251210363002, 1.8362177688757202, -0.32816745999773034, 3.0979523477494992, -5.489447333239317, -6.609905153155328, 0.9322488376194487, 7.7860579487276755], [-0.25881131041323496, 0.8196290050769514, -2.064427073633612, -1.4854380736738562, 1.0346823812230452, 1.5216472219482453, -6.288971520026508, -0.6472861629505746, -1.061045795296059, 1.2768349538333963, 1.036132467214119, 2.09219780314298, 0.08090845814829785, -0.24822419541077587, -1.2162421081533636, 2.793231685785776, -2.223875005090763, 2.2117325409496527, -1.315690993925759, -1.2210175918150559]], "3": [[-7.281406956171737], [-0.01594492705903648], [-0.4720985792227995], [-0.9068623170362635], [-1.5423433566487572], [-2.1752145768952005], [5.347010893716732], [0.9538332507314011], [-2.215518702788504], [-6.2414092044031095], [-4.110943432147834], [-2.3980136348717007], [0.1426322002865191], [2.2312339231966134], [-1.987563098742172], [0.6821924697803948], [-2.050463779102564], [4.398271812323866], [-6.9255476065280765], [-2.8172064551471823], [-1.7092127858046213]]}, "Pd": {"1": [[-1.2398538387836968, -1.0818794437646997], [-2.13727332505017, -0.7591737809189708], [-0.7154068287412092, 1.0648607480901309], [-0.8023785696625673, 1.311622602141606], [0.19529508466432022, -0.5071521332052576], [0.33136623427760703, -0.9126601359854831], [-0.006102056074180202, 0.23203361886050064], [-0.08798562467877816, 1.2820867730121706], [-7.889901593246889, 8.064253878239], [-5.530659018338556, 2.207716108229395], [-18.96523226241447, 8.991542698027978], [9.052868152879501, -4.626490809711579], [11.28263413180864, -3.6188675176501177], [25.100522535237424, -14.327199795716014], [2.822813051443599, -4.820626929201868], [1.916329287065276, -0.8851662460812595], [7.64666245970666, -3.366732478314979], [-3.6978474422154597, 1.8364493599595522], [-7.002501608591029, 2.0797851644156324], [-12.735760541779987, 8.002964921021665], [0.6130644955352516, 0.9960965738973195]], "2": [[1.738954745288242, -10.644210714658708, -2.1054185015126596, -1.4376119992670953, -0.007711889763281991, -3.7945557198292317, 4.532438760265142, -6.275922123123761, -2.386165755727473, 0.7342784595993931, 9.50885951118664, 4.3152696961840284, 8.328819144525973, 3.78567886646393, 4.8807313329565, -7.030365645500701, 1.7928019266043678, -0.9240736610766053, 4.814188521436145, 3.023549455398801], [1.1612193747028225, -3.112671891680945, 0.7954290015780558, 1.6697445996999116, 2.795960416470673, 5.6304143211693285, -9.102011459739904, -1.9325734719589016, -1.285523717518164, 3.394642407370224, 2.544549506705824, -2.532577757989499, 5.662768155411007, 10.535369736270331, 7.8971869370600665, 11.712662476056574, 0.009709644586954712, 3.493726423815496, 3.004811981691195, 6.059358558090445], [0.04232683724393481, 0.46557962559115607, 0.5646519157178361, -0.5621151308781273, -2.3174156179449885, 0.1263195824691399, 1.0837294669113444, 0.6517697490691697, 1.0179524695787805, -0.2709033722448783, -0.2688814394890581, -1.6618201895507085, -1.057644390059489, -0.17413605012613234, -2.795485072775084, -0.26808768091368934, 0.9728848578066469, -1.627454828614589, -0.019919777141509172, -0.23145688787054997]], "3": [[1.909449454351713], [0.8409834363616164], [0.12470113113709173], [-2.823235314914938], [1.3194154744418136], [-1.3128229903699393], [-0.23161315333258628], [0.32208023073790043], [2.2068966945089064], [4.306853856490799], [0.9884646739037918], [-0.46264924683868947], [0.7376840217546107], [1.4531686787439742], [-0.17660765702133815], [0.32485983164161747], [2.647262497044919], [1.1026462978573603], [-3.585221273043489], [-2.732921214748], [-3.378938228188908]]}}, "fingerprints_range": {"Cu": [[0.0, 19.717528184980367], [0.0, 12.954617486692312], [0.0, 6.763827902345048], [0.0, 4.714947330374815], [0.0, 0.4690986508436296], [0.0, 0.3591942437989357], [0.0, 8.091157146993111e-05], [0.0, 6.70824590060896e-05], [0.0, 801.3693395965696], [0.0, 185.39781543928953], [0.0, 380.6581764033588], [0.0, 607.2663840318448], [0.0, 231.76903839707245], [0.0, 221.42076155225536], [0.0, 382.67810433385426], [0.0, 75.1704048127164], [0.0, 198.3503394287148], [0.0, 226.15041328755734], [0.0, 104.68820018085577], [0.0, 69.90910953322468]], "Pd": [[0.0, 12.8624897130153], [0.0, 18.849230862512158], [0.0, 4.565811427008994], [0.0, 6.436073106044743], [0.0, 0.31261700513528473], [0.0, 0.42485844093709624], [0.0, 5.453323564168128e-05], [0.0, 5.963922275121878e-05], [0.0, 387.63611918126753], [0.0, 201.06082384923803], [0.0, 768.9373797173059], [0.0, 216.01123836799178], [0.0, 234.91303084909833], [0.0, 579.7588665624862], [0.0, 204.69128069561307], [0.0, 81.20809618623912], [0.0, 368.92772219112385], [0.0, 65.71501674010052], [0.0, 106.06324624063065], [0.0, 215.963130891552]]}, "fingerprints_tag": 1, "scalings": {"Cu": {"intercept": -2.6392071991903041, "slope": 2.1328449923906976}, "Pd": {"intercept": -1.9548275185226367, "slope": 4.0143538376752881}}}