{"cutoff": 6.5, "Gs": {"Pd": [{"eta": 0.05, "type": "G2", "element": "Cu"}, {"eta": 0.05, "type": "G2", "element": "Pd"}, {"eta": 4.0, "type": "G2", "element": "Cu"}, {"eta": 4.0, "type": "G2", "element": "Pd"}, {"eta": 20.0, "type": "G2", "element": "Cu"}, {"eta": 20.0, "type": "G2", "element": "Pd"}, {"eta": 80.0, "type": "G2", "element": "Cu"}, {"eta": 80.0, "type": "G2", "element": "Pd"}, {"zeta": 1.0, "elements": ["Cu", "Cu"], "type": "G4", "gamma": 1.0, "eta": 0.005}, {"zeta": 1.0, "elements": ["Cu", "Pd"], "type": "G4", "gamma": 1.0, "eta": 0.005}, {"zeta": 1.0, "elements": ["Pd", "Pd"], "type": "G4", "gamma": 1.0, "eta": 0.005}, {"zeta": 1.0, "elements": ["Cu", "Cu"], "type": "G4", "gamma": -1.0, "eta": 0.005}, {"zeta": 1.0, "elements": ["Cu", "Pd"], "type": "G4", "gamma": -1.0, "eta": 0.005}, {"zeta": 1.0, "elements": ["Pd", "Pd"], "type": "G4", "gamma": -1.0, "eta": 0.005}, {"zeta": 4.0, "elements": ["Cu", "Cu"], "type": "G4", "gamma": 1.0, "eta": 0.005}, {"zeta": 4.0, "elements": ["Cu", "Pd"], "type": "G4", "gamma": 1.0, "eta": 0.005}, {"zeta": 4.0, "elements": ["Pd", "Pd"], "type": "G4", "gamma": 1.0, "eta": 0.005}, {"zeta": 4.0, "elements": ["Cu", "Cu"], "type": "G4", "gamma": -1.0, "eta": 0.005}, {"zeta": 4.0, "elements": ["Cu", "Pd"], "type": "G4", "gamma": -1.0, "eta": 0.005}, {"zeta": 4.0, "elements": ["Pd", "Pd"], "type": "G4", "gamma": -1.0, "eta": 0.005}], "Cu": [{"eta": 0.05, "type": "G2", "element": "Cu"}, {"eta": 0.05, "type": "G2", "element": "Pd"}, {"eta": 4.0, "type": "G2", "element": "Cu"}, {"eta": 4.0, "type": "G2", "element": "Pd"}, {"eta": 20.0, "type": "G2", "element": "Cu"}, {"eta": 20.0, "type": "G2", "element": "Pd"}, {"eta": 80.0, "type": "G2", "element": "Cu"}, {"eta": 80.0, "type": "G2", "element": "Pd"}, {"zeta": 1.0, "elements": ["Cu", "Cu"], "type": "G4", "gamma": 1.0, "eta": 0.005}, {"zeta": 1.0, "elements": ["Cu", "Pd"], "type": "G4", "gamma": 1.0, "eta": 0.005}, {"zeta": 1.0, "elements": ["Pd", "Pd"], "type": "G4", "gamma": 1.0, "eta": 0.005}, {"zeta": 1.0, "elements": ["Cu", "Cu"], "type": "G4", "gamma": -1.0, "eta": 0.005}, {"zeta": 1.0, "elements": ["Cu", "Pd"], "type": "G4", "gamma": -1.0, "eta": 0.005}, {"zeta": 1.0, "elements": ["Pd", "Pd"], "type": "G4", "gamma": -1.0, "eta": 0.005}, {"zeta": 4.0, "elements": ["Cu", "Cu"], "type": "G4", "gamma": 1.0, "eta": 0.005}, {"zeta": 4.0, "elements": ["Cu", "Pd"], "type": "G4", "gamma": 1.0, "eta": 0.005}, {"zeta": 4.0, "elements": ["Pd", "Pd"], "type": "G4", "gamma": 1.0, "eta": 0.005}, {"zeta": 4.0, "elements": ["Cu", "Cu"], "type": "G4", "gamma": -1.0, "eta": 0.005}, {"zeta": 4.0, "elements": ["Cu", "Pd"], "type": "G4", "gamma": -1.0, "eta": 0.005}, {"zeta": 4.0, "elements": ["Pd", "Pd"], "type": "G4", "gamma": -1.0, "eta": 0.005}]}, "activation": "tanh", "hiddenlayers": {"Pd": [3, 30], "Cu": [3, 30]}, "weights": {"Cu": {"1": [[-0.06508150425263515, -0.006626725222271285, 0.07361376164800447], [0.019201545384462754, -0.0723328861306856, -0.027471898156823306], [-0.0592555849489025, 0.010952009661768305, 0.003782976731510415], [0.0626466920979765, 0.06247821503885488, -0.013117435436288995], [0.015285296743909146, 0.05973046661549129, -0.01519606010347966], [0.029626165152616638, -0.018408528639107948, 0.06869162736928651], [0.05697136345897759, 0.061131184701893035, -0.06830170449920486], [-0.03404389497025454, 0.03555915435018672, -0.016879142204573983], [-0.07484388003490647, 0.04340414293998261, 0.03219745138215575], [0.06240483507188936, 0.021401053932504646, 0.027970803524983795], [0.03214139520118754, -0.005247743498627583, -0.07250311547295739], [-0.06483546819177256, 0.04986195866236878, 0.05022381922240475], [-0.014217256505790768, 0.05653662474539538, -0.05610958696301303], [-0.01936166891925261, -0.06667126651423426, 0.0330818336794043], [-0.05265413276727578, 0.04182246063002183, -0.003564195532188452], [0.040185303953105864, -0.028292645438992493, 0.03713372381275991], [-0.010836565954764829, 0.006738738778211031, 0.04414911875552982], [0.05373933023059717, 0.007608354779689894, 0.04530656520905903], [0.03354363626809109, -0.03826905584515249, 0.04149774986515241], [0.03246436970861484, -0.006581793008797562, -0.03867471262461225], [0.0, 0.0, 0.0]], "2": [[0.2279314186122524, -0.411841691261585, 0.2319773133728078, 0.28053238739113684, 0.046737957255511664, -0.20433921194756344, -0.08333104690660942, -0.24094043786361719, 0.36832527939915827, -0.2732421929144496, 0.00310829038990712, 0.49618189198893614, -0.18965281387353872, -0.025682719050626135, -0.11249068338598711, -0.2035383769472464, 0.2357239682604777, -0.44338496572523034, 0.31425431520300706, 0.2785082727136009, 0.4739510895268715, -0.1804722264716493, 0.27919937105295234, 0.20426185719728263, 0.4055884548840144, -0.2740334224093737, -0.38630373117196815, -0.028377778279846777, -0.33983023652954925, 0.04361838880843094], [0.2147551495884702, 0.32809754942629066, 0.14878299033952114, 0.35002107517780423, 0.4392140398197304, 0.488032844380894, -0.30577245305041945, 0.48762813920697534, 0.24295845999640153, -0.45223910207877915, -0.24434051917568678, -0.09414137338425876, 0.0690040850732413, -0.3799747046276498, 0.2816039011121161, 0.30982780760229156, 0.20818053741763243, -0.40047531036310413, -0.4535911680506184, 0.053879655929822357, -0.1622503555296363, 0.06119471963070533, 0.24851497422200264, 0.44053758146454036, -0.25893935158887116, -0.1376707978098327, -0.22330141172895868, 0.2839443563232348, -0.06160305444042424, 0.27104679330484804], [-0.4005764952939008, -0.3500320529295772, -0.47441649896922433, 0.472670420772499, 0.3168819104596263, 0.2543687899515076, 0.007648157927058863, 0.44813900010447105, -0.30408019225532856, -0.44887480951358616, -0.08758626791677249, 0.10366992788654017, -0.12850099108941226, 0.0706606908420222, 0.12019001995252676, 0.21014185293376797, -0.03032350490821778, -0.24517332243417833, 0.19073566347958903, -0.382689209587318, -0.27803497709078273, -0.43050770757125956, -0.4897470275585464, -0.2719091579850451, 0.005188743515985417, 0.09637139510699622, 0.08008055662588165, 0.3756922272954111, 0.04506670323425632, -0.43944562040996793], [0.0, 0.0, 0.0, 0.0, 0.0, 0.0, 0.0, 0.0, 0.0, 0.0, 0.0, 0.0, 0.0, 0.0, 0.0, 0.0, 0.0, 0.0, 0.0, 0.0, 0.0, 0.0, 0.0, 0.0, 0.0, 0.0, 0.0, 0.0, 0.0, 0.0]], "3": [[0.02637460981569538], [0.004122922261682503], [-0.021929503465504964], [-0.028758579199796998], [-0.034652294670126406], [-0.04041318282943386], [0.021367170954351616], [0.04891407481167993], [0.0350600525625184], [0.04161219913645338], [0.049668375189053135], [0.0024542584490755553], [0.0035197337017638594], [-0.02994009956617724], [-0.04118442470188786], [0.012127891047061565], [-0.042210646364150575], [-0.027598094731129598], [-0.023691573789727405], [0.008338383726673962], [0.04012285386477023], [0.017329686127838195], [-0.039514740221569394], [-0.026315093182045824], [-0.009484491106398076], [0.03069657103686528], [-0.04063877250152416], [-0.00035409300248095965], [0.03893625335701639], [0.043886156110980706], [0.0]]}, "Pd": {"1": [[-0.026119441781002825, -0.07317678754712588, 0.013274808407762032], [0.0017427418017375573, 0.014619004374224032, -0.05962427493446498], [0.007204946206419455, -0.014936618645491596, -0.01962936414483278], [0.009815510951430517, 0.05087207840739767, -0.056486033098791466], [0.05593002822688577, -0.0240627779594789, -0.029659746361255637], [-0.038938774934250193, 0.041181390863968506, 0.02751135855343073], [-0.0376177634935232, 0.04568736059305048, 0.0039599954903558054], [0.05437460500290285, 0.0427153321176537, 0.027418576469255565], [-0.06652083002402348, -0.04900554775308655, -0.023649814998179246], [0.05341714893052037, 0.03795219609906954, -0.06751372944549391], [0.028221363846520825, 0.0354466297590945, 0.021572796060049415], [0.016960156991766936, 0.01934815491712412, -0.07161270270938638], [-0.06974521762067927, -0.012616433974330835, 0.06150575135150062], [-0.014695110127514524, -0.04855060591047855, 0.009798821150873327], [0.059626089193134266, -0.024514719008063644, 0.04786697514863715], [-0.05892525156653755, -0.02340671237360093, -0.0625129925790605], [0.00860091533756921, -0.005324632249057645, -0.028821827891019183], [-0.02074273954894526, 0.051640638884568865, 0.05833330910217592], [-0.020086579360000516, 0.013698866763258405, 0.00832385814696579], [-0.0013997357695146734, 0.03763620517125646, 0.024564356526442344], [0.0, 0.0, 0.0]], "2": [[0.09541658426563637, -0.18167452973875942, 0.44902362939760077, -0.3678824378421155, -0.3844872859095413, 0.10452574057995856, -0.13599335871819507, 0.10696350267302301, -0.17356153848287392, -0.1060307269190609, -0.41536399856667716, -0.43385414524869925, 0.2218124623816975, 0.25001707111337745, -0.4846063852828931, 0.007949330043372171, -0.19484519852639182, -0.3326283624453471, -0.10837433433786248, 0.30934499472469423, -0.2637729718257352, 0.3320508834444854, 0.49173577591631445, 0.26294249540089154, -0.293994120751611, 0.27845127856667984, -0.32650671043243595, -0.20653052894000323, -0.34378182521288825, -0.16120219471159314], [-0.19021693117789007, -0.40877621782482554, -0.42645753756125826, -0.4996894307698849, 0.23755891233501913, 0.4518602614855014, 0.2711612430176228, -0.40093370774500114, 0.30999470372297266, -0.2522234855501344, -0.42464252629852184, 0.46753308753347067, -0.45468001170511074, -0.12153309797598122, -0.3234805303806262, -0.12175343536423222, -0.3675381230713711, 0.06874913649083814, -0.42224471588026213, 0.4778227461477582, -0.17806988622435604, 0.12453679553866936, -0.3953989032321431, 0.2826671245968091, 0.07687418643002841, -0.07317198993845297, 0.46786611321507576, 0.3897068065800582, -0.3428258035874614, -0.12535576185870811], [-0.45468207478609013, -0.4271007020199292, -0.36782639756118163, -0.4568790695221102, 0.23087519084295194, 0.4861843433841613, 0.05625338425067583, -0.3043724701825652, 0.09931793991324711, 0.4353335305346058, -0.3051929943947549, -0.28290912357907105, -0.30358808608341814, 0.466511896129886, -0.23064989603970443, -0.33407890301543874, -0.393210119896479, 0.057037496948050825, -0.36397970939985935, -0.16418171333307785, -0.17049196844387082, 0.06865485415576922, 0.19299774270420056, -0.09356512036714126, 0.245561039628727, -0.48767348970597024, 0.30203197334239396, -0.1490153763127503, 0.3791462785491275, -0.13118024335505996], [0.0, 0.0, 0.0, 0.0, 0.0, 0.0, 0.0, 0.0, 0.0, 0.0, 0.0, 0.0, 0.0, 0.0, 0.0, 0.0, 0.0, 0.0, 0.0, 0.0, 0.0, 0.0, 0.0, 0.0, 0.0, 0.0, 0.0, 0.0, 0.0, 0.0]], "3": [[0.013192482714415601], [0.03719684562738387], [0.01638779340725495], [0.03644089111196078], [-0.024959790231941482], [0.02937472560676259], [0.01492138819036351], [0.03171661611427172], [0.016713615837367607], [0.01773137050563106], [0.04857314957544105], [-0.02520841697827052], [0.030410446760520224], [0.03995688985788236], [0.012082588326308805], [0.0355093441663898], [0.0010529110119756463], [0.010724086771105312], [-0.036245779650285304], [-0.03841323832850956], [-0.032207726400629785], [0.03456851572913304], [-0.033023380142360836], [-0.043419758186537843], [-0.013435364309022771], [-0.011697651147132261], [-0.031188345055666658], [-0.042026928470936455], [-0.049550567182270966], [-0.04769484552412654], [0.0]]}}, "fingerprints_range": {"Cu": [[0.1063750548408017, 15.55743075082518], [0.028202539821623157, 15.824610224206179], [0.0039475029562834815, 6.543651351035633], [0.0009775685586746502, 5.901293632153394], [6.336097831506945e-09, 0.7186722153281908], [1.190287988056906e-09, 0.7702142399843445], [1.1815297550357418e-30, 0.0005969806159118927], [7.875808503354093e-32, 0.0014999082499671163], [0.14542638955905765, 586.0279136978755], [1.0639431752062123, 1339.0774553779588], [-2.1232459816643144e-18, 680.2199829665379], [0.21753575331713212, 430.46949002501225], [0.7672793241028637, 933.9576344679633], [0.01912449962367862, 505.84680013293473], [0.009653362355969163, 287.61510794586883], [0.3377739380614941, 694.3948342368042], [0.0, 333.734781480117], [0.03697254301515187, 160.4359473839458], [0.23682355773155236, 348.9904146530375], [0.0018168617087065356, 189.85900104165898]], "Pd": [[0.028202539821623157, 15.82461022420618], [0.1063750548408017, 15.557430750825183], [0.0009775685586746502, 5.901293632153396], [0.0039475029562834815, 6.543651351035635], [1.190287988056906e-09, 0.770214239984344], [6.336097831506945e-09, 0.7186722153281916], [7.875808503354093e-32, 0.0014999082499671157], [1.1815297550357418e-30, 0.0005969806159118931], [-2.1232459816643144e-18, 680.2199829665362], [1.0639431752062118, 1339.0774553779634], [0.14542638955905765, 586.0279136978755], [0.01912449962367862, 505.8468001329346], [0.7672793241028637, 933.9576344679631], [0.21753575331713212, 430.46949002501225], [0.0, 333.73478148011566], [0.33777393806149464, 694.3948342368044], [0.009653362355969173, 287.61510794586883], [0.0018168617087065421, 189.85900104165927], [0.23682355773155245, 348.9904146530362], [0.03697252924305966, 160.4359473839458]]}, "fingerprints_tag": 1, "scalings": {"Pd": {"slope": 2.7555544681249997, "intercept": -2.459831533125}, "Cu": {"slope": 2.7555544681249997, "intercept": -2.459831533125}}}