{"cutoff": 6.5, "Gs": {"Pd": [{"eta": 0.05, "type": "G2", "element": "Cu"}, {"eta": 0.05, "type": "G2", "element": "Pd"}, {"eta": 4.0, "type": "G2", "element": "Cu"}, {"eta": 4.0, "type": "G2", "element": "Pd"}, {"eta": 20.0, "type": "G2", "element": "Cu"}, {"eta": 20.0, "type": "G2", "element": "Pd"}, {"eta": 80.0, "type": "G2", "element": "Cu"}, {"eta": 80.0, "type": "G2", "element": "Pd"}, {"zeta": 1.0, "elements": ["Cu", "Cu"], "type": "G4", "gamma": 1.0, "eta": 0.005}, {"zeta": 1.0, "elements": ["Cu", "Pd"], "type": "G4", "gamma": 1.0, "eta": 0.005}, {"zeta": 1.0, "elements": ["Pd", "Pd"], "type": "G4", "gamma": 1.0, "eta": 0.005}, {"zeta": 1.0, "elements": ["Cu", "Cu"], "type": "G4", "gamma": -1.0, "eta": 0.005}, {"zeta": 1.0, "elements": ["Cu", "Pd"], "type": "G4", "gamma": -1.0, "eta": 0.005}, {"zeta": 1.0, "elements": ["Pd", "Pd"], "type": "G4", "gamma": -1.0, "eta": 0.005}, {"zeta": 4.0, "elements": ["Cu", "Cu"], "type": "G4", "gamma": 1.0, "eta": 0.005}, {"zeta": 4.0, "elements": ["Cu", "Pd"], "type": "G4", "gamma": 1.0, "eta": 0.005}, {"zeta": 4.0, "elements": ["Pd", "Pd"], "type": "G4", "gamma": 1.0, "eta": 0.005}, {"zeta": 4.0, "elements": ["Cu", "Cu"], "type": "G4", "gamma": -1.0, "eta": 0.005}, {"zeta": 4.0, "elements": ["Cu", "Pd"], "type": "G4", "gamma": -1.0, "eta": 0.005}, {"zeta": 4.0, "elements": ["Pd", "Pd"], "type": "G4", "gamma": -1.0, "eta": 0.005}], "Cu": [{"eta": 0.05, "type": "G2", "element": "Cu"}, {"eta": 0.05, "type": "G2", "element": "Pd"}, {"eta": 4.0, "type": "G2", "element": "Cu"}, {"eta": 4.0, "type": "G2", "element": "Pd"}, {"eta": 20.0, "type": "G2", "element": "Cu"}, {"eta": 20.0, "type": "G2", "element": "Pd"}, {"eta": 80.0, "type": "G2", "element": "Cu"}, {"eta": 80.0, "type": "G2", "element": "Pd"}, {"zeta": 1.0, "elements": ["Cu", "Cu"], "type": "G4", "gamma": 1.0, "eta": 0.005}, {"zeta": 1.0, "elements": ["Cu", "Pd"], "type": "G4", "gamma": 1.0, "eta": 0.005}, {"zeta": 1.0, "elements": ["Pd", "Pd"], "type": "G4", "gamma": 1.0, "eta": 0.005}, {"zeta": 1.0, "elements": ["Cu", "Cu"], "type": "G4", "gamma": -1.0, "eta": 0.005}, {"zeta": 1.0, "elements": ["Cu", "Pd"], "type": "G4", "gamma": -1.0, "eta": 0.005}, {"zeta": 1.0, "elements": ["Pd", "Pd"], "type": "G4", "gamma": -1.0, "eta": 0.005}, {"zeta": 4.0, "elements": ["Cu", "Cu"], "type": "G4", "gamma": 1.0, "eta": 0.005}, {"zeta": 4.0, "elements": ["Cu", "Pd"], "type": "G4", "gamma": 1.0, "eta": 0.005}, {"zeta": 4.0, "elements": ["Pd", "Pd"], "type": "G4", "gamma": 1.0, "eta": 0.005}, {"zeta": 4.0, "elements": ["Cu", "Cu"], "type": "G4", "gamma": -1.0, "eta": 0.005}, {"zeta": 4.0, "elements": ["Cu", "Pd"], "type": "G4", "gamma": -1.0, "eta": 0.005}, {"zeta": 4.0, "elements": ["Pd", "Pd"], "type": "G4", "gamma": -1.0, "eta": 0.005}]}, "activation": "tanh", "hiddenlayers": {"Pd": [3, 30], "Cu": [3, 30]}, "weights": {"Cu": {"1": [[0.06560677183952242, -0.15797363660491776, -0.08240853618907588], [0.0708641336191118, -0.4099913040980858, 0.09169378390849038], [-0.24922592819339776, 0.6493614565382413, -0.437593387826995], [-0.22513728459469115, 0.4505112019483001, -0.3520480999505229], [0.06302228872829309, -0.24757602511737578, 0.1801845270150621], [0.23743444823395943, -0.20862991486501536, 0.15741291595411205], [-0.17668471743019853, 0.13882357260130335, -0.07897365067165403], [-0.3757723660242291, 0.3110379802480641, -0.18763451997706254], [4.728726968117996, -1.9400758636369124, -0.9818670983292578], [6.174656950002908, -0.1485124179421319, -4.742803281686733], [3.4522223929473315, -1.9202633973644732, -1.4540313905884983], [-9.217110004654765, 1.7532109856539033, 1.7171965187684155], [-16.506336254891192, 5.653821067679818, 2.56015591478483], [-11.015482345083132, 6.174555893024876, 0.04577631623387117], [-2.9546235519558413, 1.7936076796276614, 0.18030465862146433], [-2.989099022471911, 0.29285271240969424, 2.447796837899904], [-1.2621326167864901, 0.7172841576166777, 0.7819505392728133], [7.089551012272177, -2.031110340646564, -0.5645068798349815], [13.603346815646182, -5.1630423472827065, -0.7989951816779163], [8.284212391046587, -5.124734979778306, 0.8611224335903441], [-1.0309266347385941, 0.036976766591068896, 0.20068294676719226]], "2": [[-7.7690490948380795, -0.39441656143620185, -33.165662962951345, 14.513856059157398, -7.901794516718431, 19.303704654488403, 3.549668888574647, -19.633987886690445, 10.313886528941692, -7.238817265608919, 3.852939515392824, -7.671151231741714, -14.030779908465783, 14.728079946956555, -20.841950960911447, -2.729664180803227, 3.015596565350728, -7.4220583931769655, -5.875642305775096, 31.231197450807947, -6.0633142302194605, 7.912340177455122, 5.225615563877507, -15.66944800791192, 2.9145788481814208, -13.537887804531973, -12.198816535880457, -2.7549340907720685, 4.360061347305376, -2.7327374328566423], [2.918882544344302, -3.3965285807093863, 3.1975222296643784, -24.837426680212353, 2.969568241519223, -36.08604500332679, 4.702250861912528, 19.53671182923869, -7.812042385778445, 0.4425837747904902, -12.229362561951897, 8.270356754606361, 6.7515208515340746, -25.53392934974998, -2.9364405257799673, -5.4975848760722625, -2.5148033447643927, 9.152699566478425, 6.426623391995097, -0.6123892167630836, -8.702434627214242, 7.211198881108237, -6.180314935868682, 29.212424948520553, -0.05363914239339517, 10.481131432336962, 9.268668761475077, 9.154481508914825, -12.223939580235545, -6.774590748325598], [12.065754780860315, -19.243675679060672, 38.145327452937146, -25.775854539676164, 12.277606295003366, -57.31861898374352, 2.6327916946856114, 16.590028492704597, -18.2080622010449, 9.003774008812679, -16.387165353052403, 19.551106003645334, 24.002776887159122, -26.255831681221313, 23.21759475859118, -1.956753762888063, -5.473536736286908, -7.447916317965338, 14.68472374073592, -40.586250926252994, -0.3260869154896882, -9.001314904664742, -12.398848897231735, 46.43112475745786, -4.279670243453847, 23.13479525507746, 20.847771842851596, -5.160853167089296, -31.54878207983886, -5.6402340691462305], [-5.641638439744379, 12.434207474417514, -31.229355360450654, 3.340432465265976, -5.884182389975327, 15.677231241735031, 1.7174856921236452, 4.62571928808017, 5.281553317712549, -4.743568992599787, 4.62992176882362, -7.405318810477662, -2.8142960323334845, 3.3162554155068844, -12.208048136480581, -1.4667786669723755, 3.3042855675375127, 3.218196497036916, -4.631720990426729, 23.53837018331471, -3.6997307143434868, 9.682375497244312, 4.037419206491884, -12.911182969411604, 2.118778655482381, -6.9387839233599005, -6.23709584867205, -2.5555892548383206, 15.171973890597823, -1.1623772737748082]], "3": [[-3.811238435846005], [-5.151488587793646], [-2.129785436701351], [1.1608089273328868], [4.16490714559995], [-0.34315018723266943], [0.9460157750071598], [5.691183875732622], [3.311251900003613], [2.110748327565989], [-2.483698342191883], [0.9651358726963277], [1.029744299350619], [-1.0765894275256689], [0.19083281690819753], [-1.7520507395277989], [-8.361732931216457], [-0.0034965723366687253], [1.659801314001032], [-0.006044748433890965], [0.35532058706974673], [0.37970093376573294], [4.566545124344161], [-0.8180654298546551], [2.1838304175500034], [-2.2523232659543875], [4.909498461883193], [-0.0072284935426604295], [3.3345276486641238], [0.6889040300582133], [2.2767879500071553]]}, "Pd": {"1": [[-0.13769828534830397, 1.2497579721841356, -0.05996183266976399], [-0.19970953063645627, -0.6064959825666272, -0.029062807065275857], [0.508965533398492, 5.064354093920032, -0.15035222851472155], [0.3136909745309481, 1.8922841135837494, -0.10887415210874833], [0.46781330776534946, -0.9386433102726248, -0.17677264188597963], [0.1814017235444824, -1.273761658826243, -0.048284794497706805], [1.130328000104447, 1.1231634656267253, 0.028208330734987307], [0.6730429626082974, 0.7384697641949547, 0.02589841316011576], [15.595726857286683, 78.43561377624292, -6.025604289784741], [30.287456435319346, 44.79529786787397, -11.78145926404487], [16.9867567747891, 10.479291930418293, -6.676491104107245], [-19.170595099528047, -51.96278566221361, 8.649955081231191], [-27.311933193550697, -33.77222278638778, 13.489786996298966], [-16.991858369055112, 18.284086385640826, 7.940096924973038], [-6.366421021099895, -32.95999127925028, 2.4612125716652145], [-16.887085520119197, -17.190520125878894, 6.298742487216226], [-11.085017371363072, 5.2445153822388555, 4.0557111727581665], [8.16448563165616, 16.40929899806682, -4.4835355653588405], [16.278801549212645, -18.381624798884502, -8.668031605804034], [9.992200996378203, -22.143473388098908, -4.920513850483953], [2.8188862838846456, -1.2049424694805597, -0.0244049158214855]], "2": [[-1.1747714187457126, 4.356512561643729, -2.767676298816479, -24.115330759232908, 15.270269288367446, -55.85803355773021, -18.428042372691507, -11.00728423112182, -3.3826197594581298, 37.90963891889465, 4.127617739134769, -11.50651826865112, -19.41675275193438, 12.384242798189128, 38.684212117346945, 1.8386152305117256, 2.7305758339948185, 4.109374856773584, -13.51684424776199, 22.390211747026676, 20.910692761599076, -3.3601038629851763, 23.116848640168406, 1.9397737158592208, 24.880750476471075, 9.865205918645195, 23.303284688004116, -0.20409542676561113, -15.780158989547024, 1.9491038714932813], [18.423765259908237, -1.8413506870868392, 1.970921093854245, -0.3286744538858504, -0.08620666187530085, 10.19203546221105, -4.759365222923209, -3.4568116508111184, 3.198582966534264, -10.323439574595534, -1.7939932271376706, -1.003740934271525, -20.455591013343735, 3.363484216987163, 3.8765696704918504, -0.3643415622015859, -2.4651075294186313, -0.6357321561159582, -5.505809847101532, -1.1634434880152447, -0.3767277121825689, 1.605019209099601, 4.626668564603341, 0.49835557302219907, -3.269609435646789, 2.127136082087983, -2.0882242721770696, -0.8705870552179863, -5.0971747829564285, 0.09833756144976653], [-48.16298030704862, 10.881704019684918, -1.810444926781359, -2.6053182340610266, 19.022817645129404, -120.9250122756062, -40.0845428281774, -12.15684207070872, -0.47788958043160135, 46.33655132779426, 9.595459828415887, 22.092670709219934, -44.151245635001175, 48.23952195670878, 59.002354905955286, 2.8625406629483683, 25.41105679751358, 29.279486969063058, -29.43615443443838, 38.04642113346241, 23.47748060070293, -5.360040882836508, 48.90781505325563, -7.275407792061525, 61.43825549495533, 8.137205014324088, 44.707390498452696, 1.52715451708507, -34.768469103984614, 3.0555805180183504], [5.100962074596994, -3.5361240145700465, 3.3920855733524284, 26.29045581022893, -7.982229627930593, 29.43655212929698, 5.713812314616179, 1.897910566319263, 4.37027532201101, -27.89361800612656, -3.4962073125091213, 17.13928910201115, -20.736338749561842, -27.909948564695352, -14.659027998640262, -2.534257433204299, 3.3571443208937266, -1.3834186230683, 2.355109357543424, -12.866895907560282, -10.92766266146604, 3.3652369056821696, -8.723976652264392, -1.4139339234358903, -12.672513701907185, -3.270532170099881, -11.780775053858438, 3.275256097362206, 3.872800522538885, -2.2710627768003815]], "3": [[0.004677764825191814], [9.09678172969834], [2.8973154735375473], [-10.373596402457911], [2.5071278450693644], [0.0178241873171181], [-3.386784959524717], [-2.9324618435040146], [-0.45335824092799754], [0.007096811388444517], [-13.850346017929205], [0.226220535102434], [2.5145671750649523], [13.713563287514967], [17.43473770392284], [-6.3750030069006565], [-0.13876270952489422], [-0.058797399504844416], [-2.2706706123076765], [-0.14730697554073258], [-3.1621559791559095], [-8.574493531768976], [-0.6825137177862448], [-0.3877945836361071], [0.05655200308015858], [-1.7626813471378362], [0.18101463877434637], [14.767591333772039], [4.964657731036352], [4.004059012413281], [-7.409947512556903]]}}, "fingerprints_range": {"Cu": [[0.1063750548408017, 15.55743075082518], [0.028202539821623157, 15.824610224206179], [0.0039475029562834815, 6.543651351035633], [0.0009775685586746502, 5.901293632153394], [6.336097831506945e-09, 0.7186722153281908], [1.190287988056906e-09, 0.7702142399843445], [1.1815297550357418e-30, 0.0005969806159118927], [7.875808503354093e-32, 0.0014999082499671163], [0.14542638955905765, 586.0279136978755], [1.0639431752062123, 1339.0774553779588], [-2.1232459816643144e-18, 680.2199829665379], [0.21753575331713212, 430.46949002501225], [0.7672793241028637, 933.9576344679633], [0.01912449962367862, 505.84680013293473], [0.009653362355969163, 287.61510794586883], [0.3377739380614941, 694.3948342368042], [0.0, 333.734781480117], [0.03697254301515187, 160.4359473839458], [0.23682355773155236, 348.9904146530375], [0.0018168617087065356, 189.85900104165898]], "Pd": [[0.028202539821623157, 15.82461022420618], [0.1063750548408017, 15.557430750825183], [0.0009775685586746502, 5.901293632153396], [0.0039475029562834815, 6.543651351035635], [1.190287988056906e-09, 0.770214239984344], [6.336097831506945e-09, 0.7186722153281916], [7.875808503354093e-32, 0.0014999082499671157], [1.1815297550357418e-30, 0.0005969806159118931], [-2.1232459816643144e-18, 680.2199829665362], [1.0639431752062118, 1339.0774553779634], [0.14542638955905765, 586.0279136978755], [0.01912449962367862, 505.8468001329346], [0.7672793241028637, 933.9576344679631], [0.21753575331713212, 430.46949002501225], [0.0, 333.73478148011566], [0.33777393806149464, 694.3948342368044], [0.009653362355969173, 287.61510794586883], [0.0018168617087065421, 189.85900104165927], [0.23682355773155245, 348.9904146530362], [0.03697252924305966, 160.4359473839458]]}, "fingerprints_tag": 1, "scalings": {"Cu": {"intercept": -0.97039408052997933, "slope": 16.140944771851789}, "Pd": {"intercept": -0.9654826985501247, "slope": 2.8107192017991003}}}