{"cutoff": 6.5, "Gs": {"Pd": [{"eta": 0.05, "type": "G2", "element": "Cu"}, {"eta": 0.05, "type": "G2", "element": "Pd"}, {"eta": 2.0, "type": "G2", "element": "Cu"}, {"eta": 2.0, "type": "G2", "element": "Pd"}, {"eta": 4.0, "type": "G2", "element": "Cu"}, {"eta": 4.0, "type": "G2", "element": "Pd"}, {"eta": 8.0, "type": "G2", "element": "Cu"}, {"eta": 8.0, "type": "G2", "element": "Pd"}, {"eta": 20.0, "type": "G2", "element": "Cu"}, {"eta": 20.0, "type": "G2", "element": "Pd"}, {"eta": 40.0, "type": "G2", "element": "Cu"}, {"eta": 40.0, "type": "G2", "element": "Pd"}, {"eta": 80.0, "type": "G2", "element": "Cu"}, {"eta": 80.0, "type": "G2", "element": "Pd"}, {"zeta": 1.0, "elements": ["Cu", "Cu"], "type": "G4", "gamma": 1.0, "eta": 0.005}, {"zeta": 1.0, "elements": ["Cu", "Pd"], "type": "G4", "gamma": 1.0, "eta": 0.005}, {"zeta": 1.0, "elements": ["Pd", "Pd"], "type": "G4", "gamma": 1.0, "eta": 0.005}, {"zeta": 1.0, "elements": ["Cu", "Cu"], "type": "G4", "gamma": -1.0, "eta": 0.005}, {"zeta": 1.0, "elements": ["Cu", "Pd"], "type": "G4", "gamma": -1.0, "eta": 0.005}, {"zeta": 1.0, "elements": ["Pd", "Pd"], "type": "G4", "gamma": -1.0, "eta": 0.005}, {"zeta": 2.0, "elements": ["Cu", "Cu"], "type": "G4", "gamma": 1.0, "eta": 0.005}, {"zeta": 2.0, "elements": ["Cu", "Pd"], "type": "G4", "gamma": 1.0, "eta": 0.005}, {"zeta": 2.0, "elements": ["Pd", "Pd"], "type": "G4", "gamma": 1.0, "eta": 0.005}, {"zeta": 2.0, "elements": ["Cu", "Cu"], "type": "G4", "gamma": -1.0, "eta": 0.005}, {"zeta": 2.0, "elements": ["Cu", "Pd"], "type": "G4", "gamma": -1.0, "eta": 0.005}, {"zeta": 2.0, "elements": ["Pd", "Pd"], "type": "G4", "gamma": -1.0, "eta": 0.005}, {"zeta": 4.0, "elements": ["Cu", "Cu"], "type": "G4", "gamma": 1.0, "eta": 0.005}, {"zeta": 4.0, "elements": ["Cu", "Pd"], "type": "G4", "gamma": 1.0, "eta": 0.005}, {"zeta": 4.0, "elements": ["Pd", "Pd"], "type": "G4", "gamma": 1.0, "eta": 0.005}, {"zeta": 4.0, "elements": ["Cu", "Cu"], "type": "G4", "gamma": -1.0, "eta": 0.005}, {"zeta": 4.0, "elements": ["Cu", "Pd"], "type": "G4", "gamma": -1.0, "eta": 0.005}, {"zeta": 4.0, "elements": ["Pd", "Pd"], "type": "G4", "gamma": -1.0, "eta": 0.005}], "Cu": [{"eta": 0.05, "type": "G2", "element": "Cu"}, {"eta": 0.05, "type": "G2", "element": "Pd"}, {"eta": 2.0, "type": "G2", "element": "Cu"}, {"eta": 2.0, "type": "G2", "element": "Pd"}, {"eta": 4.0, "type": "G2", "element": "Cu"}, {"eta": 4.0, "type": "G2", "element": "Pd"}, {"eta": 8.0, "type": "G2", "element": "Cu"}, {"eta": 8.0, "type": "G2", "element": "Pd"}, {"eta": 20.0, "type": "G2", "element": "Cu"}, {"eta": 20.0, "type": "G2", "element": "Pd"}, {"eta": 40.0, "type": "G2", "element": "Cu"}, {"eta": 40.0, "type": "G2", "element": "Pd"}, {"eta": 80.0, "type": "G2", "element": "Cu"}, {"eta": 80.0, "type": "G2", "element": "Pd"}, {"zeta": 1.0, "elements": ["Cu", "Cu"], "type": "G4", "gamma": 1.0, "eta": 0.005}, {"zeta": 1.0, "elements": ["Cu", "Pd"], "type": "G4", "gamma": 1.0, "eta": 0.005}, {"zeta": 1.0, "elements": ["Pd", "Pd"], "type": "G4", "gamma": 1.0, "eta": 0.005}, {"zeta": 1.0, "elements": ["Cu", "Cu"], "type": "G4", "gamma": -1.0, "eta": 0.005}, {"zeta": 1.0, "elements": ["Cu", "Pd"], "type": "G4", "gamma": -1.0, "eta": 0.005}, {"zeta": 1.0, "elements": ["Pd", "Pd"], "type": "G4", "gamma": -1.0, "eta": 0.005}, {"zeta": 2.0, "elements": ["Cu", "Cu"], "type": "G4", "gamma": 1.0, "eta": 0.005}, {"zeta": 2.0, "elements": ["Cu", "Pd"], "type": "G4", "gamma": 1.0, "eta": 0.005}, {"zeta": 2.0, "elements": ["Pd", "Pd"], "type": "G4", "gamma": 1.0, "eta": 0.005}, {"zeta": 2.0, "elements": ["Cu", "Cu"], "type": "G4", "gamma": -1.0, "eta": 0.005}, {"zeta": 2.0, "elements": ["Cu", "Pd"], "type": "G4", "gamma": -1.0, "eta": 0.005}, {"zeta": 2.0, "elements": ["Pd", "Pd"], "type": "G4", "gamma": -1.0, "eta": 0.005}, {"zeta": 4.0, "elements": ["Cu", "Cu"], "type": "G4", "gamma": 1.0, "eta": 0.005}, {"zeta": 4.0, "elements": ["Cu", "Pd"], "type": "G4", "gamma": 1.0, "eta": 0.005}, {"zeta": 4.0, "elements": ["Pd", "Pd"], "type": "G4", "gamma": 1.0, "eta": 0.005}, {"zeta": 4.0, "elements": ["Cu", "Cu"], "type": "G4", "gamma": -1.0, "eta": 0.005}, {"zeta": 4.0, "elements": ["Cu", "Pd"], "type": "G4", "gamma": -1.0, "eta": 0.005}, {"zeta": 4.0, "elements": ["Pd", "Pd"], "type": "G4", "gamma": -1.0, "eta": 0.005}]}, "activation": "tanh", "hiddenlayers": {"Pd": [4, 40], "Cu": [4, 40]}, "weights": {"Cu": {"1": [[-0.020572005358164745, -0.011721225312427877, 0.012788059506960457, -0.008838934390252462], [0.04576699845845794, -0.019868134248221994, 0.03470910786389003, -0.03917909412379944], [0.041363178532865474, 0.02585904476034391, 0.03364835613630239, 0.024671353812544344], [0.01852024832619338, -0.013822662243460647, -0.01572032046378672, 0.021231154782984984], [-0.03531176520779671, 0.03231511053000957, 0.025926394364578234, -0.04515329418457177], [-0.00043920526017907774, 0.008595063313913215, 0.0011732017134811965, 0.03453489310543574], [-0.04498203059161899, -0.0169526418894517, -0.014824319465205418, -0.022962387598060317], [0.040390439996428676, -0.02129451592744967, 0.017290871745308176, 0.027282028184448096], [0.006713318052531642, -0.04033194582059371, -0.04220116140143032, 0.045872889036594866], [0.01917426896253445, 0.031836928542106235, 0.003474161901256531, 0.04679285120964803], [-0.03037939932221667, -0.03482729302492508, -0.015432015763437355, -0.0001750904446869983], [0.001989508833883505, -0.045498582957495676, 0.0062948173038159805, 0.043703290794721725], [0.0034153564112650373, 0.03060281742007634, -0.0031386275011502096, -0.04336262606045066], [0.04250857680601472, -0.025931189125008604, -0.008261287964632713, 0.027090105976857362], [0.03254151144039234, -0.012063868454694676, 0.04600919771990833, 0.01792226160537895], [0.0028284794989832385, -0.0030914067644262633, 0.03964133478770007, 0.0013863069743173737], [0.03182820068027398, 0.03165437422284531, -0.03691763857502906, -0.04190154197891224], [0.03895503172816342, -0.023000744152307084, 0.015731021479189755, -0.014333684183024317], [-0.04624574994014509, 0.04143105388965439, -0.026867652446673627, -0.00781540870717358], [0.02360895770032928, -1.0813489410795019e-05, 0.016787972731376055, -0.01400810900818017], [-0.03310973270611183, 0.014132178362794345, 0.0005069331053879633, -0.019416532592685314], [-0.03809590675674067, -0.03560903759337887, -0.04017762831261735, -0.046312819983985766], [0.005884139063071572, -0.01537383032730015, 0.025914523508312776, 0.0019316398893325926], [-0.017389944681974762, -0.03780306392599872, 0.04384019234965153, 0.019839608566885006], [-0.0373533848414869, 0.0429102438387719, -0.03075568502854578, -0.03125314692170862], [-0.024921032350071034, -0.01911158207742589, -0.005889365682713935, 0.02461710003721497], [0.0009309762891312329, 0.010769153279866758, -0.01853386363005768, -0.0013281559512530738], [0.03501351686766008, -0.01156925034059307, 0.0033672093634721095, 0.008085904576801875], [-0.04246345996450321, 0.04044994219498067, -0.004453548868063872, -0.04480029242679186], [0.03533224287819396, -0.03719289276325834, -0.009916990219212524, 0.006245072887722573], [-0.04381937139339405, -0.03605238814071496, 0.012636172942852339, 0.027425343958426274], [0.023911587043446286, -0.022057745243535213, 0.04114566313711837, -0.024443807995905353], [0.0, 0.0, 0.0, 0.0]], "2": [[-0.32659992061146836, 0.11734129437642404, -0.2100981488336433, -0.20517072852230417, -0.05283204814187881, -0.34372160953388997, 0.3677552527907504, -0.2711703447276581, -0.1891436496133178, -0.08839753819525287, -0.338421111877252, 0.34932130036914044, 0.10771389000499781, 0.26156752726264787, -0.3120150503977118, -0.018767700804520837, -0.23669042231786594, -0.2566639820884356, -0.3652532787650177, -0.11733910626001332, -0.01610933756315147, -0.27633184278473477, -0.019340110745613148, 0.3289459678245762, -0.0894379287480912, -0.11392745877693777, 0.2978057308727836, 0.2881726347323712, -0.32449094006576623, -0.1391726181016686, -0.1380128748178766, -0.32915005099556566, 0.03268215635823146, -0.15293083492764295, -0.35459292285564625, 0.32466634731634003, -0.14280908503892842, 0.35272413662358737, -0.03320550918116982, 0.07198248770424936], [0.006197218418121486, -0.250819593128675, 0.10188779484618149, -0.1443547273083138, -0.07976414403040089, 0.28065855154015773, 0.2137621049078018, -0.08736250503867082, 0.3242990358576612, 0.2546543944781957, -0.33960862638573297, -0.08701081625399254, -0.2615368577883216, -0.3671287044585628, -0.29940723421956594, 0.08473838678564394, -0.026232892572212063, -0.2205263389347382, 0.21302184113823164, 0.3334412905631088, 0.044028308284345286, 0.1548811754415823, -0.24119573558601248, 0.31585833052817835, 0.006476213300280587, 0.20912329737265156, 0.13516263165301978, -0.183656227151434, 0.23025760875233559, 0.34660762175559257, 0.3084740188232178, 0.2907203660205473, -0.02186594206888881, -0.36070818846144614, -0.3673908044851617, -0.20862436331165737, -0.011761074970093877, -0.015815062785246803, -0.04838291338764911, 0.08873752149502773], [-0.10574468606672793, 0.19126449580763794, 0.09439986052753047, 0.07221965350729981, -0.25054281117900057, -0.18591181984163946, -0.3357307817920775, -0.2159898614398984, 0.20715281060334445, 0.18577619640728738, 0.3254992060931976, -0.3673210305020381, -0.3420102862269484, -0.04489620003903261, -0.054912667289562345, 0.15137705837953996, 0.3746333446384651, 0.16846642455231342, -0.16188641116642202, 0.3092245714102986, 0.3731966824026862, -0.13136766724204726, -0.09066811608517755, -0.09135616842890237, 0.35614435854668025, -0.15139985877800705, 0.03122178549347332, 0.08697561492216832, -0.31961327966173314, -0.1663189069124499, -0.3539427646768031, -0.19443993923476657, -0.000155556979299587, -0.30296902031242834, -0.3614543803372222, 0.3342336733048642, -0.14000804948520246, -0.21563508786582333, -0.30687922098734566, -0.14725858549779922], [-0.01748346681017443, 0.1203647549600485, -0.17949878759457008, -0.02855018680429966, 0.18201367816053937, 0.2770325425708601, 0.3469149882564798, -0.18844944620401616, 0.07341739466610131, 0.3140789824910786, -0.15496968636456943, 0.24269155900627093, -0.23439461663453734, 0.11338604632339366, -0.12827161564595144, -0.28101349659756336, -0.023879284554551905, -0.1584124839947615, 0.32392311021070275, 0.048058206167255646, 0.08653957904543641, 0.02137585867129932, -0.16605715345109442, 0.18336206337612126, -0.23381546006982573, 0.008850123058709913, 0.33502275975134554, -0.27703774413518545, 0.1477373172681623, -0.00982154079395614, 0.1259308061283595, -0.34397204758528577, -0.08393043001068484, 0.03682055425823755, -0.2719769539387503, 0.22342830803187186, -0.2317517605652647, 0.0011414115878924935, -0.1280885129744298, -0.0784518267021394], [0.0, 0.0, 0.0, 0.0, 0.0, 0.0, 0.0, 0.0, 0.0, 0.0, 0.0, 0.0, 0.0, 0.0, 0.0, 0.0, 0.0, 0.0, 0.0, 0.0, 0.0, 0.0, 0.0, 0.0, 0.0, 0.0, 0.0, 0.0, 0.0, 0.0, 0.0, 0.0, 0.0, 0.0, 0.0, 0.0, 0.0, 0.0, 0.0, 0.0]], "3": [[0.023922995582827095], [-0.027647778595798166], [0.026925882715100914], [-0.03241927918278362], [0.01700568153674034], [-0.022203500736732003], [0.02055317042618457], [0.012541918432032603], [-0.02490853792424748], [0.02478007571912158], [0.010640718678057416], [-0.02382507070540034], [-0.015407712339360214], [0.0044226956951619045], [-0.0246514338042624], [0.013711180231649162], [0.00495649615877157], [-0.00023807930798569465], [0.020938455714541032], [0.003336487778572761], [0.03155282268208238], [-0.018970012338433484], [0.0007977289365050794], [0.0021833492453840753], [-0.03466482716020365], [0.010904603998737591], [0.0011966253729994922], [0.014248060211430505], [0.027596225000184986], [-0.028287169309920528], [0.02453091692893579], [0.026767974461405324], [0.02297976465141839], [0.016382289807373364], [0.006650580620467056], [0.03684573949344228], [-0.018182685983391508], [-0.03452783867311243], [0.006788369456339392], [0.0031911191494810517], [0.0]]}, "Pd": {"1": [[-0.008508538220974485, 0.03348077916434376, 0.0009550530955855646, -0.03763110962739631], [0.0018137928042444712, -0.03846442017277727, -0.024644190493667513, -0.02734400562121869], [0.012806952422351553, -0.033117580737123724, 0.005310721579523128, 0.04563508285315536], [0.004769475120728908, -0.04577425674586942, -0.016433644474546705, 0.007516954271025819], [0.02667350377103178, -0.013091431913131044, -0.001541348941266188, 0.04411512394955555], [-0.04018719754944674, 0.04404753001662337, 0.015125958217010141, -0.00421046565051876], [0.032083645751263684, 0.03869649079745538, -0.024718315926679113, -0.041613587500529896], [0.03315628237304885, 0.04462498857061209, -0.013920346449716084, 0.04589786988616451], [0.007401508209643262, 0.03502893852554931, -0.029409766634345857, -0.007257306816123042], [0.022322969540650994, 0.025137922773880772, -0.01332754552286284, -0.046299663105484945], [-0.03440731785680692, 0.036280003607438396, -0.014305222231425635, 0.003448037425976047], [0.015282015354002802, -0.04493813389678984, -0.03033073749163266, -0.014344814026438939], [-0.016819314818053432, 0.024433859259089877, -0.005644769118608617, 0.011314680347812536], [0.0381494026732334, 0.018295170792118287, 0.045812266845351265, 0.012981031231635465], [-0.006882542647422496, -0.04249351590030455, 0.02445859209162965, 0.015006557707815199], [-0.036811669038562256, -0.003545094865161469, 0.04377529414007733, 0.028748730893190785], [-0.02418916387213045, 0.02256370449465714, 0.014751430105046176, -0.043534596631945005], [0.02128057051757941, 0.002815764399051124, 0.021790255338897002, -0.037462495982906574], [-0.026478839660411483, 0.02606367288023799, -0.0439004304302537, -0.042147912161753925], [-0.006246299402476785, -0.008857155349970211, 0.04293738835831633, -0.016526173547357928], [0.02270317458506499, 0.006978628551896578, -0.04606507251820045, -0.033741306176093146], [-0.027291694753095765, 0.03247123011434798, 0.02246568533045637, -0.0015114738418807588], [0.014120294052071207, -0.01122624107355831, -0.018766589650932534, 0.042961636380654256], [0.010312534808266757, 0.04328703360969963, -0.021108388667315812, 0.01871385659948785], [0.003851688986934554, -0.044014911851379276, -0.0011314555346344582, -0.033667877761625595], [-0.00652636946665526, -0.030066932653275452, -0.04076926585180638, -0.03703181720606935], [-0.037168823500823525, -0.046504707511976495, 0.0025680630760962497, 0.02051785143708544], [-0.013611577105873358, -0.012359447350746552, -0.0462425109429062, 0.021668976258988074], [0.012679500403542036, -0.046287472467295906, 0.03391578025604783, -0.003631263334337581], [0.017080547358787543, 0.01005929900921719, 0.0035520106363274365, 0.02919201894016757], [0.012405791811300068, 0.00860031891665626, -0.028365327021749997, -0.013502448532268979], [-0.04086878714946148, -0.012056482411961653, 0.03757644580837885, -0.018806590505660803], [0.0, 0.0, 0.0, 0.0]], "2": [[0.10429965172141842, 0.3500384857723716, 0.08482731203316557, -0.23699339709757647, -0.07108371493981525, 0.3606728196184378, -0.22239464686480054, 0.055421872747242085, 0.04292904391754415, 0.27082712540767884, -0.09458317346279865, 0.0648112737609941, 0.13733639345643822, 0.22835204849598767, -0.09242491944898495, 0.31650029003299174, -0.25117918998128985, -0.1397881884832589, 0.35015392355347075, 0.3155074628363751, -0.29916930378279294, 0.13587200212221728, 0.0396002288820152, 0.16251263271794292, 0.2792945447450109, 0.37471339747436483, 0.31506460174534856, -0.1967155176521982, -0.132978398727942, -0.02269323637416998, 0.3343808357202286, -0.29564945148386007, -0.22490794107509846, 0.32291767675395977, -0.22847477826058407, 0.24483087958884897, -0.3362529594802882, -0.36029766871609126, -0.21256776492755824, -0.3382035510274789], [-0.30110021129000497, -0.35883162129148216, 0.10133601670754211, -0.2996958730190242, 0.30585710287466383, 0.3607088346960232, -0.3718196719080411, -0.30888516965834567, 0.24059057785604765, -0.11173993041894686, -0.12995314381420306, -0.2721177085623874, 0.15627579156205473, 0.1956912005390936, 0.14393889678894878, 0.28808890290669753, -0.08505810165756778, 0.20504875944158696, 0.11308082171005374, 0.18927980448223214, -0.29624921643240176, -0.3613052397937173, -0.258322951319833, 0.2921422751627566, 0.35566609654495085, 0.0880954728157326, -0.3214768134041567, 0.16925532473299842, -0.16496105036274084, 0.08641459823587039, -0.1261337994993456, 0.3045062516190711, -0.020709714562291537, 0.17333224766039956, -0.05243286767014321, 0.28139364681851964, 0.12201356931325275, 0.0015208698502466866, 0.2725128171935296, -0.19473931392928515], [-0.008882358164592319, -0.0599737246674279, 0.25422870004385956, -0.20062818708912084, 0.2360273710836044, 0.26157791642044625, -0.11318189571570259, -0.14798404113581545, -0.3296409533298006, 0.1355778017097582, -0.08416432903870497, 0.15720524569399708, 0.1044773382181946, -0.22412132457750952, 0.04058892943306902, -0.19783990495494938, 0.3117332481875087, -0.15970923668790618, 0.11902670348281369, 0.22788990933034714, -0.319038943397402, 0.16371028241490138, -0.007749962149126488, -0.3374333740822133, -0.10273683177131487, -0.35247490611947707, -0.20202367768880677, 0.04748222656901324, -0.07893327368445885, -0.055078959736513444, -0.24642719571665767, -0.16266015816209614, -0.05874393588176685, -0.1337934789021985, -0.276308074020377, -0.34381108083207285, -0.29110623099819044, -0.02081224858101094, 0.11659006693955865, 0.245594121062105], [0.17198356711298302, -0.03917157026301599, -0.13736705827309142, 0.027471523005864307, 0.0742936889265613, 0.008965932811495159, 0.19142849014083785, 0.3611037473235158, 0.06141171262552214, -0.09374209377396697, 0.3057005365975263, -0.21787427741947857, 0.11173281034610927, 0.13626024581305773, 0.29136461272743275, -0.00627530184569125, -0.23905247719380598, 0.08875912599216651, -0.026718833122282848, -0.1098766942285117, 0.10519730407666084, 0.01855990152757997, 0.053535819108141425, -0.07545981711025251, -0.11866683891341889, -0.003163974525769886, -0.30780783969832504, 0.21915512565244855, 0.11101341967777961, -0.036130621023249265, -0.2862290770090178, 0.25753556858603066, 0.11544881995780076, 0.12313907997263507, 0.09945983773772182, -0.18669740166271734, 0.08938701748506661, 0.34381842478594526, 0.3547675321086947, -0.338353266357323], [0.0, 0.0, 0.0, 0.0, 0.0, 0.0, 0.0, 0.0, 0.0, 0.0, 0.0, 0.0, 0.0, 0.0, 0.0, 0.0, 0.0, 0.0, 0.0, 0.0, 0.0, 0.0, 0.0, 0.0, 0.0, 0.0, 0.0, 0.0, 0.0, 0.0, 0.0, 0.0, 0.0, 0.0, 0.0, 0.0, 0.0, 0.0, 0.0, 0.0]], "3": [[-0.007322423264176665], [-0.030859989480303676], [-0.02622244922873366], [0.004691395069772522], [0.0002118177946666966], [-0.009244424082961014], [-0.009947086549502122], [0.016451073987549754], [0.015993400065416594], [0.017495193969885324], [-0.02086293354473529], [0.036184929907468], [0.0007934060897089104], [-0.006840867319880487], [-0.021808395101310152], [-0.02057454705461215], [0.0034647413288076204], [0.0006844464312307091], [0.012480664755640226], [0.008126555857636213], [0.013345009086533258], [0.02356904078007438], [0.014790579012512753], [0.029896411030923185], [-0.03732528166359112], [0.02660702441829412], [-0.00646742601875858], [0.007505518164352305], [-0.028656208081653603], [-0.012633159339875605], [0.03240362197479308], [-0.01561119240731728], [0.02935980869950299], [-0.00010324329728711445], [0.023159124159604735], [0.02911019912456137], [-0.00573782986604407], [0.03625483746076504], [0.01836216717044515], [0.00930948450707756], [0.0]]}}, "fingerprints_range": {"Cu": [[0.7355979085179102, 15.55743075082518], [0.17208454571200024, 15.824610224206179], [0.2647337529778042, 9.728035574767311], [0.048289987224936715, 9.183520039100534], [0.08998943476157976, 6.543651351035633], [0.013116604377678287, 5.901293632153394], [0.011086319621036456, 3.4322011143730915], [0.0009677208042695254, 3.058089253340858], [2.8105378597217076e-05, 0.7186722153281908], [3.886297579508524e-07, 0.7702142399843445], [1.0530964208036616e-09, 0.06459500411004929], [8.495312182045297e-13, 0.09579851951537856], [1.4696933730671603e-18, 0.0005969806159118927], [4.059438105570023e-24, 0.0014999082499671163], [0.50034203926832, 586.0279136978755], [2.8969921783012786, 1339.0774553779588], [0.0, 680.2199829665379], [0.623397651130686, 430.46949002501225], [2.2581612173512284, 933.9576344679633], [0.11622805422127631, 505.84680013293473], [0.18504763958633103, 428.8432803118022], [1.7871978465575518, 999.1121607682313], [0.0, 497.0153279237612], [0.21809387928730953, 273.284856638939], [1.3209770091224067, 593.9923398582351], [0.06881080565862441, 322.6421450901536], [0.020560848842925673, 287.61510794586883], [0.799631268139842, 694.3948342368042], [0.0, 333.734781480117], [0.03697254301515187, 160.4359473839458], [0.665959989982916, 348.9904146530375], [0.004300675351054025, 189.85900104165898]], "Pd": [[0.17208454571200046, 15.82461022420618], [0.7355978047404241, 15.557430750825183], [0.04828998722493681, 9.183520039100532], [0.2647337529778042, 9.72803557476731], [0.01311660437767832, 5.901293632153396], [0.08998943476157976, 6.543651351035635], [0.000967720804269529, 3.058089253340857], [0.011086319621036456, 3.4322011143730906], [3.8862975795085565e-07, 0.770214239984344], [2.8105378597217076e-05, 0.7186722153281916], [8.495312182045429e-13, 0.09579851951537853], [1.0530949854903416e-09, 0.06459500411004933], [4.059438105570144e-24, 0.0014999082499671157], [1.469689571940093e-18, 0.0005969806159118931], [0.0, 680.2199829665362], [2.8969921783012804, 1339.0774553779634], [0.50034203926832, 586.0279136978755], [0.11622805422127645, 505.8468001329346], [2.2581612173512298, 933.9576344679631], [0.6233975439578614, 430.46949002501225], [0.0, 497.01532792376423], [1.7871978465575515, 999.1121607682309], [0.18504763958633114, 428.8432803118022], [0.06881080565862441, 322.6421450901558], [1.3209770091224076, 593.9923398582329], [0.21809382696856305, 273.284856638939], [0.0, 333.73478148011566], [0.799631268139842, 694.3948342368044], [0.020560848842925677, 287.61510794586883], [0.004300675351054025, 189.85900104165927], [0.6659599899829165, 348.9904146530362], [0.03697252924305966, 160.4359473839458]]}, "fingerprints_tag": 1, "scalings": {"Pd": {"slope": 2.7555544681249997, "intercept": -2.459831533125}, "Cu": {"slope": 2.7555544681249997, "intercept": -2.459831533125}}}