{"cutoff": 6.5, "Gs": {"Pd": [{"eta": 0.05, "type": "G2", "element": "Cu"}, {"eta": 0.05, "type": "G2", "element": "Pd"}, {"eta": 4.0, "type": "G2", "element": "Cu"}, {"eta": 4.0, "type": "G2", "element": "Pd"}, {"eta": 20.0, "type": "G2", "element": "Cu"}, {"eta": 20.0, "type": "G2", "element": "Pd"}, {"eta": 80.0, "type": "G2", "element": "Cu"}, {"eta": 80.0, "type": "G2", "element": "Pd"}, {"zeta": 1.0, "elements": ["Cu", "Cu"], "type": "G4", "gamma": 1.0, "eta": 0.005}, {"zeta": 1.0, "elements": ["Cu", "Pd"], "type": "G4", "gamma": 1.0, "eta": 0.005}, {"zeta": 1.0, "elements": ["Pd", "Pd"], "type": "G4", "gamma": 1.0, "eta": 0.005}, {"zeta": 1.0, "elements": ["Cu", "Cu"], "type": "G4", "gamma": -1.0, "eta": 0.005}, {"zeta": 1.0, "elements": ["Cu", "Pd"], "type": "G4", "gamma": -1.0, "eta": 0.005}, {"zeta": 1.0, "elements": ["Pd", "Pd"], "type": "G4", "gamma": -1.0, "eta": 0.005}, {"zeta": 4.0, "elements": ["Cu", "Cu"], "type": "G4", "gamma": 1.0, "eta": 0.005}, {"zeta": 4.0, "elements": ["Cu", "Pd"], "type": "G4", "gamma": 1.0, "eta": 0.005}, {"zeta": 4.0, "elements": ["Pd", "Pd"], "type": "G4", "gamma": 1.0, "eta": 0.005}, {"zeta": 4.0, "elements": ["Cu", "Cu"], "type": "G4", "gamma": -1.0, "eta": 0.005}, {"zeta": 4.0, "elements": ["Cu", "Pd"], "type": "G4", "gamma": -1.0, "eta": 0.005}, {"zeta": 4.0, "elements": ["Pd", "Pd"], "type": "G4", "gamma": -1.0, "eta": 0.005}], "Cu": [{"eta": 0.05, "type": "G2", "element": "Cu"}, {"eta": 0.05, "type": "G2", "element": "Pd"}, {"eta": 4.0, "type": "G2", "element": "Cu"}, {"eta": 4.0, "type": "G2", "element": "Pd"}, {"eta": 20.0, "type": "G2", "element": "Cu"}, {"eta": 20.0, "type": "G2", "element": "Pd"}, {"eta": 80.0, "type": "G2", "element": "Cu"}, {"eta": 80.0, "type": "G2", "element": "Pd"}, {"zeta": 1.0, "elements": ["Cu", "Cu"], "type": "G4", "gamma": 1.0, "eta": 0.005}, {"zeta": 1.0, "elements": ["Cu", "Pd"], "type": "G4", "gamma": 1.0, "eta": 0.005}, {"zeta": 1.0, "elements": ["Pd", "Pd"], "type": "G4", "gamma": 1.0, "eta": 0.005}, {"zeta": 1.0, "elements": ["Cu", "Cu"], "type": "G4", "gamma": -1.0, "eta": 0.005}, {"zeta": 1.0, "elements": ["Cu", "Pd"], "type": "G4", "gamma": -1.0, "eta": 0.005}, {"zeta": 1.0, "elements": ["Pd", "Pd"], "type": "G4", "gamma": -1.0, "eta": 0.005}, {"zeta": 4.0, "elements": ["Cu", "Cu"], "type": "G4", "gamma": 1.0, "eta": 0.005}, {"zeta": 4.0, "elements": ["Cu", "Pd"], "type": "G4", "gamma": 1.0, "eta": 0.005}, {"zeta": 4.0, "elements": ["Pd", "Pd"], "type": "G4", "gamma": 1.0, "eta": 0.005}, {"zeta": 4.0, "elements": ["Cu", "Cu"], "type": "G4", "gamma": -1.0, "eta": 0.005}, {"zeta": 4.0, "elements": ["Cu", "Pd"], "type": "G4", "gamma": -1.0, "eta": 0.005}, {"zeta": 4.0, "elements": ["Pd", "Pd"], "type": "G4", "gamma": -1.0, "eta": 0.005}]}, "activation": "tanh", "hiddenlayers": {"Pd": [3, 30], "Cu": [3, 30]}, "weights": {"Cu": {"1": [[0.0746663998380009, 0.027221681059156316, 0.0037693335157167884], [-0.02916943442417, -0.052704810814829126, -0.02686254955535937], [0.0358613510653497, 0.04282569006281349, -0.05208209084588172], [-0.02444451002720195, 0.04562571741891609, 0.0014580276865600594], [0.05681399448742526, -0.07006177923059004, 0.017686012295403813], [-0.0018895443239761583, 0.06937629491133233, 0.07083088852779994], [-0.022277823206310977, -0.027514687179535882, -0.05148685360594289], [0.046818578905541114, 0.02837814072812997, -0.03509937205447865], [-0.011158529639529124, 0.015576125765708049, 0.0024041202401326317], [-0.0013909042803250948, 0.05625019932752125, -0.015420372151414022], [0.0443021244474535, 0.06174051664009668, 0.036136885142946426], [-0.044511051480769975, -0.007073067448753412, 0.028030543034998967], [-0.013306620209598087, 0.04351970810498394, 0.000625881959535779], [0.03901558772182004, 0.011339867205499024, 0.020118471031766477], [-0.03256272016347259, 0.015072620194978875, 0.01759260681178286], [-0.014726044417318576, 0.06271227593912133, -0.0011236223887202412], [-0.015258171131241546, 0.0057191071032785396, 0.03680250379393536], [-0.06533781021594909, -0.04705792473372232, -0.04127987997877799], [-0.041662188504941244, -0.021925505874783598, -0.048472489370816677], [0.0712977305646552, 0.058450040450379895, -0.056348810112655204], [0.0, 0.0, 0.0]], "2": [[0.1212893396520981, -0.1764335280208379, 0.23751391033276747, -0.14603479141983566, -0.05139613126842679, -0.48754139405905894, -0.18548867446146322, -0.047726676105277255, -0.49632658082397485, 0.3855757063671189, 0.0671689728147421, 0.44276789420600415, 0.27421988568605526, -0.028288202663528828, 0.07156651032813033, 0.09584284911080798, -0.2594871113259577, -0.41346977914724425, -0.03351843126345, -0.25495009829452076, -0.12402019157354904, -0.41854507939654806, 0.2714505134705447, -0.29390291824296, -0.3881683680174657, -0.16821013291963105, 0.13906106678851615, -0.4437058938703359, -0.3166713994356197, 0.47123784068919206], [-0.4240570489297917, -0.2490015253222947, -0.11490822832893577, 0.19932819933384605, 0.4242553401903345, -0.2748483367364364, -0.3166146321202111, 0.21352863018288548, -0.26049925782668326, -0.4629226248399858, -0.4706343179791358, 0.39332992424714064, 0.042276622554823784, 0.15069776376989918, -0.3044126451309427, 0.28635383531067005, 0.47095455604552916, -0.017924272432049193, 0.3423294293870345, 0.2746954082216173, -0.44806491297642037, -0.254419540381711, -0.26314736363519153, -0.4576860595471518, -0.4216372447851544, -0.02813075345813809, 0.14535947265543603, -0.3491949229496847, 0.12597343013353635, -0.23003879683808381], [0.040385953415843834, -0.09879414978981249, -0.34151419235719327, -0.2483747667896551, -0.285476262923434, -0.05988716679600148, -0.38360394147134214, -0.23287611917235906, 0.27259043845498565, -0.24912775865896186, -0.04013975775846401, -0.27324549631136474, 0.08640717432839029, -0.25548871609213386, -0.03877637348405705, -0.14187018873510182, 0.21635092530431466, -0.017950607166053678, 0.276094585963809, -0.12212948501840093, -0.2682758447649036, 0.3994258731818279, -0.35803890132087546, -0.07307093149996424, 0.08972597042049246, -0.48599998038037373, 0.2954890742148827, 0.3861037097068878, 0.031800813780104575, 0.022165394596815213], [0.0, 0.0, 0.0, 0.0, 0.0, 0.0, 0.0, 0.0, 0.0, 0.0, 0.0, 0.0, 0.0, 0.0, 0.0, 0.0, 0.0, 0.0, 0.0, 0.0, 0.0, 0.0, 0.0, 0.0, 0.0, 0.0, 0.0, 0.0, 0.0, 0.0]], "3": [[0.015594250602519316], [0.019237009958208137], [0.027308055427163344], [0.04607226522850032], [0.024417035855928568], [0.012486670091483722], [0.047559083268590235], [-0.017030098795574412], [-0.03459981672145347], [0.028547503846780675], [-0.012186106926622989], [0.028497644158605492], [-0.027443269836647202], [-0.01801482716243019], [0.04247311277595199], [-0.030997457804632603], [0.026251019213337265], [-0.005811175841235229], [0.03370071203633673], [0.023914887702183113], [0.02453771708018407], [-0.008370648308504779], [0.03665499552591571], [-0.03469189441283191], [0.038369887565649144], [0.04482846943994982], [0.0036995007138137873], [-0.018428504170103076], [-0.01419501520603951], [-0.004685607742900187], [0.0]]}, "Pd": {"1": [[-0.027325450060465363, 0.011864453530689142, 0.06094749806605772], [-0.0443297456633361, 0.05398341595574595, 0.04897648574817108], [0.011063833715358767, 0.005341083893898979, -0.006133156320925412], [0.005833290267863778, -0.06590551654085437, -0.07039442498971667], [-0.013593525727037294, 0.06036924771931647, 0.0033687975038374646], [0.021434931886117226, 0.04743431025294183, -0.055408725956940325], [-0.05378303409134187, -0.060015045283559484, -0.033025097952825995], [0.047155574337829576, 0.07164117966292353, 0.03635076816609922], [0.010382917231434224, -0.07390140557806704, 0.032163425104664245], [0.021057906711852425, -0.05942116527729968, -0.016738840743355625], [-0.06400338728530645, 0.00799256238649182, -0.008833679257998495], [-0.0657879118510878, 0.05021624010713917, 0.04000354467783343], [0.04443914240859226, 0.06952167837318839, -0.0008076277161151585], [-0.07395726324805198, -0.05440122700189112, -0.04215786926012068], [-0.040787095340731126, 0.0040976699635468655, 0.049277240536561476], [0.043555877875763566, -0.03124122583397202, 0.020173705907100756], [-0.06819166395419575, -0.02891868293134118, 0.03258271276261504], [-0.012580325791767363, 0.07234929244780756, -0.04370257211437652], [-0.06626006620495002, -0.040872753771667304, 0.048014857550930615], [-0.045837977501593116, -0.019925376601927544, 0.05666468954270397], [0.0, 0.0, 0.0]], "2": [[0.04195554624702402, -0.12533885789267663, 0.45524466063158864, -0.20437857947783744, 0.3749434839315978, -0.32742651543754, -0.13352656045927191, -0.18704887548170446, 0.4203544476751361, 0.4734766958773955, 0.047710712401675015, -0.44878783232987085, 0.2166696428620839, -0.1498156501101401, -0.1464164828425858, 0.4435210849283576, 0.0050575013306540795, 0.23653310874470423, -0.08977596369583929, 0.26208177557233114, 0.20974385626438397, 0.17385804091822255, 0.4046586059051871, -0.435964102614932, -0.03878750778169193, -0.27176527485906443, -0.39634029571907325, 0.3198053044415111, -0.07216666821042206, 0.26070839257328693], [0.3450603124663332, 0.21816300506475672, -0.48436483147251697, 0.28752735910217997, -0.23104119151226432, -0.3010862170933365, 0.4452883651562697, 0.08228006426783863, -0.09313353829033877, 0.35659812882399955, -0.03354406229872142, 0.17556362859415697, -0.33507467083726494, 0.4523647795369753, -0.26458635675450304, -0.3564459982341788, 0.27026624102402974, -0.24961118887291212, -0.491811280557622, 0.2892646835587479, 0.20139425639217456, -0.37066558606936606, 0.10962273066816974, -0.16442893762069954, 0.17441587091375577, 0.3532904224440927, -0.1433585619474782, 0.19558297968921112, 0.11910107984659335, -0.17025753336874105], [-0.08172504070987763, 0.1576355453131777, -0.2747740400632209, -0.43979242928396256, 0.49668979470900065, -0.14694404909291325, -0.22528864850344466, 0.2594291891080195, -0.15962593434982497, 0.27695445321780754, 0.4442783922486947, 0.3845732316217151, -0.23765822935096692, -0.4347032512492537, -0.20645235223258995, 0.06591572497679998, -0.09002148069615346, -0.03641272706612897, -0.18055653390107684, -0.011426152231308384, 0.008159812459494598, -0.49616864993858556, -0.06734464543398333, -0.018852446259879585, -0.15640089677172364, 0.3475924707386461, -0.1999213742689756, -0.29611264589281194, 0.43731695092805767, -0.3200046248457934], [0.0, 0.0, 0.0, 0.0, 0.0, 0.0, 0.0, 0.0, 0.0, 0.0, 0.0, 0.0, 0.0, 0.0, 0.0, 0.0, 0.0, 0.0, 0.0, 0.0, 0.0, 0.0, 0.0, 0.0, 0.0, 0.0, 0.0, 0.0, 0.0, 0.0]], "3": [[0.025641809042313807], [-0.03418963201495427], [-0.036214190982632455], [0.023038000063555553], [0.04261419191629798], [0.02425960485330733], [-0.042263938141030466], [0.029624424637341523], [0.01733537525964937], [-0.0015502389219188561], [0.009965092106492449], [0.040918775105746305], [0.048161717634932905], [-0.01074360732859285], [0.043547128956376885], [-0.018847235539710586], [-0.04497126977154009], [-0.02261566651550441], [-0.0077120402144459504], [-0.031537641872361855], [0.028209544658690508], [-0.020557931665110496], [-0.012972341235545859], [-0.04056153817569849], [-0.018402247151359186], [-0.040449771214781174], [0.042324414753490816], [0.003491487903702753], [0.04708836364191467], [-0.00258276190922635], [0.0]]}}, "fingerprints_range": {"Cu": [[0.1063750548408017, 15.55743075082518], [0.028202539821623157, 15.824610224206179], [0.0039475029562834815, 6.543651351035633], [0.0009775685586746502, 5.901293632153394], [6.336097831506945e-09, 0.7186722153281908], [1.190287988056906e-09, 0.7702142399843445], [1.1815297550357418e-30, 0.0005969806159118927], [7.875808503354093e-32, 0.0014999082499671163], [0.14542638955905765, 586.0279136978755], [1.0639431752062123, 1339.0774553779588], [-2.1232459816643144e-18, 680.2199829665379], [0.21753575331713212, 430.46949002501225], [0.7672793241028637, 933.9576344679633], [0.01912449962367862, 505.84680013293473], [0.009653362355969163, 287.61510794586883], [0.3377739380614941, 694.3948342368042], [0.0, 333.734781480117], [0.03697254301515187, 160.4359473839458], [0.23682355773155236, 348.9904146530375], [0.0018168617087065356, 189.85900104165898]], "Pd": [[0.028202539821623157, 15.82461022420618], [0.1063750548408017, 15.557430750825183], [0.0009775685586746502, 5.901293632153396], [0.0039475029562834815, 6.543651351035635], [1.190287988056906e-09, 0.770214239984344], [6.336097831506945e-09, 0.7186722153281916], [7.875808503354093e-32, 0.0014999082499671157], [1.1815297550357418e-30, 0.0005969806159118931], [-2.1232459816643144e-18, 680.2199829665362], [1.0639431752062118, 1339.0774553779634], [0.14542638955905765, 586.0279136978755], [0.01912449962367862, 505.8468001329346], [0.7672793241028637, 933.9576344679631], [0.21753575331713212, 430.46949002501225], [0.0, 333.73478148011566], [0.33777393806149464, 694.3948342368044], [0.009653362355969173, 287.61510794586883], [0.0018168617087065421, 189.85900104165927], [0.23682355773155245, 348.9904146530362], [0.03697252924305966, 160.4359473839458]]}, "fingerprints_tag": 1, "scalings": {"Pd": {"slope": 2.7555544681249997, "intercept": -2.459831533125}, "Cu": {"slope": 2.7555544681249997, "intercept": -2.459831533125}}}