{"cutoff": 6.5, "Gs": {"Pd": [{"eta": 0.05, "type": "G2", "element": "Cu"}, {"eta": 0.05, "type": "G2", "element": "Pd"}, {"eta": 4.0, "type": "G2", "element": "Cu"}, {"eta": 4.0, "type": "G2", "element": "Pd"}, {"eta": 20.0, "type": "G2", "element": "Cu"}, {"eta": 20.0, "type": "G2", "element": "Pd"}, {"eta": 80.0, "type": "G2", "element": "Cu"}, {"eta": 80.0, "type": "G2", "element": "Pd"}, {"zeta": 1.0, "elements": ["Cu", "Cu"], "type": "G4", "gamma": 1.0, "eta": 0.005}, {"zeta": 1.0, "elements": ["Cu", "Pd"], "type": "G4", "gamma": 1.0, "eta": 0.005}, {"zeta": 1.0, "elements": ["Pd", "Pd"], "type": "G4", "gamma": 1.0, "eta": 0.005}, {"zeta": 1.0, "elements": ["Cu", "Cu"], "type": "G4", "gamma": -1.0, "eta": 0.005}, {"zeta": 1.0, "elements": ["Cu", "Pd"], "type": "G4", "gamma": -1.0, "eta": 0.005}, {"zeta": 1.0, "elements": ["Pd", "Pd"], "type": "G4", "gamma": -1.0, "eta": 0.005}, {"zeta": 4.0, "elements": ["Cu", "Cu"], "type": "G4", "gamma": 1.0, "eta": 0.005}, {"zeta": 4.0, "elements": ["Cu", "Pd"], "type": "G4", "gamma": 1.0, "eta": 0.005}, {"zeta": 4.0, "elements": ["Pd", "Pd"], "type": "G4", "gamma": 1.0, "eta": 0.005}, {"zeta": 4.0, "elements": ["Cu", "Cu"], "type": "G4", "gamma": -1.0, "eta": 0.005}, {"zeta": 4.0, "elements": ["Cu", "Pd"], "type": "G4", "gamma": -1.0, "eta": 0.005}, {"zeta": 4.0, "elements": ["Pd", "Pd"], "type": "G4", "gamma": -1.0, "eta": 0.005}], "Cu": [{"eta": 0.05, "type": "G2", "element": "Cu"}, {"eta": 0.05, "type": "G2", "element": "Pd"}, {"eta": 4.0, "type": "G2", "element": "Cu"}, {"eta": 4.0, "type": "G2", "element": "Pd"}, {"eta": 20.0, "type": "G2", "element": "Cu"}, {"eta": 20.0, "type": "G2", "element": "Pd"}, {"eta": 80.0, "type": "G2", "element": "Cu"}, {"eta": 80.0, "type": "G2", "element": "Pd"}, {"zeta": 1.0, "elements": ["Cu", "Cu"], "type": "G4", "gamma": 1.0, "eta": 0.005}, {"zeta": 1.0, "elements": ["Cu", "Pd"], "type": "G4", "gamma": 1.0, "eta": 0.005}, {"zeta": 1.0, "elements": ["Pd", "Pd"], "type": "G4", "gamma": 1.0, "eta": 0.005}, {"zeta": 1.0, "elements": ["Cu", "Cu"], "type": "G4", "gamma": -1.0, "eta": 0.005}, {"zeta": 1.0, "elements": ["Cu", "Pd"], "type": "G4", "gamma": -1.0, "eta": 0.005}, {"zeta": 1.0, "elements": ["Pd", "Pd"], "type": "G4", "gamma": -1.0, "eta": 0.005}, {"zeta": 4.0, "elements": ["Cu", "Cu"], "type": "G4", "gamma": 1.0, "eta": 0.005}, {"zeta": 4.0, "elements": ["Cu", "Pd"], "type": "G4", "gamma": 1.0, "eta": 0.005}, {"zeta": 4.0, "elements": ["Pd", "Pd"], "type": "G4", "gamma": 1.0, "eta": 0.005}, {"zeta": 4.0, "elements": ["Cu", "Cu"], "type": "G4", "gamma": -1.0, "eta": 0.005}, {"zeta": 4.0, "elements": ["Cu", "Pd"], "type": "G4", "gamma": -1.0, "eta": 0.005}, {"zeta": 4.0, "elements": ["Pd", "Pd"], "type": "G4", "gamma": -1.0, "eta": 0.005}]}, "activation": "tanh", "hiddenlayers": {"Pd": [3, 30], "Cu": [3, 30]}, "weights": {"Cu": {"1": [[0.06201264343169294, -12.661836077973676, -0.007853317683177185], [-7.286414798131682, -9.630823701252215, -0.14195724830066453], [0.3840457146757673, 8.053506030960271, -0.08330653323337796], [1.6748225486436281, 0.12565026358162085, -0.07581982807545377], [2.937036338025065, -1.4257516020746706, 0.030663962854051485], [0.5126340040110294, 2.3772283146460755, 0.04054289389365021], [-0.3164690234120026, -0.8825470382409503, 0.001326476420674587], [-0.39170775281469666, -1.5509660571117585, -0.01385314385175931], [-24.92915443154652, 36.92215699185503, 0.2732277268616471], [-94.53301458746286, 172.31184966562657, 1.5205267662177686], [-40.413146551067676, 46.01336518984037, 1.020613070075469], [64.56196172499773, 56.45693874210836, -0.5616129287504366], [166.50953152346025, 114.93251396682665, -2.2507444991848597], [107.11031148680392, 42.210934423859776, -1.2399368958755475], [18.16073717235194, -28.49736535801397, 0.00560671495300805], [54.03505668902295, -99.16010618831581, -0.8501862434018841], [20.87365497109059, -36.711535320267124, -0.6545029774344066], [-54.98114770675267, -80.6582671298212, 0.3341468053526207], [-134.418375785787, -144.57118761046604, 1.38459078647468], [-80.61973872384321, -67.76054043828168, 1.027318449388106], [0.9030215088816586, 2.6664062330034075, 0.6189418948967436]], "2": [[-92.92590685486738, -5.145159275725502, 9.471669445381579, 4.080942680673042, -5.028874700332672, 6.7853449077799555, -0.3545939936644933, -4.140721345191544, -0.445505674624104, -1.281071737437444, -1.900877894784511, 5.899769843685506, 0.6727469823949601, 0.7157478281138061, -0.6538094713327638, -0.4804644118309342, 2.0067828865894466, -5.760717397140969, 3.505214866212957, 3.7735700785169093, 2.1322971031716453, -55.58172757074086, -13.874718851431338, -4.931299929931303, 2.659160635925966, -16.298494234515783, 0.22076365262725736, 120.5585670172225, -1.4538753808813611, -4.03757203261875], [-61.10633661947142, 5.35783363262222, 0.2900939679121833, 0.5860179239564741, 6.233632746556934, -8.243166683680975, -2.213445048244404, -0.6819672785109718, 4.268555763945816, -0.4722463855549694, 4.211669585872118, -1.0490241079203242, 0.42294615472079133, -0.1024526429471132, 0.449537673336665, 1.0574215230510449, 0.5372809960261805, -0.7700851999007067, 1.0178198406424306, 14.563574988075125, 0.2245232906185934, 0.11030601597643654, 1.7643597607894064, 23.250767661808517, 0.7254351842144832, 3.769113421242133, -1.3668801238965353, 21.65373471530218, 0.8270140839076787, -0.4618008908843487], [71.65924259685741, -41.05286022232188, -26.34624992113308, -13.277654579456748, -76.05534524446853, -1.1604993818608198, 3.5019216604026364, 13.99438570740043, -7.830726887686015, 14.112941190450384, -10.08955538353086, 11.613617283422958, 16.25163327077233, 20.247353746868118, -19.94067517826917, -11.245014497389471, 3.154676351081764, 15.714447453630578, -20.048168213365006, -10.528150578528441, -15.611347539353497, 14.228692444806859, 5.660571806650472, -3.797649196370624, 18.533984571612237, 50.73617344181447, 14.199085902066633, -7.72520485492979, -6.491506207240907, 3.727642954637188], [-14.788479482828132, 21.823349677536918, 21.290547084509814, 10.519035688281564, 43.243806531320836, -3.362531157023225, -1.0757072659523275, -11.400182624360001, 4.822730142933048, -7.253427599170351, 2.1429339428753935, 2.3059666880095815, -10.58963897246595, -11.055593105430496, 11.429230362735616, 5.8580927191129275, 0.36311164829130477, -12.800865013916027, 13.453515473374235, 25.205227472765287, 12.670528525970033, -65.642615460712, -9.859177457291501, 24.619090891875786, -5.826911686190673, -21.041280055172535, -8.525726216660434, 20.451565415056862, 4.898382242985176, -5.859310824201493]], "3": [[-1.905251659718202], [-0.08859395600152827], [-0.6641560073808336], [13.511877524136528], [0.13157280932382343], [2.2136496635939817], [2.197142702198833], [8.805148370684448], [-0.12311384443705728], [2.4878024733025845], [0.6079142966223776], [-17.0502777435644], [6.536231088556428], [7.339044197851914], [7.013426730156698], [2.127411144765968], [-7.338690665044358], [4.154948194830302], [-1.6175323577925758], [0.8974687622361246], [9.134376417086976], [11.070538011933797], [0.3877185407086015], [9.981189660062217], [0.6668447271545308], [3.2558556786819906], [-0.5404888043599392], [-1.8199749288598126], [-0.8017175125703193], [-3.7970621992108096], [7.1430288943626685]]}, "Pd": {"1": [[4.54533915508437, 0.46437280792832836, 0.8007462162550524], [-10.993564388762193, 2.305225565030609, 2.3073291048845417], [7.8338500982924435, -0.27155215180906667, -0.2966963564157057], [4.055581433688283, -0.430555874149421, -0.38126929705119406], [-3.023745375461924, -0.43566051048687776, -0.332668389084825], [-3.592229631785266, -0.2296074074205466, -0.23003957363958016], [-1.5935280706393553, -0.1343658040300125, -0.661305453880342], [0.05166746264402177, 0.014373852284356562, -0.3183618024076347], [139.96054486134315, 33.266403793362805, 35.70859824786107], [118.83121738158808, 48.911415202933156, 53.391915120202235], [32.65953461488671, 16.040799325088354, 18.423251910083604], [-111.88686215534607, -39.1545906292139, -43.503885235421556], [-123.93782007040694, -63.36880750944518, -70.12489763908309], [12.905009987075202, -21.64380172639765, -25.07693908960819], [-67.58303504896023, -18.371913169215063, -19.403427235621326], [-78.5748227589158, -27.144491704578666, -29.380912674331082], [-21.49502636376882, -6.679291656156586, -8.059402095829117], [55.66943041636495, 25.989463615266146, 28.661557611348478], [43.16803014706734, 39.023468930017046, 43.69838615063899], [0.020057161193030595, 12.924814295134123, 15.275220690234724], [-5.445187244708862, -1.1881516948659, -1.5130917604165366]], "2": [[-1.3893809329134184, 12.080712575822767, -1.3633213259263186, 0.9340124574797068, 0.06063314425265869, 12.448916923121283, 1.4714721213692163, 5.006293142820866, -8.60581664190085, 0.5273085350792359, -3.4512815374880574, -0.7258675744921684, -0.3085066798891754, 0.5775715237778798, 1.0467478231774157, -0.11449306924875838, 1.710693717085198, -23.358600383987035, 26.46000332664314, -5.951103142421612, -3.4709505127003695, -6.034655205450783, -4.061644412543553, 1.1951077879470726, -1.3022565433523696, 0.28896441877494955, 0.2093014984879672, -0.2773496043910704, 2.7900920970696723, 2.8173644800193895], [0.6262244320105922, 6.898265346321777, -12.167419256939112, -7.546106952600294, -4.094925249899436, 7.338803613194667, -9.34920763212986, -1.053873470583075, 16.72087937347637, 2.270415172926075, 0.8560424525474251, -7.851355329257741, 1.598492896976749, 0.4166170222074388, -1.6246019122654312, -17.834449583816994, 12.544044775070663, -6.452045777279927, 32.48783408923455, 16.239321498983998, 17.537659352256977, -4.716473060129713, -14.10563885886806, 1.462331613136198, -0.903269221637277, 0.46861857981276756, -7.693618654763537, -4.482316066822979, 12.633833030155351, 12.671299248320954], [-0.08762672126986767, -11.263291216371172, 6.092457689125252, 3.3753499301237078, 2.2431803158509003, -11.812612385173198, 7.00147294754242, 0.3516006891541186, -13.124974441772709, 1.9052259157990332, 0.7106163488214027, 3.037603887488988, -1.9833111306693292, -0.3464618252390117, 1.5071044804724834, -3.508672791905039, -5.516090379823651, 10.301240644164467, -8.510235952419759, -9.808291875097972, -4.933987705391282, 4.2618318711765655, 10.782897593626663, 1.3767234117003233, -0.5114496136233808, 0.9358472018774229, 4.116773770499186, 1.2607580797197961, -12.378351268408457, -12.403899447184216], [0.4460023263982589, 10.220369811200479, -5.708282628523558, -3.732111663464715, -2.7982888577003564, 10.596171644295259, -4.179447571956706, 7.195372842220284, 1.4672906268891108, -0.39140669891667434, -6.144564550797418, -3.5004900209558953, 0.34964261786892914, 0.49021594543761365, 0.5374562742151683, -18.356549012674844, 5.748377865671819, -29.550117901460833, 10.499905192093292, 3.928204964723957, 4.881861736552689, -10.461716659740533, -5.343336233686038, 0.360643790137372, -0.5871340906519003, 1.0346281262787245, -3.625344358980956, -2.8189881664661036, 4.01336017720851, 4.038914184476979]], "3": [[1.0331579080753712], [0.6273564802971755], [-1.721793456624751], [0.8515267563098705], [-12.006888524204493], [-0.5938508262409766], [0.2534296748177356], [-8.515129317102746], [0.005622898102135203], [-0.9211973265914899], [-9.252954711582193], [2.179963973354807], [-1.9026971901580263], [3.213208821943041], [-1.934085943006478], [-0.013521336599796024], [-0.7461293030449546], [0.48203153937002047], [0.000669850843687847], [-0.00927367729322611], [-0.016964040750365197], [-7.361948843086601], [-0.012007417403689201], [0.884304770331206], [1.0103658691579342], [4.579601991409179], [-0.7718706412139571], [4.8254831221596], [-2.1079732782566807], [2.1014867274281337], [-18.363314761099016]]}}, "fingerprints_range": {"Cu": [[0.1063750548408017, 15.55743075082518], [0.028202539821623157, 15.824610224206179], [0.0039475029562834815, 6.543651351035633], [0.0009775685586746502, 5.901293632153394], [6.336097831506945e-09, 0.7186722153281908], [1.190287988056906e-09, 0.7702142399843445], [1.1815297550357418e-30, 0.0005969806159118927], [7.875808503354093e-32, 0.0014999082499671163], [0.14542638955905765, 586.0279136978755], [1.0639431752062123, 1339.0774553779588], [-2.1232459816643144e-18, 680.2199829665379], [0.21753575331713212, 430.46949002501225], [0.7672793241028637, 933.9576344679633], [0.01912449962367862, 505.84680013293473], [0.009653362355969163, 287.61510794586883], [0.3377739380614941, 694.3948342368042], [0.0, 333.734781480117], [0.03697254301515187, 160.4359473839458], [0.23682355773155236, 348.9904146530375], [0.0018168617087065356, 189.85900104165898]], "Pd": [[0.028202539821623157, 15.82461022420618], [0.1063750548408017, 15.557430750825183], [0.0009775685586746502, 5.901293632153396], [0.0039475029562834815, 6.543651351035635], [1.190287988056906e-09, 0.770214239984344], [6.336097831506945e-09, 0.7186722153281916], [7.875808503354093e-32, 0.0014999082499671157], [1.1815297550357418e-30, 0.0005969806159118931], [-2.1232459816643144e-18, 680.2199829665362], [1.0639431752062118, 1339.0774553779634], [0.14542638955905765, 586.0279136978755], [0.01912449962367862, 505.8468001329346], [0.7672793241028637, 933.9576344679631], [0.21753575331713212, 430.46949002501225], [0.0, 333.73478148011566], [0.33777393806149464, 694.3948342368044], [0.009653362355969173, 287.61510794586883], [0.0018168617087065421, 189.85900104165927], [0.23682355773155245, 348.9904146530362], [0.03697252924305966, 160.4359473839458]]}, "fingerprints_tag": 1, "scalings": {"Cu": {"intercept": 1.1929555233416771, "slope": 6.3457330043731677}, "Pd": {"intercept": 1.1925104070789856, "slope": 7.7505335555590333}}}