{"cutoff": 6.5, "Gs": {"Pd": [{"eta": 0.05, "type": "G2", "element": "Cu"}, {"eta": 0.05, "type": "G2", "element": "Pd"}, {"eta": 4.0, "type": "G2", "element": "Cu"}, {"eta": 4.0, "type": "G2", "element": "Pd"}, {"eta": 20.0, "type": "G2", "element": "Cu"}, {"eta": 20.0, "type": "G2", "element": "Pd"}, {"eta": 80.0, "type": "G2", "element": "Cu"}, {"eta": 80.0, "type": "G2", "element": "Pd"}, {"zeta": 1.0, "elements": ["Cu", "Cu"], "type": "G4", "gamma": 1.0, "eta": 0.005}, {"zeta": 1.0, "elements": ["Cu", "Pd"], "type": "G4", "gamma": 1.0, "eta": 0.005}, {"zeta": 1.0, "elements": ["Pd", "Pd"], "type": "G4", "gamma": 1.0, "eta": 0.005}, {"zeta": 1.0, "elements": ["Cu", "Cu"], "type": "G4", "gamma": -1.0, "eta": 0.005}, {"zeta": 1.0, "elements": ["Cu", "Pd"], "type": "G4", "gamma": -1.0, "eta": 0.005}, {"zeta": 1.0, "elements": ["Pd", "Pd"], "type": "G4", "gamma": -1.0, "eta": 0.005}, {"zeta": 4.0, "elements": ["Cu", "Cu"], "type": "G4", "gamma": 1.0, "eta": 0.005}, {"zeta": 4.0, "elements": ["Cu", "Pd"], "type": "G4", "gamma": 1.0, "eta": 0.005}, {"zeta": 4.0, "elements": ["Pd", "Pd"], "type": "G4", "gamma": 1.0, "eta": 0.005}, {"zeta": 4.0, "elements": ["Cu", "Cu"], "type": "G4", "gamma": -1.0, "eta": 0.005}, {"zeta": 4.0, "elements": ["Cu", "Pd"], "type": "G4", "gamma": -1.0, "eta": 0.005}, {"zeta": 4.0, "elements": ["Pd", "Pd"], "type": "G4", "gamma": -1.0, "eta": 0.005}], "Cu": [{"eta": 0.05, "type": "G2", "element": "Cu"}, {"eta": 0.05, "type": "G2", "element": "Pd"}, {"eta": 4.0, "type": "G2", "element": "Cu"}, {"eta": 4.0, "type": "G2", "element": "Pd"}, {"eta": 20.0, "type": "G2", "element": "Cu"}, {"eta": 20.0, "type": "G2", "element": "Pd"}, {"eta": 80.0, "type": "G2", "element": "Cu"}, {"eta": 80.0, "type": "G2", "element": "Pd"}, {"zeta": 1.0, "elements": ["Cu", "Cu"], "type": "G4", "gamma": 1.0, "eta": 0.005}, {"zeta": 1.0, "elements": ["Cu", "Pd"], "type": "G4", "gamma": 1.0, "eta": 0.005}, {"zeta": 1.0, "elements": ["Pd", "Pd"], "type": "G4", "gamma": 1.0, "eta": 0.005}, {"zeta": 1.0, "elements": ["Cu", "Cu"], "type": "G4", "gamma": -1.0, "eta": 0.005}, {"zeta": 1.0, "elements": ["Cu", "Pd"], "type": "G4", "gamma": -1.0, "eta": 0.005}, {"zeta": 1.0, "elements": ["Pd", "Pd"], "type": "G4", "gamma": -1.0, "eta": 0.005}, {"zeta": 4.0, "elements": ["Cu", "Cu"], "type": "G4", "gamma": 1.0, "eta": 0.005}, {"zeta": 4.0, "elements": ["Cu", "Pd"], "type": "G4", "gamma": 1.0, "eta": 0.005}, {"zeta": 4.0, "elements": ["Pd", "Pd"], "type": "G4", "gamma": 1.0, "eta": 0.005}, {"zeta": 4.0, "elements": ["Cu", "Cu"], "type": "G4", "gamma": -1.0, "eta": 0.005}, {"zeta": 4.0, "elements": ["Cu", "Pd"], "type": "G4", "gamma": -1.0, "eta": 0.005}, {"zeta": 4.0, "elements": ["Pd", "Pd"], "type": "G4", "gamma": -1.0, "eta": 0.005}]}, "activation": "tanh", "hiddenlayers": {"Pd": [3, 30], "Cu": [3, 30]}, "weights": {"Cu": {"1": [[-0.11415211274337692, -13.566411525888908, -0.009078451080302039], [-7.532345213255262, -11.102254191462947, -0.16303036173784113], [0.5949468814811725, 9.700008316824857, -0.15923431860763676], [1.8682604892847752, 2.8309490105147352, -0.15002902150190126], [2.75265418553296, -1.1333722101462562, 0.04712088053402064], [0.3593161926940624, 2.234679245061071, 0.06981681611891083], [-0.2860318877300684, -0.5208813451866289, 0.0007660592337325741], [-0.2084281063125732, -1.0957245735081167, -0.03108156053557166], [-18.500112199561727, 72.39918735053291, -0.3618341971983957], [-70.9183428435885, 208.34576165863947, 0.780037376034179], [-21.691988611790702, 53.018979606172316, 0.8531405800216064], [51.35784998149203, 29.93958692005812, 0.005054287024437604], [132.26437310492085, 90.75679093513877, -2.067763043611925], [82.03763781766418, 45.97754883290241, -1.3425439009182012], [15.298909297781002, -44.519573603630626, 0.36436694368274714], [39.62370480839063, -116.27233110344963, -0.5006120680739389], [9.857215945070301, -36.180718343419805, -0.635228686085048], [-45.33016166859813, -71.59915967412535, 0.09689043973694905], [-109.53523658673615, -145.31383504546048, 1.4944747412557207], [-62.76577481604587, -77.4246775433387, 1.3535049749033825], [0.9960404250083157, 2.803113232917338, 0.5864014316739331]], "2": [[-32.807055383037145, -7.01038339211617, 8.240871806111988, 3.446122530060539, -6.9893890161677135, 5.078851612637338, -0.9508549450245745, -6.169837881916349, 1.030117812283887, -1.0027937880875446, -1.8091123241806837, 7.857978022022942, 0.8007098489831775, -0.5861949799287983, -0.24961620317999048, -1.323161674905927, 2.0656844977218283, -5.7237968202594995, 3.7965603492600146, 11.754777744931111, 2.5609860205527695, -20.626849462886604, -18.70605325486859, -2.56320488572725, 2.412462990565972, -9.334969512373414, 2.1482981378156927, 35.10098318654728, -2.180504306154364, -5.575468931939462], [-20.57583293474782, 2.228894952272867, 0.26835148202955783, 0.07263409829878074, 6.5507275478936755, -7.031651336544127, -4.031334502097022, -1.0730434955468782, 3.9895983533133537, -1.2451365002575565, 3.470247482295838, -0.693302022918945, -0.045296564381574096, -0.17304343804080063, 0.49284434848574776, 0.4723188630198632, -0.26970042934542793, -0.2794830892731585, 0.7579661992076661, 10.889400831681169, -0.27992164781448176, -1.4648392547986915, 2.040706011723749, 9.624208494302442, -1.3328415426559617, 3.623562584877811, -5.455249057253669, 7.187606157751749, 0.047937008579891936, -0.7508017878143904], [32.6603363454902, -30.409672698452887, -16.184063219562333, -5.691247891225208, -51.5210501363349, 0.9580841112444914, 14.948298649677975, 12.31837098029148, -0.48254016432834496, 11.7453059683216, -3.8310650256598637, 9.562676774565718, 10.173057472205802, 16.401757124750727, -14.551919419831886, -9.246055176043683, 4.672723969924142, 6.752603785955707, -11.461552751136141, -0.11092048820605915, -9.838655441105178, 6.129450930518283, 1.2139225470033466, -8.587529747759813, 20.53928356255794, 17.8259045219335, 18.399615565871024, -10.60672175461912, 4.616913220791267, 4.997260248983621], [-14.199840344795874, 10.054080988724575, 14.740067509203612, 5.907777803505222, 27.2536527175646, -4.101396802261335, -8.028244032986555, -12.86215949147567, 3.4887011074517638, -5.743757263337194, -0.9180103940153689, 5.903776286315486, -6.560926471235029, -9.988970037300795, 9.084209088988997, 2.3309159284957732, -1.0734451681383084, -8.049868907719963, 8.581957384516095, 23.649818644540474, 10.141177617861306, -26.9800680453702, -10.728819368916778, 13.905522427482866, -7.846525715059724, -5.531085413967509, -11.47207162818974, 13.01547336001429, -1.4977398835067877, -7.866773603188436]], "3": [[-5.215360035987034], [-0.040665834253050634], [-0.7199364835015298], [8.042985267320061], [0.07927210942988916], [2.1939924283747105], [1.0637523757261846], [3.4934568833983093], [-0.504358560211939], [2.208796573893248], [1.2456043749373533], [-9.505278621128847], [8.60848909624018], [3.7108258475500304], [6.664793271528618], [2.53306691839628], [-4.663714917780759], [2.6750073064744835], [-2.150763172335535], [0.9846044812787044], [9.56526507987505], [7.491429030254662], [0.1004285061365315], [2.8877220253985603], [0.1972246363176435], [2.8885356185863658], [-0.26320611074077604], [-5.142199870673451], [-0.561585520311374], [-2.5824027591773033], [3.088237725664013]]}, "Pd": {"1": [[3.8778934628643977, 0.28288172375257503, 0.7103184823663709], [-13.305361606790951, 1.9427969378829646, 2.2317329088659266], [8.577679662483954, -0.3826766873791523, -0.4399653178477369], [6.014792554766198, -0.5009175515213079, -0.5044135195895122], [-2.912639828820191, -0.2891727743140355, -0.20807285257774097], [-3.7147704148893803, -0.11674076116807716, -0.1248400734696407], [-1.8913053060345657, -0.15089848965067595, -0.7797427497540594], [-0.13319637075861282, 0.002517206038635689, -0.37705865104957004], [106.31468207444627, 23.12017251592299, 29.2249409148047], [75.62891124963578, 31.467030686171043, 41.42589286428697], [15.015171484093324, 8.863547483289647, 13.139672525732335], [-64.44168519544763, -25.338705918784353, -34.46632035829167], [-67.66211433841893, -39.217543075952655, -54.024236649516745], [43.1933279951514, -11.073812599039845, -17.51435414759094], [-51.369386453527454, -13.128795855491198, -16.1163210993074], [-52.99725328820799, -17.792543368084555, -22.967911369360532], [-13.240389783494237, -3.17775665851853, -5.328256784966657], [28.917211349775712, 16.98405016955277, 22.88716516127223], [-1.8560764793409437, 23.338466900735604, 33.219128230947796], [-17.352571550431048, 6.062083200230486, 10.346941005680632], [-5.229916805290091, -0.7254846045277809, -1.1402489269761538]], "2": [[-1.204907045862033, 5.672226711784026, -1.2357512960419483, 1.1819949630856814, -0.038190970997253826, 6.0729836386892755, 1.0350408387699244, 1.2025520943456376, -13.466843890188173, 0.5819669555947157, -1.7037805387256644, -0.8935806488279971, -0.5606949885983301, 0.2013220600427998, 0.8258055601251232, -0.15310164554139963, 2.40401431382994, -5.7921659322685155, 15.828522568735206, -6.881074132098613, -2.2085768234417835, -2.584948046704881, -6.161902412895477, 1.2676657613463294, -1.3573025675491628, 0.3136578964658904, 0.49353685187201407, -0.5317792162211057, 2.279820697568358, 2.3121350456326035], [3.2213571289633105, 3.236224167250281, -10.418958877304288, -5.471300046113586, -3.298686126912914, 3.605737637704796, -7.221512328580332, -1.578905000200091, 23.472475258086643, 2.6046473254743265, -0.47739194074922997, -7.4993288799947475, 2.0285002209675844, 0.5558388859678028, -1.2334286578497466, -9.278308010895083, 13.532761169752826, -10.564072587308118, 36.47557147469477, 16.68086522858423, 4.53488985192412, -10.16633930403493, -13.816526792147734, 1.5084871379126445, -1.7672506300552853, 0.36450944841230476, -4.804169149594996, -4.713858577179256, 8.669714288568885, 8.643417326710855], [-1.4783440134931594, -5.879862250813378, 5.480444383024897, 2.061474277023384, 2.244041787245387, -6.427764822214055, 6.4641263096905535, 1.0679858709602803, -22.366813766557286, 2.5311295172132393, 1.7100274744706672, 2.7996378239814526, -1.9916817177540431, 0.060712580663081765, 0.9456105611357418, -0.1156379363642973, -4.886055546354922, 10.871263347739296, -15.122932462636888, -14.447293970398665, 1.582762505522843, 9.325007351173664, 6.282096516126826, 2.197437927048133, -0.6599935151040485, 1.2075530275955197, 1.9768551422408618, 1.3726256989045276, -8.903217837405583, -8.84758220118352], [1.7111393288256522, 5.8450152157426185, -4.613063569996759, -2.480631016769615, -2.4145751165567404, 6.286740720594846, -4.154138273716947, 3.1207521083509224, 3.3924224143681654, -1.7242462157962337, -4.70997983869439, -2.7622895035344905, 1.0023028881037515, 0.537418961508792, 0.14829276751054457, -7.397872037099272, 4.984747457810655, -13.863737923216796, 9.718558539813586, 4.968938164690513, -0.9545506203277007, -10.073031668554968, -4.185916548312263, -0.6995973747313395, -0.1671010890420331, 0.38591352638894494, -2.0093233034244036, -2.5750695833049235, 3.6557327709970657, 3.665888992015138]], "3": [[1.2323130728436125], [1.0152233958881571], [-1.745483105612021], [1.1682493615571121], [-9.812479340421364], [-0.890360828174417], [0.4079445206081919], [-5.744176860238527], [0.002611183129928661], [-0.8531620583230509], [-6.568658140053226], [2.74146899639842], [-1.673098520531591], [2.2323511629934543], [-1.6071776007679723], [-0.08364619270181195], [-0.15547694818622404], [0.06108493246132871], [-0.0002697894470495456], [-0.0023206341915974135], [-0.07085575658341076], [-1.0254885545248702], [-0.005979622221907508], [0.8704791449334807], [0.8117601793047599], [3.3154351126523576], [-0.5787427824337874], [3.342696307436031], [-1.3419168804642927], [1.3563977247467158], [-10.338843494060535]]}}, "fingerprints_range": {"Cu": [[0.1063750548408017, 15.55743075082518], [0.028202539821623157, 15.824610224206179], [0.0039475029562834815, 6.543651351035633], [0.0009775685586746502, 5.901293632153394], [6.336097831506945e-09, 0.7186722153281908], [1.190287988056906e-09, 0.7702142399843445], [1.1815297550357418e-30, 0.0005969806159118927], [7.875808503354093e-32, 0.0014999082499671163], [0.14542638955905765, 586.0279136978755], [1.0639431752062123, 1339.0774553779588], [-2.1232459816643144e-18, 680.2199829665379], [0.21753575331713212, 430.46949002501225], [0.7672793241028637, 933.9576344679633], [0.01912449962367862, 505.84680013293473], [0.009653362355969163, 287.61510794586883], [0.3377739380614941, 694.3948342368042], [0.0, 333.734781480117], [0.03697254301515187, 160.4359473839458], [0.23682355773155236, 348.9904146530375], [0.0018168617087065356, 189.85900104165898]], "Pd": [[0.028202539821623157, 15.82461022420618], [0.1063750548408017, 15.557430750825183], [0.0009775685586746502, 5.901293632153396], [0.0039475029562834815, 6.543651351035635], [1.190287988056906e-09, 0.770214239984344], [6.336097831506945e-09, 0.7186722153281916], [7.875808503354093e-32, 0.0014999082499671157], [1.1815297550357418e-30, 0.0005969806159118931], [-2.1232459816643144e-18, 680.2199829665362], [1.0639431752062118, 1339.0774553779634], [0.14542638955905765, 586.0279136978755], [0.01912449962367862, 505.8468001329346], [0.7672793241028637, 933.9576344679631], [0.21753575331713212, 430.46949002501225], [0.0, 333.73478148011566], [0.33777393806149464, 694.3948342368044], [0.009653362355969173, 287.61510794586883], [0.0018168617087065421, 189.85900104165927], [0.23682355773155245, 348.9904146530362], [0.03697252924305966, 160.4359473839458]]}, "fingerprints_tag": 1, "scalings": {"Cu": {"intercept": -0.038635483568338916, "slope": 6.3876798129470176}, "Pd": {"intercept": -0.038612897656747955, "slope": 5.2992242484790939}}}