{"cutoff": 6.5, "Gs": {"Pd": [{"eta": 0.05, "type": "G2", "element": "Cu"}, {"eta": 0.05, "type": "G2", "element": "Pd"}, {"eta": 2.0, "type": "G2", "element": "Cu"}, {"eta": 2.0, "type": "G2", "element": "Pd"}, {"eta": 4.0, "type": "G2", "element": "Cu"}, {"eta": 4.0, "type": "G2", "element": "Pd"}, {"eta": 8.0, "type": "G2", "element": "Cu"}, {"eta": 8.0, "type": "G2", "element": "Pd"}, {"eta": 20.0, "type": "G2", "element": "Cu"}, {"eta": 20.0, "type": "G2", "element": "Pd"}, {"eta": 40.0, "type": "G2", "element": "Cu"}, {"eta": 40.0, "type": "G2", "element": "Pd"}, {"eta": 80.0, "type": "G2", "element": "Cu"}, {"eta": 80.0, "type": "G2", "element": "Pd"}, {"zeta": 1.0, "elements": ["Cu", "Cu"], "type": "G4", "gamma": 1.0, "eta": 0.005}, {"zeta": 1.0, "elements": ["Cu", "Pd"], "type": "G4", "gamma": 1.0, "eta": 0.005}, {"zeta": 1.0, "elements": ["Pd", "Pd"], "type": "G4", "gamma": 1.0, "eta": 0.005}, {"zeta": 1.0, "elements": ["Cu", "Cu"], "type": "G4", "gamma": -1.0, "eta": 0.005}, {"zeta": 1.0, "elements": ["Cu", "Pd"], "type": "G4", "gamma": -1.0, "eta": 0.005}, {"zeta": 1.0, "elements": ["Pd", "Pd"], "type": "G4", "gamma": -1.0, "eta": 0.005}, {"zeta": 2.0, "elements": ["Cu", "Cu"], "type": "G4", "gamma": 1.0, "eta": 0.005}, {"zeta": 2.0, "elements": ["Cu", "Pd"], "type": "G4", "gamma": 1.0, "eta": 0.005}, {"zeta": 2.0, "elements": ["Pd", "Pd"], "type": "G4", "gamma": 1.0, "eta": 0.005}, {"zeta": 2.0, "elements": ["Cu", "Cu"], "type": "G4", "gamma": -1.0, "eta": 0.005}, {"zeta": 2.0, "elements": ["Cu", "Pd"], "type": "G4", "gamma": -1.0, "eta": 0.005}, {"zeta": 2.0, "elements": ["Pd", "Pd"], "type": "G4", "gamma": -1.0, "eta": 0.005}, {"zeta": 4.0, "elements": ["Cu", "Cu"], "type": "G4", "gamma": 1.0, "eta": 0.005}, {"zeta": 4.0, "elements": ["Cu", "Pd"], "type": "G4", "gamma": 1.0, "eta": 0.005}, {"zeta": 4.0, "elements": ["Pd", "Pd"], "type": "G4", "gamma": 1.0, "eta": 0.005}, {"zeta": 4.0, "elements": ["Cu", "Cu"], "type": "G4", "gamma": -1.0, "eta": 0.005}, {"zeta": 4.0, "elements": ["Cu", "Pd"], "type": "G4", "gamma": -1.0, "eta": 0.005}, {"zeta": 4.0, "elements": ["Pd", "Pd"], "type": "G4", "gamma": -1.0, "eta": 0.005}], "Cu": [{"eta": 0.05, "type": "G2", "element": "Cu"}, {"eta": 0.05, "type": "G2", "element": "Pd"}, {"eta": 2.0, "type": "G2", "element": "Cu"}, {"eta": 2.0, "type": "G2", "element": "Pd"}, {"eta": 4.0, "type": "G2", "element": "Cu"}, {"eta": 4.0, "type": "G2", "element": "Pd"}, {"eta": 8.0, "type": "G2", "element": "Cu"}, {"eta": 8.0, "type": "G2", "element": "Pd"}, {"eta": 20.0, "type": "G2", "element": "Cu"}, {"eta": 20.0, "type": "G2", "element": "Pd"}, {"eta": 40.0, "type": "G2", "element": "Cu"}, {"eta": 40.0, "type": "G2", "element": "Pd"}, {"eta": 80.0, "type": "G2", "element": "Cu"}, {"eta": 80.0, "type": "G2", "element": "Pd"}, {"zeta": 1.0, "elements": ["Cu", "Cu"], "type": "G4", "gamma": 1.0, "eta": 0.005}, {"zeta": 1.0, "elements": ["Cu", "Pd"], "type": "G4", "gamma": 1.0, "eta": 0.005}, {"zeta": 1.0, "elements": ["Pd", "Pd"], "type": "G4", "gamma": 1.0, "eta": 0.005}, {"zeta": 1.0, "elements": ["Cu", "Cu"], "type": "G4", "gamma": -1.0, "eta": 0.005}, {"zeta": 1.0, "elements": ["Cu", "Pd"], "type": "G4", "gamma": -1.0, "eta": 0.005}, {"zeta": 1.0, "elements": ["Pd", "Pd"], "type": "G4", "gamma": -1.0, "eta": 0.005}, {"zeta": 2.0, "elements": ["Cu", "Cu"], "type": "G4", "gamma": 1.0, "eta": 0.005}, {"zeta": 2.0, "elements": ["Cu", "Pd"], "type": "G4", "gamma": 1.0, "eta": 0.005}, {"zeta": 2.0, "elements": ["Pd", "Pd"], "type": "G4", "gamma": 1.0, "eta": 0.005}, {"zeta": 2.0, "elements": ["Cu", "Cu"], "type": "G4", "gamma": -1.0, "eta": 0.005}, {"zeta": 2.0, "elements": ["Cu", "Pd"], "type": "G4", "gamma": -1.0, "eta": 0.005}, {"zeta": 2.0, "elements": ["Pd", "Pd"], "type": "G4", "gamma": -1.0, "eta": 0.005}, {"zeta": 4.0, "elements": ["Cu", "Cu"], "type": "G4", "gamma": 1.0, "eta": 0.005}, {"zeta": 4.0, "elements": ["Cu", "Pd"], "type": "G4", "gamma": 1.0, "eta": 0.005}, {"zeta": 4.0, "elements": ["Pd", "Pd"], "type": "G4", "gamma": 1.0, "eta": 0.005}, {"zeta": 4.0, "elements": ["Cu", "Cu"], "type": "G4", "gamma": -1.0, "eta": 0.005}, {"zeta": 4.0, "elements": ["Cu", "Pd"], "type": "G4", "gamma": -1.0, "eta": 0.005}, {"zeta": 4.0, "elements": ["Pd", "Pd"], "type": "G4", "gamma": -1.0, "eta": 0.005}]}, "activation": "tanh", "hiddenlayers": {"Pd": [4, 20], "Cu": [4, 20]}, "weights": {"Cu": {"1": [[0.0291991769889422, -0.0004923048746753589, 0.043310213442824846, -0.016636227460508447], [0.019559738448716044, 0.027481895930562508, -0.034049841089276736, -0.011166557460889473], [0.012245327367951114, 0.0189715688711585, 0.04467358602161803, 0.022166928411401013], [-0.04179232000946606, 0.03125575294223028, 7.170826731306423e-05, -0.0069030632524106975], [0.0014768321097311105, -0.008561184529609564, 0.024503635438686666, -0.021436618126060535], [-0.0023378804700336167, -0.03383144717440635, 0.025276698394417124, -0.0231865575463918], [-0.019594962274002044, 0.018153240641620855, -0.009266268449361584, -0.04667645783336172], [0.005162194317799983, 0.04298918118415093, -0.01021050491731737, -0.015975440508823054], [0.006966811287682603, 0.033899656840684037, -0.0461534200282063, -0.04314167904330459], [-0.02465654057308904, -0.01810522215449643, 0.036060101402470957, 0.030378323164831994], [-0.00874397963549288, -0.019543115856118034, 0.015179771607769753, -0.003317225477807731], [0.029343753475222223, 0.030743544800887798, -0.006132274560162514, 0.033844139998005576], [0.0308828514168768, 0.014050244456735868, -0.030486622319525758, 0.04633611876507657], [-0.03890198707455929, -0.016338942487965837, 0.010761222714295797, 0.02208317518629807], [0.015269346266050698, -0.03572036717351843, 0.014648809292841708, 0.02989355677990821], [0.039819198834642994, 0.01869596047949862, 0.04558322062188942, 0.019518111262811166], [-0.038544552639715006, -0.020300089910449598, 0.014334725898701647, 0.011331886270518045], [-0.03855051013366932, -0.03289554477746427, 0.03518800649605891, -0.013926076990837206], [-0.02991614813323457, -0.0012846698820249691, 0.03009193495386507, 0.033289643841839675], [0.007584624185033362, 0.03442115068309559, 0.02571703269280065, 0.015566104267515132], [-0.009433721756185037, 0.013307872471612775, -0.003515653695949486, 0.03895010437560566], [-0.04193762680175435, 0.0216843689040392, 0.021323607524904906, -0.005665236078554778], [-0.007350967773471356, -0.02799559161105535, -0.0074353999688179795, -0.03063569669270428], [0.027047386790239047, 0.03914813374734065, -0.02688682419465255, -0.02534286885107607], [-0.03373984141434794, -0.04663186526842404, 0.03250991088260488, 0.004875720159151595], [-0.031005866808981365, 0.0032949135561866766, -0.038636412832945624, 0.0056306031372427914], [0.03790719828593091, -0.020421754126677294, -0.020448446658158977, 0.009782851816817081], [0.006856753103750342, -0.013935575745610038, 0.034905385216623536, -0.022365969420421634], [0.0009305062468762254, -0.021399644994464798, 0.011565565654788973, 0.018327795163520275], [0.0017788021987972802, 0.008847988589631817, 0.013514249919714956, 0.00970836144828225], [0.010691171889353666, 0.03613352886575413, 0.026466275085957017, 0.04636532102902169], [0.006238790262094562, 0.015550414030399057, 0.03924253714990254, 0.0010649834487975324], [0.0, 0.0, 0.0, 0.0]], "2": [[-0.1341035891807484, 0.047129803100575685, -0.3020504099967571, 0.05460240369932956, -0.17550448933940963, -0.0014878373649185872, -0.011628267344276189, -0.22713598363782472, 0.24868171402424988, 0.3590291424356279, -0.07902628917875804, -0.14377180722834942, 0.00795459216326877, -0.30966335316326676, 0.3267685811558616, -0.20681062854394175, 0.1879942155035904, -0.29405851450381804, -0.08917361619634478, 0.1524362311039006], [-0.3192750162524709, -0.017946749282775454, 0.08522186820863104, -0.36098950327598445, 0.0751733279022605, -0.1937296852151365, -0.14349935244530831, -0.36944058422258974, -0.14480886715096486, -0.06438815055331282, 0.058070627374315786, 0.2913485736398179, -0.2762493555515131, -0.11458729420384783, 0.3648056591481438, -0.1931503877566345, 0.1325315701679356, -0.012824491490409762, -0.1121452756777851, 0.00915052476445638], [0.13159509548817894, 0.23158432733397194, 0.09642193883935901, 0.1543999175565105, 0.041886601517431954, 0.16297017964823834, -0.054009015005942795, 0.37049289872574465, 0.14079052453563212, 0.27111593571269343, -0.1671351895816427, -0.2201358075571388, 0.24289228835774956, -0.20809170202044466, -0.24581058661937671, 0.2931172873771182, -0.1931614602008755, 0.2536149590906167, -0.2795321181237593, 0.040765147212417974], [-0.10690112904548776, -0.0574149398640913, 0.3472553567427503, -0.18322344443318045, -0.043750403437470387, 0.250189916340563, -0.3111317664470906, 0.33379510859399375, 0.001185417896287344, -0.09836359712102449, 0.3119700745742151, -0.2775743845503613, 0.28454172029247327, -0.2121576365142275, -0.27084392657499445, 0.04223190861212045, -0.140973699030719, 0.02852749381680375, -0.09873274402815346, 0.24725472651553337], [0.0, 0.0, 0.0, 0.0, 0.0, 0.0, 0.0, 0.0, 0.0, 0.0, 0.0, 0.0, 0.0, 0.0, 0.0, 0.0, 0.0, 0.0, 0.0, 0.0]], "3": [[-0.036720442873257736], [0.03509945394696949], [-0.046386441130504205], [-0.05820306296610232], [0.03383454666651839], [-0.010203737888180117], [-0.0008324510120868295], [-0.02612098816016145], [-0.06693971399969002], [-0.002362069594336866], [-0.024904705311536705], [-0.02166358727541433], [-0.04213747662541762], [-0.05075218939503187], [-0.03295865947820476], [0.00238878066145215], [0.007960400385171595], [-0.06615355648898702], [0.027247126654455348], [0.07046464580216742], [0.0]]}, "Pd": {"1": [[-0.0031645836384611922, -0.04319834034372143, -0.0031383694672787454, 0.017686201590311645], [-0.00913950283140403, -0.01820853732716572, -0.0005276422468429298, 0.004127747816248445], [-0.03777349735713857, -0.03516970351677968, -0.030793459753979867, -0.03692132587104403], [-0.025892280653527257, 0.0190943246278759, 0.011624840847550916, 0.022993140088718708], [0.029952929098042758, 0.02082704878005054, -0.02443663672643402, 0.022160552064832736], [0.027588469449598807, -0.033389459042183725, 0.03477763030056573, -0.01448822558272421], [0.03635485799088076, -0.02189391775235937, -0.014064396840148916, 0.02777140015895116], [0.0037363129933556116, 0.0439799600825492, 0.040922523403419286, -0.00023451289972607064], [-0.029326851228751435, -0.019094345525465774, 0.03465049971309356, 0.042493600131550985], [-0.004185940466108498, -0.0434439196441964, -0.03926343050157338, -0.006327052841414202], [0.019888918408495604, 0.04174948636010044, 0.004299650022463075, 0.008060714598528335], [0.030734032175708956, -0.022003164304703785, 0.02151642213463531, -0.026995755735781446], [-0.01286731476904425, 0.025289309953564876, -0.018354044845353936, 0.03621396205770547], [0.045452030962768675, 0.04084092820508102, 0.02779750938766784, -0.0009906909382410567], [0.0019121797321269424, -0.03481159354945583, 0.02719813638445623, -0.015125035464388398], [-0.027458271703798803, -0.0383990917625388, 0.021325556555050543, 0.022260941341409463], [-0.023599375841143768, -0.033846267048355, -0.04529972098531747, 0.025709105357041517], [-0.004928820251239224, -0.03158310429182919, -0.030275663381493078, -0.012322580192762167], [0.0456545935164806, -0.018561743761437734, 0.026008170804407968, -0.018460842612839784], [-0.03122823827871811, 0.029569652381620348, -0.04154307790770781, -0.04034256836173672], [-0.027006034055265804, 0.03173203632979664, 0.04525103025830238, -0.022958241640982292], [-0.032199287225935014, -0.025919184689172665, 0.012677450228869, 0.04089122706992232], [0.009239523910363763, 0.011082340058738406, 0.009764971931532848, -0.027281421827070742], [-0.03595762576215235, -0.02480531816145192, 0.023827723426764424, 0.030952031778790523], [-0.018651958717430528, -0.019201735075419682, 0.009964850938026223, 0.010555202552306436], [0.04198212753416945, 0.014645944262141976, 0.009037402758606969, 0.039879620820506514], [0.03785703975947513, 0.012333295100727254, -0.0018673440849864414, 0.03354567809380797], [-0.03898184871697568, -0.0073731919035818355, -0.009279786188778262, 0.01876907294149871], [0.04475906951788933, 0.012021283427834421, -0.02591850709019, -0.029615497143217324], [0.00029400219335905947, 0.013085732252296027, 0.00967344759511149, -0.010899102795174503], [0.019063184368599245, 0.016930668744840283, 0.0031985856227551776, 0.011057592174592942], [0.0022124723719050277, -0.03825822535213151, 0.0433169890248689, -0.04465348514931261], [0.0, 0.0, 0.0, 0.0]], "2": [[0.08655268139106431, -0.13844124406676103, 0.08486015110866241, -0.11596948189103862, -0.21567354739388117, 0.35642062638712435, -0.2767651013511828, -0.2587082948612149, -0.2755674739822487, 0.15817449998341426, 0.12486156094848194, 0.06492942323684436, 0.27529806554673064, -0.11796984052442727, 0.2575960804933999, -0.19590109143299098, 0.26285346937858567, 0.16819770767421338, 0.14002327903831346, -0.21884590104759205], [0.1270933301323659, 0.1921958105948276, -0.3298142363128005, -0.22595571078014687, 0.0699611892158366, -0.111173935824883, 0.3384750212049654, 0.06624519822338554, 0.19457047602397992, 0.22381322194884523, -0.2293760800110116, 0.362311802141426, -0.272494154248925, 0.35196205601796193, -0.25009468831354287, 0.07217884592056689, -0.14717766597429693, 0.016428178787571024, 0.19397367099670115, -0.3377015565689122], [-0.16733963899444837, 0.31156558147729463, -0.30068745842564515, -0.27984758009883254, -0.3701083840216826, 0.1457608366249552, -0.12673119521102763, -0.012347354952164658, 0.02393237119421432, 0.08297023505121837, -0.022374741551099198, 0.18452023658792815, 0.037601153688142874, -0.2920014341584112, 0.18027260594855554, -0.22128909583218034, 0.3397176356842544, 0.06735350580300781, 0.011135081399054392, 0.07019282125449444], [-0.11853449405816385, -0.07250886617746005, 0.1203013684928762, -0.12270026784844235, -0.24505529374078597, -0.30714303470819504, -0.10132744642473945, -0.25858753473238405, -0.02511643688102516, 0.22167218510483278, -0.24111689380964088, -0.17304094738409112, 0.04347079067940507, 0.2685534880866187, 0.24170020799558056, 0.07147720711735034, -0.16336152253379835, 0.27117663374878764, 0.07351266496788378, -0.04079789769404496], [0.0, 0.0, 0.0, 0.0, 0.0, 0.0, 0.0, 0.0, 0.0, 0.0, 0.0, 0.0, 0.0, 0.0, 0.0, 0.0, 0.0, 0.0, 0.0, 0.0]], "3": [[-0.013227533896454632], [-0.05739986748451503], [-0.0667519657047603], [0.04480751275983039], [0.0645054522576995], [0.06473687913060976], [-0.06653146628083831], [0.05549915773882884], [-0.03937850590191474], [0.0544983314843286], [0.03773443663633326], [-0.04938641108810803], [0.06723470570628888], [-0.03875578403514703], [-0.004096198606805351], [0.03086643004091691], [0.0181004234802518], [0.01809253369345018], [-0.03189129657115474], [0.06453801236899641], [0.0]]}}, "fingerprints_range": {"Cu": [[0.7355979085179102, 15.55743075082518], [0.17208454571200024, 15.824610224206179], [0.2647337529778042, 9.728035574767311], [0.048289987224936715, 9.183520039100534], [0.08998943476157976, 6.543651351035633], [0.013116604377678287, 5.901293632153394], [0.011086319621036456, 3.4322011143730915], [0.0009677208042695254, 3.058089253340858], [2.8105378597217076e-05, 0.7186722153281908], [3.886297579508524e-07, 0.7702142399843445], [1.0530964208036616e-09, 0.06459500411004929], [8.495312182045297e-13, 0.09579851951537856], [1.4696933730671603e-18, 0.0005969806159118927], [4.059438105570023e-24, 0.0014999082499671163], [0.50034203926832, 586.0279136978755], [2.8969921783012786, 1339.0774553779588], [0.0, 680.2199829665379], [0.623397651130686, 430.46949002501225], [2.2581612173512284, 933.9576344679633], [0.11622805422127631, 505.84680013293473], [0.18504763958633103, 428.8432803118022], [1.7871978465575518, 999.1121607682313], [0.0, 497.0153279237612], [0.21809387928730953, 273.284856638939], [1.3209770091224067, 593.9923398582351], [0.06881080565862441, 322.6421450901536], [0.020560848842925673, 287.61510794586883], [0.799631268139842, 694.3948342368042], [0.0, 333.734781480117], [0.03697254301515187, 160.4359473839458], [0.665959989982916, 348.9904146530375], [0.004300675351054025, 189.85900104165898]], "Pd": [[0.17208454571200046, 15.82461022420618], [0.7355978047404241, 15.557430750825183], [0.04828998722493681, 9.183520039100532], [0.2647337529778042, 9.72803557476731], [0.01311660437767832, 5.901293632153396], [0.08998943476157976, 6.543651351035635], [0.000967720804269529, 3.058089253340857], [0.011086319621036456, 3.4322011143730906], [3.8862975795085565e-07, 0.770214239984344], [2.8105378597217076e-05, 0.7186722153281916], [8.495312182045429e-13, 0.09579851951537853], [1.0530949854903416e-09, 0.06459500411004933], [4.059438105570144e-24, 0.0014999082499671157], [1.469689571940093e-18, 0.0005969806159118931], [0.0, 680.2199829665362], [2.8969921783012804, 1339.0774553779634], [0.50034203926832, 586.0279136978755], [0.11622805422127645, 505.8468001329346], [2.2581612173512298, 933.9576344679631], [0.6233975439578614, 430.46949002501225], [0.0, 497.01532792376423], [1.7871978465575515, 999.1121607682309], [0.18504763958633114, 428.8432803118022], [0.06881080565862441, 322.6421450901558], [1.3209770091224076, 593.9923398582329], [0.21809382696856305, 273.284856638939], [0.0, 333.73478148011566], [0.799631268139842, 694.3948342368044], [0.020560848842925677, 287.61510794586883], [0.004300675351054025, 189.85900104165927], [0.6659599899829165, 348.9904146530362], [0.03697252924305966, 160.4359473839458]]}, "fingerprints_tag": 1, "scalings": {"Pd": {"slope": 2.7555544681249997, "intercept": -2.459831533125}, "Cu": {"slope": 2.7555544681249997, "intercept": -2.459831533125}}}