{"cutoff": 6.5, "Gs": {"Pd": [{"eta": 0.05, "type": "G2", "element": "Cu"}, {"eta": 0.05, "type": "G2", "element": "Pd"}, {"eta": 2.0, "type": "G2", "element": "Cu"}, {"eta": 2.0, "type": "G2", "element": "Pd"}, {"eta": 4.0, "type": "G2", "element": "Cu"}, {"eta": 4.0, "type": "G2", "element": "Pd"}, {"eta": 8.0, "type": "G2", "element": "Cu"}, {"eta": 8.0, "type": "G2", "element": "Pd"}, {"eta": 20.0, "type": "G2", "element": "Cu"}, {"eta": 20.0, "type": "G2", "element": "Pd"}, {"eta": 40.0, "type": "G2", "element": "Cu"}, {"eta": 40.0, "type": "G2", "element": "Pd"}, {"eta": 80.0, "type": "G2", "element": "Cu"}, {"eta": 80.0, "type": "G2", "element": "Pd"}, {"zeta": 1.0, "elements": ["Cu", "Cu"], "type": "G4", "gamma": 1.0, "eta": 0.005}, {"zeta": 1.0, "elements": ["Cu", "Pd"], "type": "G4", "gamma": 1.0, "eta": 0.005}, {"zeta": 1.0, "elements": ["Pd", "Pd"], "type": "G4", "gamma": 1.0, "eta": 0.005}, {"zeta": 1.0, "elements": ["Cu", "Cu"], "type": "G4", "gamma": -1.0, "eta": 0.005}, {"zeta": 1.0, "elements": ["Cu", "Pd"], "type": "G4", "gamma": -1.0, "eta": 0.005}, {"zeta": 1.0, "elements": ["Pd", "Pd"], "type": "G4", "gamma": -1.0, "eta": 0.005}, {"zeta": 2.0, "elements": ["Cu", "Cu"], "type": "G4", "gamma": 1.0, "eta": 0.005}, {"zeta": 2.0, "elements": ["Cu", "Pd"], "type": "G4", "gamma": 1.0, "eta": 0.005}, {"zeta": 2.0, "elements": ["Pd", "Pd"], "type": "G4", "gamma": 1.0, "eta": 0.005}, {"zeta": 2.0, "elements": ["Cu", "Cu"], "type": "G4", "gamma": -1.0, "eta": 0.005}, {"zeta": 2.0, "elements": ["Cu", "Pd"], "type": "G4", "gamma": -1.0, "eta": 0.005}, {"zeta": 2.0, "elements": ["Pd", "Pd"], "type": "G4", "gamma": -1.0, "eta": 0.005}, {"zeta": 4.0, "elements": ["Cu", "Cu"], "type": "G4", "gamma": 1.0, "eta": 0.005}, {"zeta": 4.0, "elements": ["Cu", "Pd"], "type": "G4", "gamma": 1.0, "eta": 0.005}, {"zeta": 4.0, "elements": ["Pd", "Pd"], "type": "G4", "gamma": 1.0, "eta": 0.005}, {"zeta": 4.0, "elements": ["Cu", "Cu"], "type": "G4", "gamma": -1.0, "eta": 0.005}, {"zeta": 4.0, "elements": ["Cu", "Pd"], "type": "G4", "gamma": -1.0, "eta": 0.005}, {"zeta": 4.0, "elements": ["Pd", "Pd"], "type": "G4", "gamma": -1.0, "eta": 0.005}], "Cu": [{"eta": 0.05, "type": "G2", "element": "Cu"}, {"eta": 0.05, "type": "G2", "element": "Pd"}, {"eta": 2.0, "type": "G2", "element": "Cu"}, {"eta": 2.0, "type": "G2", "element": "Pd"}, {"eta": 4.0, "type": "G2", "element": "Cu"}, {"eta": 4.0, "type": "G2", "element": "Pd"}, {"eta": 8.0, "type": "G2", "element": "Cu"}, {"eta": 8.0, "type": "G2", "element": "Pd"}, {"eta": 20.0, "type": "G2", "element": "Cu"}, {"eta": 20.0, "type": "G2", "element": "Pd"}, {"eta": 40.0, "type": "G2", "element": "Cu"}, {"eta": 40.0, "type": "G2", "element": "Pd"}, {"eta": 80.0, "type": "G2", "element": "Cu"}, {"eta": 80.0, "type": "G2", "element": "Pd"}, {"zeta": 1.0, "elements": ["Cu", "Cu"], "type": "G4", "gamma": 1.0, "eta": 0.005}, {"zeta": 1.0, "elements": ["Cu", "Pd"], "type": "G4", "gamma": 1.0, "eta": 0.005}, {"zeta": 1.0, "elements": ["Pd", "Pd"], "type": "G4", "gamma": 1.0, "eta": 0.005}, {"zeta": 1.0, "elements": ["Cu", "Cu"], "type": "G4", "gamma": -1.0, "eta": 0.005}, {"zeta": 1.0, "elements": ["Cu", "Pd"], "type": "G4", "gamma": -1.0, "eta": 0.005}, {"zeta": 1.0, "elements": ["Pd", "Pd"], "type": "G4", "gamma": -1.0, "eta": 0.005}, {"zeta": 2.0, "elements": ["Cu", "Cu"], "type": "G4", "gamma": 1.0, "eta": 0.005}, {"zeta": 2.0, "elements": ["Cu", "Pd"], "type": "G4", "gamma": 1.0, "eta": 0.005}, {"zeta": 2.0, "elements": ["Pd", "Pd"], "type": "G4", "gamma": 1.0, "eta": 0.005}, {"zeta": 2.0, "elements": ["Cu", "Cu"], "type": "G4", "gamma": -1.0, "eta": 0.005}, {"zeta": 2.0, "elements": ["Cu", "Pd"], "type": "G4", "gamma": -1.0, "eta": 0.005}, {"zeta": 2.0, "elements": ["Pd", "Pd"], "type": "G4", "gamma": -1.0, "eta": 0.005}, {"zeta": 4.0, "elements": ["Cu", "Cu"], "type": "G4", "gamma": 1.0, "eta": 0.005}, {"zeta": 4.0, "elements": ["Cu", "Pd"], "type": "G4", "gamma": 1.0, "eta": 0.005}, {"zeta": 4.0, "elements": ["Pd", "Pd"], "type": "G4", "gamma": 1.0, "eta": 0.005}, {"zeta": 4.0, "elements": ["Cu", "Cu"], "type": "G4", "gamma": -1.0, "eta": 0.005}, {"zeta": 4.0, "elements": ["Cu", "Pd"], "type": "G4", "gamma": -1.0, "eta": 0.005}, {"zeta": 4.0, "elements": ["Pd", "Pd"], "type": "G4", "gamma": -1.0, "eta": 0.005}]}, "activation": "tanh", "hiddenlayers": {"Pd": [2, 20], "Cu": [2, 20]}, "weights": {"Cu": {"1": [[0.008477011786993963, -0.03247333682423757], [-0.00041792632422808784, 0.045839398715843305], [-0.008166925420315406, 0.00871309346659871], [-0.03727156788339208, -0.014121726696934699], [7.831726127072863e-05, -0.014066266209223993], [-0.036077869199840136, -0.02800796593560298], [0.019099703352580932, -0.017613739438071818], [0.008908893264076664, 0.044158864386187754], [-0.01927260399760672, 0.013939318297738576], [0.04457156840644738, 0.01486140293594495], [0.025987709814978735, 0.0033644662266220926], [-0.03506467529107281, -0.027356829787355163], [0.04130859407994815, 0.020188805400930904], [0.03847795238316676, -0.02667852279595716], [-0.001249139669379451, -0.0040135858897435775], [-0.04451587484938245, -0.030978963519774753], [-0.033895507754245824, 0.03958641952315671], [-0.039502484790887124, 0.030235680030618023], [-0.006225715971559076, 0.007513294184817831], [0.02751492653436856, 0.0255085168694916], [0.023094988870408964, -0.01762667920418354], [0.010911320308594943, -0.01857142255784668], [0.017272486771283832, 0.04014009515308811], [0.003438442431244068, -0.025210116077140604], [-0.04296260591314367, -0.01131896352024031], [-0.007286859653967019, 0.032016712458607266], [0.04313061359236353, 0.029554310089425107], [-0.03976327009243957, 0.03141924556756079], [0.017288219771954896, -0.03575540265624879], [-0.033147661651014085, 0.00040505911419844165], [-0.009343114570239827, 0.0324735915577289], [-0.038101457529488916, -0.0412205091572031], [0.0, 0.0]], "2": [[-0.061745083893610886, -0.05681550267984126, -0.42452210428398407, 0.35948307308465055, -0.07934156177799878, 0.5475597548291984, 0.6330847544227833, 0.7327758635697803, 0.5649708693180509, 0.050447396334907024, -0.45630582963464206, -0.12209897384868695, 0.35812571071602695, -0.5901975020565285, 0.637668249754302, 0.12703826337053314, -0.6915233328098217, 0.6009031233846336, -0.2807019190444311, 0.5653948898831669], [0.4456022929022516, 0.31048666373331835, 0.3200635858466425, 0.39385331797669987, -0.23430033297322017, 0.44411868649274155, -0.12817342557950218, -0.42153666886162067, -0.371446823454795, 0.2865103807959266, -0.5256396104104833, -0.6697705450942754, 0.346330947619395, 0.5025729191718664, 0.3348809797426888, 0.18384813651286447, -0.42193593903493054, -0.5509123320283618, 0.167843974966007, 0.13862669620613977], [0.0, 0.0, 0.0, 0.0, 0.0, 0.0, 0.0, 0.0, 0.0, 0.0, 0.0, 0.0, 0.0, 0.0, 0.0, 0.0, 0.0, 0.0, 0.0, 0.0]], "3": [[-0.011853849888804946], [-0.02867051091489258], [-0.07265578665426724], [0.056424138436250146], [-0.07169282462357703], [-0.04396463417104231], [-0.012165434714319232], [0.005751050550146686], [0.051883657193952284], [0.047786884174679606], [-0.054285032016780324], [0.016274363400555894], [-0.03348956918248314], [0.05465759700235036], [-0.056378527939132915], [0.02368935079362959], [-0.031210041741780443], [-0.06368517774568283], [-0.03811880802789314], [-0.044209073748537664], [0.0]]}, "Pd": {"1": [[-0.042359946942205094, 0.04412242402536007], [0.04407799504130974, 0.027638752903702657], [-0.02458089491670264, 0.005850118827314947], [0.010841585077562318, 0.03278123436313035], [0.026955984441238062, -0.01295031405294468], [-0.03431712292205998, 0.02845350984476687], [0.00600973642491396, 0.019072133762868648], [-0.010363942657240804, 0.03797161060244825], [-0.02686704388730089, -0.010519884721143555], [0.036399221108051605, -0.01373602675514906], [-0.03331483823346254, 0.0442047152340562], [-0.024698285485192276, -0.02390846819357324], [-0.004986737936805638, 0.012737749253477842], [-0.040913607786716016, -0.012176946091024127], [-0.009077975571166734, 0.04029952631798339], [-0.010288768766277545, -0.017049159909503828], [-0.01854543474863417, 0.01690424457670403], [-0.02333304254600637, 0.0055333105315326925], [0.033471498458137516, -0.017027368174162665], [-0.020125132676333556, 0.02007160709690302], [0.01432261743499099, 0.035581952030118116], [0.036395122270386826, -0.020771976669088473], [-0.0011165733236385422, 0.03129429815519952], [0.003093429048480735, 0.011960826988896445], [-0.008557093042174543, 0.036767331659192354], [0.0018089907229907332, 0.020927087571974173], [-0.004587105532465503, -0.0024412894354257503], [0.0032901309329661094, -0.04144482023608394], [-0.01700167822301797, -0.017112426832964767], [0.024110018290529833, 0.041780050585232736], [-0.010901072354175437, 0.018110871116089555], [-0.0008271811973661058, -0.018485155534948877], [0.0, 0.0]], "2": [[0.5511952820780999, 0.6512048678788396, -0.6318927861780476, 0.3748089760266433, -0.5473042023387122, 0.6435326988042196, -0.055747006833049895, 0.5846414946171141, -0.5436756616950423, -0.6799965112043078, 0.012530510892652336, 0.11795530651939279, -0.7144474993071805, -0.012504709897492194, 0.7220528282164675, 0.277455160872079, 0.21155822072233987, -0.32187272361801744, 0.12226868760240817, 0.17254001020467347], [0.4289535092944834, -0.10043921734239225, 0.4670925257460319, -0.5688906010738026, 0.16908578536814534, 0.5857351973224678, 0.4656026452436137, -0.08227524285023169, 0.055214310571063185, 0.2470542910204564, 0.5416160272118504, 0.6408202758895589, -0.5869869576305722, 0.11313311435895024, 0.07729366963892315, -0.5499097520819947, 0.6246881169362231, -0.06470529376527534, -0.53498815610169, -0.463850107310751], [0.0, 0.0, 0.0, 0.0, 0.0, 0.0, 0.0, 0.0, 0.0, 0.0, 0.0, 0.0, 0.0, 0.0, 0.0, 0.0, 0.0, 0.0, 0.0, 0.0]], "3": [[-0.026353718055429694], [0.054902178089158024], [-0.04628814907918556], [-0.0662726065906258], [0.05716920998516069], [0.017012467415986582], [0.055711051430409234], [0.019172627863795005], [-0.03919210344852011], [0.015476337902773599], [0.026763486793995664], [0.02450580213595785], [0.008124355789693616], [-0.0675969239338261], [-0.03961761809787496], [0.007355515762616158], [-0.0007110839679000391], [-0.040259839323151865], [0.05060099361359359], [0.03943877919798726], [0.0]]}}, "fingerprints_range": {"Cu": [[0.7355979085179102, 15.55743075082518], [0.17208454571200024, 15.824610224206179], [0.2647337529778042, 9.728035574767311], [0.048289987224936715, 9.183520039100534], [0.08998943476157976, 6.543651351035633], [0.013116604377678287, 5.901293632153394], [0.011086319621036456, 3.4322011143730915], [0.0009677208042695254, 3.058089253340858], [2.8105378597217076e-05, 0.7186722153281908], [3.886297579508524e-07, 0.7702142399843445], [1.0530964208036616e-09, 0.06459500411004929], [8.495312182045297e-13, 0.09579851951537856], [1.4696933730671603e-18, 0.0005969806159118927], [4.059438105570023e-24, 0.0014999082499671163], [0.50034203926832, 586.0279136978755], [2.8969921783012786, 1339.0774553779588], [0.0, 680.2199829665379], [0.623397651130686, 430.46949002501225], [2.2581612173512284, 933.9576344679633], [0.11622805422127631, 505.84680013293473], [0.18504763958633103, 428.8432803118022], [1.7871978465575518, 999.1121607682313], [0.0, 497.0153279237612], [0.21809387928730953, 273.284856638939], [1.3209770091224067, 593.9923398582351], [0.06881080565862441, 322.6421450901536], [0.020560848842925673, 287.61510794586883], [0.799631268139842, 694.3948342368042], [0.0, 333.734781480117], [0.03697254301515187, 160.4359473839458], [0.665959989982916, 348.9904146530375], [0.004300675351054025, 189.85900104165898]], "Pd": [[0.17208454571200046, 15.82461022420618], [0.7355978047404241, 15.557430750825183], [0.04828998722493681, 9.183520039100532], [0.2647337529778042, 9.72803557476731], [0.01311660437767832, 5.901293632153396], [0.08998943476157976, 6.543651351035635], [0.000967720804269529, 3.058089253340857], [0.011086319621036456, 3.4322011143730906], [3.8862975795085565e-07, 0.770214239984344], [2.8105378597217076e-05, 0.7186722153281916], [8.495312182045429e-13, 0.09579851951537853], [1.0530949854903416e-09, 0.06459500411004933], [4.059438105570144e-24, 0.0014999082499671157], [1.469689571940093e-18, 0.0005969806159118931], [0.0, 680.2199829665362], [2.8969921783012804, 1339.0774553779634], [0.50034203926832, 586.0279136978755], [0.11622805422127645, 505.8468001329346], [2.2581612173512298, 933.9576344679631], [0.6233975439578614, 430.46949002501225], [0.0, 497.01532792376423], [1.7871978465575515, 999.1121607682309], [0.18504763958633114, 428.8432803118022], [0.06881080565862441, 322.6421450901558], [1.3209770091224076, 593.9923398582329], [0.21809382696856305, 273.284856638939], [0.0, 333.73478148011566], [0.799631268139842, 694.3948342368044], [0.020560848842925677, 287.61510794586883], [0.004300675351054025, 189.85900104165927], [0.6659599899829165, 348.9904146530362], [0.03697252924305966, 160.4359473839458]]}, "fingerprints_tag": 1, "scalings": {"Pd": {"slope": 2.7555544681249997, "intercept": -2.459831533125}, "Cu": {"slope": 2.7555544681249997, "intercept": -2.459831533125}}}