{"cutoff": 6.5, "Gs": {"Pd": [{"eta": 0.05, "type": "G2", "element": "Cu"}, {"eta": 0.05, "type": "G2", "element": "Pd"}, {"eta": 4.0, "type": "G2", "element": "Cu"}, {"eta": 4.0, "type": "G2", "element": "Pd"}, {"eta": 20.0, "type": "G2", "element": "Cu"}, {"eta": 20.0, "type": "G2", "element": "Pd"}, {"eta": 80.0, "type": "G2", "element": "Cu"}, {"eta": 80.0, "type": "G2", "element": "Pd"}, {"zeta": 1.0, "elements": ["Cu", "Cu"], "type": "G4", "gamma": 1.0, "eta": 0.005}, {"zeta": 1.0, "elements": ["Cu", "Pd"], "type": "G4", "gamma": 1.0, "eta": 0.005}, {"zeta": 1.0, "elements": ["Pd", "Pd"], "type": "G4", "gamma": 1.0, "eta": 0.005}, {"zeta": 1.0, "elements": ["Cu", "Cu"], "type": "G4", "gamma": -1.0, "eta": 0.005}, {"zeta": 1.0, "elements": ["Cu", "Pd"], "type": "G4", "gamma": -1.0, "eta": 0.005}, {"zeta": 1.0, "elements": ["Pd", "Pd"], "type": "G4", "gamma": -1.0, "eta": 0.005}, {"zeta": 4.0, "elements": ["Cu", "Cu"], "type": "G4", "gamma": 1.0, "eta": 0.005}, {"zeta": 4.0, "elements": ["Cu", "Pd"], "type": "G4", "gamma": 1.0, "eta": 0.005}, {"zeta": 4.0, "elements": ["Pd", "Pd"], "type": "G4", "gamma": 1.0, "eta": 0.005}, {"zeta": 4.0, "elements": ["Cu", "Cu"], "type": "G4", "gamma": -1.0, "eta": 0.005}, {"zeta": 4.0, "elements": ["Cu", "Pd"], "type": "G4", "gamma": -1.0, "eta": 0.005}, {"zeta": 4.0, "elements": ["Pd", "Pd"], "type": "G4", "gamma": -1.0, "eta": 0.005}], "Cu": [{"eta": 0.05, "type": "G2", "element": "Cu"}, {"eta": 0.05, "type": "G2", "element": "Pd"}, {"eta": 4.0, "type": "G2", "element": "Cu"}, {"eta": 4.0, "type": "G2", "element": "Pd"}, {"eta": 20.0, "type": "G2", "element": "Cu"}, {"eta": 20.0, "type": "G2", "element": "Pd"}, {"eta": 80.0, "type": "G2", "element": "Cu"}, {"eta": 80.0, "type": "G2", "element": "Pd"}, {"zeta": 1.0, "elements": ["Cu", "Cu"], "type": "G4", "gamma": 1.0, "eta": 0.005}, {"zeta": 1.0, "elements": ["Cu", "Pd"], "type": "G4", "gamma": 1.0, "eta": 0.005}, {"zeta": 1.0, "elements": ["Pd", "Pd"], "type": "G4", "gamma": 1.0, "eta": 0.005}, {"zeta": 1.0, "elements": ["Cu", "Cu"], "type": "G4", "gamma": -1.0, "eta": 0.005}, {"zeta": 1.0, "elements": ["Cu", "Pd"], "type": "G4", "gamma": -1.0, "eta": 0.005}, {"zeta": 1.0, "elements": ["Pd", "Pd"], "type": "G4", "gamma": -1.0, "eta": 0.005}, {"zeta": 4.0, "elements": ["Cu", "Cu"], "type": "G4", "gamma": 1.0, "eta": 0.005}, {"zeta": 4.0, "elements": ["Cu", "Pd"], "type": "G4", "gamma": 1.0, "eta": 0.005}, {"zeta": 4.0, "elements": ["Pd", "Pd"], "type": "G4", "gamma": 1.0, "eta": 0.005}, {"zeta": 4.0, "elements": ["Cu", "Cu"], "type": "G4", "gamma": -1.0, "eta": 0.005}, {"zeta": 4.0, "elements": ["Cu", "Pd"], "type": "G4", "gamma": -1.0, "eta": 0.005}, {"zeta": 4.0, "elements": ["Pd", "Pd"], "type": "G4", "gamma": -1.0, "eta": 0.005}]}, "activation": "tanh", "hiddenlayers": {"Pd": [2, 20], "Cu": [2, 20]}, "weights": {"Cu": {"1": [[129.06666265840033, 0.4656007589566642], [-176.4680920381341, 0.34388449716097996], [91.18960496506426, -0.25639429447915074], [114.55778132381164, -0.23099248712793052], [-10.512668646774747, 0.1191316201423408], [-52.9632558044369, 0.07547273657376725], [-1.9863307452884624, -0.0018830015410830926], [22.113518944857045, -0.01331345808601128], [-177.69757795926807, 7.347846868840794], [217.9869473665784, 15.779543069614354], [-249.3070955021541, 7.770036551547129], [-32.027916749877605, -10.241510787962557], [-130.03961391224527, -21.9114710516345], [361.90244457799525, -10.893288345349008], [228.5681594204228, -3.5237460235358795], [-146.45691994373502, -8.718901412075967], [-98.65716191462465, -4.237555058163286], [-109.55656979826689, 6.356720503106198], [22.17413641525615, 13.759389705244054], [-8.588058254594465, 7.391798895244378], [-2.1090154119390014, 1.4956422110902647]], "2": [[-0.9335032546848373, -0.12613026684671935, 17.690063612190663, -2.2819762880067564, 10.91040154906548, -0.5748080115935044, -1.8918766617311147, 4.124478861103166, -24.558483790853533, -0.2866415642402761, 0.05073272529464498, -9.137769022859379, -0.13581826685523285, 0.015066456883291652, 14.219819169499997, 0.43227655291405376, -6.543322506605461, -0.5923677917632069, 47.687369921108825, 7.124985336401853], [-10.0504021996928, -8.668580340452536, 7.2264380392745196, -3.1576533304714953, -13.278128295709147, -13.868331464931957, 18.104381331270357, -5.404376456426567, 34.571975835639115, -7.582012510568916, 1.1220284539696992, 38.76933092256264, -1.5058315914761478, 45.91455243007675, -2.4151620005763625, -17.214438762493334, 11.602978062823132, 0.1817714862310863, -28.874948155530024, 11.301694728144684], [-5.241051259043308, 8.107418548301297, 13.618692362514535, -0.26952020420184664, -0.5341260919981984, 11.307713180965486, -12.91536547350193, 11.180249237249296, 23.21247115018747, 11.556996619041417, -1.3172203527896424, 25.62042834904787, -5.582009750458507, -46.920354056637166, -15.413591637987803, 16.212995277922904, -2.4141408288846686, -0.08602012374571412, -22.85654443836883, 11.525148374844578]], "3": [[19.377485063553323], [1.9689360296308651], [-1.6379624299106823], [-0.26040996865220906], [-2.6714736077485792], [-0.09946152917360661], [-0.9081711464930766], [0.0015149757476061304], [-9.638328008423773], [-1.0927974235288833], [0.26858066668899094], [-2.2214993496598847], [-0.11813524056836923], [-49.967796804197086], [20.107547402846116], [-0.28670027428580663], [-0.8376671437888644], [-0.5788614307371243], [0.41708789516347083], [-2.473878690846852], [5.530770292968199]]}, "Pd": {"1": [[0.3237250761195137, 5.096126373395233], [1.273569476745126, 6.158743600976346], [0.13942020572129243, -0.06456021455145715], [-0.1748776455744799, -0.8926017000397646], [-0.45082819725412915, -0.4962100010781621], [0.018772883120353422, -0.07772756516222529], [0.3963992231462426, 0.5305714800589341], [0.21752327800822385, 0.2867458564443152], [-25.560575481783797, 17.62071848126234], [-52.7625992293728, 22.85544357161758], [-24.572483051362045, 4.592708984768633], [33.74398463019338, -59.8334585156443], [55.49490421536781, -115.92427174713117], [27.59235832889561, -47.784320520240435], [11.219127076426389, -8.104605597444884], [26.45129164797299, -9.366539267759785], [13.506741567864788, 1.5908800074324514], [-18.419019129751526, 50.780050743532016], [-33.44769165155962, 93.74789502580067], [-16.26039577889207, 41.01305129952602], [0.20904194646652252, -1.4531420925222458]], "2": [[4.9327922649445615, 0.004085228623171042, -1.318662912005834, 0.05222137883522756, 13.125322784405803, 4.412879349045671, 1.0362025079332842, 3.1399454806135174, -0.05008432308464058, 4.034428199035929, 0.010044718163596528, 3.8694415563640723, 0.10286800917193846, -1.7024029580302014, 22.80619702689584, 3.147581178392799, 4.661635694772372, -0.372058741068386, 3.496016993754679, 2.763694238057727], [-51.07580141815361, -0.9790582185406967, -0.7655580535844955, -7.561679637258083, -2.025215131618344, -0.22529168874661057, 2.9852490956082156, -0.03636979577083238, -2.118380592439791, 7.054412872572275, 0.4964061397050143, 11.746007010263877, 0.34117403896101317, -0.2997979800991402, 25.773298276273458, 3.6833257068578433, -0.638023515288867, 5.067394612720815, 0.31051975838845075, 21.27665734421949], [51.041574455583294, 1.8861568962821393, -1.533888581517349, 8.531156718984349, -20.66997005480226, -4.085795513726003, -2.718878756056953, -1.741915554178246, -9.28664810729771, 4.852222691795198, -1.798248843803801, -17.85728299975935, 0.6348215934749911, 2.0760821282090864, -8.573546873602965, -4.914803647867113, -3.4735643104704157, -6.719308334199409, -2.1182111530834837, -25.803894067267397]], "3": [[7.468587053258128], [2.508936645160454], [-4.983617613501308], [2.079038662914291], [-12.759818516907218], [-1.0876530397582764], [0.2651264722357556], [-3.030364542329896], [-3.6756552534363447], [-0.6483878554695167], [-11.575991000578123], [10.93806554880614], [-5.8559149505412735], [-5.460913263929437], [0.0024098528137895285], [-0.12349919522603416], [-0.16949980950930799], [13.416157403554484], [1.8568900367819228], [-2.646241135078575], [-14.621950717437144]]}}, "fingerprints_range": {"Cu": [[0.1063750548408017, 15.55743075082518], [0.028202539821623157, 15.824610224206179], [0.0039475029562834815, 6.543651351035633], [0.0009775685586746502, 5.901293632153394], [6.336097831506945e-09, 0.7186722153281908], [1.190287988056906e-09, 0.7702142399843445], [1.1815297550357418e-30, 0.0005969806159118927], [7.875808503354093e-32, 0.0014999082499671163], [0.14542638955905765, 586.0279136978755], [1.0639431752062123, 1339.0774553779588], [-2.1232459816643144e-18, 680.2199829665379], [0.21753575331713212, 430.46949002501225], [0.7672793241028637, 933.9576344679633], [0.01912449962367862, 505.84680013293473], [0.009653362355969163, 287.61510794586883], [0.3377739380614941, 694.3948342368042], [0.0, 333.734781480117], [0.03697254301515187, 160.4359473839458], [0.23682355773155236, 348.9904146530375], [0.0018168617087065356, 189.85900104165898]], "Pd": [[0.028202539821623157, 15.82461022420618], [0.1063750548408017, 15.557430750825183], [0.0009775685586746502, 5.901293632153396], [0.0039475029562834815, 6.543651351035635], [1.190287988056906e-09, 0.770214239984344], [6.336097831506945e-09, 0.7186722153281916], [7.875808503354093e-32, 0.0014999082499671157], [1.1815297550357418e-30, 0.0005969806159118931], [-2.1232459816643144e-18, 680.2199829665362], [1.0639431752062118, 1339.0774553779634], [0.14542638955905765, 586.0279136978755], [0.01912449962367862, 505.8468001329346], [0.7672793241028637, 933.9576344679631], [0.21753575331713212, 430.46949002501225], [0.0, 333.73478148011566], [0.33777393806149464, 694.3948342368044], [0.009653362355969173, 287.61510794586883], [0.0018168617087065421, 189.85900104165927], [0.23682355773155245, 348.9904146530362], [0.03697252924305966, 160.4359473839458]]}, "fingerprints_tag": 1, "scalings": {"Cu": {"intercept": 4.5428259662686026, "slope": 13.023662876384439}, "Pd": {"intercept": 4.5429137420331891, "slope": 22.731184858367289}}}