{"cutoff": 6.5, "Gs": {"Pd": [{"eta": 0.05, "type": "G2", "element": "Cu"}, {"eta": 0.05, "type": "G2", "element": "Pd"}, {"eta": 2.0, "type": "G2", "element": "Cu"}, {"eta": 2.0, "type": "G2", "element": "Pd"}, {"eta": 4.0, "type": "G2", "element": "Cu"}, {"eta": 4.0, "type": "G2", "element": "Pd"}, {"eta": 8.0, "type": "G2", "element": "Cu"}, {"eta": 8.0, "type": "G2", "element": "Pd"}, {"eta": 20.0, "type": "G2", "element": "Cu"}, {"eta": 20.0, "type": "G2", "element": "Pd"}, {"eta": 40.0, "type": "G2", "element": "Cu"}, {"eta": 40.0, "type": "G2", "element": "Pd"}, {"eta": 80.0, "type": "G2", "element": "Cu"}, {"eta": 80.0, "type": "G2", "element": "Pd"}, {"zeta": 1.0, "elements": ["Cu", "Cu"], "type": "G4", "gamma": 1.0, "eta": 0.005}, {"zeta": 1.0, "elements": ["Cu", "Pd"], "type": "G4", "gamma": 1.0, "eta": 0.005}, {"zeta": 1.0, "elements": ["Pd", "Pd"], "type": "G4", "gamma": 1.0, "eta": 0.005}, {"zeta": 1.0, "elements": ["Cu", "Cu"], "type": "G4", "gamma": -1.0, "eta": 0.005}, {"zeta": 1.0, "elements": ["Cu", "Pd"], "type": "G4", "gamma": -1.0, "eta": 0.005}, {"zeta": 1.0, "elements": ["Pd", "Pd"], "type": "G4", "gamma": -1.0, "eta": 0.005}, {"zeta": 2.0, "elements": ["Cu", "Cu"], "type": "G4", "gamma": 1.0, "eta": 0.005}, {"zeta": 2.0, "elements": ["Cu", "Pd"], "type": "G4", "gamma": 1.0, "eta": 0.005}, {"zeta": 2.0, "elements": ["Pd", "Pd"], "type": "G4", "gamma": 1.0, "eta": 0.005}, {"zeta": 2.0, "elements": ["Cu", "Cu"], "type": "G4", "gamma": -1.0, "eta": 0.005}, {"zeta": 2.0, "elements": ["Cu", "Pd"], "type": "G4", "gamma": -1.0, "eta": 0.005}, {"zeta": 2.0, "elements": ["Pd", "Pd"], "type": "G4", "gamma": -1.0, "eta": 0.005}, {"zeta": 4.0, "elements": ["Cu", "Cu"], "type": "G4", "gamma": 1.0, "eta": 0.005}, {"zeta": 4.0, "elements": ["Cu", "Pd"], "type": "G4", "gamma": 1.0, "eta": 0.005}, {"zeta": 4.0, "elements": ["Pd", "Pd"], "type": "G4", "gamma": 1.0, "eta": 0.005}, {"zeta": 4.0, "elements": ["Cu", "Cu"], "type": "G4", "gamma": -1.0, "eta": 0.005}, {"zeta": 4.0, "elements": ["Cu", "Pd"], "type": "G4", "gamma": -1.0, "eta": 0.005}, {"zeta": 4.0, "elements": ["Pd", "Pd"], "type": "G4", "gamma": -1.0, "eta": 0.005}], "Cu": [{"eta": 0.05, "type": "G2", "element": "Cu"}, {"eta": 0.05, "type": "G2", "element": "Pd"}, {"eta": 2.0, "type": "G2", "element": "Cu"}, {"eta": 2.0, "type": "G2", "element": "Pd"}, {"eta": 4.0, "type": "G2", "element": "Cu"}, {"eta": 4.0, "type": "G2", "element": "Pd"}, {"eta": 8.0, "type": "G2", "element": "Cu"}, {"eta": 8.0, "type": "G2", "element": "Pd"}, {"eta": 20.0, "type": "G2", "element": "Cu"}, {"eta": 20.0, "type": "G2", "element": "Pd"}, {"eta": 40.0, "type": "G2", "element": "Cu"}, {"eta": 40.0, "type": "G2", "element": "Pd"}, {"eta": 80.0, "type": "G2", "element": "Cu"}, {"eta": 80.0, "type": "G2", "element": "Pd"}, {"zeta": 1.0, "elements": ["Cu", "Cu"], "type": "G4", "gamma": 1.0, "eta": 0.005}, {"zeta": 1.0, "elements": ["Cu", "Pd"], "type": "G4", "gamma": 1.0, "eta": 0.005}, {"zeta": 1.0, "elements": ["Pd", "Pd"], "type": "G4", "gamma": 1.0, "eta": 0.005}, {"zeta": 1.0, "elements": ["Cu", "Cu"], "type": "G4", "gamma": -1.0, "eta": 0.005}, {"zeta": 1.0, "elements": ["Cu", "Pd"], "type": "G4", "gamma": -1.0, "eta": 0.005}, {"zeta": 1.0, "elements": ["Pd", "Pd"], "type": "G4", "gamma": -1.0, "eta": 0.005}, {"zeta": 2.0, "elements": ["Cu", "Cu"], "type": "G4", "gamma": 1.0, "eta": 0.005}, {"zeta": 2.0, "elements": ["Cu", "Pd"], "type": "G4", "gamma": 1.0, "eta": 0.005}, {"zeta": 2.0, "elements": ["Pd", "Pd"], "type": "G4", "gamma": 1.0, "eta": 0.005}, {"zeta": 2.0, "elements": ["Cu", "Cu"], "type": "G4", "gamma": -1.0, "eta": 0.005}, {"zeta": 2.0, "elements": ["Cu", "Pd"], "type": "G4", "gamma": -1.0, "eta": 0.005}, {"zeta": 2.0, "elements": ["Pd", "Pd"], "type": "G4", "gamma": -1.0, "eta": 0.005}, {"zeta": 4.0, "elements": ["Cu", "Cu"], "type": "G4", "gamma": 1.0, "eta": 0.005}, {"zeta": 4.0, "elements": ["Cu", "Pd"], "type": "G4", "gamma": 1.0, "eta": 0.005}, {"zeta": 4.0, "elements": ["Pd", "Pd"], "type": "G4", "gamma": 1.0, "eta": 0.005}, {"zeta": 4.0, "elements": ["Cu", "Cu"], "type": "G4", "gamma": -1.0, "eta": 0.005}, {"zeta": 4.0, "elements": ["Cu", "Pd"], "type": "G4", "gamma": -1.0, "eta": 0.005}, {"zeta": 4.0, "elements": ["Pd", "Pd"], "type": "G4", "gamma": -1.0, "eta": 0.005}]}, "activation": "tanh", "hiddenlayers": {"Pd": [2, 20], "Cu": [2, 20]}, "weights": {"Cu": {"1": [[1000.5398362304956, 121.41844602816646], [-53.85028220113997, 132.12131257832277], [-471.6864246872114, -497.6780001307526], [233.1368111713909, -555.7409957763908], [-1088.0979583745584, 549.847292770596], [-144.65585084329226, 610.4010716753584], [-1477.3558453254743, -147.31480996632934], [-650.2757073315445, -211.15915799422785], [458.3280494299194, -47.98757399593449], [-631.1770921407505, -3.7452839675416785], [589.932764642733, 46.980060088960656], [860.0758682127855, 47.58954499794024], [51.99590413598777, -9.81153926253333], [288.92327916852395, -20.81300597500937], [-356.94129389812883, -185.29549700982255], [687.349052499875, -19.16497578557653], [-512.6673955225622, 212.4807620240602], [429.18247509819963, -51.288027049923826], [-404.9674955563516, 649.5837080003619], [-383.0856525600029, 666.6576720718309], [-459.79778167280614, -58.49401596603292], [740.525969527372, -970.8459674999126], [-154.57301003654686, -905.7247315242925], [719.3967932084344, 224.784930100924], [-940.4577285216805, -569.2097244904595], [242.39256702744467, -798.3055284029537], [262.93572137232644, 171.7931200703097], [-160.5594042020876, 785.4235610845318], [1669.9623921203854, 536.2628303436712], [-610.832675772129, -118.91720422029543], [375.22932365907695, 115.26077413219947], [-1047.860846008761, 273.9093017734249], [814.7363138502944, 15.155515569113478]], "2": [[231.46481763740718, -7.918346615311976, -13.656370664226358, -58.5605415995592, 23.06378310773875, -359.55239483743094, -361.03864088676573, 167.4319048556965, 146.67082480536646, -638.9414365051357, 69.23058205152878, 217.94665520781456, -12.835675688034678, -11.807265972724638, 72.17459419988431, 158.3308849253008, -270.9111642537613, 176.4626255408952, 10.527648319671847, -565.9738487543619], [-27.104895901383998, -20.821083150699934, -1.0603554154860595, 1002.5632713230261, -30.486751569981138, -494.0129676216503, 227.50665107255307, 40.88964874234508, -71.36762210172785, 548.4618258707745, 1324.6901282817535, -258.4049876424429, 5.728178822431287, -273.6131308232889, -13.887112551231128, -742.6278306295494, -80.01349977324573, -202.18912883153726, -144.98158111844396, 615.6298292984316], [-129.4286007419219, -22.92136785631489, -20.365678028632033, 778.9655555668747, 67.19692956512657, 947.287274915032, -529.7214891083298, 195.64340303953887, -70.27645332193894, -34.57644555142975, -1284.2633260186913, -2.729524247447483, 7.868603032974888, -134.7646472340802, 76.81237296509973, 575.3275753563996, -231.6248333583033, 310.39092561057674, 93.9295255487767, 28.303918738858815]], "3": [[86.805089465326], [-40.34458647166365], [-6.192935673263236], [251.6779636690299], [-87.88736688114062], [-394.6876359925098], [-10.971361534613731], [381.6763230205322], [630.6197158625954], [-179.87407653850974], [1046.0890339816249], [-423.9892553973458], [14.060834632577885], [455.9518448744007], [-1.353235956101422], [359.85340420163794], [-5.674050043003618], [106.87328042963816], [415.81057475789345], [844.7340433988011], [-16.19503394322294]]}, "Pd": {"1": [[-32.20091266761727, 95.46783058223336], [-348.95309067444134, -67.39915722682235], [-338.9025550795963, 146.71822698663087], [525.5607209439559, -106.53863811588523], [92.19974723913286, 168.0532001349643], [457.8244606870673, -114.34031453569405], [1011.6818588222432, 156.01664334462686], [-103.2618743435385, -86.58547478877259], [118.07344473114213, 98.28205937294065], [371.44702686534816, 6.616917081942996], [-373.8590570936102, 69.89384985122051], [-263.13395447705915, 84.16753961850111], [-116.33401896105804, 16.856063244054543], [28.024685938510636, 180.6980103203007], [533.0933619257664, -6.249343713635789], [-678.9372883282228, 21.50833976616374], [336.5822383068803, -23.118932436532724], [-71.48675686031395, 59.356449142607715], [-230.24924204479456, -2.3309037408399864], [242.21289090046164, -23.904633260956622], [492.8558515532632, -30.833120522570205], [-604.4305529099614, 31.48320959503171], [183.76933514389648, -27.1531002654321], [-476.81475845059094, 58.7363851919162], [151.450423296905, 0.9048096424156125], [-52.06611589028961, -30.732583989325242], [398.066071961148, -62.999450261335014], [-566.1331135988514, 41.48567758109819], [199.4536470598875, -30.426104297419034], [-800.9055789486497, 41.93248371825152], [515.068152874226, 17.721752350181337], [-443.67566271377274, -49.387580399889906], [-275.8341756714304, -57.336892422218924]], "2": [[140.33134947959599, -168.91823732759653, -60.52658979003646, -154.85419815795453, -46.66410462186103, -232.3484988055491, 155.03858956045147, 213.9819910172162, -92.28895692841675, -119.64717562817376, 143.74955687655168, 91.13708586307206, -382.09875948353255, -253.00113534781397, 177.54397940608882, -71.94304448362467, -23.071847108068255, 130.8170209241696, 58.32349470890625, 67.76622283373838], [-235.7716165530506, -165.07803387751258, 55.59255877443165, 49.9019670509527, 94.95014525059091, -13.885115640479276, 5.547208310432971, -231.88472786141546, 206.6263063272684, 113.69279975311433, -60.53420703616804, -32.33257675245995, -150.2338584179422, 138.29756752952258, -179.22816696357296, 24.852757954531175, -4.392546613296693, -88.67544779931976, -71.1292010822964, -79.20479859751097], [274.45262512948733, 45.00514832710563, 12.001125898572528, 53.2183953969627, 72.5886149259497, -326.28491917040986, 89.92719890703754, -88.42530371118002, -47.046282418157595, 73.62495283596088, -14.451803832517381, -113.29883750141433, 315.7758044220291, 68.48064862847784, -91.83401764633317, 39.78313573642394, 66.37735819470673, -24.78446758570815, -26.471501569212233, -29.652168725875228]], "3": [[8.763047392745698], [-184.4917800984474], [-144.71425072110034], [118.57558869801063], [-101.89895277811975], [77.14667626113975], [-74.5132263067924], [6.052172065078796], [15.035954274126816], [-83.98445609211151], [-88.39134496068156], [-109.72893821064771], [97.50475716329125], [-98.90702699453765], [-36.35251843343644], [136.22856502768548], [727.7639095771731], [-138.3285375072566], [93.73218022727168], [84.79070744053156], [52.0508724709139]]}}, "fingerprints_range": {"Cu": [[0.7355979085179102, 15.55743075082518], [0.17208454571200024, 15.824610224206179], [0.2647337529778042, 9.728035574767311], [0.048289987224936715, 9.183520039100534], [0.08998943476157976, 6.543651351035633], [0.013116604377678287, 5.901293632153394], [0.011086319621036456, 3.4322011143730915], [0.0009677208042695254, 3.058089253340858], [2.8105378597217076e-05, 0.7186722153281908], [3.886297579508524e-07, 0.7702142399843445], [1.0530964208036616e-09, 0.06459500411004929], [8.495312182045297e-13, 0.09579851951537856], [1.4696933730671603e-18, 0.0005969806159118927], [4.059438105570023e-24, 0.0014999082499671163], [0.50034203926832, 586.0279136978755], [2.8969921783012786, 1339.0774553779588], [0.0, 680.2199829665379], [0.623397651130686, 430.46949002501225], [2.2581612173512284, 933.9576344679633], [0.11622805422127631, 505.84680013293473], [0.18504763958633103, 428.8432803118022], [1.7871978465575518, 999.1121607682313], [0.0, 497.0153279237612], [0.21809387928730953, 273.284856638939], [1.3209770091224067, 593.9923398582351], [0.06881080565862441, 322.6421450901536], [0.020560848842925673, 287.61510794586883], [0.799631268139842, 694.3948342368042], [0.0, 333.734781480117], [0.03697254301515187, 160.4359473839458], [0.665959989982916, 348.9904146530375], [0.004300675351054025, 189.85900104165898]], "Pd": [[0.17208454571200046, 15.82461022420618], [0.7355978047404241, 15.557430750825183], [0.04828998722493681, 9.183520039100532], [0.2647337529778042, 9.72803557476731], [0.01311660437767832, 5.901293632153396], [0.08998943476157976, 6.543651351035635], [0.000967720804269529, 3.058089253340857], [0.011086319621036456, 3.4322011143730906], [3.8862975795085565e-07, 0.770214239984344], [2.8105378597217076e-05, 0.7186722153281916], [8.495312182045429e-13, 0.09579851951537853], [1.0530949854903416e-09, 0.06459500411004933], [4.059438105570144e-24, 0.0014999082499671157], [1.469689571940093e-18, 0.0005969806159118931], [0.0, 680.2199829665362], [2.8969921783012804, 1339.0774553779634], [0.50034203926832, 586.0279136978755], [0.11622805422127645, 505.8468001329346], [2.2581612173512298, 933.9576344679631], [0.6233975439578614, 430.46949002501225], [0.0, 497.01532792376423], [1.7871978465575515, 999.1121607682309], [0.18504763958633114, 428.8432803118022], [0.06881080565862441, 322.6421450901558], [1.3209770091224076, 593.9923398582329], [0.21809382696856305, 273.284856638939], [0.0, 333.73478148011566], [0.799631268139842, 694.3948342368044], [0.020560848842925677, 287.61510794586883], [0.004300675351054025, 189.85900104165927], [0.6659599899829165, 348.9904146530362], [0.03697252924305966, 160.4359473839458]]}, "fingerprints_tag": 1, "scalings": {"Cu": {"intercept": -178.09288407898217, "slope": -160.71681622264526}, "Pd": {"intercept": -178.10518681482529, "slope": -185.77874004553763}}}