{"cutoff": 6.5, "Gs": {"Pd": [{"eta": 0.05, "type": "G2", "element": "Cu"}, {"eta": 0.05, "type": "G2", "element": "Pd"}, {"eta": 4.0, "type": "G2", "element": "Cu"}, {"eta": 4.0, "type": "G2", "element": "Pd"}, {"eta": 20.0, "type": "G2", "element": "Cu"}, {"eta": 20.0, "type": "G2", "element": "Pd"}, {"eta": 80.0, "type": "G2", "element": "Cu"}, {"eta": 80.0, "type": "G2", "element": "Pd"}, {"zeta": 1.0, "elements": ["Cu", "Cu"], "type": "G4", "gamma": 1.0, "eta": 0.005}, {"zeta": 1.0, "elements": ["Cu", "Pd"], "type": "G4", "gamma": 1.0, "eta": 0.005}, {"zeta": 1.0, "elements": ["Pd", "Pd"], "type": "G4", "gamma": 1.0, "eta": 0.005}, {"zeta": 1.0, "elements": ["Cu", "Cu"], "type": "G4", "gamma": -1.0, "eta": 0.005}, {"zeta": 1.0, "elements": ["Cu", "Pd"], "type": "G4", "gamma": -1.0, "eta": 0.005}, {"zeta": 1.0, "elements": ["Pd", "Pd"], "type": "G4", "gamma": -1.0, "eta": 0.005}, {"zeta": 4.0, "elements": ["Cu", "Cu"], "type": "G4", "gamma": 1.0, "eta": 0.005}, {"zeta": 4.0, "elements": ["Cu", "Pd"], "type": "G4", "gamma": 1.0, "eta": 0.005}, {"zeta": 4.0, "elements": ["Pd", "Pd"], "type": "G4", "gamma": 1.0, "eta": 0.005}, {"zeta": 4.0, "elements": ["Cu", "Cu"], "type": "G4", "gamma": -1.0, "eta": 0.005}, {"zeta": 4.0, "elements": ["Cu", "Pd"], "type": "G4", "gamma": -1.0, "eta": 0.005}, {"zeta": 4.0, "elements": ["Pd", "Pd"], "type": "G4", "gamma": -1.0, "eta": 0.005}], "Cu": [{"eta": 0.05, "type": "G2", "element": "Cu"}, {"eta": 0.05, "type": "G2", "element": "Pd"}, {"eta": 4.0, "type": "G2", "element": "Cu"}, {"eta": 4.0, "type": "G2", "element": "Pd"}, {"eta": 20.0, "type": "G2", "element": "Cu"}, {"eta": 20.0, "type": "G2", "element": "Pd"}, {"eta": 80.0, "type": "G2", "element": "Cu"}, {"eta": 80.0, "type": "G2", "element": "Pd"}, {"zeta": 1.0, "elements": ["Cu", "Cu"], "type": "G4", "gamma": 1.0, "eta": 0.005}, {"zeta": 1.0, "elements": ["Cu", "Pd"], "type": "G4", "gamma": 1.0, "eta": 0.005}, {"zeta": 1.0, "elements": ["Pd", "Pd"], "type": "G4", "gamma": 1.0, "eta": 0.005}, {"zeta": 1.0, "elements": ["Cu", "Cu"], "type": "G4", "gamma": -1.0, "eta": 0.005}, {"zeta": 1.0, "elements": ["Cu", "Pd"], "type": "G4", "gamma": -1.0, "eta": 0.005}, {"zeta": 1.0, "elements": ["Pd", "Pd"], "type": "G4", "gamma": -1.0, "eta": 0.005}, {"zeta": 4.0, "elements": ["Cu", "Cu"], "type": "G4", "gamma": 1.0, "eta": 0.005}, {"zeta": 4.0, "elements": ["Cu", "Pd"], "type": "G4", "gamma": 1.0, "eta": 0.005}, {"zeta": 4.0, "elements": ["Pd", "Pd"], "type": "G4", "gamma": 1.0, "eta": 0.005}, {"zeta": 4.0, "elements": ["Cu", "Cu"], "type": "G4", "gamma": -1.0, "eta": 0.005}, {"zeta": 4.0, "elements": ["Cu", "Pd"], "type": "G4", "gamma": -1.0, "eta": 0.005}, {"zeta": 4.0, "elements": ["Pd", "Pd"], "type": "G4", "gamma": -1.0, "eta": 0.005}]}, "activation": "tanh", "hiddenlayers": {"Pd": [3, 30], "Cu": [3, 30]}, "weights": {"Cu": {"1": [[-0.006864298987099338, 0.03379450115411341, 0.045843782488374424], [-0.06770487792781331, 0.07493567828474156, 0.051514202412399276], [-0.06318632876032935, 0.031156555489997684, 0.03870459146775844], [-0.046224247083548435, -0.07199712673442252, -0.07087153985209493], [-0.044681823739348925, 0.006228027087340951, 0.014101687290053233], [-0.05617158271292546, -0.0030486670946073824, 0.0660535816138076], [-0.0329711729426364, 0.06906139333962384, 0.0747028326005605], [-0.04654413506434059, 0.026934284355463703, -0.009340171038047823], [0.03970895842150585, 0.04805517523912707, -0.0731421922058157], [0.048328872170174966, -0.07115991678070513, 0.06636255382008403], [0.04896735144255997, -0.0361500237884203, 0.029912345488237], [-0.009849731343339233, 0.051800996588913226, -0.011119524243746334], [-0.04672775152839238, 0.02948691330632708, 0.024098900863008074], [0.020940815816713115, 0.054234446381332915, 0.03309665133256577], [-0.03290054027143111, -0.05299011655327755, -0.022655861751884887], [-0.0725777904992299, 0.029234189070020275, 0.001148867267258838], [-0.058848825618072476, -0.015098842627457698, 0.06852752827740329], [0.06918728324401195, 0.021414315425537678, -0.019786594073809317], [-0.015513162909888141, -0.003170752332013166, 0.03174467387366202], [-0.005219959575988892, 0.029525930579285486, -0.0393674497365192], [0.0, 0.0, 0.0]], "2": [[0.2989995066314014, 0.23090750804774718, 0.11134929619366785, -0.3061116649274147, -0.019352421207224135, 0.19525217154787555, -0.27063363974991095, 0.35278720386883844, -0.17580076368188025, -0.4816761772338384, -0.05321795007143004, -0.22836642061283363, -0.2747547570844282, 0.08266702070565946, 0.05292740876768176, -0.05997920962268477, -0.43808313992254855, -0.01680039358262153, 0.4893785219711402, 0.055357070587726875, -0.2529639727785179, 0.11963785007217054, -0.28083784695067804, -0.02722333729249038, -0.23869353896572432, -0.08686541884547694, -0.2522151610948715, -0.24277436176747968, -0.14800670162666585, 0.4045902943742057], [0.23328637915863926, 0.24505628305626082, 0.1844679469540017, -0.27695394573527476, 0.28606642029485196, -0.3603250506160077, 0.4538197376824127, -0.14624712814893914, -0.24017837524428776, 0.26768779212815175, 0.45277897854549864, -0.40631554721680274, 0.10605787806178979, -0.12128004886249844, 0.1981773828528064, -0.2887240507939427, 0.4826836060897769, -0.43591484907419775, 0.01511821206268249, -0.18982322582277822, -0.1992766032825083, 0.2996951613342914, -0.3450333916050249, -0.44189786780289697, -0.0649334731370389, 0.46089653893044813, 0.2664429517809609, -0.3234408744315964, -0.37414578804625864, -0.38134701374687796], [0.4002723158351499, -0.015806737506714574, 0.06398466523045954, -0.27761641933580494, 0.37006348535116373, -0.427009777891433, 0.2546354940074981, 0.4890065902119973, -0.27099606079302596, 0.10442639820506161, 0.4691065281969238, -0.11665699648621919, 0.30114712270410215, -0.04316449836845038, 0.18931273668883297, -0.42442125999289937, 0.29897708245811905, 0.19702193330466977, 0.2656981836770477, -0.47791803492028173, -0.268404586949354, 0.32039176469539365, 0.3194500244670966, -0.32898660669400415, -0.14732390278577, 0.427316389464102, 0.14052493059007454, -0.03490365099301296, 0.29759172014172863, -0.43937660428427017], [0.0, 0.0, 0.0, 0.0, 0.0, 0.0, 0.0, 0.0, 0.0, 0.0, 0.0, 0.0, 0.0, 0.0, 0.0, 0.0, 0.0, 0.0, 0.0, 0.0, 0.0, 0.0, 0.0, 0.0, 0.0, 0.0, 0.0, 0.0, 0.0, 0.0]], "3": [[-0.02848456489214303], [-0.02104413706082077], [-0.014722218762209617], [0.034613416668309194], [0.04136863633771472], [0.005100721885526238], [-0.009368660613832638], [0.023199685185210803], [0.006857259032590324], [-0.03969556422154115], [0.04259397110168009], [0.013924665233903746], [-0.009952668527054155], [0.021666046358697663], [-0.03994970226661541], [-0.037637478144934934], [-0.03128031945341703], [0.022580547504573598], [0.046177855029941026], [-0.022951831080580933], [0.028657308712344814], [-0.03274572527595763], [0.017157962581623748], [-0.017400228612756544], [0.01440949898020491], [0.025768888509973192], [-0.023558888214600084], [-0.02659890451505036], [-0.006468634753624816], [0.02971168009374002], [0.0]]}, "Pd": {"1": [[-0.01820741780354252, -0.06364311025066953, -0.040275886043971434], [0.06963879477936104, 0.022678090009749213, -0.025637781152347196], [-0.04897945317491158, 0.030086042171552918, 0.03062237813321711], [-0.07009080587774645, -0.035935082383380855, 0.0005242930617018471], [0.023618507717664092, -0.06988317810360743, -0.061133554017243394], [0.05466816955945643, -0.008010400671292384, 0.02934732735393554], [0.015482660961167252, -0.04757885277425798, 0.06740433982963394], [-0.04784776045214786, 0.00971872343603801, 0.03015296556591579], [0.05056691407802581, 0.009848499007380815, -0.06980331622896534], [-0.016792691424285924, 0.0702729680724954, -0.05685503390096718], [-0.04399070384788621, 0.06590112060386231, -0.03804105314255538], [-0.0496478111051739, -0.019107973231288718, -0.05735104222107802], [0.020106377697218764, 0.005828464326431013, -0.03129507825212944], [-0.07467998083960835, 0.04417230696551806, -0.06381327017879171], [-0.04774346809501903, -0.029452435350409173, 0.01866385222051116], [0.013264450808490341, -0.07107284058184106, -0.06026535998315516], [-0.0018956745287874166, 0.0068332363950823205, 0.030720753973273993], [0.044044475197462005, 0.05037986575748628, -0.015379229076890155], [0.021259944300391825, 0.032346523695724216, -0.0038321874589686555], [0.004711435144092849, 0.0665317383535997, 0.0504113349328013], [0.0, 0.0, 0.0]], "2": [[-0.18018281313797102, -0.3079849704882638, -0.39017072160216193, -0.3722966288701709, 0.1583633899512945, -0.278712094385439, -0.2066115000727642, 0.36053559711239946, -0.21868208863518523, -0.118195144952423, -0.41366759416486465, -0.33081235678037924, 0.09054109908442487, -0.006461635200847082, 0.2928199972721406, 0.48114065366564784, 0.19284935011437243, -0.21083380740895175, -0.3867193386279577, 0.27613425720806906, 0.39258561390511093, -0.20131731246823503, -0.1189625915547523, 0.2078250586765008, 0.4561841922864208, 0.4735014224697971, -0.14574584093533538, 0.420975706897185, -0.10291194424323147, 0.19739615642861308], [0.2951425554114553, 0.28477733366190316, 0.4614518044873114, 0.3167978332403273, 0.3982977481270351, 0.37223547086247344, -0.06570523012767948, 0.07907688154916948, 0.1479921263581464, 0.26891317319473473, -0.16374561180827818, -0.38629948239020995, 0.16040263021033285, 0.0028822667208128205, 0.17243146540422438, -0.34026546131848934, 0.27550200275104586, -0.287058558874426, -0.28354861278466503, 0.248692648891512, 0.41037789849076345, -0.13195326765134152, -0.16427589566151657, 0.2569461604260447, 0.4783121796337535, -0.319251331443276, 0.4869664997258779, -0.3545884877632014, 0.3942195320531501, -0.47387803341747003], [0.03620151527781579, -0.06479195474782429, -0.29995842437840214, -0.16220623323394956, -0.4365906169191245, -0.3433406174251429, 0.05987028977201003, -0.18623235241479463, 0.17125836721287668, -0.3590674599703051, 0.48385797459129476, -0.0910590750613609, 0.25146296753400477, 0.2709349518082246, -0.17452382448028259, -0.1557768706382714, 0.28199189051710793, -0.17764561478711527, -0.20199535682757386, 0.42976458074141255, 0.16831646172121584, 0.27033360168667386, 0.02328292753439043, -0.0948215217891828, 0.042753945121170034, 0.11911493409064766, 0.12156773134361487, 0.0871264650690311, -0.47020917665106976, -0.2817588769022408], [0.0, 0.0, 0.0, 0.0, 0.0, 0.0, 0.0, 0.0, 0.0, 0.0, 0.0, 0.0, 0.0, 0.0, 0.0, 0.0, 0.0, 0.0, 0.0, 0.0, 0.0, 0.0, 0.0, 0.0, 0.0, 0.0, 0.0, 0.0, 0.0, 0.0]], "3": [[0.030518032277702598], [0.03088388542760065], [0.031809791369090165], [0.04772686272650305], [-0.027190851294201936], [-0.01965106851356542], [-0.015903426571897465], [0.0009389510780645344], [-0.020938460608084], [0.03775662400395938], [-0.027466277874139057], [-0.04981890577103069], [-0.04310393522919648], [-0.009141654182857853], [-0.01117767093699766], [-0.0016330369413797077], [-0.04494615976930493], [0.04219046649057841], [-0.0498312492989499], [-0.04774565565940625], [0.036632869520167935], [-0.011054430217103853], [0.0038142643363380593], [0.013395503559713612], [0.028605421803503922], [-0.04279231565893321], [-0.007978007573467838], [0.030334218158874784], [0.006028619009670846], [0.010530790634047063], [0.0]]}}, "fingerprints_range": {"Cu": [[0.0, 19.717528184980367], [0.0, 12.954617486692312], [0.0, 6.763827902345048], [0.0, 4.714947330374815], [0.0, 0.4690986508436296], [0.0, 0.3591942437989357], [0.0, 8.091157146993111e-05], [0.0, 6.70824590060896e-05], [0.0, 801.3693395965696], [0.0, 185.39781543928953], [0.0, 380.6581764033588], [0.0, 607.2663840318448], [0.0, 231.76903839707245], [0.0, 221.42076155225536], [0.0, 382.67810433385426], [0.0, 75.1704048127164], [0.0, 198.3503394287148], [0.0, 226.15041328755734], [0.0, 104.68820018085577], [0.0, 69.90910953322468]], "Pd": [[0.0, 12.8624897130153], [0.0, 18.849230862512158], [0.0, 4.565811427008994], [0.0, 6.436073106044743], [0.0, 0.31261700513528473], [0.0, 0.42485844093709624], [0.0, 5.453323564168128e-05], [0.0, 5.963922275121878e-05], [0.0, 387.63611918126753], [0.0, 201.06082384923803], [0.0, 768.9373797173059], [0.0, 216.01123836799178], [0.0, 234.91303084909833], [0.0, 579.7588665624862], [0.0, 204.69128069561307], [0.0, 81.20809618623912], [0.0, 368.92772219112385], [0.0, 65.71501674010052], [0.0, 106.06324624063065], [0.0, 215.963130891552]]}, "fingerprints_tag": 1, "scalings": {"Pd": {"slope": 1.0564404855714289, "intercept": -4.603714649857143}, "Cu": {"slope": 1.0564404855714289, "intercept": -4.603714649857143}}}