{"cutoff": 6.5, "Gs": {"Pd": [{"eta": 0.05, "type": "G2", "element": "Cu"}, {"eta": 0.05, "type": "G2", "element": "Pd"}, {"eta": 4.0, "type": "G2", "element": "Cu"}, {"eta": 4.0, "type": "G2", "element": "Pd"}, {"eta": 20.0, "type": "G2", "element": "Cu"}, {"eta": 20.0, "type": "G2", "element": "Pd"}, {"eta": 80.0, "type": "G2", "element": "Cu"}, {"eta": 80.0, "type": "G2", "element": "Pd"}, {"zeta": 1.0, "elements": ["Cu", "Cu"], "type": "G4", "gamma": 1.0, "eta": 0.005}, {"zeta": 1.0, "elements": ["Cu", "Pd"], "type": "G4", "gamma": 1.0, "eta": 0.005}, {"zeta": 1.0, "elements": ["Pd", "Pd"], "type": "G4", "gamma": 1.0, "eta": 0.005}, {"zeta": 1.0, "elements": ["Cu", "Cu"], "type": "G4", "gamma": -1.0, "eta": 0.005}, {"zeta": 1.0, "elements": ["Cu", "Pd"], "type": "G4", "gamma": -1.0, "eta": 0.005}, {"zeta": 1.0, "elements": ["Pd", "Pd"], "type": "G4", "gamma": -1.0, "eta": 0.005}, {"zeta": 4.0, "elements": ["Cu", "Cu"], "type": "G4", "gamma": 1.0, "eta": 0.005}, {"zeta": 4.0, "elements": ["Cu", "Pd"], "type": "G4", "gamma": 1.0, "eta": 0.005}, {"zeta": 4.0, "elements": ["Pd", "Pd"], "type": "G4", "gamma": 1.0, "eta": 0.005}, {"zeta": 4.0, "elements": ["Cu", "Cu"], "type": "G4", "gamma": -1.0, "eta": 0.005}, {"zeta": 4.0, "elements": ["Cu", "Pd"], "type": "G4", "gamma": -1.0, "eta": 0.005}, {"zeta": 4.0, "elements": ["Pd", "Pd"], "type": "G4", "gamma": -1.0, "eta": 0.005}], "Cu": [{"eta": 0.05, "type": "G2", "element": "Cu"}, {"eta": 0.05, "type": "G2", "element": "Pd"}, {"eta": 4.0, "type": "G2", "element": "Cu"}, {"eta": 4.0, "type": "G2", "element": "Pd"}, {"eta": 20.0, "type": "G2", "element": "Cu"}, {"eta": 20.0, "type": "G2", "element": "Pd"}, {"eta": 80.0, "type": "G2", "element": "Cu"}, {"eta": 80.0, "type": "G2", "element": "Pd"}, {"zeta": 1.0, "elements": ["Cu", "Cu"], "type": "G4", "gamma": 1.0, "eta": 0.005}, {"zeta": 1.0, "elements": ["Cu", "Pd"], "type": "G4", "gamma": 1.0, "eta": 0.005}, {"zeta": 1.0, "elements": ["Pd", "Pd"], "type": "G4", "gamma": 1.0, "eta": 0.005}, {"zeta": 1.0, "elements": ["Cu", "Cu"], "type": "G4", "gamma": -1.0, "eta": 0.005}, {"zeta": 1.0, "elements": ["Cu", "Pd"], "type": "G4", "gamma": -1.0, "eta": 0.005}, {"zeta": 1.0, "elements": ["Pd", "Pd"], "type": "G4", "gamma": -1.0, "eta": 0.005}, {"zeta": 4.0, "elements": ["Cu", "Cu"], "type": "G4", "gamma": 1.0, "eta": 0.005}, {"zeta": 4.0, "elements": ["Cu", "Pd"], "type": "G4", "gamma": 1.0, "eta": 0.005}, {"zeta": 4.0, "elements": ["Pd", "Pd"], "type": "G4", "gamma": 1.0, "eta": 0.005}, {"zeta": 4.0, "elements": ["Cu", "Cu"], "type": "G4", "gamma": -1.0, "eta": 0.005}, {"zeta": 4.0, "elements": ["Cu", "Pd"], "type": "G4", "gamma": -1.0, "eta": 0.005}, {"zeta": 4.0, "elements": ["Pd", "Pd"], "type": "G4", "gamma": -1.0, "eta": 0.005}]}, "activation": "tanh", "hiddenlayers": {"Pd": [3, 30], "Cu": [3, 30]}, "weights": {"Cu": {"1": [[4.50498685796515, -0.2781521387696, -0.009136569532610595], [-6.638582632933364, -0.4140048807550729, 0.30424721417198086], [5.744034839051679, -0.14339460164919204, -0.3090208528924476], [8.013285036542797, -0.12583870179263812, -0.21172273568566233], [-0.8368726551541371, 0.0946953238537997, 0.19025481461047858], [-8.064699647936944, 0.018095172426433277, -0.06369005155872601], [0.8419958407606446, -0.001678514423427266, 0.1540392013680895], [13.063113364057507, 0.01509000271502221, -0.2742511237546989], [60.04211686496076, -0.9328262140754383, 4.907858973452972], [14.694020035289398, -1.075768700172802, -1.8631699036334703], [-64.8311060623615, -0.6314206031473247, -2.569431466094779], [-30.93340452382487, 2.2648028676034646, -18.707256611673216], [32.26946251636112, 2.8449357086148312, -40.88242055923193], [64.67930718811469, 2.6265099562265353, -28.996797803039232], [-9.81588386169618, 0.6118504802374906, -3.711842200428224], [19.515219121869773, 0.20685175688935972, 4.356703246106389], [30.69924288424599, -0.033423235599881716, 4.195879338990537], [-27.820365571908106, -1.4735789588943586, 17.184929596532573], [-51.0406691702931, -2.803769474469831, 38.73156266876041], [-34.85879440071864, -1.3871595917681312, 25.96165436127082], [13.143044792807743, 0.043259448248322854, -2.5061652292423773]], "2": [[-0.5937657483963541, 10.177588532786066, -0.42409833751269366, 2.122316512210023, -22.69093402289763, 2.9138394937481467, 0.015546425970764801, 2.844893230942551, 0.4332701962824156, -33.62831531172487, -13.448202955657532, 9.925884144773134, 5.959184005649544, 0.6247651663721292, -0.40847429662420176, -2.7625546120201574, -16.517180383239637, 3.0684018333117313, -2.0397921430742056, 0.0468219039784902, -1.9504789909749758, 5.698468416887172, -2.7235180566143384, 19.226945502777433, -2.4938647564124894, -4.605353120394694, 2.5598532425484453, 16.982363488022177, -4.375193638491005, 1.0493966918114084], [-28.90202283949511, 6.878014944724558, -4.958645289415429, 3.9191689539014978, -5.468971529531347, -11.589155496522926, 14.213055234659123, 9.497445646716423, -42.08602567558159, -5.797755371286497, -6.722088983759603, -14.30460498059746, 8.751988854365715, 3.198712231259943, 34.72955093783193, -8.707325254145644, -15.685374819921096, 3.966534121722474, -7.406430491289047, -1.9153261289156616, 2.3262003429480766, -0.7575474480182692, -11.19719676316409, 2.189848099746813, -4.793795594102352, -2.999484346811828, 5.554695515071211, 6.7401385785216315, -11.600483029890192, 3.6171301790558115], [70.6135864420261, -0.806441911184381, 17.449185039945956, -11.069560137940352, -7.449241684449792, -5.985428100648104, -24.450596398231546, -19.974301794835295, 62.49327976727823, -32.53074794106729, -1.069677991838954, 61.170144731065164, -6.022846759726111, -4.829594506132501, -85.17135889516713, 21.25961124574102, -32.73729698984658, 1.6837868539866148, 16.37952874653425, 16.906935664829884, -25.551215856711753, 12.915908822284157, 10.300398073461155, 20.078988720526915, -1.628054136348621, -1.7282129351074527, -15.48577441431896, 34.451966044971, 29.928643786899915, -0.6495990681210636], [66.94876773291506, -9.154159445010976, 13.267172179175839, -9.681943649507575, 13.376961037465009, -19.983761544135863, -21.38956801476921, -19.1880709432211, 71.5796371284284, -1.2143377558796566, 10.508926916715644, 48.186205237894654, -12.263295543185219, -5.685747714351917, -81.6350084703944, 19.447441004879163, -24.471403245519213, 2.348063542365007, 14.717767657325975, 13.100800863079428, -18.743760110489855, 6.904248889036588, 7.934346325162157, -2.6020470146691905, -2.5158267714722147, 2.234195998645875, -13.325723515214728, 16.330593191416014, 26.454303106237578, 0.16970050160749192]], "3": [[6.690925001918186], [-6.02955133690689], [-3.283545107887171], [7.790788420069666], [0.7844496380857822], [-1.8355641289250881], [-0.34968495887659734], [-1.0329767528907061], [10.81013922559314], [-0.16053890587635325], [-4.855841963709507], [0.2403079901622354], [-6.31961819118414], [5.446712679868632], [5.735790610181731], [3.6853525902025113], [0.14990307990935361], [-2.4296298714800946], [-4.5103977261213695], [1.897306905070679], [-2.0915359362637593], [-0.9347048651498614], [0.6748000600465304], [15.904842777375961], [-3.554308422329277], [-3.261033904125069], [-5.699027764560113], [-0.45993251628312515], [0.7058417893048146], [-2.7276084223047103], [-0.5025557637363661]]}, "Pd": {"1": [[1.8884787600291242, 0.26467132011566774, -0.35942007928193787], [2.9226107349326433, 0.30946993850824556, -0.09318867031315708], [-1.8837105152940916, -0.21429605565518592, -0.1564086726550992], [-2.3559847130514155, -0.25661743658666414, -0.19846174305284148], [-0.4991016306657151, 0.036680523443139226, -0.19599584868465547], [0.12245109294912158, 0.05960182110129025, -0.022925892096870494], [0.0324101383206483, 1.516518478302581, 0.12097389653198076], [-0.08389418968626353, 0.7512285692587326, 0.05022506367446071], [17.484348536616416, 5.4517758572862105, -7.056237424881021], [28.39452478654988, 11.486253491726483, -14.611019407785205], [8.895537479654232, 5.7593470964666915, -8.06883339158279], [-22.918124787713026, -9.781866339946031, 14.672190641145777], [-43.73833235170905, -16.572692276774596, 23.892208395528495], [-13.378871284453673, -8.116199774666864, 12.831780650547], [-10.516240642732184, -2.854323994890464, 3.037736722899356], [-16.77811491054373, -6.299122044619747, 7.348297786642402], [-4.248553641178482, -3.2193946121429446, 4.380837518029741], [18.21795979223257, 6.813146241140223, -9.720641100350587], [28.357471600715062, 11.933205460194532, -17.725767002539584], [10.410859547952011, 5.255197793932771, -8.403793122502146], [-1.933533932159044, 3.6529890565731393, 0.03596679497522774]], "2": [[-22.05092675241838, -2.0565762712212963, -5.457474902902325, -6.49426581179174, -23.175995137144568, 3.140157891678072, -6.507260125351583, -1.9624321829710851, 11.62432695704985, -17.400913223582958, 0.26346630968143336, 14.523592963832439, -0.8565260374169635, -4.298355697101232, -0.23287606991769955, -2.6996842809388193, -2.7926369263641537, -10.080695758934937, -5.37846056242601, -7.532113702212946, -3.057792453295283, -22.152012879347943, 6.824607810561545, -23.169708303991104, -8.912195030061989, 4.686047574185713, 11.800662164820304, -11.931270608864661, -0.6408620184946213, -6.14659111419472], [4.874626183118708, -8.418793508823825, -22.244673444921425, 5.982398272286389, 31.4247559048223, 1.0185379325094845, 8.582741008979973, 19.980683173466936, -7.087226278565594, 0.3596973153399369, -24.157004352736962, 33.19335365810863, -8.102200568239269, -16.975113594400643, -10.57169691781199, -5.633561483143252, -55.939071093651364, 11.169234909575712, -21.829529749727723, 34.33946364569691, 19.665899490735242, -25.650520386380105, -21.577552361298498, 32.37842515616383, 8.16131856589697, 1.6537146965456362, -5.19933014394677, 4.1126699999960685, 13.711867741792691, -14.588567540957644], [-20.194205315901215, 20.203719754305546, -1.901636793784656, 12.759695612081082, 10.31867972521095, 6.052823289429764, -3.6550157508798105, 4.953335509510226, 1.9379268950999038, -4.37673330859742, 4.539397100595444, -7.357936532698794, -2.2752077548238994, -4.809738678034702, -9.97352510273885, -6.448431813602265, -1.5561476180914202, -1.0991645610054033, -5.526559350148334, 2.1954222908192076, 4.138061963466139, -33.492079228240414, 1.411166885254355, 10.402664974160642, -0.9218932349782711, 1.0850116438823223, 14.975512446677786, -13.551639887376023, 4.406518880226598, 6.208002349247955], [-14.852640660973966, -10.442726195575386, 13.965478976991289, -7.377078153261366, -43.93968400121785, 1.755258388974386, -11.003362872504376, -21.116374552461487, 14.409417205392955, -14.901074605318648, 20.215315973184623, -31.13135438202134, 5.683712214389805, 10.703849001143467, 6.706581158719274, 0.9945915722726049, 46.5845929258653, -17.295702861930668, 14.454821184631914, -34.04048101492999, -22.178750153453784, -6.823084241638595, 22.514150904833954, -44.7795359361623, -14.272437095859265, -0.8127655834139526, 20.649574834142825, -19.579062738767977, -15.09216055724538, 2.5278065224434276]], "3": [[0.30153266412990626], [-9.246759844320088], [6.188278678996909], [-0.1911341489168525], [-2.218956122257834], [0.6364483717705064], [3.147844087214912], [3.589129789523928], [0.5492459838955648], [0.17426285722793236], [1.6288648728925637], [-19.235845241719797], [2.0056706252091967], [-3.124480699868849], [-0.6396667031443796], [0.6944837417604376], [-3.1443288011820822], [1.115889422682776], [1.0691453363427774], [3.060787255336762], [-7.096568842755471], [0.10509839758448566], [5.538750540264037], [2.246425131186643], [-0.5991546229513771], [7.409066973255716], [5.892033580257007], [9.200634025255294], [-5.0191569658655215], [19.897691829748812], [-3.3260312236990637]]}}, "fingerprints_range": {"Cu": [[0.1063750548408017, 15.55743075082518], [0.028202539821623157, 15.824610224206179], [0.0039475029562834815, 6.543651351035633], [0.0009775685586746502, 5.901293632153394], [6.336097831506945e-09, 0.7186722153281908], [1.190287988056906e-09, 0.7702142399843445], [1.1815297550357418e-30, 0.0005969806159118927], [7.875808503354093e-32, 0.0014999082499671163], [0.14542638955905765, 586.0279136978755], [1.0639431752062123, 1339.0774553779588], [-2.1232459816643144e-18, 680.2199829665379], [0.21753575331713212, 430.46949002501225], [0.7672793241028637, 933.9576344679633], [0.01912449962367862, 505.84680013293473], [0.009653362355969163, 287.61510794586883], [0.3377739380614941, 694.3948342368042], [0.0, 333.734781480117], [0.03697254301515187, 160.4359473839458], [0.23682355773155236, 348.9904146530375], [0.0018168617087065356, 189.85900104165898]], "Pd": [[0.028202539821623157, 15.82461022420618], [0.1063750548408017, 15.557430750825183], [0.0009775685586746502, 5.901293632153396], [0.0039475029562834815, 6.543651351035635], [1.190287988056906e-09, 0.770214239984344], [6.336097831506945e-09, 0.7186722153281916], [7.875808503354093e-32, 0.0014999082499671157], [1.1815297550357418e-30, 0.0005969806159118931], [-2.1232459816643144e-18, 680.2199829665362], [1.0639431752062118, 1339.0774553779634], [0.14542638955905765, 586.0279136978755], [0.01912449962367862, 505.8468001329346], [0.7672793241028637, 933.9576344679631], [0.21753575331713212, 430.46949002501225], [0.0, 333.73478148011566], [0.33777393806149464, 694.3948342368044], [0.009653362355969173, 287.61510794586883], [0.0018168617087065421, 189.85900104165927], [0.23682355773155245, 348.9904146530362], [0.03697252924305966, 160.4359473839458]]}, "fingerprints_tag": 1, "scalings": {"Cu": {"intercept": 4.450669830574066, "slope": 15.724084598691247}, "Pd": {"intercept": 4.4506430120520628, "slope": 5.3438021990537807}}}